~o
<STREAMINFO> 1 39
<VECSIZE> 39<NULLD><MFCC_D_A_0><DIAGC>
~h "I"
<BEGINHMM>
<NUMSTATES> 5
<STATE> 2
<MEAN> 39
 -1.026111e+01 1.505057e+00 -3.880072e+00 7.378266e-01 8.162918e-01 -8.979861e+00 2.155142e+00 -6.681970e+00 7.811086e+00 -3.486930e+00 1.389575e+00 -4.794724e+00 6.751662e+01 -1.123241e+00 7.591969e-01 -5.223450e-01 9.809684e-01 -3.709745e-01 -2.338567e-01 8.650326e-01 -1.004401e+00 7.407659e-01 -3.228320e-01 -1.792339e-01 3.646629e-01 9.048592e-01 -1.014146e-01 -8.905876e-02 -1.820600e-02 -6.061318e-02 -1.616360e-02 1.030792e-01 5.491523e-02 6.205081e-02 -6.974915e-02 8.178361e-03 -3.824477e-02 5.623635e-02 -4.303462e-02
<VARIANCE> 39
 7.361874e+01 2.374432e+01 3.549263e+01 4.814392e+01 2.051647e+01 5.297856e+01 4.468706e+01 2.965429e+01 3.552245e+01 2.281787e+01 1.650442e+01 2.727328e+01 1.766421e+01 2.923939e+00 1.401349e+00 1.861965e+00 1.542012e+00 1.790175e+00 2.504117e+00 2.844089e+00 2.330497e+00 3.969687e+00 2.323223e+00 1.910797e+00 2.496787e+00 3.493015e-01 5.149615e-01 2.291379e-01 2.901488e-01 1.924668e-01 3.323555e-01 4.799267e-01 5.632197e-01 5.042004e-01 7.276957e-01 4.534495e-01 3.283323e-01 4.439948e-01 5.472150e-02
<GCONST> 1.109784e+02
<STATE> 3
<MEAN> 39
 -1.489525e+01 3.327013e+00 -4.161111e+00 3.985231e+00 -7.151421e-01 -1.057192e+01 4.354566e+00 -9.908476e+00 9.268682e+00 -4.195671e+00 1.896250e-01 -2.814739e+00 7.048567e+01 -4.682025e-01 1.594529e-01 3.003958e-01 3.124377e-01 -3.559474e-01 -3.663530e-01 1.611033e-01 -4.837711e-01 1.485399e-02 -2.203159e-01 -1.370419e-01 4.229547e-01 5.955485e-01 2.184545e-01 -1.698272e-01 2.294777e-01 -1.553639e-01 -1.896367e-02 1.744136e-02 -2.222302e-01 1.198381e-01 -1.156488e-01 -2.812617e-02 3.986705e-02 -1.369054e-02 -5.229070e-02
<VARIANCE> 39
 4.844470e+01 1.983937e+01 4.067516e+01 3.624805e+01 2.006516e+01 4.572607e+01 4.041644e+01 1.691020e+01 3.102728e+01 2.157708e+01 2.047791e+01 2.417129e+01 9.489346e+00 3.425240e+00 1.795634e+00 2.963912e+00 1.351594e+00 2.275331e+00 2.814510e+00 3.387258e+00 1.361083e+00 2.515226e+00 2.236555e+00 1.467240e+00 1.352453e+00 3.146361e-01 3.535453e-01 3.258690e-01 2.364655e-01 1.631452e-01 4.566215e-01 4.892096e-01 4.573644e-01 2.612203e-01 4.352764e-01 5.001739e-01 3.172561e-01 2.901974e-01 4.587121e-02
<GCONST> 1.059658e+02
<STATE> 4
<MEAN> 39
 -1.359584e+01 2.072566e+00 1.041325e+00 3.591698e+00 -2.974742e+00 -1.422277e+01 2.146983e+00 -1.177403e+01 8.766172e+00 -5.766701e+00 7.924877e-01 -1.069753e+00 7.325507e+01 4.177258e-01 -7.884555e-01 1.630592e+00 -5.839713e-01 -7.127373e-01 -3.620996e-01 -5.778617e-01 1.587675e-01 -5.441837e-01 -4.907649e-01 1.009380e-01 2.618227e-01 4.574363e-01 8.766798e-02 -1.420311e-01 1.142294e-01 -1.332635e-01 -4.658511e-02 1.660153e-01 -1.275793e-01 1.598440e-01 -4.977886e-02 -8.603936e-02 2.725287e-02 -1.236191e-01 -3.983323e-02
<VARIANCE> 39
 3.897575e+01 2.496520e+01 1.120351e+02 3.442892e+01 1.858074e+01 3.797834e+01 4.245321e+01 1.667246e+01 3.014525e+01 1.864760e+01 1.996510e+01 1.652360e+01 7.239010e+00 1.349625e+00 1.960378e+00 3.981952e+00 1.496503e+00 2.032581e+00 2.862006e+00 2.357233e+00 1.749214e+00 1.954203e+00 1.808440e+00 1.584523e+00 1.199120e+00 1.699614e-01 1.601136e-01 1.999879e-01 4.178729e-01 1.680560e-01 2.898313e-01 4.584930e-01 3.400524e-01 2.932298e-01 3.203833e-01 3.475826e-01 3.282822e-01 2.286115e-01 2.402979e-02
<GCONST> 1.011799e+02
<TRANSP> 5
 0.000000e+00 1.000000e+00 0.000000e+00 0.000000e+00 0.000000e+00
 0.000000e+00 7.538391e-01 2.461609e-01 0.000000e+00 0.000000e+00
 0.000000e+00 0.000000e+00 7.902573e-01 2.097427e-01 0.000000e+00
 0.000000e+00 0.000000e+00 0.000000e+00 8.225965e-01 1.774035e-01
 0.000000e+00 0.000000e+00 0.000000e+00 0.000000e+00 0.000000e+00
<ENDHMM>
~h "T"
<BEGINHMM>
<NUMSTATES> 5
<STATE> 2
<MEAN> 39
 -9.836486e+00 -3.467696e+00 3.631608e+00 -1.246863e+00 -7.036408e+00 -6.543392e+00 -6.365406e+00 -1.859563e+00 1.548353e+00 -2.987753e+00 9.817873e-01 -2.542812e+00 6.660482e+01 -4.440982e-01 1.682132e-01 -3.821303e-01 2.045116e-01 -9.894476e-02 -2.368997e-01 3.738817e-01 -2.351310e-01 1.883048e-01 -3.218973e-02 -1.005011e-01 1.269950e-01 2.343573e-01 7.976007e-02 -6.152479e-02 9.298598e-03 -5.421876e-02 6.953374e-02 8.272401e-02 2.955562e-02 6.147796e-03 8.126906e-02 -1.720741e-02 -8.273436e-03 5.689348e-03 2.047955e-02
<VARIANCE> 39
 3.250620e+01 1.454160e+01 1.054560e+02 1.698955e+01 1.030705e+02 2.213531e+01 6.876880e+01 3.103682e+01 8.010197e+01 1.843191e+01 1.672562e+01 2.069402e+01 3.216252e+01 6.948628e-01 8.371916e-01 1.583104e+00 1.438359e+00 2.428792e+00 1.880345e+00 2.313168e+00 1.668789e+00 2.064725e+00 1.761277e+00 1.304090e+00 2.052432e+00 9.958963e-01 1.331556e-01 1.340165e-01 2.869718e-01 2.962367e-01 4.359172e-01 3.274483e-01 3.997228e-01 2.881546e-01 3.450731e-01 3.539527e-01 2.311813e-01 4.663816e-01 9.672800e-02
<GCONST> 1.054975e+02
<STATE> 3
<MEAN> 39
 -1.189390e+01 -3.074403e+00 -7.769021e-01 -1.425174e+00 -2.649091e+00 -7.149061e+00 -2.187852e+00 -1.625458e+00 6.026812e+00 -3.036902e+00 5.106550e-01 -2.434054e+00 6.521802e+01 -3.832798e-02 -1.885215e-01 -4.948078e-02 -5.827943e-03 9.910858e-02 1.059560e-01 2.899528e-01 -2.416240e-01 3.126106e-01 1.575814e-01 4.599201e-03 -2.229396e-02 3.281960e-01 1.649518e-01 -5.483625e-02 1.727007e-01 -5.473000e-04 -9.319716e-03 5.855881e-02 -2.518017e-02 -5.700407e-02 1.735146e-02 3.491511e-02 2.483341e-02 -7.007635e-02 -9.307929e-04
<VARIANCE> 39
 2.412166e+01 8.880625e+00 5.094056e+01 1.481965e+01 5.270027e+01 2.003129e+01 3.512514e+01 4.201339e+01 4.442061e+01 1.542183e+01 1.993822e+01 1.999280e+01 1.977905e+01 1.546672e+00 8.074055e-01 2.173725e+00 1.485295e+00 2.514522e+00 1.873082e+00 2.248934e+00 2.260564e+00 2.439035e+00 1.689459e+00 1.481581e+00 2.275573e+00 1.112978e+00 2.450411e-01 1.592787e-01 3.458267e-01 3.015786e-01 4.909840e-01 3.703135e-01 4.498726e-01 3.913716e-01 4.194728e-01 3.327288e-01 2.896366e-01 4.855796e-01 1.625410e-01
<GCONST> 1.060470e+02
<STATE> 4
<MEAN> 39
 -5.210278e+00 -8.904581e+00 1.294950e+01 6.582115e-01 -1.147491e+01 -6.717384e+00 -7.911826e+00 -4.744179e+00 3.352748e+00 -4.520390e+00 4.900872e+00 -3.095662e+00 7.198374e+01 5.232311e-01 -1.286848e-01 5.862010e-01 1.676003e-01 -2.476057e-01 9.635895e-02 -9.215481e-02 8.413544e-02 -1.473303e-01 9.471747e-02 1.083807e-01 1.746872e-03 1.068687e-01 -1.493701e-02 -7.879738e-04 -5.780855e-02 2.234565e-02 3.012645e-02 -2.108495e-02 -1.386660e-03 4.864727e-02 5.344233e-03 -5.596691e-03 -2.130207e-02 1.862096e-02 -2.701579e-02
<VARIANCE> 39
 3.805061e+01 2.556268e+01 1.216683e+02 1.336087e+01 6.802019e+01 2.405110e+01 6.522330e+01 3.379307e+01 4.599834e+01 3.832471e+01 3.772708e+01 1.620033e+01 2.159152e+01 2.534500e+00 1.443611e+00 3.196247e+00 1.295164e+00 3.224930e+00 1.907731e+00 3.843559e+00 2.542142e+00 2.574092e+00 2.808707e+00 2.216072e+00 1.919883e+00 1.176101e+00 3.287422e-01 1.944064e-01 4.422246e-01 2.254742e-01 4.585622e-01 3.623421e-01 5.549212e-01 3.887452e-01 4.397140e-01 4.570413e-01 3.875560e-01 3.688313e-01 1.410026e-01
<GCONST> 1.145205e+02
<TRANSP> 5
 0.000000e+00 1.000000e+00 0.000000e+00 0.000000e+00 0.000000e+00
 0.000000e+00 7.914665e-01 2.085335e-01 0.000000e+00 0.000000e+00
 0.000000e+00 0.000000e+00 8.479350e-01 1.520651e-01 0.000000e+00
 0.000000e+00 0.000000e+00 0.000000e+00 9.528616e-01 4.713839e-02
 0.000000e+00 0.000000e+00 0.000000e+00 0.000000e+00 0.000000e+00
<ENDHMM>
~h "e"
<BEGINHMM>
<NUMSTATES> 5
<STATE> 2
<MEAN> 39
 -8.053755e+00 -5.798715e+00 6.569926e+00 -1.774925e+00 -9.852676e+00 -1.012002e+01 -4.980373e+00 -4.665891e+00 6.345722e+00 -4.013638e+00 3.405770e+00 -5.072308e+00 7.148471e+01 4.785593e-01 -4.263450e-01 3.559735e-01 -5.192346e-01 -6.259134e-01 2.302035e-02 -2.417553e-01 7.278705e-02 3.115162e-01 9.787121e-02 2.833229e-01 2.937929e-02 4.165014e-01 -8.802931e-03 -3.866572e-02 -4.549254e-02 -2.290366e-02 7.402882e-02 5.970763e-02 7.846820e-02 7.242338e-02 2.320113e-02 -3.654581e-02 -5.597879e-02 -1.494169e-02 9.995401e-03
<VARIANCE> 39
 5.870116e+01 2.516749e+01 1.362711e+02 1.683401e+01 1.002457e+02 1.653726e+01 1.982453e+01 4.168076e+01 3.215131e+01 2.577338e+01 4.458576e+01 1.705569e+01 4.780217e+01 2.022119e+00 1.944188e+00 1.734171e+00 1.577921e+00 3.712983e+00 1.408289e+00 2.005512e+00 1.958663e+00 1.857492e+00 1.914264e+00 1.701681e+00 1.653873e+00 1.715077e+00 4.487783e-01 2.195498e-01 2.022978e-01 2.348209e-01 4.462053e-01 2.916626e-01 5.791878e-01 3.107125e-01 2.619174e-01 3.644375e-01 1.903595e-01 2.727913e-01 2.223381e-01
<GCONST> 1.103759e+02
<STATE> 3
<MEAN> 39
 -9.344205e+00 -4.816520e+00 3.700705e-01 -3.149091e+00 -4.873044e+00 -9.987657e+00 -4.374122e+00 -3.072202e+00 8.770308e+00 -2.723275e+00 1.391999e+00 -5.121173e+00 6.940022e+01 8.647766e-01 -7.781305e-01 3.925799e-02 -6.526021e-01 -3.696848e-01 2.616898e-01 -2.655894e-01 6.891903e-01 3.949502e-01 1.479311e-01 -2.551134e-01 -1.742261e-01 5.296495e-01 8.398752e-03 -3.146178e-02 3.432390e-02 7.244200e-02 3.410012e-02 1.024414e-01 1.837672e-04 -2.644646e-02 -1.058440e-01 -1.069049e-01 -1.495320e-01 -5.629861e-02 5.252383e-02
<VARIANCE> 39
 7.121894e+01 2.842858e+01 8.157256e+01 2.648910e+01 5.526510e+01 2.230100e+01 2.836387e+01 4.399837e+01 4.525504e+01 3.375747e+01 3.415925e+01 2.370304e+01 5.551208e+01 2.476452e+00 1.860481e+00 3.037662e+00 1.940537e+00 4.974794e+00 1.664142e+00 3.075990e+00 2.584985e+00 2.406661e+00 2.173761e+00 1.899567e+00 1.639350e+00 2.156026e+00 5.449060e-01 2.870351e-01 2.873426e-01 3.377653e-01 5.058712e-01 3.244493e-01 6.688991e-01 4.076596e-01 4.450843e-01 5.092103e-01 2.931046e-01 3.617314e-01 3.004446e-01
<GCONST> 1.180818e+02
<STATE> 4
<MEAN> 39
 -7.098348e+00 -5.922562e+00 2.077796e-01 -5.447436e+00 -4.049479e+00 -1.078846e+01 -4.774132e+00 1.667608e+00 7.776080e+00 -4.962520e-01 1.151868e+00 -5.907206e+00 6.726988e+01 6.613293e-01 -6.397316e-01 4.284489e-01 -2.067118e-01 -6.689511e-01 2.022359e-01 -3.201569e-01 2.713251e-01 -2.656583e-01 1.479546e-02 -2.216326e-01 -1.932263e-02 6.876974e-01 1.904985e-02 2.280681e-02 4.362508e-02 4.082950e-02 3.755046e-02 -3.770544e-02 -2.943776e-02 -1.720182e-01 -1.126532e-01 -2.445405e-02 1.487925e-02 -4.138034e-03 -2.187117e-02
<VARIANCE> 39
 3.560452e+01 2.455165e+01 5.386235e+01 2.225999e+01 6.782020e+01 2.226035e+01 3.433612e+01 3.692403e+01 4.619217e+01 2.846754e+01 2.146807e+01 2.246710e+01 5.268863e+01 2.174191e+00 2.051956e+00 2.610159e+00 1.525064e+00 4.360361e+00 1.678521e+00 3.110518e+00 2.146554e+00 2.624387e+00 1.913090e+00 1.345315e+00 1.583501e+00 2.240560e+00 3.102229e-01 3.864631e-01 2.590936e-01 2.694914e-01 5.779423e-01 3.065478e-01 4.825069e-01 4.109042e-01 5.223252e-01 4.148009e-01 2.600038e-01 2.988822e-01 3.512174e-01
<GCONST> 1.140093e+02
<TRANSP> 5
 0.000000e+00 1.000000e+00 0.000000e+00 0.000000e+00 0.000000e+00
 0.000000e+00 6.657416e-01 3.342584e-01 0.000000e+00 0.000000e+00
 0.000000e+00 0.000000e+00 4.624192e-01 5.375808e-01 0.000000e+00
 0.000000e+00 0.000000e+00 0.000000e+00 7.243893e-01 2.756107e-01
 0.000000e+00 0.000000e+00 0.000000e+00 0.000000e+00 0.000000e+00
<ENDHMM>
~h "f"
<BEGINHMM>
<NUMSTATES> 5
<STATE> 2
<MEAN> 39
 -1.142375e+01 -7.001844e+00 1.401066e-01 -4.780503e-01 -1.772194e+00 -5.797145e+00 -4.018882e+00 -5.131899e+00 7.120566e+00 -4.606681e+00 3.037463e-02 -4.118511e+00 6.837925e+01 -4.609087e-01 6.448853e-03 -1.059170e-01 1.476797e-01 1.780602e-01 2.814969e-01 3.867391e-01 -2.687343e-01 2.022344e-01 2.640185e-01 6.243909e-02 -1.181102e-02 2.631201e-01 1.031925e-01 3.516767e-02 6.328513e-02 -1.776985e-02 -2.501483e-02 -9.538747e-03 -9.393470e-03 2.162020e-02 -7.640757e-02 6.082707e-02 4.821425e-02 7.775064e-02 -5.075096e-02
<VARIANCE> 39
 4.604070e+01 1.655200e+01 2.557375e+01 2.673094e+01 1.859104e+01 5.188919e+01 1.829590e+01 3.292599e+01 3.402454e+01 2.729298e+01 1.796470e+01 2.764682e+01 3.166810e+01 6.593755e-01 7.785270e-01 8.143533e-01 1.341580e+00 1.591977e+00 1.372375e+00 1.104814e+00 2.088290e+00 1.724905e+00 1.067190e+00 1.230296e+00 1.328174e+00 3.559369e-01 1.138189e-01 1.229232e-01 1.571459e-01 2.473908e-01 2.589928e-01 2.734325e-01 1.890998e-01 4.063044e-01 3.264804e-01 2.258563e-01 2.393058e-01 2.908588e-01 3.689278e-02
<GCONST> 9.441537e+01
<STATE> 3
<MEAN> 39
 -1.465739e+01 -5.614235e+00 -6.306382e-01 -2.654532e-01 -1.392854e+00 -4.665571e+00 -2.578779e+00 -5.686532e+00 7.964227e+00 -3.412221e+00 8.551250e-01 -4.379359e+00 6.949023e+01 7.669333e-02 -1.180835e-02 5.545801e-04 -6.940188e-02 1.262372e-01 2.298408e-01 2.065971e-01 -2.111681e-01 1.878384e-02 2.141142e-01 -4.540972e-02 8.808240e-02 1.820539e-01 3.006091e-01 -2.934041e-02 -1.522738e-02 -1.883104e-01 -6.722734e-03 2.176786e-02 -1.282676e-02 -2.366339e-02 -1.042325e-01 -2.602514e-02 1.817394e-02 -1.607515e-02 -3.919265e-02
<VARIANCE> 39
 5.246501e+01 1.410960e+01 1.552433e+01 2.432056e+01 1.658511e+01 3.648546e+01 1.861095e+01 2.749002e+01 2.034145e+01 2.033181e+01 1.803827e+01 2.425212e+01 1.829882e+01 1.876903e+00 8.366730e-01 8.236985e-01 1.636497e+00 1.652965e+00 1.240446e+00 1.685877e+00 1.693655e+00 1.752223e+00 1.386262e+00 1.338618e+00 1.689687e+00 3.952475e-01 2.462183e-01 1.654049e-01 1.768148e-01 3.218132e-01 3.332340e-01 2.244629e-01 3.410348e-01 3.589981e-01 3.450042e-01 2.579353e-01 2.586641e-01 3.484774e-01 7.832395e-02
<GCONST> 9.703312e+01
<STATE> 4
<MEAN> 39
 -2.718650e+00 -1.288307e+01 -2.258919e+00 -1.205487e+01 -1.799127e+00 3.765252e+00 -1.835157e-01 -9.882298e+00 6.990155e+00 -4.081778e+00 6.826695e-01 -7.320244e+00 7.543483e+01 1.206616e+00 -5.915309e-01 -1.229165e-01 -9.574608e-01 -1.422216e-01 4.770606e-01 2.047275e-01 -3.162985e-01 -7.892016e-02 -5.136050e-02 -1.208563e-01 -7.706819e-02 4.623219e-01 -6.096071e-02 1.413758e-02 1.162254e-02 1.904290e-04 -5.964671e-02 -5.249373e-02 -5.330894e-02 5.842147e-02 4.406328e-02 -3.259434e-02 -7.332784e-03 1.140460e-02 1.264556e-02
<VARIANCE> 39
 7.662331e+01 4.978989e+01 1.089981e+01 7.628523e+01 2.050847e+01 5.390009e+01 1.480013e+01 3.242082e+01 2.045212e+01 1.532594e+01 1.429396e+01 1.906112e+01 2.913578e+01 4.844598e+00 1.689761e+00 7.706571e-01 4.365347e+00 2.264070e+00 1.992766e+00 1.369032e+00 1.601672e+00 1.742795e+00 1.115620e+00 1.707599e+00 1.283471e+00 1.373783e+00 6.881617e-01 2.112931e-01 1.240820e-01 5.856815e-01 3.841237e-01 2.389313e-01 2.638347e-01 3.091049e-01 3.514082e-01 1.853227e-01 3.063231e-01 2.352833e-01 2.147018e-01
<GCONST> 1.055853e+02
<TRANSP> 5
 0.000000e+00 1.000000e+00 0.000000e+00 0.000000e+00 0.000000e+00
 0.000000e+00 7.709060e-01 2.290940e-01 0.000000e+00 0.000000e+00
 0.000000e+00 0.000000e+00 7.188958e-01 2.811041e-01 0.000000e+00
 0.000000e+00 0.000000e+00 0.000000e+00 8.726221e-01 1.273779e-01
 0.000000e+00 0.000000e+00 0.000000e+00 0.000000e+00 0.000000e+00
<ENDHMM>
~h "i"
<BEGINHMM>
<NUMSTATES> 5
<STATE> 2
<MEAN> 39
 -3.989622e+00 -8.242589e+00 1.960509e+01 2.109224e+00 -1.507135e+01 -4.310824e+00 -9.302417e+00 8.068721e-01 -2.395266e+00 -4.514389e+00 3.891021e+00 -3.670903e-01 7.172426e+01 -3.513205e-01 5.399823e-01 -3.129842e-01 3.032999e-02 6.142641e-01 3.508700e-01 4.804561e-01 2.511177e-01 3.642850e-03 3.521264e-01 -2.017825e-01 -5.284582e-02 -5.829890e-01 3.421007e-02 -2.321258e-02 -1.684619e-01 2.762746e-02 9.709190e-02 -5.768050e-02 5.924761e-02 -4.790410e-02 1.134848e-01 7.135949e-02 -5.940067e-02 -1.233168e-02 -3.001972e-02
<VARIANCE> 39
 7.249548e+00 2.398426e+01 4.508273e+01 9.605949e+00 7.631605e+01 2.512718e+01 7.720148e+01 1.918921e+01 4.274435e+01 2.584827e+01 2.406725e+01 1.918665e+01 3.238631e+01 3.382536e-01 6.056489e-01 1.740838e+00 6.813061e-01 2.018193e+00 1.745008e+00 3.368192e+00 1.107967e+00 2.313820e+00 1.676974e+00 1.534984e+00 1.122912e+00 1.593231e-01 4.108186e-02 7.787969e-02 1.496049e-01 1.141619e-01 2.241420e-01 2.107648e-01 3.970137e-01 2.108418e-01 2.970860e-01 3.292053e-01 2.508245e-01 2.199424e-01 2.060412e-02
<GCONST> 9.115884e+01
<STATE> 3
<MEAN> 39
 -6.735834e+00 -4.910189e+00 1.024259e+01 2.921536e+00 -3.364919e+00 -4.479455e+00 -1.709548e+00 2.962897e+00 3.719368e+00 -2.180130e+00 3.624763e-01 -1.443710e+00 6.418586e+01 -3.347899e-01 -2.801458e-02 -1.000761e+00 -1.899772e-01 8.481914e-01 -3.930373e-01 9.567914e-02 -5.157710e-02 5.601598e-01 -3.222965e-02 -2.683956e-01 1.107108e-01 -5.562870e-01 4.943564e-03 -3.027929e-02 -4.278774e-03 -7.961230e-02 -9.234375e-02 -1.451112e-02 -1.295692e-01 -7.763470e-02 -9.049609e-02 -1.467229e-02 2.753110e-02 -1.089590e-02 2.675940e-02
<VARIANCE> 39
 5.924887e+00 1.080032e+01 4.587741e+01 1.593471e+01 5.024923e+01 3.669692e+01 5.015660e+01 2.567673e+01 5.054806e+01 2.435126e+01 1.881833e+01 2.612486e+01 2.016780e+01 2.418459e-01 6.018010e-01 1.154439e+00 1.062851e+00 1.679395e+00 2.223416e+00 3.967211e+00 1.655431e+00 2.398374e+00 1.932072e+00 1.741256e+00 1.852232e+00 1.345203e-01 3.947407e-02 8.869802e-02 1.991992e-01 1.769788e-01 2.228705e-01 4.049983e-01 5.012097e-01 3.018885e-01 4.085830e-01 3.557353e-01 3.449041e-01 3.497667e-01 1.907729e-02
<GCONST> 9.430724e+01
<STATE> 4
<MEAN> 39
 -8.851604e+00 -5.440083e+00 2.173985e+00 -1.099938e+00 1.541598e+00 -8.489582e+00 -5.092058e+00 1.419267e+00 6.255031e+00 -3.814297e+00 -1.638070e+00 -3.333005e+00 6.097162e+01 -1.966802e-01 4.514699e-03 -7.098906e-01 -2.934223e-01 1.566556e-01 -1.954305e-01 -2.791348e-01 -5.615319e-01 -4.374754e-02 -5.770970e-02 -2.454114e-01 -1.429361e-01 -1.124963e-01 -2.646220e-03 1.918421e-03 1.595820e-02 2.327871e-02 -6.801460e-02 3.143352e-02 2.998303e-02 -5.313301e-02 9.720774e-03 2.515172e-02 3.630585e-02 -1.824230e-02 5.760808e-02
<VARIANCE> 39
 6.424475e+00 9.868180e+00 2.788110e+01 2.064056e+01 2.022268e+01 3.357106e+01 3.162736e+01 3.479996e+01 2.836122e+01 2.162376e+01 2.002436e+01 2.336619e+01 7.298491e+00 3.494572e-01 5.849025e-01 1.130031e+00 1.244934e+00 1.343627e+00 1.935467e+00 2.579820e+00 1.623329e+00 2.491735e+00 1.562729e+00 1.712263e+00 2.204997e+00 2.322922e-01 5.993753e-02 8.694266e-02 1.429629e-01 1.794399e-01 2.234673e-01 3.750598e-01 4.780798e-01 2.699592e-01 4.960654e-01 2.652260e-01 3.305327e-01 4.632998e-01 2.495102e-02
<GCONST> 9.158829e+01
<TRANSP> 5
 0.000000e+00 1.000000e+00 0.000000e+00 0.000000e+00 0.000000e+00
 0.000000e+00 9.002646e-01 9.973542e-02 0.000000e+00 0.000000e+00
 0.000000e+00 0.000000e+00 7.896364e-01 2.103635e-01 0.000000e+00
 0.000000e+00 0.000000e+00 0.000000e+00 8.904742e-01 1.095259e-01
 0.000000e+00 0.000000e+00 0.000000e+00 0.000000e+00 0.000000e+00
<ENDHMM>
~h "k"
<BEGINHMM>
<NUMSTATES> 5
<STATE> 2
<MEAN> 39
 -1.150946e+01 -5.471070e+00 6.269545e-01 -1.393982e+00 -6.672089e+00 -1.290991e+01 -1.065513e+00 -4.929814e+00 5.817787e+00 -4.899337e+00 1.983116e+00 -2.598298e+00 7.213860e+01 1.545118e-01 -1.143565e-01 1.187993e-01 2.068034e-01 1.422852e-01 -1.270662e-01 -2.637354e-01 1.652043e-01 6.880845e-02 5.036096e-02 -5.810396e-02 -3.198275e-03 -7.480025e-02 -2.971173e-02 1.409608e-02 -1.330196e-02 -1.793196e-03 9.096888e-03 -1.897047e-02 2.834327e-02 -1.533701e-02 3.147000e-02 1.265978e-03 4.433320e-03 1.373090e-02 1.002291e-02
<VARIANCE> 39
 6.560074e+01 4.480504e+01 1.277018e+02 2.660463e+01 7.119165e+01 2.526059e+01 7.580212e+01 4.090628e+01 8.395872e+01 2.653639e+01 3.362588e+01 1.784108e+01 4.263753e+01 3.764445e+00 3.629150e+00 6.547925e+00 1.859479e+00 4.347783e+00 2.112098e+00 5.480543e+00 2.772276e+00 5.182128e+00 2.284141e+00 2.476391e+00 2.037293e+00 2.951465e+00 4.924830e-01 5.057759e-01 7.074080e-01 3.739317e-01 5.185665e-01 3.323589e-01 7.956229e-01 4.466339e-01 7.567267e-01 4.436774e-01 3.758422e-01 4.240582e-01 3.667717e-01
<GCONST> 1.269669e+02
<STATE> 3
<MEAN> 39
 -1.815090e+01 -2.993282e+00 -6.813794e+00 3.660380e+00 1.099351e+00 -1.528863e+01 2.900910e+00 -6.966157e+00 1.370380e+01 -4.111635e+00 -1.476093e+00 -1.989420e+00 7.129118e+01 -8.447171e-01 4.696999e-01 -1.640744e-01 -7.702621e-02 1.768299e-01 -9.042498e-02 7.218395e-01 -4.800716e-01 4.287022e-01 -1.235192e-01 -1.422070e-01 1.460205e-01 4.445795e-01 9.616783e-02 1.816022e-02 7.105013e-02 -1.210649e-01 -4.447437e-02 1.091453e-01 -2.851898e-02 4.297709e-02 -1.509675e-01 1.796214e-02 8.359773e-02 -4.364655e-02 -6.301409e-02
<VARIANCE> 39
 3.486562e+01 2.327622e+01 2.619613e+01 2.518588e+01 2.013277e+01 1.901891e+01 5.440831e+01 2.308147e+01 3.769738e+01 1.420654e+01 2.261648e+01 1.340978e+01 2.059340e+01 1.509012e+00 1.523309e+00 2.855673e+00 1.914921e+00 1.552586e+00 2.243808e+00 2.719162e+00 1.582748e+00 2.699439e+00 1.717291e+00 1.706620e+00 1.545576e+00 1.202540e+00 2.210636e-01 2.661330e-01 5.170030e-01 3.040241e-01 2.644535e-01 3.653578e-01 4.314332e-01 2.891771e-01 4.146621e-01 3.515030e-01 2.830601e-01 3.526577e-01 2.140947e-01
<GCONST> 1.060280e+02
<STATE> 4
<MEAN> 39
 -1.912932e+01 6.685576e-01 -5.383245e+00 -8.999397e-01 3.201498e+00 -1.459747e+01 5.623429e+00 -7.706182e+00 1.149328e+01 -5.864368e+00 -2.695252e+00 -3.102757e+00 7.165081e+01 4.913801e-01 2.521849e-03 2.844571e-01 -3.681364e-01 2.710983e-01 1.737639e-01 -2.844763e-01 3.543382e-01 -4.373225e-01 -1.464902e-01 -1.174699e-01 -2.284448e-01 -4.171133e-01 7.650685e-02 -6.093251e-02 2.544284e-02 3.207773e-02 2.315601e-02 2.794979e-02 -1.104333e-01 7.317997e-02 -2.995516e-02 4.109606e-02 -6.227184e-03 -1.359928e-02 -5.426309e-02
<VARIANCE> 39
 1.440001e+01 9.443274e+00 1.594847e+01 2.435963e+01 2.285561e+01 1.393677e+01 3.383111e+01 2.295918e+01 2.252139e+01 1.836512e+01 2.437338e+01 1.527304e+01 1.018433e+01 5.520369e-01 4.677756e-01 6.834512e-01 8.658447e-01 1.275426e+00 1.586435e+00 2.336700e+00 1.661065e+00 1.483361e+00 1.336836e+00 1.154981e+00 1.164310e+00 2.641571e-01 5.503707e-02 4.663290e-02 1.263842e-01 1.299696e-01 2.511423e-01 2.905624e-01 3.428523e-01 2.796628e-01 3.043469e-01 2.812635e-01 2.210804e-01 2.534135e-01 2.134786e-02
<GCONST> 8.484500e+01
<TRANSP> 5
 0.000000e+00 1.000000e+00 0.000000e+00 0.000000e+00 0.000000e+00
 0.000000e+00 9.679593e-01 3.204068e-02 0.000000e+00 0.000000e+00
 0.000000e+00 0.000000e+00 8.311795e-01 1.688205e-01 0.000000e+00
 0.000000e+00 0.000000e+00 0.000000e+00 9.374830e-01 6.251702e-02
 0.000000e+00 0.000000e+00 0.000000e+00 0.000000e+00 0.000000e+00
<ENDHMM>
~h "n"
<BEGINHMM>
<NUMSTATES> 5
<STATE> 2
<MEAN> 39
 -3.565758e+00 -3.906664e+00 3.584332e+00 -9.251687e-01 1.168272e+00 -4.835851e+00 -3.806848e+00 -1.322266e+00 6.824054e+00 1.780042e-01 1.208081e+00 -7.261856e+00 6.415296e+01 -1.985639e-01 3.500334e-01 5.056008e-02 1.277173e-01 4.668291e-01 2.160472e-01 2.086791e-01 3.697883e-02 8.618645e-04 1.996761e-01 -2.016866e-01 -1.743387e-01 -4.536849e-01 -1.997160e-02 -1.366459e-01 1.824513e-02 -5.760716e-02 -1.028945e-01 5.136390e-02 1.715432e-02 1.239687e-01 5.822679e-02 -7.496476e-02 1.828576e-02 7.156990e-02 9.804371e-02
<VARIANCE> 39
 1.422194e+01 2.215903e+01 3.267218e+01 3.889541e+01 2.976254e+01 2.801225e+01 2.408010e+01 4.203372e+01 2.585559e+01 2.761386e+01 2.506241e+01 1.642226e+01 1.193127e+01 4.772109e-01 1.869126e+00 1.629104e+00 1.469510e+00 2.255914e+00 1.599682e+00 1.731641e+00 3.800699e+00 2.046767e+00 2.459245e+00 2.111732e+00 1.494421e+00 6.303307e-01 6.327362e-02 2.606244e-01 2.407541e-01 2.481462e-01 3.475233e-01 2.929114e-01 3.160132e-01 6.256678e-01 3.681608e-01 4.302035e-01 3.841717e-01 2.724160e-01 7.360338e-02
<GCONST> 1.019862e+02
<STATE> 3
<MEAN> 39
 -4.568514e+00 -3.943459e+00 3.190820e+00 -1.355949e+00 1.848466e+00 -4.253749e+00 -3.382898e+00 -1.855850e-01 7.310254e+00 3.094457e-02 3.266793e-01 -7.313219e+00 6.292062e+01 -2.383250e-01 5.389472e-03 5.075206e-02 -1.854771e-03 9.611468e-02 5.456717e-02 1.044181e-01 1.235978e-01 4.198551e-02 1.030919e-02 -1.153597e-01 5.264567e-02 -1.990178e-01 -1.108604e-02 -8.978199e-02 -1.485470e-02 -2.493371e-02 -8.863244e-02 -4.323580e-02 -3.626229e-02 -4.172449e-03 1.321874e-02 -4.794195e-02 2.010500e-02 5.749175e-02 6.479728e-02
<VARIANCE> 39
 1.489009e+01 2.170728e+01 2.877039e+01 3.362325e+01 2.748564e+01 2.525980e+01 2.479033e+01 3.560472e+01 2.862455e+01 2.783029e+01 2.630183e+01 1.946417e+01 9.539195e+00 4.882039e-01 1.506818e+00 1.375490e+00 1.735609e+00 2.030560e+00 1.763124e+00 1.715361e+00 2.864559e+00 2.198921e+00 2.355038e+00 2.179975e+00 1.509036e+00 4.866977e-01 5.734527e-02 2.670802e-01 1.970911e-01 2.722923e-01 3.370401e-01 3.143735e-01 2.933130e-01 5.155112e-01 3.981110e-01 4.090043e-01 3.980300e-01 2.920374e-01 5.900294e-02
<GCONST> 1.003407e+02
<STATE> 4
<MEAN> 39
 -6.416358e+00 -3.933898e+00 3.208110e+00 -1.524448e+00 1.178104e+00 -5.528899e+00 -3.755056e+00 -1.104723e+00 6.908822e+00 -3.410923e-01 4.586943e-01 -6.307569e+00 6.219310e+01 -9.786724e-02 -1.329486e-01 7.337598e-03 -4.181263e-02 -2.065035e-01 -4.371706e-02 -5.895833e-02 -1.646951e-01 3.183431e-03 -4.892721e-02 2.032313e-02 8.051748e-02 1.117220e-01 8.364279e-03 -4.184280e-02 -7.303049e-02 -1.716257e-02 -2.740753e-02 1.828341e-02 -4.958018e-03 5.204148e-03 -2.274717e-03 -4.663818e-02 4.963649e-03 -2.425154e-03 6.858819e-02
<VARIANCE> 39
 2.048962e+01 1.798246e+01 2.682228e+01 2.293378e+01 3.316177e+01 2.624673e+01 2.362295e+01 3.585942e+01 2.670826e+01 3.127291e+01 2.565728e+01 2.281615e+01 1.054117e+01 7.660734e-01 1.504357e+00 1.300042e+00 1.479191e+00 2.258642e+00 1.838069e+00 1.904258e+00 2.314533e+00 2.281727e+00 2.304274e+00 2.153803e+00 2.045154e+00 5.567716e-01 9.409992e-02 2.598733e-01 2.095324e-01 2.486897e-01 4.034975e-01 3.481733e-01 3.296321e-01 4.679866e-01 4.045217e-01 4.348494e-01 4.258798e-01 3.920650e-01 7.528511e-02
<GCONST> 1.026225e+02
<TRANSP> 5
 0.000000e+00 1.000000e+00 0.000000e+00 0.000000e+00 0.000000e+00
 0.000000e+00 7.252285e-01 2.747715e-01 0.000000e+00 0.000000e+00
 0.000000e+00 0.000000e+00 7.446972e-01 2.553028e-01 0.000000e+00
 0.000000e+00 0.000000e+00 0.000000e+00 8.863441e-01 1.136559e-01
 0.000000e+00 0.000000e+00 0.000000e+00 0.000000e+00 0.000000e+00
<ENDHMM>
~h "o"
<BEGINHMM>
<NUMSTATES> 5
<STATE> 2
<MEAN> 39
 6.434210e+00 -1.228822e+01 -2.628702e+00 -5.476385e+00 -5.798666e+00 -4.151481e+00 -1.134233e+01 -1.001742e+01 9.176365e+00 -9.813977e-01 1.795234e+00 3.695408e+00 7.442035e+01 -4.132234e-02 1.461230e-01 -3.309921e-01 -4.586099e-01 4.136467e-02 4.842466e-01 8.507670e-01 3.666636e-01 -1.496118e-01 1.516163e-01 1.768165e-01 5.406738e-02 -2.145450e-01 -7.322138e-02 1.672155e-02 1.306574e-01 5.615422e-02 -1.157414e-02 -6.859531e-02 6.125851e-02 1.246333e-01 -3.147679e-02 -1.036149e-01 2.061480e-02 -2.929004e-02 -1.874016e-02
<VARIANCE> 39
 4.800930e+00 1.587704e+01 7.953233e+00 1.883472e+01 1.301127e+01 1.502530e+01 4.952411e+01 2.939085e+01 2.310748e+01 1.704992e+01 1.521523e+01 1.185164e+01 7.356948e+00 2.691790e-01 7.697645e-01 6.017193e-01 7.218586e-01 8.027958e-01 8.287584e-01 6.161494e-01 1.707218e+00 1.540969e+00 1.219591e+00 9.160296e-01 7.947661e-01 2.415175e-01 2.445740e-02 7.734752e-02 1.133901e-01 9.231248e-02 1.352389e-01 1.482714e-01 1.136756e-01 2.642862e-01 2.214588e-01 1.759738e-01 1.408536e-01 1.205628e-01 2.133102e-02
<GCONST> 7.346098e+01
<STATE> 3
<MEAN> 39
 2.480843e+00 -7.198855e+00 -1.987587e+00 -7.132493e+00 -5.216708e-01 -7.761934e-02 1.068487e+00 -4.186163e+00 2.893832e+00 -1.248103e+00 2.408807e+00 4.307875e+00 6.896310e+01 -6.707572e-01 4.130606e-01 2.925425e-01 1.732554e-01 6.895760e-01 4.581538e-01 8.793266e-01 3.383704e-01 -4.615084e-01 3.992525e-02 -1.556105e-01 -1.349326e-01 -7.193069e-01 -5.242595e-02 -6.265891e-02 -8.758312e-03 -9.083031e-03 -3.666576e-02 -1.995287e-02 -1.083413e-01 -1.910844e-02 9.297862e-02 -6.980263e-04 -1.574853e-02 -5.991206e-02 8.075958e-04
<VARIANCE> 39
 2.589782e+01 1.956404e+01 1.843038e+01 1.718276e+01 4.545915e+01 2.788222e+01 5.986342e+01 4.037659e+01 3.731875e+01 1.870345e+01 1.407294e+01 1.553369e+01 1.832066e+01 4.122304e-01 9.863800e-01 1.357136e+00 1.320305e+00 1.316479e+00 1.538323e+00 1.645622e+00 1.962694e+00 2.452059e+00 1.167544e+00 1.532086e+00 8.525434e-01 2.717604e-01 3.811685e-02 8.274721e-02 2.465934e-01 1.928168e-01 1.618424e-01 2.190780e-01 1.724335e-01 3.606059e-01 3.814593e-01 2.165720e-01 2.649562e-01 1.358915e-01 3.209895e-02
<GCONST> 9.084026e+01
<STATE> 4
<MEAN> 39
 -3.657909e+00 -6.194299e+00 -1.755157e+00 -7.431310e+00 2.256938e+00 2.032170e+00 2.906962e+00 -2.214856e+00 3.263995e+00 -4.513239e-01 8.490658e-01 -7.032094e-02 6.408455e+01 -6.449180e-01 -1.680222e-01 -2.818853e-01 -2.948893e-01 2.045943e-02 -4.500219e-01 -3.803574e-01 1.385716e-01 3.453297e-01 8.654211e-02 3.010517e-02 -6.106139e-01 -2.654257e-01 4.189958e-02 6.113755e-03 -3.687705e-02 -6.549263e-03 1.835490e-03 -1.479051e-01 -1.140858e-01 -2.670763e-02 5.207851e-02 -3.536103e-02 1.709507e-02 -6.795795e-05 9.827242e-02
<VARIANCE> 39
 1.997201e+01 1.664046e+01 2.511303e+01 1.811429e+01 2.427470e+01 3.368534e+01 2.632299e+01 3.628205e+01 3.053522e+01 2.237194e+01 1.945101e+01 3.872415e+01 6.266181e+00 6.209331e-01 7.614330e-01 1.802718e+00 1.275442e+00 1.224509e+00 2.144502e+00 1.992505e+00 2.145197e+00 2.752390e+00 1.233790e+00 1.484457e+00 1.888925e+00 3.592045e-01 7.281763e-02 1.295885e-01 3.489390e-01 2.394529e-01 1.795185e-01 3.026098e-01 2.651320e-01 3.865637e-01 5.223141e-01 2.543896e-01 2.534953e-01 3.074089e-01 2.602308e-02
<GCONST> 9.533392e+01
<TRANSP> 5
 0.000000e+00 1.000000e+00 0.000000e+00 0.000000e+00 0.000000e+00
 0.000000e+00 9.452456e-01 5.475437e-02 0.000000e+00 0.000000e+00
 0.000000e+00 0.000000e+00 8.683258e-01 1.316742e-01 0.000000e+00
 0.000000e+00 0.000000e+00 0.000000e+00 8.898123e-01 1.101878e-01
 0.000000e+00 0.000000e+00 0.000000e+00 0.000000e+00 0.000000e+00
<ENDHMM>
~h "r"
<BEGINHMM>
<NUMSTATES> 5
<STATE> 2
<MEAN> 39
 -3.711679e+00 -7.778536e+00 8.928084e+00 5.067138e-01 -6.072906e+00 -8.291374e+00 -4.221653e+00 -3.963194e+00 3.843235e+00 -4.912828e+00 1.548717e+00 -1.705427e+00 7.136756e+01 4.489705e-01 -8.076412e-01 4.990572e-01 3.663267e-01 -2.826224e-01 -1.595711e-01 -8.344353e-01 3.312964e-01 -8.663202e-02 -5.544385e-01 2.266125e-01 -3.457127e-02 7.753576e-02 -5.685330e-02 5.261699e-03 -2.281544e-01 7.881694e-02 4.300881e-02 -1.041633e-01 -8.661330e-02 -3.891713e-02 9.671070e-02 -8.622179e-02 -6.310281e-02 1.240864e-01 -3.917456e-03
<VARIANCE> 39
 3.057405e+01 1.892833e+01 1.424271e+02 2.317528e+01 5.748943e+01 6.109360e+01 4.896275e+01 5.089911e+01 2.056800e+01 5.646537e+01 2.122704e+01 2.183954e+01 3.379785e+01 2.154660e+00 1.630134e+00 3.853323e+00 2.613738e+00 2.433016e+00 3.056921e+00 3.293531e+00 2.922660e+00 1.900643e+00 2.630802e+00 1.968717e+00 1.687263e+00 7.044526e-01 2.183825e-01 2.054519e-01 7.423413e-01 4.351151e-01 4.014277e-01 4.993464e-01 5.274472e-01 5.240302e-01 3.295698e-01 5.694168e-01 3.658007e-01 3.142587e-01 8.795596e-02
<GCONST> 1.157438e+02
<STATE> 3
<MEAN> 39
 -1.801236e+00 -1.035970e+01 9.757982e+00 1.697989e+00 -6.972121e+00 -9.449384e+00 -7.449968e+00 -3.354505e+00 4.091552e+00 -6.460133e+00 2.078353e+00 -1.327496e+00 7.197543e+01 3.708183e-01 -5.752760e-01 -3.324457e-01 3.942895e-01 -2.687695e-02 -9.340983e-02 -8.688372e-01 7.604765e-02 2.227837e-01 -2.583499e-01 -9.274801e-02 2.360333e-01 -5.593945e-02 -6.050275e-02 1.866916e-01 -1.916107e-01 -1.187897e-01 1.117998e-01 8.328307e-02 3.411413e-02 -1.773270e-01 -1.806751e-02 1.364666e-01 -6.293175e-02 7.827535e-02 -5.961144e-02
<VARIANCE> 39
 2.140800e+01 2.436755e+01 1.089948e+02 2.235122e+01 6.565764e+01 5.663947e+01 6.118166e+01 3.862714e+01 2.190038e+01 5.864430e+01 1.676147e+01 2.000488e+01 4.465513e+01 1.482744e+00 1.256226e+00 6.205759e+00 1.709303e+00 2.991425e+00 2.266668e+00 2.379624e+00 3.068985e+00 1.808412e+00 4.083283e+00 1.963062e+00 1.435093e+00 5.487337e-01 1.479173e-01 1.905809e-01 5.660375e-01 3.717877e-01 3.843919e-01 4.613399e-01 4.225625e-01 4.385712e-01 3.498342e-01 6.943402e-01 3.915609e-01 2.809358e-01 5.960127e-02
<GCONST> 1.128292e+02
<STATE> 4
<MEAN> 39
 -2.486636e+00 -9.865516e+00 4.828748e+00 9.725421e-01 -2.927153e+00 -6.956057e+00 -6.495363e+00 -2.881513e+00 3.824126e+00 -4.637458e+00 1.824200e+00 -2.236236e+00 6.785736e+01 8.360138e-03 2.097521e-01 -3.064674e-01 -2.458595e-01 2.854830e-01 7.613484e-02 -3.391905e-01 -1.794480e-01 -9.861814e-03 3.686365e-02 -1.865006e-01 1.501032e-01 -2.118104e-01 -6.750294e-02 1.263093e-01 2.289538e-02 -1.276334e-01 2.712176e-02 2.170975e-02 7.866327e-02 -6.110117e-02 -6.001940e-02 9.124286e-02 3.201448e-02 -3.514056e-03 -1.074861e-03
<VARIANCE> 39
 1.980797e+01 2.540840e+01 7.673764e+01 2.395539e+01 8.002141e+01 5.099217e+01 5.846421e+01 3.458076e+01 2.517053e+01 3.976955e+01 1.706693e+01 2.531972e+01 6.069892e+01 9.107697e-01 9.380538e-01 4.064688e+00 1.462153e+00 2.241858e+00 2.330087e+00 1.677565e+00 2.577296e+00 2.101695e+00 3.673910e+00 1.813512e+00 1.308010e+00 2.632146e-01 7.566182e-02 1.686868e-01 2.938160e-01 3.010572e-01 3.023996e-01 3.866751e-01 3.202904e-01 3.286253e-01 3.849370e-01 5.185435e-01 3.063967e-01 2.465275e-01 3.854830e-02
<GCONST> 1.061048e+02
<TRANSP> 5
 0.000000e+00 1.000000e+00 0.000000e+00 0.000000e+00 0.000000e+00
 0.000000e+00 6.055128e-01 3.944872e-01 0.000000e+00 0.000000e+00
 0.000000e+00 0.000000e+00 6.031245e-01 3.968754e-01 0.000000e+00
 0.000000e+00 0.000000e+00 0.000000e+00 7.119578e-01 2.880422e-01
 0.000000e+00 0.000000e+00 0.000000e+00 0.000000e+00 0.000000e+00
<ENDHMM>
~h "s"
<BEGINHMM>
<NUMSTATES> 5
<STATE> 2
<MEAN> 39
 -1.157151e+01 -3.335835e+00 3.460909e-01 -1.786053e+00 1.321111e+00 -9.296071e+00 -1.132956e+00 -2.761297e+00 7.470973e+00 -4.566042e+00 5.095461e-01 -3.974041e+00 6.572712e+01 -9.719777e-01 4.344923e-01 -5.921565e-01 3.478396e-01 2.451711e-01 -1.309421e-01 6.735933e-01 -2.948659e-01 3.600165e-01 -1.166394e-01 1.340215e-01 4.700875e-02 3.411791e-01 -1.298355e-01 1.979139e-02 -4.382434e-02 -3.275474e-02 -1.258669e-01 5.082222e-02 1.840257e-02 -3.799401e-02 2.313275e-02 7.510323e-02 2.949904e-02 1.072921e-03 7.680786e-02
<VARIANCE> 39
 3.103725e+01 2.177583e+01 5.390650e+01 2.485995e+01 5.373143e+01 2.625824e+01 4.172831e+01 3.961304e+01 3.063584e+01 2.406807e+01 2.988066e+01 1.326641e+01 1.363101e+01 1.081980e+00 9.878735e-01 1.871745e+00 1.147861e+00 2.919415e+00 1.885243e+00 3.121780e+00 2.933139e+00 2.467236e+00 2.549583e+00 1.488341e+00 1.510703e+00 1.035257e+00 1.201533e-01 1.568010e-01 2.928852e-01 1.962851e-01 5.020761e-01 3.036382e-01 4.885477e-01 5.465913e-01 3.911599e-01 4.722940e-01 2.967554e-01 3.370590e-01 1.217789e-01
<GCONST> 1.065632e+02
<STATE> 3
<MEAN> 39
 -1.544677e+01 -1.950713e+00 -2.135118e+00 -4.712154e-01 1.233759e+00 -9.122908e+00 8.034346e-01 -3.898202e+00 8.654212e+00 -4.879543e+00 9.980794e-01 -3.489689e+00 6.719350e+01 -8.913196e-01 3.254151e-01 -4.654805e-01 2.412786e-01 -2.525502e-01 -3.618805e-02 3.093199e-01 -3.244596e-01 2.155560e-01 5.457144e-02 1.642531e-01 6.119297e-02 4.437145e-01 4.008433e-02 -5.246153e-03 -3.418524e-03 -3.200677e-02 -1.206517e-01 -1.101739e-02 -8.844975e-02 -1.933378e-02 -2.716799e-02 2.915508e-02 -6.327162e-03 3.787136e-02 1.160342e-02
<VARIANCE> 39
 4.176841e+01 2.148846e+01 3.550158e+01 2.628060e+01 2.835790e+01 2.419262e+01 3.839384e+01 3.802254e+01 2.834049e+01 2.389659e+01 2.529572e+01 1.795316e+01 1.301527e+01 1.108127e+00 6.628802e-01 1.207196e+00 1.056143e+00 1.838372e+00 2.106860e+00 2.796442e+00 2.427332e+00 1.959724e+00 2.217168e+00 1.401834e+00 1.368193e+00 5.798103e-01 9.819740e-02 1.135764e-01 2.057796e-01 1.786256e-01 3.044649e-01 3.340785e-01 4.152831e-01 4.650530e-01 3.591632e-01 4.060867e-01 2.679733e-01 2.998295e-01 5.967694e-02
<GCONST> 1.001189e+02
<STATE> 4
<MEAN> 39
 -1.869829e+01 -1.515414e-01 -4.330903e+00 1.179413e+00 -1.129071e-01 -9.550518e+00 1.632114e+00 -6.615227e+00 9.635254e+00 -5.458895e+00 1.147929e+00 -2.728833e+00 6.956232e+01 2.755682e-01 -8.073314e-02 -4.298041e-02 -7.986022e-02 -3.695158e-01 -1.783830e-01 -2.653262e-01 -2.397044e-01 7.939839e-02 1.884862e-02 -1.631221e-01 -1.424233e-01 4.032404e-01 1.887103e-01 -1.299289e-01 3.349046e-02 -1.026351e-01 -3.867930e-02 1.310874e-02 -6.487101e-02 5.990858e-02 3.401344e-02 1.832250e-02 -4.130612e-02 -3.469529e-02 4.078576e-02
<VARIANCE> 39
 5.103220e+01 1.508555e+01 2.018542e+01 2.095915e+01 2.598645e+01 2.182848e+01 4.397525e+01 3.172259e+01 2.683845e+01 2.279407e+01 2.285949e+01 2.249401e+01 1.493856e+01 4.119890e+00 1.362093e+00 1.073447e+00 1.642959e+00 1.338190e+00 2.252259e+00 3.310769e+00 2.008945e+00 2.013626e+00 1.586198e+00 1.735621e+00 1.820668e+00 6.672654e-01 3.753295e-01 1.441460e-01 1.450305e-01 2.598436e-01 2.126227e-01 4.558750e-01 5.102189e-01 3.485520e-01 4.142506e-01 2.991693e-01 3.066299e-01 3.064442e-01 9.473664e-02
<GCONST> 1.034473e+02
<TRANSP> 5
 0.000000e+00 1.000000e+00 0.000000e+00 0.000000e+00 0.000000e+00
 0.000000e+00 6.658868e-01 3.341133e-01 0.000000e+00 0.000000e+00
 0.000000e+00 0.000000e+00 6.905962e-01 3.094038e-01 0.000000e+00
 0.000000e+00 0.000000e+00 0.000000e+00 8.737613e-01 1.262387e-01
 0.000000e+00 0.000000e+00 0.000000e+00 0.000000e+00 0.000000e+00
<ENDHMM>
~h "t"
<BEGINHMM>
<NUMSTATES> 5
<STATE> 2
<MEAN> 39
 -6.176302e+00 -5.713697e+00 2.819473e+00 -4.143903e+00 -2.883162e+00 -7.102341e+00 -6.040154e+00 9.595361e-01 3.290927e+00 -2.658052e+00 1.987925e+00 -3.353486e+00 6.466619e+01 -7.257384e-02 -8.238582e-02 1.794782e-01 -1.758085e-01 -2.098829e-01 -1.508442e-01 -1.748512e-01 -1.400955e-02 -2.630191e-01 -1.020341e-01 8.538477e-02 -7.145052e-03 3.544693e-02 -2.609871e-02 -2.106656e-03 3.813006e-02 2.880032e-03 1.059372e-02 2.357636e-02 1.219417e-02 1.186145e-03 2.623919e-02 -5.626919e-03 -1.431347e-02 -2.092352e-02 1.973550e-02
<VARIANCE> 39
 1.399345e+01 2.173419e+01 6.427256e+01 1.817498e+01 8.982915e+01 3.060804e+01 2.825354e+01 1.844563e+01 2.392530e+01 2.122417e+01 1.892817e+01 1.994785e+01 3.224158e+01 3.686632e-01 7.263079e-01 1.365335e+00 1.181131e+00 2.066177e+00 1.934381e+00 1.555283e+00 2.041314e+00 1.239695e+00 1.502349e+00 1.311046e+00 1.759672e+00 5.902162e-01 6.298530e-02 1.247189e-01 1.445697e-01 2.471039e-01 3.548072e-01 3.400148e-01 2.744490e-01 4.323241e-01 2.359389e-01 2.127634e-01 2.460205e-01 3.538940e-01 7.851554e-02
<GCONST> 9.649940e+01
<STATE> 3
<MEAN> 39
 -4.328631e+00 -8.154969e+00 1.153322e+01 -5.248291e+00 -1.116518e+01 -7.979756e+00 -8.232962e+00 -5.545942e-01 1.664236e-01 -4.117136e+00 4.389859e+00 -3.267945e+00 6.906670e+01 -6.710637e-02 7.456148e-02 5.773538e-02 8.649822e-03 1.075758e-01 9.505086e-02 5.509877e-02 -2.913260e-02 6.495568e-02 -5.665696e-02 -5.354736e-03 1.133619e-02 -1.147205e-01 -3.197511e-02 3.787796e-02 -3.662313e-02 1.582431e-02 2.069935e-02 3.591500e-03 1.170327e-02 2.062974e-02 3.221298e-02 1.039014e-02 -4.292128e-03 2.335575e-02 -6.814782e-03
<VARIANCE> 39
 9.993155e+00 1.937039e+01 1.469481e+02 1.352069e+01 1.261794e+02 2.405499e+01 3.081437e+01 1.906416e+01 3.802292e+01 1.350334e+01 2.785495e+01 1.439219e+01 5.628604e+01 4.767089e-01 6.958382e-01 3.068845e+00 1.017139e+00 3.197948e+00 1.635954e+00 1.595077e+00 1.589616e+00 1.583013e+00 1.068242e+00 1.386315e+00 1.227834e+00 1.019566e+00 8.098003e-02 8.946640e-02 3.691938e-01 1.874787e-01 4.812903e-01 2.891950e-01 2.507868e-01 3.172357e-01 2.589171e-01 1.800059e-01 2.304038e-01 2.444281e-01 1.278589e-01
<GCONST> 9.879207e+01
<STATE> 4
<MEAN> 39
 -7.152899e+00 -4.557114e+00 4.089410e+00 -4.346729e+00 -3.065392e+00 -7.566491e+00 -4.844561e+00 1.366893e-01 4.648623e+00 -3.553248e+00 1.877085e+00 -2.247914e+00 6.313928e+01 -3.417689e-01 8.911064e-02 -1.154908e-01 -3.671616e-02 2.509228e-02 8.120501e-02 1.734981e-01 4.847872e-03 6.039679e-02 -9.909435e-03 -2.433759e-02 1.160932e-01 2.502756e-03 -4.614658e-02 -1.690799e-02 1.179199e-02 5.184469e-03 -4.235398e-02 5.325389e-02 -3.426005e-02 3.671372e-02 -8.862456e-03 -2.969082e-03 2.371896e-02 -2.739930e-02 6.462311e-02
<VARIANCE> 39
 2.142950e+01 1.585228e+01 7.154079e+01 2.038420e+01 5.868170e+01 2.942898e+01 3.326621e+01 2.145449e+01 2.950268e+01 1.805026e+01 2.251010e+01 2.166044e+01 3.041493e+01 1.231334e+00 8.026060e-01 1.172400e+00 1.488873e+00 2.232036e+00 2.526409e+00 2.640034e+00 1.886457e+00 2.356813e+00 1.645801e+00 1.861211e+00 1.599772e+00 7.248556e-01 1.866281e-01 1.397954e-01 1.851378e-01 3.002476e-01 4.132541e-01 4.032750e-01 5.866738e-01 3.897408e-01 4.278386e-01 3.088433e-01 3.422183e-01 3.042446e-01 1.126507e-01
<GCONST> 1.044292e+02
<TRANSP> 5
 0.000000e+00 1.000000e+00 0.000000e+00 0.000000e+00 0.000000e+00
 0.000000e+00 8.544173e-01 1.455827e-01 0.000000e+00 0.000000e+00
 0.000000e+00 0.000000e+00 8.861147e-01 1.138854e-01 0.000000e+00
 0.000000e+00 0.000000e+00 0.000000e+00 8.723519e-01 1.276480e-01
 0.000000e+00 0.000000e+00 0.000000e+00 0.000000e+00 0.000000e+00
<ENDHMM>
~h "u"
<BEGINHMM>
<NUMSTATES> 5
<STATE> 2
<MEAN> 39
 -1.603075e+01 -4.435716e+00 5.131042e+00 -4.516131e+00 -5.116781e+00 -3.762189e+00 -7.404096e+00 2.272024e+00 2.190268e+00 -4.637558e+00 2.106699e+00 -1.421201e+00 7.007012e+01 -5.335514e-01 -5.650609e-02 6.382113e-01 3.034764e-01 -5.566594e-01 -1.299616e-01 -4.912468e-01 -4.537436e-02 -2.698318e-01 -2.453320e-01 6.437698e-02 6.696137e-02 8.608505e-01 1.619775e-01 -6.361409e-03 1.255512e-02 8.618566e-02 2.098251e-02 -1.307316e-01 -3.899653e-03 -4.533260e-02 1.111460e-02 -4.057511e-02 -4.123399e-02 -6.213398e-02 -7.358839e-02
<VARIANCE> 39
 6.755061e+01 2.046660e+01 3.268285e+01 4.844694e+01 2.513018e+01 5.073918e+01 4.055696e+01 2.008044e+01 3.004160e+01 2.061683e+01 1.852058e+01 2.526128e+01 3.322186e+01 5.278032e+00 2.686150e+00 1.170681e+00 3.556411e+00 1.624923e+00 3.218454e+00 4.126126e+00 1.609119e+00 1.601302e+00 2.021315e+00 1.989114e+00 2.688476e+00 2.250344e+00 4.829891e-01 5.718508e-01 2.043613e-01 5.786718e-01 2.575983e-01 3.935701e-01 7.313988e-01 2.858070e-01 3.309089e-01 3.925482e-01 4.241686e-01 5.485812e-01 3.203458e-01
<GCONST> 1.155841e+02
<STATE> 3
<MEAN> 39
 -1.143058e+01 -6.285582e+00 1.095890e+01 4.329628e-02 -7.561122e+00 -8.140682e+00 -1.209560e+01 1.472288e+00 2.205302e-01 -7.648703e+00 2.624969e+00 -2.357188e+00 7.331929e+01 8.456269e-01 -2.663253e-01 6.046980e-01 5.619206e-01 -1.845167e-01 -5.638832e-01 -6.175009e-01 -1.156514e-01 -6.855223e-02 -3.868745e-01 1.426044e-01 -1.700538e-01 2.477094e-01 6.142620e-02 -9.828448e-03 -3.426273e-02 -2.302746e-02 5.028206e-02 3.884649e-04 7.671438e-03 5.229452e-05 4.798031e-02 1.264406e-03 1.570036e-02 -1.271936e-02 -4.728574e-02
<VARIANCE> 39
 8.988573e+01 1.809519e+01 4.648753e+01 3.780066e+01 2.360952e+01 4.230256e+01 6.470075e+01 1.895733e+01 2.156425e+01 2.531187e+01 1.646051e+01 1.700504e+01 1.909571e+01 3.998380e+00 1.366641e+00 1.252427e+00 1.586016e+00 1.059692e+00 1.891156e+00 3.848727e+00 1.185765e+00 1.137670e+00 1.501967e+00 1.617045e+00 1.454319e+00 9.980630e-01 4.609042e-01 2.616321e-01 1.836122e-01 2.533217e-01 1.783091e-01 2.455723e-01 6.637956e-01 1.992577e-01 1.907446e-01 2.621879e-01 3.356417e-01 2.924034e-01 1.665624e-01
<GCONST> 1.039904e+02
<STATE> 4
<MEAN> 39
 -3.413075e+00 -6.335594e+00 9.097263e+00 1.051626e+00 -3.643852e+00 -9.230968e+00 -1.331916e+01 8.185207e-01 5.433014e+00 -5.334323e+00 3.299679e+00 -5.255675e+00 6.941206e+01 -6.054575e-02 1.034850e-01 -3.615682e-01 -1.304716e-01 2.289878e-01 1.046850e-01 3.015997e-01 4.389666e-02 2.216460e-01 2.505175e-01 -5.230118e-02 -5.749890e-02 -2.321077e-01 -4.726215e-02 1.625207e-02 -1.764995e-02 4.107773e-03 1.288928e-02 2.007318e-02 4.085641e-02 8.422912e-04 1.272913e-02 1.492129e-02 -2.055029e-02 6.436846e-03 -6.391620e-03
<VARIANCE> 39
 1.613944e+01 1.700035e+01 4.747761e+01 2.884756e+01 3.398875e+01 4.139460e+01 6.237870e+01 1.806111e+01 3.124076e+01 5.772863e+01 2.135719e+01 1.321410e+01 3.556530e+01 6.817991e-01 6.654060e-01 7.689637e-01 8.767594e-01 1.172326e+00 1.585886e+00 1.910351e+00 1.005350e+00 1.478469e+00 1.471126e+00 1.104388e+00 9.559206e-01 3.295279e-01 7.960053e-02 8.898515e-02 1.238680e-01 1.437345e-01 1.792703e-01 2.039151e-01 3.001111e-01 1.666532e-01 2.605217e-01 2.305591e-01 1.953336e-01 1.661867e-01 2.878123e-02
<GCONST> 9.024023e+01
<TRANSP> 5
 0.000000e+00 1.000000e+00 0.000000e+00 0.000000e+00 0.000000e+00
 0.000000e+00 9.040064e-01 9.599367e-02 0.000000e+00 0.000000e+00
 0.000000e+00 0.000000e+00 8.889957e-01 1.110043e-01 0.000000e+00
 0.000000e+00 0.000000e+00 0.000000e+00 9.692106e-01 3.078948e-02
 0.000000e+00 0.000000e+00 0.000000e+00 0.000000e+00 0.000000e+00
<ENDHMM>
~h "v"
<BEGINHMM>
<NUMSTATES> 5
<STATE> 2
<MEAN> 39
 -2.261895e+00 -1.186139e+01 1.047783e-01 -7.306493e+00 -5.084713e+00 -7.431706e+00 -6.291759e+00 -4.816624e+00 1.328680e+01 -4.928989e+00 -2.642340e+00 -9.562042e+00 7.719138e+01 7.635683e-01 -3.819413e-01 -1.894460e-02 -5.964975e-01 3.665044e-01 5.362917e-01 -2.806519e-01 -1.152843e-01 3.791159e-02 1.688662e-01 2.378442e-01 -3.509687e-01 -1.842422e-02 -2.081472e-01 1.790481e-01 -1.098595e-02 9.921692e-02 5.730531e-02 4.947187e-02 5.971880e-02 -1.294321e-02 -1.479378e-01 4.468328e-02 2.579567e-01 1.023704e-01 -1.546800e-01
<VARIANCE> 39
 2.688309e+01 3.981961e+01 1.640558e+01 2.845595e+01 1.668790e+01 2.482782e+01 2.696864e+01 2.744408e+01 3.580962e+01 2.150278e+01 3.026107e+01 1.827047e+01 3.974823e+01 3.371636e+00 4.207470e+00 7.839687e-01 2.295538e+00 1.836689e+00 1.812500e+00 3.461931e+00 1.748963e+00 2.781037e+00 1.579040e+00 2.782184e+00 1.396333e+00 3.200842e+00 4.617980e-01 4.215122e-01 9.249228e-02 3.182317e-01 2.435590e-01 3.772845e-01 7.401332e-01 3.061119e-01 4.356415e-01 2.831649e-01 4.201652e-01 2.640942e-01 3.842432e-01
<GCONST> 1.100384e+02
<STATE> 3
<MEAN> 39
 -1.004324e+00 -1.017207e+01 6.692320e-01 -7.922282e+00 -2.194119e+00 -5.289312e+00 -7.650792e+00 -5.308118e+00 1.073552e+01 -2.387612e+00 1.723138e+00 -8.868459e+00 7.374152e+01 -8.147199e-02 5.912266e-01 -3.569253e-02 1.328641e-01 6.713405e-01 4.878489e-01 -2.889411e-01 -8.249291e-02 -7.135941e-01 4.596512e-01 9.020349e-01 2.406111e-01 -7.945712e-01 -5.256769e-02 -1.581305e-02 6.767149e-03 2.508019e-02 -4.751347e-02 -3.307321e-02 8.441046e-04 7.819677e-02 -1.829952e-02 -1.454351e-02 -1.199346e-02 4.767194e-02 2.370962e-02
<VARIANCE> 39
 1.195022e+01 3.647940e+01 1.373543e+01 1.895508e+01 1.905303e+01 2.051941e+01 2.753340e+01 2.418007e+01 3.970011e+01 2.225217e+01 3.975789e+01 1.885515e+01 5.000402e+01 1.243968e+00 3.410872e+00 8.367044e-01 1.940750e+00 1.570371e+00 1.739555e+00 3.313790e+00 1.763052e+00 3.268754e+00 1.660495e+00 3.394448e+00 1.698766e+00 2.975224e+00 2.196406e-01 5.496576e-01 1.086319e-01 3.482862e-01 2.596570e-01 3.151264e-01 6.757599e-01 2.864023e-01 5.497530e-01 2.761247e-01 5.797543e-01 3.235687e-01 4.750910e-01
<GCONST> 1.084987e+02
<STATE> 4
<MEAN> 39
 -5.008590e+00 -7.682889e+00 -6.087078e-01 -6.909606e+00 4.396724e-01 -3.620538e+00 -6.317165e+00 -2.607950e+00 8.536251e+00 -1.675652e+00 2.656991e+00 -6.611223e+00 6.870750e+01 -1.366019e-01 1.217725e-02 -1.619520e-01 -2.250336e-02 1.252981e-01 1.692277e-01 6.706952e-03 1.800544e-01 -4.642800e-02 7.307044e-02 7.036977e-02 -2.180887e-02 3.659595e-03 3.695633e-02 -4.467710e-02 3.092709e-02 -1.298944e-02 -6.429480e-02 -3.124427e-02 2.606189e-03 1.142646e-02 4.620337e-02 -1.192992e-02 -4.587174e-02 -3.910513e-02 4.983030e-02
<VARIANCE> 39
 3.766128e+01 1.741357e+01 2.785000e+01 1.818285e+01 2.208989e+01 2.237086e+01 3.850380e+01 2.092492e+01 3.111396e+01 1.886189e+01 2.211966e+01 1.679800e+01 3.017260e+01 1.175334e+00 1.725649e+00 7.808702e-01 1.708898e+00 1.308441e+00 1.982555e+00 2.177511e+00 1.695197e+00 2.131484e+00 1.333266e+00 2.045689e+00 1.371375e+00 1.535150e+00 1.830762e-01 3.302822e-01 1.369505e-01 3.330926e-01 2.455001e-01 3.472805e-01 4.331763e-01 2.835545e-01 4.006208e-01 2.437660e-01 3.736925e-01 2.590075e-01 2.657867e-01
<GCONST> 1.023052e+02
<TRANSP> 5
 0.000000e+00 1.000000e+00 0.000000e+00 0.000000e+00 0.000000e+00
 0.000000e+00 8.135504e-01 1.864496e-01 0.000000e+00 0.000000e+00
 0.000000e+00 0.000000e+00 7.909263e-01 2.090737e-01 0.000000e+00
 0.000000e+00 0.000000e+00 0.000000e+00 9.143991e-01 8.560093e-02
 0.000000e+00 0.000000e+00 0.000000e+00 0.000000e+00 0.000000e+00
<ENDHMM>
~h "w"
<BEGINHMM>
<NUMSTATES> 5
<STATE> 2
<MEAN> 39
 -8.112394e+00 -3.718717e+00 9.948742e-01 -5.778744e+00 -7.339923e-01 -5.151315e+00 -3.401803e+00 5.039011e-01 2.680314e+00 -3.093626e+00 3.340475e+00 -1.559533e+00 6.113433e+01 2.475185e-01 2.046404e-01 -6.985844e-02 -1.941936e-01 -1.372965e-01 -2.821852e-01 -6.747985e-02 1.258201e-01 -2.077701e-01 -2.681842e-01 2.316533e-02 2.132297e-01 5.096971e-02 6.231918e-02 3.086176e-02 4.066472e-02 -1.938500e-02 -3.433194e-02 -3.901661e-02 -2.773044e-02 -9.321959e-03 1.023612e-02 1.122708e-02 -1.496578e-03 -1.414177e-02 4.591709e-02
<VARIANCE> 39
 2.000223e+01 1.604646e+01 1.435606e+01 2.159099e+01 2.347027e+01 4.181628e+01 2.428738e+01 3.092720e+01 2.476738e+01 2.378101e+01 1.994626e+01 3.691637e+01 9.412651e+00 7.332175e-01 7.867851e-01 7.511103e-01 1.527841e+00 1.509513e+00 2.261693e+00 1.925275e+00 2.092728e+00 2.081153e+00 1.877253e+00 1.761873e+00 1.089114e+00 3.177665e-01 9.376857e-02 1.306965e-01 1.733122e-01 2.600697e-01 2.835603e-01 4.040027e-01 3.580596e-01 4.210717e-01 4.045594e-01 3.500549e-01 3.335820e-01 2.316547e-01 3.489384e-02
<GCONST> 9.556438e+01
<STATE> 3
<MEAN> 39
 -2.840693e+00 -8.464669e-01 1.055675e+00 -8.669367e+00 -3.313530e+00 -8.649664e+00 -4.812546e+00 5.775114e-01 2.152366e+00 -5.425447e+00 1.150090e+00 -2.622692e+00 6.385477e+01 8.119315e-01 6.296643e-01 7.545935e-02 -7.009535e-01 -5.771935e-01 -1.699530e-01 -1.494619e-01 -1.727017e-01 -8.726124e-02 -1.820229e-01 -9.776528e-02 1.474443e-02 5.933836e-01 3.540066e-02 -3.133737e-03 -2.903829e-02 -1.293103e-01 -1.217706e-01 7.965679e-02 2.078504e-02 -9.165341e-03 2.202325e-02 3.595693e-02 6.372279e-02 1.092181e-02 8.035056e-02
<VARIANCE> 39
 2.739926e+01 1.829193e+01 1.438059e+01 2.215477e+01 3.091736e+01 3.750579e+01 2.028729e+01 2.974416e+01 2.520489e+01 1.899114e+01 2.329976e+01 2.342361e+01 1.605608e+01 1.301152e+00 1.597672e+00 1.458257e+00 1.799395e+00 2.221272e+00 1.658558e+00 1.596254e+00 2.033122e+00 1.734461e+00 1.642694e+00 1.825269e+00 1.410434e+00 4.584251e-01 1.855022e-01 2.242177e-01 3.034892e-01 2.936017e-01 4.320361e-01 3.789058e-01 3.617981e-01 3.122626e-01 3.288439e-01 2.804118e-01 3.872384e-01 2.707815e-01 5.720747e-02
<GCONST> 1.006683e+02
<STATE> 4
<MEAN> 39
 2.884766e+00 -9.906648e+00 -4.081147e+00 -1.441583e+01 -6.121382e+00 3.936021e+00 -6.275435e-01 -3.073804e+00 2.169743e+00 -5.363197e+00 2.847196e+00 -5.018491e+00 7.494161e+01 9.347324e-02 -6.511743e-01 -3.257131e-01 1.509882e-01 1.376667e-01 5.822974e-01 -3.280930e-02 -2.641099e-01 3.940536e-01 9.395240e-02 3.798254e-02 -1.346194e-01 4.979199e-01 -5.662921e-02 -2.690261e-03 5.157402e-03 9.258931e-02 3.967903e-02 -5.109337e-02 -3.651799e-02 2.406122e-02 2.806222e-02 2.993876e-02 -4.303018e-03 -1.245101e-02 -6.020936e-02
<VARIANCE> 39
 7.862936e+00 9.354655e+01 2.416043e+01 3.225887e+01 3.771226e+01 8.705785e+01 2.555213e+01 4.101587e+01 3.099084e+01 1.478509e+01 1.918360e+01 1.179464e+01 2.954072e+01 5.490934e-01 2.608975e+00 8.567756e-01 1.832432e+00 2.127313e+00 3.759815e+00 1.672501e+00 1.656503e+00 1.660126e+00 8.300853e-01 1.287870e+00 8.479280e-01 5.464087e-01 6.236691e-02 2.351955e-01 1.229468e-01 1.763667e-01 2.426254e-01 3.836511e-01 2.088726e-01 2.423254e-01 2.493589e-01 1.546627e-01 2.153385e-01 1.494493e-01 3.880343e-02
<GCONST> 9.528349e+01
<TRANSP> 5
 0.000000e+00 1.000000e+00 0.000000e+00 0.000000e+00 0.000000e+00
 0.000000e+00 9.099115e-01 9.008853e-02 0.000000e+00 0.000000e+00
 0.000000e+00 0.000000e+00 7.754455e-01 2.245544e-01 0.000000e+00
 0.000000e+00 0.000000e+00 0.000000e+00 9.592144e-01 4.078563e-02
 0.000000e+00 0.000000e+00 0.000000e+00 0.000000e+00 0.000000e+00
<ENDHMM>
~h "z"
<BEGINHMM>
<NUMSTATES> 5
<STATE> 2
<MEAN> 39
 -4.483752e+00 -3.475491e+00 -5.186509e-01 -2.132702e+00 4.384945e+00 -3.584312e+00 -1.925647e-01 -1.520578e+00 2.369392e+00 -1.350264e+00 1.022016e+00 -5.347819e+00 5.975989e+01 -4.976172e-02 1.024183e-01 -1.625561e-01 -2.798311e-01 -7.341220e-01 -8.821214e-01 -6.374745e-01 -4.881450e-01 -3.208930e-01 8.847853e-02 1.112102e-01 -4.307220e-03 -1.115701e-01 8.248597e-02 4.722482e-02 -7.793438e-03 5.362665e-02 -1.212502e-01 -1.015484e-01 -1.398946e-01 -4.928569e-02 8.618240e-02 5.491989e-02 1.046980e-01 1.442233e-02 9.932039e-02
<VARIANCE> 39
 5.486121e+00 2.275781e+01 1.778280e+01 3.570984e+01 2.000473e+01 3.276125e+01 2.349518e+01 1.350916e+01 1.996635e+01 2.909031e+01 3.286092e+01 1.506339e+01 4.952396e+00 6.119782e-01 1.140653e+00 1.369424e+00 1.378935e+00 1.584381e+00 1.686917e+00 2.897779e+00 1.390743e+00 2.328488e+00 2.437143e+00 1.033364e+00 1.134283e+00 3.154689e-01 5.918334e-02 1.903212e-01 1.673114e-01 2.100304e-01 3.333474e-01 4.187693e-01 5.300937e-01 2.677285e-01 3.501774e-01 4.326721e-01 2.336487e-01 2.326301e-01 3.379716e-02
<GCONST> 9.282381e+01
<STATE> 3
<MEAN> 39
 -5.079375e+00 -3.346362e+00 -1.285841e+00 -2.830541e+00 1.671543e+00 -6.310083e+00 -2.081958e+00 -1.828336e+00 3.234930e+00 -3.157001e-01 1.500202e+00 -5.069709e+00 5.904599e+01 1.739619e-01 2.976776e-01 1.849400e-02 2.161435e-02 -4.381914e-01 -6.151375e-01 -6.468650e-01 -2.323120e-01 -8.178689e-02 4.948109e-02 3.766562e-01 1.308315e-01 7.616621e-02 3.483920e-03 6.281210e-02 2.206438e-02 1.314303e-01 1.245869e-01 1.334239e-01 8.618414e-02 9.880020e-03 1.530074e-01 7.631309e-02 8.498955e-02 2.850672e-02 6.118951e-02
<VARIANCE> 39
 5.700365e+00 2.486358e+01 1.738139e+01 3.088062e+01 1.793362e+01 3.135317e+01 4.247687e+01 1.158499e+01 3.124265e+01 3.779939e+01 2.882556e+01 1.653120e+01 6.701630e+00 5.689394e-01 1.521043e+00 1.533342e+00 1.682750e+00 2.403748e+00 2.063676e+00 3.713106e+00 1.694173e+00 2.363712e+00 2.648394e+00 1.107309e+00 1.515879e+00 3.408235e-01 7.161426e-02 2.368777e-01 1.895473e-01 2.123528e-01 4.284638e-01 4.064970e-01 6.324145e-01 2.129957e-01 4.679850e-01 5.565659e-01 2.310039e-01 2.448651e-01 4.157115e-02
<GCONST> 9.767015e+01
<STATE> 4
<MEAN> 39
 -4.564553e+00 -2.278083e+00 -3.147679e+00 -6.127439e+00 8.557851e-01 -5.574702e+00 -2.114548e+00 -1.322655e+00 5.010001e+00 9.980208e-01 4.159450e+00 -3.746468e+00 5.910390e+01 2.419668e-01 2.304695e-01 2.047997e-02 1.570447e-01 1.329434e-02 4.186911e-02 4.234655e-02 -1.760518e-02 -2.912016e-02 -8.922635e-03 2.735898e-01 -1.364602e-01 3.351144e-01 -3.753360e-02 6.709210e-02 1.055363e-03 1.534026e-01 5.536630e-02 9.596606e-02 1.398301e-01 2.850794e-02 1.796973e-01 -1.196904e-01 -8.618718e-02 -5.500795e-02 8.034133e-02
<VARIANCE> 39
 7.455430e+00 1.298762e+01 2.422186e+01 5.040033e+01 1.080126e+01 3.390398e+01 3.888453e+01 1.233743e+01 4.251651e+01 3.873350e+01 2.427220e+01 2.203164e+01 1.114571e+01 4.283948e-01 7.013373e-01 1.000305e+00 1.750374e+00 1.336686e+00 2.015414e+00 2.489244e+00 2.296515e+00 3.132455e+00 2.495816e+00 1.906575e+00 3.021010e+00 3.502821e-01 1.281151e-01 1.310205e-01 2.288396e-01 1.700759e-01 2.520714e-01 3.581868e-01 4.841201e-01 3.686898e-01 6.057302e-01 4.763503e-01 4.336642e-01 5.775161e-01 3.230751e-02
<GCONST> 9.886233e+01
<TRANSP> 5
 0.000000e+00 1.000000e+00 0.000000e+00 0.000000e+00 0.000000e+00
 0.000000e+00 6.638010e-01 3.361990e-01 0.000000e+00 0.000000e+00
 0.000000e+00 0.000000e+00 6.891126e-01 3.108874e-01 0.000000e+00
 0.000000e+00 0.000000e+00 0.000000e+00 8.228607e-01 1.771393e-01
 0.000000e+00 0.000000e+00 0.000000e+00 0.000000e+00 0.000000e+00
<ENDHMM>
~h "O:"
<BEGINHMM>
<NUMSTATES> 5
<STATE> 2
<MEAN> 39
 -3.756511e+00 -3.960915e+00 -1.132836e+00 -6.763371e+00 -3.907148e+00 -7.173704e+00 -4.168932e+00 -2.140369e+00 2.376879e+00 -1.316055e+00 -1.167621e+00 -2.780042e+00 6.643125e+01 5.358717e-03 1.775172e-03 -2.420640e-01 -4.139181e-01 -4.715311e-01 1.525567e-02 1.364919e-01 -2.273262e-02 -1.280837e-01 -8.861637e-02 2.345181e-02 8.091016e-02 -1.539764e-02 -2.748584e-03 -2.223159e-02 -1.785586e-02 3.688204e-02 -1.283928e-02 -2.161630e-02 2.791025e-03 3.362443e-02 -7.198364e-03 -4.634991e-02 -2.581559e-02 -5.099164e-02 7.626119e-04
<VARIANCE> 39
 4.202241e+01 9.215528e+00 2.203210e+01 4.914472e+01 8.571626e+01 3.012251e+01 2.082861e+01 2.840221e+01 5.891765e+01 3.569213e+01 2.296572e+01 1.557333e+01 1.318671e+01 9.146621e-01 6.455299e-01 1.354618e+00 1.889032e+00 2.510494e+00 1.373645e+00 1.242795e+00 1.842965e+00 2.543130e+00 1.964958e+00 1.239390e+00 1.213009e+00 2.997651e-01 1.620445e-01 8.921483e-02 2.619343e-01 3.010340e-01 3.360850e-01 2.318664e-01 2.719727e-01 3.701984e-01 4.877052e-01 3.704961e-01 2.367522e-01 2.437206e-01 4.499546e-02
<GCONST> 9.897456e+01
<STATE> 3
<MEAN> 39
 -2.347986e+00 -4.079603e+00 -2.376368e+00 -1.154558e+01 -1.045758e+01 -5.219677e+00 -2.045630e+00 -2.070039e+00 3.986301e+00 -5.190761e+00 -1.278733e+00 -1.242588e+00 6.868478e+01 4.164595e-01 -6.017523e-02 -2.720254e-02 -2.979230e-01 -3.043139e-01 -1.057185e-01 1.528639e-01 1.519350e-01 2.552761e-02 -2.177350e-01 -1.152079e-01 -7.292297e-02 1.043680e-01 6.812634e-02 8.622817e-03 5.297836e-02 1.121442e-02 2.089811e-02 1.052350e-02 -2.458442e-02 1.364625e-02 -3.758128e-02 -8.565655e-02 -3.033096e-02 -1.740842e-02 5.542756e-03
<VARIANCE> 39
 8.086971e+01 1.138725e+01 2.118561e+01 6.152825e+01 6.758627e+01 1.590344e+01 2.326692e+01 2.545188e+01 4.316407e+01 3.640125e+01 2.254842e+01 1.934581e+01 2.046697e+01 1.466054e+00 7.501220e-01 1.033882e+00 2.104923e+00 1.416327e+00 8.660892e-01 1.236238e+00 1.147810e+00 1.847542e+00 2.053692e+00 1.264307e+00 1.671421e+00 3.851231e-01 2.272867e-01 1.051760e-01 1.875897e-01 4.033528e-01 2.491080e-01 1.486573e-01 2.628387e-01 2.214798e-01 2.974279e-01 3.915341e-01 2.314233e-01 3.503972e-01 8.661320e-02
<GCONST> 9.848656e+01
<STATE> 4
<MEAN> 39
 1.767587e+00 -6.470827e+00 -2.513502e+00 -1.177462e+01 -8.402019e+00 -4.320382e+00 -1.298698e+00 2.546372e-01 5.178349e+00 -6.056567e+00 -4.573850e-01 -2.883151e-01 7.054288e+01 4.913415e-02 -5.175756e-02 -4.840200e-02 2.110519e-01 2.710630e-01 5.264362e-02 3.011468e-02 1.012290e-01 -9.565283e-03 6.181760e-02 3.777917e-02 -2.408639e-03 -8.052830e-02 -4.295470e-02 1.136968e-03 1.286119e-02 4.085307e-02 2.091281e-02 -1.493169e-03 -6.144029e-04 1.157267e-03 -3.650814e-03 1.845439e-02 1.518161e-02 -1.057432e-02 -2.228421e-02
<VARIANCE> 39
 5.453805e+01 2.287098e+01 2.691305e+01 8.824194e+01 8.653319e+01 2.293945e+01 1.931322e+01 1.998319e+01 1.659202e+01 4.245495e+01 1.785411e+01 3.580199e+01 2.074814e+01 1.537377e+00 1.328836e+00 1.183824e+00 2.734380e+00 3.015616e+00 1.509201e+00 1.295401e+00 1.756558e+00 1.262325e+00 2.023259e+00 1.229875e+00 2.033669e+00 8.143889e-01 1.680768e-01 1.933676e-01 1.655313e-01 2.949117e-01 3.755247e-01 2.587260e-01 2.245651e-01 3.066506e-01 2.083539e-01 2.988435e-01 2.206219e-01 3.404855e-01 1.094088e-01
<GCONST> 1.030226e+02
<TRANSP> 5
 0.000000e+00 1.000000e+00 0.000000e+00 0.000000e+00 0.000000e+00
 0.000000e+00 8.963854e-01 1.036146e-01 0.000000e+00 0.000000e+00
 0.000000e+00 0.000000e+00 8.146275e-01 1.853726e-01 0.000000e+00
 0.000000e+00 0.000000e+00 0.000000e+00 9.748198e-01 2.518020e-02
 0.000000e+00 0.000000e+00 0.000000e+00 0.000000e+00 0.000000e+00
<ENDHMM>
~h "aI"
<BEGINHMM>
<NUMSTATES> 5
<STATE> 2
<MEAN> 39
 9.302490e-01 -1.695117e+01 -2.550508e+00 -5.647109e+00 -3.654421e+00 3.606584e+00 -3.410581e+00 -7.442806e+00 1.143374e+01 -2.570267e+00 -3.295877e+00 -8.257874e+00 7.780978e+01 4.141428e-02 -8.047548e-01 -5.403027e-01 -1.864175e-01 3.233476e-02 4.675620e-01 -1.455382e-02 1.738140e-01 4.177519e-01 -5.220739e-01 -4.607970e-01 9.792972e-02 6.441016e-01 -4.150773e-02 1.265577e-01 1.048390e-01 -4.062904e-03 3.346339e-02 -1.014335e-01 2.060456e-02 -3.226205e-03 -2.283447e-02 5.313749e-03 2.530578e-02 6.875345e-02 -1.025571e-01
<VARIANCE> 39
 4.004141e+00 3.353361e+01 2.102259e+01 4.714787e+01 1.796576e+01 3.414648e+01 2.652405e+01 3.193558e+01 1.921181e+01 2.325108e+01 1.919053e+01 1.814971e+01 2.370786e+01 3.223626e-01 1.830588e+00 2.074266e+00 8.845501e-01 1.245869e+00 2.071656e+00 1.252855e+00 2.325423e+00 8.092128e-01 1.834002e+00 1.295863e+00 9.021197e-01 1.495673e+00 5.464729e-02 2.088653e-01 2.296982e-01 1.248177e-01 1.904431e-01 2.073164e-01 1.997576e-01 3.400862e-01 1.386080e-01 3.139126e-01 2.636339e-01 1.460169e-01 1.534619e-01
<GCONST> 9.259600e+01
<STATE> 3
<MEAN> 39
 6.216624e-01 -1.917199e+01 -2.515092e+00 -6.419787e+00 -3.892088e+00 3.769052e+00 -3.519007e+00 -6.335147e+00 1.380007e+01 -4.900748e+00 -4.788102e+00 -6.384078e+00 7.922441e+01 -8.839595e-02 -4.402946e-02 3.651797e-01 1.749009e-01 -3.847658e-01 -4.885112e-01 -5.393156e-02 5.358636e-01 2.304463e-01 -2.849412e-01 -4.926768e-02 3.268437e-01 -2.666875e-02 -1.365963e-02 8.390386e-02 1.139547e-01 4.056734e-02 -7.647406e-02 -1.072221e-01 -1.035696e-03 6.150637e-02 -6.636987e-02 2.134937e-02 1.034254e-01 1.484032e-02 -6.591271e-02
<VARIANCE> 39
 3.740272e+00 1.585943e+01 1.331041e+01 2.732151e+01 1.857870e+01 3.765887e+01 2.176013e+01 3.687354e+01 1.780157e+01 1.568005e+01 1.667564e+01 1.931202e+01 6.051731e+00 1.134240e-01 5.836469e-01 8.687548e-01 6.165837e-01 1.042059e+00 1.189863e+00 6.492151e-01 1.614512e+00 6.998197e-01 9.806634e-01 1.151728e+00 4.287024e-01 3.696392e-01 2.010341e-02 7.630683e-02 6.889031e-02 6.161236e-02 1.100395e-01 9.240277e-02 8.575682e-02 1.569491e-01 1.004044e-01 1.568534e-01 1.528962e-01 7.663465e-02 4.229316e-02
<GCONST> 7.034714e+01
<STATE> 4
<MEAN> 39
 -1.384036e+00 -1.525474e+01 6.745234e+00 -2.455582e+00 -1.094878e+01 -4.845637e+00 -4.473326e+00 2.549421e+00 1.104769e+01 -7.337257e+00 7.090778e-01 -3.164081e+00 7.605576e+01 -1.200690e-01 8.977827e-01 5.361094e-01 4.109904e-01 1.283702e-01 -7.908894e-01 -1.613974e-01 1.688497e-01 -5.913994e-01 3.020768e-01 5.467588e-01 -7.383741e-02 -6.912153e-01 6.373265e-03 1.271538e-01 -1.400213e-01 2.078506e-02 2.554609e-01 8.156209e-02 3.590408e-03 -2.008178e-01 -2.679838e-02 1.443612e-01 -8.737828e-02 -9.545866e-02 -9.855063e-02
<VARIANCE> 39
 7.026853e+00 3.015007e+01 4.413511e+01 1.998930e+01 3.688307e+01 4.504477e+01 1.652048e+01 3.944770e+01 3.248388e+01 1.720587e+01 4.584689e+01 1.618022e+01 1.364226e+01 3.085482e-01 1.240508e+00 1.624276e+00 7.094952e-01 3.736342e+00 8.496228e-01 1.030003e+00 2.806381e+00 1.117402e+00 1.832923e+00 2.249044e+00 9.435760e-01 5.860086e-01 4.865737e-02 1.362420e-01 1.325078e-01 1.087461e-01 2.976315e-01 1.403975e-01 1.582775e-01 3.412387e-01 1.698890e-01 2.331400e-01 2.840574e-01 1.175787e-01 6.507438e-02
<GCONST> 9.088181e+01
<TRANSP> 5
 0.000000e+00 1.000000e+00 0.000000e+00 0.000000e+00 0.000000e+00
 0.000000e+00 9.001300e-01 9.986988e-02 0.000000e+00 0.000000e+00
 0.000000e+00 0.000000e+00 8.905813e-01 1.094188e-01 0.000000e+00
 0.000000e+00 0.000000e+00 0.000000e+00 9.234692e-01 7.653074e-02
 0.000000e+00 0.000000e+00 0.000000e+00 0.000000e+00 0.000000e+00
<ENDHMM>
~h "eh"
<BEGINHMM>
<NUMSTATES> 5
<STATE> 2
<MEAN> 39
 1.257088e+00 -1.098560e+01 -2.430811e+00 -6.438411e+00 -2.823586e-01 -1.206899e-02 -9.440975e+00 -4.276506e+00 9.493361e+00 -2.593529e-01 3.960226e+00 -8.145824e+00 7.462132e+01 6.127090e-02 4.598149e-01 3.221081e-01 5.234799e-01 -1.668760e-01 -2.929953e-01 -3.168617e-01 2.474959e-01 1.525145e-01 3.691893e-01 1.634215e-01 -2.418330e-01 -4.505290e-01 -4.446868e-02 8.989704e-02 2.057226e-01 1.021715e-01 -1.813649e-02 -3.642608e-02 1.930352e-01 -1.888351e-01 -1.147454e-01 5.236847e-02 -1.161676e-02 4.745685e-02 -1.829881e-01
<VARIANCE> 39
 3.048252e+00 1.388361e+01 2.328732e+01 1.183161e+01 1.131129e+01 2.542330e+01 3.211687e+01 2.516865e+01 1.929495e+01 1.401874e+01 2.829014e+01 1.555844e+01 1.236219e+01 2.490668e-01 9.446116e-01 1.294398e+00 1.029767e+00 8.998176e-01 1.015537e+00 1.626085e+00 2.489727e+00 1.743687e+00 9.974975e-01 1.617024e+00 9.854290e-01 1.329394e+00 4.859440e-02 8.226030e-02 2.612915e-01 1.484439e-01 1.771525e-01 1.359964e-01 2.243203e-01 4.155177e-01 3.029989e-01 1.756182e-01 3.439563e-01 1.982460e-01 1.436283e-01
<GCONST> 8.662229e+01
<STATE> 3
<MEAN> 39
 1.148694e+00 -9.704802e+00 -1.309279e+00 -4.874331e+00 -3.565471e-01 -8.033361e-01 -9.144177e+00 -4.283644e+00 9.579260e+00 4.189800e-01 3.985306e+00 -8.378874e+00 7.309464e+01 -9.297100e-02 7.488153e-01 7.567269e-01 7.420072e-01 -1.606230e-02 -3.969717e-01 1.892940e-01 -2.646118e-01 -1.947833e-01 4.554866e-01 1.183380e-01 1.955961e-02 -9.087990e-01 -6.703068e-02 9.038498e-02 1.975960e-01 3.980611e-02 7.592908e-02 -1.505040e-02 1.467074e-01 -1.803814e-01 -1.131711e-01 1.845455e-02 -1.312289e-02 1.287365e-01 -1.452102e-01
<VARIANCE> 39
 3.877867e+00 1.465544e+01 3.129241e+01 1.380784e+01 1.334331e+01 2.180079e+01 3.396164e+01 2.964064e+01 1.839588e+01 1.299018e+01 2.810311e+01 1.814117e+01 1.644739e+01 2.369381e-01 7.011297e-01 2.464236e+00 7.544965e-01 9.647216e-01 1.033651e+00 1.374049e+00 3.126065e+00 1.638408e+00 1.392742e+00 1.606507e+00 1.287327e+00 1.018529e+00 4.341517e-02 8.239479e-02 4.087859e-01 1.420444e-01 1.918984e-01 1.600527e-01 2.425963e-01 5.006130e-01 2.853562e-01 2.007580e-01 3.114192e-01 2.406514e-01 1.275296e-01
<GCONST> 8.915288e+01
<STATE> 4
<MEAN> 39
 -1.314778e+00 -5.820530e+00 2.014512e+00 -3.668518e+00 5.853938e-01 -1.296322e+00 -5.343323e+00 -4.102777e+00 7.928264e+00 1.691559e+00 2.998592e+00 -6.704106e+00 6.720487e+01 -3.428189e-01 4.578119e-01 3.185291e-01 1.608717e-01 1.470834e-01 -1.619017e-01 4.826613e-01 1.625260e-01 -2.089989e-01 1.323146e-01 -6.597365e-02 1.103454e-01 -6.552367e-01 -2.542234e-02 -4.677799e-02 -6.248857e-02 -3.680185e-02 1.161256e-02 2.120988e-02 3.048866e-03 7.889450e-02 1.601461e-02 -6.412593e-02 -1.950314e-02 -2.163221e-02 4.356765e-02
<VARIANCE> 39
 1.082093e+01 1.877061e+01 3.083984e+01 2.604189e+01 1.809402e+01 2.634717e+01 3.700007e+01 4.025400e+01 1.917236e+01 1.523612e+01 2.520956e+01 2.232129e+01 1.697689e+01 2.944950e-01 1.380312e+00 2.768647e+00 1.432868e+00 1.220691e+00 1.701932e+00 2.310141e+00 3.367203e+00 1.526820e+00 1.583847e+00 1.880298e+00 1.842124e+00 6.353823e-01 4.556086e-02 1.767151e-01 3.987315e-01 1.997267e-01 2.142575e-01 2.725355e-01 3.830882e-01 5.571349e-01 2.719639e-01 2.785748e-01 3.438353e-01 3.549452e-01 8.174160e-02
<GCONST> 9.800171e+01
<TRANSP> 5
 0.000000e+00 1.000000e+00 0.000000e+00 0.000000e+00 0.000000e+00
 0.000000e+00 5.317455e-01 4.682545e-01 0.000000e+00 0.000000e+00
 0.000000e+00 0.000000e+00 5.769811e-01 4.230189e-01 0.000000e+00
 0.000000e+00 0.000000e+00 0.000000e+00 8.901806e-01 1.098193e-01
 0.000000e+00 0.000000e+00 0.000000e+00 0.000000e+00 0.000000e+00
<ENDHMM>
~h "sil"
<BEGINHMM>
<NUMSTATES> 5
<STATE> 2
<MEAN> 39
 -7.760005e+00 -3.913246e+00 5.213013e-01 -5.542595e+00 5.605569e-01 -7.548015e+00 -4.180976e+00 4.850317e-01 4.291810e+00 -1.761908e+00 7.090200e-01 -4.856468e+00 6.047364e+01 8.180915e-03 4.250110e-02 -2.756279e-02 -1.215321e-02 -1.817812e-02 -8.020231e-02 -5.325824e-02 1.812196e-03 -6.138654e-02 -3.032109e-02 -2.434400e-02 -4.828699e-02 -6.186428e-02 1.229510e-03 2.055160e-03 5.328136e-03 6.958734e-03 -6.823167e-03 2.023886e-02 1.270669e-02 -1.594789e-03 7.694206e-04 7.901050e-03 1.147997e-02 -3.401271e-03 6.888834e-03
<VARIANCE> 39
 7.758293e+00 1.068837e+01 1.553694e+01 1.971381e+01 2.186332e+01 2.776814e+01 2.224319e+01 2.596964e+01 2.512841e+01 2.845111e+01 2.507963e+01 2.204537e+01 5.374017e+00 3.793533e-01 6.091363e-01 7.974384e-01 1.100031e+00 1.499432e+00 1.653092e+00 1.539772e+00 1.955108e+00 2.048123e+00 1.858008e+00 1.593376e+00 1.619313e+00 1.456295e-01 5.719755e-02 9.994099e-02 1.297588e-01 1.802302e-01 2.608524e-01 2.851624e-01 2.747978e-01 3.668296e-01 3.848332e-01 3.363561e-01 2.893445e-01 3.008158e-01 2.073045e-02
<GCONST> 8.775247e+01
<STATE> 3
<MEAN> 39
 -8.053651e+00 -3.955821e+00 4.915759e-01 -4.588246e+00 5.292602e-01 -8.134555e+00 -4.062366e+00 7.049966e-01 2.674604e+00 -2.707849e+00 -9.040095e-02 -4.123929e+00 5.971045e+01 2.500356e-02 9.364859e-03 -7.338314e-03 -6.047744e-03 3.439635e-03 3.240919e-03 9.533485e-03 -6.370370e-02 -3.610773e-02 2.670584e-02 2.233686e-02 7.541195e-03 -8.561375e-03 1.490614e-03 1.971449e-03 -7.682968e-03 -1.819497e-02 -5.738519e-04 4.255329e-03 1.630470e-02 -6.019059e-03 1.015041e-02 5.694713e-04 9.909649e-04 9.623033e-04 2.274823e-03
<VARIANCE> 39
 6.501489e+00 1.014425e+01 1.567844e+01 1.632924e+01 2.496202e+01 2.896382e+01 2.442731e+01 2.671159e+01 2.605545e+01 2.423382e+01 2.457373e+01 2.539815e+01 5.072059e+00 4.176679e-01 6.346977e-01 9.995853e-01 1.177120e+00 1.581309e+00 2.396216e+00 2.108029e+00 2.292197e+00 1.924282e+00 1.890414e+00 1.974613e+00 1.782976e+00 2.532276e-01 7.263032e-02 1.131800e-01 1.790207e-01 2.294588e-01 2.827307e-01 4.789711e-01 4.072018e-01 4.379818e-01 3.762819e-01 3.795692e-01 3.923141e-01 3.425072e-01 4.426322e-02
<GCONST> 9.311488e+01
<STATE> 4
<MEAN> 39
 -7.997860e+00 -3.065565e+00 4.960040e-01 -4.913807e+00 -1.008330e+00 -7.733733e+00 -3.276054e+00 4.671109e-01 3.037249e+00 -1.862576e+00 1.258829e+00 -4.434630e+00 6.119019e+01 -4.417977e-02 2.058409e-03 -4.610788e-02 -6.782345e-02 -6.180205e-02 6.260280e-02 1.155029e-01 4.983472e-02 1.660117e-01 -1.140483e-02 -8.933128e-02 -1.955962e-02 9.332041e-02 6.821962e-03 8.173450e-04 2.633718e-03 9.957067e-03 1.121917e-03 -2.483526e-03 2.000642e-03 -1.142458e-02 -5.693972e-03 -2.446863e-02 -3.646173e-03 1.836609e-02 1.915666e-02
<VARIANCE> 39
 1.351983e+01 1.680988e+01 2.321587e+01 2.635095e+01 2.613635e+01 3.682077e+01 2.627457e+01 2.843171e+01 3.491593e+01 2.520333e+01 2.376145e+01 2.067440e+01 1.286080e+01 6.400259e-01 6.459969e-01 1.007759e+00 1.442101e+00 1.752892e+00 1.824128e+00 1.929516e+00 1.960871e+00 2.017422e+00 1.767111e+00 1.952520e+00 1.873481e+00 3.127378e-01 1.103079e-01 1.087856e-01 1.650574e-01 2.241032e-01 3.177172e-01 3.440738e-01 3.659924e-01 3.297091e-01 3.696396e-01 3.161622e-01 3.765027e-01 3.608952e-01 4.489087e-02
<GCONST> 9.663120e+01
<TRANSP> 5
 0.000000e+00 1.000000e+00 0.000000e+00 0.000000e+00 0.000000e+00
 0.000000e+00 9.641739e-01 3.582613e-02 0.000000e+00 0.000000e+00
 0.000000e+00 0.000000e+00 9.507808e-01 4.921924e-02 0.000000e+00
 0.000000e+00 0.000000e+00 0.000000e+00 9.160393e-01 8.396072e-02
 0.000000e+00 0.000000e+00 0.000000e+00 0.000000e+00 0.000000e+00
<ENDHMM>
