~o
<STREAMINFO> 1 39
<VECSIZE> 39<NULLD><MFCC_D_A_0><DIAGC>
~h "I"
<BEGINHMM>
<NUMSTATES> 5
<STATE> 2
<MEAN> 39
 -7.640844e+00 -1.322772e+00 8.049967e-01 -2.074013e+00 -2.878328e+00 -5.303558e+00 -5.456809e+00 -2.792315e+00 3.264356e+00 -3.434580e+00 1.817957e+00 -4.401418e+00 6.284335e+01 -1.974677e-01 -1.084854e-01 -4.468757e-02 -2.929592e-02 -1.532312e-01 -9.477111e-02 -2.104057e-01 -3.027300e-01 2.849076e-01 6.650444e-02 8.237591e-02 3.255053e-02 1.780574e-01 6.162812e-02 -1.211091e-01 6.677789e-02 -1.431062e-01 -1.083438e-01 -1.796710e-02 -5.454217e-02 2.550622e-02 -4.683430e-02 6.006828e-02 1.538851e-03 2.321916e-02 3.754021e-02
<VARIANCE> 39
 1.493670e+01 3.443010e+01 2.275179e+01 4.759574e+01 1.773937e+01 3.033083e+01 1.960309e+01 3.594910e+01 2.528168e+01 2.513395e+01 2.442301e+01 3.121094e+01 1.285857e+01 1.039657e+00 1.290628e+00 1.856467e+00 1.653488e+00 1.971885e+00 2.404632e+00 1.590728e+00 2.507605e+00 3.056025e+00 1.568958e+00 2.963743e+00 1.928317e+00 2.779273e-01 1.640278e-01 1.665298e-01 2.481122e-01 2.147868e-01 3.787487e-01 4.000036e-01 2.959563e-01 5.415432e-01 4.978791e-01 3.295445e-01 5.489874e-01 3.700237e-01 2.290172e-02
<GCONST> 1.023552e+02
<STATE> 3
<MEAN> 39
 -8.516159e+00 -1.419355e+00 7.939821e-01 -2.028523e+00 -3.586545e+00 -5.166176e+00 -6.008871e+00 -3.876598e+00 3.815544e+00 -3.386601e+00 2.184807e+00 -5.232001e+00 6.397145e+01 -3.442976e-02 -4.332276e-01 2.406786e-01 -3.792762e-01 -5.509357e-01 -2.091459e-01 -3.026314e-01 -1.400915e-01 1.408445e-02 -4.802638e-02 4.395567e-02 1.877238e-01 3.589927e-01 1.005420e-01 -1.046259e-01 1.277439e-01 -7.220830e-02 -9.958568e-02 6.498368e-03 -7.760404e-02 8.178455e-02 -1.235178e-01 -9.740511e-02 4.354402e-02 4.966307e-02 2.978850e-02
<VARIANCE> 39
 1.981265e+01 3.603984e+01 3.900571e+01 4.731001e+01 2.197233e+01 3.117221e+01 2.037948e+01 3.264716e+01 2.718379e+01 3.133780e+01 2.456600e+01 2.310382e+01 1.823165e+01 1.429354e+00 1.725101e+00 2.441796e+00 1.755071e+00 2.488787e+00 2.767830e+00 1.912955e+00 2.365792e+00 2.736844e+00 1.877109e+00 2.644110e+00 1.617466e+00 3.032499e-01 1.779921e-01 1.864767e-01 2.923462e-01 2.190649e-01 4.095088e-01 4.123444e-01 2.874984e-01 4.867156e-01 4.589735e-01 3.862783e-01 5.059882e-01 3.037763e-01 3.161361e-02
<GCONST> 1.055282e+02
<STATE> 4
<MEAN> 39
 -4.621321e+00 -4.306661e+00 1.919484e+00 -3.179876e+00 -6.337133e+00 -7.400541e+00 -1.024063e+01 -4.650996e+00 2.893385e+00 -4.692005e+00 3.649946e+00 -2.678588e+00 6.720405e+01 1.811086e-01 -3.462057e-01 9.793374e-02 -9.277064e-02 -2.682647e-01 -1.522785e-01 -3.536458e-01 -5.072517e-02 -1.243010e-01 -1.343919e-01 2.061743e-01 2.986912e-01 1.418022e-01 8.706450e-03 3.512500e-02 -4.544333e-02 1.922074e-03 1.569841e-02 6.599051e-02 1.501772e-02 3.288792e-02 -1.896007e-02 -6.213489e-02 6.829116e-02 -1.624817e-02 -1.888085e-02
<VARIANCE> 39
 4.896437e+01 2.893874e+01 8.067075e+01 3.078802e+01 3.739913e+01 3.961916e+01 4.588715e+01 2.222581e+01 1.945251e+01 4.384864e+01 1.886916e+01 2.906380e+01 1.639879e+01 1.738281e+00 2.011881e+00 4.148606e+00 2.263353e+00 2.846054e+00 2.512779e+00 2.563592e+00 2.489163e+00 1.814425e+00 4.136485e+00 2.107210e+00 1.845909e+00 3.946643e-01 1.872669e-01 1.761160e-01 4.436704e-01 3.066343e-01 3.775286e-01 3.742698e-01 3.505893e-01 4.651029e-01 3.482501e-01 7.222344e-01 4.425229e-01 3.815732e-01 3.130067e-02
<GCONST> 1.107886e+02
<TRANSP> 5
 0.000000e+00 1.000000e+00 0.000000e+00 0.000000e+00 0.000000e+00
 0.000000e+00 7.088752e-01 2.911248e-01 0.000000e+00 0.000000e+00
 0.000000e+00 0.000000e+00 6.888512e-01 3.111489e-01 0.000000e+00
 0.000000e+00 0.000000e+00 0.000000e+00 8.692744e-01 1.307256e-01
 0.000000e+00 0.000000e+00 0.000000e+00 0.000000e+00 0.000000e+00
<ENDHMM>
~h "T"
<BEGINHMM>
<NUMSTATES> 5
<STATE> 2
<MEAN> 39
 -9.154273e+00 -6.452017e+00 2.577132e-01 -5.495327e+00 -3.471283e+00 -8.760192e+00 -4.849933e+00 -1.667266e+00 5.906920e-01 -1.213794e+00 2.169739e+00 -4.060242e+00 6.455463e+01 -9.747047e-02 -3.267481e-03 -1.260657e-01 5.651268e-02 5.820797e-02 -2.629282e-02 8.828156e-02 6.706375e-02 9.760892e-02 -2.792950e-02 -1.012530e-01 -3.414228e-02 -3.269842e-02 4.556001e-03 -3.513808e-03 1.557807e-02 -1.666359e-02 -1.434033e-02 2.206908e-02 -2.715788e-02 8.475433e-03 -6.442021e-04 -1.122452e-02 1.835865e-03 -2.140405e-02 9.611005e-03
<VARIANCE> 39
 1.400293e+01 2.068043e+01 1.675909e+01 2.164987e+01 2.354392e+01 2.117716e+01 2.930253e+01 2.245983e+01 3.295178e+01 2.088265e+01 2.058786e+01 1.244742e+01 1.596163e+01 9.600403e-01 8.091888e-01 8.013113e-01 1.305079e+00 1.289394e+00 1.468859e+00 2.177372e+00 2.135861e+00 3.728254e+00 1.821340e+00 1.900207e+00 1.477227e+00 6.706907e-01 1.211577e-01 1.135494e-01 1.476672e-01 2.105651e-01 1.917248e-01 2.721545e-01 3.802451e-01 4.086811e-01 6.703081e-01 3.125029e-01 3.287699e-01 3.001886e-01 1.107118e-01
<GCONST> 9.665576e+01
<STATE> 3
<MEAN> 39
 -1.138282e+01 -3.103979e+00 -1.808490e-01 -4.540164e+00 -2.034133e+00 -7.451134e+00 -3.948323e+00 -1.168148e+00 1.438108e+00 -4.183223e+00 1.514383e+00 -5.471513e+00 6.255945e+01 -3.836738e-01 1.125957e-01 1.564825e-01 9.567487e-02 -1.174088e-01 3.885877e-01 -5.546818e-01 3.374675e-02 4.039497e-01 -3.580171e-02 3.022787e-01 -1.829067e-01 4.300662e-01 -1.205453e-02 -6.985810e-02 2.020407e-02 4.138586e-02 -1.015396e-01 1.416308e-01 5.435298e-02 -9.299989e-02 -1.108162e-02 -3.242042e-02 -4.579043e-02 -7.173131e-02 8.686649e-02
<VARIANCE> 39
 1.397446e+01 7.404215e+00 1.542083e+01 1.754556e+01 1.035671e+01 1.691534e+01 2.080170e+01 2.278093e+01 2.311837e+01 2.025542e+01 1.095287e+01 1.198990e+01 1.389211e+01 4.311478e-01 6.517847e-01 1.489420e+00 1.925583e+00 1.389290e+00 1.679943e+00 2.127202e+00 3.079709e+00 1.960356e+00 1.811525e+00 1.220479e+00 1.631310e+00 2.818267e-01 8.080370e-02 8.556709e-02 2.003405e-01 3.345322e-01 2.632948e-01 3.290510e-01 4.029381e-01 6.894695e-01 3.543842e-01 3.290528e-01 2.553416e-01 3.318054e-01 3.622104e-02
<GCONST> 9.076362e+01
<STATE> 4
<MEAN> 39
 -1.266673e+01 -5.257718e+00 1.247789e+00 -2.736325e+00 -4.767527e+00 -3.869934e+00 -6.251995e+00 -4.730246e+00 3.142184e+00 -1.983451e+00 3.184417e+00 -6.758593e+00 6.686115e+01 1.068369e+00 -7.045971e-01 1.493305e-01 7.606892e-02 -5.273446e-01 -3.205931e-01 -6.003841e-01 -6.246396e-01 1.091502e-01 6.461507e-01 1.308210e-02 -4.169614e-04 7.878814e-01 1.150988e-01 -1.265945e-01 1.295254e-01 -9.182688e-02 -1.525808e-01 -1.506321e-01 -1.403962e-01 1.167615e-01 5.939867e-02 -9.501703e-02 -2.807864e-02 1.245081e-01 2.522898e-02
<VARIANCE> 39
 5.931867e+01 2.180491e+01 2.932159e+01 1.337946e+01 1.737066e+01 2.640200e+01 3.616963e+01 2.743806e+01 1.922286e+01 2.653447e+01 1.164252e+01 1.491048e+01 1.436094e+01 6.383116e+00 1.659222e+00 2.381129e+00 1.633426e+00 2.808208e+00 3.470879e+00 3.607748e+00 2.600254e+00 2.359241e+00 1.990223e+00 1.141782e+00 1.828351e+00 6.103761e-01 1.069790e+00 3.106339e-01 4.459163e-01 3.581010e-01 5.679479e-01 5.062158e-01 6.756914e-01 5.484871e-01 4.457565e-01 6.080575e-01 2.407680e-01 2.989292e-01 1.319245e-01
<GCONST> 1.107834e+02
<TRANSP> 5
 0.000000e+00 1.000000e+00 0.000000e+00 0.000000e+00 0.000000e+00
 0.000000e+00 9.595773e-01 4.042272e-02 0.000000e+00 0.000000e+00
 0.000000e+00 0.000000e+00 7.893369e-01 2.106631e-01 0.000000e+00
 0.000000e+00 0.000000e+00 0.000000e+00 9.065658e-01 9.343421e-02
 0.000000e+00 0.000000e+00 0.000000e+00 0.000000e+00 0.000000e+00
<ENDHMM>
~h "e"
<BEGINHMM>
<NUMSTATES> 5
<STATE> 2
<MEAN> 39
 -3.849364e+00 -7.533535e+00 3.560034e+00 -6.834927e+00 -1.103626e+01 -8.190783e+00 -1.282950e+01 -1.166664e+00 4.287155e+00 -3.753972e+00 4.524245e+00 -9.441033e+00 6.999960e+01 8.826255e-01 -1.003132e+00 6.072698e-01 -8.118390e-01 -9.516723e-01 -5.304129e-01 -6.877231e-01 7.683769e-01 6.454766e-01 -3.595109e-01 7.377165e-01 -3.827830e-01 7.856373e-01 -3.110204e-01 1.314523e-01 -1.061753e-01 1.204524e-01 1.324914e-01 3.115787e-01 3.264611e-01 3.270177e-02 -1.123972e-01 -1.539829e-01 3.304452e-02 1.061186e-01 -1.351855e-01
<VARIANCE> 39
 2.926641e+01 2.184803e+01 2.549445e+01 3.017266e+01 3.042909e+01 2.613619e+01 5.658581e+01 2.377662e+01 1.798107e+01 7.861760e+00 3.145436e+01 2.120425e+01 4.105080e+01 1.592226e+00 1.721226e+00 1.244102e+00 2.402044e+00 3.598007e+00 2.118760e+00 2.596153e+00 2.056272e+00 1.813889e+00 9.575657e-01 2.349634e+00 1.646457e+00 1.439699e+00 3.933197e-01 2.725757e-01 2.919085e-01 3.952718e-01 8.002600e-01 4.143507e-01 5.454076e-01 3.721400e-01 3.755299e-01 1.977732e-01 5.516818e-01 3.974860e-01 3.943044e-01
<GCONST> 1.097746e+02
<STATE> 3
<MEAN> 39
 -2.363459e+00 -8.860991e+00 4.822502e+00 -7.553528e+00 -1.148562e+01 -8.798288e+00 -1.377517e+01 -7.839596e-02 5.068054e+00 -4.483167e+00 5.623465e+00 -9.792505e+00 7.104486e+01 5.556218e-01 -5.588429e-01 4.873362e-01 -2.785209e-01 -2.585517e-01 -2.479395e-02 -3.351119e-01 4.574703e-01 2.412126e-01 -4.554431e-01 4.167130e-01 -3.223404e-01 4.826079e-01 -1.464501e-01 1.676577e-01 -5.897481e-02 1.846511e-01 1.487537e-01 2.140994e-01 8.198305e-02 -1.125113e-01 -1.273753e-01 -5.161593e-02 -5.828558e-02 7.498511e-04 -5.579822e-02
<VARIANCE> 39
 2.149247e+01 2.040426e+01 1.835472e+01 2.884243e+01 3.801436e+01 2.147341e+01 5.396237e+01 2.364893e+01 1.773513e+01 1.025887e+01 2.573548e+01 1.915353e+01 3.449987e+01 1.123531e+00 1.561257e+00 1.027540e+00 2.851468e+00 5.005336e+00 1.405568e+00 1.839020e+00 2.769114e+00 1.914064e+00 1.434949e+00 2.363105e+00 1.827227e+00 2.342810e+00 2.629175e-01 3.091938e-01 1.731031e-01 4.856660e-01 1.055627e+00 3.427747e-01 4.637190e-01 4.313113e-01 3.592832e-01 2.501463e-01 4.776390e-01 4.034494e-01 4.415998e-01
<GCONST> 1.088889e+02
<STATE> 4
<MEAN> 39
 -6.602587e-01 -9.479864e+00 6.559280e+00 -6.859009e+00 -1.047396e+01 -7.327258e+00 -1.587985e+01 4.177223e-01 5.441160e+00 -5.090961e+00 6.245410e+00 -1.125502e+01 7.243206e+01 1.447995e-01 6.371604e-02 2.870629e-01 3.223060e-02 -6.606741e-02 2.206222e-01 -1.278032e-01 9.509835e-02 4.782065e-02 -4.681489e-02 1.415001e-01 -2.160944e-01 2.798430e-01 -7.261527e-02 1.016888e-01 -6.566658e-03 1.437293e-02 4.163066e-02 1.267744e-02 1.042650e-01 -3.566891e-02 -3.177236e-02 8.180446e-02 -5.919132e-02 1.761246e-02 -7.677520e-02
<VARIANCE> 39
 6.768193e+00 1.439122e+01 1.013769e+01 2.898568e+01 5.906850e+01 1.892360e+01 3.679050e+01 2.778987e+01 2.045080e+01 1.903232e+01 2.071167e+01 1.448786e+01 1.727315e+01 6.425527e-01 1.616339e+00 9.884388e-01 3.589205e+00 6.114382e+00 1.175244e+00 1.704516e+00 3.207423e+00 2.650681e+00 1.720918e+00 2.142525e+00 1.685862e+00 2.583262e+00 1.069694e-01 2.925748e-01 1.187726e-01 6.578816e-01 8.347754e-01 2.459539e-01 3.188223e-01 6.026896e-01 5.102463e-01 2.590624e-01 3.117529e-01 3.102484e-01 3.419752e-01
<GCONST> 1.044528e+02
<TRANSP> 5
 0.000000e+00 1.000000e+00 0.000000e+00 0.000000e+00 0.000000e+00
 0.000000e+00 4.790855e-01 5.209144e-01 0.000000e+00 0.000000e+00
 0.000000e+00 0.000000e+00 5.957676e-01 4.042324e-01 0.000000e+00
 0.000000e+00 0.000000e+00 0.000000e+00 8.814909e-01 1.185091e-01
 0.000000e+00 0.000000e+00 0.000000e+00 0.000000e+00 0.000000e+00
<ENDHMM>
~h "f"
<BEGINHMM>
<NUMSTATES> 5
<STATE> 2
<MEAN> 39
 -8.849465e+00 -5.981978e+00 -7.862375e-01 -6.604534e+00 -2.864808e+00 -3.847804e+00 -3.452649e+00 5.741500e-01 3.684146e+00 -1.008377e+00 1.362103e+00 -4.860255e+00 6.282825e+01 -1.803690e-01 -1.832346e-01 -7.619772e-02 -2.686810e-02 -1.728720e-01 9.651124e-02 -1.786633e-01 3.801194e-02 1.560741e-01 1.959365e-01 2.855935e-01 -9.952735e-02 3.469878e-01 3.262249e-02 -5.203570e-03 2.323047e-02 -2.089862e-02 1.316398e-02 -5.356558e-03 -2.168275e-02 -6.414808e-02 1.164793e-02 -3.838754e-02 -3.280606e-02 1.849176e-02 2.610998e-02
<VARIANCE> 39
 1.542700e+01 1.424063e+01 2.075796e+01 2.169816e+01 3.542051e+01 2.741348e+01 2.181098e+01 2.219664e+01 2.726275e+01 2.201419e+01 2.460072e+01 2.646295e+01 1.272837e+01 9.767721e-01 8.595304e-01 1.154696e+00 1.824127e+00 2.292186e+00 1.537527e+00 1.746031e+00 2.144493e+00 2.061164e+00 1.654443e+00 1.882462e+00 2.167251e+00 6.805208e-01 1.670373e-01 1.229182e-01 2.013456e-01 2.720190e-01 3.879811e-01 2.708760e-01 2.868487e-01 3.909507e-01 3.890091e-01 3.068119e-01 3.964210e-01 3.950628e-01 7.971665e-02
<GCONST> 9.931753e+01
<STATE> 3
<MEAN> 39
 -9.237721e+00 -6.747814e+00 -1.036664e+00 -6.521458e+00 -3.744842e+00 -3.737465e+00 -4.478881e+00 5.747087e-01 4.706572e+00 -3.764459e-01 1.723551e+00 -5.338696e+00 6.429785e+01 1.079900e-01 -1.392464e-01 -1.862796e-03 -1.549439e-01 -1.084290e-01 1.741751e-01 -1.361449e-01 -2.391186e-01 9.167936e-02 8.813803e-02 1.969254e-01 -1.095908e-01 3.985690e-01 1.653611e-01 3.434872e-03 6.777047e-03 -1.068137e-01 -8.272384e-03 5.091726e-02 2.028970e-02 -1.090342e-01 -2.271204e-02 -3.452571e-02 -8.833625e-03 -2.826373e-02 3.369484e-02
<VARIANCE> 39
 2.014057e+01 1.565491e+01 1.842603e+01 2.157002e+01 3.706989e+01 2.677042e+01 1.915496e+01 2.567172e+01 3.217829e+01 2.302820e+01 2.669858e+01 3.202152e+01 1.405047e+01 2.103430e+00 8.192648e-01 1.074122e+00 2.036331e+00 2.095410e+00 1.562417e+00 1.527323e+00 2.474981e+00 2.531859e+00 2.043690e+00 2.482966e+00 2.510618e+00 7.016631e-01 2.633179e-01 1.310776e-01 1.991078e-01 3.308837e-01 4.430695e-01 2.678559e-01 2.708625e-01 4.520855e-01 4.433334e-01 3.565324e-01 5.326037e-01 4.359956e-01 1.339314e-01
<GCONST> 1.038446e+02
<STATE> 4
<MEAN> 39
 -5.668396e+00 -8.119321e+00 -1.421168e+00 -8.968346e+00 -4.733611e+00 -6.712647e-01 -5.844093e+00 -1.450386e+00 5.302443e+00 -3.522559e-01 3.163853e+00 -9.299362e+00 6.806695e+01 9.240864e-01 -2.451488e-01 -1.030666e-01 -9.332966e-01 -4.250107e-01 6.119248e-01 -5.167370e-02 -5.182218e-01 1.030311e-02 -1.868612e-01 3.733195e-01 -6.940762e-01 7.324176e-01 1.433902e-02 -4.412587e-02 -1.924808e-02 -6.107363e-02 -1.160094e-01 1.071419e-02 8.990724e-03 4.333640e-02 6.869297e-02 -6.711092e-02 1.209988e-02 -2.702063e-02 1.232698e-02
<VARIANCE> 39
 4.688768e+01 2.312757e+01 1.395618e+01 4.251630e+01 3.009195e+01 3.672073e+01 1.700206e+01 2.972021e+01 3.239820e+01 2.177524e+01 2.492662e+01 8.036691e+01 2.970590e+01 3.410130e+00 1.241421e+00 1.037770e+00 3.294083e+00 2.514010e+00 2.011280e+00 1.210402e+00 2.143366e+00 2.871423e+00 2.403356e+00 2.899074e+00 4.187562e+00 1.294148e+00 5.473271e-01 1.697380e-01 1.818503e-01 4.844055e-01 4.230504e-01 3.328902e-01 2.265583e-01 4.035134e-01 5.124719e-01 4.241851e-01 5.365301e-01 5.823536e-01 2.030941e-01
<GCONST> 1.123279e+02
<TRANSP> 5
 0.000000e+00 1.000000e+00 0.000000e+00 0.000000e+00 0.000000e+00
 0.000000e+00 7.356926e-01 2.643075e-01 0.000000e+00 0.000000e+00
 0.000000e+00 0.000000e+00 7.218894e-01 2.781105e-01 0.000000e+00
 0.000000e+00 0.000000e+00 0.000000e+00 8.826438e-01 1.173562e-01
 0.000000e+00 0.000000e+00 0.000000e+00 0.000000e+00 0.000000e+00
<ENDHMM>
~h "i"
<BEGINHMM>
<NUMSTATES> 5
<STATE> 2
<MEAN> 39
 -5.837256e+00 -6.507483e+00 1.475104e+01 -6.219468e+00 -1.465341e+01 -7.730475e+00 -1.379118e+01 -2.974676e+00 -1.188374e+00 -1.081693e+01 9.783301e+00 -4.263101e+00 7.079730e+01 -9.095591e-02 4.133382e-01 3.390077e-01 -1.506846e-01 8.827046e-02 3.607387e-01 1.393717e-01 8.178335e-03 -3.645831e-01 -1.858236e-01 4.474646e-01 -1.659310e-01 -2.494282e-01 3.243650e-02 3.857776e-02 -1.857949e-01 6.358574e-02 1.086687e-01 4.464564e-02 5.561277e-02 -1.362358e-01 1.029427e-01 2.185088e-01 -1.386227e-01 -4.356574e-02 -4.535129e-02
<VARIANCE> 39
 2.938881e+01 5.838873e+01 1.078545e+02 1.594839e+01 5.268740e+01 3.324212e+01 6.128144e+01 2.462251e+01 3.382047e+01 4.111523e+01 3.075452e+01 2.579814e+01 1.856040e+01 1.959965e+00 2.058975e+00 4.722222e+00 1.776345e+00 3.882443e+00 3.509408e+00 3.432056e+00 3.458353e+00 3.250519e+00 3.858279e+00 2.911929e+00 1.422503e+00 6.066428e-01 2.577305e-01 3.053610e-01 5.122297e-01 2.777959e-01 6.021433e-01 6.200042e-01 6.111308e-01 7.872519e-01 4.400925e-01 7.095395e-01 4.319928e-01 2.660262e-01 6.180262e-02
<GCONST> 1.179354e+02
<STATE> 3
<MEAN> 39
 -5.412768e+00 -4.245395e+00 1.678891e+01 -6.422039e+00 -1.085872e+01 -3.451292e+00 -1.391739e+01 -2.315295e+00 -6.762951e-01 -1.095146e+01 1.013715e+01 -5.917919e+00 6.819736e+01 2.453876e-02 3.064850e-01 -8.747776e-01 2.214202e-01 1.159057e+00 2.749896e-01 9.394761e-01 3.643616e-01 4.584517e-01 6.283395e-01 -7.730262e-01 2.817937e-02 -7.387639e-01 2.297055e-02 -5.052659e-02 -1.942759e-01 1.674357e-02 -1.313572e-02 -4.613957e-02 1.305223e-01 8.940670e-02 1.250234e-01 1.335838e-01 -1.134796e-01 2.008706e-02 -2.465204e-02
<VARIANCE> 39
 6.872342e+00 2.335961e+01 8.191112e+01 1.288385e+01 6.342409e+01 1.715814e+01 4.672427e+01 2.937707e+01 5.047843e+01 3.873526e+01 2.897675e+01 2.397908e+01 1.831730e+01 4.217041e-01 1.210068e+00 2.602937e+00 8.020251e-01 2.270131e+00 1.599575e+00 3.433871e+00 3.386030e+00 2.018070e+00 2.874234e+00 1.694035e+00 1.498619e+00 3.186096e-01 5.539098e-02 9.654800e-02 2.695370e-01 1.529755e-01 3.216896e-01 3.088923e-01 4.926691e-01 6.938064e-01 3.762724e-01 3.472288e-01 2.841512e-01 2.760630e-01 3.334618e-02
<GCONST> 1.005325e+02
<STATE> 4
<MEAN> 39
 -6.792190e+00 -6.990228e+00 3.957879e+00 -6.279364e+00 -4.872770e+00 -4.276758e+00 -5.656160e+00 4.760596e-01 5.211580e+00 -5.939788e+00 1.806970e+00 -3.839128e+00 6.093653e+01 -8.630836e-03 1.645004e-02 -3.344619e-01 7.133918e-02 -1.483023e-03 -1.262220e-01 2.633425e-01 -7.027222e-02 -1.524688e-02 3.608392e-01 -1.450064e-01 -1.822687e-03 -2.283892e-01 -1.509675e-02 9.830145e-03 9.250259e-02 2.756901e-02 -3.378960e-02 -3.472950e-02 -6.298715e-02 -1.190529e-01 -3.384856e-02 -3.465172e-02 6.374431e-02 1.182981e-02 3.339995e-02
<VARIANCE> 39
 4.251405e+00 3.537785e+01 2.829362e+01 1.200208e+01 3.000305e+01 1.823480e+01 5.247519e+01 2.380124e+01 5.980415e+01 2.102660e+01 1.843359e+01 2.121273e+01 2.261898e+01 2.540858e-01 8.921568e-01 1.922951e+00 1.532147e+00 1.300652e+00 1.145962e+00 2.786274e+00 1.693984e+00 3.669518e+00 2.138495e+00 2.159044e+00 2.385255e+00 2.507599e-01 4.786301e-02 1.043709e-01 1.759683e-01 2.130992e-01 2.261583e-01 2.694501e-01 4.772161e-01 3.167804e-01 4.880981e-01 3.848584e-01 3.821384e-01 4.535063e-01 2.817130e-02
<GCONST> 9.577633e+01
<TRANSP> 5
 0.000000e+00 1.000000e+00 0.000000e+00 0.000000e+00 0.000000e+00
 0.000000e+00 9.315323e-01 6.846766e-02 0.000000e+00 0.000000e+00
 0.000000e+00 0.000000e+00 8.617380e-01 1.382620e-01 0.000000e+00
 0.000000e+00 0.000000e+00 0.000000e+00 9.071062e-01 9.289383e-02
 0.000000e+00 0.000000e+00 0.000000e+00 0.000000e+00 0.000000e+00
<ENDHMM>
~h "k"
<BEGINHMM>
<NUMSTATES> 5
<STATE> 2
<MEAN> 39
 -1.026865e+01 -3.208799e+00 1.094796e+00 -3.296582e+00 -8.240638e+00 -3.565638e+00 -9.096931e+00 -2.328801e+00 1.004219e+00 -5.023256e+00 6.172704e+00 -6.228511e+00 6.596275e+01 4.045350e-01 -1.225130e-01 5.942744e-01 1.390585e-01 -4.488647e-01 -4.893224e-01 -3.910443e-01 5.499556e-02 -2.385038e-01 -3.306486e-01 1.514800e-01 -1.686312e-01 2.841141e-01 3.002666e-02 -3.202248e-02 1.084303e-02 1.512210e-03 9.416514e-03 -5.657266e-02 -2.259260e-02 2.291888e-02 2.054840e-02 1.230954e-02 -2.363220e-02 -5.755735e-03 -1.512845e-02
<VARIANCE> 39
 5.265578e+01 1.910246e+01 9.500661e+01 1.815794e+01 5.226275e+01 4.669905e+01 5.585478e+01 2.203089e+01 3.163447e+01 3.574999e+01 2.665279e+01 2.227888e+01 2.480859e+01 3.021363e+00 1.680283e+00 5.592897e+00 1.557781e+00 3.689546e+00 3.494382e+00 3.738950e+00 1.889397e+00 3.026986e+00 2.766521e+00 3.429452e+00 2.462121e+00 1.829409e+00 3.886196e-01 3.385016e-01 7.335223e-01 2.925876e-01 5.891770e-01 7.201582e-01 6.849355e-01 3.925205e-01 6.028402e-01 5.264529e-01 6.655278e-01 4.321985e-01 2.753219e-01
<GCONST> 1.213296e+02
<STATE> 3
<MEAN> 39
 -7.987907e+00 -4.504999e+00 3.696355e+00 -1.259534e+00 -1.011983e+01 -7.235972e+00 -1.053210e+01 -1.180845e+00 1.005028e+00 -7.239977e+00 6.158494e+00 -5.819088e+00 6.680296e+01 -1.754292e-01 -1.930124e-02 -1.061870e-01 2.472350e-01 4.527116e-02 -8.159194e-02 1.207502e-01 1.273143e-01 2.096901e-01 -2.423166e-02 -1.385145e-01 1.637110e-01 -7.863954e-02 -6.887513e-02 3.048841e-02 -6.459840e-02 -8.349919e-03 2.493918e-02 9.146609e-02 3.585324e-02 -8.435887e-03 3.234781e-02 4.692541e-02 -1.778118e-02 4.496355e-03 -1.925877e-02
<VARIANCE> 39
 4.053716e+01 1.947102e+01 9.173081e+01 1.831783e+01 4.783472e+01 3.788362e+01 3.820783e+01 2.086763e+01 3.724371e+01 3.177474e+01 3.129682e+01 2.250695e+01 2.131856e+01 2.386095e+00 1.878020e+00 6.886271e+00 1.949123e+00 4.689815e+00 2.921089e+00 3.338345e+00 1.525621e+00 3.442961e+00 3.020272e+00 3.800355e+00 2.231928e+00 2.232946e+00 2.794490e-01 3.733283e-01 8.683808e-01 4.325263e-01 7.188873e-01 5.527900e-01 6.001746e-01 3.008879e-01 6.222461e-01 5.450656e-01 6.929589e-01 3.987984e-01 3.519682e-01
<GCONST> 1.209912e+02
<STATE> 4
<MEAN> 39
 -1.091019e+01 -3.503844e+00 1.149103e+00 -8.535579e-01 -7.112339e+00 -4.638159e+00 -6.308383e+00 -5.688975e-01 3.148242e+00 -4.036367e+00 2.873965e+00 -5.626544e+00 6.336772e+01 -9.765702e-02 3.328008e-02 -2.091917e-01 -6.729908e-02 5.830291e-02 1.620129e-01 1.915677e-01 -2.397106e-02 9.463489e-02 2.031184e-01 -7.729907e-02 -5.424616e-02 -1.222719e-01 2.325561e-02 7.044456e-03 3.532696e-03 -2.041530e-02 -3.460229e-04 1.020179e-02 6.877304e-03 -3.262984e-03 7.208450e-03 1.063984e-02 1.122579e-02 -2.159061e-02 4.604140e-03
<VARIANCE> 39
 2.236541e+01 2.049818e+01 4.337484e+01 1.743918e+01 3.384761e+01 3.059209e+01 2.805614e+01 2.150213e+01 2.838114e+01 3.272224e+01 2.221969e+01 2.296890e+01 1.281480e+01 9.265293e-01 1.316479e+00 3.178180e+00 1.608097e+00 2.305179e+00 2.443851e+00 2.347380e+00 1.723021e+00 2.871613e+00 2.826243e+00 2.060981e+00 1.822745e+00 6.785833e-01 1.125610e-01 2.238491e-01 4.617214e-01 3.108454e-01 4.073276e-01 4.693371e-01 4.550214e-01 3.161175e-01 5.571002e-01 5.981244e-01 4.062733e-01 3.010687e-01 1.227363e-01
<GCONST> 1.068701e+02
<TRANSP> 5
 0.000000e+00 1.000000e+00 0.000000e+00 0.000000e+00 0.000000e+00
 0.000000e+00 9.288077e-01 7.119234e-02 0.000000e+00 0.000000e+00
 0.000000e+00 0.000000e+00 8.716084e-01 1.283915e-01 0.000000e+00
 0.000000e+00 0.000000e+00 0.000000e+00 9.655166e-01 3.448347e-02
 0.000000e+00 0.000000e+00 0.000000e+00 0.000000e+00 0.000000e+00
<ENDHMM>
~h "n"
<BEGINHMM>
<NUMSTATES> 5
<STATE> 2
<MEAN> 39
 -5.187936e+00 -3.002097e+00 5.028371e+00 -2.526976e+00 -9.479265e-01 -6.169881e+00 -4.279108e+00 -7.309219e-01 6.563652e-01 -3.076386e+00 -1.217153e+00 -6.201457e+00 6.373922e+01 -8.547037e-02 -2.477424e-03 -3.563514e-01 7.667511e-03 1.514082e-01 -9.583413e-02 7.917291e-02 -1.685303e-02 1.266472e-01 5.429765e-02 -2.938666e-01 -5.453367e-02 -9.380565e-02 -1.595679e-02 -5.425004e-02 5.259903e-02 -6.653070e-02 -1.028357e-01 2.098422e-02 -4.013955e-02 5.445073e-02 3.167931e-03 2.465759e-02 8.490676e-02 -1.861137e-02 2.926102e-02
<VARIANCE> 39
 1.240911e+01 1.931553e+01 2.943710e+01 1.941894e+01 2.233495e+01 2.455940e+01 2.284526e+01 2.703955e+01 3.172789e+01 2.504633e+01 2.502063e+01 1.941647e+01 1.157165e+01 4.708049e-01 1.247058e+00 1.755298e+00 1.710163e+00 2.123436e+00 1.527483e+00 1.820481e+00 2.740659e+00 2.198710e+00 1.895829e+00 2.444492e+00 1.476696e+00 4.031526e-01 6.361008e-02 1.889426e-01 2.526650e-01 2.812142e-01 3.042768e-01 2.765472e-01 3.240035e-01 4.911609e-01 3.651159e-01 3.514815e-01 4.101927e-01 2.611775e-01 6.652947e-02
<GCONST> 9.832832e+01
<STATE> 3
<MEAN> 39
 -5.957593e+00 -3.504519e+00 3.974967e+00 -3.139984e+00 -1.306349e+00 -6.723659e+00 -3.997721e+00 -2.109454e-01 1.281910e+00 -2.455645e+00 -1.590965e+00 -6.208614e+00 6.332896e+01 -1.517359e-01 -9.425376e-02 -2.213389e-01 -1.218654e-01 -4.941717e-02 -6.261126e-02 3.298305e-03 8.062980e-02 1.048796e-01 1.443431e-01 -1.799231e-02 1.682848e-02 -5.986930e-02 -8.585253e-03 -2.829309e-02 -4.495455e-04 -2.340156e-02 -2.938482e-02 8.042151e-03 -2.126473e-02 2.687251e-03 8.452833e-04 8.234775e-03 5.170386e-02 1.179092e-02 1.001330e-02
<VARIANCE> 39
 1.290150e+01 2.015711e+01 2.546451e+01 1.936261e+01 2.374489e+01 2.800642e+01 2.217521e+01 2.922795e+01 3.214215e+01 2.705690e+01 2.284065e+01 1.966102e+01 1.151832e+01 4.675216e-01 1.110882e+00 1.257409e+00 1.448545e+00 1.604385e+00 1.697374e+00 1.871323e+00 2.535922e+00 2.287062e+00 2.056867e+00 2.033858e+00 1.492249e+00 4.277118e-01 6.249417e-02 1.922695e-01 2.117322e-01 2.685227e-01 2.801275e-01 3.014906e-01 3.394773e-01 4.860446e-01 4.074654e-01 3.981647e-01 3.956395e-01 2.736932e-01 5.830483e-02
<GCONST> 9.759883e+01
<STATE> 4
<MEAN> 39
 -7.733331e+00 -4.435272e+00 1.781433e+00 -4.771144e+00 -1.507593e+00 -6.842967e+00 -3.638884e+00 -7.328921e-02 1.890191e+00 -1.563980e+00 -1.147017e+00 -5.549532e+00 6.220939e+01 -3.121678e-02 -8.334129e-02 -1.372309e-01 -8.964566e-02 -8.572546e-02 2.715710e-02 -1.599258e-01 -5.088462e-02 8.170851e-02 6.342310e-02 7.024382e-02 -1.136511e-02 3.984786e-02 1.521424e-02 -3.322531e-02 -1.576417e-02 -2.800438e-02 -2.828890e-02 2.795051e-02 -1.050639e-02 -3.761130e-03 2.911751e-02 -3.374710e-02 1.247089e-02 -1.898661e-02 2.959195e-02
<VARIANCE> 39
 1.363639e+01 1.842264e+01 2.475886e+01 2.165512e+01 2.595758e+01 2.828197e+01 2.681684e+01 3.065019e+01 3.151423e+01 2.678121e+01 2.160238e+01 2.092500e+01 1.093473e+01 5.892447e-01 1.070346e+00 1.243915e+00 1.550411e+00 1.686196e+00 1.879418e+00 2.038460e+00 2.277488e+00 2.411727e+00 2.289376e+00 1.951077e+00 1.638167e+00 4.375250e-01 8.377679e-02 1.873647e-01 2.025179e-01 2.772470e-01 2.972956e-01 3.561334e-01 3.919874e-01 4.368235e-01 4.395237e-01 4.624003e-01 3.666337e-01 2.917518e-01 5.025235e-02
<GCONST> 9.910703e+01
<TRANSP> 5
 0.000000e+00 1.000000e+00 0.000000e+00 0.000000e+00 0.000000e+00
 0.000000e+00 7.641427e-01 2.358573e-01 0.000000e+00 0.000000e+00
 0.000000e+00 0.000000e+00 7.678398e-01 2.321603e-01 0.000000e+00
 0.000000e+00 0.000000e+00 0.000000e+00 9.236702e-01 7.632979e-02
 0.000000e+00 0.000000e+00 0.000000e+00 0.000000e+00 0.000000e+00
<ENDHMM>
~h "o"
<BEGINHMM>
<NUMSTATES> 5
<STATE> 2
<MEAN> 39
 3.302634e+00 -6.763961e+00 -3.243291e+00 -6.730767e+00 -4.287732e+00 -9.721880e+00 -1.437156e+01 -7.913783e+00 6.456805e+00 -1.213410e+00 2.483616e+00 1.635092e+00 6.957152e+01 8.037214e-02 1.981778e-01 -8.351754e-01 -1.769705e-01 5.384686e-01 3.970411e-01 2.466248e-01 -2.055282e-01 2.377811e-01 5.524278e-01 2.409569e-02 1.499671e-01 -3.047784e-01 -5.797024e-02 4.018765e-02 9.568177e-02 -1.348251e-02 -2.028509e-02 6.524355e-02 4.374908e-02 3.680991e-02 -5.630663e-02 -6.036227e-02 3.392093e-02 -3.667913e-02 -1.474553e-02
<VARIANCE> 39
 1.384626e+01 1.221576e+01 4.676927e+01 2.198932e+01 2.067828e+01 2.652909e+01 3.271179e+01 2.050535e+01 1.323711e+01 2.436222e+01 1.526691e+01 2.354716e+01 1.358089e+01 4.578617e-01 7.421514e-01 2.393530e+00 1.615923e+00 7.877259e-01 1.528671e+00 1.293347e+00 1.502683e+00 1.762464e+00 2.457477e+00 1.161562e+00 1.171286e+00 1.142663e-01 3.449498e-02 1.244567e-01 2.032598e-01 2.837534e-01 1.125783e-01 2.569769e-01 2.364309e-01 2.670581e-01 3.188266e-01 4.324923e-01 2.055620e-01 1.715767e-01 1.561696e-02
<GCONST> 8.746257e+01
<STATE> 3
<MEAN> 39
 -6.562882e-01 -4.599202e+00 -3.509245e+00 -8.685944e+00 -1.777953e+00 -5.570183e+00 -9.088849e+00 -5.138507e+00 6.103829e+00 5.964424e-01 3.461462e+00 -7.825417e-01 6.464796e+01 -5.036238e-01 -4.348515e-02 2.082585e-01 1.518697e-02 3.229842e-02 2.221985e-01 2.925738e-01 4.829796e-01 7.944735e-02 2.487482e-02 -2.376561e-01 -4.544286e-01 -3.410648e-01 -2.204332e-02 -1.600261e-02 2.769561e-02 3.723882e-02 -3.414809e-02 -2.216538e-02 -3.594157e-03 2.566059e-02 -7.447115e-02 -3.564924e-02 -2.140924e-02 3.786271e-02 9.807371e-03
<VARIANCE> 39
 2.095061e+01 1.166534e+01 2.134717e+01 1.344465e+01 1.660900e+01 1.377620e+01 3.916595e+01 3.150140e+01 2.167306e+01 1.495548e+01 2.251656e+01 4.416715e+01 1.530292e+01 3.171057e-01 6.172764e-01 1.261087e+00 1.260553e+00 7.648413e-01 1.402191e+00 2.012966e+00 1.392274e+00 2.304083e+00 1.412874e+00 1.822483e+00 1.466921e+00 2.010512e-01 3.610966e-02 9.341290e-02 1.992241e-01 2.069821e-01 1.113442e-01 2.154342e-01 3.251323e-01 2.769608e-01 4.037437e-01 2.632603e-01 3.497061e-01 2.606250e-01 2.406104e-02
<GCONST> 8.790810e+01
<STATE> 4
<MEAN> 39
 -7.041772e+00 -5.446940e+00 -5.892410e-01 -6.943837e+00 -2.269152e+00 -7.314777e+00 -6.117294e+00 -8.274397e-01 2.167987e+00 -1.195205e+00 4.083031e-01 -4.403062e+00 6.190763e+01 -2.377763e-01 2.434454e-02 -2.409030e-02 6.255269e-02 1.100031e-02 1.700594e-02 1.928241e-01 1.579111e-01 -2.728985e-01 -1.441443e-01 -1.279034e-01 -3.175151e-02 -3.103598e-02 1.073917e-02 3.011961e-02 2.868038e-02 -4.423618e-03 2.155356e-02 9.133925e-03 2.485546e-02 -4.084670e-02 -1.883793e-02 -1.759953e-02 1.412142e-02 3.516994e-02 7.595685e-03
<VARIANCE> 39
 1.035297e+01 1.751938e+01 1.643692e+01 1.867292e+01 1.375438e+01 2.551834e+01 4.184933e+01 2.886679e+01 4.071448e+01 2.154787e+01 1.782385e+01 5.396130e+01 8.119599e+00 4.041110e-01 1.303761e+00 9.805735e-01 1.809257e+00 1.069006e+00 2.142266e+00 3.528079e+00 2.367982e+00 2.297481e+00 1.766465e+00 1.744483e+00 1.664547e+00 5.961345e-01 5.783627e-02 2.344356e-01 1.808027e-01 3.431489e-01 2.010827e-01 3.970583e-01 6.432760e-01 4.704760e-01 4.532543e-01 3.399528e-01 3.586556e-01 2.294547e-01 9.623837e-02
<GCONST> 9.862305e+01
<TRANSP> 5
 0.000000e+00 1.000000e+00 0.000000e+00 0.000000e+00 0.000000e+00
 0.000000e+00 9.328987e-01 6.710136e-02 0.000000e+00 0.000000e+00
 0.000000e+00 0.000000e+00 8.421358e-01 1.578642e-01 0.000000e+00
 0.000000e+00 0.000000e+00 0.000000e+00 9.232126e-01 7.678730e-02
 0.000000e+00 0.000000e+00 0.000000e+00 0.000000e+00 0.000000e+00
<ENDHMM>
~h "r"
<BEGINHMM>
<NUMSTATES> 5
<STATE> 2
<MEAN> 39
 -3.652857e+00 -4.983209e+00 1.945261e-01 -5.680716e+00 -3.882545e+00 -6.364830e+00 -6.185267e+00 -3.160090e+00 4.194909e+00 3.199363e-01 3.115256e+00 -1.033413e+00 6.430981e+01 -3.658083e-01 -2.260676e-01 4.296900e-01 -6.396548e-02 -2.608488e-01 -6.621342e-02 2.276566e-02 4.192020e-01 9.811176e-02 -9.435919e-02 -8.758942e-02 -1.641105e-01 -1.138669e-01 -7.304595e-02 -2.201694e-03 -3.634090e-02 -1.724401e-02 1.868617e-02 3.618814e-02 8.491904e-03 3.922987e-02 3.686051e-03 -6.556711e-02 -4.930929e-02 -2.425507e-02 -2.062801e-02
<VARIANCE> 39
 4.216211e+01 1.553332e+01 3.243079e+01 1.423102e+01 2.765956e+01 2.940722e+01 3.586912e+01 3.703654e+01 2.205674e+01 3.248812e+01 2.654351e+01 2.403206e+01 2.306846e+01 1.076029e+00 8.849252e-01 1.611241e+00 1.427376e+00 2.071151e+00 1.301190e+00 1.860361e+00 1.965617e+00 2.020865e+00 1.959936e+00 1.380653e+00 1.581762e+00 4.320677e-01 1.856560e-01 1.260552e-01 3.202003e-01 2.111967e-01 3.363398e-01 2.785221e-01 2.861886e-01 4.204369e-01 3.676976e-01 3.617114e-01 2.314183e-01 2.109668e-01 4.555019e-02
<GCONST> 9.969053e+01
<STATE> 3
<MEAN> 39
 -5.879357e+00 -6.254118e+00 2.150823e+00 -5.502719e+00 -5.758442e+00 -6.852652e+00 -5.628172e+00 -1.343439e+00 3.730109e+00 -1.200541e+00 2.032713e+00 -2.812735e+00 6.413322e+01 -2.143965e-01 -4.004264e-01 1.819492e-01 -2.522754e-01 -3.648283e-01 -1.234064e-02 -2.794106e-01 3.371161e-01 4.564944e-02 -3.456834e-01 -9.797151e-02 -1.486900e-01 -5.034967e-02 1.496906e-02 7.142426e-02 -1.476213e-01 -3.338376e-02 1.219165e-01 -1.228336e-03 4.469239e-02 -2.456088e-02 -7.619938e-02 -3.928960e-02 -9.310199e-03 2.842067e-02 -3.198997e-02
<VARIANCE> 39
 2.123521e+01 1.407483e+01 4.032932e+01 1.840617e+01 3.809293e+01 3.645803e+01 4.144082e+01 2.314342e+01 1.964735e+01 3.283084e+01 2.193193e+01 1.935301e+01 2.675321e+01 7.526730e-01 6.440598e-01 2.227130e+00 1.441548e+00 1.841673e+00 1.510755e+00 1.954793e+00 2.372411e+00 1.886161e+00 2.820940e+00 1.700372e+00 1.762595e+00 3.777671e-01 1.150409e-01 1.128494e-01 3.194373e-01 2.437353e-01 3.723259e-01 3.153351e-01 3.413778e-01 4.577028e-01 4.870742e-01 4.621790e-01 3.306467e-01 2.726568e-01 4.903480e-02
<GCONST> 1.008835e+02
<STATE> 4
<MEAN> 39
 -5.112517e+00 -7.442968e+00 -1.128131e+00 -9.500428e+00 -6.111090e+00 -4.805174e+00 -4.432278e+00 -1.232997e+00 1.798849e+00 -1.606000e+00 2.665641e+00 -4.474705e+00 6.418544e+01 -4.624933e-02 -2.041115e-02 -1.026731e-01 -2.068474e-01 3.218557e-02 -1.122089e-02 7.164690e-02 1.096927e-01 -2.405837e-01 -2.244494e-01 -5.935953e-02 -3.130174e-02 -6.638214e-02 2.517451e-02 6.842305e-02 -3.385413e-02 8.290520e-02 8.661589e-02 -2.498425e-02 4.151914e-02 -8.772369e-03 -3.979896e-02 2.946487e-02 -2.717536e-02 -1.558043e-02 -2.357060e-03
<VARIANCE> 39
 1.593278e+01 1.347387e+01 5.410095e+01 3.172419e+01 3.361626e+01 3.227901e+01 4.424635e+01 1.642241e+01 3.360700e+01 2.796699e+01 2.059451e+01 2.188934e+01 1.814552e+01 4.293150e-01 8.202069e-01 1.774177e+00 1.252619e+00 1.672345e+00 1.537146e+00 1.566353e+00 2.456429e+00 2.929269e+00 2.682969e+00 1.863296e+00 1.666018e+00 2.529617e-01 6.673515e-02 1.151484e-01 2.487882e-01 2.130350e-01 3.220929e-01 2.772891e-01 2.851428e-01 4.542270e-01 6.608484e-01 4.616985e-01 2.925900e-01 3.194560e-01 4.492993e-02
<GCONST> 9.886829e+01
<TRANSP> 5
 0.000000e+00 1.000000e+00 0.000000e+00 0.000000e+00 0.000000e+00
 0.000000e+00 7.284536e-01 2.715464e-01 0.000000e+00 0.000000e+00
 0.000000e+00 0.000000e+00 6.047589e-01 3.952411e-01 0.000000e+00
 0.000000e+00 0.000000e+00 0.000000e+00 7.721344e-01 2.278656e-01
 0.000000e+00 0.000000e+00 0.000000e+00 0.000000e+00 0.000000e+00
<ENDHMM>
~h "s"
<BEGINHMM>
<NUMSTATES> 5
<STATE> 2
<MEAN> 39
 -9.472764e+00 -4.125686e+00 -2.594190e-01 -5.077547e+00 -4.748583e+00 -4.996196e+00 -4.465259e+00 -7.141989e-01 3.237275e+00 -7.512193e-01 2.554635e+00 -5.673049e+00 6.236120e+01 -7.222297e-02 7.553376e-02 -9.321741e-02 3.832871e-02 -5.762286e-02 7.566576e-02 -4.034833e-02 -8.687568e-03 2.862782e-02 -3.178393e-02 1.531394e-01 2.602430e-02 4.567434e-02 2.717532e-02 -1.509296e-02 2.974650e-02 -2.292071e-03 9.162314e-03 -4.200421e-02 -1.002028e-02 8.111249e-03 -9.640684e-03 -1.446497e-02 -2.923521e-02 -7.300959e-03 8.067152e-04
<VARIANCE> 39
 1.273635e+01 1.260495e+01 1.778185e+01 1.527902e+01 2.379442e+01 2.611331e+01 2.188386e+01 2.255495e+01 2.931756e+01 2.308599e+01 2.589126e+01 2.307014e+01 7.249760e+00 4.746289e-01 6.581863e-01 8.350527e-01 1.108584e+00 1.256565e+00 1.974375e+00 1.603541e+00 2.109254e+00 1.921695e+00 1.953285e+00 1.904609e+00 1.952007e+00 2.154962e-01 6.249472e-02 1.075792e-01 1.355034e-01 1.915594e-01 2.347582e-01 3.860579e-01 3.103999e-01 4.216728e-01 3.678510e-01 3.861518e-01 3.566783e-01 3.808546e-01 2.701552e-02
<GCONST> 9.122529e+01
<STATE> 3
<MEAN> 39
 -9.865067e+00 -3.947949e+00 -6.610399e-01 -4.959235e+00 -5.151588e+00 -4.701650e+00 -5.316478e+00 -5.346937e-01 3.430940e+00 -1.254423e+00 3.373893e+00 -5.347768e+00 6.258562e+01 -4.940125e-02 3.751713e-02 -3.120135e-02 6.948714e-03 -1.081030e-01 9.205465e-02 -1.454936e-01 2.857744e-02 5.640855e-02 -8.535627e-02 9.158911e-02 -9.245346e-02 1.556008e-01 4.012568e-02 -2.859645e-02 2.562503e-02 -1.686721e-02 7.541309e-03 -3.542539e-02 -2.473838e-02 5.422587e-03 1.133806e-02 -1.149027e-02 -4.288054e-02 -2.852920e-02 2.171876e-02
<VARIANCE> 39
 1.381746e+01 1.351753e+01 2.004973e+01 1.873638e+01 2.670044e+01 2.672005e+01 2.374032e+01 2.457064e+01 2.704417e+01 2.351653e+01 2.766198e+01 2.357177e+01 8.059432e+00 5.832100e-01 7.274438e-01 8.728499e-01 1.225500e+00 1.348044e+00 1.925244e+00 1.511355e+00 2.141965e+00 2.139003e+00 1.804049e+00 1.951355e+00 1.922526e+00 2.242841e-01 9.743708e-02 1.124781e-01 1.427432e-01 2.186507e-01 2.485061e-01 3.677940e-01 3.028545e-01 3.921784e-01 3.747786e-01 3.524238e-01 3.850940e-01 3.721343e-01 3.114445e-02
<GCONST> 9.337301e+01
<STATE> 4
<MEAN> 39
 -9.538687e+00 -4.114168e+00 -1.296962e+00 -4.671284e+00 -5.633754e+00 -3.460289e+00 -7.091031e+00 -3.880880e-01 3.595049e+00 -2.309379e+00 3.485804e+00 -6.787973e+00 6.483902e+01 6.044958e-01 -2.566420e-01 3.439556e-01 -1.777602e-01 -2.672262e-01 -3.410386e-01 -5.152125e-01 -8.750912e-03 3.787052e-02 -7.698828e-02 2.215019e-02 -3.239675e-01 5.462782e-01 1.308875e-01 -1.118888e-01 5.539483e-02 -1.002828e-01 -1.049889e-01 -8.007762e-02 -1.001151e-01 2.552878e-02 4.425241e-02 1.847875e-03 7.072382e-02 -4.864635e-02 8.843678e-02
<VARIANCE> 39
 2.404704e+01 1.746110e+01 2.510117e+01 1.860186e+01 2.977454e+01 2.951638e+01 2.767699e+01 2.239184e+01 2.467814e+01 1.931904e+01 2.516791e+01 2.257217e+01 1.292996e+01 2.767760e+00 1.245049e+00 1.755825e+00 1.784878e+00 2.180400e+00 3.038729e+00 2.693058e+00 1.934843e+00 2.374556e+00 1.634674e+00 2.358837e+00 2.139810e+00 7.542419e-01 3.197064e-01 1.482014e-01 2.270646e-01 2.729723e-01 4.034797e-01 5.052085e-01 4.647498e-01 3.486825e-01 4.483322e-01 3.412214e-01 4.837255e-01 3.919118e-01 1.049675e-01
<GCONST> 1.057192e+02
<TRANSP> 5
 0.000000e+00 1.000000e+00 0.000000e+00 0.000000e+00 0.000000e+00
 0.000000e+00 8.536680e-01 1.463320e-01 0.000000e+00 0.000000e+00
 0.000000e+00 0.000000e+00 8.208516e-01 1.791485e-01 0.000000e+00
 0.000000e+00 0.000000e+00 0.000000e+00 8.855816e-01 1.144184e-01
 0.000000e+00 0.000000e+00 0.000000e+00 0.000000e+00 0.000000e+00
<ENDHMM>
~h "t"
<BEGINHMM>
<NUMSTATES> 5
<STATE> 2
<MEAN> 39
 -3.872236e+00 -6.622304e+00 1.140148e+01 -8.775693e+00 -2.213179e+01 -3.947893e+00 -8.772398e+00 9.921505e-01 2.641185e+00 -1.100437e+01 1.159667e+01 -1.134894e+01 7.396446e+01 -1.735208e-01 4.006564e-01 7.515009e-01 9.059668e-02 -2.557600e-02 -1.431119e-01 -3.658230e-01 -7.489814e-01 -6.546781e-01 -7.503902e-02 5.075102e-01 4.582458e-01 -3.009678e-01 -1.870625e-02 -2.217818e-02 -8.549676e-02 7.742609e-02 2.510749e-01 1.444708e-02 -7.377823e-02 -1.788532e-02 1.819544e-02 5.552533e-02 -1.515710e-01 3.261962e-02 -9.294222e-02
<VARIANCE> 39
 6.547699e+00 1.843987e+01 7.498091e+01 2.192070e+01 8.084020e+01 1.926599e+01 3.273778e+01 3.435853e+01 2.254256e+01 3.997755e+01 7.231333e+01 1.916247e+01 3.082835e+01 1.567729e-01 6.252953e-01 1.345625e+00 9.502195e-01 1.988234e+00 9.940385e-01 1.779884e+00 2.323933e+00 1.682567e+00 1.863614e+00 2.674978e+00 9.438053e-01 3.368941e-01 3.499721e-02 6.942648e-02 1.072432e-01 1.179709e-01 2.679875e-01 1.735706e-01 3.452655e-01 3.813950e-01 2.789887e-01 3.049057e-01 2.306400e-01 2.028431e-01 6.308678e-02
<GCONST> 9.294806e+01
<STATE> 3
<MEAN> 39
 -4.992868e+00 -4.414001e+00 1.332213e+01 -6.220814e+00 -1.760328e+01 -3.208438e+00 -1.084644e+01 -2.497884e+00 6.936593e-01 -1.034756e+01 9.989654e+00 -8.001211e+00 7.049753e+01 -1.590446e-01 2.225746e-01 -1.767111e-01 2.503222e-01 8.227860e-01 9.720826e-03 9.395739e-03 -2.049223e-01 -6.290190e-02 3.066427e-01 -4.273552e-01 3.371240e-01 -5.032194e-01 -4.139323e-03 -1.179074e-02 -1.043040e-01 1.033637e-02 9.712603e-02 1.203045e-02 4.115872e-02 5.661071e-02 4.539957e-02 4.113417e-02 -8.566134e-02 -1.908417e-02 -1.097173e-03
<VARIANCE> 39
 7.430752e+00 1.303809e+01 1.188767e+02 2.245496e+01 9.192892e+01 2.014566e+01 4.193902e+01 3.082674e+01 4.222313e+01 5.978948e+01 1.114977e+02 1.988868e+01 2.716159e+01 3.079463e-01 6.433122e-01 2.722865e+00 1.367425e+00 2.160381e+00 1.016148e+00 2.991785e+00 2.367314e+00 2.030059e+00 2.597148e+00 3.213527e+00 9.751950e-01 4.559280e-01 4.021959e-02 7.181948e-02 2.252827e-01 2.105951e-01 3.402103e-01 1.634267e-01 4.991070e-01 3.505790e-01 3.212692e-01 3.599742e-01 3.595692e-01 1.548946e-01 5.378525e-02
<GCONST> 1.006318e+02
<STATE> 4
<MEAN> 39
 -7.259807e+00 -3.236568e+00 4.397193e+00 -3.472299e+00 -5.960377e+00 -3.790839e+00 -7.196733e+00 -3.137360e+00 6.584654e-01 -3.733477e+00 3.464734e+00 -5.670343e+00 6.415356e+01 -5.270926e-02 2.470177e-03 -3.400816e-01 7.176044e-02 3.226990e-01 2.047247e-02 9.839432e-02 -7.455514e-02 -5.573430e-02 1.619201e-01 -2.051210e-01 6.541469e-02 -1.787663e-01 -1.502965e-03 -4.977630e-03 5.789849e-03 8.800025e-03 -3.569324e-02 7.489903e-03 2.242429e-02 1.039878e-02 2.085920e-02 -3.354322e-03 3.098309e-02 -2.491937e-03 9.272221e-03
<VARIANCE> 39
 1.889196e+01 1.065552e+01 6.676234e+01 1.350692e+01 4.218398e+01 2.577232e+01 5.216552e+01 1.964098e+01 3.284911e+01 4.537849e+01 4.074242e+01 1.884332e+01 1.578379e+01 8.653839e-01 5.611421e-01 1.935884e+00 9.538604e-01 1.880579e+00 2.114586e+00 2.900120e+00 1.800200e+00 1.775818e+00 2.321950e+00 2.291897e+00 1.434239e+00 5.986114e-01 1.334661e-01 9.324620e-02 2.452639e-01 1.683309e-01 3.222025e-01 3.551296e-01 4.985391e-01 3.401436e-01 3.311046e-01 3.805332e-01 4.045989e-01 2.583181e-01 5.785332e-02
<GCONST> 1.007410e+02
<TRANSP> 5
 0.000000e+00 1.000000e+00 0.000000e+00 0.000000e+00 0.000000e+00
 0.000000e+00 7.959223e-01 2.040777e-01 0.000000e+00 0.000000e+00
 0.000000e+00 0.000000e+00 8.906046e-01 1.093955e-01 0.000000e+00
 0.000000e+00 0.000000e+00 0.000000e+00 9.514443e-01 4.855563e-02
 0.000000e+00 0.000000e+00 0.000000e+00 0.000000e+00 0.000000e+00
<ENDHMM>
~h "u"
<BEGINHMM>
<NUMSTATES> 5
<STATE> 2
<MEAN> 39
 -6.650307e+00 -2.093729e+00 2.581610e+00 -3.750479e+00 -2.279129e+00 -5.461921e+00 -3.967544e+00 -1.365290e+00 2.072629e+00 5.682396e-01 2.962370e-01 -4.724761e+00 6.109779e+01 -1.393129e-01 3.770875e-02 -2.964867e-02 -1.618861e-02 1.314042e-01 5.407611e-02 3.124906e-02 6.107249e-02 6.817432e-02 1.543954e-01 9.590773e-02 7.938726e-02 -4.533546e-02 7.154133e-03 -7.991358e-03 8.985886e-04 -4.433872e-02 -3.996516e-02 1.412652e-02 -3.360679e-02 1.099387e-02 -1.221861e-02 -2.927729e-02 -7.246330e-03 -2.703182e-02 2.771587e-02
<VARIANCE> 39
 6.466698e+00 6.343466e+00 2.389225e+01 1.368465e+01 1.501824e+01 2.426083e+01 2.343046e+01 1.543567e+01 2.559605e+01 2.603236e+01 2.932801e+01 2.408196e+01 4.179291e+00 2.900978e-01 4.489527e-01 1.386094e+00 1.049569e+00 1.242390e+00 2.391315e+00 2.391262e+00 1.538970e+00 2.093030e+00 1.547751e+00 1.962624e+00 1.684203e+00 1.817543e-01 4.560759e-02 8.230852e-02 2.459014e-01 1.840048e-01 2.114526e-01 4.441342e-01 4.860611e-01 3.226376e-01 3.659599e-01 2.783994e-01 3.535966e-01 2.429086e-01 2.508580e-02
<GCONST> 8.753343e+01
<STATE> 3
<MEAN> 39
 -7.797226e+00 -1.603659e+00 2.986311e+00 -4.903286e+00 -2.692746e+00 -7.023388e+00 -3.100549e+00 -4.914307e-01 2.245928e-01 3.677423e-02 2.101818e-01 -4.499732e+00 6.137366e+01 -8.618308e-02 1.006126e-01 -8.380984e-02 -9.828913e-02 5.972482e-02 5.763334e-03 1.355245e-01 7.041476e-02 -1.104153e-01 6.783858e-02 -4.484309e-02 -7.166268e-02 3.991884e-03 -9.578393e-03 -8.042220e-04 -7.179505e-03 -3.820882e-03 7.281097e-03 1.293575e-02 8.949539e-03 -6.227839e-03 -2.159778e-02 -1.805398e-02 -1.252472e-02 -1.687727e-02 9.990966e-03
<VARIANCE> 39
 9.839988e+00 7.974547e+00 1.745967e+01 1.094762e+01 1.499130e+01 2.701480e+01 3.098147e+01 1.625630e+01 2.806126e+01 1.906308e+01 2.849672e+01 1.968608e+01 5.986835e+00 3.212928e-01 3.730997e-01 1.034679e+00 7.630280e-01 1.220140e+00 2.103635e+00 1.844369e+00 1.771593e+00 1.709247e+00 2.106511e+00 1.760056e+00 1.320953e+00 1.741398e-01 5.597385e-02 6.937568e-02 1.785152e-01 1.336820e-01 2.061421e-01 3.749567e-01 3.732356e-01 3.654894e-01 3.243881e-01 4.457185e-01 3.180376e-01 2.265104e-01 2.931490e-02
<GCONST> 8.613318e+01
<STATE> 4
<MEAN> 39
 -4.806925e+00 -1.199083e+00 3.545223e+00 -5.076773e+00 -1.829659e+00 -4.266668e+00 -8.789477e+00 -5.437479e+00 -3.089827e+00 -4.221592e+00 1.960437e+00 -5.298239e+00 6.470229e+01 6.206886e-02 -4.559551e-03 1.164969e-01 -3.016426e-03 -1.125428e-02 7.409853e-03 -1.822585e-01 -1.456147e-01 -1.684372e-01 -6.651567e-02 1.254719e-01 -1.369593e-02 2.182554e-02 -4.074085e-03 -8.203347e-03 5.064347e-04 1.032132e-02 -4.177772e-03 -8.290440e-03 9.633579e-03 3.095598e-02 3.181627e-02 1.773676e-02 2.866227e-04 6.251052e-03 -1.862769e-03
<VARIANCE> 39
 3.071299e+01 1.003759e+01 2.414128e+01 1.351822e+01 2.156433e+01 2.098736e+01 8.292556e+01 3.767646e+01 3.571740e+01 3.654115e+01 3.727023e+01 1.990159e+01 2.764427e+01 1.651374e+00 8.400031e-01 1.321229e+00 8.817321e-01 2.098659e+00 1.723866e+00 4.086240e+00 2.384246e+00 2.113273e+00 2.478217e+00 1.979274e+00 1.557006e+00 8.326206e-01 2.543263e-01 1.267844e-01 1.973913e-01 1.641180e-01 3.485673e-01 3.051734e-01 6.075515e-01 3.664351e-01 3.779929e-01 4.265345e-01 3.045845e-01 2.637112e-01 8.127112e-02
<GCONST> 1.036372e+02
<TRANSP> 5
 0.000000e+00 1.000000e+00 0.000000e+00 0.000000e+00 0.000000e+00
 0.000000e+00 9.471256e-01 5.287444e-02 0.000000e+00 0.000000e+00
 0.000000e+00 0.000000e+00 9.205321e-01 7.946789e-02 0.000000e+00
 0.000000e+00 0.000000e+00 0.000000e+00 9.702304e-01 2.976956e-02
 0.000000e+00 0.000000e+00 0.000000e+00 0.000000e+00 0.000000e+00
<ENDHMM>
~h "v"
<BEGINHMM>
<NUMSTATES> 5
<STATE> 2
<MEAN> 39
 -1.532149e+00 -6.308562e+00 7.827072e+00 -4.109828e+00 -4.212651e+00 -8.483809e+00 -1.348809e+01 7.669622e-01 4.181309e+00 -2.261446e+00 3.872011e+00 -7.335589e+00 6.976263e+01 -1.459274e-01 3.872200e-01 -2.813666e-01 2.911579e-01 7.497340e-01 4.822292e-01 6.169811e-01 -2.486411e-04 1.265604e-01 4.886461e-01 -6.718854e-01 -4.476629e-01 -4.127242e-01 -2.123201e-02 4.018066e-02 7.222354e-02 4.052013e-02 -8.147936e-02 5.569194e-02 8.861896e-02 -9.951139e-02 -9.026945e-02 -1.837926e-02 1.939080e-02 2.202986e-02 -5.765322e-02
<VARIANCE> 39
 1.106106e+01 2.447792e+01 1.676281e+01 3.430268e+01 2.791613e+01 2.242220e+01 2.568301e+01 2.527856e+01 3.013708e+01 1.878720e+01 1.961604e+01 5.327134e+01 1.755240e+01 5.622581e-01 1.357181e+00 1.269148e+00 2.898184e+00 2.445462e+00 1.918839e+00 1.422792e+00 2.914935e+00 2.826621e+00 1.940752e+00 1.808885e+00 1.952528e+00 6.685616e-01 9.937549e-02 2.406355e-01 1.424726e-01 5.511533e-01 3.497032e-01 3.869797e-01 2.619261e-01 4.949968e-01 5.431762e-01 3.110907e-01 3.525930e-01 3.631418e-01 1.058975e-01
<GCONST> 1.028663e+02
<STATE> 3
<MEAN> 39
 -2.546088e+00 -4.315108e+00 6.866734e+00 -2.902289e+00 -1.976596e+00 -6.841795e+00 -1.032742e+01 -8.681302e-02 3.880401e+00 -6.048492e-01 2.038189e+00 -7.489641e+00 6.732617e+01 -1.993651e-01 4.413970e-01 -1.543746e-01 2.745003e-01 3.715504e-01 3.477601e-01 7.117715e-01 -3.464022e-01 -1.809706e-01 2.497440e-01 -3.668581e-01 -1.459213e-01 -4.754933e-01 -1.137496e-02 2.683679e-02 2.151586e-02 2.483273e-02 -4.571854e-02 -5.845709e-02 3.624507e-03 -8.752917e-02 -1.042019e-01 -5.928311e-02 6.617050e-02 9.544611e-02 -7.520483e-03
<VARIANCE> 39
 1.407662e+01 2.182734e+01 1.995791e+01 3.145111e+01 2.225395e+01 2.294401e+01 3.336450e+01 2.307570e+01 3.053410e+01 1.771184e+01 1.588214e+01 4.235185e+01 1.966295e+01 6.384520e-01 1.331757e+00 1.070300e+00 2.862356e+00 1.674474e+00 2.276293e+00 1.983886e+00 2.517994e+00 3.312782e+00 1.799128e+00 1.791365e+00 1.874776e+00 6.067571e-01 1.114305e-01 2.558666e-01 1.409902e-01 5.359631e-01 2.961865e-01 4.177356e-01 3.756963e-01 4.659925e-01 6.387948e-01 3.258775e-01 3.408610e-01 3.157293e-01 9.521425e-02
<GCONST> 1.027901e+02
<STATE> 4
<MEAN> 39
 -5.935984e+00 -4.631915e+00 1.804678e+00 -4.831842e+00 -1.510669e+00 -6.286435e+00 -5.399125e+00 -1.355853e+00 2.667598e+00 3.778485e-01 1.084675e+00 -4.669803e+00 6.286705e+01 -1.210314e-01 2.322057e-02 -1.703912e-01 -8.485029e-02 3.596870e-02 7.681057e-02 1.551742e-01 -4.164874e-02 -2.210755e-02 1.128898e-02 -8.429276e-02 5.130965e-03 -1.595242e-01 -7.562922e-03 1.030343e-03 1.673094e-02 1.531226e-02 -1.936672e-03 -1.764101e-02 -7.327233e-03 1.572257e-02 -1.159906e-02 -1.992608e-02 9.677242e-03 2.116186e-02 6.929271e-03
<VARIANCE> 39
 1.338818e+01 1.773753e+01 3.487689e+01 2.526828e+01 3.149489e+01 3.284416e+01 2.910235e+01 2.795143e+01 2.246188e+01 1.875852e+01 2.668246e+01 2.782670e+01 1.196396e+01 4.949413e-01 9.477118e-01 1.010241e+00 1.578708e+00 2.325926e+00 2.053579e+00 2.014364e+00 1.896308e+00 2.428678e+00 1.838819e+00 1.891777e+00 1.701578e+00 3.069459e-01 7.365341e-02 1.347060e-01 1.690506e-01 2.732794e-01 4.079349e-01 3.680804e-01 3.680653e-01 3.282127e-01 4.630390e-01 3.600306e-01 3.584415e-01 3.172434e-01 3.724109e-02
<GCONST> 9.785155e+01
<TRANSP> 5
 0.000000e+00 1.000000e+00 0.000000e+00 0.000000e+00 0.000000e+00
 0.000000e+00 7.649772e-01 2.350228e-01 0.000000e+00 0.000000e+00
 0.000000e+00 0.000000e+00 7.282419e-01 2.717581e-01 0.000000e+00
 0.000000e+00 0.000000e+00 0.000000e+00 9.301945e-01 6.980547e-02
 0.000000e+00 0.000000e+00 0.000000e+00 0.000000e+00 0.000000e+00
<ENDHMM>
~h "w"
<BEGINHMM>
<NUMSTATES> 5
<STATE> 2
<MEAN> 39
 -7.429942e+00 -6.310899e+00 1.642952e+00 -6.382970e+00 -1.855456e+00 -4.557063e+00 -2.893865e+00 -7.293451e-01 -3.545411e-02 -7.984825e-01 1.229370e+00 -3.216028e+00 6.089047e+01 -3.205356e-02 -7.625752e-03 4.883292e-03 1.344330e-02 6.517443e-02 6.293432e-02 6.244610e-02 3.427409e-02 1.489000e-02 -3.079614e-02 -1.843666e-01 -6.583047e-02 -4.449233e-02 1.665972e-02 2.452706e-02 1.188355e-02 2.129483e-03 6.611546e-04 -1.163585e-02 -1.412777e-02 -1.082939e-02 6.891282e-03 1.805026e-02 -6.738607e-03 -2.647439e-02 2.839277e-02
<VARIANCE> 39
 3.314939e+00 1.436087e+01 1.082013e+01 1.721182e+01 1.807698e+01 3.191204e+01 2.909420e+01 2.249132e+01 1.793808e+01 2.494909e+01 2.639542e+01 1.932962e+01 5.061494e+00 2.424141e-01 7.628793e-01 8.833983e-01 1.132874e+00 1.563040e+00 1.691101e+00 1.842181e+00 1.689382e+00 1.637783e+00 2.279614e+00 2.276507e+00 2.146769e+00 1.584463e-01 4.644068e-02 1.226100e-01 1.553386e-01 1.993139e-01 2.602943e-01 3.275451e-01 3.642132e-01 3.361169e-01 3.275666e-01 4.524763e-01 4.551641e-01 4.675951e-01 2.346126e-02
<GCONST> 8.863618e+01
<STATE> 3
<MEAN> 39
 -7.140328e+00 -5.713663e+00 1.864699e+00 -5.457808e+00 -1.824004e+00 -4.779001e+00 -3.653541e+00 -1.451099e+00 8.422741e-01 -6.891549e-01 -2.104884e-01 -4.525714e+00 6.142102e+01 2.361672e-01 3.421465e-01 1.135269e-01 5.646457e-02 -6.622229e-02 -6.008691e-02 -4.235968e-02 -8.894682e-02 4.567473e-02 -6.607903e-02 -2.339044e-02 -1.136485e-01 1.627772e-01 6.790467e-02 2.877923e-02 3.539043e-02 -6.076923e-02 -1.043940e-01 -7.074361e-02 -5.108798e-02 4.210005e-03 -1.566854e-02 -2.329657e-02 8.646761e-04 2.570935e-03 5.393938e-02
<VARIANCE> 39
 7.246858e+00 2.683511e+01 1.372143e+01 1.526583e+01 2.476922e+01 2.836754e+01 3.251036e+01 2.495522e+01 2.298816e+01 2.974882e+01 2.692724e+01 2.133615e+01 6.236038e+00 5.519809e-01 1.067544e+00 1.353811e+00 1.118760e+00 1.877478e+00 2.294798e+00 1.954353e+00 1.620395e+00 1.880616e+00 2.593804e+00 1.826393e+00 2.073156e+00 2.358431e-01 8.335669e-02 1.456491e-01 2.229748e-01 2.219934e-01 3.167369e-01 4.371079e-01 4.205637e-01 3.212602e-01 3.813118e-01 5.179056e-01 3.401715e-01 4.445937e-01 3.475374e-02
<GCONST> 9.596197e+01
<STATE> 4
<MEAN> 39
 1.106162e-02 -6.255268e+00 1.517700e+00 -1.100237e+01 -7.156308e+00 6.230227e-01 -7.999544e+00 -2.465500e+00 2.565415e+00 -5.431876e+00 6.547185e-01 -1.047120e+01 6.997024e+01 1.979561e-01 -2.918586e-01 4.925909e-02 -3.503474e-02 -1.028925e-01 2.101616e-01 -1.453706e-01 -4.289130e-05 1.685560e-01 -1.516189e-01 -1.813174e-01 -3.120287e-01 3.269217e-01 -3.973375e-02 2.036505e-02 2.328852e-02 6.860808e-02 3.699722e-02 -3.784952e-02 1.394185e-02 -1.434459e-02 -3.854940e-02 2.878707e-02 3.834922e-03 3.666557e-02 -5.177074e-02
<VARIANCE> 39
 1.580075e+01 5.801334e+01 1.939068e+01 6.149484e+01 4.207157e+01 8.229694e+01 2.590650e+01 1.245069e+01 3.435788e+01 2.665238e+01 6.283714e+01 6.358950e+01 2.919529e+01 6.234182e-01 2.426225e+00 1.321845e+00 2.810347e+00 2.227447e+00 4.025672e+00 1.613784e+00 1.429641e+00 2.129816e+00 3.191795e+00 4.675864e+00 3.603950e+00 7.286534e-01 6.482644e-02 2.528278e-01 1.434181e-01 2.745091e-01 3.215829e-01 4.474951e-01 2.774425e-01 2.919397e-01 3.325777e-01 6.317101e-01 6.627711e-01 5.809433e-01 5.271682e-02
<GCONST> 1.099193e+02
<TRANSP> 5
 0.000000e+00 1.000000e+00 0.000000e+00 0.000000e+00 0.000000e+00
 0.000000e+00 9.239388e-01 7.606123e-02 0.000000e+00 0.000000e+00
 0.000000e+00 0.000000e+00 8.473172e-01 1.526828e-01 0.000000e+00
 0.000000e+00 0.000000e+00 0.000000e+00 9.662806e-01 3.371941e-02
 0.000000e+00 0.000000e+00 0.000000e+00 0.000000e+00 0.000000e+00
<ENDHMM>
~h "z"
<BEGINHMM>
<NUMSTATES> 5
<STATE> 2
<MEAN> 39
 -6.207830e+00 -5.928154e+00 -1.481616e+00 -6.458472e+00 -3.665775e+00 -5.229286e+00 -6.939066e+00 -2.551514e+00 2.142607e+00 -3.478585e+00 -1.154593e+00 -5.838854e+00 6.214105e+01 4.328287e-02 2.077629e-01 1.660455e-01 8.193932e-02 -8.457848e-03 -3.102751e-02 -1.481778e-03 -2.048253e-01 -1.287113e-01 -8.968946e-02 4.250620e-02 1.455466e-01 -2.865556e-02 -1.577621e-02 2.105861e-02 7.777281e-03 3.747483e-03 -1.459574e-02 -1.748299e-02 1.694252e-02 1.785391e-02 -4.183445e-03 -3.712783e-03 8.421926e-03 1.296508e-02 8.970072e-03
<VARIANCE> 39
 1.284331e+01 2.356779e+01 1.551755e+01 2.357699e+01 1.419730e+01 2.556039e+01 1.432852e+01 2.412232e+01 2.956542e+01 2.970986e+01 2.771361e+01 2.302962e+01 3.019320e+00 2.894243e-01 1.186081e+00 6.969429e-01 1.124882e+00 1.117028e+00 1.655653e+00 1.430931e+00 1.643248e+00 1.980485e+00 2.219423e+00 1.928114e+00 2.415300e+00 1.454381e-01 3.843164e-02 1.766041e-01 1.298429e-01 1.713969e-01 2.109784e-01 2.993704e-01 2.397651e-01 2.926206e-01 3.385895e-01 3.951797e-01 3.529765e-01 4.797877e-01 1.785747e-02
<GCONST> 8.859225e+01
<STATE> 3
<MEAN> 39
 -6.321449e+00 -2.502671e+00 3.076049e+00 -4.827837e+00 -4.004906e+00 -8.154082e+00 -6.351810e+00 -4.737744e+00 -4.302352e-01 -2.602229e+00 9.177688e-01 -4.543526e+00 6.114357e+01 -7.720160e-02 2.298920e-01 1.173727e-01 2.225529e-01 -7.000177e-02 1.465476e-02 7.326343e-02 -1.093087e-01 2.346382e-02 -1.517788e-01 9.868712e-02 -5.033335e-02 5.559249e-02 -1.043531e-02 -2.949888e-02 -2.051820e-03 3.696227e-03 -8.829284e-04 -1.556857e-02 -1.269009e-03 1.175950e-02 2.149964e-02 -9.082640e-03 -2.188714e-02 -1.283523e-02 1.667782e-02
<VARIANCE> 39
 5.089447e+00 1.591521e+01 1.363775e+01 2.325936e+01 1.829033e+01 4.147079e+01 1.397598e+01 2.530443e+01 2.424294e+01 3.077351e+01 2.585203e+01 2.189015e+01 6.381269e+00 3.914856e-01 9.780270e-01 7.171232e-01 1.271992e+00 1.559907e+00 2.246117e+00 1.509614e+00 1.927720e+00 1.479144e+00 2.602256e+00 1.651273e+00 2.201303e+00 1.771718e-01 5.907762e-02 1.505926e-01 1.124688e-01 2.062424e-01 2.728611e-01 4.274426e-01 3.033667e-01 3.644340e-01 2.721356e-01 4.896500e-01 2.923674e-01 4.440449e-01 2.165912e-02
<GCONST> 9.058910e+01
<STATE> 4
<MEAN> 39
 -6.965714e+00 -8.841906e-01 2.890721e+00 -1.194583e+00 -2.547850e+00 -7.531075e+00 -5.042312e+00 -3.676001e+00 1.290011e+00 -3.488138e+00 -2.029849e-01 -5.941956e+00 6.265228e+01 -1.293573e-01 3.157953e-01 3.979214e-02 4.565109e-01 8.074019e-02 2.345637e-01 8.573174e-02 -8.310974e-02 3.611253e-02 -2.712273e-01 1.566919e-01 -8.825787e-02 2.456359e-01 -4.938904e-03 -2.744928e-02 1.173349e-02 -2.520700e-02 1.777002e-02 6.031315e-04 -2.290940e-03 6.270448e-03 3.354764e-02 1.026788e-02 -7.366615e-03 1.579208e-02 1.461128e-02
<VARIANCE> 39
 8.734471e+00 3.143523e+01 2.397982e+01 4.057339e+01 1.966197e+01 4.514640e+01 2.510877e+01 2.547644e+01 2.097191e+01 2.254174e+01 2.433137e+01 1.856927e+01 6.867162e+00 8.159227e-01 1.104970e+00 1.249609e+00 1.922276e+00 1.868156e+00 2.241616e+00 2.223007e+00 1.937907e+00 1.669948e+00 1.974702e+00 2.078115e+00 1.926719e+00 2.072041e-01 1.147405e-01 1.446963e-01 1.903481e-01 2.875325e-01 3.414605e-01 4.136618e-01 3.646718e-01 3.452455e-01 3.132776e-01 4.006056e-01 3.876123e-01 4.150320e-01 2.618642e-02
<GCONST> 9.771454e+01
<TRANSP> 5
 0.000000e+00 1.000000e+00 0.000000e+00 0.000000e+00 0.000000e+00
 0.000000e+00 9.386963e-01 6.130371e-02 0.000000e+00 0.000000e+00
 0.000000e+00 0.000000e+00 9.049039e-01 9.509604e-02 0.000000e+00
 0.000000e+00 0.000000e+00 0.000000e+00 9.204339e-01 7.956615e-02
 0.000000e+00 0.000000e+00 0.000000e+00 0.000000e+00 0.000000e+00
<ENDHMM>
~h "O:"
<BEGINHMM>
<NUMSTATES> 5
<STATE> 2
<MEAN> 39
 -2.773076e+00 -4.928941e+00 -1.515823e+00 -1.229267e+01 -9.708070e+00 -3.995960e-01 -3.012455e+00 -5.668584e+00 3.655690e+00 -3.403892e+00 7.933885e+00 -2.525106e+00 6.695983e+01 2.050781e-01 -9.552883e-02 -1.640030e-01 -1.050610e-01 -3.625886e-01 -4.629079e-02 1.028891e-01 -7.792317e-02 1.556267e-01 -2.335279e-01 2.456553e-01 1.611446e-01 1.257493e-01 -7.145311e-02 1.785323e-03 -2.346660e-02 1.674758e-01 1.461660e-01 -7.057701e-02 -1.654839e-02 4.997924e-02 4.145409e-03 7.021156e-03 -8.950488e-02 1.851331e-02 -6.072684e-02
<VARIANCE> 39
 5.145293e+01 6.933164e+00 1.578789e+01 6.965379e+01 7.316656e+01 4.287712e+01 1.677426e+01 4.285823e+01 2.075804e+01 2.912607e+01 3.623788e+01 2.209485e+01 4.157259e+01 1.123034e+00 5.701407e-01 6.251534e-01 2.495451e+00 2.497649e+00 2.035635e+00 1.091508e+00 1.393461e+00 1.524583e+00 1.322828e+00 1.790775e+00 1.374403e+00 4.662735e-01 2.140802e-01 1.138264e-01 9.009771e-02 3.903303e-01 3.692378e-01 3.040314e-01 1.969982e-01 2.441915e-01 2.545839e-01 2.622062e-01 3.134650e-01 2.269416e-01 7.971001e-02
<GCONST> 9.872416e+01
<STATE> 3
<MEAN> 39
 -2.542344e+00 -5.252420e+00 -1.849097e+00 -1.113826e+01 -9.510025e+00 -2.577995e+00 -2.907472e+00 -5.134568e+00 3.223890e+00 -4.209952e+00 7.654095e+00 -1.325533e+00 6.664629e+01 1.737254e-01 -2.082551e-02 -2.209034e-01 1.960061e-01 3.014718e-02 -2.166911e-01 -3.133862e-02 2.002067e-02 1.394412e-01 -2.664898e-01 1.264533e-02 3.375584e-01 -4.307906e-02 -1.520880e-02 1.609958e-02 -1.060743e-02 4.944902e-02 8.761317e-02 -1.659107e-02 -2.025605e-02 1.265157e-02 1.514444e-02 2.050096e-02 -5.907997e-02 1.107917e-02 -1.505232e-02
<VARIANCE> 39
 5.385750e+01 7.077309e+00 1.672854e+01 6.672160e+01 6.959109e+01 3.956214e+01 1.580907e+01 4.178669e+01 2.434582e+01 3.143614e+01 3.671577e+01 2.639358e+01 4.466830e+01 7.874271e-01 5.305029e-01 6.789033e-01 1.664560e+00 1.965874e+00 1.800739e+00 1.175849e+00 1.415773e+00 1.360732e+00 1.546559e+00 1.642237e+00 1.493524e+00 4.010735e-01 1.353877e-01 9.533939e-02 8.933715e-02 3.064651e-01 3.112085e-01 3.048376e-01 2.083032e-01 2.638571e-01 2.141820e-01 2.661475e-01 2.817462e-01 2.340010e-01 6.306291e-02
<GCONST> 9.656675e+01
<STATE> 4
<MEAN> 39
 -1.476182e+00 -4.635340e+00 -3.671536e+00 -9.943691e+00 -5.904335e+00 -2.031734e+00 -3.584258e+00 -3.530018e+00 4.369741e+00 -4.297612e+00 5.080540e+00 -8.605370e-01 6.562949e+01 -9.931174e-02 2.796994e-02 2.238961e-02 1.874774e-01 2.473271e-01 -5.005694e-02 -4.672113e-03 1.551380e-01 2.590348e-02 1.565702e-01 -1.433471e-01 -2.650071e-02 -1.501679e-01 -2.548065e-02 2.799339e-04 3.001525e-02 6.090517e-03 -5.925186e-03 4.551123e-03 7.873426e-03 7.548392e-03 -1.214762e-02 2.012507e-02 7.644221e-04 -2.666961e-02 -8.865732e-03
<VARIANCE> 39
 4.504436e+01 9.081482e+00 2.087038e+01 4.522969e+01 5.632452e+01 2.681803e+01 1.697931e+01 3.439907e+01 3.030194e+01 3.660533e+01 3.172620e+01 4.350469e+01 3.358950e+01 6.949391e-01 5.274541e-01 7.769661e-01 1.543901e+00 1.756141e+00 1.474003e+00 1.328813e+00 1.331451e+00 1.678674e+00 1.543191e+00 1.254164e+00 1.526145e+00 3.663086e-01 8.555548e-02 8.430851e-02 1.112883e-01 2.322450e-01 2.134608e-01 2.491398e-01 2.471480e-01 2.253643e-01 2.842061e-01 2.357376e-01 2.005748e-01 2.382745e-01 4.223612e-02
<GCONST> 9.396604e+01
<TRANSP> 5
 0.000000e+00 1.000000e+00 0.000000e+00 0.000000e+00 0.000000e+00
 0.000000e+00 8.952812e-01 1.047188e-01 0.000000e+00 0.000000e+00
 0.000000e+00 0.000000e+00 8.026552e-01 1.973448e-01 0.000000e+00
 0.000000e+00 0.000000e+00 0.000000e+00 9.730235e-01 2.697647e-02
 0.000000e+00 0.000000e+00 0.000000e+00 0.000000e+00 0.000000e+00
<ENDHMM>
~h "aI"
<BEGINHMM>
<NUMSTATES> 5
<STATE> 2
<MEAN> 39
 9.768583e-01 -1.374370e+01 -1.099336e+00 -1.335492e+01 -7.053836e+00 3.435962e+00 -9.178899e+00 -1.014506e+00 8.891067e+00 -7.479281e+00 -3.740383e-01 -2.115133e+01 7.646104e+01 2.694321e-02 -8.993641e-01 7.802065e-02 -3.111614e-01 -5.662520e-01 1.821338e-01 1.504173e-01 7.488859e-01 4.139103e-01 -1.070782e+00 7.081137e-02 1.494377e-02 5.000877e-01 -8.451855e-02 2.363925e-01 2.696145e-01 2.667265e-01 -3.105843e-03 -2.827210e-01 3.298671e-02 -3.065780e-03 -3.144006e-01 5.820364e-02 1.010824e-01 3.565083e-01 -1.945163e-01
<VARIANCE> 39
 3.561161e+00 2.303275e+01 2.401229e+01 2.088737e+01 1.532586e+01 3.709922e+01 1.379472e+01 2.530018e+01 2.450989e+01 3.958298e+01 2.641234e+01 3.258930e+01 8.357792e+00 3.935187e-01 2.154194e+00 2.399175e+00 2.824280e+00 9.935470e-01 3.863189e+00 7.956359e-01 2.348843e+00 3.339693e+00 1.537808e+00 1.745018e+00 3.866013e+00 1.006192e+00 7.365760e-02 2.110227e-01 1.407243e-01 2.724263e-01 1.807166e-01 3.180851e-01 1.455982e-01 4.196306e-01 4.385439e-01 2.694970e-01 2.911815e-01 3.352357e-01 8.112597e-02
<GCONST> 9.747756e+01
<STATE> 3
<MEAN> 39
 4.465388e-01 -1.478389e+01 3.041711e+00 -1.203394e+01 -1.072277e+01 6.796386e-01 -8.195962e+00 2.647583e+00 6.887993e+00 -1.086387e+01 1.510551e+00 -1.691410e+01 7.664704e+01 -1.900013e-01 1.884439e-01 1.318118e+00 4.764549e-01 -8.665301e-01 -8.699527e-01 7.940344e-02 7.031336e-01 -7.501782e-01 -3.187920e-01 6.878160e-01 1.258050e+00 -2.061153e-01 -2.664388e-02 1.735272e-01 1.535395e-01 7.060164e-02 8.584845e-03 -7.402920e-02 -4.029514e-02 -8.703752e-02 -1.375988e-01 1.522718e-01 1.127415e-01 1.160379e-01 -1.009620e-01
<VARIANCE> 39
 3.462088e+00 1.090525e+01 5.776230e+01 1.261548e+01 3.012352e+01 4.870007e+01 1.409411e+01 3.772076e+01 3.330651e+01 3.221314e+01 3.403733e+01 5.785876e+01 4.381204e+00 1.869790e-01 1.025914e+00 1.805296e+00 8.307654e-01 1.397069e+00 2.183747e+00 9.381048e-01 2.837447e+00 1.740574e+00 1.650034e+00 1.988146e+00 2.364902e+00 2.762696e-01 3.395136e-02 1.075236e-01 1.908794e-01 1.479823e-01 2.105205e-01 2.935169e-01 1.460122e-01 4.483707e-01 2.948301e-01 2.122912e-01 3.009986e-01 3.248616e-01 2.487473e-02
<GCONST> 9.019269e+01
<STATE> 4
<MEAN> 39
 -1.432574e+00 -9.571683e+00 1.326564e+01 -7.469683e+00 -1.276969e+01 -4.839252e+00 -8.349511e+00 3.537605e+00 1.062287e+00 -7.678597e+00 7.086160e+00 -7.597890e+00 7.224264e+01 -1.709289e-01 7.480200e-01 4.333311e-01 6.504566e-01 5.693744e-01 -4.461944e-01 -1.157810e-01 -2.855081e-01 -4.425448e-01 3.765199e-01 1.576140e-01 7.980551e-01 -5.779864e-01 1.167208e-02 3.065748e-02 -2.516811e-01 4.943127e-02 2.193181e-01 4.399555e-02 2.376578e-02 -9.471370e-02 8.911984e-02 3.803260e-02 -1.932397e-01 -1.093955e-01 -2.503726e-02
<VARIANCE> 39
 5.119429e+00 2.389100e+01 5.018339e+01 1.848799e+01 4.106839e+01 3.917185e+01 1.861140e+01 3.577214e+01 3.643128e+01 5.098650e+01 3.438368e+01 5.061831e+01 1.538978e+01 2.544611e-01 8.901176e-01 3.152241e+00 1.012379e+00 3.332719e+00 1.626949e+00 1.111272e+00 2.273091e+00 1.882771e+00 1.986922e+00 2.713214e+00 1.855978e+00 2.018394e-01 4.074994e-02 1.198527e-01 2.538836e-01 1.579049e-01 3.223929e-01 2.604691e-01 1.855218e-01 3.386023e-01 2.733577e-01 3.370630e-01 3.166519e-01 2.765320e-01 3.099429e-02
<GCONST> 9.647445e+01
<TRANSP> 5
 0.000000e+00 1.000000e+00 0.000000e+00 0.000000e+00 0.000000e+00
 0.000000e+00 8.468827e-01 1.531173e-01 0.000000e+00 0.000000e+00
 0.000000e+00 0.000000e+00 8.054556e-01 1.945443e-01 0.000000e+00
 0.000000e+00 0.000000e+00 0.000000e+00 9.185993e-01 8.140069e-02
 0.000000e+00 0.000000e+00 0.000000e+00 0.000000e+00 0.000000e+00
<ENDHMM>
~h "eh"
<BEGINHMM>
<NUMSTATES> 5
<STATE> 2
<MEAN> 39
 -1.895844e+00 -2.288781e+00 8.453793e+00 1.015676e+00 -1.157908e+00 -5.194499e+00 -8.069064e+00 -3.749748e+00 1.054745e-01 -3.750033e+00 -3.015062e+00 -1.061646e+01 6.672697e+01 -3.184938e-01 8.767490e-01 3.237009e-01 7.998822e-01 6.617514e-01 -5.460088e-01 4.658015e-01 -3.054239e-01 -8.460260e-01 1.596316e-01 1.994531e-02 5.496535e-01 -6.613078e-01 1.730230e-02 -1.372880e-01 -7.760045e-02 -2.015261e-01 -1.898557e-02 6.983981e-02 -3.005872e-02 1.168068e-01 1.239534e-01 -4.213433e-02 7.058627e-02 -6.356790e-02 6.802420e-02
<VARIANCE> 39
 7.129362e+00 3.057608e+01 1.671499e+01 2.437339e+01 2.658851e+01 2.639552e+01 1.925828e+01 1.953454e+01 3.222962e+01 1.921485e+01 1.695869e+01 1.960900e+01 1.422675e+01 2.517276e-01 2.182359e+00 9.637350e-01 2.315537e+00 1.461842e+00 1.683545e+00 1.382390e+00 2.101603e+00 3.973670e+00 1.614001e+00 1.521174e+00 1.058526e+00 4.628156e-01 4.619524e-02 3.319782e-01 9.787864e-02 2.791540e-01 2.717561e-01 2.847859e-01 2.801685e-01 3.569882e-01 6.579560e-01 3.129815e-01 2.982375e-01 1.961075e-01 6.718771e-02
<GCONST> 9.442254e+01
<STATE> 3
<MEAN> 39
 -2.866820e+00 -9.245143e-01 8.556434e+00 1.801628e+00 5.234945e-01 -6.186560e+00 -6.515368e+00 -3.595882e+00 -9.563743e-01 -3.388493e+00 -3.069972e+00 -9.179094e+00 6.515982e+01 -2.307795e-01 2.624833e-01 1.891327e-02 1.130979e-01 3.758058e-01 -2.260592e-01 3.724756e-01 6.514252e-02 -1.626622e-01 8.071581e-02 -2.273935e-02 3.450540e-01 -3.693263e-01 1.895889e-02 -1.391649e-01 -7.833304e-02 -1.490161e-01 -6.918576e-02 7.424257e-02 -1.930254e-02 7.527094e-02 1.672719e-01 -2.617569e-02 -4.317886e-03 -4.218906e-02 6.533392e-02
<VARIANCE> 39
 7.857488e+00 1.879655e+01 1.430299e+01 1.801551e+01 1.958831e+01 1.958189e+01 2.065950e+01 1.902351e+01 2.469596e+01 1.776807e+01 1.523591e+01 2.099989e+01 9.744880e+00 2.720897e-01 1.506772e+00 9.486452e-01 1.574701e+00 1.391490e+00 1.766291e+00 1.477284e+00 1.588006e+00 2.804869e+00 1.485591e+00 1.443402e+00 1.191511e+00 3.251444e-01 4.985126e-02 2.235967e-01 1.140373e-01 2.185073e-01 2.267567e-01 3.073815e-01 2.806734e-01 2.838240e-01 4.788364e-01 2.609916e-01 2.745719e-01 2.396576e-01 4.382729e-02
<GCONST> 8.907341e+01
<STATE> 4
<MEAN> 39
 -4.510600e+00 -1.295310e+00 6.268958e+00 -1.986835e-01 1.091642e+00 -6.549235e+00 -4.502954e+00 -1.732590e+00 6.007327e-01 -2.868253e+00 -3.316974e+00 -7.257884e+00 6.360834e+01 -2.268270e-01 -1.435899e-01 -2.875525e-01 -2.858219e-01 -6.162881e-02 -7.129640e-02 2.017731e-01 2.297850e-01 2.427586e-01 7.145964e-02 3.344702e-02 2.528960e-01 -1.635777e-01 -5.266246e-03 -4.055752e-02 -3.298370e-02 -3.681240e-02 -5.244705e-02 8.772062e-03 -1.450547e-02 1.403590e-02 2.186528e-02 3.990389e-03 1.777853e-02 -3.047086e-03 1.916481e-02
<VARIANCE> 39
 1.103409e+01 1.617494e+01 1.949846e+01 2.044410e+01 2.136893e+01 2.206590e+01 2.685079e+01 2.842262e+01 2.652582e+01 1.919859e+01 1.900336e+01 2.438481e+01 9.073080e+00 3.210143e-01 9.570478e-01 9.375902e-01 1.061704e+00 1.271501e+00 1.592139e+00 1.828044e+00 1.716228e+00 2.230217e+00 1.715023e+00 1.799878e+00 1.511983e+00 2.649603e-01 5.421491e-02 1.554579e-01 1.400635e-01 1.850237e-01 2.015750e-01 2.923989e-01 3.042631e-01 3.171522e-01 4.231703e-01 3.125999e-01 3.598185e-01 2.963850e-01 4.062455e-02
<GCONST> 9.083537e+01
<TRANSP> 5
 0.000000e+00 1.000000e+00 0.000000e+00 0.000000e+00 0.000000e+00
 0.000000e+00 7.750505e-01 2.249496e-01 0.000000e+00 0.000000e+00
 0.000000e+00 0.000000e+00 7.560143e-01 2.439857e-01 0.000000e+00
 0.000000e+00 0.000000e+00 0.000000e+00 8.978657e-01 1.021343e-01
 0.000000e+00 0.000000e+00 0.000000e+00 0.000000e+00 0.000000e+00
<ENDHMM>
~h "sil"
<BEGINHMM>
<NUMSTATES> 5
<STATE> 2
<MEAN> 39
 -8.144467e+00 -4.391535e+00 6.001175e-01 -5.263689e+00 -2.788130e+00 -6.938730e+00 -4.019701e+00 -8.046499e-01 2.649050e+00 -4.884075e-01 6.548127e-01 -4.342659e+00 6.034634e+01 -3.900675e-02 3.230445e-02 1.729252e-02 -2.349544e-02 -4.235787e-02 -2.352136e-02 2.852964e-02 -3.516466e-02 -1.422280e-02 -1.714708e-02 2.102124e-02 1.859713e-02 -4.237688e-02 3.006932e-03 1.819860e-03 3.117130e-04 -6.410041e-03 -1.705728e-02 -6.215501e-04 -6.974039e-03 1.132057e-04 -1.689164e-03 1.361812e-03 4.310574e-03 1.532347e-03 6.972834e-03
<VARIANCE> 39
 8.968597e+00 1.098909e+01 1.888857e+01 2.045973e+01 1.918574e+01 2.294730e+01 2.426230e+01 2.551535e+01 3.383775e+01 2.618541e+01 2.265770e+01 2.047092e+01 6.610958e+00 3.115172e-01 5.574594e-01 7.929016e-01 9.766339e-01 1.214256e+00 1.532438e+00 1.666006e+00 1.788045e+00 1.928621e+00 1.831837e+00 1.492901e+00 1.544256e+00 1.320064e-01 4.982832e-02 9.266432e-02 1.245197e-01 1.647025e-01 2.046500e-01 2.733362e-01 2.944335e-01 3.243268e-01 3.484730e-01 3.413735e-01 2.726048e-01 2.807042e-01 1.861378e-02
<GCONST> 8.615404e+01
<STATE> 3
<MEAN> 39
 -8.953325e+00 -3.841831e+00 8.620422e-01 -5.495846e+00 -3.620606e+00 -7.226815e+00 -3.369547e+00 -6.664236e-01 2.361135e+00 -1.211374e+00 5.067199e-01 -3.631936e+00 5.956465e+01 5.248716e-02 -7.927486e-02 4.036598e-03 -3.449262e-02 -1.176317e-01 -4.354344e-02 -2.221807e-02 -1.552616e-02 -4.260864e-02 -2.081449e-02 -4.445783e-02 -2.123238e-03 1.828105e-02 6.804091e-03 -1.035609e-02 -2.161829e-03 2.588698e-03 1.438446e-02 9.735030e-03 -5.227740e-03 -5.403684e-03 -1.493073e-02 -1.585089e-03 -1.514645e-02 -2.223442e-02 1.356348e-02
<VARIANCE> 39
 7.102469e+00 1.247966e+01 1.777372e+01 1.933565e+01 1.653801e+01 2.261840e+01 2.552649e+01 2.072909e+01 2.634857e+01 2.516793e+01 2.239946e+01 1.951887e+01 6.186020e+00 3.670636e-01 7.054029e-01 1.003610e+00 1.229818e+00 1.438081e+00 1.691972e+00 1.846036e+00 1.820245e+00 2.073284e+00 1.776852e+00 1.734531e+00 1.548274e+00 1.542248e-01 6.451251e-02 1.168829e-01 1.734900e-01 2.062721e-01 2.602452e-01 3.123662e-01 3.408803e-01 3.527893e-01 4.086295e-01 3.447361e-01 3.158700e-01 2.974532e-01 2.560047e-02
<GCONST> 8.914429e+01
<STATE> 4
<MEAN> 39
 -8.432396e+00 -4.834210e+00 1.440504e+00 -4.827031e+00 -3.616524e+00 -7.128709e+00 -4.251106e+00 -1.448590e+00 1.898776e+00 -8.651264e-01 1.717469e-02 -4.628668e+00 6.148929e+01 -9.052081e-03 -7.378837e-03 -2.426627e-02 2.487221e-02 9.492202e-03 1.683362e-02 6.305312e-03 1.828209e-02 1.379734e-02 -2.415286e-02 -3.665366e-02 -5.397757e-02 3.948008e-02 -3.889744e-03 9.383138e-03 -2.632167e-03 5.458790e-03 1.053329e-02 1.224692e-02 3.346954e-03 4.474754e-03 7.671205e-03 -5.678173e-03 2.808537e-04 -3.641423e-03 3.659491e-04
<VARIANCE> 39
 8.308755e+00 1.210227e+01 1.940536e+01 1.807242e+01 2.332002e+01 3.290810e+01 2.494812e+01 2.510887e+01 2.379661e+01 2.652364e+01 2.851479e+01 2.370864e+01 7.594642e+00 5.106542e-01 6.837485e-01 1.024349e+00 1.247062e+00 1.567017e+00 1.854077e+00 1.795849e+00 1.916465e+00 2.043789e+00 1.816304e+00 2.071021e+00 1.778592e+00 2.865152e-01 9.200745e-02 1.168641e-01 1.752327e-01 2.235738e-01 2.741779e-01 3.310304e-01 3.372594e-01 3.521121e-01 3.928457e-01 3.483107e-01 3.750653e-01 3.383323e-01 4.456693e-02
<GCONST> 9.361617e+01
<TRANSP> 5
 0.000000e+00 1.000000e+00 0.000000e+00 0.000000e+00 0.000000e+00
 0.000000e+00 9.671947e-01 3.280521e-02 0.000000e+00 0.000000e+00
 0.000000e+00 0.000000e+00 9.135634e-01 8.643666e-02 0.000000e+00
 0.000000e+00 0.000000e+00 0.000000e+00 9.687821e-01 3.121785e-02
 0.000000e+00 0.000000e+00 0.000000e+00 0.000000e+00 0.000000e+00
<ENDHMM>
