~o
<STREAMINFO> 1 39
<VECSIZE> 39<NULLD><MFCC_D_A_0><DIAGC>
~s "silst"
<MEAN> 39
 -9.976669e+00 -3.043494e+00 1.418142e+00 -4.709234e+00 -1.755599e+00 -6.840640e+00 -2.065754e+00 2.823211e-01 1.285956e+00 -2.030113e+00 2.975103e-02 -3.714035e+00 5.808828e+01 2.263908e-02 -2.156184e-02 -1.061464e-02 -7.052623e-02 -8.377536e-02 -2.804638e-02 2.140529e-02 1.661357e-02 -5.159593e-03 -2.008674e-02 5.941405e-04 -2.425988e-02 -1.382617e-02 3.568453e-02 -2.909047e-02 -5.076069e-03 -5.619958e-03 -1.049392e-02 6.713210e-03 -5.807285e-02 -3.533948e-02 1.453151e-02 3.900122e-02 7.531505e-03 -2.920332e-02 4.588849e-02
<VARIANCE> 39
 5.613506e+00 9.944227e+00 1.627750e+01 1.961064e+01 1.568972e+01 2.033004e+01 2.228298e+01 1.978448e+01 2.371698e+01 2.468788e+01 2.082067e+01 1.677812e+01 4.154284e+00 3.536450e-01 6.330683e-01 9.531745e-01 1.169799e+00 1.311890e+00 1.582025e+00 1.890310e+00 1.691192e+00 1.891080e+00 1.820290e+00 1.618194e+00 1.501173e+00 1.633119e-01 6.177364e-02 1.023865e-01 1.648969e-01 2.014097e-01 2.386891e-01 2.957013e-01 3.535400e-01 3.139446e-01 3.431879e-01 3.547518e-01 2.998872e-01 2.864399e-01 2.474494e-02
<GCONST> 8.621097e+01
~h "I"
<BEGINHMM>
<NUMSTATES> 5
<STATE> 2
<MEAN> 39
 -9.997821e+00 -1.506258e+00 -3.430883e+00 -3.414166e+00 -3.080136e+00 -1.042315e+00 -3.032289e+00 -1.606705e+00 5.549919e+00 -2.548475e+00 2.214936e+00 -8.647207e+00 6.499483e+01 -6.687333e-01 2.828116e-01 -8.345384e-01 9.355085e-02 -3.347155e-02 5.739313e-01 4.695689e-01 -5.476316e-01 1.140604e+00 -3.210832e-01 4.190075e-01 3.919228e-01 1.675086e-01 5.658427e-02 -1.102959e-01 1.498091e-01 -3.007271e-01 -1.500655e-01 -3.569579e-02 -4.708882e-02 -1.877356e-01 -2.062276e-01 1.353832e-01 -9.937484e-02 -2.908335e-02 2.361330e-02
<VARIANCE> 39
 1.635619e+01 5.801894e+01 4.998103e+01 1.078421e+02 1.761448e+01 4.459655e+01 1.794286e+01 4.070032e+01 2.512728e+01 3.231799e+01 4.240361e+01 2.502536e+01 1.843353e+00 5.841904e-01 1.249947e+00 2.152709e+00 1.716442e+00 1.894337e+00 3.449730e+00 1.020347e+00 3.214218e+00 3.065102e+00 2.301135e+00 4.499056e+00 1.553538e+00 4.831904e-02 9.378099e-02 1.808484e-01 3.558700e-01 3.128715e-01 3.008575e-01 7.222859e-01 1.332057e-01 5.790955e-01 4.771886e-01 4.690751e-01 7.580289e-01 3.273653e-01 1.859513e-02
<GCONST> 1.023523e+02
<STATE> 3
<MEAN> 39
 -1.143471e+01 4.375187e+00 1.980369e+00 3.023756e+00 -4.739397e+00 -3.553285e+00 -4.070159e+00 -6.426297e+00 5.323276e+00 -6.096735e+00 3.302952e+00 -4.807690e+00 6.679481e+01 6.694122e-01 -1.210329e+00 1.362661e+00 -1.177820e+00 -8.597721e-01 -1.352212e+00 -7.027028e-01 -2.518294e-01 -6.160420e-01 5.582973e-02 -7.008981e-01 4.390533e-01 7.114209e-01 5.237068e-01 -4.600965e-01 4.292786e-01 -2.247394e-01 -1.194279e-01 -1.519175e-01 -4.555915e-01 2.261155e-01 -3.646366e-01 -1.363731e-01 2.189707e-02 -8.832292e-02 1.299257e-01
<VARIANCE> 39
 1.355175e+01 1.564116e+01 3.668061e+01 1.972199e+01 7.366090e+00 3.821667e+01 1.645450e+01 2.144604e+01 1.504872e+01 1.868705e+01 1.736235e+01 1.274429e+01 5.132610e+00 1.745014e+00 1.262485e+00 1.762521e+00 1.623720e+00 1.349770e+00 2.262307e+00 2.248533e+00 2.337013e+00 2.082562e+00 1.620388e+00 1.154849e+00 1.126272e+00 2.537374e-01 1.203734e-01 1.287882e-01 1.450637e-01 2.481738e-01 3.474805e-01 5.020906e-01 3.063182e-01 3.947609e-01 2.559734e-01 4.195077e-01 3.718162e-01 2.085829e-01 2.687938e-02
<GCONST> 9.276841e+01
<STATE> 4
<MEAN> 39
 -4.147017e+00 -4.446132e+00 1.188667e+01 -3.513011e+00 -1.155331e+01 -8.413541e+00 -1.247699e+01 -5.101644e+00 7.004393e-01 -1.072363e+01 3.789442e+00 -4.153937e+00 7.089395e+01 1.030535e+00 -1.678569e+00 1.050820e+00 -1.210721e+00 -1.672822e+00 -4.730433e-01 -1.485573e+00 9.744361e-01 -1.729885e-01 -1.197984e+00 7.946554e-01 -4.262973e-02 5.756792e-01 -1.610090e-01 2.119365e-01 -5.896980e-01 2.389610e-01 2.798046e-01 -6.485554e-02 1.244550e-01 5.122393e-02 2.889513e-01 2.260168e-01 -1.234996e-01 -1.972058e-02 -1.425875e-01
<VARIANCE> 39
 3.001291e+01 1.201677e+01 7.402368e+01 1.211516e+01 3.222183e+01 2.433705e+01 1.963082e+01 1.179504e+01 1.220815e+01 2.570238e+01 7.865425e+00 9.969718e+00 1.041686e+01 9.305109e-01 8.227898e-01 2.517165e+00 8.960810e-01 2.167318e+00 6.966102e-01 1.486087e+00 1.053166e+00 7.987357e-01 1.731683e+00 7.276120e-01 7.100795e-01 2.187883e-01 1.879822e-01 1.213843e-01 4.774470e-01 1.801500e-01 6.352236e-01 3.321984e-01 2.115242e-01 3.790925e-01 2.652801e-01 5.280184e-01 3.328947e-01 3.059511e-01 3.546777e-02
<GCONST> 9.057650e+01
<TRANSP> 5
 0.000000e+00 1.000000e+00 0.000000e+00 0.000000e+00 0.000000e+00
 0.000000e+00 6.630270e-01 3.369731e-01 0.000000e+00 0.000000e+00
 0.000000e+00 0.000000e+00 6.790801e-01 3.209198e-01 0.000000e+00
 0.000000e+00 0.000000e+00 0.000000e+00 6.774732e-01 3.225268e-01
 0.000000e+00 0.000000e+00 0.000000e+00 0.000000e+00 0.000000e+00
<ENDHMM>
~h "T"
<BEGINHMM>
<NUMSTATES> 5
<STATE> 2
<MEAN> 39
 -8.620035e+00 -7.821297e+00 -2.803738e-01 -6.371117e+00 -4.774094e+00 -9.440618e+00 -4.848742e+00 -8.904296e-01 5.501676e-01 -4.878529e-01 2.254271e+00 -4.094567e+00 6.449341e+01 4.441947e-02 -3.211270e-02 -1.394468e-01 -3.323193e-02 -1.060387e-02 -2.532803e-02 4.021758e-02 4.474473e-02 -8.868555e-02 -5.858800e-02 -3.237868e-02 4.993688e-02 -6.108049e-02 -1.710849e-02 5.693166e-02 2.959049e-03 4.891626e-02 5.742608e-02 1.696443e-02 3.452087e-03 -3.792040e-02 2.453101e-02 -5.106295e-02 -3.100396e-02 -2.034590e-02 1.286107e-02
<VARIANCE> 39
 9.107939e+00 1.385069e+01 1.200029e+01 1.723633e+01 1.051206e+01 2.063267e+01 3.013293e+01 1.969431e+01 2.699198e+01 1.916017e+01 1.607391e+01 1.335224e+01 1.494642e+01 5.220553e-01 8.612276e-01 7.140734e-01 1.050021e+00 1.141380e+00 1.476169e+00 2.280128e+00 2.187209e+00 2.930504e+00 1.842114e+00 1.693634e+00 1.407501e+00 6.590250e-01 6.667631e-02 1.221783e-01 1.307857e-01 1.783873e-01 1.603390e-01 2.718377e-01 4.301429e-01 4.030048e-01 6.373854e-01 3.180902e-01 3.020424e-01 3.129656e-01 1.068427e-01
<GCONST> 9.146803e+01
<STATE> 3
<MEAN> 39
 -1.163946e+01 -2.380489e+00 -1.367965e+00 -4.236478e+00 -1.049624e+00 -6.261896e+00 -3.220760e+00 -1.708951e+00 1.632088e+00 -5.166572e+00 1.042276e+00 -5.811727e+00 6.191409e+01 -6.049502e-01 2.343206e-01 1.389413e-01 1.319521e-01 -1.108062e-01 4.450825e-01 -3.052548e-01 7.451353e-02 5.252211e-01 -1.417155e-01 2.934241e-01 -1.460682e-01 5.538141e-01 -4.930569e-02 -1.782519e-01 6.996961e-02 -1.034978e-01 -2.230251e-01 9.220365e-02 2.044202e-02 1.532025e-02 2.376540e-02 1.355318e-01 7.071488e-02 1.014199e-02 8.767897e-02
<VARIANCE> 39
 1.558607e+01 6.327893e+00 1.678769e+01 1.579870e+01 7.478764e+00 1.788667e+01 2.122131e+01 2.267328e+01 2.454401e+01 1.880738e+01 1.020390e+01 9.239180e+00 1.152155e+01 4.169656e-01 6.231707e-01 1.638858e+00 1.731908e+00 1.342873e+00 2.052883e+00 2.401138e+00 2.419071e+00 1.730937e+00 1.665439e+00 1.166180e+00 1.780759e+00 1.824485e-01 6.114182e-02 9.765473e-02 1.912281e-01 3.672996e-01 2.340254e-01 3.486869e-01 3.933129e-01 6.765299e-01 3.491524e-01 3.581357e-01 2.872300e-01 3.205559e-01 1.516070e-02
<GCONST> 8.834389e+01
<STATE> 4
<MEAN> 39
 -1.301050e+01 -6.278985e+00 1.836794e+00 -2.842932e+00 -5.900826e+00 -3.425414e+00 -6.773076e+00 -4.328698e+00 2.957040e+00 -1.568202e+00 2.960348e+00 -7.633043e+00 6.780620e+01 1.572635e+00 -8.354643e-01 2.085165e-01 1.698029e-01 -5.523490e-01 -9.436724e-01 -8.312150e-01 -8.361347e-01 -8.046533e-02 7.048430e-01 -1.370333e-01 1.852489e-02 7.239563e-01 2.087069e-01 -1.021528e-01 1.025084e-01 -6.635111e-02 -9.719149e-02 -2.295154e-01 -1.995462e-01 7.730434e-02 1.095909e-01 -1.112414e-01 -1.286157e-02 1.851841e-01 3.786888e-02
<VARIANCE> 39
 6.226558e+01 1.643369e+01 2.379515e+01 1.379125e+01 1.809714e+01 2.924551e+01 3.203078e+01 2.761847e+01 1.872676e+01 2.022545e+01 1.321794e+01 1.497752e+01 9.365808e+00 6.637029e+00 1.515454e+00 1.888492e+00 1.604378e+00 2.733783e+00 3.672873e+00 3.474889e+00 2.752125e+00 2.226542e+00 2.087287e+00 1.400063e+00 1.839687e+00 7.584082e-01 1.215470e+00 3.158124e-01 4.511092e-01 2.827411e-01 6.333985e-01 5.828241e-01 7.634539e-01 4.844564e-01 4.163552e-01 5.939193e-01 3.105658e-01 2.741469e-01 1.574186e-01
<GCONST> 1.103902e+02
<TRANSP> 5
 0.000000e+00 1.000000e+00 0.000000e+00 0.000000e+00 0.000000e+00
 0.000000e+00 9.519509e-01 4.804913e-02 0.000000e+00 0.000000e+00
 0.000000e+00 0.000000e+00 8.932819e-01 1.067181e-01 0.000000e+00
 0.000000e+00 0.000000e+00 0.000000e+00 9.063467e-01 9.365334e-02
 0.000000e+00 0.000000e+00 0.000000e+00 0.000000e+00 0.000000e+00
<ENDHMM>
~h "e"
<BEGINHMM>
<NUMSTATES> 5
<STATE> 2
<MEAN> 39
 -2.448615e+00 -6.054514e+00 3.709731e+00 -5.586096e+00 -8.550458e+00 -9.423691e+00 -1.326579e+01 -1.940855e+00 2.768118e+00 -3.190187e+00 1.346436e+00 -1.024712e+01 6.964888e+01 2.552840e+00 -2.057331e+00 1.810103e+00 -1.774100e+00 -2.354354e+00 -1.511536e+00 -2.391366e+00 1.213805e+00 7.859983e-01 -3.889899e-01 1.472734e+00 -1.498006e+00 2.476941e+00 -5.763787e-01 -2.539315e-01 -1.485875e-01 -2.154138e-01 -6.262164e-01 5.850049e-01 3.009748e-01 3.796981e-01 3.166994e-01 -3.459972e-01 6.798660e-01 1.811308e-01 1.709405e-01
<VARIANCE> 39
 1.267174e+01 1.656449e+01 1.438016e+01 1.777274e+01 2.427042e+01 1.913524e+01 4.970483e+01 1.076629e+01 1.464502e+01 5.870187e+00 2.216474e+01 1.842196e+01 3.482268e+01 2.199080e+00 9.386442e-01 9.501418e-01 1.737483e+00 1.640598e+00 2.575185e+00 2.130477e+00 2.500821e+00 1.965108e+00 1.682305e+00 1.792165e+00 1.380619e+00 5.648587e-01 4.906380e-01 2.812220e-01 2.777148e-01 2.367118e-01 6.428034e-01 3.649258e-01 4.253731e-01 2.662579e-01 2.982007e-01 1.476546e-01 4.086897e-01 6.184481e-01 5.482378e-01
<GCONST> 1.014474e+02
<STATE> 3
<MEAN> 39
 -8.739365e-01 -1.146803e+01 5.623972e+00 -9.580259e+00 -1.577330e+01 -6.862503e+00 -1.266003e+01 4.494963e+00 7.252504e+00 -7.238039e+00 6.240575e+00 -1.356121e+01 7.472529e+01 6.534824e-01 -1.373416e+00 9.441184e-01 -1.301862e+00 -3.271642e+00 1.432723e-01 -5.868032e-01 1.564659e+00 1.481785e+00 -1.530696e+00 1.646814e+00 -7.591903e-01 2.177703e+00 -5.277427e-01 5.535524e-01 -3.149206e-01 3.386903e-01 4.438941e-01 2.335999e-01 6.141019e-01 -4.883643e-01 -2.871733e-01 9.826504e-02 -2.344803e-01 5.130156e-01 -6.529613e-01
<VARIANCE> 39
 4.153154e+00 6.106444e+00 6.818085e+00 5.714343e+00 2.189207e+01 2.520458e+01 4.147309e+01 1.509988e+01 8.332185e+00 2.154565e+01 2.131157e+01 1.493604e+01 1.271938e+01 6.018480e-01 1.035024e+00 8.043348e-01 1.348313e+00 3.222450e+00 1.419798e+00 2.056252e+00 1.998667e+00 1.155206e+00 1.955049e+00 2.112158e+00 3.258022e+00 2.735096e+00 1.473048e-01 1.426469e-01 1.448570e-01 3.276841e-01 7.357167e-01 4.553163e-01 4.310505e-01 4.205145e-01 3.058612e-01 3.689224e-01 2.621065e-01 3.316577e-01 2.675964e-01
<GCONST> 9.545927e+01
<STATE> 4
<MEAN> 39
 4.526683e-01 -1.038542e+01 6.466197e+00 -8.293814e+00 -1.088843e+01 -9.037139e+00 -1.828870e+01 9.298990e-01 6.463607e+00 -4.669528e+00 7.543481e+00 -1.130153e+01 7.359676e+01 -2.968696e-02 7.448284e-02 -2.243157e-02 5.962285e-02 5.803342e-01 3.522863e-01 5.273892e-02 1.300799e-01 2.725062e-02 1.322944e-01 -1.893287e-01 -2.036581e-01 -1.566055e-01 -7.717774e-02 1.756625e-01 1.042802e-02 1.671109e-01 2.436568e-01 9.726874e-02 1.109381e-01 -8.745068e-02 -1.155327e-01 1.064099e-01 -2.431527e-01 -7.077838e-03 -1.323696e-01
<VARIANCE> 39
 2.766575e+00 8.837352e+00 4.611517e+00 2.143476e+01 4.191201e+01 1.390446e+01 1.731439e+01 1.924657e+01 1.597720e+01 1.237334e+01 1.091757e+01 1.437256e+01 8.491408e+00 2.254097e-01 9.059910e-01 4.811382e-01 2.907154e+00 3.599381e+00 8.879725e-01 1.117576e+00 2.406800e+00 1.753093e+00 1.062609e+00 1.508037e+00 1.450663e+00 9.694631e-01 5.407048e-02 2.464738e-01 8.947273e-02 6.385884e-01 7.843311e-01 1.606203e-01 2.243061e-01 4.748820e-01 3.883718e-01 2.093424e-01 3.142000e-01 2.863745e-01 2.413458e-01
<GCONST> 8.856720e+01
<TRANSP> 5
 0.000000e+00 1.000000e+00 0.000000e+00 0.000000e+00 0.000000e+00
 0.000000e+00 5.237091e-01 4.762909e-01 0.000000e+00 0.000000e+00
 0.000000e+00 0.000000e+00 4.937004e-01 5.062997e-01 0.000000e+00
 0.000000e+00 0.000000e+00 0.000000e+00 8.715914e-01 1.284085e-01
 0.000000e+00 0.000000e+00 0.000000e+00 0.000000e+00 0.000000e+00
<ENDHMM>
~h "f"
<BEGINHMM>
<NUMSTATES> 5
<STATE> 2
<MEAN> 39
 -1.007324e+01 -5.150492e+00 -5.556442e-01 -5.625543e+00 -1.116215e+00 -3.156847e+00 -3.776464e+00 -1.011837e-01 2.536430e+00 -1.335585e+00 1.384905e+00 -4.041126e+00 6.113217e+01 -2.191017e-01 -5.765162e-02 -9.359706e-02 1.305312e-01 -2.215321e-01 4.798914e-02 -1.814938e-01 8.239695e-02 2.336530e-01 1.188844e-01 9.761261e-02 -1.101657e-01 2.206709e-01 -1.900941e-03 8.495430e-03 2.500801e-02 1.256494e-02 -8.026636e-03 -3.627953e-02 -2.490631e-02 -1.950292e-03 1.832456e-02 2.620899e-03 3.406106e-04 1.753095e-02 9.757509e-03
<VARIANCE> 39
 7.570942e+00 1.056226e+01 1.268744e+01 1.594999e+01 2.055134e+01 1.861809e+01 1.982134e+01 1.990447e+01 2.361661e+01 2.218506e+01 1.734282e+01 2.087885e+01 9.375296e+00 4.787270e-01 6.848708e-01 1.135908e+00 1.540667e+00 1.557799e+00 1.552643e+00 1.519247e+00 1.964652e+00 1.588982e+00 1.792838e+00 1.420977e+00 1.748014e+00 4.425359e-01 7.836445e-02 1.113564e-01 1.977703e-01 2.963641e-01 3.013731e-01 2.698431e-01 2.751119e-01 3.410778e-01 2.938648e-01 3.735831e-01 2.713172e-01 3.344670e-01 6.440431e-02
<GCONST> 9.044246e+01
<STATE> 3
<MEAN> 39
 -1.045299e+01 -8.153961e+00 -1.492724e+00 -3.765919e+00 -5.847294e+00 -3.937317e+00 -6.578311e+00 5.590950e-01 7.598478e+00 1.066607e-01 1.813589e+00 -6.123590e+00 6.623005e+01 3.480050e-01 -6.776204e-02 2.208553e-01 -5.632069e-02 3.971057e-01 3.265095e-01 -1.767769e-01 -5.232384e-01 -4.270251e-01 -4.509958e-02 1.411969e-01 -7.340334e-02 2.217839e-01 5.740308e-01 7.912473e-02 4.694669e-02 -3.727254e-01 5.709753e-02 1.722700e-01 1.091060e-01 -1.829133e-01 -3.411026e-01 -1.118865e-01 3.306928e-02 -9.170280e-02 8.306584e-02
<VARIANCE> 39
 1.763851e+01 1.341787e+01 1.133337e+01 9.556069e+00 2.906846e+01 2.153889e+01 1.574590e+01 2.683006e+01 3.353678e+01 2.544723e+01 2.620056e+01 2.402877e+01 4.186631e+00 1.335350e+00 6.653746e-01 8.121071e-01 7.339442e-01 1.439231e+00 1.350002e+00 1.349813e+00 1.830657e+00 2.362863e+00 2.073392e+00 2.683519e+00 1.723972e+00 2.332504e-01 2.691095e-01 1.576098e-01 1.453445e-01 2.948612e-01 3.550261e-01 2.475952e-01 2.655672e-01 3.857108e-01 3.246360e-01 4.100056e-01 6.156167e-01 4.618969e-01 1.050866e-01
<GCONST> 9.499158e+01
<STATE> 4
<MEAN> 39
 -2.437271e+00 -5.601407e+00 -2.137918e-01 -9.652795e+00 -4.474930e+00 -2.794721e-01 -5.955737e+00 -4.641368e+00 8.261380e-01 -1.420815e+00 3.818431e+00 -8.126889e+00 6.856666e+01 3.381831e+00 -2.634681e-01 -5.054773e-01 -3.593672e+00 -1.619148e+00 1.642520e+00 3.337967e-01 -1.254143e+00 -4.833918e-01 -1.355925e-01 1.775431e+00 -1.447699e+00 2.152128e+00 -3.773665e-01 -2.969088e-01 -2.431326e-01 -2.821076e-01 -6.006025e-01 2.240804e-01 2.600835e-02 1.431793e-01 7.383027e-01 -2.739955e-02 3.131548e-01 -2.331766e-01 2.044308e-01
<VARIANCE> 39
 3.652798e+01 2.042144e+01 9.043232e+00 4.470211e+01 2.104754e+01 2.327251e+01 1.396852e+01 2.171474e+01 2.594560e+01 1.756313e+01 2.633533e+01 4.652913e+01 2.124802e+01 1.350864e+00 2.593516e+00 1.444673e+00 1.691244e+00 3.494404e+00 1.797090e+00 1.367637e+00 1.917295e+00 3.773745e+00 3.360227e+00 2.848182e+00 7.543315e+00 9.502493e-01 7.291064e-01 1.943042e-01 1.887712e-01 8.179201e-01 4.098237e-01 3.829132e-01 2.233637e-01 3.516994e-01 3.681974e-01 4.434707e-01 6.219255e-01 6.125576e-01 3.256578e-01
<GCONST> 1.108790e+02
<TRANSP> 5
 0.000000e+00 1.000000e+00 0.000000e+00 0.000000e+00 0.000000e+00
 0.000000e+00 9.240344e-01 7.596561e-02 0.000000e+00 0.000000e+00
 0.000000e+00 0.000000e+00 8.091422e-01 1.908579e-01 0.000000e+00
 0.000000e+00 0.000000e+00 0.000000e+00 7.200129e-01 2.799872e-01
 0.000000e+00 0.000000e+00 0.000000e+00 0.000000e+00 0.000000e+00
<ENDHMM>
~h "i"
<BEGINHMM>
<NUMSTATES> 5
<STATE> 2
<MEAN> 39
 -6.169576e+00 -6.015173e+00 1.262820e+01 -7.006207e+00 -1.355804e+01 -9.343885e+00 -1.218456e+01 -3.202372e+00 -7.759033e-01 -9.632744e+00 9.883317e+00 -1.027519e+00 7.053904e+01 -4.427587e-01 5.300243e-01 1.839500e-01 -5.500402e-01 7.453581e-02 5.002417e-01 3.479696e-01 1.656411e-01 -7.514410e-01 -1.763062e-01 7.853701e-01 -3.898459e-01 -3.296369e-01 6.058072e-02 1.010976e-01 -3.397411e-01 1.670630e-01 1.370752e-01 3.762867e-02 1.791925e-01 -2.737980e-01 1.571095e-01 3.445154e-01 -2.823887e-01 -1.932616e-01 -5.061409e-02
<VARIANCE> 39
 3.068169e+01 8.181308e+01 1.143074e+02 2.051365e+01 5.366424e+01 2.240891e+01 6.751539e+01 2.778511e+01 5.440500e+01 4.645622e+01 1.841536e+01 1.386696e+01 2.193325e+01 8.642182e-01 2.429651e+00 6.606825e+00 2.265159e+00 3.786281e+00 2.343630e+00 3.605568e+00 3.574681e+00 4.700758e+00 4.607578e+00 3.064448e+00 1.181623e+00 4.687840e-01 7.321201e-02 3.270750e-01 6.158913e-01 3.606511e-01 6.962476e-01 4.947908e-01 6.751161e-01 8.975788e-01 6.535301e-01 8.606814e-01 4.033695e-01 2.580738e-01 4.572193e-02
<GCONST> 1.174255e+02
<STATE> 3
<MEAN> 39
 -4.654704e+00 -4.896286e+00 2.144531e+01 -6.595731e+00 -1.499312e+01 -3.320547e+00 -1.724688e+01 -2.922238e+00 -2.770103e+00 -1.389121e+01 1.267015e+01 -7.615607e+00 7.010407e+01 -7.207292e-02 6.288697e-01 -3.981894e-01 4.536678e-01 1.226415e+00 5.164570e-01 6.683787e-01 8.614225e-02 4.362853e-01 4.862057e-01 -7.183549e-01 -4.623328e-02 -7.077069e-01 5.617002e-02 -6.233713e-02 -2.113615e-01 2.289625e-02 1.195602e-01 -4.987109e-02 1.682218e-01 1.538208e-01 1.376772e-01 1.649184e-01 -1.398971e-01 7.165645e-02 -5.516801e-02
<VARIANCE> 39
 2.114211e+00 1.617142e+01 2.584367e+01 7.235159e+00 5.178824e+01 1.269781e+01 1.735362e+01 2.056520e+01 1.525649e+01 1.657000e+01 1.435350e+01 1.936166e+01 1.420230e+01 2.205529e-01 4.717881e-01 1.718019e+00 3.643488e-01 2.118896e+00 1.746383e+00 2.410789e+00 2.849058e+00 1.101929e+00 1.921215e+00 1.434486e+00 1.502319e+00 2.554886e-01 3.381051e-02 7.693730e-02 2.055983e-01 9.530974e-02 2.171976e-01 2.784486e-01 3.659812e-01 4.891856e-01 1.828152e-01 1.789534e-01 2.003200e-01 2.570720e-01 2.571703e-02
<GCONST> 8.282015e+01
<STATE> 4
<MEAN> 39
 -5.732212e+00 -8.297915e+00 4.601206e+00 -5.105060e+00 -6.003268e+00 -5.532023e+00 -6.188059e+00 3.282772e+00 6.399124e+00 -6.053637e+00 6.623964e-01 -4.359236e+00 6.403694e+01 1.390234e-03 -1.168698e-02 -6.099828e-01 2.089951e-01 1.745667e-01 -5.789484e-02 1.049471e+00 1.222101e-01 -8.164199e-02 2.471476e-01 -3.301198e-01 -2.202840e-01 -3.448435e-01 -5.292363e-02 -2.819674e-02 1.158053e-01 -4.698841e-02 -1.520452e-01 -1.249741e-02 -1.625465e-01 -2.798806e-01 -4.709110e-02 -1.422689e-02 2.120085e-01 3.522220e-02 6.667393e-02
<VARIANCE> 39
 2.795973e+00 3.528325e+01 3.450811e+01 1.752160e+01 3.061549e+01 2.045876e+01 5.658137e+01 1.202904e+01 6.976988e+01 2.163832e+01 1.349346e+01 2.092780e+01 8.181455e+00 2.192840e-01 9.975514e-01 2.467776e+00 1.826858e+00 9.985697e-01 9.110615e-01 3.207962e+00 2.586423e+00 4.879646e+00 2.982680e+00 1.863511e+00 2.667353e+00 1.612322e-01 4.270172e-02 9.926476e-02 1.452694e-01 2.710192e-01 2.077115e-01 2.280656e-01 5.353441e-01 3.474132e-01 7.613981e-01 4.378821e-01 2.591478e-01 5.358139e-01 1.880048e-02
<GCONST> 9.468847e+01
<TRANSP> 5
 0.000000e+00 1.000000e+00 0.000000e+00 0.000000e+00 0.000000e+00
 0.000000e+00 8.953557e-01 1.046442e-01 0.000000e+00 0.000000e+00
 0.000000e+00 0.000000e+00 8.980370e-01 1.019630e-01 0.000000e+00
 0.000000e+00 0.000000e+00 0.000000e+00 8.914140e-01 1.085860e-01
 0.000000e+00 0.000000e+00 0.000000e+00 0.000000e+00 0.000000e+00
<ENDHMM>
~h "k"
<BEGINHMM>
<NUMSTATES> 5
<STATE> 2
<MEAN> 39
 -1.219596e+01 -1.560874e+00 -1.399522e+00 -2.741962e+00 -7.969513e+00 -1.989251e+00 -9.074445e+00 -4.714697e+00 8.300961e-01 -5.277279e+00 3.199044e+00 -6.388720e+00 6.598574e+01 2.423924e+00 -7.646744e-01 2.821798e+00 -3.758567e-01 -1.825279e+00 -2.113791e+00 -2.156477e+00 -1.242806e-01 -9.479232e-01 -1.067877e+00 4.070452e-02 -9.416540e-01 1.399675e+00 1.886933e-01 -2.814980e-01 4.225070e-01 -8.489872e-02 -4.087326e-01 -3.424740e-03 -2.067691e-01 1.782068e-01 1.398783e-01 -3.354890e-01 4.729958e-01 -9.847636e-02 2.346570e-01
<VARIANCE> 39
 5.602682e+01 1.289763e+01 6.720877e+01 6.983990e+00 2.344968e+01 4.092427e+01 5.763233e+01 1.668866e+01 2.120748e+01 2.005817e+01 8.801299e+00 2.031789e+01 1.572815e+01 2.921983e+00 1.581897e+00 5.161066e+00 1.011491e+00 3.511146e+00 2.328218e+00 3.271172e+00 2.327863e+00 1.561589e+00 3.804715e+00 2.121663e+00 1.924284e+00 1.627342e+00 7.412789e-01 2.073549e-01 6.879285e-01 2.130239e-01 4.596796e-01 9.042510e-01 9.298089e-01 4.907376e-01 3.529348e-01 4.885052e-01 4.287131e-01 3.409100e-01 1.814095e-01
<GCONST> 1.122884e+02
<STATE> 3
<MEAN> 39
 -3.015199e+00 -6.845998e+00 1.097981e+01 -1.716850e+00 -1.441162e+01 -9.144341e+00 -1.241740e+01 -1.547266e+00 -2.150575e+00 -1.037648e+01 9.199996e+00 -7.661262e+00 6.883430e+01 -4.849007e-01 -1.678621e-01 -1.066567e+00 6.528607e-01 9.402432e-01 -1.673873e-01 7.949539e-01 4.310140e-01 2.461801e-01 2.618276e-01 -2.565615e-01 6.210455e-01 -7.198545e-01 -3.187982e-01 1.990769e-01 -3.812237e-01 7.647173e-02 2.727993e-01 1.183535e-01 1.141499e-01 -6.100964e-02 1.028275e-01 2.096766e-01 -2.535784e-01 1.363141e-01 -1.536595e-01
<VARIANCE> 39
 4.129616e+00 1.575758e+01 8.598665e+01 2.145181e+01 5.581985e+01 1.962197e+01 3.854052e+01 1.909823e+01 2.988025e+01 3.041757e+01 3.668456e+01 2.555202e+01 3.092968e+01 5.366148e-01 2.554682e+00 7.730923e+00 2.301546e+00 5.158483e+00 1.851184e+00 2.735845e+00 1.381477e+00 4.846880e+00 3.577389e+00 6.364959e+00 3.175580e+00 2.932540e+00 1.402886e-01 6.581603e-01 1.285994e+00 5.993445e-01 1.048851e+00 5.099827e-01 7.998808e-01 2.741934e-01 9.434510e-01 7.884430e-01 9.327478e-01 5.803334e-01 7.017549e-01
<GCONST> 1.217258e+02
<STATE> 4
<MEAN> 39
 -1.107538e+01 -4.254412e+00 -5.514069e-01 1.265374e-01 -7.775524e+00 -6.216279e+00 -9.224192e+00 2.201681e-01 3.868262e+00 -4.331819e+00 3.709679e+00 -3.417745e+00 6.476927e+01 -3.653445e-01 2.142926e-01 -6.960466e-02 -2.289060e-01 -1.257993e-02 5.640180e-01 3.164966e-01 3.879021e-02 1.845023e-01 1.944528e-01 1.130275e-01 -8.028930e-02 -5.561543e-02 1.033723e-01 2.443233e-02 2.769986e-02 -4.236227e-02 1.397581e-02 2.990004e-02 9.279679e-02 -3.051245e-02 -4.937833e-02 2.712902e-02 3.231042e-02 -6.807386e-02 -1.561742e-02
<VARIANCE> 39
 2.173429e+01 2.248634e+01 1.134017e+01 2.010728e+01 1.274788e+01 2.297387e+01 1.836402e+01 1.438484e+01 2.537786e+01 2.374054e+01 9.785019e+00 1.578041e+01 4.731595e+00 1.120830e+00 1.306062e+00 1.774907e+00 1.688210e+00 1.761363e+00 2.573360e+00 2.334594e+00 1.445611e+00 2.340101e+00 2.141495e+00 1.409486e+00 1.486605e+00 2.256404e-01 1.258167e-01 1.560449e-01 3.235096e-01 3.393081e-01 3.358637e-01 4.962736e-01 4.607584e-01 2.679790e-01 4.056971e-01 4.495648e-01 3.222732e-01 2.674176e-01 3.820230e-02
<GCONST> 9.517733e+01
<TRANSP> 5
 0.000000e+00 1.000000e+00 0.000000e+00 0.000000e+00 0.000000e+00
 0.000000e+00 8.280049e-01 1.719951e-01 0.000000e+00 0.000000e+00
 0.000000e+00 0.000000e+00 9.055280e-01 9.447201e-02 0.000000e+00
 0.000000e+00 0.000000e+00 0.000000e+00 9.418896e-01 5.811037e-02
 0.000000e+00 0.000000e+00 0.000000e+00 0.000000e+00 0.000000e+00
<ENDHMM>
~h "n"
<BEGINHMM>
<NUMSTATES> 5
<STATE> 2
<MEAN> 39
 -2.685007e+00 -4.937043e-01 7.456706e+00 -3.870446e-01 3.338524e-01 -4.920805e+00 -6.121346e+00 -3.473539e+00 -8.929436e-01 -4.070831e+00 -2.092246e+00 -8.363743e+00 6.529090e+01 9.322724e-02 1.049489e-01 -3.450882e-01 2.169844e-01 3.078939e-01 -2.244741e-01 -1.184115e-01 -1.752752e-02 1.260183e-01 2.240331e-01 -4.572574e-01 -2.545424e-01 1.712483e-02 -1.108438e-01 -1.926771e-01 -4.567232e-03 -2.360365e-01 -2.530952e-01 -7.343600e-03 2.853877e-02 2.319462e-01 7.665647e-02 8.428113e-02 2.197919e-01 2.903490e-02 3.829269e-02
<VARIANCE> 39
 6.693707e+00 1.539009e+01 1.900818e+01 1.586084e+01 1.303696e+01 1.394057e+01 2.128640e+01 3.238027e+01 3.144528e+01 2.116166e+01 2.057184e+01 1.602664e+01 7.103566e+00 7.677592e-01 1.465275e+00 2.286272e+00 2.117225e+00 2.170887e+00 1.371616e+00 1.990971e+00 3.055750e+00 2.336737e+00 1.804893e+00 2.623058e+00 1.438896e+00 7.084602e-01 6.485003e-02 2.660381e-01 3.733151e-01 3.869127e-01 3.555198e-01 3.078984e-01 2.839009e-01 4.725370e-01 4.157284e-01 3.350590e-01 4.039838e-01 2.461208e-01 1.087065e-01
<GCONST> 9.831843e+01
<STATE> 3
<MEAN> 39
 -6.001473e+00 -2.295269e+00 4.308195e+00 -1.866473e+00 6.698290e-01 -5.220937e+00 -2.446243e+00 1.690949e+00 2.456732e+00 -2.349740e+00 -1.800015e+00 -5.652646e+00 6.349898e+01 -6.127681e-01 -6.142345e-01 -5.432668e-01 -5.373796e-01 -6.274335e-01 -2.265079e-01 2.718348e-01 4.292753e-01 1.632929e-01 4.828295e-01 5.306577e-01 4.301606e-01 -1.830814e-01 3.328820e-02 -1.764166e-01 -1.006199e-01 -1.726975e-01 -1.614065e-01 -2.155810e-03 -2.360442e-01 -1.772433e-01 7.236859e-03 -1.992765e-01 -6.922328e-02 -1.273152e-01 7.414406e-02
<VARIANCE> 39
 1.002263e+01 2.664484e+01 2.118336e+01 1.054628e+01 2.798426e+01 1.656869e+01 2.230007e+01 3.254314e+01 2.693455e+01 2.965768e+01 1.813766e+01 1.981965e+01 5.841440e+00 4.225754e-01 7.961622e-01 9.541444e-01 1.232171e+00 1.659957e+00 1.891420e+00 1.745515e+00 2.297575e+00 1.838505e+00 2.167022e+00 2.279225e+00 1.832965e+00 4.742340e-01 5.256203e-02 2.078754e-01 1.610864e-01 2.612778e-01 2.545559e-01 3.812833e-01 3.394318e-01 5.162224e-01 5.110779e-01 4.246924e-01 4.093599e-01 2.903525e-01 6.074459e-02
<GCONST> 9.518705e+01
<STATE> 4
<MEAN> 39
 -8.130772e+00 -5.923750e+00 2.106845e+00 -4.692219e+00 -3.181165e+00 -9.524618e+00 -3.734396e+00 9.256657e-01 2.132180e+00 -9.528292e-01 -8.332689e-01 -4.605628e+00 6.239779e+01 -3.144850e-02 -1.682685e-01 -1.700674e-01 -1.299226e-01 -1.899001e-01 -3.128292e-03 -1.711150e-01 -1.063346e-01 2.490854e-02 -5.011098e-02 2.780153e-02 -7.808886e-02 7.124130e-02 3.657745e-02 3.103093e-02 1.945489e-02 3.642685e-02 6.035590e-02 7.410467e-02 2.054663e-02 -1.223014e-02 1.365594e-02 -4.248831e-02 -1.989699e-02 -2.170740e-02 2.387766e-02
<VARIANCE> 39
 8.275877e+00 1.575959e+01 1.753348e+01 1.606073e+01 2.864374e+01 3.235275e+01 3.243917e+01 2.972619e+01 3.224789e+01 2.629391e+01 2.250669e+01 1.898608e+01 7.632038e+00 4.758932e-01 1.104281e+00 1.206919e+00 1.373165e+00 1.844171e+00 2.086429e+00 2.303600e+00 2.379787e+00 2.815069e+00 2.599608e+00 2.011881e+00 1.515872e+00 3.814078e-01 7.353519e-02 1.683076e-01 1.689777e-01 2.061510e-01 3.076240e-01 3.692026e-01 4.387399e-01 4.322856e-01 4.488691e-01 5.105979e-01 4.053875e-01 3.036376e-01 4.532522e-02
<GCONST> 9.752769e+01
<TRANSP> 5
 0.000000e+00 1.000000e+00 0.000000e+00 0.000000e+00 0.000000e+00
 0.000000e+00 7.880104e-01 2.119896e-01 0.000000e+00 0.000000e+00
 0.000000e+00 0.000000e+00 6.938543e-01 3.061457e-01 0.000000e+00
 0.000000e+00 0.000000e+00 0.000000e+00 9.003076e-01 9.969243e-02
 0.000000e+00 0.000000e+00 0.000000e+00 0.000000e+00 0.000000e+00
<ENDHMM>
~h "o"
<BEGINHMM>
<NUMSTATES> 5
<STATE> 2
<MEAN> 39
 5.250977e+00 -8.030753e+00 -4.647197e+00 -5.469115e+00 -4.344710e+00 -9.627436e+00 -1.665334e+01 -9.913339e+00 6.899243e+00 -1.119759e+00 2.552335e+00 2.539199e+00 7.074970e+01 2.903332e-01 3.439961e-01 -1.127913e+00 -3.806432e-01 6.674670e-01 8.770192e-01 2.905868e-01 -3.079463e-01 2.634320e-01 5.750683e-01 3.911222e-01 4.622838e-01 -2.545713e-01 -9.275497e-02 4.116605e-02 2.473761e-01 -1.063660e-01 -1.183082e-01 6.119294e-02 7.618393e-02 1.819598e-01 -1.205576e-01 -1.794569e-01 1.200661e-01 -1.809954e-02 -1.561571e-02
<VARIANCE> 39
 4.080869e+00 8.166850e+00 2.509255e+01 2.011917e+01 8.650210e+00 2.529653e+01 6.032135e+00 9.039215e+00 1.299877e+01 1.304859e+01 1.502945e+01 1.794015e+01 1.951637e+00 2.654400e-01 5.080072e-01 1.887239e+00 1.389609e+00 8.310148e-01 8.886977e-01 8.876055e-01 1.749407e+00 1.354266e+00 3.272221e+00 9.772711e-01 1.460114e+00 3.829245e-02 3.246478e-02 1.122148e-01 1.339232e-01 2.605694e-01 9.267069e-02 2.553883e-01 1.679309e-01 2.236035e-01 3.360747e-01 5.464988e-01 2.318666e-01 2.567120e-01 7.634268e-03
<GCONST> 7.448605e+01
<STATE> 3
<MEAN> 39
 1.254600e+00 -3.517124e+00 -4.221930e+00 -8.557911e+00 -1.446273e+00 -5.272870e+00 -8.996696e+00 -6.946999e+00 4.767114e+00 2.152051e+00 5.905062e+00 2.343475e+00 6.517548e+01 -8.560563e-01 3.602513e-01 6.435562e-01 2.880256e-01 4.050136e-02 -1.481844e-01 7.833183e-01 4.333625e-01 -4.649725e-01 1.904502e-01 -2.641688e-01 -4.502200e-01 -5.352212e-01 -5.452958e-02 -2.304721e-03 2.992191e-02 2.964422e-02 8.780816e-03 -4.041462e-02 -6.032092e-02 3.805046e-02 5.763261e-02 -1.040808e-01 -6.739034e-02 -7.334525e-02 2.631303e-02
<VARIANCE> 39
 1.207805e+01 9.049369e+00 1.167176e+01 9.976089e+00 1.452051e+01 8.414735e+00 2.486733e+01 1.518443e+01 1.488844e+01 9.402593e+00 1.319912e+01 2.225876e+01 8.985459e+00 4.144118e-01 8.023112e-01 6.238774e-01 1.160205e+00 8.295237e-01 1.011054e+00 1.885056e+00 8.951263e-01 1.896008e+00 1.190274e+00 1.290186e+00 1.184371e+00 1.271148e-01 9.163424e-02 1.255651e-01 1.245811e-01 2.214982e-01 1.324480e-01 1.791153e-01 3.257450e-01 1.943774e-01 3.410369e-01 1.634888e-01 2.745103e-01 1.806479e-01 2.385764e-02
<GCONST> 7.860391e+01
<STATE> 4
<MEAN> 39
 -7.362722e+00 -5.112738e+00 -3.633234e-01 -6.681341e+00 -2.347183e+00 -8.006557e+00 -4.252399e+00 -1.855503e-01 2.625499e+00 -9.368568e-02 -5.502892e-01 -4.491123e+00 6.167469e+01 -1.441036e-01 -5.936529e-02 -4.954519e-02 -6.414345e-02 1.640382e-02 -8.346584e-02 3.195371e-02 4.276492e-02 -9.636961e-02 -1.685155e-01 -1.529603e-01 -1.983650e-01 -3.342802e-02 5.364175e-02 -5.982070e-03 7.065504e-03 -2.267660e-03 -1.205335e-03 1.700559e-02 -2.190385e-02 -4.470779e-02 -9.778802e-03 -2.502903e-02 -7.194617e-03 2.858028e-02 1.126489e-02
<VARIANCE> 39
 6.192836e+00 1.232411e+01 1.986143e+01 1.840650e+01 1.412666e+01 2.657168e+01 3.447899e+01 1.916183e+01 2.660026e+01 2.233479e+01 2.160356e+01 3.605612e+01 5.901022e+00 6.249262e-01 1.036692e+00 1.264444e+00 1.347038e+00 1.193543e+00 2.060824e+00 2.677074e+00 2.328024e+00 1.976166e+00 1.857616e+00 2.075955e+00 1.855148e+00 3.929925e-01 9.366168e-02 1.990177e-01 2.130498e-01 2.619744e-01 2.129426e-01 3.948105e-01 5.163081e-01 4.372894e-01 3.982126e-01 3.829588e-01 4.056829e-01 3.218957e-01 6.696059e-02
<GCONST> 9.624563e+01
<TRANSP> 5
 0.000000e+00 1.000000e+00 0.000000e+00 0.000000e+00 0.000000e+00
 0.000000e+00 9.296077e-01 7.039236e-02 0.000000e+00 0.000000e+00
 0.000000e+00 0.000000e+00 9.094199e-01 9.058007e-02 0.000000e+00
 0.000000e+00 0.000000e+00 0.000000e+00 9.609908e-01 3.900919e-02
 0.000000e+00 0.000000e+00 0.000000e+00 0.000000e+00 0.000000e+00
<ENDHMM>
~h "r"
<BEGINHMM>
<NUMSTATES> 5
<STATE> 2
<MEAN> 39
 -3.866797e+00 -4.217532e+00 -4.342422e-02 -4.447873e+00 -2.314766e+00 -4.717581e+00 -3.278638e+00 4.477769e-01 4.357520e+00 2.308799e-01 4.193296e+00 -1.365652e+00 6.459696e+01 -8.366628e-01 -1.283746e-01 9.282101e-01 7.623917e-01 2.530695e-01 -1.312326e-01 3.868350e-01 5.090703e-01 5.799561e-02 2.678099e-01 -2.670125e-01 -2.548870e-01 -3.877325e-01 -2.997561e-02 -5.870825e-02 -1.070751e-01 -7.400930e-02 -7.081754e-02 1.029162e-02 -1.008888e-02 -1.237836e-02 1.423341e-01 -9.205012e-02 -1.222888e-02 8.825252e-02 -2.079228e-02
<VARIANCE> 39
 3.401154e+01 1.521881e+01 3.736084e+01 2.403404e+01 5.490870e+01 3.968384e+01 2.969277e+01 2.492526e+01 2.048500e+01 2.607317e+01 1.296297e+01 1.860262e+01 2.057405e+01 1.895984e+00 1.098420e+00 1.610504e+00 1.779003e+00 2.910887e+00 2.132708e+00 1.436886e+00 1.963830e+00 3.202675e+00 2.123238e+00 1.462277e+00 2.260179e+00 1.121005e+00 3.925827e-01 1.475859e-01 3.733090e-01 4.206685e-01 4.967559e-01 5.096472e-01 1.967689e-01 5.315219e-01 4.912569e-01 5.557818e-01 3.563824e-01 2.378298e-01 1.794781e-01
<GCONST> 1.078711e+02
<STATE> 3
<MEAN> 39
 -5.435827e+00 -5.626811e+00 3.307148e+00 -3.457276e+00 -3.290114e+00 -5.142379e+00 -4.704679e+00 1.018666e-01 3.738002e+00 -1.286219e+00 2.394731e+00 -2.250940e+00 6.423317e+01 -4.150064e-01 -7.408104e-01 -4.579176e-01 -5.890139e-01 -1.069935e+00 -9.334799e-01 -8.685206e-01 1.051950e-01 1.245252e-01 -3.567680e-01 -5.002533e-01 6.939594e-02 -2.292786e-01 5.319806e-02 3.066429e-02 -2.193846e-01 -1.326777e-01 -5.196635e-02 3.663293e-02 -4.660783e-02 -2.094788e-01 -2.388631e-01 4.303849e-02 1.276673e-01 -1.216311e-02 1.848883e-02
<VARIANCE> 39
 1.951155e+01 2.451203e+01 2.948439e+01 1.226134e+01 7.474624e+01 5.368891e+01 7.327843e+01 2.439597e+01 1.869246e+01 4.485056e+01 1.798755e+01 1.744771e+01 2.992001e+01 7.987803e-01 5.273374e-01 3.126586e+00 1.554242e+00 3.898534e+00 2.294542e+00 1.962003e+00 2.119737e+00 2.530073e+00 3.718665e+00 1.653159e+00 1.676705e+00 2.987252e-01 1.750253e-01 1.624811e-01 3.472537e-01 3.355353e-01 6.257803e-01 4.950282e-01 5.363852e-01 5.838472e-01 6.154506e-01 6.342539e-01 3.459674e-01 3.631245e-01 6.144606e-02
<GCONST> 1.079408e+02
<STATE> 4
<MEAN> 39
 -4.633971e+00 -7.823370e+00 -2.756656e+00 -1.136061e+01 -5.729456e+00 -3.903682e+00 -3.888897e+00 -1.422517e+00 1.173158e+00 -1.940562e+00 1.717482e+00 -7.071730e+00 6.397066e+01 6.084158e-02 -1.945623e-01 -9.146515e-02 7.224982e-03 1.044704e-01 -1.275913e-01 -9.781116e-02 -1.643276e-01 -1.276484e-01 -1.137627e-01 1.372988e-02 -5.231560e-02 -1.449298e-02 5.412383e-03 9.514703e-02 5.028210e-02 1.102333e-01 7.899921e-02 5.878830e-02 5.987312e-02 -7.289155e-03 -1.201682e-01 -7.895084e-03 2.869560e-02 -3.659609e-02 2.005475e-02
<VARIANCE> 39
 1.231503e+01 1.582425e+01 5.261985e+01 2.316673e+01 3.991768e+01 3.520001e+01 4.999535e+01 1.410555e+01 2.375716e+01 2.221191e+01 1.975242e+01 4.172009e+01 1.563667e+01 3.169648e-01 7.718383e-01 2.087745e+00 1.273238e+00 2.148124e+00 1.934882e+00 1.792828e+00 2.247315e+00 1.942755e+00 2.698266e+00 2.081971e+00 2.158868e+00 1.619488e-01 3.458069e-02 1.325431e-01 1.636817e-01 1.771068e-01 3.609229e-01 2.792632e-01 3.117021e-01 3.101892e-01 4.438996e-01 2.917238e-01 2.800201e-01 3.861981e-01 3.187668e-02
<GCONST> 9.604976e+01
<TRANSP> 5
 0.000000e+00 1.000000e+00 0.000000e+00 0.000000e+00 0.000000e+00
 0.000000e+00 7.705968e-01 2.294032e-01 0.000000e+00 0.000000e+00
 0.000000e+00 0.000000e+00 5.373345e-01 4.626655e-01 0.000000e+00
 0.000000e+00 0.000000e+00 0.000000e+00 7.973058e-01 2.026942e-01
 0.000000e+00 0.000000e+00 0.000000e+00 0.000000e+00 0.000000e+00
<ENDHMM>
~h "s"
<BEGINHMM>
<NUMSTATES> 5
<STATE> 2
<MEAN> 39
 -8.444050e+00 -4.671089e+00 -3.315485e-02 -5.805776e+00 -3.047989e+00 -4.828948e+00 -3.998672e+00 -8.890664e-02 4.345305e+00 1.352765e-01 7.633238e-01 -6.128320e+00 6.163717e+01 -6.553834e-03 -6.884146e-03 -2.761029e-02 -3.517356e-02 -4.191621e-02 -2.907145e-03 3.587873e-02 -4.738969e-02 -2.569967e-02 -1.302058e-02 1.011663e-02 -8.588435e-03 -7.717244e-02 -1.723494e-02 2.203391e-02 3.666260e-03 1.747032e-02 -2.333543e-02 -2.037401e-02 -2.868257e-02 -2.087420e-02 -3.885749e-02 -4.365641e-02 -4.186634e-03 8.364593e-03 4.118319e-03
<VARIANCE> 39
 1.154571e+01 1.018117e+01 1.247472e+01 1.292465e+01 2.551815e+01 2.418407e+01 2.281417e+01 2.421397e+01 2.305255e+01 2.038718e+01 2.695473e+01 2.513517e+01 5.369586e+00 3.691895e-01 5.584816e-01 8.326216e-01 9.453364e-01 1.641471e+00 1.926983e+00 1.700656e+00 2.120960e+00 1.783696e+00 1.867978e+00 1.948591e+00 1.829464e+00 1.701273e-01 5.171556e-02 9.387825e-02 1.293413e-01 1.618045e-01 2.993177e-01 3.663841e-01 3.210784e-01 4.210445e-01 3.567309e-01 3.683287e-01 3.597339e-01 3.537205e-01 2.244512e-02
<GCONST> 8.864397e+01
<STATE> 3
<MEAN> 39
 -1.116625e+01 -3.377648e+00 -2.855335e+00 -4.486118e+00 -6.000857e+00 -2.413979e+00 -5.634460e+00 -1.200523e+00 3.499301e+00 -2.399650e+00 3.775067e+00 -6.518198e+00 6.363976e+01 -3.099476e-01 2.256458e-01 -1.484089e-01 2.216807e-01 -2.336200e-01 2.715835e-01 -2.493930e-01 -1.402188e-01 -9.002495e-02 -1.369878e-01 1.735798e-01 -8.473113e-02 2.878993e-01 4.607779e-02 -4.752204e-02 7.390445e-02 2.380573e-02 6.208588e-02 -1.168270e-02 4.067323e-02 1.108979e-02 -8.603348e-03 2.199657e-02 -3.852501e-02 4.113349e-02 -6.694425e-03
<VARIANCE> 39
 1.645012e+01 1.853017e+01 2.938308e+01 2.266496e+01 2.783174e+01 2.900788e+01 1.987563e+01 2.582036e+01 3.491513e+01 2.165891e+01 2.700252e+01 2.370544e+01 5.788260e+00 5.867526e-01 7.848763e-01 1.304438e+00 1.360080e+00 1.421696e+00 1.855599e+00 1.436212e+00 1.680885e+00 2.469542e+00 1.734060e+00 1.758180e+00 1.658319e+00 2.296788e-01 6.352573e-02 1.225723e-01 2.127236e-01 2.443677e-01 2.533054e-01 3.511673e-01 2.774783e-01 3.269627e-01 4.572010e-01 3.492063e-01 3.411011e-01 3.128062e-01 2.940432e-02
<GCONST> 9.415034e+01
<STATE> 4
<MEAN> 39
 -1.333256e+01 -1.727921e+00 -1.450860e+00 -1.820268e+00 -7.386248e+00 -2.216081e+00 -7.303889e+00 -2.125676e+00 2.899267e+00 -3.625714e+00 4.333322e+00 -5.584720e+00 6.584822e+01 1.475788e+00 -5.411489e-01 9.446129e-01 -2.346036e-01 2.027892e-01 -1.125279e+00 -7.580342e-01 1.301559e-01 1.712077e-01 -9.518518e-02 -6.284872e-01 -5.351682e-01 5.805201e-01 6.482443e-01 -2.427271e-01 2.421661e-01 -2.728878e-01 -2.832586e-01 -5.158141e-01 -5.017192e-01 1.015667e-01 1.582104e-01 6.543387e-02 1.601592e-02 -3.576961e-01 2.945483e-01
<VARIANCE> 39
 1.068956e+01 7.515140e+00 1.352386e+01 1.452121e+01 1.394260e+01 2.072191e+01 2.070037e+01 1.529307e+01 2.288878e+01 1.541431e+01 2.516325e+01 2.104744e+01 6.463629e+00 2.740250e+00 8.694504e-01 1.102302e+00 1.750853e+00 1.900681e+00 2.866236e+00 2.404325e+00 2.016865e+00 2.185886e+00 1.541997e+00 2.026074e+00 3.032587e+00 5.233142e-01 2.636487e-01 1.375789e-01 1.834868e-01 2.355777e-01 5.035939e-01 4.126197e-01 4.071696e-01 2.508630e-01 3.923811e-01 3.797668e-01 5.969260e-01 4.337274e-01 1.192283e-01
<GCONST> 9.826181e+01
<TRANSP> 5
 0.000000e+00 1.000000e+00 0.000000e+00 0.000000e+00 0.000000e+00
 0.000000e+00 9.436204e-01 5.637961e-02 0.000000e+00 0.000000e+00
 0.000000e+00 0.000000e+00 9.115570e-01 8.844310e-02 0.000000e+00
 0.000000e+00 0.000000e+00 0.000000e+00 6.821494e-01 3.178506e-01
 0.000000e+00 0.000000e+00 0.000000e+00 0.000000e+00 0.000000e+00
<ENDHMM>
~h "t"
<BEGINHMM>
<NUMSTATES> 5
<STATE> 2
<MEAN> 39
 -2.564434e+00 -8.687108e+00 1.279790e+01 -1.103402e+01 -2.616967e+01 -4.832070e+00 -9.038124e+00 2.521419e+00 2.318462e+00 -1.133245e+01 1.494521e+01 -1.245499e+01 7.595725e+01 -2.692683e-01 7.584155e-01 1.246750e+00 3.925086e-01 -1.317440e-01 -1.428593e-01 -6.974908e-01 -1.234087e+00 -1.151929e+00 8.035563e-02 1.087685e+00 7.026379e-01 -3.541911e-01 -3.633533e-02 4.146369e-02 -9.696225e-03 1.711139e-01 3.166781e-01 6.383912e-02 -1.265564e-01 -1.262081e-01 1.388622e-02 -5.454329e-02 -1.732793e-01 5.969825e-02 -1.283517e-01
<VARIANCE> 39
 2.821914e+00 8.968016e+00 3.449395e+01 7.390961e+00 3.267832e+01 8.489507e+00 1.027331e+01 2.063239e+01 2.455821e+01 1.944262e+01 4.050837e+01 1.254856e+01 1.547558e+01 8.963171e-02 2.858171e-01 3.592246e-01 6.707875e-01 1.082650e+00 7.553520e-01 9.739295e-01 1.353377e+00 7.818788e-01 1.181906e+00 1.382362e+00 5.348708e-01 1.244375e-01 1.781664e-02 5.515556e-02 5.315844e-02 5.591273e-02 1.670801e-01 1.680450e-01 1.653991e-01 2.393161e-01 2.299882e-01 2.298562e-01 1.825271e-01 1.229964e-01 2.582173e-02
<GCONST> 6.915398e+01
<STATE> 3
<MEAN> 39
 -4.599411e+00 -1.906152e+00 2.033837e+01 -3.863743e+00 -1.783671e+01 -3.208429e+00 -1.466555e+01 -6.103842e+00 -2.089924e+00 -1.461713e+01 1.276650e+01 -5.738415e+00 7.049473e+01 6.891686e-02 2.037269e-01 -5.112249e-01 4.914154e-01 1.504090e+00 1.598683e-01 5.958712e-01 2.723137e-01 2.503523e-01 3.131907e-01 -1.182598e+00 3.047216e-01 -7.359366e-01 3.164286e-02 -1.285611e-01 -3.584527e-01 -1.826956e-01 9.670199e-02 -5.108267e-02 3.249087e-01 2.099440e-01 1.497268e-01 2.985602e-01 -1.262050e-01 -7.349665e-02 -8.170458e-02
<VARIANCE> 39
 2.205986e+00 4.108272e+00 3.208990e+01 1.362061e+01 5.124897e+01 1.123751e+01 3.164407e+01 1.604680e+01 2.004807e+01 2.871781e+01 4.700446e+01 1.094296e+01 1.465801e+01 1.550770e-01 3.927523e-01 2.690727e+00 8.979149e-01 1.578178e+00 7.509226e-01 3.734647e+00 2.057890e+00 1.513666e+00 3.472784e+00 2.187227e+00 9.298176e-01 3.445885e-01 2.578487e-02 3.511961e-02 1.516466e-01 1.871364e-01 2.164133e-01 1.550170e-01 4.542007e-01 2.900709e-01 3.201682e-01 2.814571e-01 3.436332e-01 1.163417e-01 3.664876e-02
<GCONST> 8.450475e+01
<STATE> 4
<MEAN> 39
 -8.173816e+00 -4.421540e+00 8.599263e-01 -3.895825e+00 -4.814864e+00 -4.114441e+00 -4.984237e+00 -2.452112e+00 2.971147e+00 -1.717386e+00 6.861715e-01 -5.824173e+00 6.322465e+01 -1.732251e-01 -3.215646e-02 -4.209675e-01 -7.288697e-02 1.153643e-01 -9.123329e-03 1.667907e-02 -1.019282e-01 3.412036e-02 1.535018e-01 5.261505e-02 7.496314e-02 -9.699766e-02 -3.620476e-03 2.684005e-02 1.369893e-01 1.979509e-02 -1.137257e-01 1.250995e-02 -1.098112e-01 -3.316080e-02 -4.329194e-02 -9.074388e-02 1.034693e-01 1.324500e-02 5.768969e-02
<VARIANCE> 39
 1.280287e+01 1.221091e+01 2.361164e+01 1.288726e+01 2.099904e+01 3.235000e+01 2.252349e+01 2.218804e+01 2.880988e+01 2.629467e+01 3.446629e+01 1.805841e+01 7.178625e+00 5.725122e-01 5.881114e-01 1.949289e+00 1.164403e+00 1.462809e+00 1.981852e+00 2.088938e+00 1.629228e+00 1.884524e+00 2.387417e+00 2.918528e+00 1.296828e+00 4.030179e-01 7.241707e-02 9.519365e-02 2.215033e-01 1.769309e-01 2.847949e-01 3.424573e-01 5.130656e-01 3.632837e-01 3.144587e-01 4.385352e-01 4.942080e-01 2.375819e-01 5.259977e-02
<GCONST> 9.487123e+01
<TRANSP> 5
 0.000000e+00 1.000000e+00 0.000000e+00 0.000000e+00 0.000000e+00
 0.000000e+00 8.369396e-01 1.630604e-01 0.000000e+00 0.000000e+00
 0.000000e+00 0.000000e+00 8.757465e-01 1.242534e-01 0.000000e+00
 0.000000e+00 0.000000e+00 0.000000e+00 9.418229e-01 5.817712e-02
 0.000000e+00 0.000000e+00 0.000000e+00 0.000000e+00 0.000000e+00
<ENDHMM>
~h "u"
<BEGINHMM>
<NUMSTATES> 5
<STATE> 2
<MEAN> 39
 -5.504205e+00 -3.366556e+00 1.690109e+00 -4.209282e+00 -2.960325e+00 -4.290461e+00 -5.636141e+00 -1.159430e+00 3.738378e+00 2.280587e+00 3.106947e+00 -4.117554e+00 6.200608e+01 -9.104805e-03 -3.782494e-02 1.735507e-01 9.902236e-03 3.270836e-02 1.365512e-02 -2.413730e-01 6.861989e-02 -3.177784e-02 7.602423e-02 1.964777e-01 6.093124e-02 -1.283511e-02 -7.018554e-04 -2.399567e-03 -7.279355e-03 -1.030546e-02 -3.077226e-02 -3.332106e-02 2.763156e-02 5.218190e-02 -1.779599e-02 -2.040511e-02 -6.837088e-02 -6.957140e-02 2.392368e-02
<VARIANCE> 39
 2.187609e+00 6.152507e+00 2.169933e+01 8.318296e+00 6.778815e+00 2.662286e+01 2.235463e+01 1.128799e+01 1.087856e+01 2.364944e+01 1.766667e+01 2.246918e+01 4.198236e+00 1.296294e-01 3.460054e-01 1.722228e+00 9.171252e-01 6.305851e-01 2.574048e+00 2.022981e+00 1.629964e+00 1.835999e+00 1.135827e+00 2.130161e+00 1.408841e+00 8.119234e-02 3.290435e-02 6.467277e-02 2.978542e-01 1.940410e-01 1.044510e-01 3.938593e-01 4.212634e-01 3.696926e-01 3.327521e-01 2.661678e-01 4.104363e-01 2.155937e-01 1.254617e-02
<GCONST> 7.823976e+01
<STATE> 3
<MEAN> 39
 -8.456116e+00 -4.206339e-01 2.811217e+00 -6.214093e+00 -3.344585e+00 -8.073198e+00 -3.392642e-01 4.847693e-01 -2.050629e+00 2.943634e-01 1.331321e-01 -3.625602e+00 6.012417e+01 -9.303585e-02 1.203774e-01 -1.251301e-01 -7.027639e-02 1.238968e-01 1.307109e-01 1.941914e-01 3.708550e-02 -1.710619e-01 8.825459e-03 -9.888437e-02 -1.095046e-01 -1.659193e-02 -5.308970e-02 -1.114320e-02 -2.929033e-02 -3.530091e-03 4.356103e-02 3.447262e-02 -6.734379e-02 -1.289140e-03 2.968332e-02 3.514659e-02 2.993810e-02 -9.247651e-03 4.069218e-02
<VARIANCE> 39
 8.736025e+00 7.235766e+00 1.699269e+01 1.030852e+01 1.640613e+01 3.199065e+01 1.951933e+01 1.574691e+01 1.949243e+01 1.952037e+01 2.125787e+01 1.526022e+01 3.655264e+00 3.481558e-01 3.994017e-01 7.291564e-01 7.554191e-01 1.212240e+00 2.263978e+00 1.852330e+00 2.059529e+00 1.699655e+00 2.717222e+00 1.478844e+00 1.234666e+00 1.789715e-01 6.784379e-02 8.189921e-02 1.296316e-01 1.117537e-01 1.994447e-01 4.635061e-01 4.172258e-01 4.538127e-01 3.407077e-01 5.901924e-01 2.726642e-01 2.344208e-01 5.304183e-02
<GCONST> 8.542753e+01
<STATE> 4
<MEAN> 39
 -3.726552e+00 -1.588093e+00 5.800073e+00 -3.886921e+00 -2.006435e+00 -2.877172e+00 -1.349889e+01 -6.077492e+00 -4.650505e+00 -6.672741e+00 4.402946e+00 -5.018315e+00 6.773349e+01 1.156526e-02 1.293783e-01 6.783935e-02 2.128749e-01 1.858887e-01 9.594584e-02 -7.960843e-02 -2.322471e-01 -1.224108e-02 -3.516578e-02 -5.976495e-02 4.538647e-03 9.866437e-03 2.395829e-02 -1.720253e-02 -2.915382e-02 -1.461715e-03 -4.309470e-02 -4.908638e-02 2.793545e-02 -9.884705e-03 1.994629e-02 4.013747e-02 -1.947366e-02 -2.121855e-02 -3.119527e-02
<VARIANCE> 39
 4.435960e+01 1.258943e+01 1.788026e+01 1.818230e+01 3.703333e+01 1.731603e+01 7.170138e+01 3.872468e+01 4.993258e+01 3.435537e+01 3.611575e+01 1.882411e+01 2.128664e+01 3.155845e+00 8.967477e-01 1.448001e+00 1.178904e+00 2.663170e+00 1.787322e+00 5.616690e+00 2.564046e+00 3.583431e+00 2.657072e+00 2.441310e+00 1.701803e+00 1.334244e+00 4.928723e-01 1.445304e-01 2.260701e-01 2.195137e-01 4.651429e-01 2.563263e-01 6.775589e-01 3.652114e-01 5.182026e-01 3.399968e-01 3.437021e-01 3.024302e-01 1.217748e-01
<GCONST> 1.097012e+02
<TRANSP> 5
 0.000000e+00 1.000000e+00 0.000000e+00 0.000000e+00 0.000000e+00
 0.000000e+00 9.254546e-01 7.454535e-02 0.000000e+00 0.000000e+00
 0.000000e+00 0.000000e+00 9.362944e-01 6.370555e-02 0.000000e+00
 0.000000e+00 0.000000e+00 0.000000e+00 9.645845e-01 3.541547e-02
 0.000000e+00 0.000000e+00 0.000000e+00 0.000000e+00 0.000000e+00
<ENDHMM>
~h "v"
<BEGINHMM>
<NUMSTATES> 5
<STATE> 2
<MEAN> 39
 -1.243948e+00 -6.712300e+00 7.798854e+00 -3.157062e+00 -3.993131e+00 -1.007794e+01 -1.495617e+01 1.301100e-01 4.239945e+00 -3.759036e+00 4.538661e+00 -5.780470e+00 7.018874e+01 -9.313557e-02 5.425335e-01 -7.561408e-01 3.171898e-01 1.076418e+00 9.817237e-01 5.570590e-01 -3.650088e-01 5.645679e-01 9.465672e-01 -1.255291e+00 -5.417823e-01 -4.751544e-01 -5.164748e-02 7.179487e-02 1.733900e-01 1.785810e-02 -3.478522e-01 1.813471e-01 2.407974e-01 -2.130000e-01 -1.284600e-01 1.277997e-01 3.235882e-02 -8.023571e-02 -2.849818e-02
<VARIANCE> 39
 5.964686e+00 1.188200e+01 1.201621e+01 2.945173e+01 1.285051e+01 2.172940e+01 9.567663e+00 3.440850e+01 2.157586e+01 1.756411e+01 1.059967e+01 6.017627e+01 1.124030e+01 4.047481e-01 1.070604e+00 1.124886e+00 1.697520e+00 2.991086e+00 1.256694e+00 1.217466e+00 2.648808e+00 1.588451e+00 2.286880e+00 1.544515e+00 1.720951e+00 5.961444e-01 9.365773e-02 2.770379e-01 1.385748e-01 7.367631e-01 3.579588e-01 3.420386e-01 2.632759e-01 6.722100e-01 5.435051e-01 3.296138e-01 2.019786e-01 4.306978e-01 1.435059e-01
<GCONST> 9.623840e+01
<STATE> 3
<MEAN> 39
 -2.695195e+00 -2.646440e+00 5.557511e+00 -3.100096e+00 -4.168333e-01 -6.902826e+00 -9.775181e+00 9.298498e-01 5.590324e+00 1.322196e+00 1.982169e+00 -6.223275e+00 6.627646e+01 -4.525906e-01 4.430096e-01 -2.059522e-01 1.991506e-01 3.319576e-01 7.105119e-01 1.096722e+00 -5.264449e-01 -1.400186e-01 4.408478e-01 -4.257463e-01 -3.107311e-02 -4.520996e-01 -3.858191e-02 2.651552e-02 1.125833e-01 1.735159e-01 -4.390500e-02 -1.716699e-01 -2.466381e-02 -1.249473e-01 -3.243000e-01 -1.864005e-01 2.131517e-01 2.619923e-01 -6.035034e-02
<VARIANCE> 39
 1.249251e+01 2.522718e+01 9.355951e+00 1.837385e+01 1.948382e+01 1.594433e+01 2.037288e+01 1.652627e+01 2.529773e+01 1.576537e+01 1.010871e+01 2.806496e+01 1.289576e+01 1.257804e+00 1.450762e+00 1.000039e+00 2.418178e+00 9.979025e-01 1.649470e+00 2.043878e+00 1.756911e+00 2.455784e+00 1.577696e+00 1.817732e+00 1.679844e+00 6.196184e-01 1.948634e-01 2.769715e-01 1.173516e-01 3.233408e-01 2.483818e-01 3.162590e-01 3.496260e-01 3.224158e-01 4.750107e-01 2.654041e-01 3.506460e-01 1.976691e-01 9.362579e-02
<GCONST> 9.555549e+01
<STATE> 4
<MEAN> 39
 -5.796746e+00 -5.747135e+00 1.849087e+00 -5.027477e+00 -1.842516e+00 -4.696666e+00 -4.887451e+00 -2.637995e+00 3.736095e+00 9.718392e-01 1.237022e+00 -3.741774e+00 6.344717e+01 -1.175913e-01 7.335142e-02 -1.280462e-01 -5.354482e-03 -1.152138e-02 2.816511e-03 1.184231e-01 -9.249922e-02 -2.757671e-01 -5.852985e-02 -1.089900e-01 3.731173e-02 -2.042008e-01 1.078066e-02 1.246240e-02 8.955418e-03 6.365073e-03 1.805259e-02 -7.900658e-02 -3.963707e-02 3.891237e-02 -4.987900e-02 -4.000789e-02 2.188951e-02 -2.578299e-02 7.110905e-03
<VARIANCE> 39
 8.456455e+00 1.524519e+01 3.041847e+01 2.202430e+01 3.759305e+01 3.361604e+01 2.692645e+01 2.855981e+01 2.490598e+01 2.511295e+01 2.842808e+01 2.434911e+01 1.181934e+01 3.731023e-01 1.249539e+00 1.078348e+00 2.136481e+00 2.879556e+00 2.106954e+00 1.942569e+00 2.565320e+00 2.898584e+00 2.177750e+00 1.759049e+00 1.731496e+00 3.873511e-01 6.304701e-02 1.330426e-01 1.603323e-01 2.427846e-01 5.108584e-01 4.015164e-01 3.806136e-01 3.565421e-01 4.865129e-01 4.222609e-01 3.522237e-01 2.954618e-01 3.446528e-02
<GCONST> 9.894530e+01
<TRANSP> 5
 0.000000e+00 1.000000e+00 0.000000e+00 0.000000e+00 0.000000e+00
 0.000000e+00 7.312949e-01 2.687051e-01 0.000000e+00 0.000000e+00
 0.000000e+00 0.000000e+00 7.332033e-01 2.667967e-01 0.000000e+00
 0.000000e+00 0.000000e+00 0.000000e+00 9.144960e-01 8.550399e-02
 0.000000e+00 0.000000e+00 0.000000e+00 0.000000e+00 0.000000e+00
<ENDHMM>
~h "w"
<BEGINHMM>
<NUMSTATES> 5
<STATE> 2
<MEAN> 39
 -7.545100e+00 -6.843409e+00 1.663065e+00 -6.628370e+00 -2.389591e+00 -5.222539e+00 -2.921727e+00 -3.078127e-01 1.718051e-01 -5.937756e-01 1.323010e+00 -3.085389e+00 6.066072e+01 -2.526551e-03 -8.495159e-02 -3.672800e-02 -4.017804e-02 -1.718863e-02 1.469759e-01 5.413092e-02 -7.702667e-02 2.789829e-02 -1.018103e-02 -1.952402e-01 -5.779879e-02 -4.581122e-02 7.330679e-03 3.784614e-02 -8.677824e-03 3.521157e-02 5.120673e-02 5.511585e-02 2.696535e-02 -4.848293e-03 1.432623e-02 6.919968e-03 -1.819810e-02 -5.119947e-02 2.504633e-02
<VARIANCE> 39
 2.370747e+00 1.059910e+01 1.020988e+01 1.432895e+01 1.667019e+01 3.451452e+01 2.973585e+01 2.296292e+01 1.656032e+01 2.536967e+01 2.528929e+01 1.804984e+01 4.055161e+00 1.586825e-01 5.833638e-01 7.301344e-01 9.724630e-01 1.470893e+00 1.622391e+00 1.996057e+00 1.737364e+00 1.651415e+00 2.377109e+00 2.332159e+00 2.180245e+00 1.204596e-01 3.253484e-02 9.765067e-02 1.555433e-01 1.806237e-01 2.459329e-01 2.689152e-01 4.192578e-01 3.429073e-01 3.462559e-01 4.622864e-01 4.356120e-01 4.692423e-01 1.847239e-02
<GCONST> 8.520963e+01
<STATE> 3
<MEAN> 39
 -6.374213e+00 -4.262496e+00 1.137632e+00 -5.875508e+00 -2.482357e+00 -5.151315e+00 -4.988846e+00 -2.449794e+00 1.559819e+00 -9.739566e-01 3.491384e-01 -4.163715e+00 6.268022e+01 5.767533e-01 7.303815e-01 4.266082e-01 -7.717663e-02 -5.142664e-01 -4.161384e-01 -2.465352e-01 6.686391e-02 -2.397371e-01 -3.472166e-01 -1.499945e-02 -1.132191e-01 4.390092e-01 9.092163e-02 6.064712e-02 5.437166e-02 -1.198893e-01 -2.049684e-01 -1.612056e-01 -1.426156e-01 -6.850809e-03 -2.992789e-02 -6.165867e-02 1.339388e-02 -1.369093e-02 4.597193e-02
<VARIANCE> 39
 9.480341e+00 4.428194e+01 2.013410e+01 2.306058e+01 3.196259e+01 2.730052e+01 2.354015e+01 1.787770e+01 3.475986e+01 2.595302e+01 3.303785e+01 1.829720e+01 7.707799e+00 1.195606e+00 1.491011e+00 1.610099e+00 1.483633e+00 3.014753e+00 2.576254e+00 1.656328e+00 1.939369e+00 2.826001e+00 2.882329e+00 1.919338e+00 1.857377e+00 4.312975e-01 1.491874e-01 2.570032e-01 2.511781e-01 2.575609e-01 3.906491e-01 4.747398e-01 3.308947e-01 4.092467e-01 5.512624e-01 5.898823e-01 3.309337e-01 3.887702e-01 6.106317e-02
<GCONST> 1.034626e+02
<STATE> 4
<MEAN> 39
 2.147376e+00 -7.270413e+00 8.146199e-01 -1.478714e+01 -1.039340e+01 3.124132e+00 -9.661308e+00 -2.227027e+00 3.833839e+00 -7.086264e+00 2.418313e+00 -1.300640e+01 7.267712e+01 5.673307e-02 -7.476463e-01 -1.073070e-01 -5.652398e-02 -3.348919e-03 5.490498e-01 -6.811419e-02 -5.572127e-03 4.390018e-01 -6.516019e-02 -3.083932e-01 -4.366690e-01 3.796344e-01 -8.443861e-02 7.637460e-02 3.780907e-02 1.768557e-01 1.610551e-01 -5.274443e-02 7.093571e-02 -6.045321e-02 -9.876927e-02 1.387729e-01 5.673046e-03 7.663492e-02 -1.178802e-01
<VARIANCE> 39
 3.074381e+00 6.402545e+01 1.910347e+01 3.521651e+01 1.624243e+01 8.741654e+01 1.725260e+01 1.029488e+01 3.438908e+01 2.256303e+01 6.324210e+01 6.359217e+01 1.671168e+01 3.012834e-01 1.971719e+00 1.360982e+00 3.313708e+00 1.653320e+00 4.304224e+00 1.456348e+00 1.305393e+00 1.766718e+00 3.431613e+00 5.767038e+00 4.452897e+00 6.756389e-01 3.718726e-02 2.633038e-01 1.312784e-01 2.650894e-01 2.765029e-01 4.605125e-01 2.147754e-01 2.920444e-01 3.688958e-01 6.472679e-01 8.001615e-01 6.941430e-01 4.632848e-02
<GCONST> 1.040180e+02
<TRANSP> 5
 0.000000e+00 1.000000e+00 0.000000e+00 0.000000e+00 0.000000e+00
 0.000000e+00 9.358672e-01 6.413284e-02 0.000000e+00 0.000000e+00
 0.000000e+00 0.000000e+00 9.162914e-01 8.370862e-02 0.000000e+00
 0.000000e+00 0.000000e+00 0.000000e+00 9.516423e-01 4.835768e-02
 0.000000e+00 0.000000e+00 0.000000e+00 0.000000e+00 0.000000e+00
<ENDHMM>
~h "z"
<BEGINHMM>
<NUMSTATES> 5
<STATE> 2
<MEAN> 39
 -5.877907e+00 -7.728830e+00 -2.511745e+00 -7.305861e+00 -3.467996e+00 -5.069168e+00 -6.761823e+00 -1.082141e+00 2.739610e+00 -4.574635e+00 -2.674603e+00 -5.809526e+00 6.195254e+01 7.773485e-02 1.090906e-01 2.568503e-01 7.604512e-02 1.617059e-01 1.944876e-02 -3.252727e-02 -2.506373e-02 -1.942039e-01 -2.022142e-01 -1.252426e-01 3.002956e-01 -3.821845e-02 8.463970e-03 1.034595e-01 4.253734e-02 4.984120e-02 4.871177e-03 2.954830e-02 6.672145e-02 -6.532110e-03 -1.387900e-02 6.534307e-02 7.076403e-02 3.497148e-02 2.505816e-03
<VARIANCE> 39
 9.103209e+00 1.613507e+01 1.035200e+01 1.826751e+01 1.392046e+01 1.358448e+01 1.438824e+01 2.213614e+01 2.568092e+01 2.723924e+01 3.124611e+01 2.355860e+01 2.645594e+00 2.209651e-01 1.347503e+00 6.639068e-01 1.024868e+00 1.402074e+00 1.410340e+00 1.407197e+00 1.717165e+00 2.298604e+00 2.384569e+00 2.212632e+00 2.239355e+00 9.282307e-02 3.018178e-02 2.143162e-01 1.292421e-01 1.832896e-01 2.835136e-01 2.578158e-01 2.234359e-01 3.181952e-01 4.175502e-01 4.534800e-01 4.625058e-01 4.850141e-01 1.461707e-02
<GCONST> 8.650418e+01
<STATE> 3
<MEAN> 39
 -6.667057e+00 -3.319278e+00 3.717075e+00 -5.443008e+00 -4.373942e+00 -1.088431e+01 -6.252380e+00 -5.354864e+00 -1.322660e+00 -1.175665e+00 1.251720e+00 -4.596713e+00 5.989621e+01 2.737481e-02 8.203320e-02 1.534042e-01 1.781436e-01 2.071845e-02 1.991066e-01 1.235356e-01 -5.501165e-03 6.706891e-02 -2.085258e-02 -1.083032e-01 -1.976623e-01 6.412757e-04 -2.106209e-04 1.700190e-02 2.224798e-02 6.634247e-02 1.589221e-02 4.075810e-02 -3.450741e-02 -1.304226e-03 3.660843e-02 -4.250577e-02 -4.271221e-02 -5.522383e-02 3.869591e-02
<VARIANCE> 39
 3.705888e+00 8.242617e+00 1.069424e+01 1.352522e+01 1.947275e+01 2.620582e+01 9.956068e+00 2.659294e+01 1.414209e+01 2.020867e+01 2.331450e+01 2.511119e+01 3.038761e+00 2.719508e-01 6.887018e-01 6.460275e-01 1.125142e+00 1.414540e+00 1.897192e+00 1.141097e+00 2.015142e+00 8.785630e-01 2.541031e+00 1.433342e+00 2.247727e+00 1.513528e-01 3.363369e-02 9.722329e-02 1.068487e-01 1.869721e-01 2.682116e-01 4.085499e-01 2.708898e-01 4.170010e-01 1.810455e-01 4.810891e-01 2.386487e-01 5.286052e-01 1.905594e-02
<GCONST> 8.243501e+01
<STATE> 4
<MEAN> 39
 -5.509015e+00 3.228800e+00 5.353715e+00 2.367226e+00 -3.525194e-01 -1.880123e+00 -6.812473e+00 -5.588788e+00 5.072877e-01 -5.142760e+00 -2.698105e-01 -7.125336e+00 6.381649e+01 -4.191605e-01 1.307995e+00 -6.888114e-02 1.400638e+00 -1.283556e-01 3.033745e-01 -2.900362e-01 -4.970835e-01 1.523413e-01 -4.592584e-01 8.537443e-01 -2.662125e-01 5.714849e-01 -2.225821e-01 -1.028783e-01 -1.957336e-01 -1.095805e-01 -9.108540e-02 -1.403947e-01 1.485360e-01 5.017847e-02 1.798591e-01 -8.095147e-02 1.168958e-01 1.555981e-01 -3.064097e-02
<VARIANCE> 39
 8.182792e+00 1.466176e+01 1.354362e+01 2.587309e+01 1.191254e+01 2.226486e+01 2.443151e+01 1.706225e+01 2.251042e+01 1.318674e+01 2.091258e+01 8.212345e+00 5.282381e+00 1.029045e+00 9.505566e-01 1.336653e+00 9.853984e-01 1.160607e+00 1.202689e+00 3.023459e+00 2.205896e+00 1.777331e+00 1.638895e+00 1.358130e+00 1.699273e+00 1.705450e-01 1.377162e-01 2.002529e-01 1.792492e-01 1.911313e-01 2.134306e-01 2.496950e-01 4.725730e-01 3.604918e-01 3.801401e-01 3.006332e-01 3.260659e-01 2.978535e-01 2.827026e-02
<GCONST> 8.932846e+01
<TRANSP> 5
 0.000000e+00 1.000000e+00 0.000000e+00 0.000000e+00 0.000000e+00
 0.000000e+00 9.374012e-01 6.259881e-02 0.000000e+00 0.000000e+00
 0.000000e+00 0.000000e+00 9.158698e-01 8.413017e-02 0.000000e+00
 0.000000e+00 0.000000e+00 0.000000e+00 8.560308e-01 1.439691e-01
 0.000000e+00 0.000000e+00 0.000000e+00 0.000000e+00 0.000000e+00
<ENDHMM>
~h "O:"
<BEGINHMM>
<NUMSTATES> 5
<STATE> 2
<MEAN> 39
 3.229270e+00 -3.398036e+00 1.110205e-01 -2.167505e+01 -1.883651e+01 6.242413e+00 -2.771579e+00 -1.033650e+01 1.933913e+00 -6.303896e+00 1.247900e+01 -4.584437e+00 7.263090e+01 1.250477e-01 -2.895834e-01 -1.278050e-01 -7.229633e-01 -1.434590e+00 8.597595e-02 6.469939e-01 -3.843891e-01 7.484963e-01 -2.229886e-01 8.318114e-01 -3.617404e-02 2.969542e-01 -3.253473e-01 -1.086189e-01 -7.655698e-02 8.093209e-01 6.452794e-01 -4.464521e-01 6.570558e-02 1.710145e-01 -1.133126e-01 8.294978e-02 -4.605455e-01 1.161186e-01 -2.851423e-01
<VARIANCE> 39
 1.336799e+00 7.752780e+00 4.791345e+00 8.820135e+00 1.361017e+01 1.204255e+01 7.531688e+00 9.930333e+00 1.331491e+01 1.105120e+01 1.298112e+01 8.256838e+00 1.527115e+00 1.914525e-01 2.402007e-01 3.043315e-01 1.716406e+00 1.567025e+00 1.253803e+00 5.847900e-01 8.733615e-01 1.391263e+00 6.149961e-01 1.183071e+00 9.447240e-01 1.716134e-01 2.181117e-01 6.980518e-02 7.162635e-02 1.791386e-01 1.348256e-01 1.565494e-01 1.177643e-01 1.935425e-01 2.632199e-01 2.243745e-01 2.262446e-01 2.190075e-01 6.958025e-02
<GCONST> 6.705074e+01
<STATE> 3
<MEAN> 39
 4.268040e+00 -6.262042e+00 -3.332087e+00 -1.778035e+01 -1.790956e+01 1.577289e+00 -2.693621e-01 -1.120300e+01 2.708044e+00 -9.029175e+00 1.326023e+01 4.721519e-02 7.253579e+01 2.071757e-01 -1.834230e-01 -7.143351e-01 7.374257e-01 6.918173e-01 -8.534926e-01 -3.233501e-01 3.798259e-01 2.540667e-01 -6.544390e-01 -2.393438e-01 1.054704e+00 -1.045969e-01 -2.654939e-02 1.075073e-01 -4.327978e-02 -8.555736e-03 1.380472e-01 6.577459e-02 -1.790368e-01 1.311683e-01 9.870107e-02 2.116002e-03 -1.330987e-01 8.784153e-03 -2.317700e-02
<VARIANCE> 39
 1.554257e+00 5.011317e+00 5.821162e+00 7.251819e+00 1.137664e+01 1.928555e+01 6.953994e+00 1.035568e+01 1.712459e+01 1.301503e+01 8.118827e+00 1.863654e+01 2.609652e+00 7.282683e-02 3.225288e-01 2.730781e-01 4.126975e-01 6.195682e-01 6.659183e-01 1.070441e+00 1.040794e+00 1.151655e+00 9.397245e-01 6.748350e-01 6.723906e-01 3.051393e-02 1.495566e-02 3.328042e-02 4.986789e-02 9.415334e-02 8.773743e-02 1.504439e-01 1.354614e-01 1.974391e-01 1.341726e-01 1.355480e-01 1.404777e-01 1.530373e-01 7.321048e-03
<GCONST> 5.393383e+01
<STATE> 4
<MEAN> 39
 4.494479e+00 -5.398199e+00 -7.923545e+00 -1.321774e+01 -6.961027e+00 -1.793715e+00 -4.825015e+00 -5.580987e+00 7.853177e+00 -7.475064e+00 6.756079e+00 4.803856e+00 7.010441e+01 -2.488186e-01 1.605762e-01 2.144440e-02 3.890941e-01 8.301132e-01 7.190514e-02 -1.161102e-02 4.592570e-01 8.716126e-02 6.868372e-01 -4.110735e-01 -2.209285e-01 -4.063116e-01 -6.621086e-02 -2.639731e-03 1.362336e-01 3.584342e-02 -1.971096e-02 2.917920e-03 9.115446e-02 -1.170956e-02 -1.247016e-01 7.585674e-02 2.631451e-02 -1.437406e-01 -4.874820e-02
<VARIANCE> 39
 5.671721e+00 6.609166e+00 8.307281e+00 6.666017e+00 2.152695e+01 9.381923e+00 1.407666e+01 1.711081e+01 2.438107e+01 3.028614e+01 9.906281e+00 1.808759e+01 6.836663e+00 1.937084e-01 3.866938e-01 5.101299e-01 5.049138e-01 6.885959e-01 6.963153e-01 7.964214e-01 8.177238e-01 1.211444e+00 1.079402e+00 8.189674e-01 1.035182e+00 1.478223e-01 3.008454e-02 6.734440e-02 7.526925e-02 8.073035e-02 9.067736e-02 1.382005e-01 1.428202e-01 1.267323e-01 1.556744e-01 1.623252e-01 1.164827e-01 1.533244e-01 1.996018e-02
<GCONST> 6.558856e+01
<TRANSP> 5
 0.000000e+00 1.000000e+00 0.000000e+00 0.000000e+00 0.000000e+00
 0.000000e+00 7.798667e-01 2.201333e-01 0.000000e+00 0.000000e+00
 0.000000e+00 0.000000e+00 8.712628e-01 1.287372e-01 0.000000e+00
 0.000000e+00 0.000000e+00 0.000000e+00 9.290255e-01 7.097455e-02
 0.000000e+00 0.000000e+00 0.000000e+00 0.000000e+00 0.000000e+00
<ENDHMM>
~h "aI"
<BEGINHMM>
<NUMSTATES> 5
<STATE> 2
<MEAN> 39
 1.568923e+00 -1.332156e+01 -3.038023e+00 -1.522719e+01 -5.649434e+00 5.380584e+00 -9.313918e+00 -2.861322e+00 9.464652e+00 -5.034843e+00 -2.167554e-01 -2.317166e+01 7.688572e+01 -2.122097e-02 -1.300362e+00 -5.136306e-01 -6.743302e-01 -1.905827e-01 1.149402e+00 2.433015e-01 1.557831e-01 9.507619e-01 -1.428194e+00 -3.204221e-01 -7.378197e-01 7.110395e-01 -1.496951e-01 3.155981e-01 3.174958e-01 5.065399e-01 7.235814e-02 -4.164688e-01 2.073906e-02 -9.852973e-03 -4.298722e-01 -8.875334e-02 -5.277259e-02 5.163698e-01 -3.136888e-01
<VARIANCE> 39
 1.349312e+00 1.280243e+01 1.156896e+01 1.701663e+01 5.350773e+00 2.171071e+01 1.479689e+01 7.769670e+00 1.560990e+01 3.821907e+01 3.073520e+01 1.476975e+01 3.797074e+00 2.119159e-01 1.896049e+00 8.766456e-01 2.427923e+00 7.150177e-01 1.706219e+00 7.374411e-01 1.615341e+00 2.959877e+00 1.005822e+00 1.413385e+00 2.083791e+00 7.443181e-01 8.450070e-02 1.810297e-01 8.328053e-02 2.107749e-01 1.706605e-01 1.582857e-01 1.621381e-01 3.734444e-01 3.759027e-01 2.669922e-01 3.120352e-01 2.372468e-01 8.587532e-02
<GCONST> 8.324992e+01
<STATE> 3
<MEAN> 39
 7.811345e-01 -1.644391e+01 7.529728e-01 -1.229092e+01 -1.044674e+01 2.382376e+00 -7.303226e+00 3.078264e+00 8.141727e+00 -1.224563e+01 6.855538e-02 -1.912825e+01 7.731005e+01 -1.440203e-01 7.938175e-02 1.694161e+00 6.678599e-01 -1.448232e+00 -1.623134e+00 2.153375e-01 1.754309e+00 -1.036947e+00 -3.183015e-01 8.976020e-01 1.666248e+00 -2.447526e-01 -3.706389e-02 1.953546e-01 3.105699e-01 -6.664746e-02 -9.970610e-02 -1.045628e-01 -6.613190e-02 -8.513977e-02 -2.399766e-01 2.965931e-01 3.213363e-01 1.825408e-01 -8.982944e-02
<VARIANCE> 39
 2.572781e+00 3.942222e+00 2.324165e+01 1.021343e+01 1.751880e+01 3.585210e+01 9.431508e+00 3.675071e+01 2.326831e+01 3.163738e+01 1.851189e+01 2.917046e+01 1.399642e+00 1.527069e-01 4.168833e-01 1.041430e+00 5.259411e-01 7.273368e-01 1.549914e+00 6.814473e-01 1.259709e+00 1.659190e+00 1.281890e+00 2.125692e+00 2.103344e+00 9.729642e-02 2.569838e-02 6.413545e-02 8.152972e-02 9.327297e-02 1.579323e-01 2.463495e-01 1.277189e-01 5.027397e-01 2.157761e-01 1.706848e-01 2.376321e-01 2.508242e-01 1.035709e-02
<GCONST> 7.354615e+01
<STATE> 4
<MEAN> 39
 -1.589647e+00 -9.440302e+00 1.680707e+01 -7.867234e+00 -1.578380e+01 -6.174238e+00 -9.101809e+00 5.130295e+00 -1.563148e+00 -8.255434e+00 1.024523e+01 -5.851763e+00 7.263166e+01 -2.189540e-01 1.108787e+00 5.058185e-01 8.247305e-01 1.007320e+00 -4.291748e-01 -3.673384e-01 -8.629550e-01 -4.285280e-01 3.803957e-01 2.079707e-01 8.933588e-01 -6.896480e-01 4.658982e-02 1.606549e-02 -5.061561e-01 1.397442e-01 4.415278e-01 5.292834e-02 4.655633e-02 -1.097583e-01 2.275024e-01 -3.531426e-02 -4.196984e-01 -1.752948e-01 -2.633337e-02
<VARIANCE> 39
 3.782397e+00 1.385242e+01 1.754146e+01 1.084933e+01 1.640610e+01 3.239243e+01 2.056591e+01 2.339539e+01 1.461447e+01 1.509036e+01 9.930290e+00 3.042064e+01 5.889702e+00 2.695432e-01 5.828546e-01 3.249028e+00 9.090847e-01 2.381363e+00 1.081584e+00 1.107647e+00 1.397529e+00 1.280409e+00 1.445278e+00 2.085976e+00 1.208976e+00 1.180105e-01 4.031824e-02 8.033735e-02 1.281199e-01 1.127027e-01 1.292230e-01 2.713225e-01 1.885879e-01 3.105013e-01 2.015128e-01 2.500448e-01 1.699801e-01 2.496810e-01 1.988630e-02
<GCONST> 8.001115e+01
<TRANSP> 5
 0.000000e+00 1.000000e+00 0.000000e+00 0.000000e+00 0.000000e+00
 0.000000e+00 8.491781e-01 1.508219e-01 0.000000e+00 0.000000e+00
 0.000000e+00 0.000000e+00 8.649640e-01 1.350360e-01 0.000000e+00
 0.000000e+00 0.000000e+00 0.000000e+00 8.979328e-01 1.020672e-01
 0.000000e+00 0.000000e+00 0.000000e+00 0.000000e+00 0.000000e+00
<ENDHMM>
~h "eh"
<BEGINHMM>
<NUMSTATES> 5
<STATE> 2
<MEAN> 39
 -6.822630e-01 -3.254617e+00 7.664762e+00 4.116755e-01 -3.450520e+00 -3.467685e+00 -9.097593e+00 -5.458030e+00 -6.058367e-01 -2.779197e+00 -4.325439e+00 -1.238948e+01 6.859621e+01 -3.155697e-01 2.228137e+00 1.130652e+00 2.219618e+00 1.657644e+00 -1.584993e+00 4.439830e-01 -1.088094e+00 -3.035975e+00 2.499212e-01 7.225234e-01 8.325760e-01 -1.395030e+00 7.042123e-02 -5.254407e-01 -1.166082e-01 -6.520205e-01 -6.940061e-02 1.065014e-01 -1.087827e-01 5.782501e-01 5.552611e-01 -3.764044e-01 2.314087e-01 -1.427097e-01 2.620098e-01
<VARIANCE> 39
 4.492109e+00 2.751164e+01 1.263188e+01 1.955549e+01 1.645307e+01 2.108712e+01 1.360558e+01 1.709460e+01 3.460620e+01 1.512227e+01 2.552982e+01 8.897156e+00 5.262446e+00 2.623663e-01 1.387728e+00 5.149960e-01 1.706163e+00 8.811197e-01 1.134549e+00 1.349429e+00 2.138740e+00 1.949413e+00 1.803324e+00 1.245276e+00 8.029562e-01 3.192805e-01 4.330717e-02 3.390177e-01 9.555627e-02 3.328644e-01 2.448888e-01 3.577659e-01 2.959720e-01 2.957987e-01 7.290919e-01 3.038430e-01 3.243485e-01 1.181637e-01 5.955975e-02
<GCONST> 8.655447e+01
<STATE> 3
<MEAN> 39
 -2.246344e+00 -5.228253e-01 1.104782e+01 3.613798e+00 1.066315e+00 -7.276983e+00 -7.989367e+00 -4.421766e+00 -1.901589e+00 -3.843372e+00 -2.745555e+00 -9.810501e+00 6.508660e+01 -2.121292e-01 9.894244e-02 -1.314084e-04 -3.855412e-02 3.312189e-01 -1.568175e-01 2.180576e-01 1.299297e-01 3.912687e-01 -5.794987e-02 -2.095591e-01 2.689478e-01 -2.832942e-01 -2.349337e-03 -7.610375e-02 -1.510521e-01 -1.730537e-01 -9.189305e-02 1.483914e-01 -2.844379e-02 3.523814e-02 1.686437e-01 2.871812e-02 -9.730013e-02 -3.582790e-02 6.328414e-02
<VARIANCE> 39
 4.053894e+00 7.112290e+00 9.041893e+00 9.081003e+00 8.942925e+00 1.227073e+01 1.518574e+01 1.063043e+01 1.421422e+01 1.254543e+01 1.483444e+01 1.384104e+01 3.981276e+00 2.078308e-01 5.793806e-01 5.846882e-01 7.095143e-01 7.969996e-01 1.154180e+00 1.070332e+00 1.003648e+00 1.203526e+00 1.102395e+00 1.083142e+00 1.090518e+00 9.531167e-02 4.157914e-02 1.369399e-01 9.449087e-02 1.664090e-01 1.699773e-01 2.237058e-01 2.051019e-01 2.030033e-01 3.553889e-01 1.695234e-01 2.008364e-01 2.407857e-01 2.254638e-02
<GCONST> 7.080897e+01
<STATE> 4
<MEAN> 39
 -3.357006e+00 -1.079578e+00 6.334589e+00 -2.401266e-01 3.098452e+00 -5.117012e+00 -4.068015e+00 -2.045485e+00 3.423876e-01 -3.911340e+00 -5.061528e+00 -7.873450e+00 6.378235e+01 -1.621265e-01 -1.359808e-01 -5.610550e-01 -4.529149e-01 -3.257320e-03 3.050171e-01 3.950434e-01 3.825699e-01 4.038298e-01 1.541170e-01 1.134768e-01 4.156270e-01 -1.991690e-01 -3.720642e-02 -3.195912e-02 -3.041645e-03 5.711032e-02 -6.863785e-02 -9.356870e-02 2.977678e-02 3.046805e-02 2.133038e-02 8.308930e-02 1.436131e-01 5.081738e-02 -1.736974e-02
<VARIANCE> 39
 5.755398e+00 1.329936e+01 1.244142e+01 9.593984e+00 1.535574e+01 1.569988e+01 2.049189e+01 1.635799e+01 2.322361e+01 1.768361e+01 1.759228e+01 1.775663e+01 6.425640e+00 2.481648e-01 6.636800e-01 7.710173e-01 1.032206e+00 1.260631e+00 1.465148e+00 1.699107e+00 1.333534e+00 2.065248e+00 1.152901e+00 1.671514e+00 1.458993e+00 1.726280e-01 4.556466e-02 1.239015e-01 1.451222e-01 1.524425e-01 2.522975e-01 3.140033e-01 2.892170e-01 2.833895e-01 3.818738e-01 2.490575e-01 3.190737e-01 2.717686e-01 2.512227e-02
<GCONST> 8.261449e+01
<TRANSP> 5
 0.000000e+00 1.000000e+00 0.000000e+00 0.000000e+00 0.000000e+00
 0.000000e+00 6.915562e-01 3.084438e-01 0.000000e+00 0.000000e+00
 0.000000e+00 0.000000e+00 8.959768e-01 1.040232e-01 0.000000e+00
 0.000000e+00 0.000000e+00 0.000000e+00 8.612577e-01 1.387423e-01
 0.000000e+00 0.000000e+00 0.000000e+00 0.000000e+00 0.000000e+00
<ENDHMM>
~h "sp"
<BEGINHMM>
<NUMSTATES> 3
<STATE> 2
~s "silst"
<TRANSP> 3
 0.000000e+00 4.065889e-01 5.934112e-01
 0.000000e+00 9.029366e-01 9.706336e-02
 0.000000e+00 0.000000e+00 0.000000e+00
<ENDHMM>
~h "sil"
<BEGINHMM>
<NUMSTATES> 5
<STATE> 2
<MEAN> 39
 -6.956132e+00 -4.972505e+00 1.973864e-02 -5.696063e+00 -3.397844e+00 -6.907933e+00 -4.643769e+00 -1.937205e+00 3.306264e+00 8.262514e-01 1.000105e+00 -4.719794e+00 6.133164e+01 -3.854486e-02 4.186654e-02 3.694987e-02 5.157220e-02 7.235649e-02 1.180570e-02 2.523733e-02 -3.753516e-02 2.907418e-04 -1.875377e-02 -5.476553e-03 4.469743e-03 -1.097053e-01 -3.583891e-02 2.054212e-02 1.246470e-02 8.471360e-03 -1.675963e-02 4.905154e-03 7.154593e-03 3.831285e-02 -3.772471e-02 -4.411519e-02 -5.550495e-03 3.162894e-02 -2.609982e-03
<VARIANCE> 39
 6.231138e+00 9.378811e+00 1.676584e+01 1.838116e+01 1.644988e+01 2.311584e+01 2.283842e+01 2.315365e+01 3.157917e+01 2.354632e+01 2.462674e+01 2.323436e+01 4.181453e+00 2.539460e-01 4.846722e-01 6.399079e-01 9.025996e-01 1.073990e+00 1.362784e+00 1.428057e+00 1.728632e+00 1.789721e+00 1.707217e+00 1.479557e+00 1.613304e+00 1.060692e-01 3.899353e-02 7.544888e-02 1.013095e-01 1.476821e-01 1.789012e-01 2.459446e-01 2.616547e-01 3.296925e-01 3.410638e-01 3.284380e-01 2.725175e-01 2.835996e-01 1.346783e-02
<GCONST> 8.180132e+01
<STATE> 3
~s "silst"
<STATE> 4
<MEAN> 39
 -8.750403e+00 -4.871026e+00 1.634934e+00 -4.942050e+00 -4.425486e+00 -7.822448e+00 -5.156104e+00 -1.294931e+00 1.724011e+00 -1.395583e+00 1.386741e-01 -4.457382e+00 6.213252e+01 4.987956e-03 -3.909898e-02 -5.148894e-02 -4.501382e-02 -7.337878e-02 1.323601e-02 -4.302020e-02 1.114811e-02 5.144044e-02 1.886668e-02 -4.365033e-02 -3.662010e-02 1.403739e-01 1.803883e-02 5.999339e-03 -5.766299e-03 5.529885e-03 4.207327e-02 2.879898e-02 4.256583e-02 4.273924e-03 4.010947e-02 2.737086e-03 -1.723663e-02 -2.761138e-02 -1.952761e-02
<VARIANCE> 39
 8.134072e+00 1.426278e+01 2.153229e+01 2.033104e+01 2.652774e+01 3.894016e+01 2.438721e+01 2.966072e+01 2.621343e+01 2.568198e+01 2.986944e+01 2.420021e+01 6.322196e+00 6.541876e-01 8.049880e-01 1.238200e+00 1.446700e+00 1.824922e+00 2.361852e+00 2.085645e+00 2.125186e+00 2.338007e+00 1.912539e+00 2.291321e+00 1.791637e+00 3.334258e-01 1.189526e-01 1.420373e-01 2.112543e-01 2.605577e-01 3.166076e-01 4.121673e-01 3.847046e-01 3.793442e-01 4.318440e-01 3.461699e-01 4.084190e-01 3.477580e-01 5.864527e-02
<GCONST> 9.804947e+01
<TRANSP> 5
 0.000000e+00 1.000000e+00 0.000000e+00 0.000000e+00 0.000000e+00
 0.000000e+00 8.638350e-01 4.267700e-02 9.348801e-02 0.000000e+00
 0.000000e+00 0.000000e+00 9.336389e-01 6.636105e-02 0.000000e+00
 0.000000e+00 1.293431e-01 0.000000e+00 8.279951e-01 4.266179e-02
 0.000000e+00 0.000000e+00 0.000000e+00 0.000000e+00 0.000000e+00
<ENDHMM>
