~o
<STREAMINFO> 1 39
<VECSIZE> 39<NULLD><MFCC_D_A_0><DIAGC>
~s "silst"
<MEAN> 39
 -9.877454e+00 -2.831537e+00 1.580529e+00 -4.431255e+00 -1.335773e+00 -6.734709e+00 -2.263184e+00 -3.361905e-02 1.203355e+00 -1.813266e+00 8.692756e-02 -3.742801e+00 5.809038e+01 -1.662562e-02 2.761153e-03 -1.962558e-02 -6.935339e-02 -6.810737e-02 -6.833106e-03 6.069118e-02 -1.030111e-03 -4.531663e-02 -2.138115e-02 3.162737e-02 -4.593353e-03 -3.336601e-02 4.038583e-02 -3.598894e-02 -2.019496e-02 -1.832253e-02 -4.336471e-02 -1.053147e-04 -6.470145e-02 -2.298845e-02 2.105928e-02 5.283661e-02 1.781095e-02 -3.275738e-02 5.695170e-02
<VARIANCE> 39
 5.633784e+00 9.285253e+00 1.577634e+01 1.869744e+01 1.611759e+01 2.146483e+01 2.281330e+01 1.995473e+01 2.218167e+01 2.475636e+01 2.117887e+01 1.652762e+01 3.959344e+00 3.762479e-01 6.085259e-01 9.231516e-01 1.127277e+00 1.354970e+00 1.634356e+00 1.872886e+00 1.654665e+00 1.780204e+00 1.828149e+00 1.607003e+00 1.513262e+00 1.643964e-01 6.289093e-02 9.805101e-02 1.589658e-01 1.987751e-01 2.479084e-01 3.114583e-01 3.420447e-01 3.009019e-01 3.224604e-01 3.502118e-01 3.008334e-01 2.895899e-01 2.596430e-02
<GCONST> 8.593508e+01
~h "I"
<BEGINHMM>
<NUMSTATES> 5
<STATE> 2
<MEAN> 39
 -1.074120e+01 -9.481053e-01 -4.123839e+00 -3.416627e+00 -3.338244e+00 -4.732709e-01 -3.116177e+00 -1.800798e+00 5.832429e+00 -2.491998e+00 3.074536e+00 -8.641312e+00 6.502996e+01 -7.599865e-01 2.874709e-01 -7.696328e-01 1.900459e-01 -1.223309e-01 3.337112e-01 4.409471e-01 -3.068652e-01 8.775586e-01 -3.584692e-01 2.321903e-01 3.100460e-01 7.566533e-02 5.760104e-02 -1.156166e-01 1.321724e-01 -2.274738e-01 -9.768897e-02 -3.411436e-02 7.374553e-03 -2.018921e-01 -2.333065e-01 7.415939e-02 -1.271717e-01 2.166556e-02 -8.880201e-03
<VARIANCE> 39
 2.092469e+01 5.178062e+01 5.019865e+01 9.410310e+01 1.626922e+01 4.478106e+01 1.772949e+01 3.751144e+01 2.603981e+01 2.868243e+01 4.223048e+01 2.250378e+01 1.673909e+00 6.253162e-01 1.154326e+00 1.910910e+00 1.640180e+00 2.017106e+00 3.480442e+00 1.119376e+00 3.229323e+00 2.988437e+00 2.643346e+00 4.064308e+00 1.619521e+00 1.010203e-01 8.729849e-02 1.484997e-01 3.667502e-01 2.830139e-01 2.904472e-01 6.217899e-01 1.302433e-01 5.037485e-01 4.832321e-01 4.993658e-01 7.421601e-01 3.124207e-01 1.740858e-02
<GCONST> 1.019329e+02
<STATE> 3
<MEAN> 39
 -1.191615e+01 4.549034e+00 1.806075e+00 3.224922e+00 -4.625710e+00 -3.445540e+00 -3.874042e+00 -6.728218e+00 4.833988e+00 -6.483463e+00 2.879763e+00 -5.060862e+00 6.658000e+01 7.165318e-01 -1.167899e+00 1.391341e+00 -1.036074e+00 -8.335612e-01 -1.273663e+00 -7.531290e-01 -3.167190e-01 -5.745903e-01 4.411622e-02 -6.101148e-01 4.750560e-01 6.672401e-01 5.471929e-01 -4.791808e-01 4.551240e-01 -2.666656e-01 -1.364661e-01 -1.360820e-01 -5.004812e-01 2.458091e-01 -3.168958e-01 -7.246626e-02 7.746533e-02 -8.374684e-02 1.571209e-01
<VARIANCE> 39
 1.809262e+01 1.521175e+01 4.381702e+01 1.931930e+01 7.811656e+00 3.645041e+01 1.672216e+01 1.863786e+01 1.323371e+01 1.696611e+01 1.474656e+01 1.283017e+01 5.774676e+00 1.523881e+00 1.262665e+00 1.766866e+00 1.893026e+00 1.153020e+00 2.279989e+00 2.250087e+00 2.273046e+00 2.273774e+00 1.326243e+00 1.070718e+00 9.379997e-01 3.261480e-01 9.614744e-02 1.219906e-01 1.162664e-01 2.532908e-01 3.237988e-01 5.075752e-01 2.730671e-01 3.737979e-01 2.107671e-01 4.292691e-01 3.321998e-01 1.858232e-01 2.125732e-02
<GCONST> 9.119060e+01
<STATE> 4
<MEAN> 39
 -3.820763e+00 -4.931966e+00 1.227190e+01 -3.674956e+00 -1.191440e+01 -8.752292e+00 -1.278198e+01 -4.668790e+00 5.060651e-01 -1.091343e+01 3.744430e+00 -4.198793e+00 7.104745e+01 1.036404e+00 -1.651030e+00 9.069291e-01 -1.123536e+00 -1.495464e+00 -5.222430e-01 -1.458811e+00 9.653090e-01 -1.051298e-01 -1.033934e+00 7.165614e-01 4.766143e-02 5.363113e-01 -1.459540e-01 2.191848e-01 -6.055746e-01 2.655957e-01 3.393341e-01 -8.557197e-02 1.271991e-01 -1.110974e-02 3.390519e-01 2.759262e-01 -1.932292e-01 -1.736270e-02 -1.379398e-01
<VARIANCE> 39
 3.032682e+01 1.249614e+01 6.678006e+01 1.204872e+01 3.136440e+01 2.330383e+01 1.776050e+01 1.210851e+01 9.571582e+00 2.551952e+01 7.158545e+00 9.449119e+00 1.197792e+01 6.527016e-01 6.794666e-01 2.616360e+00 9.043999e-01 2.311405e+00 7.429926e-01 1.421754e+00 9.608409e-01 1.150857e+00 1.758747e+00 7.445785e-01 7.487780e-01 1.986808e-01 1.763161e-01 1.122342e-01 4.661894e-01 2.008932e-01 6.363292e-01 3.023306e-01 2.006814e-01 3.813089e-01 2.445741e-01 5.366570e-01 3.295781e-01 2.881407e-01 4.224899e-02
<GCONST> 8.981319e+01
<TRANSP> 5
 0.000000e+00 1.000000e+00 0.000000e+00 0.000000e+00 0.000000e+00
 0.000000e+00 7.162178e-01 2.837822e-01 0.000000e+00 0.000000e+00
 0.000000e+00 0.000000e+00 6.981457e-01 3.018543e-01 0.000000e+00
 0.000000e+00 0.000000e+00 0.000000e+00 7.015000e-01 2.985000e-01
 0.000000e+00 0.000000e+00 0.000000e+00 0.000000e+00 0.000000e+00
<ENDHMM>
~h "T"
<BEGINHMM>
<NUMSTATES> 5
<STATE> 2
<MEAN> 39
 -8.414055e+00 -7.825730e+00 -3.700761e-01 -6.504014e+00 -5.068789e+00 -9.523041e+00 -4.956063e+00 -9.537888e-01 4.559832e-01 -4.165193e-01 2.364470e+00 -4.034111e+00 6.440346e+01 3.303297e-02 -2.211587e-03 -1.255282e-01 2.168857e-02 6.064199e-02 -2.032371e-02 3.318885e-02 1.883770e-02 -7.298407e-02 -6.688829e-02 -1.045208e-01 2.969162e-03 -5.541467e-02 -2.530516e-02 4.891734e-02 -6.662005e-03 4.774674e-02 6.784386e-02 4.006707e-02 2.473622e-02 -3.062108e-02 1.669890e-02 -6.444686e-02 -3.542490e-02 -2.655991e-02 1.064928e-02
<VARIANCE> 39
 7.752644e+00 1.385215e+01 1.163431e+01 1.642599e+01 8.197360e+00 2.025504e+01 2.957105e+01 2.037799e+01 2.630880e+01 1.870947e+01 1.562790e+01 1.328118e+01 1.484629e+01 5.116663e-01 8.248970e-01 7.005544e-01 9.621539e-01 9.556344e-01 1.448341e+00 2.278638e+00 2.146357e+00 2.934773e+00 1.845012e+00 1.538088e+00 1.391565e+00 6.597435e-01 6.939561e-02 1.229201e-01 1.261940e-01 1.764968e-01 1.585686e-01 2.662251e-01 4.147366e-01 4.048578e-01 6.401081e-01 3.180669e-01 2.912261e-01 3.064416e-01 1.072236e-01
<GCONST> 9.028291e+01
<STATE> 3
<MEAN> 39
 -1.193060e+01 -2.232714e+00 -1.713037e+00 -4.134059e+00 -1.022587e+00 -6.005985e+00 -2.784436e+00 -1.820960e+00 1.909972e+00 -5.239584e+00 1.004326e+00 -5.857007e+00 6.192064e+01 -6.452973e-01 1.761003e-01 1.032447e-01 2.999310e-02 -9.632512e-02 4.334668e-01 -2.736840e-01 1.490945e-01 5.193377e-01 7.616685e-03 3.472266e-01 -7.993329e-02 5.871536e-01 -2.914086e-02 -1.992973e-01 1.098046e-01 -1.190744e-01 -2.234740e-01 6.478867e-02 -3.399936e-02 2.969565e-02 4.076361e-03 1.446847e-01 8.916727e-02 7.415758e-03 7.994333e-02
<VARIANCE> 39
 1.621602e+01 7.906745e+00 1.850363e+01 1.546189e+01 7.217698e+00 1.780984e+01 2.285454e+01 2.221153e+01 2.383492e+01 1.812894e+01 9.723268e+00 9.131948e+00 1.144085e+01 4.367886e-01 7.021427e-01 1.754038e+00 1.850042e+00 1.280897e+00 1.992284e+00 2.410528e+00 2.407762e+00 1.731318e+00 1.859580e+00 1.195144e+00 1.723171e+00 1.926974e-01 6.712543e-02 1.159954e-01 2.165180e-01 3.556083e-01 2.268073e-01 3.502153e-01 4.457522e-01 6.460401e-01 3.283674e-01 3.604124e-01 2.879485e-01 3.115564e-01 1.680771e-02
<GCONST> 8.937274e+01
<STATE> 4
<MEAN> 39
 -1.280361e+01 -6.627350e+00 2.292185e+00 -2.846287e+00 -6.090664e+00 -3.502077e+00 -7.340838e+00 -4.312055e+00 2.834668e+00 -1.344518e+00 3.092828e+00 -7.722220e+00 6.803715e+01 1.689749e+00 -8.213528e-01 2.398649e-01 2.627497e-01 -5.855892e-01 -9.894292e-01 -8.838373e-01 -9.398133e-01 -8.071599e-02 6.216555e-01 -2.097106e-01 -5.095732e-03 7.076430e-01 1.975018e-01 -7.561994e-02 6.472004e-02 -5.291798e-02 -9.280370e-02 -2.254265e-01 -1.514676e-01 6.878560e-02 1.226633e-01 -1.405206e-01 -2.984327e-02 2.027527e-01 3.981471e-02
<VARIANCE> 39
 6.414616e+01 1.340518e+01 1.955774e+01 1.399051e+01 1.769028e+01 3.062376e+01 2.685500e+01 2.895748e+01 1.915642e+01 1.988222e+01 1.344022e+01 1.534585e+01 8.549173e+00 6.552138e+00 1.550627e+00 1.778749e+00 1.461653e+00 2.825371e+00 3.747848e+00 3.450977e+00 2.593776e+00 2.257189e+00 2.010251e+00 1.315981e+00 1.929770e+00 7.791444e-01 1.266310e+00 3.043270e-01 4.369210e-01 2.838182e-01 6.549614e-01 6.011559e-01 7.454158e-01 5.073792e-01 4.266764e-01 5.928022e-01 3.098898e-01 2.827283e-01 1.634179e-01
<GCONST> 1.098683e+02
<TRANSP> 5
 0.000000e+00 1.000000e+00 0.000000e+00 0.000000e+00 0.000000e+00
 0.000000e+00 9.519119e-01 4.808808e-02 0.000000e+00 0.000000e+00
 0.000000e+00 0.000000e+00 8.983299e-01 1.016702e-01 0.000000e+00
 0.000000e+00 0.000000e+00 0.000000e+00 9.025170e-01 9.748299e-02
 0.000000e+00 0.000000e+00 0.000000e+00 0.000000e+00 0.000000e+00
<ENDHMM>
~h "e"
<BEGINHMM>
<NUMSTATES> 5
<STATE> 2
<MEAN> 39
 -3.171986e+00 -5.682246e+00 3.254611e+00 -5.067204e+00 -7.801848e+00 -8.516769e+00 -1.148618e+01 -1.916856e+00 2.254956e+00 -3.351999e+00 6.013235e-01 -9.680176e+00 6.849160e+01 2.675116e+00 -1.934362e+00 1.942504e+00 -1.553676e+00 -2.419201e+00 -1.430574e+00 -2.530958e+00 1.284885e+00 6.922289e-01 -6.156132e-01 1.344974e+00 -1.832024e+00 2.700392e+00 -4.215516e-01 -3.460154e-01 -9.519972e-02 -3.099140e-01 -7.909561e-01 4.994660e-01 1.785029e-01 3.961318e-01 4.058026e-01 -3.275778e-01 7.465230e-01 3.853323e-02 3.406852e-01
<VARIANCE> 39
 1.173502e+01 1.598900e+01 1.333078e+01 1.631382e+01 2.033712e+01 2.501425e+01 4.977021e+01 1.615012e+01 1.480900e+01 8.589790e+00 2.039515e+01 1.956614e+01 2.862689e+01 2.276991e+00 9.360682e-01 8.780376e-01 1.826844e+00 2.145308e+00 3.466733e+00 2.255327e+00 2.943709e+00 1.830448e+00 2.417711e+00 1.896769e+00 1.638373e+00 7.246900e-01 4.219206e-01 2.109209e-01 2.445358e-01 1.732200e-01 5.361243e-01 4.074459e-01 3.961056e-01 3.283000e-01 3.048789e-01 1.921986e-01 3.408750e-01 5.803076e-01 4.161475e-01
<GCONST> 1.023561e+02
<STATE> 3
<MEAN> 39
 -3.316285e-01 -1.161608e+01 6.010658e+00 -9.834497e+00 -1.652218e+01 -7.471315e+00 -1.416148e+01 4.175304e+00 7.623734e+00 -7.197589e+00 6.601668e+00 -1.397477e+01 7.576742e+01 6.640103e-01 -1.391213e+00 8.953609e-01 -1.446882e+00 -3.084802e+00 -1.133647e-01 -5.033522e-01 1.385460e+00 1.484268e+00 -1.186364e+00 1.699127e+00 -4.654158e-01 1.883716e+00 -6.550658e-01 6.019067e-01 -3.387421e-01 3.816605e-01 5.606503e-01 2.713312e-01 6.876109e-01 -4.577954e-01 -3.508231e-01 1.010442e-01 -2.113910e-01 6.418610e-01 -7.805824e-01
<VARIANCE> 39
 2.924414e+00 5.214286e+00 5.817656e+00 5.670018e+00 2.014577e+01 2.261249e+01 3.581835e+01 1.511390e+01 7.602781e+00 2.024369e+01 1.724683e+01 1.164956e+01 6.270939e+00 6.204688e-01 1.301702e+00 7.011974e-01 1.351519e+00 2.664625e+00 1.267638e+00 1.824285e+00 1.633801e+00 1.205877e+00 1.747149e+00 1.946859e+00 2.268255e+00 2.186132e+00 1.712844e-01 1.063935e-01 1.488732e-01 3.023159e-01 5.689546e-01 4.572263e-01 3.641301e-01 3.754329e-01 2.572983e-01 3.411006e-01 2.842519e-01 2.346045e-01 1.242804e-01
<GCONST> 8.987457e+01
<STATE> 4
<MEAN> 39
 4.898927e-01 -1.041134e+01 6.410602e+00 -8.450543e+00 -1.097015e+01 -9.066695e+00 -1.823342e+01 1.033801e+00 6.467043e+00 -4.670365e+00 7.534578e+00 -1.133690e+01 7.366905e+01 -4.118214e-02 1.021920e-01 -1.408724e-02 8.957202e-02 6.246232e-01 3.716723e-01 7.783210e-02 1.317824e-01 -1.767373e-02 1.569238e-01 -2.089300e-01 -1.966597e-01 -1.824192e-01 -7.586163e-02 1.723730e-01 1.735404e-02 1.777323e-01 2.447896e-01 1.083614e-01 1.015115e-01 -8.944314e-02 -1.097809e-01 9.976766e-02 -2.432547e-01 -6.599157e-03 -1.298912e-01
<VARIANCE> 39
 2.638513e+00 8.506530e+00 4.456656e+00 1.998907e+01 4.158265e+01 1.374662e+01 1.788315e+01 1.907195e+01 1.609901e+01 1.232003e+01 1.092532e+01 1.469237e+01 7.766709e+00 2.181765e-01 9.044338e-01 4.705772e-01 2.852927e+00 3.444013e+00 9.013289e-01 1.114986e+00 2.350352e+00 1.794393e+00 1.041484e+00 1.581514e+00 1.457988e+00 9.220519e-01 4.844288e-02 2.359371e-01 8.798327e-02 6.281337e-01 7.650741e-01 1.547529e-01 2.141767e-01 4.675763e-01 3.897532e-01 2.091553e-01 3.099731e-01 2.885087e-01 2.228960e-01
<GCONST> 8.779974e+01
<TRANSP> 5
 0.000000e+00 1.000000e+00 0.000000e+00 0.000000e+00 0.000000e+00
 0.000000e+00 5.102988e-01 4.897011e-01 0.000000e+00 0.000000e+00
 0.000000e+00 0.000000e+00 5.593156e-01 4.406844e-01 0.000000e+00
 0.000000e+00 0.000000e+00 0.000000e+00 8.710008e-01 1.289992e-01
 0.000000e+00 0.000000e+00 0.000000e+00 0.000000e+00 0.000000e+00
<ENDHMM>
~h "f"
<BEGINHMM>
<NUMSTATES> 5
<STATE> 2
<MEAN> 39
 -1.000236e+01 -5.691302e+00 -8.027501e-01 -5.471622e+00 -1.151467e+00 -2.727811e+00 -4.044027e+00 -1.949491e-01 2.535064e+00 -1.848503e+00 1.114669e+00 -4.289070e+00 6.151345e+01 -2.278801e-01 -2.613718e-02 -7.777423e-02 1.410337e-01 -2.290687e-01 1.625392e-02 -1.586528e-01 1.056719e-01 1.997431e-01 1.055393e-01 5.732936e-02 -8.896077e-02 1.970958e-01 -1.759249e-03 9.316991e-03 3.635668e-02 2.122945e-02 -1.723715e-02 -4.599746e-02 -2.340740e-02 -5.885272e-03 1.967958e-02 1.171973e-02 9.164995e-03 2.410247e-02 3.971516e-03
<VARIANCE> 39
 7.840905e+00 1.154200e+01 1.165942e+01 1.442027e+01 1.911816e+01 1.492513e+01 1.951712e+01 2.093450e+01 2.196871e+01 2.046800e+01 1.884275e+01 2.114304e+01 7.225042e+00 4.579670e-01 6.590124e-01 1.068652e+00 1.342625e+00 1.447703e+00 1.341990e+00 1.580914e+00 1.898918e+00 1.579294e+00 1.903511e+00 1.400750e+00 1.702649e+00 4.154519e-01 7.165476e-02 1.106016e-01 1.848005e-01 2.659395e-01 2.673224e-01 2.241940e-01 2.922883e-01 3.402935e-01 2.888496e-01 3.983167e-01 2.586010e-01 3.236239e-01 5.892880e-02
<GCONST> 8.861748e+01
<STATE> 3
<MEAN> 39
 -1.056974e+01 -8.096257e+00 -1.549424e+00 -3.813957e+00 -5.591669e+00 -3.832799e+00 -6.677977e+00 4.003767e-01 7.264992e+00 1.151390e-01 2.013656e+00 -6.172776e+00 6.621854e+01 4.754958e-01 -3.553003e-02 2.868309e-01 -1.073440e-01 3.870089e-01 3.340912e-01 -2.043198e-01 -5.675758e-01 -5.074244e-01 -6.397793e-02 1.384804e-01 -7.316698e-02 2.264063e-01 6.093411e-01 8.958697e-02 3.326095e-02 -4.091040e-01 3.065945e-02 1.797109e-01 1.172429e-01 -1.810076e-01 -3.325583e-01 -1.269535e-01 4.639591e-02 -1.043807e-01 1.031375e-01
<VARIANCE> 39
 1.727095e+01 1.383512e+01 1.085823e+01 9.451187e+00 2.841342e+01 2.081209e+01 1.539816e+01 2.692952e+01 3.394218e+01 2.619318e+01 2.578732e+01 2.345841e+01 4.369856e+00 1.614729e+00 6.757441e-01 7.018246e-01 7.815974e-01 1.447263e+00 1.357920e+00 1.359293e+00 1.686210e+00 2.278348e+00 2.141659e+00 2.657349e+00 1.681631e+00 2.376389e-01 2.623864e-01 1.614327e-01 1.381195e-01 3.219876e-01 3.759842e-01 2.463047e-01 2.613501e-01 3.964771e-01 3.317807e-01 4.279520e-01 6.243320e-01 4.724139e-01 1.089924e-01
<GCONST> 9.519092e+01
<STATE> 4
<MEAN> 39
 -2.038932e+00 -5.269113e+00 -2.974826e-03 -9.815957e+00 -4.560509e+00 -1.489121e-01 -5.877538e+00 -4.896994e+00 5.980994e-01 -1.633704e+00 3.824642e+00 -7.808554e+00 6.848789e+01 3.436420e+00 -2.625498e-01 -5.274872e-01 -3.720879e+00 -1.737162e+00 1.628959e+00 3.258882e-01 -1.304873e+00 -5.003682e-01 -1.528037e-01 1.937462e+00 -1.410456e+00 2.216825e+00 -4.298131e-01 -3.410542e-01 -2.687807e-01 -2.529873e-01 -5.959989e-01 2.166434e-01 1.523408e-02 1.647398e-01 7.764162e-01 1.592616e-02 3.357233e-01 -2.766635e-01 2.110299e-01
<VARIANCE> 39
 3.412828e+01 1.899320e+01 8.751062e+00 4.489924e+01 2.179004e+01 2.371974e+01 1.398749e+01 2.029905e+01 2.451105e+01 1.621367e+01 2.654171e+01 4.488522e+01 2.057022e+01 1.267020e+00 2.604158e+00 1.374795e+00 1.549233e+00 3.449684e+00 1.872095e+00 1.291596e+00 1.995235e+00 3.713944e+00 3.370867e+00 2.559337e+00 7.887448e+00 8.690950e-01 6.502548e-01 1.685360e-01 1.744941e-01 7.682321e-01 4.201428e-01 3.993208e-01 2.314901e-01 3.070541e-01 3.549434e-01 4.027818e-01 5.930641e-01 5.400642e-01 3.193026e-01
<GCONST> 1.093920e+02
<TRANSP> 5
 0.000000e+00 1.000000e+00 0.000000e+00 0.000000e+00 0.000000e+00
 0.000000e+00 9.224659e-01 7.753411e-02 0.000000e+00 0.000000e+00
 0.000000e+00 0.000000e+00 8.111144e-01 1.888856e-01 0.000000e+00
 0.000000e+00 0.000000e+00 0.000000e+00 6.992016e-01 3.007984e-01
 0.000000e+00 0.000000e+00 0.000000e+00 0.000000e+00 0.000000e+00
<ENDHMM>
~h "i"
<BEGINHMM>
<NUMSTATES> 5
<STATE> 2
<MEAN> 39
 -6.189163e+00 -5.967970e+00 1.268085e+01 -6.964671e+00 -1.356094e+01 -9.313959e+00 -1.214731e+01 -3.245156e+00 -8.071263e-01 -9.606490e+00 9.867744e+00 -1.003292e+00 7.052689e+01 -4.490277e-01 5.295171e-01 1.805462e-01 -5.628858e-01 7.774264e-02 4.988828e-01 3.408021e-01 1.569767e-01 -7.577377e-01 -1.759782e-01 7.952107e-01 -3.742503e-01 -3.290164e-01 5.774298e-02 1.022896e-01 -3.477527e-01 1.628815e-01 1.387565e-01 2.851659e-02 1.779327e-01 -2.777109e-01 1.553341e-01 3.408414e-01 -2.780541e-01 -1.943325e-01 -5.136121e-02
<VARIANCE> 39
 3.093121e+01 8.252984e+01 1.144331e+02 2.058949e+01 5.362555e+01 2.241065e+01 6.792725e+01 2.812625e+01 5.518310e+01 4.640480e+01 1.861955e+01 1.313389e+01 2.200011e+01 8.669522e-01 2.444604e+00 6.668974e+00 2.279887e+00 3.819288e+00 2.364675e+00 3.640828e+00 3.551231e+00 4.679517e+00 4.596910e+00 3.039609e+00 1.161471e+00 4.725496e-01 7.233293e-02 3.326254e-01 6.129520e-01 3.630076e-01 7.047764e-01 4.943878e-01 6.788356e-01 9.020735e-01 6.576770e-01 8.734760e-01 4.049196e-01 2.518173e-01 4.578165e-02
<GCONST> 1.174894e+02
<STATE> 3
<MEAN> 39
 -4.652709e+00 -5.096795e+00 2.170007e+01 -6.785173e+00 -1.552065e+01 -3.436551e+00 -1.753148e+01 -2.970468e+00 -2.954637e+00 -1.413914e+01 1.301129e+01 -7.704537e+00 7.036996e+01 -7.962207e-02 6.468356e-01 -3.020613e-01 4.347731e-01 1.184380e+00 5.541569e-01 5.567887e-01 4.163268e-02 4.092574e-01 4.155406e-01 -6.415944e-01 -7.696398e-02 -6.874086e-01 6.224408e-02 -5.597378e-02 -2.060419e-01 4.339648e-02 1.442627e-01 -4.169323e-02 1.544322e-01 1.485207e-01 1.445219e-01 1.788478e-01 -1.700489e-01 7.247204e-02 -5.575999e-02
<VARIANCE> 39
 2.189766e+00 1.601801e+01 2.395784e+01 6.181687e+00 4.611465e+01 1.245422e+01 1.517698e+01 2.037436e+01 1.360371e+01 1.542797e+01 1.130173e+01 2.006912e+01 1.288822e+01 2.229350e-01 4.738120e-01 1.537210e+00 3.363103e-01 2.173206e+00 1.749741e+00 2.070363e+00 2.841902e+00 1.103685e+00 1.737971e+00 1.327560e+00 1.527729e+00 2.563369e-01 3.395529e-02 7.442122e-02 2.046891e-01 8.676589e-02 2.026889e-01 2.886012e-01 3.630297e-01 5.042617e-01 1.882787e-01 1.636337e-01 1.917659e-01 2.676454e-01 2.442085e-02
<GCONST> 8.113425e+01
<STATE> 4
<MEAN> 39
 -5.493930e+00 -8.139049e+00 5.052108e+00 -4.899684e+00 -6.081500e+00 -5.680822e+00 -6.728900e+00 3.190728e+00 6.405335e+00 -5.817946e+00 1.043878e+00 -4.520162e+00 6.441573e+01 3.546974e-02 3.524704e-02 -6.163356e-01 3.380641e-01 3.083090e-01 -5.660674e-02 1.210638e+00 2.569464e-01 4.344284e-02 3.478870e-01 -3.986030e-01 -1.529168e-01 -3.651882e-01 -6.482531e-02 -5.431071e-02 7.726765e-02 -8.598653e-02 -1.772612e-01 1.429815e-03 -1.393279e-01 -2.545142e-01 -3.240467e-02 -5.129335e-02 1.793364e-01 4.102867e-02 6.593579e-02
<VARIANCE> 39
 2.652801e+00 3.722876e+01 3.798111e+01 1.815782e+01 3.009115e+01 2.026827e+01 5.393231e+01 1.285200e+01 7.035898e+01 2.229034e+01 1.327352e+01 2.163051e+01 5.341700e+00 2.211729e-01 9.863273e-01 2.592623e+00 1.760809e+00 1.047266e+00 9.459375e-01 3.415964e+00 2.568421e+00 4.983134e+00 3.288076e+00 1.982644e+00 2.762166e+00 1.998961e-01 4.312141e-02 1.010116e-01 1.605904e-01 2.658578e-01 2.137678e-01 2.308183e-01 5.551493e-01 3.582568e-01 7.602443e-01 4.415880e-01 2.416321e-01 5.391636e-01 2.152089e-02
<GCONST> 9.531661e+01
<TRANSP> 5
 0.000000e+00 1.000000e+00 0.000000e+00 0.000000e+00 0.000000e+00
 0.000000e+00 8.940551e-01 1.059449e-01 0.000000e+00 0.000000e+00
 0.000000e+00 0.000000e+00 8.948473e-01 1.051527e-01 0.000000e+00
 0.000000e+00 0.000000e+00 0.000000e+00 8.922279e-01 1.077721e-01
 0.000000e+00 0.000000e+00 0.000000e+00 0.000000e+00 0.000000e+00
<ENDHMM>
~h "k"
<BEGINHMM>
<NUMSTATES> 5
<STATE> 2
<MEAN> 39
 -1.037345e+01 -2.338874e+00 8.873857e-01 -2.797837e+00 -8.708218e+00 -3.123350e+00 -1.094215e+01 -4.679755e+00 -1.151497e-01 -5.314951e+00 2.849725e+00 -5.655174e+00 6.659589e+01 2.977628e+00 -9.044406e-01 3.296607e+00 -6.341639e-01 -2.122941e+00 -2.469517e+00 -2.422247e+00 -1.993228e-01 -8.729716e-01 -1.427326e+00 1.473013e-01 -1.192537e+00 1.833921e+00 1.442095e-01 -2.864322e-01 4.260772e-01 -6.834695e-02 -5.061688e-01 -3.423838e-02 -2.228459e-01 2.397012e-01 2.199216e-01 -4.471145e-01 5.339385e-01 -1.643600e-01 2.541597e-01
<VARIANCE> 39
 4.894915e+01 1.232894e+01 5.099564e+01 7.232130e+00 2.416187e+01 4.155886e+01 4.888003e+01 1.938103e+01 1.775013e+01 2.146637e+01 9.527378e+00 2.099667e+01 1.670741e+01 1.666690e+00 1.748388e+00 4.558335e+00 7.201313e-01 3.648605e+00 2.091223e+00 3.189312e+00 2.654152e+00 1.645519e+00 3.749528e+00 2.456116e+00 1.943856e+00 8.953329e-01 8.780698e-01 2.526570e-01 7.966872e-01 2.050055e-01 4.625797e-01 1.092730e+00 1.044621e+00 5.479426e-01 3.603915e-01 4.258610e-01 4.879616e-01 3.972720e-01 2.115489e-01
<GCONST> 1.118855e+02
<STATE> 3
<MEAN> 39
 -2.994233e+00 -6.805476e+00 1.110515e+01 -1.705860e+00 -1.448399e+01 -9.133658e+00 -1.250165e+01 -1.539223e+00 -2.179111e+00 -1.039095e+01 9.271939e+00 -7.738447e+00 6.886683e+01 -4.699402e-01 -1.657899e-01 -1.056779e+00 6.625402e-01 9.600902e-01 -1.739810e-01 7.938983e-01 4.281317e-01 2.411394e-01 2.645662e-01 -2.637085e-01 6.418822e-01 -7.366530e-01 -3.174677e-01 1.884972e-01 -3.998850e-01 6.825352e-02 2.768492e-01 1.145021e-01 1.218161e-01 -6.436258e-02 1.080135e-01 2.117878e-01 -2.654816e-01 1.455054e-01 -1.559035e-01
<VARIANCE> 39
 4.120684e+00 1.570441e+01 8.490359e+01 2.163931e+01 5.569764e+01 1.977947e+01 3.808766e+01 1.925681e+01 3.005251e+01 3.067131e+01 3.641217e+01 2.516156e+01 3.108590e+01 5.150259e-01 2.577089e+00 7.784141e+00 2.310896e+00 5.158041e+00 1.863869e+00 2.761297e+00 1.392786e+00 4.886163e+00 3.606990e+00 6.416955e+00 3.154494e+00 2.926092e+00 1.415271e-01 6.515426e-01 1.257408e+00 5.969371e-01 1.056088e+00 5.129312e-01 8.014929e-01 2.754233e-01 9.486722e-01 7.951233e-01 9.245223e-01 5.767627e-01 7.073730e-01
<GCONST> 1.217313e+02
<STATE> 4
<MEAN> 39
 -1.141775e+01 -4.187629e+00 -6.995643e-01 8.580939e-02 -7.814355e+00 -6.002316e+00 -9.097264e+00 -1.452566e-02 3.942683e+00 -4.399694e+00 3.669072e+00 -3.414262e+00 6.472600e+01 -3.303951e-01 2.289517e-01 -6.119183e-02 -2.032854e-01 -3.376245e-02 5.471694e-01 3.270448e-01 -1.234759e-02 1.401948e-01 1.567147e-01 8.353566e-02 -1.425244e-01 -5.446403e-02 9.575412e-02 1.008544e-02 2.880172e-02 -3.550705e-02 3.863478e-02 3.844711e-02 9.643666e-02 -1.840644e-02 -3.976917e-02 1.237406e-02 2.443229e-02 -8.244405e-02 -1.465078e-02
<VARIANCE> 39
 2.152607e+01 2.112531e+01 1.076153e+01 1.893123e+01 1.228443e+01 2.219048e+01 1.811794e+01 1.492586e+01 2.361992e+01 2.273406e+01 9.680563e+00 1.591194e+01 4.370584e+00 1.079321e+00 1.252039e+00 1.694041e+00 1.612917e+00 1.763733e+00 2.430407e+00 2.198516e+00 1.472274e+00 2.185681e+00 2.063767e+00 1.385001e+00 1.468482e+00 2.186541e-01 1.205713e-01 1.639897e-01 3.259881e-01 3.302358e-01 3.302000e-01 4.731250e-01 4.240518e-01 2.643381e-01 3.849848e-01 4.177707e-01 3.148154e-01 2.591457e-01 3.581854e-02
<GCONST> 9.389225e+01
<TRANSP> 5
 0.000000e+00 1.000000e+00 0.000000e+00 0.000000e+00 0.000000e+00
 0.000000e+00 7.909098e-01 2.090902e-01 0.000000e+00 0.000000e+00
 0.000000e+00 0.000000e+00 9.047017e-01 9.529838e-02 0.000000e+00
 0.000000e+00 0.000000e+00 0.000000e+00 9.466361e-01 5.336391e-02
 0.000000e+00 0.000000e+00 0.000000e+00 0.000000e+00 0.000000e+00
<ENDHMM>
~h "n"
<BEGINHMM>
<NUMSTATES> 5
<STATE> 2
<MEAN> 39
 -2.509265e+00 -3.120504e-01 7.735828e+00 -3.945380e-01 2.716038e-01 -4.953839e+00 -6.359798e+00 -3.593917e+00 -1.131281e+00 -4.018899e+00 -2.009478e+00 -8.513882e+00 6.538448e+01 1.251329e-01 1.673805e-01 -3.116967e-01 2.431070e-01 2.894904e-01 -2.088076e-01 -1.274622e-01 -9.715225e-03 1.633222e-01 2.087286e-01 -4.642718e-01 -2.114047e-01 -8.129021e-04 -1.151049e-01 -2.038990e-01 -2.234778e-02 -2.352642e-01 -2.497822e-01 9.762869e-03 5.606170e-02 2.422917e-01 1.130987e-01 9.073732e-02 2.165917e-01 3.746475e-02 4.496920e-02
<VARIANCE> 39
 6.278428e+00 1.469143e+01 1.778345e+01 1.599990e+01 1.259826e+01 1.424640e+01 2.077900e+01 3.370339e+01 3.124681e+01 2.089099e+01 2.080698e+01 1.536767e+01 6.861150e+00 7.423484e-01 1.408574e+00 2.242089e+00 2.137605e+00 2.202938e+00 1.328752e+00 1.994118e+00 2.980062e+00 2.417456e+00 1.783313e+00 2.744215e+00 1.499846e+00 7.288998e-01 6.456367e-02 2.735497e-01 3.737308e-01 3.878468e-01 3.526325e-01 3.294150e-01 2.843851e-01 4.838291e-01 4.544671e-01 3.414063e-01 3.988943e-01 2.374405e-01 1.116371e-01
<GCONST> 9.827980e+01
<STATE> 3
<MEAN> 39
 -6.127908e+00 -1.458458e+00 4.452684e+00 -1.420319e+00 1.671797e+00 -4.908593e+00 -2.009108e+00 1.709638e+00 2.595817e+00 -1.937524e+00 -1.494445e+00 -4.718669e+00 6.302082e+01 -6.517434e-01 -7.691817e-01 -6.625219e-01 -5.813288e-01 -7.071465e-01 -3.704881e-01 1.526189e-01 5.096143e-01 2.215830e-01 5.408614e-01 6.255456e-01 5.556273e-01 -1.427322e-01 4.785299e-02 -2.457202e-01 -1.160330e-01 -2.192920e-01 -2.260113e-01 -9.961440e-02 -2.980243e-01 -1.656342e-01 -1.022989e-02 -2.475261e-01 -1.761504e-01 -2.413414e-01 1.127625e-01
<VARIANCE> 39
 1.017621e+01 2.124959e+01 2.035712e+01 1.018545e+01 2.465054e+01 1.615259e+01 2.325881e+01 3.287325e+01 2.761828e+01 2.863686e+01 1.774354e+01 2.058567e+01 6.041574e+00 4.306443e-01 8.924831e-01 1.015706e+00 1.331541e+00 1.674255e+00 2.165955e+00 1.936511e+00 2.551064e+00 2.105158e+00 1.939635e+00 2.160087e+00 1.913856e+00 5.476680e-01 5.234325e-02 1.911192e-01 1.509702e-01 2.704227e-01 2.371237e-01 4.069769e-01 3.114548e-01 5.140291e-01 4.811523e-01 4.035359e-01 4.112698e-01 3.105646e-01 6.110207e-02
<GCONST> 9.537653e+01
<STATE> 4
<MEAN> 39
 -8.164043e+00 -6.142349e+00 2.384640e+00 -4.841604e+00 -4.009206e+00 -1.002805e+01 -4.027975e+00 1.079071e+00 2.340386e+00 -9.337514e-01 -4.775244e-01 -4.416461e+00 6.291047e+01 -4.159116e-02 -1.950157e-01 -1.869275e-01 -1.358741e-01 -2.255767e-01 2.208385e-03 -1.474311e-01 -1.078790e-01 6.068972e-02 -6.996048e-02 -6.081895e-03 -1.291197e-01 8.636668e-02 2.726673e-02 5.049052e-02 2.869262e-02 3.799758e-02 9.997346e-02 9.600659e-02 3.457484e-02 -3.566791e-02 -9.152117e-03 -3.601029e-02 -2.461502e-02 -1.393693e-02 7.068587e-03
<VARIANCE> 39
 8.499323e+00 1.468855e+01 1.614611e+01 1.563620e+01 2.764780e+01 3.078384e+01 3.295008e+01 2.860777e+01 3.358260e+01 2.736696e+01 2.351275e+01 2.040937e+01 7.132156e+00 4.532562e-01 1.125168e+00 1.211985e+00 1.426749e+00 1.938357e+00 2.256167e+00 2.269310e+00 2.386323e+00 2.985273e+00 2.603150e+00 2.008385e+00 1.617639e+00 4.169399e-01 7.056749e-02 1.581493e-01 1.654731e-01 1.973851e-01 3.161280e-01 3.798611e-01 4.374614e-01 4.186014e-01 4.502402e-01 4.802583e-01 3.931533e-01 3.081201e-01 4.127961e-02
<GCONST> 9.742142e+01
<TRANSP> 5
 0.000000e+00 1.000000e+00 0.000000e+00 0.000000e+00 0.000000e+00
 0.000000e+00 7.906076e-01 2.093924e-01 0.000000e+00 0.000000e+00
 0.000000e+00 0.000000e+00 7.051377e-01 2.948624e-01 0.000000e+00
 0.000000e+00 0.000000e+00 0.000000e+00 8.948223e-01 1.051777e-01
 0.000000e+00 0.000000e+00 0.000000e+00 0.000000e+00 0.000000e+00
<ENDHMM>
~h "o"
<BEGINHMM>
<NUMSTATES> 5
<STATE> 2
<MEAN> 39
 5.356689e+00 -7.932534e+00 -5.058689e+00 -5.488055e+00 -4.124107e+00 -9.526222e+00 -1.659722e+01 -1.022495e+01 6.827973e+00 -8.902178e-01 2.606291e+00 2.728393e+00 7.070453e+01 2.776524e-01 3.692540e-01 -1.061885e+00 -4.626549e-01 6.344584e-01 9.539496e-01 3.251898e-01 -2.605169e-01 2.460252e-01 4.063746e-01 4.698017e-01 5.004274e-01 -2.425384e-01 -9.321336e-02 2.149959e-02 2.649850e-01 -1.094730e-01 -1.331910e-01 4.866849e-02 5.789202e-02 2.109537e-01 -8.579651e-02 -1.990539e-01 1.025320e-01 -2.029478e-02 -1.049407e-02
<VARIANCE> 39
 3.716000e+00 8.021298e+00 2.010291e+01 2.054844e+01 6.935007e+00 2.364058e+01 5.610656e+00 7.311618e+00 1.345844e+01 1.099551e+01 1.473254e+01 1.791296e+01 1.804859e+00 2.509375e-01 5.222463e-01 1.728842e+00 1.301266e+00 7.901685e-01 8.170397e-01 8.581281e-01 1.701975e+00 1.341393e+00 2.824039e+00 8.343388e-01 1.474805e+00 3.657949e-02 3.025678e-02 1.095930e-01 1.306633e-01 2.682250e-01 9.034439e-02 2.521913e-01 1.655956e-01 2.183239e-01 3.188766e-01 5.653147e-01 2.256555e-01 2.682402e-01 7.060726e-03
<GCONST> 7.239040e+01
<STATE> 3
<MEAN> 39
 1.636278e+00 -3.572283e+00 -4.441268e+00 -8.678803e+00 -1.300027e+00 -5.245405e+00 -9.300819e+00 -7.208370e+00 4.794034e+00 2.169553e+00 6.176970e+00 2.447045e+00 6.537731e+01 -9.178271e-01 3.877669e-01 6.321554e-01 2.819318e-01 8.578350e-02 -1.243211e-01 7.393407e-01 4.844233e-01 -5.308711e-01 2.469676e-01 -2.586603e-01 -4.959061e-01 -5.090637e-01 -7.803230e-02 9.874282e-03 5.285657e-02 3.949507e-02 -1.800714e-02 -2.495039e-02 -3.085607e-02 6.196913e-02 6.053288e-02 -8.274491e-02 -1.050376e-01 -7.263301e-02 1.803532e-02
<VARIANCE> 39
 1.125538e+01 8.959073e+00 1.106338e+01 9.231317e+00 1.421576e+01 8.515410e+00 2.464632e+01 1.313626e+01 1.491992e+01 9.835397e+00 1.167879e+01 2.122701e+01 8.721860e+00 6.159402e-01 8.174171e-01 6.079694e-01 1.128922e+00 8.649657e-01 9.488360e-01 1.892071e+00 1.073858e+00 1.681493e+00 1.191574e+00 1.237126e+00 1.197141e+00 1.686408e-01 1.043138e-01 1.283092e-01 1.109613e-01 2.102969e-01 1.454930e-01 1.767349e-01 3.264255e-01 1.909481e-01 3.334950e-01 1.615246e-01 2.371296e-01 1.661180e-01 2.503612e-02
<GCONST> 7.856686e+01
<STATE> 4
<MEAN> 39
 -7.344575e+00 -5.139424e+00 -3.293774e-01 -6.748900e+00 -2.490862e+00 -7.951603e+00 -4.110600e+00 -1.222992e-01 2.731406e+00 -1.965118e-01 -7.399130e-01 -4.489066e+00 6.177418e+01 -1.063705e-01 -7.729696e-02 -3.574841e-02 -6.510396e-02 1.167169e-02 -8.621899e-02 3.122677e-02 9.733518e-03 -5.658761e-02 -1.605938e-01 -1.553713e-01 -2.092495e-01 -3.884983e-02 5.972709e-02 -6.134647e-03 3.742888e-03 -3.820352e-03 8.697093e-03 -4.896543e-04 -3.745252e-02 -5.918343e-02 -1.993452e-02 -2.765338e-02 8.395071e-03 2.913392e-02 1.446846e-02
<VARIANCE> 39
 5.668874e+00 1.211414e+01 2.015199e+01 1.839596e+01 1.422713e+01 2.765870e+01 3.335691e+01 1.856766e+01 2.588198e+01 2.156801e+01 2.161659e+01 3.514809e+01 5.936812e+00 5.095493e-01 1.014333e+00 1.296324e+00 1.338122e+00 1.189344e+00 2.122706e+00 2.609774e+00 2.204368e+00 2.047832e+00 1.844114e+00 2.119230e+00 1.886425e+00 3.783843e-01 8.870853e-02 1.988406e-01 2.176102e-01 2.641669e-01 2.057868e-01 4.029002e-01 5.072016e-01 4.268078e-01 4.054390e-01 3.835642e-01 4.213009e-01 3.478693e-01 6.622251e-02
<GCONST> 9.586378e+01
<TRANSP> 5
 0.000000e+00 1.000000e+00 0.000000e+00 0.000000e+00 0.000000e+00
 0.000000e+00 9.253322e-01 7.466776e-02 0.000000e+00 0.000000e+00
 0.000000e+00 0.000000e+00 9.098815e-01 9.011854e-02 0.000000e+00
 0.000000e+00 0.000000e+00 0.000000e+00 9.628431e-01 3.715694e-02
 0.000000e+00 0.000000e+00 0.000000e+00 0.000000e+00 0.000000e+00
<ENDHMM>
~h "r"
<BEGINHMM>
<NUMSTATES> 5
<STATE> 2
<MEAN> 39
 -3.528076e+00 -4.117399e+00 -3.640920e-01 -4.756469e+00 -2.244076e+00 -4.549828e+00 -3.368765e+00 3.002250e-01 4.304046e+00 2.156875e-01 4.307847e+00 -1.421006e+00 6.464325e+01 -8.119341e-01 -8.970170e-02 8.751090e-01 8.274511e-01 3.468509e-01 -6.860632e-02 4.302149e-01 4.587622e-01 1.877794e-02 2.858450e-01 -3.421453e-01 -2.756537e-01 -4.032966e-01 -2.906620e-02 -6.210007e-02 -7.766828e-02 -5.528167e-02 -6.141390e-02 2.191686e-02 1.737805e-03 -5.124182e-03 1.451686e-01 -8.644983e-02 -1.890018e-02 7.603031e-02 -2.511982e-02
<VARIANCE> 39
 3.442763e+01 1.572080e+01 3.673785e+01 2.479663e+01 5.240232e+01 4.028407e+01 2.928261e+01 2.429159e+01 2.138222e+01 2.703420e+01 1.266645e+01 1.793852e+01 1.965516e+01 1.814846e+00 1.095805e+00 1.719667e+00 1.662434e+00 2.794666e+00 2.104722e+00 1.438196e+00 1.986448e+00 3.214937e+00 2.169665e+00 1.517662e+00 2.238747e+00 1.087418e+00 3.751456e-01 1.443027e-01 3.578872e-01 4.019447e-01 4.598100e-01 4.917557e-01 1.826373e-01 5.188176e-01 4.722030e-01 5.638161e-01 3.442850e-01 2.234777e-01 1.722870e-01
<GCONST> 1.072352e+02
<STATE> 3
<MEAN> 39
 -5.142838e+00 -5.992634e+00 3.248105e+00 -3.592389e+00 -3.593154e+00 -5.403784e+00 -4.725767e+00 2.583404e-01 4.318329e+00 -1.096554e+00 2.305651e+00 -2.095257e+00 6.451389e+01 -4.063534e-01 -7.400437e-01 -5.369760e-01 -5.614226e-01 -1.120607e+00 -9.547290e-01 -9.321284e-01 2.802007e-02 1.463840e-01 -2.851645e-01 -4.700097e-01 1.108315e-01 -2.408670e-01 5.103643e-02 3.801774e-02 -2.408095e-01 -1.717418e-01 -9.163053e-02 5.466225e-02 -1.044463e-01 -2.517588e-01 -3.291648e-01 7.942718e-03 1.723076e-01 -4.237040e-03 3.222201e-02
<VARIANCE> 39
 2.128504e+01 2.540578e+01 2.723581e+01 1.231666e+01 6.977695e+01 5.230645e+01 7.846706e+01 2.583538e+01 1.798805e+01 4.382810e+01 1.657680e+01 1.976011e+01 2.979513e+01 9.156233e-01 5.073776e-01 3.626915e+00 1.770097e+00 4.101919e+00 2.022244e+00 1.801169e+00 2.344382e+00 2.722419e+00 4.294443e+00 1.714065e+00 1.548178e+00 3.043280e-01 1.930371e-01 1.832173e-01 3.491997e-01 3.250759e-01 5.772688e-01 4.669672e-01 5.490229e-01 5.926015e-01 6.550137e-01 6.609991e-01 3.181249e-01 3.871973e-01 6.537770e-02
<GCONST> 1.087422e+02
<STATE> 4
<MEAN> 39
 -4.615930e+00 -7.789011e+00 -2.784653e+00 -1.119457e+01 -5.757700e+00 -3.918165e+00 -4.037305e+00 -1.474763e+00 1.155220e+00 -1.956671e+00 1.657429e+00 -7.091030e+00 6.402592e+01 6.349252e-02 -1.759429e-01 -1.106679e-01 5.083724e-03 9.570392e-02 -1.168397e-01 -1.356586e-01 -2.011738e-01 -1.583968e-01 -4.767546e-02 1.989324e-02 -4.567499e-02 -1.564652e-02 5.769195e-03 9.873956e-02 6.366949e-02 8.247370e-02 8.747685e-02 7.002385e-02 7.555749e-02 -6.092428e-03 -1.211343e-01 -1.273638e-02 4.979004e-02 -3.451674e-02 1.858559e-02
<VARIANCE> 39
 1.268560e+01 1.617880e+01 5.003529e+01 2.572206e+01 3.913597e+01 3.714527e+01 5.260141e+01 1.389103e+01 2.438463e+01 2.007550e+01 1.997904e+01 4.121705e+01 1.514076e+01 3.255669e-01 7.692086e-01 2.188693e+00 1.259722e+00 2.181192e+00 1.926141e+00 1.763644e+00 2.272592e+00 1.895267e+00 3.070939e+00 2.066864e+00 2.121827e+00 1.635665e-01 3.012027e-02 1.365470e-01 1.556451e-01 1.793383e-01 3.881489e-01 3.028443e-01 3.198995e-01 2.819955e-01 4.432601e-01 2.460660e-01 2.811582e-01 3.879887e-01 3.090926e-02
<GCONST> 9.601725e+01
<TRANSP> 5
 0.000000e+00 1.000000e+00 0.000000e+00 0.000000e+00 0.000000e+00
 0.000000e+00 7.792091e-01 2.207909e-01 0.000000e+00 0.000000e+00
 0.000000e+00 0.000000e+00 5.088614e-01 4.911386e-01 0.000000e+00
 0.000000e+00 0.000000e+00 0.000000e+00 7.965934e-01 2.034066e-01
 0.000000e+00 0.000000e+00 0.000000e+00 0.000000e+00 0.000000e+00
<ENDHMM>
~h "s"
<BEGINHMM>
<NUMSTATES> 5
<STATE> 2
<MEAN> 39
 -8.180012e+00 -4.764019e+00 -8.056734e-02 -5.921420e+00 -2.854346e+00 -4.701381e+00 -3.782039e+00 2.495720e-01 4.582090e+00 2.457806e-01 4.855730e-01 -6.308385e+00 6.140112e+01 -2.621990e-02 -2.376446e-02 -4.667792e-02 -5.081177e-02 -2.063528e-02 2.549874e-02 1.948301e-02 -6.070453e-02 -5.216880e-02 -5.164817e-02 -2.138894e-03 -1.864478e-02 -6.373408e-02 -2.779590e-02 3.076402e-02 1.349283e-03 3.282187e-02 -3.281641e-02 -2.131087e-02 -4.821288e-02 -3.821145e-02 -4.179486e-02 -4.376417e-02 3.109221e-03 1.478303e-02 1.145436e-02
<VARIANCE> 39
 1.095907e+01 1.042711e+01 1.274880e+01 1.322145e+01 2.475591e+01 2.363137e+01 2.241976e+01 2.464512e+01 2.251352e+01 2.051676e+01 2.680115e+01 2.498795e+01 4.565796e+00 3.843360e-01 5.626449e-01 8.790609e-01 9.664749e-01 1.594164e+00 1.875144e+00 1.756710e+00 2.184741e+00 1.842638e+00 1.959789e+00 1.974118e+00 1.851700e+00 1.795812e-01 5.457776e-02 9.422141e-02 1.367779e-01 1.631253e-01 2.889246e-01 3.549253e-01 3.271969e-01 4.294671e-01 3.634239e-01 3.830022e-01 3.669744e-01 3.502396e-01 2.285517e-02
<GCONST> 8.888396e+01
<STATE> 3
<MEAN> 39
 -1.129823e+01 -3.168510e+00 -3.021801e+00 -4.336378e+00 -6.326465e+00 -2.415266e+00 -5.959831e+00 -1.438757e+00 3.485739e+00 -2.589315e+00 3.944251e+00 -6.643298e+00 6.389260e+01 -3.158708e-01 2.717271e-01 -1.121777e-01 3.023551e-01 -2.650245e-01 2.253298e-01 -2.977588e-01 -1.595959e-01 -1.022049e-01 -1.321791e-01 2.117178e-01 -3.578780e-02 2.855341e-01 5.500093e-02 -5.175739e-02 9.150378e-02 7.717993e-03 8.044192e-02 -6.307805e-03 7.784194e-02 3.420783e-02 -1.198156e-02 4.118576e-02 -2.030831e-02 6.354757e-02 -1.762254e-02
<VARIANCE> 39
 1.673225e+01 1.902161e+01 2.972169e+01 2.266746e+01 2.747659e+01 2.931541e+01 1.929172e+01 2.496576e+01 3.571682e+01 2.115788e+01 2.794039e+01 2.370133e+01 5.045970e+00 5.684178e-01 7.610606e-01 1.324553e+00 1.411206e+00 1.498940e+00 1.831029e+00 1.431764e+00 1.710071e+00 2.393814e+00 1.662058e+00 1.698139e+00 1.682633e+00 2.218899e-01 5.820773e-02 1.183932e-01 2.110065e-01 2.513629e-01 2.641633e-01 3.373726e-01 2.636155e-01 3.322038e-01 4.566939e-01 3.468697e-01 3.335251e-01 3.101778e-01 2.629266e-02
<GCONST> 9.366441e+01
<STATE> 4
<MEAN> 39
 -1.330633e+01 -1.888567e+00 -1.281608e+00 -1.910454e+00 -7.081849e+00 -1.922378e+00 -6.949484e+00 -1.902008e+00 2.955080e+00 -3.513415e+00 3.758424e+00 -5.710557e+00 6.578181e+01 1.501457e+00 -5.815801e-01 9.364845e-01 -3.989242e-01 3.812725e-01 -1.018486e+00 -5.441275e-01 2.204919e-01 2.139640e-01 -4.224370e-02 -7.044237e-01 -5.828959e-01 5.373306e-01 7.045059e-01 -2.528110e-01 2.383840e-01 -2.546557e-01 -3.401244e-01 -5.892968e-01 -5.710924e-01 7.374256e-02 1.713219e-01 6.491092e-02 1.541974e-02 -3.777387e-01 3.143365e-01
<VARIANCE> 39
 1.047363e+01 7.380957e+00 1.307598e+01 1.295160e+01 1.159048e+01 1.922738e+01 2.111009e+01 1.442894e+01 2.394469e+01 1.634497e+01 2.194044e+01 2.100500e+01 7.483008e+00 2.724919e+00 8.579000e-01 1.098854e+00 1.293720e+00 1.579852e+00 3.084660e+00 2.373072e+00 1.691163e+00 2.318656e+00 1.519965e+00 2.005895e+00 2.835988e+00 4.948991e-01 2.470963e-01 1.474350e-01 1.872624e-01 2.312994e-01 4.289379e-01 3.855294e-01 3.772697e-01 2.102741e-01 3.955329e-01 3.859769e-01 5.817616e-01 4.190007e-01 1.137099e-01
<GCONST> 9.661642e+01
<TRANSP> 5
 0.000000e+00 1.000000e+00 0.000000e+00 0.000000e+00 0.000000e+00
 0.000000e+00 9.407466e-01 5.925338e-02 0.000000e+00 0.000000e+00
 0.000000e+00 0.000000e+00 9.081970e-01 9.180295e-02 0.000000e+00
 0.000000e+00 0.000000e+00 0.000000e+00 6.530752e-01 3.469248e-01
 0.000000e+00 0.000000e+00 0.000000e+00 0.000000e+00 0.000000e+00
<ENDHMM>
~h "t"
<BEGINHMM>
<NUMSTATES> 5
<STATE> 2
<MEAN> 39
 -2.622586e+00 -8.649910e+00 1.299611e+01 -1.114386e+01 -2.639191e+01 -4.985211e+00 -9.023370e+00 2.357055e+00 2.074907e+00 -1.121805e+01 1.524057e+01 -1.227299e+01 7.585963e+01 -2.668225e-01 7.514398e-01 1.284016e+00 4.199110e-01 -8.482719e-02 -1.389504e-01 -7.362127e-01 -1.310248e+00 -1.199025e+00 1.026805e-01 1.077389e+00 7.089285e-01 -3.743962e-01 -3.268415e-02 3.866728e-02 -1.442926e-02 1.836542e-01 3.034562e-01 7.606080e-02 -1.290376e-01 -1.224333e-01 3.191841e-02 -6.930730e-02 -1.768990e-01 4.407015e-02 -1.083160e-01
<VARIANCE> 39
 2.807996e+00 7.963695e+00 3.396694e+01 5.595606e+00 2.504196e+01 9.196174e+00 1.066175e+01 2.029321e+01 2.420701e+01 2.061743e+01 3.891804e+01 1.471081e+01 1.677782e+01 9.076257e-02 2.735510e-01 3.290292e-01 6.546543e-01 1.015487e+00 7.488273e-01 8.577683e-01 1.214370e+00 6.726066e-01 1.227355e+00 1.364692e+00 5.378680e-01 1.133322e-01 1.352874e-02 4.623909e-02 5.498949e-02 5.069625e-02 1.443269e-01 1.653262e-01 1.646415e-01 2.461669e-01 2.197129e-01 2.207309e-01 1.788953e-01 1.180665e-01 1.763738e-02
<GCONST> 6.696658e+01
<STATE> 3
<MEAN> 39
 -4.589283e+00 -1.947289e+00 2.031929e+01 -3.910928e+00 -1.792837e+01 -3.248273e+00 -1.463568e+01 -6.153151e+00 -2.209640e+00 -1.453828e+01 1.271605e+01 -5.751777e+00 7.046584e+01 6.287508e-02 2.087740e-01 -5.031183e-01 5.045975e-01 1.508257e+00 1.736267e-01 6.252723e-01 2.514915e-01 2.191335e-01 3.138003e-01 -1.158868e+00 2.942428e-01 -7.353788e-01 2.954714e-02 -1.258022e-01 -3.601899e-01 -1.801790e-01 1.035270e-01 -3.960436e-02 3.226950e-01 2.189781e-01 1.587342e-01 2.939422e-01 -1.155634e-01 -8.205897e-02 -8.035214e-02
<VARIANCE> 39
 2.250734e+00 4.184762e+00 3.183032e+01 1.376094e+01 4.891777e+01 1.176730e+01 3.218313e+01 1.520606e+01 1.825062e+01 2.978307e+01 4.852429e+01 1.101107e+01 1.510312e+01 1.570615e-01 3.892353e-01 2.764063e+00 8.969332e-01 1.566788e+00 7.320516e-01 3.750439e+00 2.104887e+00 1.555105e+00 3.513678e+00 2.249586e+00 8.967147e-01 3.501322e-01 2.587069e-02 3.478203e-02 1.508960e-01 1.865029e-01 2.135064e-01 1.573640e-01 4.556476e-01 2.773135e-01 3.103080e-01 2.781186e-01 3.453855e-01 1.188738e-01 3.633736e-02
<GCONST> 8.450847e+01
<STATE> 4
<MEAN> 39
 -8.306554e+00 -4.422696e+00 7.409774e-01 -4.097715e+00 -5.171129e+00 -4.027277e+00 -4.861992e+00 -2.624983e+00 2.752002e+00 -1.618812e+00 7.971976e-01 -5.869267e+00 6.348431e+01 -1.559758e-01 -6.114477e-02 -4.003001e-01 -7.595953e-02 8.629581e-02 1.734348e-02 5.355732e-03 -9.412300e-02 5.664501e-02 1.897515e-01 9.992954e-02 5.076551e-02 -7.575163e-02 8.175671e-03 2.041518e-02 1.349563e-01 1.012813e-02 -1.188661e-01 2.988224e-02 -1.209292e-01 -2.058824e-02 -2.980063e-02 -8.881994e-02 9.494864e-02 -8.701846e-04 5.527809e-02
<VARIANCE> 39
 1.359439e+01 1.176481e+01 2.357854e+01 1.185250e+01 1.991071e+01 3.064234e+01 2.236913e+01 2.111418e+01 2.917867e+01 2.657185e+01 3.611885e+01 1.819267e+01 7.290759e+00 6.101254e-01 5.569859e-01 1.971831e+00 1.163024e+00 1.473821e+00 2.033360e+00 2.118644e+00 1.667933e+00 1.992568e+00 2.410331e+00 3.001689e+00 1.313888e+00 4.013017e-01 7.403120e-02 8.801235e-02 2.238134e-01 1.784408e-01 2.969388e-01 3.570645e-01 5.213252e-01 3.773884e-01 3.275191e-01 4.507239e-01 5.055818e-01 2.492715e-01 5.470051e-02
<GCONST> 9.520859e+01
<TRANSP> 5
 0.000000e+00 1.000000e+00 0.000000e+00 0.000000e+00 0.000000e+00
 0.000000e+00 8.292239e-01 1.707761e-01 0.000000e+00 0.000000e+00
 0.000000e+00 0.000000e+00 8.767242e-01 1.232758e-01 0.000000e+00
 0.000000e+00 0.000000e+00 0.000000e+00 9.402682e-01 5.973182e-02
 0.000000e+00 0.000000e+00 0.000000e+00 0.000000e+00 0.000000e+00
<ENDHMM>
~h "u"
<BEGINHMM>
<NUMSTATES> 5
<STATE> 2
<MEAN> 39
 -5.261837e+00 -3.604007e+00 1.664519e+00 -4.080432e+00 -3.081336e+00 -4.001058e+00 -5.622299e+00 -1.116651e+00 3.523982e+00 2.548029e+00 3.676892e+00 -4.441496e+00 6.224361e+01 3.632078e-02 -2.194807e-03 1.051847e-01 4.917702e-03 1.093245e-01 5.732381e-02 -1.971626e-01 1.118905e-01 3.482433e-02 5.037121e-02 2.262897e-01 2.005839e-02 -1.112148e-02 -8.411723e-03 9.196388e-03 -5.379309e-02 -2.444855e-02 -6.635051e-03 -6.058984e-02 7.271652e-03 2.557468e-02 3.453432e-03 -1.573483e-02 -1.122764e-01 -5.339737e-02 1.353952e-02
<VARIANCE> 39
 1.757553e+00 5.971784e+00 2.198130e+01 8.074405e+00 8.079792e+00 2.324617e+01 2.382743e+01 1.193875e+01 1.193065e+01 2.164023e+01 1.434731e+01 2.024151e+01 4.632639e+00 1.638103e-01 3.426366e-01 1.866181e+00 9.534082e-01 4.822894e-01 2.247399e+00 2.074068e+00 1.620505e+00 1.653903e+00 1.235851e+00 2.026075e+00 1.351687e+00 8.150340e-02 4.401716e-02 6.629773e-02 3.082856e-01 1.902565e-01 9.184679e-02 3.081887e-01 4.451602e-01 4.056389e-01 3.412083e-01 2.726229e-01 4.077826e-01 1.671459e-01 1.569363e-02
<GCONST> 7.789088e+01
<STATE> 3
<MEAN> 39
 -8.295254e+00 -2.174052e-01 2.084279e+00 -6.275538e+00 -2.723410e+00 -7.685730e+00 -2.232469e-01 5.324178e-01 -2.076943e+00 5.869843e-01 3.083030e-01 -4.201655e+00 6.029326e+01 -2.144873e-01 1.430052e-01 -1.975241e-01 -1.238747e-01 2.649084e-01 1.942892e-01 6.613199e-02 9.660333e-02 -7.309205e-02 3.626198e-02 -2.310514e-01 -1.446530e-01 3.350748e-02 -8.660274e-02 -4.414960e-02 1.561042e-02 -2.062193e-02 1.876060e-02 2.127979e-02 -7.971359e-02 3.822615e-02 1.651154e-02 6.490534e-04 1.513052e-02 9.409541e-03 8.960134e-02
<VARIANCE> 39
 9.799691e+00 6.654109e+00 1.552083e+01 9.868075e+00 1.608738e+01 3.384217e+01 1.792688e+01 1.569947e+01 1.966234e+01 1.988536e+01 2.299866e+01 1.586017e+01 4.909759e+00 4.576067e-01 4.768515e-01 6.604095e-01 7.426752e-01 1.141910e+00 2.065603e+00 1.881535e+00 2.330815e+00 1.693925e+00 2.842891e+00 1.728554e+00 1.215960e+00 2.283119e-01 8.660991e-02 9.396797e-02 1.133486e-01 1.140289e-01 2.112505e-01 3.936237e-01 3.864948e-01 4.379034e-01 3.381035e-01 6.134548e-01 3.085671e-01 2.110504e-01 7.665784e-02
<GCONST> 8.692838e+01
<STATE> 4
<MEAN> 39
 -3.764212e+00 -1.815448e+00 6.022750e+00 -4.007413e+00 -1.995596e+00 -2.635097e+00 -1.417072e+01 -6.501042e+00 -4.879806e+00 -7.284502e+00 4.612434e+00 -5.089364e+00 6.841821e+01 1.023576e-01 1.016413e-01 1.512961e-01 2.397492e-01 1.076216e-01 2.962160e-02 -4.847214e-02 -2.194652e-01 -7.508658e-02 -1.584969e-01 2.193093e-02 1.072497e-01 -1.059731e-02 4.010861e-02 1.318760e-02 -1.350793e-02 2.440851e-02 -5.478836e-02 -6.488952e-02 4.601270e-02 -1.769113e-02 4.153505e-02 7.170665e-02 -2.103116e-03 9.744791e-03 -6.884853e-02
<VARIANCE> 39
 5.025911e+01 1.180136e+01 1.598407e+01 1.687907e+01 3.936488e+01 1.606283e+01 7.102298e+01 3.895636e+01 5.413674e+01 3.099489e+01 3.650613e+01 1.866228e+01 1.696688e+01 3.332577e+00 9.384273e-01 1.382124e+00 1.277724e+00 2.915737e+00 1.806377e+00 5.845221e+00 2.518112e+00 3.792688e+00 2.547120e+00 2.499099e+00 1.673986e+00 1.417216e+00 5.099627e-01 1.394045e-01 2.254702e-01 2.240780e-01 4.815401e-01 2.720651e-01 7.009771e-01 3.482668e-01 5.421260e-01 3.126332e-01 3.359915e-01 3.047952e-01 1.060933e-01
<GCONST> 1.095542e+02
<TRANSP> 5
 0.000000e+00 1.000000e+00 0.000000e+00 0.000000e+00 0.000000e+00
 0.000000e+00 9.248539e-01 7.514612e-02 0.000000e+00 0.000000e+00
 0.000000e+00 0.000000e+00 9.358585e-01 6.414152e-02 0.000000e+00
 0.000000e+00 0.000000e+00 0.000000e+00 9.613586e-01 3.864145e-02
 0.000000e+00 0.000000e+00 0.000000e+00 0.000000e+00 0.000000e+00
<ENDHMM>
~h "v"
<BEGINHMM>
<NUMSTATES> 5
<STATE> 2
<MEAN> 39
 -1.383271e+00 -6.482477e+00 8.110915e+00 -2.734350e+00 -3.941764e+00 -1.027114e+01 -1.492089e+01 -1.090316e-01 3.967900e+00 -3.974177e+00 4.715046e+00 -5.307856e+00 6.999963e+01 -7.543642e-02 5.297387e-01 -8.276502e-01 3.011879e-01 1.135369e+00 9.127300e-01 4.830534e-01 -3.690543e-01 5.959162e-01 9.138061e-01 -1.238131e+00 -5.158265e-01 -4.662143e-01 -4.628824e-02 4.630379e-02 1.672476e-01 -3.117710e-02 -3.606721e-01 1.959195e-01 2.334432e-01 -1.888868e-01 -1.065682e-01 1.558270e-01 2.050193e-02 -1.231750e-01 -8.582281e-03
<VARIANCE> 39
 5.884967e+00 1.156013e+01 1.290709e+01 2.830597e+01 1.256557e+01 2.184677e+01 1.075905e+01 3.430630e+01 1.996561e+01 2.025298e+01 1.080788e+01 5.867636e+01 1.082833e+01 4.202862e-01 1.130787e+00 1.139858e+00 1.822131e+00 3.245546e+00 1.340367e+00 1.199679e+00 2.711473e+00 1.521049e+00 2.302235e+00 1.563963e+00 1.747536e+00 6.710951e-01 9.862161e-02 2.738292e-01 1.417837e-01 7.283711e-01 3.528259e-01 3.497122e-01 2.793061e-01 6.774440e-01 5.224977e-01 3.767033e-01 2.063399e-01 4.213018e-01 1.476891e-01
<GCONST> 9.703742e+01
<STATE> 3
<MEAN> 39
 -2.816992e+00 -2.599297e+00 5.497426e+00 -3.037349e+00 -2.066682e-01 -6.976806e+00 -9.633650e+00 1.013035e+00 5.373908e+00 1.148932e+00 2.055953e+00 -6.016338e+00 6.621251e+01 -4.437054e-01 4.367940e-01 -2.332645e-01 1.780863e-01 3.252276e-01 7.445356e-01 1.090826e+00 -4.873911e-01 -1.390502e-01 3.874064e-01 -3.944242e-01 -1.213261e-02 -4.447422e-01 -1.830010e-02 1.180235e-02 1.030342e-01 1.623018e-01 -6.874754e-02 -1.617521e-01 -4.224136e-02 -1.355217e-01 -3.009287e-01 -1.597830e-01 2.058996e-01 2.347202e-01 -5.348142e-02
<VARIANCE> 39
 1.329801e+01 2.477874e+01 9.385836e+00 1.818236e+01 1.794650e+01 1.560868e+01 2.138772e+01 1.527591e+01 2.291356e+01 1.417309e+01 9.923368e+00 2.801092e+01 1.297283e+01 1.253323e+00 1.275924e+00 1.010171e+00 2.241138e+00 9.541251e-01 1.670162e+00 2.071720e+00 1.705270e+00 2.269443e+00 1.538189e+00 1.860106e+00 1.743044e+00 5.909099e-01 2.033584e-01 2.770104e-01 1.164762e-01 3.308421e-01 2.420687e-01 3.060686e-01 3.586896e-01 3.236929e-01 4.588290e-01 2.571961e-01 3.450458e-01 1.956172e-01 9.481203e-02
<GCONST> 9.485021e+01
<STATE> 4
<MEAN> 39
 -5.649636e+00 -5.942282e+00 1.761056e+00 -5.067222e+00 -1.931520e+00 -4.281360e+00 -4.996583e+00 -2.838183e+00 3.859827e+00 1.027964e+00 1.138500e+00 -3.969388e+00 6.355100e+01 -9.074423e-02 6.297666e-02 -1.165536e-01 -1.281726e-02 -3.918420e-02 9.650584e-03 8.987398e-02 -1.126309e-01 -2.388548e-01 -3.398778e-02 -1.336338e-01 1.590162e-03 -1.951161e-01 -3.541670e-03 2.128025e-02 1.020358e-02 9.078512e-03 3.844609e-02 -9.348331e-02 -8.509327e-03 4.336948e-02 -6.092110e-02 -4.657282e-02 2.647990e-02 -1.189830e-02 3.462826e-03
<VARIANCE> 39
 7.041041e+00 1.468777e+01 3.165233e+01 2.236309e+01 3.811535e+01 3.007118e+01 2.423071e+01 2.924041e+01 2.571642e+01 2.624655e+01 2.928078e+01 2.334820e+01 1.209633e+01 3.442577e-01 1.274012e+00 1.071421e+00 2.215797e+00 2.859807e+00 2.112781e+00 1.788231e+00 2.609463e+00 2.947187e+00 2.188276e+00 1.798026e+00 1.701819e+00 3.970317e-01 5.668700e-02 1.404676e-01 1.584340e-01 2.497857e-01 5.119634e-01 4.046107e-01 3.382927e-01 3.706919e-01 5.105371e-01 4.283452e-01 3.591217e-01 2.958683e-01 3.581358e-02
<GCONST> 9.865411e+01
<TRANSP> 5
 0.000000e+00 1.000000e+00 0.000000e+00 0.000000e+00 0.000000e+00
 0.000000e+00 7.313396e-01 2.686605e-01 0.000000e+00 0.000000e+00
 0.000000e+00 0.000000e+00 7.421501e-01 2.578500e-01 0.000000e+00
 0.000000e+00 0.000000e+00 0.000000e+00 9.097221e-01 9.027792e-02
 0.000000e+00 0.000000e+00 0.000000e+00 0.000000e+00 0.000000e+00
<ENDHMM>
~h "w"
<BEGINHMM>
<NUMSTATES> 5
<STATE> 2
<MEAN> 39
 -7.416956e+00 -6.847090e+00 1.619494e+00 -6.720603e+00 -2.251659e+00 -4.957639e+00 -2.729329e+00 -5.787847e-01 1.795277e-01 -3.628047e-01 1.273808e+00 -3.386822e+00 6.064444e+01 7.917580e-03 -1.000833e-01 -8.278783e-02 -3.898938e-02 8.650366e-05 1.586679e-01 5.619828e-02 -5.255934e-02 4.260861e-02 -2.252699e-02 -2.149258e-01 -7.092459e-02 -2.405046e-02 3.529640e-03 4.313256e-02 -1.725862e-03 3.324254e-02 4.620056e-02 1.967197e-02 2.341670e-02 1.104474e-02 2.101834e-02 1.414648e-02 -6.398764e-03 -2.514246e-02 2.784648e-02
<VARIANCE> 39
 2.647240e+00 1.053490e+01 1.002608e+01 1.431399e+01 1.645381e+01 3.585016e+01 3.002065e+01 2.381128e+01 1.621647e+01 2.608811e+01 2.505639e+01 2.043705e+01 3.882248e+00 1.595832e-01 5.873622e-01 7.584915e-01 9.575548e-01 1.466036e+00 1.775279e+00 2.020124e+00 1.758479e+00 1.669502e+00 2.343499e+00 2.251924e+00 2.220921e+00 1.257919e-01 3.343416e-02 9.820490e-02 1.637370e-01 1.794023e-01 2.426403e-01 3.024872e-01 4.208806e-01 3.373744e-01 3.438916e-01 4.573754e-01 4.285436e-01 4.969901e-01 1.795693e-02
<GCONST> 8.577760e+01
<STATE> 3
<MEAN> 39
 -5.578297e+00 -3.144951e+00 1.875028e+00 -5.905822e+00 -3.670789e+00 -6.128960e+00 -5.779260e+00 -2.205332e+00 1.383155e+00 -1.893154e+00 7.839293e-02 -4.126813e+00 6.328315e+01 6.292646e-01 7.532152e-01 4.243412e-01 -2.294296e-01 -7.352791e-01 -4.731266e-01 -3.153310e-01 -7.513280e-04 -2.330800e-01 -4.048410e-01 2.842969e-02 -1.361823e-01 4.796145e-01 4.881141e-02 -1.830158e-02 -6.203921e-03 -1.298980e-01 -1.459415e-01 -2.137652e-02 -9.882405e-02 -1.717637e-02 -3.592296e-02 -6.126836e-02 3.525542e-02 -6.344215e-03 2.904671e-02
<VARIANCE> 39
 1.415846e+01 4.831363e+01 2.215299e+01 2.134692e+01 3.658562e+01 2.622474e+01 2.112542e+01 1.599181e+01 3.471275e+01 2.496245e+01 3.294308e+01 1.509072e+01 8.658961e+00 1.170249e+00 1.424458e+00 1.513687e+00 1.618245e+00 2.864947e+00 2.179786e+00 1.664807e+00 1.877890e+00 2.781441e+00 2.751815e+00 1.875824e+00 1.677964e+00 4.408534e-01 1.634181e-01 2.864874e-01 2.461975e-01 2.619264e-01 4.013232e-01 4.958985e-01 3.266002e-01 3.980487e-01 5.676106e-01 5.654182e-01 3.213905e-01 3.361830e-01 6.401694e-02
<GCONST> 1.033586e+02
<STATE> 4
<MEAN> 39
 2.297443e+00 -8.156354e+00 3.115066e-01 -1.546279e+01 -1.039362e+01 4.280881e+00 -9.767457e+00 -2.222426e+00 4.225759e+00 -7.178932e+00 2.789494e+00 -1.358082e+01 7.321683e+01 -6.551255e-03 -8.513065e-01 -1.041197e-01 3.641747e-02 1.316813e-01 6.297775e-01 -2.359424e-02 1.290917e-02 4.796574e-01 -6.271814e-03 -3.381790e-01 -4.427208e-01 3.542583e-01 -6.612864e-02 1.272375e-01 7.534944e-02 2.047216e-01 1.459935e-01 -1.159590e-01 5.810124e-02 -7.266359e-02 -1.088465e-01 1.450287e-01 -1.457517e-02 6.230823e-02 -1.226323e-01
<VARIANCE> 39
 2.785776e+00 5.810839e+01 1.730702e+01 3.181897e+01 1.687288e+01 7.690623e+01 1.757370e+01 1.058660e+01 3.381393e+01 2.371250e+01 6.508804e+01 6.410757e+01 1.405547e+01 2.318945e-01 1.937433e+00 1.416052e+00 3.385426e+00 1.490985e+00 4.499489e+00 1.374999e+00 1.305234e+00 1.729670e+00 3.592164e+00 6.152961e+00 4.757272e+00 6.970367e-01 2.921144e-02 2.426656e-01 1.197599e-01 2.569480e-01 2.887447e-01 4.335097e-01 2.120867e-01 2.939525e-01 3.513567e-01 6.805356e-01 8.442905e-01 7.321443e-01 4.565960e-02
<GCONST> 1.029516e+02
<TRANSP> 5
 0.000000e+00 1.000000e+00 0.000000e+00 0.000000e+00 0.000000e+00
 0.000000e+00 9.386426e-01 6.135740e-02 0.000000e+00 0.000000e+00
 0.000000e+00 0.000000e+00 9.215286e-01 7.847141e-02 0.000000e+00
 0.000000e+00 0.000000e+00 0.000000e+00 9.475100e-01 5.248995e-02
 0.000000e+00 0.000000e+00 0.000000e+00 0.000000e+00 0.000000e+00
<ENDHMM>
~h "z"
<BEGINHMM>
<NUMSTATES> 5
<STATE> 2
<MEAN> 39
 -5.829659e+00 -7.717617e+00 -2.512467e+00 -7.285903e+00 -3.351239e+00 -5.053372e+00 -6.621287e+00 -1.084062e+00 2.655751e+00 -4.567035e+00 -2.699049e+00 -5.725702e+00 6.197488e+01 8.018134e-02 1.150026e-01 2.658162e-01 9.822908e-02 1.647079e-01 4.612877e-02 -2.395694e-02 -3.997414e-02 -2.070326e-01 -2.062601e-01 -1.249413e-01 3.125600e-01 -3.576160e-02 6.849911e-03 1.051011e-01 4.234999e-02 5.290806e-02 -3.813634e-03 2.544201e-02 5.854852e-02 -1.550645e-03 -6.852607e-03 6.498311e-02 6.799553e-02 2.071046e-02 3.652025e-03
<VARIANCE> 39
 8.769121e+00 1.590503e+01 1.049535e+01 1.811734e+01 1.432361e+01 1.350392e+01 1.585837e+01 2.221589e+01 2.546163e+01 2.699525e+01 3.063871e+01 2.301841e+01 2.661184e+00 2.211626e-01 1.361297e+00 6.933513e-01 1.069472e+00 1.397448e+00 1.439802e+00 1.437462e+00 1.682141e+00 2.312592e+00 2.367050e+00 2.196750e+00 2.151492e+00 9.200063e-02 3.075001e-02 2.125065e-01 1.327611e-01 1.885979e-01 2.795881e-01 2.566217e-01 2.250399e-01 3.222041e-01 4.169324e-01 4.534708e-01 4.572428e-01 4.800264e-01 1.442411e-02
<GCONST> 8.661465e+01
<STATE> 3
<MEAN> 39
 -6.706168e+00 -3.331961e+00 3.692359e+00 -5.372918e+00 -4.304397e+00 -1.078970e+01 -6.151765e+00 -5.276623e+00 -1.221859e+00 -1.147465e+00 1.124553e+00 -4.688343e+00 5.986357e+01 2.623039e-02 9.456863e-02 1.713725e-01 1.963531e-01 3.050705e-02 2.248789e-01 1.183860e-01 9.202722e-03 8.275113e-02 -2.289061e-02 -1.226371e-01 -2.154568e-01 1.119516e-02 3.177426e-03 2.818720e-02 2.714993e-02 6.654488e-02 1.609000e-02 3.503219e-02 -5.452611e-02 -9.086845e-03 2.576646e-02 -4.946092e-02 -2.740204e-02 -4.608668e-02 4.290396e-02
<VARIANCE> 39
 3.732502e+00 8.199696e+00 1.074027e+01 1.347861e+01 1.954778e+01 2.676156e+01 9.883614e+00 2.716031e+01 1.465094e+01 1.957202e+01 2.420083e+01 2.514984e+01 2.945682e+00 2.816758e-01 6.996638e-01 6.662772e-01 1.130883e+00 1.429272e+00 1.923224e+00 1.119708e+00 2.013376e+00 8.621500e-01 2.517176e+00 1.444306e+00 2.264159e+00 1.570680e-01 3.511918e-02 1.010177e-01 1.065717e-01 1.876507e-01 2.643547e-01 4.086998e-01 2.902406e-01 4.187647e-01 1.859648e-01 4.763892e-01 2.411246e-01 5.208056e-01 1.966346e-02
<GCONST> 8.278770e+01
<STATE> 4
<MEAN> 39
 -5.194601e+00 3.219765e+00 5.637857e+00 2.292667e+00 -2.764698e-01 -2.024542e+00 -6.972702e+00 -5.735283e+00 1.719481e-01 -5.279983e+00 -1.245998e-01 -7.065645e+00 6.384901e+01 -4.020979e-01 1.341667e+00 -1.304825e-01 1.389544e+00 -1.347552e-01 2.682404e-01 -4.137969e-01 -5.524772e-01 1.373425e-01 -3.937211e-01 9.635059e-01 -2.958885e-01 5.962507e-01 -2.623478e-01 -1.106368e-01 -2.510556e-01 -1.015593e-01 -9.566894e-02 -1.140944e-01 2.098898e-01 8.364968e-02 2.071459e-01 -6.009949e-02 9.987948e-02 1.440129e-01 -4.312689e-02
<VARIANCE> 39
 7.735242e+00 1.219082e+01 1.367448e+01 2.518387e+01 1.224871e+01 2.087039e+01 2.572647e+01 1.481937e+01 2.294133e+01 1.295722e+01 1.982912e+01 8.164315e+00 4.766745e+00 1.062401e+00 9.813517e-01 1.329013e+00 1.042468e+00 1.051298e+00 9.891219e-01 3.095792e+00 2.233499e+00 2.008334e+00 1.582114e+00 1.292669e+00 1.606627e+00 1.709805e-01 1.299111e-01 1.830080e-01 1.571243e-01 1.906826e-01 2.138945e-01 2.402201e-01 4.525298e-01 3.564279e-01 3.817300e-01 3.002062e-01 3.425936e-01 3.056206e-01 2.554821e-02
<GCONST> 8.822681e+01
<TRANSP> 5
 0.000000e+00 1.000000e+00 0.000000e+00 0.000000e+00 0.000000e+00
 0.000000e+00 9.383664e-01 6.163358e-02 0.000000e+00 0.000000e+00
 0.000000e+00 0.000000e+00 9.170671e-01 8.293294e-02 0.000000e+00
 0.000000e+00 0.000000e+00 0.000000e+00 8.414616e-01 1.585384e-01
 0.000000e+00 0.000000e+00 0.000000e+00 0.000000e+00 0.000000e+00
<ENDHMM>
~h "O:"
<BEGINHMM>
<NUMSTATES> 5
<STATE> 2
<MEAN> 39
 3.209831e+00 -3.303677e+00 1.706396e-01 -2.168899e+01 -1.883845e+01 6.251331e+00 -2.882080e+00 -1.022326e+01 1.891271e+00 -6.297697e+00 1.241852e+01 -4.660779e+00 7.261740e+01 1.186455e-01 -2.735574e-01 -1.118097e-01 -7.647458e-01 -1.497418e+00 1.365285e-01 6.495117e-01 -3.803644e-01 7.637295e-01 -2.269468e-01 8.786829e-01 -7.116785e-02 3.026851e-01 -3.357500e-01 -1.099810e-01 -7.572104e-02 8.202122e-01 6.539370e-01 -4.527678e-01 8.403511e-02 1.617200e-01 -1.176246e-01 9.028294e-02 -4.744931e-01 1.177528e-01 -2.922640e-01
<VARIANCE> 39
 1.303037e+00 7.659250e+00 4.758814e+00 8.726984e+00 1.338242e+01 1.189530e+01 7.425693e+00 9.545805e+00 1.322618e+01 1.105286e+01 1.286817e+01 7.971236e+00 1.467900e+00 1.919285e-01 2.406716e-01 3.033887e-01 1.692913e+00 1.508121e+00 1.206797e+00 5.979081e-01 8.966445e-01 1.424440e+00 6.242985e-01 1.154410e+00 9.220762e-01 1.746551e-01 2.197597e-01 7.136678e-02 7.278658e-02 1.815957e-01 1.321878e-01 1.604367e-01 1.106966e-01 1.901978e-01 2.670276e-01 2.298430e-01 2.244252e-01 2.206319e-01 6.831297e-02
<GCONST> 6.679375e+01
<STATE> 3
<MEAN> 39
 4.254632e+00 -6.240196e+00 -3.384931e+00 -1.781631e+01 -1.791079e+01 1.626332e+00 -2.790033e-01 -1.122385e+01 2.799585e+00 -9.097598e+00 1.327375e+01 6.339660e-02 7.252343e+01 2.045867e-01 -1.820292e-01 -7.091689e-01 7.283520e-01 6.826453e-01 -8.549958e-01 -3.075001e-01 3.814673e-01 2.576398e-01 -6.455231e-01 -2.510364e-01 1.041334e+00 -1.018165e-01 -2.377660e-02 1.010682e-01 -3.756840e-02 1.742294e-03 1.462642e-01 6.063984e-02 -1.802616e-01 1.324526e-01 9.242854e-02 1.175873e-02 -1.309098e-01 8.489984e-03 -2.266520e-02
<VARIANCE> 39
 1.549606e+00 4.941711e+00 6.416814e+00 7.690368e+00 1.142135e+01 1.981154e+01 6.789104e+00 1.030640e+01 1.749413e+01 1.356815e+01 8.169123e+00 1.882626e+01 2.626067e+00 7.340135e-02 3.265348e-01 2.771519e-01 4.172287e-01 6.109836e-01 6.698726e-01 1.065611e+00 1.045356e+00 1.134359e+00 9.283615e-01 6.672158e-01 6.679254e-01 3.059750e-02 1.486326e-02 3.430055e-02 5.275122e-02 9.864638e-02 9.140892e-02 1.502447e-01 1.329381e-01 1.923250e-01 1.349004e-01 1.394316e-01 1.404769e-01 1.512446e-01 7.378283e-03
<GCONST> 5.430687e+01
<STATE> 4
<MEAN> 39
 4.542535e+00 -5.479309e+00 -7.969660e+00 -1.326714e+01 -7.040905e+00 -1.816620e+00 -4.898748e+00 -5.643713e+00 7.961402e+00 -7.647437e+00 6.705087e+00 4.990506e+00 7.023406e+01 -2.429176e-01 1.491975e-01 2.205438e-02 3.748315e-01 8.286816e-01 6.905646e-02 -4.354683e-02 4.651972e-01 1.192120e-01 7.207212e-01 -3.843614e-01 -2.163331e-01 -4.041045e-01 -6.670975e-02 2.768891e-03 1.278950e-01 2.972938e-02 -2.684449e-02 -1.806060e-03 9.338439e-02 -1.835804e-02 -1.354356e-01 8.094982e-02 3.823776e-02 -1.449756e-01 -4.797843e-02
<VARIANCE> 39
 5.734162e+00 6.154524e+00 8.267117e+00 6.670061e+00 2.040666e+01 9.396749e+00 1.400407e+01 1.699757e+01 2.355247e+01 2.796141e+01 9.840213e+00 1.686732e+01 6.269232e+00 1.881199e-01 3.795758e-01 4.910068e-01 4.846684e-01 6.997185e-01 6.682746e-01 7.562361e-01 7.765691e-01 1.168671e+00 1.030698e+00 7.983863e-01 1.033445e+00 1.435080e-01 2.988260e-02 6.508811e-02 7.118177e-02 7.924179e-02 8.803973e-02 1.383004e-01 1.455365e-01 1.276778e-01 1.490634e-01 1.521971e-01 1.105906e-01 1.568633e-01 1.975624e-02
<GCONST> 6.452341e+01
<TRANSP> 5
 0.000000e+00 1.000000e+00 0.000000e+00 0.000000e+00 0.000000e+00
 0.000000e+00 7.707216e-01 2.292784e-01 0.000000e+00 0.000000e+00
 0.000000e+00 0.000000e+00 8.759665e-01 1.240335e-01 0.000000e+00
 0.000000e+00 0.000000e+00 0.000000e+00 9.262323e-01 7.376768e-02
 0.000000e+00 0.000000e+00 0.000000e+00 0.000000e+00 0.000000e+00
<ENDHMM>
~h "aI"
<BEGINHMM>
<NUMSTATES> 5
<STATE> 2
<MEAN> 39
 1.577026e+00 -1.353649e+01 -3.139158e+00 -1.545409e+01 -5.630126e+00 5.448144e+00 -9.156200e+00 -2.827792e+00 9.546408e+00 -5.111361e+00 2.986746e-02 -2.327971e+01 7.702889e+01 -2.692580e-02 -1.258262e+00 -5.105124e-01 -6.630526e-01 -1.702567e-01 1.141663e+00 2.707189e-01 5.012196e-02 8.967178e-01 -1.369353e+00 -2.706013e-01 -7.505036e-01 7.111812e-01 -1.702485e-01 3.368358e-01 3.214651e-01 5.361652e-01 6.606669e-02 -4.149777e-01 4.264540e-03 -6.613533e-03 -4.206523e-01 -9.157450e-02 -8.809391e-02 5.422715e-01 -3.329256e-01
<VARIANCE> 39
 1.330237e+00 9.906818e+00 1.084683e+01 1.368589e+01 5.458283e+00 2.052837e+01 1.465669e+01 7.536238e+00 1.505067e+01 4.094625e+01 3.093120e+01 1.345246e+01 2.729302e+00 2.113371e-01 1.784987e+00 8.117230e-01 2.292914e+00 6.620141e-01 1.453551e+00 7.510315e-01 1.381475e+00 2.610729e+00 1.137413e+00 1.399702e+00 2.076305e+00 7.307937e-01 1.060353e-01 1.569641e-01 8.797099e-02 1.910848e-01 1.691776e-01 1.481324e-01 1.592708e-01 3.855917e-01 3.871492e-01 2.872573e-01 3.286392e-01 2.440027e-01 8.437593e-02
<GCONST> 8.177433e+01
<STATE> 3
<MEAN> 39
 7.937785e-01 -1.646761e+01 5.547644e-01 -1.234798e+01 -1.030470e+01 2.497123e+00 -7.376654e+00 2.984707e+00 8.230013e+00 -1.205782e+01 -5.481425e-02 -1.928304e+01 7.732433e+01 -1.382143e-01 6.166738e-02 1.682155e+00 6.803297e-01 -1.446426e+00 -1.642542e+00 2.191242e-01 1.794788e+00 -1.014128e+00 -3.456056e-01 8.641458e-01 1.673115e+00 -2.416042e-01 -3.487645e-02 1.931249e-01 3.209763e-01 -6.685326e-02 -1.114317e-01 -1.213805e-01 -5.597603e-02 -7.083088e-02 -2.519704e-01 2.882616e-01 3.464019e-01 1.895040e-01 -8.912887e-02
<VARIANCE> 39
 2.584416e+00 3.983489e+00 2.243967e+01 1.055299e+01 1.683262e+01 3.609831e+01 9.281484e+00 3.627464e+01 2.257891e+01 3.223410e+01 1.788355e+01 2.883022e+01 1.391963e+00 1.528710e-01 4.144557e-01 1.005296e+00 5.305375e-01 7.356700e-01 1.496806e+00 6.649782e-01 1.150642e+00 1.643308e+00 1.262264e+00 2.168788e+00 2.065695e+00 9.234235e-02 2.525579e-02 6.387214e-02 7.655771e-02 9.387011e-02 1.541921e-01 2.529364e-01 1.277720e-01 5.031934e-01 2.078484e-01 1.682755e-01 2.153570e-01 2.495553e-01 1.040399e-02
<GCONST> 7.296322e+01
<STATE> 4
<MEAN> 39
 -1.551966e+00 -9.612195e+00 1.677336e+01 -8.035660e+00 -1.597846e+01 -6.042971e+00 -9.040544e+00 5.231539e+00 -1.528919e+00 -8.282845e+00 1.022039e+01 -6.020242e+00 7.273384e+01 -2.301406e-01 1.103259e+00 5.958042e-01 7.972206e-01 9.306749e-01 -4.354338e-01 -3.783202e-01 -8.496634e-01 -4.670401e-01 3.933743e-01 2.807753e-01 9.049956e-01 -6.823501e-01 4.510998e-02 2.047462e-02 -5.104678e-01 1.475290e-01 4.553788e-01 4.707746e-02 4.096570e-02 -1.108209e-01 2.272680e-01 -4.546355e-02 -4.183568e-01 -1.695689e-01 -2.849659e-02
<VARIANCE> 39
 3.802749e+00 1.351709e+01 1.805401e+01 1.009301e+01 1.510872e+01 3.167704e+01 2.080405e+01 2.340095e+01 1.476279e+01 1.507358e+01 1.013767e+01 2.963460e+01 5.808692e+00 2.596087e-01 5.822801e-01 3.113106e+00 8.713951e-01 2.320647e+00 1.095391e+00 1.113873e+00 1.430453e+00 1.282636e+00 1.467657e+00 1.938384e+00 1.249714e+00 1.132236e-01 4.066507e-02 8.014772e-02 1.270073e-01 1.078095e-01 1.193645e-01 2.680721e-01 1.886458e-01 3.129447e-01 2.007411e-01 2.236975e-01 1.711659e-01 2.420601e-01 1.968266e-02
<GCONST> 7.939310e+01
<TRANSP> 5
 0.000000e+00 1.000000e+00 0.000000e+00 0.000000e+00 0.000000e+00
 0.000000e+00 8.481883e-01 1.518117e-01 0.000000e+00 0.000000e+00
 0.000000e+00 0.000000e+00 8.634166e-01 1.365834e-01 0.000000e+00
 0.000000e+00 0.000000e+00 0.000000e+00 8.970180e-01 1.029820e-01
 0.000000e+00 0.000000e+00 0.000000e+00 0.000000e+00 0.000000e+00
<ENDHMM>
~h "eh"
<BEGINHMM>
<NUMSTATES> 5
<STATE> 2
<MEAN> 39
 -7.032444e-01 -3.300101e+00 7.592793e+00 3.578247e-01 -3.517111e+00 -3.471019e+00 -9.063291e+00 -5.403978e+00 -4.965454e-01 -2.682843e+00 -4.355983e+00 -1.244569e+01 6.864210e+01 -3.235204e-01 2.263977e+00 1.129701e+00 2.258850e+00 1.672077e+00 -1.568397e+00 4.401429e-01 -1.125411e+00 -3.085332e+00 2.542497e-01 7.041594e-01 8.229361e-01 -1.409592e+00 7.090908e-02 -5.156223e-01 -1.133913e-01 -6.456453e-01 -5.829778e-02 9.993668e-02 -1.161178e-01 5.731362e-01 5.395987e-01 -3.867522e-01 2.417114e-01 -1.353406e-01 2.572788e-01
<VARIANCE> 39
 4.524882e+00 2.751616e+01 1.251229e+01 1.956865e+01 1.636082e+01 2.097468e+01 1.419633e+01 1.701198e+01 3.531449e+01 1.554392e+01 2.569002e+01 9.157579e+00 5.233723e+00 2.659239e-01 1.380981e+00 5.171669e-01 1.711371e+00 8.827072e-01 1.170018e+00 1.340780e+00 2.219762e+00 1.951736e+00 1.801949e+00 1.262116e+00 8.034730e-01 3.139658e-01 4.346122e-02 3.415610e-01 9.454584e-02 3.329195e-01 2.449750e-01 3.581415e-01 3.019366e-01 2.957956e-01 7.321694e-01 3.072986e-01 3.215186e-01 1.228883e-01 5.970752e-02
<GCONST> 8.680439e+01
<STATE> 3
<MEAN> 39
 -2.218636e+00 -5.658001e-01 1.111716e+01 3.642404e+00 1.034723e+00 -7.257560e+00 -8.091298e+00 -4.421269e+00 -1.899498e+00 -3.866563e+00 -2.720060e+00 -9.827283e+00 6.508955e+01 -2.068920e-01 9.265389e-02 1.568937e-02 -2.580479e-02 3.213530e-01 -1.766399e-01 2.063457e-01 1.277777e-01 3.975392e-01 -4.693997e-02 -2.067972e-01 2.587409e-01 -2.842316e-01 -4.340267e-03 -7.429390e-02 -1.540537e-01 -1.755449e-01 -9.779415e-02 1.477349e-01 -2.921348e-02 3.681784e-02 1.758795e-01 3.202072e-02 -9.780719e-02 -3.506261e-02 6.475168e-02
<VARIANCE> 39
 3.902339e+00 6.660687e+00 8.792163e+00 8.806338e+00 8.901462e+00 1.207865e+01 1.482094e+01 1.068743e+01 1.416516e+01 1.250677e+01 1.489742e+01 1.389324e+01 3.999235e+00 2.057809e-01 5.725715e-01 5.744844e-01 6.974152e-01 8.024977e-01 1.133560e+00 1.080175e+00 1.015247e+00 1.182763e+00 1.096266e+00 1.085096e+00 1.095643e+00 9.310272e-02 4.105515e-02 1.353262e-01 9.146740e-02 1.678669e-01 1.684448e-01 2.216447e-01 2.054814e-01 2.057943e-01 3.575641e-01 1.699158e-01 1.996668e-01 2.441978e-01 2.297681e-02
<GCONST> 7.051052e+01
<STATE> 4
<MEAN> 39
 -3.273767e+00 -1.132090e+00 6.445545e+00 -2.269544e-01 3.114459e+00 -5.239343e+00 -4.117787e+00 -2.188947e+00 4.382090e-01 -3.895621e+00 -5.271218e+00 -8.292818e+00 6.400069e+01 -1.610258e-01 -1.102884e-01 -5.935380e-01 -4.937186e-01 9.542564e-02 3.862076e-01 4.430408e-01 3.479012e-01 3.497116e-01 8.206879e-02 1.978652e-02 3.846203e-01 -1.834993e-01 -2.583826e-02 -1.898535e-02 1.696167e-03 7.581308e-02 -5.345052e-02 -6.126973e-02 3.226812e-02 1.724635e-02 -2.361967e-03 6.835564e-02 1.674838e-01 8.346938e-02 -2.226342e-02
<VARIANCE> 39
 6.029641e+00 1.402315e+01 1.246604e+01 9.953101e+00 1.558340e+01 1.615703e+01 2.006109e+01 1.588653e+01 2.241463e+01 1.801930e+01 1.721345e+01 1.610877e+01 6.198989e+00 2.390304e-01 6.611413e-01 8.441407e-01 1.036408e+00 1.246107e+00 1.431038e+00 1.656443e+00 1.352991e+00 2.106067e+00 1.111729e+00 1.634089e+00 1.366273e+00 1.790906e-01 4.676118e-02 1.270829e-01 1.539140e-01 1.426067e-01 2.560429e-01 3.126222e-01 2.873149e-01 2.754675e-01 3.782335e-01 2.445448e-01 3.246437e-01 2.529814e-01 2.535509e-02
<GCONST> 8.245862e+01
<TRANSP> 5
 0.000000e+00 1.000000e+00 0.000000e+00 0.000000e+00 0.000000e+00
 0.000000e+00 6.934944e-01 3.065056e-01 0.000000e+00 0.000000e+00
 0.000000e+00 0.000000e+00 8.942843e-01 1.057157e-01 0.000000e+00
 0.000000e+00 0.000000e+00 0.000000e+00 8.561698e-01 1.438302e-01
 0.000000e+00 0.000000e+00 0.000000e+00 0.000000e+00 0.000000e+00
<ENDHMM>
~h "sp"
<BEGINHMM>
<NUMSTATES> 3
<STATE> 2
~s "silst"
<TRANSP> 3
 0.000000e+00 3.367842e-01 6.632159e-01
 0.000000e+00 9.377016e-01 6.229844e-02
 0.000000e+00 0.000000e+00 0.000000e+00
<ENDHMM>
~h "sil"
<BEGINHMM>
<NUMSTATES> 5
<STATE> 2
<MEAN> 39
 -6.819558e+00 -5.208936e+00 -1.065792e-01 -5.849448e+00 -3.518631e+00 -7.042466e+00 -4.684432e+00 -1.871310e+00 3.598295e+00 9.736933e-01 9.773198e-01 -4.902787e+00 6.152800e+01 -1.686156e-02 4.534321e-02 5.028875e-02 8.519256e-02 1.074661e-01 -4.254350e-03 8.345993e-03 -3.939052e-02 3.620561e-03 -3.132343e-02 -2.222063e-02 -1.096129e-02 -1.215524e-01 -4.846260e-02 3.693683e-02 1.869640e-02 1.943666e-02 -1.608319e-02 9.220283e-03 9.346939e-03 3.839933e-02 -6.124587e-02 -7.132016e-02 -7.928777e-03 4.606065e-02 -8.477427e-03
<VARIANCE> 39
 6.215495e+00 9.750629e+00 1.606240e+01 1.838699e+01 1.578332e+01 2.392190e+01 2.283342e+01 2.279041e+01 3.153527e+01 2.276553e+01 2.386091e+01 2.339512e+01 3.900728e+00 2.485028e-01 4.745082e-01 6.385269e-01 9.135669e-01 1.067826e+00 1.376597e+00 1.399959e+00 1.726363e+00 1.769715e+00 1.647709e+00 1.515094e+00 1.631946e+00 1.028852e-01 3.917236e-02 7.402538e-02 1.021955e-01 1.507754e-01 1.814709e-01 2.469860e-01 2.597026e-01 3.312669e-01 3.412379e-01 3.225425e-01 2.806538e-01 2.868750e-01 1.313157e-02
<GCONST> 8.157970e+01
<STATE> 3
~s "silst"
<STATE> 4
<MEAN> 39
 -8.832068e+00 -4.951551e+00 1.576550e+00 -5.092965e+00 -4.821753e+00 -7.876228e+00 -5.131121e+00 -1.179502e+00 1.531795e+00 -1.650446e+00 1.554009e-01 -4.210593e+00 6.219507e+01 1.726786e-02 -8.117115e-02 -8.052763e-02 -9.570517e-02 -1.238495e-01 1.765821e-02 -6.447993e-02 3.600535e-02 1.081864e-01 6.290820e-02 -5.649928e-02 -5.049508e-02 1.789367e-01 2.833842e-02 -4.764396e-04 9.195688e-03 1.083828e-02 8.189768e-02 3.507148e-02 5.442321e-02 1.732306e-04 6.249854e-02 9.684717e-03 -2.571677e-02 -4.543288e-02 -3.123477e-02
<VARIANCE> 39
 7.969429e+00 1.349085e+01 2.307869e+01 2.149361e+01 2.585250e+01 3.858411e+01 2.508239e+01 3.106488e+01 2.754966e+01 2.607348e+01 3.099178e+01 2.485189e+01 6.160790e+00 6.560382e-01 8.578172e-01 1.291258e+00 1.516921e+00 1.837862e+00 2.387707e+00 2.160635e+00 2.201010e+00 2.448355e+00 1.973868e+00 2.301161e+00 1.768158e+00 3.390280e-01 1.200344e-01 1.499715e-01 2.214966e-01 2.690756e-01 3.090825e-01 4.081581e-01 4.046789e-01 4.037472e-01 4.489831e-01 3.526767e-01 4.081183e-01 3.414466e-01 5.945848e-02
<GCONST> 9.884401e+01
<TRANSP> 5
 0.000000e+00 1.000000e+00 0.000000e+00 0.000000e+00 0.000000e+00
 0.000000e+00 8.728627e-01 6.026804e-02 6.686928e-02 0.000000e+00
 0.000000e+00 0.000000e+00 9.147705e-01 8.522949e-02 0.000000e+00
 0.000000e+00 1.207956e-01 0.000000e+00 8.343503e-01 4.485415e-02
 0.000000e+00 0.000000e+00 0.000000e+00 0.000000e+00 0.000000e+00
<ENDHMM>
