~o
<STREAMINFO> 1 39
<VECSIZE> 39<NULLD><MFCC_D_A_0><DIAGC>
~s "silst"
<MEAN> 39
 -8.334448e+00 -3.841479e+00 1.743501e-01 -4.232130e+00 1.235421e+00 -7.854328e+00 -4.179544e+00 3.182309e-02 3.116225e+00 -2.697126e+00 3.292040e-01 -3.293034e+00 5.906685e+01 1.939853e-03 2.594770e-02 -1.733701e-02 -8.765151e-02 7.324897e-02 -1.083127e-02 4.373927e-02 -6.409160e-03 -1.471871e-01 5.037398e-02 2.453321e-02 1.418624e-02 -1.046159e-02 6.241460e-05 4.375823e-03 -3.149577e-04 -3.514959e-02 -3.860905e-02 -6.255920e-03 4.000332e-02 3.087716e-02 4.982622e-02 4.710228e-02 1.968185e-02 -2.837096e-02 4.535326e-02
<VARIANCE> 39
 5.575730e+00 1.042374e+01 1.271086e+01 1.235945e+01 2.320931e+01 2.995376e+01 2.502234e+01 2.789027e+01 2.583140e+01 2.153651e+01 1.945898e+01 1.947175e+01 5.221088e+00 3.845303e-01 6.707165e-01 9.432992e-01 1.153830e+00 1.451089e+00 2.345820e+00 2.130121e+00 2.283707e+00 2.069830e+00 2.033360e+00 1.733641e+00 1.546245e+00 2.388243e-01 6.835740e-02 1.223526e-01 1.701850e-01 2.110580e-01 2.636766e-01 4.609172e-01 4.241369e-01 4.341056e-01 3.971444e-01 4.173988e-01 3.371764e-01 2.979029e-01 3.821459e-02
<GCONST> 9.105793e+01
~h "I"
<BEGINHMM>
<NUMSTATES> 5
<STATE> 2
<MEAN> 39
 -4.836035e+00 3.554362e+00 -1.905933e+00 8.519675e-01 1.496598e+00 -7.890294e+00 -5.670342e-01 -5.654031e+00 6.215419e+00 -4.093974e+00 1.851810e+00 -7.676881e+00 6.688663e+01 -1.167453e+00 1.325802e+00 -5.544495e-01 1.373439e+00 -2.526799e-01 -1.590770e-01 1.132759e+00 -1.406486e+00 1.702066e+00 -3.486272e-01 2.780567e-01 5.036436e-01 1.189014e+00 -6.454476e-01 -1.775085e-01 -2.345880e-01 -3.759781e-02 -1.132446e-01 -1.117187e-01 3.329433e-01 -7.870381e-02 1.087490e-01 6.846471e-02 -1.384356e-01 3.187926e-01 -1.074063e-02
<VARIANCE> 39
 6.411827e+01 1.655045e+01 4.436091e+01 3.389888e+01 1.439160e+01 6.630796e+01 5.782473e+01 2.279227e+01 4.927184e+01 1.976892e+01 1.741796e+01 2.825147e+01 1.707623e+01 3.284568e+00 7.659229e-01 1.541268e+00 1.629785e+00 1.458886e+00 1.827772e+00 2.430425e+00 2.067047e+00 4.728906e+00 2.182804e+00 1.860324e+00 1.929886e+00 3.914990e-01 3.036289e-01 2.194403e-01 2.774808e-01 2.236309e-01 2.364258e-01 3.810498e-01 4.172952e-01 3.910363e-01 1.089013e+00 6.972836e-01 4.683512e-01 4.633090e-01 7.741015e-02
<GCONST> 1.089659e+02
<STATE> 3
<MEAN> 39
 -1.858834e+01 3.738513e+00 -6.278778e+00 4.102304e+00 -1.743889e+00 -8.430173e+00 7.334455e+00 -1.004703e+01 1.112870e+01 -5.395801e+00 -8.176581e-02 -3.031851e+00 7.123227e+01 -4.396287e-01 -1.064869e-01 2.516187e-01 1.878425e-01 2.125031e-02 -3.056883e-01 -1.304186e-01 -2.669816e-01 -3.741046e-01 1.150948e-02 -4.268328e-01 4.221693e-01 2.806374e-01 5.360420e-01 -1.119351e-01 3.028694e-01 -8.205152e-02 6.948595e-03 -3.148161e-01 -4.584652e-01 -3.104767e-04 -2.043204e-01 -2.274707e-02 3.441153e-03 -2.208998e-02 -5.040990e-02
<VARIANCE> 39
 2.390629e+01 1.582023e+01 3.975045e+01 3.716438e+01 1.339339e+01 3.554804e+01 3.122850e+01 9.828151e+00 2.891613e+01 2.075979e+01 2.423691e+01 1.948568e+01 3.743178e+00 2.591104e+00 8.927743e-01 1.388808e+00 7.492962e-01 1.446924e+00 2.176756e+00 2.245623e+00 9.090530e-01 1.171860e+00 2.008005e+00 1.643131e+00 1.273222e+00 1.684571e-01 1.692390e-01 2.937087e-01 1.509033e-01 1.610590e-01 3.568438e-01 3.154652e-01 4.034756e-01 2.267490e-01 2.615343e-01 4.541079e-01 3.515916e-01 2.761527e-01 4.043456e-02
<GCONST> 9.426478e+01
<STATE> 4
<MEAN> 39
 -1.235127e+01 3.119345e+00 1.582200e+00 5.071926e+00 -1.875165e+00 -1.659541e+01 1.510954e+00 -1.382781e+01 8.855873e+00 -5.346753e+00 -6.789219e-01 1.722652e-01 7.396457e+01 1.147530e+00 -1.346980e+00 2.490987e+00 -6.263257e-01 -8.004321e-01 -1.127544e+00 -1.262275e+00 2.786331e-01 -8.153009e-01 -5.597052e-01 -8.352148e-03 4.452194e-01 3.270554e-01 1.775020e-01 -3.469867e-01 3.716863e-01 -2.503425e-01 -2.872266e-01 4.311262e-01 -2.767785e-01 3.978159e-01 -3.855240e-02 -1.998000e-01 1.983843e-01 -2.319178e-01 -5.732573e-04
<VARIANCE> 39
 2.617694e+01 1.234783e+01 8.180657e+01 2.937008e+01 1.278965e+01 3.257291e+01 2.639742e+01 1.139385e+01 2.456469e+01 9.877677e+00 1.108023e+01 1.343363e+01 2.387092e+00 7.137839e-01 1.613448e+00 3.247038e+00 1.746104e+00 1.709328e+00 2.233335e+00 1.589167e+00 2.832520e+00 2.142201e+00 1.227647e+00 9.248853e-01 1.323238e+00 2.443565e-01 3.189033e-01 1.813744e-01 3.651147e-01 1.769987e-01 2.418084e-01 3.465379e-01 5.012057e-01 2.562723e-01 2.803804e-01 2.338577e-01 2.215127e-01 2.041920e-01 2.510535e-02
<GCONST> 9.319692e+01
<TRANSP> 5
 0.000000e+00 1.000000e+00 0.000000e+00 0.000000e+00 0.000000e+00
 0.000000e+00 6.707761e-01 3.292239e-01 0.000000e+00 0.000000e+00
 0.000000e+00 0.000000e+00 8.418260e-01 1.581739e-01 0.000000e+00
 0.000000e+00 0.000000e+00 0.000000e+00 7.427591e-01 2.572409e-01
 0.000000e+00 0.000000e+00 0.000000e+00 0.000000e+00 0.000000e+00
<ENDHMM>
~h "T"
<BEGINHMM>
<NUMSTATES> 5
<STATE> 2
<MEAN> 39
 -9.721433e+00 -3.275524e+00 -1.958401e+00 -5.408779e+00 8.442007e-02 -6.393422e+00 -1.615513e+00 -4.171987e+00 4.765606e+00 -2.877177e+00 2.759448e+00 -5.448611e+00 6.278265e+01 -1.068885e+00 5.947528e-01 -3.529325e-01 5.807259e-01 -4.248909e-01 -8.054826e-01 5.355067e-01 -4.104847e-01 3.380451e-01 1.191053e-01 -5.096934e-02 3.196689e-03 5.529318e-01 -5.204915e-02 -1.171150e-01 -9.209238e-02 8.694641e-02 -1.958074e-01 -6.730066e-02 -1.063887e-01 6.575505e-02 1.163347e-01 -1.171711e-01 -2.144386e-01 5.810691e-02 1.018854e-01
<VARIANCE> 39
 1.208145e+01 9.432178e+00 1.213722e+01 2.296837e+01 1.884178e+01 1.969991e+01 2.214733e+01 1.872447e+01 2.903519e+01 1.920187e+01 1.250622e+01 1.410384e+01 3.364282e+00 3.009751e-01 1.000943e+00 9.792477e-01 1.731260e+00 1.637843e+00 1.939310e+00 4.154268e+00 2.801013e+00 2.013479e+00 2.696338e+00 1.634653e+00 1.826127e+00 4.168434e-01 9.904556e-02 1.952611e-01 1.754065e-01 3.247476e-01 2.819763e-01 2.987659e-01 4.677588e-01 5.090587e-01 3.811625e-01 5.250043e-01 2.350078e-01 4.410813e-01 5.619266e-02
<GCONST> 9.407082e+01
<STATE> 3
<MEAN> 39
 -1.504145e+01 -3.184005e+00 -3.713511e+00 -1.713659e+00 -2.000629e+00 -6.986817e+00 -5.465155e-01 -4.644021e+00 7.347419e+00 -3.144827e+00 1.058589e+00 -2.950838e+00 6.707559e+01 9.792431e-02 -2.811355e-01 5.194697e-01 1.750180e-02 -2.971783e-01 2.343124e-01 1.087025e-01 -2.700851e-01 2.864809e-01 1.139799e-01 -7.316745e-02 -6.292205e-02 5.622315e-01 3.474046e-01 -6.716889e-02 3.476960e-01 3.406845e-02 -1.640621e-02 7.764557e-02 -9.347842e-02 -1.484123e-01 -8.346999e-02 1.038062e-01 4.588626e-02 -1.058477e-01 -4.426068e-02
<VARIANCE> 39
 5.755660e+00 9.566645e+00 9.421874e+00 1.291771e+01 1.416572e+01 1.754196e+01 1.736622e+01 2.255459e+01 1.992534e+01 1.504893e+01 2.335930e+01 1.884609e+01 6.417538e+00 1.645870e+00 5.915707e-01 2.492047e+00 1.390776e+00 1.863959e+00 1.921288e+00 1.869828e+00 2.325932e+00 1.309783e+00 1.541916e+00 1.670784e+00 2.253627e+00 4.308327e-01 1.648775e-01 1.015920e-01 2.733145e-01 3.299169e-01 4.619068e-01 4.551094e-01 5.019599e-01 4.620513e-01 2.590074e-01 3.311421e-01 3.566002e-01 4.686911e-01 8.749490e-02
<GCONST> 9.457388e+01
<STATE> 4
<MEAN> 39
 -6.933552e+00 -8.695695e+00 6.631344e+00 1.793965e+00 -5.518731e+00 -7.571918e+00 -3.571273e+00 -1.011021e+01 8.421987e+00 -7.184626e-01 1.433272e+00 -6.888856e+00 7.009100e+01 2.414681e+00 -1.055578e+00 1.063104e+00 9.828464e-01 -1.122502e+00 -8.740439e-01 -1.474648e+00 -6.398059e-01 -1.786390e-01 5.410017e-01 -3.858824e-01 3.994041e-02 8.808331e-01 -9.139195e-02 -2.307412e-01 -2.813063e-01 -2.282805e-02 -2.320205e-01 -2.767494e-01 -1.629517e-01 4.283517e-01 -2.628828e-02 -1.545322e-01 7.598756e-02 4.632636e-01 2.106382e-01
<VARIANCE> 39
 4.880106e+01 2.118603e+01 1.345142e+01 2.259764e+01 1.729449e+01 2.709661e+01 5.172184e+01 1.483957e+01 3.343946e+01 1.691275e+01 2.986055e+01 1.739374e+01 1.156534e+01 3.117578e+00 1.178632e+00 2.354351e+00 1.775290e+00 3.933777e+00 1.471788e+00 3.957455e+00 3.319020e+00 3.382445e+00 3.280388e+00 2.655493e+00 3.993216e+00 1.855483e+00 7.635992e-01 1.942589e-01 7.645670e-01 3.683269e-01 8.076528e-01 4.440756e-01 7.434080e-01 3.675771e-01 5.441427e-01 4.124333e-01 7.440993e-01 6.270128e-01 2.410162e-01
<GCONST> 1.154379e+02
<TRANSP> 5
 0.000000e+00 1.000000e+00 0.000000e+00 0.000000e+00 0.000000e+00
 0.000000e+00 7.362328e-01 2.637672e-01 0.000000e+00 0.000000e+00
 0.000000e+00 0.000000e+00 8.942992e-01 1.057009e-01 0.000000e+00
 0.000000e+00 0.000000e+00 0.000000e+00 7.834513e-01 2.165487e-01
 0.000000e+00 0.000000e+00 0.000000e+00 0.000000e+00 0.000000e+00
<ENDHMM>
~h "e"
<BEGINHMM>
<NUMSTATES> 5
<STATE> 2
<MEAN> 39
 -1.593241e+01 -9.622413e-01 -2.605257e+00 1.613255e+00 -1.114278e+00 -1.001199e+01 -7.086945e-02 -5.907574e+00 6.982254e+00 -4.846002e+00 -1.622492e+00 -2.972366e+00 6.823463e+01 4.067443e+00 -9.425322e-01 1.012077e+00 -9.164103e-01 -1.214033e+00 -1.344384e+00 -2.230574e+00 -1.626311e-01 -2.160276e-01 6.299689e-01 -5.570513e-01 -1.331258e+00 4.586424e-01 7.674136e-01 -6.628358e-01 1.460566e-02 -7.153383e-01 -4.799128e-01 -5.197342e-02 -6.250485e-01 2.294729e-01 5.116236e-01 1.118754e-01 3.366508e-02 -3.183287e-01 7.273697e-01
<VARIANCE> 39
 3.217071e+01 6.837973e+00 8.144319e+00 2.102879e+01 2.192250e+01 2.185933e+01 2.351599e+01 4.160268e+01 1.796240e+01 2.274529e+01 1.050667e+01 2.197641e+01 2.804252e+01 5.080308e+00 2.058997e+00 8.375534e-01 2.528883e+00 2.071661e+00 1.494609e+00 3.415793e+00 1.686875e+00 1.242871e+00 1.659939e+00 3.295341e+00 2.029581e+00 1.015817e+00 4.378537e-01 1.718437e-01 1.904676e-01 2.452251e-01 3.077222e-01 4.204953e-01 3.991428e-01 4.595861e-01 5.090908e-01 4.047585e-01 2.371913e-01 2.705991e-01 1.027704e-01
<GCONST> 1.026877e+02
<STATE> 3
<MEAN> 39
 -6.396514e+00 -2.024014e+00 -1.117847e+00 -1.409608e+00 -4.156959e+00 -1.248177e+01 -4.888858e+00 -4.518547e+00 6.775550e+00 -1.583232e+00 -2.059146e+00 -5.566630e+00 6.827905e+01 3.838529e+00 -2.056622e+00 8.251138e-01 -2.141994e+00 -1.697329e+00 -8.105620e-01 -2.355040e+00 2.816076e-01 8.579559e-01 2.399273e-01 -4.301212e-01 -1.427492e+00 1.929362e+00 -5.466778e-01 -6.664403e-01 -4.759717e-02 -2.876328e-01 -1.518586e-01 5.376024e-01 2.006556e-01 2.373947e-01 4.117538e-01 -3.283069e-01 1.356007e-02 1.089912e-01 7.001520e-01
<VARIANCE> 39
 2.669186e+01 9.232456e+00 1.290307e+01 2.311132e+01 1.252263e+01 2.450619e+01 1.552286e+01 5.958022e+01 1.879143e+01 4.024699e+01 3.305148e+01 2.234582e+01 3.806300e+01 4.558433e+00 2.249535e+00 1.257141e+00 2.375047e+00 3.658646e+00 1.467936e+00 2.211154e+00 3.037628e+00 2.620207e+00 2.285738e+00 1.820221e+00 1.356164e+00 9.499843e-01 6.800316e-01 1.813544e-01 1.992490e-01 4.989703e-01 5.704919e-01 2.862031e-01 7.806680e-01 3.243954e-01 5.883659e-01 4.554788e-01 5.549492e-01 3.343805e-01 2.692979e-01
<GCONST> 1.100598e+02
<STATE> 4
<MEAN> 39
 -2.724503e+00 -7.418849e+00 3.864063e+00 -5.152211e+00 -1.029222e+01 -1.252072e+01 -9.276337e+00 -3.385753e-01 3.747582e+00 -2.945251e+00 -7.622511e-01 -4.802681e+00 7.118555e+01 1.574651e+00 -2.364356e+00 1.635101e+00 -7.338099e-01 -2.807636e+00 1.354998e-01 -1.516703e+00 5.963679e-01 3.674250e-01 -2.004873e-01 2.806076e-02 -6.426670e-02 2.885426e+00 -6.244255e-01 6.539437e-02 -9.360255e-02 9.598593e-02 3.272658e-01 2.855096e-01 5.520331e-01 -6.186726e-02 1.221785e-01 -5.726163e-02 1.799302e-01 2.785442e-01 -5.439166e-02
<VARIANCE> 39
 8.609271e+00 2.145147e+01 3.585838e+01 9.852927e+00 5.572844e+01 1.665297e+01 2.445678e+01 3.911895e+01 4.271955e+01 1.943384e+01 1.642889e+01 2.565333e+01 4.820306e+01 1.740641e+00 1.686649e+00 1.530192e+00 3.538260e+00 4.245177e+00 1.884901e+00 2.458444e+00 2.008939e+00 4.142011e+00 1.972983e+00 1.243873e+00 2.166823e+00 1.217598e+00 6.051328e-01 3.722224e-01 3.069067e-01 3.092271e-01 9.386089e-01 4.726945e-01 7.033595e-01 4.054292e-01 1.388819e-01 4.116475e-01 2.278877e-01 1.950036e-01 4.386787e-01
<GCONST> 1.101203e+02
<TRANSP> 5
 0.000000e+00 1.000000e+00 0.000000e+00 0.000000e+00 0.000000e+00
 0.000000e+00 3.634269e-01 6.365731e-01 0.000000e+00 0.000000e+00
 0.000000e+00 0.000000e+00 2.221305e-01 7.778696e-01 0.000000e+00
 0.000000e+00 0.000000e+00 0.000000e+00 5.443131e-01 4.556870e-01
 0.000000e+00 0.000000e+00 0.000000e+00 0.000000e+00 0.000000e+00
<ENDHMM>
~h "f"
<BEGINHMM>
<NUMSTATES> 5
<STATE> 2
<MEAN> 39
 -8.486713e+00 -6.267823e+00 -1.645154e+00 -3.954759e+00 -1.206942e+00 -5.296238e+00 -2.915088e+00 -8.925305e-01 7.080088e+00 -2.454958e+00 5.550372e-01 -5.490238e+00 6.447285e+01 -5.747589e-01 8.125071e-02 -4.174887e-02 2.626635e-01 4.854082e-02 7.535926e-02 1.157607e-01 -2.490519e-01 -2.398220e-03 -2.662552e-02 5.099442e-02 8.467265e-02 2.890785e-01 -1.714132e-02 1.569541e-02 2.135880e-02 3.150722e-02 2.379187e-02 3.704352e-02 7.358074e-04 -6.756009e-03 3.750956e-02 7.835222e-02 2.798874e-02 5.810473e-02 8.762285e-03
<VARIANCE> 39
 2.580680e+01 1.239883e+01 1.591898e+01 2.144974e+01 2.286131e+01 1.641035e+01 1.416749e+01 3.791528e+01 2.256887e+01 2.300366e+01 2.105470e+01 1.455770e+01 9.470040e+00 2.798294e-01 6.629324e-01 7.893699e-01 1.564362e+00 1.986847e+00 1.577013e+00 1.427788e+00 2.324191e+00 1.770772e+00 1.705661e+00 1.930134e+00 1.602590e+00 2.691433e-01 4.077601e-02 1.124846e-01 1.505179e-01 2.446852e-01 2.974145e-01 3.016312e-01 2.829442e-01 4.455498e-01 3.323180e-01 3.136693e-01 3.551303e-01 3.087644e-01 1.937215e-02
<GCONST> 8.992426e+01
<STATE> 3
<MEAN> 39
 -1.730338e+01 -5.189767e+00 -1.193672e+00 -2.099324e-01 -9.756373e-01 -4.156622e+00 -1.205267e+00 -4.615560e+00 9.328304e+00 -1.859210e+00 1.763694e+00 -3.559571e+00 6.944087e+01 4.208543e-01 1.487408e-02 -1.416523e-01 -2.639830e-01 5.376417e-02 1.089282e-01 1.946509e-01 -9.642597e-02 -3.033149e-02 3.004853e-02 -1.512594e-01 -1.437038e-01 -4.190122e-02 5.948183e-01 5.522704e-02 6.023752e-02 -2.773773e-01 -1.252938e-01 4.600589e-03 -7.945769e-02 -1.213762e-01 -2.532942e-01 -2.651529e-01 -1.528526e-01 -1.707546e-01 -6.670108e-02
<VARIANCE> 39
 1.431804e+01 8.077845e+00 1.253009e+01 2.071798e+01 1.474805e+01 1.632128e+01 1.695152e+01 1.800021e+01 1.904535e+01 2.524702e+01 1.713030e+01 2.129316e+01 4.550077e+00 1.775564e+00 9.144044e-01 9.612499e-01 1.125739e+00 1.401655e+00 1.477305e+00 1.952347e+00 1.148857e+00 1.707535e+00 1.462519e+00 1.354039e+00 1.807532e+00 4.012550e-01 2.904333e-01 2.009590e-01 2.440737e-01 3.288784e-01 3.753331e-01 2.991890e-01 4.463374e-01 2.691075e-01 3.108700e-01 3.388410e-01 2.493454e-01 3.893970e-01 9.218105e-02
<GCONST> 9.314155e+01
<STATE> 4
<MEAN> 39
 -1.859651e+00 -6.121479e+00 -1.110379e+00 -1.045631e+01 -5.002895e+00 -2.118043e-01 -2.092227e+00 -7.953454e+00 5.302495e+00 -6.533235e+00 -3.720703e-01 -6.703378e+00 7.091806e+01 3.656925e+00 -5.426990e-01 2.882729e-01 -3.694846e+00 -2.100349e+00 1.543320e+00 -6.506357e-01 -6.088613e-01 -4.753867e-01 -1.606122e+00 2.650157e-01 -2.812025e-02 1.712728e+00 -6.438847e-01 -2.860424e-01 -6.997192e-02 -8.277435e-02 -9.304503e-02 8.412091e-02 -5.967496e-02 3.222886e-01 2.699742e-01 1.501374e-01 1.700499e-01 2.808521e-01 3.404833e-01
<VARIANCE> 39
 5.512851e+01 4.215151e+01 1.914388e+01 7.335996e+01 3.800714e+01 3.594923e+01 1.902218e+01 4.100741e+01 2.168507e+01 1.685851e+01 2.094582e+01 1.941138e+01 3.082695e+01 4.674534e+00 4.698717e+00 2.360762e+00 2.984685e+00 3.215770e+00 2.803746e+00 2.303753e+00 2.939531e+00 3.138717e+00 2.142902e+00 3.212642e+00 3.392878e+00 1.862979e+00 1.034839e+00 4.176675e-01 3.010253e-01 1.412825e+00 9.158483e-01 4.516889e-01 3.637326e-01 4.572720e-01 4.929205e-01 3.844584e-01 5.829368e-01 4.910998e-01 4.918770e-01
<GCONST> 1.219691e+02
<TRANSP> 5
 0.000000e+00 1.000000e+00 0.000000e+00 0.000000e+00 0.000000e+00
 0.000000e+00 9.295007e-01 7.049933e-02 0.000000e+00 0.000000e+00
 0.000000e+00 0.000000e+00 8.505981e-01 1.494019e-01 0.000000e+00
 0.000000e+00 0.000000e+00 0.000000e+00 7.567343e-01 2.432657e-01
 0.000000e+00 0.000000e+00 0.000000e+00 0.000000e+00 0.000000e+00
<ENDHMM>
~h "i"
<BEGINHMM>
<NUMSTATES> 5
<STATE> 2
<MEAN> 39
 -3.548288e+00 -9.389494e+00 2.355293e+01 5.946029e-01 -1.879359e+01 -5.014316e+00 -1.426978e+01 -2.283617e+00 -3.537637e+00 -7.420515e+00 7.951898e+00 -1.036103e+00 7.454636e+01 -1.570232e-01 6.307890e-01 -1.362775e-01 2.470663e-02 4.518965e-01 4.805343e-01 4.491305e-01 2.169155e-01 -1.915403e-01 7.074535e-01 -1.329380e-01 -8.388724e-02 -5.577875e-01 5.602028e-02 -2.936006e-02 -2.522003e-01 6.322447e-02 1.724399e-01 -3.347428e-02 2.741431e-01 6.360380e-02 2.298000e-01 1.064093e-01 -1.398176e-01 -6.366638e-03 -5.487230e-02
<VARIANCE> 39
 4.717395e+00 1.576044e+01 1.512351e+01 5.797203e+00 2.015301e+01 1.588118e+01 1.857640e+01 1.553195e+01 1.835136e+01 2.078881e+01 2.286354e+01 1.073561e+01 7.511387e+00 2.950363e-01 6.697823e-01 1.871077e+00 4.590374e-01 1.604157e+00 9.146302e-01 2.714200e+00 1.101009e+00 1.686148e+00 1.260441e+00 9.593565e-01 5.126857e-01 2.175504e-01 3.722692e-02 9.026612e-02 1.232085e-01 7.397638e-02 1.944836e-01 1.496884e-01 2.780912e-01 1.691719e-01 2.601314e-01 1.873500e-01 1.532796e-01 1.097364e-01 2.285421e-02
<GCONST> 7.570805e+01
<STATE> 3
<MEAN> 39
 -5.446212e+00 -4.433022e+00 1.345006e+01 4.103304e+00 -5.093510e+00 -1.012634e+00 2.589206e+00 4.328863e+00 2.879587e+00 -1.082253e+00 1.748415e+00 -1.970917e+00 6.589771e+01 -4.875224e-01 -1.588849e-01 -1.122950e+00 -6.583147e-02 1.380665e+00 -7.918507e-02 6.085736e-01 3.252923e-01 1.058867e+00 -4.271087e-01 -5.722663e-01 5.099613e-03 -7.244890e-01 -2.899033e-02 -1.505264e-01 7.062024e-03 -1.561692e-01 -1.889992e-01 -2.172975e-01 -5.383261e-01 -1.886303e-01 -9.290507e-02 -1.409311e-01 2.528887e-02 4.555050e-02 3.964917e-02
<VARIANCE> 39
 5.127707e+00 8.594075e+00 1.970549e+01 1.011495e+01 3.154205e+01 1.832667e+01 3.208116e+01 1.829422e+01 3.842011e+01 2.916069e+01 2.189927e+01 2.515817e+01 7.444646e+00 1.547655e-01 5.684355e-01 1.017930e+00 1.413934e+00 1.675401e+00 2.979448e+00 5.565729e+00 1.870510e+00 1.898806e+00 2.090636e+00 1.760647e+00 2.057185e+00 1.108569e-01 2.688365e-02 7.613689e-02 2.367235e-01 1.965413e-01 2.218677e-01 4.473885e-01 5.533571e-01 2.866115e-01 4.177465e-01 5.068004e-01 3.293824e-01 3.453300e-01 2.362297e-02
<GCONST> 9.030073e+01
<STATE> 4
<MEAN> 39
 -9.034420e+00 -6.424341e+00 8.748338e-01 -1.833323e+00 1.742750e+00 -9.102983e+00 -5.431728e+00 2.341790e+00 6.267351e+00 -4.280788e+00 -1.414543e+00 -3.494742e+00 6.089794e+01 -1.133168e-01 4.156925e-02 -7.694997e-01 -3.499306e-01 2.127737e-01 -2.303740e-01 -5.799295e-01 -7.036913e-01 -1.274152e-01 -6.558011e-03 -1.721493e-01 -2.937937e-01 -1.640800e-01 3.708117e-02 7.011993e-02 1.652340e-01 7.113757e-02 -3.054068e-02 1.394825e-01 1.126453e-01 -6.012000e-02 -2.514400e-02 2.555150e-02 7.877740e-02 -6.886371e-02 6.399532e-02
<VARIANCE> 39
 6.013628e+00 4.980559e+00 2.032572e+01 1.644586e+01 1.913988e+01 2.700352e+01 2.284140e+01 2.553753e+01 2.717637e+01 2.032733e+01 1.911590e+01 2.585878e+01 4.443427e+00 2.830084e-01 4.711075e-01 9.773769e-01 9.780071e-01 1.138628e+00 2.172808e+00 2.213496e+00 1.419253e+00 1.722422e+00 1.360657e+00 1.752497e+00 2.292233e+00 1.258732e-01 5.167031e-02 7.229859e-02 1.271119e-01 1.607763e-01 2.279645e-01 3.525588e-01 3.735247e-01 2.286944e-01 3.544261e-01 2.066067e-01 3.508321e-01 4.557474e-01 1.931638e-02
<GCONST> 8.481862e+01
<TRANSP> 5
 0.000000e+00 1.000000e+00 0.000000e+00 0.000000e+00 0.000000e+00
 0.000000e+00 9.333474e-01 6.665261e-02 0.000000e+00 0.000000e+00
 0.000000e+00 0.000000e+00 8.977612e-01 1.022388e-01 0.000000e+00
 0.000000e+00 0.000000e+00 0.000000e+00 9.137192e-01 8.628085e-02
 0.000000e+00 0.000000e+00 0.000000e+00 0.000000e+00 0.000000e+00
<ENDHMM>
~h "k"
<BEGINHMM>
<NUMSTATES> 5
<STATE> 2
<MEAN> 39
 -6.895405e+00 -7.508492e+00 5.742878e+00 -2.527453e+00 -9.176568e+00 -1.290361e+01 -5.035483e+00 -2.514399e+00 1.984877e+00 -5.120299e+00 3.744641e+00 -2.523012e+00 7.197959e+01 4.266538e-01 -3.227577e-01 6.995883e-03 2.800884e-01 1.969413e-01 -3.850977e-02 -5.419511e-01 3.765448e-01 9.987304e-02 2.211407e-01 1.108617e-01 -4.892983e-02 -2.099490e-01 -2.057365e-01 1.918558e-02 -1.624812e-01 5.270949e-02 4.878806e-02 -2.920879e-02 1.586668e-01 -7.399527e-02 1.278647e-01 1.449649e-02 -3.756560e-02 4.335314e-02 9.171199e-02
<VARIANCE> 39
 2.284905e+01 4.625723e+01 9.861509e+01 2.191196e+01 7.527898e+01 2.155765e+01 4.095827e+01 3.425024e+01 6.593961e+01 3.320110e+01 2.923562e+01 1.760640e+01 6.319929e+01 4.328606e+00 4.741987e+00 9.187178e+00 2.373390e+00 5.965176e+00 2.180974e+00 6.185524e+00 2.975232e+00 6.736079e+00 2.380674e+00 2.526555e+00 2.231541e+00 4.103096e+00 4.567687e-01 6.186798e-01 8.050129e-01 4.392351e-01 6.626437e-01 3.556014e-01 7.773178e-01 5.344004e-01 9.527574e-01 4.788162e-01 3.260134e-01 4.392101e-01 4.986511e-01
<GCONST> 1.284846e+02
<STATE> 3
<MEAN> 39
 -1.684882e+01 -5.277518e+00 -7.697152e+00 6.599856e+00 1.877210e+00 -1.751932e+01 -2.715789e-01 -6.883295e+00 1.530908e+01 -4.310205e+00 -3.415685e+00 -1.582863e+00 7.164832e+01 -1.665732e+00 9.345546e-01 2.764865e-01 5.993526e-02 -2.475185e-01 -5.719926e-01 1.497362e+00 -8.248194e-01 8.563292e-01 -4.570739e-01 -1.030928e-01 2.191025e-01 8.390174e-01 1.041844e-01 2.200930e-01 1.467340e-01 -4.321035e-01 -1.140642e-01 4.284114e-01 1.478072e-01 1.620638e-01 -3.231778e-01 1.088706e-01 3.287184e-01 -1.261843e-01 -2.544833e-01
<VARIANCE> 39
 2.644330e+01 1.353738e+01 1.746315e+01 1.122314e+01 1.376988e+01 1.033485e+01 3.248278e+01 1.533876e+01 1.687504e+01 1.005422e+01 1.237425e+01 9.685596e+00 1.308588e+01 1.351078e+00 1.244860e+00 2.510096e+00 1.597600e+00 1.207343e+00 2.273637e+00 2.077634e+00 1.430016e+00 2.018067e+00 1.355098e+00 1.817991e+00 1.241764e+00 7.019256e-01 3.487372e-01 3.778652e-01 7.325851e-01 1.767911e-01 2.408074e-01 2.061852e-01 3.879769e-01 2.125375e-01 3.741569e-01 2.358512e-01 1.946090e-01 3.760758e-01 1.613588e-01
<GCONST> 9.553498e+01
<STATE> 4
<MEAN> 39
 -2.004511e+01 9.660448e-01 -5.951463e+00 -5.554202e-01 3.747793e+00 -1.422305e+01 6.960212e+00 -8.179220e+00 1.210926e+01 -5.503455e+00 -1.826990e+00 -3.006336e+00 7.209285e+01 4.320286e-01 7.046026e-02 2.431138e-01 -4.209738e-01 3.133852e-01 1.730154e-01 -3.185496e-01 3.218640e-01 -4.124044e-01 -6.203508e-02 -1.785716e-01 -2.787490e-01 -3.973066e-01 8.841793e-02 -6.745972e-02 5.865537e-02 6.463730e-02 -2.257349e-02 -3.551073e-02 -1.834964e-01 3.070592e-02 2.637193e-02 2.186242e-02 -5.838109e-02 -1.522096e-02 -5.891512e-02
<VARIANCE> 39
 1.054667e+01 8.416967e+00 1.550434e+01 2.062473e+01 2.037676e+01 1.338995e+01 2.785376e+01 2.069455e+01 2.392261e+01 1.819869e+01 2.307322e+01 1.670261e+01 7.357097e+00 3.516432e-01 3.733126e-01 7.027838e-01 8.088764e-01 9.760933e-01 1.629405e+00 2.555130e+00 1.547511e+00 1.235563e+00 1.537650e+00 1.115629e+00 1.175703e+00 1.773123e-01 3.225062e-02 4.934220e-02 1.164689e-01 1.053754e-01 1.839753e-01 2.974789e-01 3.447165e-01 2.804010e-01 2.447030e-01 3.020037e-01 2.127903e-01 2.675475e-01 1.487283e-02
<GCONST> 8.058475e+01
<TRANSP> 5
 0.000000e+00 1.000000e+00 0.000000e+00 0.000000e+00 0.000000e+00
 0.000000e+00 9.540575e-01 4.594243e-02 0.000000e+00 0.000000e+00
 0.000000e+00 0.000000e+00 8.554747e-01 1.445253e-01 0.000000e+00
 0.000000e+00 0.000000e+00 0.000000e+00 9.430474e-01 5.695258e-02
 0.000000e+00 0.000000e+00 0.000000e+00 0.000000e+00 0.000000e+00
<ENDHMM>
~h "n"
<BEGINHMM>
<NUMSTATES> 5
<STATE> 2
<MEAN> 39
 -2.742072e+00 -1.165282e+00 5.928697e+00 2.759552e+00 2.452854e+00 -6.169881e+00 -3.743190e+00 -2.908730e+00 4.922714e+00 2.250823e+00 2.409136e+00 -7.960197e+00 6.407030e+01 -4.197808e-01 9.034073e-01 -2.347779e-01 1.794479e-01 1.363911e+00 8.012707e-01 1.013812e+00 4.380333e-01 6.975667e-02 5.419290e-01 -4.898967e-01 -2.337414e-01 -8.450717e-01 -7.130691e-02 -4.193066e-01 8.496141e-02 -1.970858e-01 -3.840386e-01 1.666619e-01 1.325621e-01 3.209260e-01 1.882454e-01 -3.264110e-01 2.944075e-02 2.247736e-01 1.992588e-01
<VARIANCE> 39
 7.609018e+00 1.787062e+01 1.243480e+01 1.930287e+01 2.077025e+01 2.909151e+01 1.492280e+01 2.440518e+01 1.750749e+01 2.404463e+01 1.685085e+01 1.174947e+01 6.504120e+00 3.884079e-01 1.797229e+00 9.738387e-01 1.085192e+00 1.868610e+00 1.446561e+00 1.538978e+00 6.091995e+00 1.941832e+00 3.159389e+00 2.122204e+00 1.449426e+00 5.520537e-01 7.059785e-02 2.626253e-01 1.468682e-01 1.651930e-01 2.593697e-01 2.734195e-01 2.929168e-01 7.152244e-01 2.949253e-01 3.783472e-01 3.356961e-01 2.134394e-01 6.388121e-02
<GCONST> 9.335149e+01
<STATE> 3
<MEAN> 39
 -4.650732e+00 -4.700443e+00 1.889307e+00 -2.864041e+00 3.181356e+00 -1.495973e+00 -1.711793e+00 1.972928e+00 8.178164e+00 4.174771e-01 -6.265141e-01 -7.711006e+00 6.284100e+01 -3.405431e-01 -3.656232e-01 -2.131304e-01 -2.778231e-01 -2.113256e-01 -1.647612e-01 -2.344738e-02 2.307854e-01 1.397834e-01 -2.827309e-01 -2.572172e-01 1.636106e-01 -1.897059e-01 -2.160131e-03 -5.214386e-02 7.719257e-03 -9.462187e-03 -1.559686e-01 -1.822666e-01 -2.014707e-01 -2.434419e-01 -6.408995e-02 -1.033015e-02 6.799632e-02 4.394215e-02 5.337864e-02
<VARIANCE> 39
 6.070065e+00 2.181051e+01 2.808611e+01 3.555722e+01 1.931765e+01 2.891925e+01 2.380123e+01 2.079184e+01 2.507795e+01 2.042906e+01 2.410623e+01 2.115610e+01 5.077425e+00 3.308333e-01 1.244284e+00 9.696218e-01 1.977589e+00 1.474003e+00 1.824902e+00 1.548951e+00 2.086939e+00 2.072834e+00 1.663836e+00 1.866615e+00 1.583298e+00 1.926428e-01 4.804162e-02 2.380109e-01 1.517816e-01 3.121475e-01 3.071526e-01 3.221498e-01 2.812870e-01 3.879074e-01 3.889748e-01 2.840846e-01 3.857609e-01 3.143822e-01 4.021043e-02
<GCONST> 9.312309e+01
<STATE> 4
<MEAN> 39
 -6.300426e+00 -3.994730e+00 4.605864e+00 -1.281111e+00 3.443639e-01 -6.071947e+00 -3.894594e+00 -1.441268e+00 6.291629e+00 -9.095794e-01 -1.249980e-01 -5.790245e+00 6.228752e+01 1.549579e-01 -2.973329e-01 6.007611e-02 -4.800209e-02 -5.220606e-01 -7.566326e-02 -3.446258e-01 -4.995599e-01 5.010055e-02 8.150177e-02 2.022836e-01 1.101429e-01 3.390824e-01 5.916275e-02 -2.875894e-02 -1.511483e-01 -2.907086e-02 3.177320e-02 7.180379e-02 -2.029989e-02 8.098027e-02 2.934592e-02 7.900747e-03 -5.518784e-03 -7.984625e-02 7.910511e-02
<VARIANCE> 39
 2.306415e+01 2.034686e+01 2.448708e+01 1.817485e+01 3.561400e+01 2.099886e+01 2.099041e+01 4.195971e+01 3.214412e+01 3.824554e+01 2.133408e+01 2.265885e+01 1.119947e+01 1.084478e+00 2.228426e+00 1.598641e+00 1.592020e+00 2.535746e+00 2.148551e+00 1.845454e+00 2.098984e+00 2.599252e+00 2.902269e+00 2.339440e+00 2.464790e+00 7.764041e-01 1.495135e-01 3.615664e-01 2.699579e-01 2.953755e-01 4.493384e-01 4.177860e-01 3.511118e-01 4.677303e-01 4.675512e-01 5.273292e-01 5.012219e-01 4.682966e-01 1.237134e-01
<GCONST> 1.075559e+02
<TRANSP> 5
 0.000000e+00 1.000000e+00 0.000000e+00 0.000000e+00 0.000000e+00
 0.000000e+00 6.560350e-01 3.439650e-01 0.000000e+00 0.000000e+00
 0.000000e+00 0.000000e+00 8.438261e-01 1.561739e-01 0.000000e+00
 0.000000e+00 0.000000e+00 0.000000e+00 8.489312e-01 1.510688e-01
 0.000000e+00 0.000000e+00 0.000000e+00 0.000000e+00 0.000000e+00
<ENDHMM>
~h "o"
<BEGINHMM>
<NUMSTATES> 5
<STATE> 2
<MEAN> 39
 7.064484e+00 -1.384557e+01 -3.003092e+00 -5.423612e+00 -6.811947e+00 -4.257164e+00 -1.279893e+01 -1.058191e+01 1.060697e+01 -2.661383e-01 1.627426e+00 3.289956e+00 7.528400e+01 1.844424e-02 1.006777e-01 -3.678342e-01 -6.044214e-01 -1.905071e-01 3.984630e-01 8.115826e-01 4.689658e-01 -1.383499e-01 -3.127617e-02 3.928617e-01 1.006284e-01 -1.375782e-01 -5.325806e-02 9.037999e-02 8.099568e-02 9.249393e-02 3.115042e-02 -7.982723e-02 5.179619e-02 8.373768e-02 -7.726496e-02 -8.999344e-02 9.240345e-03 -1.799543e-02 -4.427662e-02
<VARIANCE> 39
 9.300405e-01 5.022619e+00 5.844646e+00 1.524027e+01 4.689864e+00 9.018827e+00 2.011948e+01 2.247712e+01 1.158984e+01 1.644564e+01 1.306830e+01 1.031448e+01 1.377268e+00 1.116028e-01 7.352355e-01 1.965359e-01 3.116073e-01 3.767099e-01 3.204601e-01 4.171365e-01 1.147116e+00 1.618521e+00 8.795472e-01 5.849599e-01 7.914014e-01 1.747501e-01 1.760965e-02 5.876542e-02 3.958660e-02 6.018813e-02 7.930699e-02 1.153837e-01 7.356235e-02 2.247038e-01 2.011065e-01 1.371313e-01 8.927533e-02 1.138027e-01 1.363166e-02
<GCONST> 5.355000e+01
<STATE> 3
<MEAN> 39
 4.223372e+00 -5.062325e+00 -2.873729e+00 -7.866710e+00 -9.163295e-01 -5.596572e-01 1.342265e+00 -4.156452e+00 1.256297e+00 -1.471924e+00 3.832717e+00 5.193521e+00 6.913605e+01 -8.022818e-01 6.730320e-01 7.457718e-01 6.358465e-01 1.252331e+00 7.211766e-01 1.444390e+00 7.499565e-01 -5.493476e-01 2.382629e-01 -5.575036e-01 -1.608754e-01 -8.257293e-01 -1.411093e-01 -1.803774e-01 1.842871e-01 1.030279e-02 -2.437243e-02 9.881414e-02 -8.601734e-02 -1.909822e-02 2.114248e-01 -7.177922e-02 -8.792984e-02 -8.117510e-02 1.061211e-02
<VARIANCE> 39
 8.255569e+00 7.439131e+00 1.117093e+01 1.733388e+01 2.829912e+01 2.394796e+01 3.910318e+01 4.195658e+01 2.162652e+01 1.963737e+01 1.060098e+01 1.234405e+01 6.323775e+00 3.547289e-01 8.307314e-01 8.185524e-01 1.267024e+00 9.025663e-01 1.942826e+00 7.749771e-01 1.955850e+00 1.857110e+00 1.045483e+00 1.597940e+00 7.234803e-01 2.804506e-01 3.270255e-02 5.539712e-02 1.105325e-01 1.883288e-01 1.683777e-01 1.989117e-01 1.617050e-01 4.403406e-01 2.595599e-01 1.934368e-01 2.798025e-01 1.684428e-01 3.909336e-02
<GCONST> 8.156909e+01
<STATE> 4
<MEAN> 39
 -4.991864e+00 -6.639175e+00 -7.269610e-01 -6.752246e+00 3.100713e+00 3.196348e+00 3.685678e+00 -2.775208e+00 1.661525e+00 -2.728971e+00 8.522130e-01 1.588452e+00 6.302325e+01 -5.729928e-01 -3.547994e-01 -4.907503e-01 -4.197512e-01 7.631795e-03 -5.692014e-01 -8.201049e-01 -1.136507e-02 3.853173e-01 -1.234574e-01 -1.600703e-01 -6.888596e-01 -2.548452e-01 9.198561e-02 -3.620936e-03 -1.464689e-01 -7.557045e-02 -5.575871e-02 -2.827922e-01 -1.212662e-01 8.361646e-02 8.788899e-02 1.012642e-01 5.078134e-02 -5.466711e-02 1.027692e-01
<VARIANCE> 39
 6.705405e+00 1.537901e+01 2.890682e+01 1.920572e+01 3.154283e+01 2.645221e+01 2.813338e+01 3.014804e+01 3.741149e+01 1.966116e+01 3.303020e+01 4.065496e+01 2.830980e+00 6.088405e-01 5.027053e-01 1.787657e+00 1.124926e+00 1.224590e+00 1.752483e+00 1.642172e+00 2.244847e+00 2.867139e+00 1.523090e+00 2.029342e+00 1.825878e+00 2.674750e-01 3.968581e-02 1.106132e-01 4.419682e-01 2.514974e-01 2.337866e-01 2.968738e-01 2.925937e-01 3.598151e-01 5.873752e-01 2.809909e-01 3.680701e-01 2.736821e-01 1.699046e-02
<GCONST> 9.327789e+01
<TRANSP> 5
 0.000000e+00 1.000000e+00 0.000000e+00 0.000000e+00 0.000000e+00
 0.000000e+00 9.380478e-01 6.195219e-02 0.000000e+00 0.000000e+00
 0.000000e+00 0.000000e+00 8.799902e-01 1.200099e-01 0.000000e+00
 0.000000e+00 0.000000e+00 0.000000e+00 9.036742e-01 9.632584e-02
 0.000000e+00 0.000000e+00 0.000000e+00 0.000000e+00 0.000000e+00
<ENDHMM>
~h "r"
<BEGINHMM>
<NUMSTATES> 5
<STATE> 2
<MEAN> 39
 -1.066405e+00 -8.438370e+00 8.285748e+00 1.209772e+00 -5.188923e+00 -1.096334e+01 -5.598344e+00 -4.977678e+00 4.758402e+00 -2.831597e+00 7.082861e-01 -1.730830e+00 7.313472e+01 5.122103e-01 -1.485834e+00 1.051020e+00 1.889164e-01 -1.014765e+00 -2.962118e-01 -1.105886e+00 7.801177e-01 5.456969e-02 -6.401262e-01 4.373178e-01 -1.048036e-01 3.375456e-01 -2.472411e-01 -1.887368e-02 -2.806879e-01 -4.117768e-03 -1.888527e-01 -3.968767e-02 2.025863e-02 -6.870418e-02 1.266997e-01 -4.141412e-01 1.259630e-02 1.144411e-01 2.176426e-03
<VARIANCE> 39
 1.836541e+01 1.548854e+01 1.451476e+02 2.162116e+01 6.182211e+01 5.012285e+01 2.743961e+01 6.561359e+01 1.592660e+01 6.860457e+01 1.100504e+01 1.547203e+01 1.836505e+01 2.225168e+00 1.416926e+00 3.013602e+00 3.258636e+00 3.222061e+00 3.585086e+00 1.635646e+00 2.448241e+00 1.053021e+00 3.113876e+00 1.954474e+00 2.001037e+00 1.153282e+00 2.838331e-01 1.843711e-01 9.433086e-01 4.698651e-01 6.261718e-01 4.832450e-01 3.128155e-01 7.946056e-01 3.714333e-01 6.339025e-01 3.873056e-01 3.048413e-01 1.099654e-01
<GCONST> 1.137772e+02
<STATE> 3
<MEAN> 39
 1.294429e+00 -1.456371e+01 1.218002e+01 2.340759e+00 -1.135823e+01 -1.314606e+01 -1.215223e+01 -3.518322e+00 6.629036e+00 -8.335508e+00 1.683490e+00 -2.990316e-01 7.612719e+01 2.182349e-01 -4.086312e-01 3.681399e-02 3.579388e-01 -5.526893e-01 3.648044e-01 -1.102489e+00 3.638287e-01 -1.219673e-01 -6.626308e-01 5.399625e-01 5.833363e-01 6.580587e-02 -1.544575e-01 5.409204e-01 -2.341502e-01 -2.659446e-01 3.204645e-01 4.180775e-01 1.720985e-01 -4.789801e-01 -3.804147e-01 4.893261e-01 1.147617e-01 -6.535961e-02 -2.112727e-01
<VARIANCE> 39
 9.746784e+00 1.944317e+01 6.876752e+01 1.768104e+01 6.333668e+01 3.130244e+01 3.434555e+01 2.171760e+01 1.016987e+01 4.963766e+01 1.563247e+01 1.302037e+01 1.789640e+01 1.955659e+00 1.286566e+00 1.091970e+01 1.544627e+00 4.253724e+00 1.638519e+00 1.501984e+00 4.148160e+00 2.894610e+00 7.030005e+00 3.312950e+00 1.194978e+00 6.537156e-01 1.510507e-01 1.579942e-01 4.557501e-01 3.528351e-01 4.097889e-01 3.259760e-01 2.618460e-01 2.726827e-01 2.700083e-01 6.294369e-01 4.565808e-01 2.495602e-01 7.974900e-02
<GCONST> 1.074508e+02
<STATE> 4
<MEAN> 39
 -1.759715e+00 -1.064165e+01 1.333187e+00 1.820765e+00 -2.302513e+00 -5.649842e+00 -4.705729e+00 -3.025323e+00 4.328004e+00 -2.533946e+00 2.665691e+00 -3.261894e+00 6.743337e+01 -1.696885e-01 2.011266e-01 2.456118e-01 -6.971388e-01 -2.357467e-01 6.096472e-01 -1.193041e-01 -8.700605e-01 -6.440639e-01 3.013034e-01 3.307469e-01 -2.757515e-02 -3.661265e-01 -6.365096e-03 9.677877e-02 2.501035e-02 -1.290618e-01 8.961854e-02 -1.179974e-01 1.894041e-02 6.872428e-02 -1.163830e-03 -5.271174e-02 -1.179872e-01 -1.289937e-02 4.407987e-02
<VARIANCE> 39
 1.659073e+01 1.305543e+01 7.435764e+01 1.262598e+01 9.192147e+01 4.006296e+01 7.812398e+01 5.004063e+01 2.200738e+01 2.815957e+01 2.097333e+01 2.502172e+01 4.253167e+01 6.945829e-01 7.995960e-01 2.156784e+00 8.098649e-01 1.982807e+00 2.940177e+00 1.665143e+00 2.159350e+00 2.576068e+00 1.824795e+00 1.886835e+00 1.558341e+00 1.707758e-01 6.107847e-02 1.279161e-01 3.462144e-01 1.667539e-01 4.551209e-01 4.810029e-01 3.723371e-01 4.227262e-01 3.448697e-01 4.947126e-01 3.040574e-01 4.250257e-01 4.985948e-02
<GCONST> 1.028111e+02
<TRANSP> 5
 0.000000e+00 1.000000e+00 0.000000e+00 0.000000e+00 0.000000e+00
 0.000000e+00 6.247982e-01 3.752017e-01 0.000000e+00 0.000000e+00
 0.000000e+00 0.000000e+00 6.536796e-01 3.463204e-01 0.000000e+00
 0.000000e+00 0.000000e+00 0.000000e+00 6.553723e-01 3.446278e-01
 0.000000e+00 0.000000e+00 0.000000e+00 0.000000e+00 0.000000e+00
<ENDHMM>
~h "s"
<BEGINHMM>
<NUMSTATES> 5
<STATE> 2
<MEAN> 39
 -9.659279e+00 -4.618001e+00 1.566913e-01 -3.992653e+00 3.017908e+00 -8.656796e+00 -3.869140e+00 -5.028991e-01 8.404178e+00 -1.722412e+00 1.351945e+00 -5.690916e+00 6.408468e+01 -1.080353e+00 5.168164e-01 -4.404017e-01 2.511671e-01 2.679062e-01 -1.017899e+00 9.418067e-01 -8.800967e-01 3.479944e-01 -7.857977e-05 1.721603e-02 2.300270e-01 5.850822e-01 -2.746745e-01 1.793038e-01 -2.331215e-01 8.852359e-02 -1.124372e-01 -1.357679e-02 3.057600e-01 -1.625093e-01 -5.708623e-02 -2.187852e-01 -5.523832e-02 1.583145e-01 1.188310e-01
<VARIANCE> 39
 1.142854e+01 1.281526e+01 1.878319e+01 2.045199e+01 2.444430e+01 2.479203e+01 4.497475e+01 4.248005e+01 1.535741e+01 2.030304e+01 2.398088e+01 8.929978e+00 5.833677e+00 1.290140e+00 1.048774e+00 9.886771e-01 1.405462e+00 2.458787e+00 2.759611e+00 4.472154e+00 2.512693e+00 1.765638e+00 2.494028e+00 2.296320e+00 1.692675e+00 6.245167e-01 9.580230e-02 1.271487e-01 1.388330e-01 1.767739e-01 3.603470e-01 3.367918e-01 6.069302e-01 4.781180e-01 2.480289e-01 4.769020e-01 4.448106e-01 2.943633e-01 4.242010e-02
<GCONST> 9.799503e+01
<STATE> 3
<MEAN> 39
 -1.727158e+01 -4.899553e-01 -4.071859e+00 -8.057777e-01 1.844530e+00 -1.068783e+01 3.104541e+00 -4.836908e+00 8.804015e+00 -3.656404e+00 9.317657e-01 -3.495887e+00 6.799129e+01 -1.336644e+00 5.233012e-01 -7.574289e-01 3.517894e-01 -9.270046e-01 1.145732e-01 6.634330e-01 -5.968798e-01 1.381253e-01 -2.114949e-01 3.552106e-01 2.248976e-01 7.221735e-01 1.420597e-01 -1.107124e-01 8.883682e-02 -5.125954e-02 -1.385193e-01 1.628518e-01 -2.384886e-01 1.238095e-01 -1.106057e-01 1.458318e-02 2.792639e-02 -9.920459e-02 -5.576853e-02
<VARIANCE> 39
 1.462755e+01 1.333504e+01 1.479287e+01 2.265685e+01 2.524262e+01 2.974827e+01 3.073738e+01 3.632122e+01 2.643996e+01 2.352391e+01 2.900765e+01 1.237606e+01 9.563596e+00 6.786783e-01 5.468774e-01 7.284418e-01 1.095595e+00 9.699007e-01 1.109029e+00 1.800159e+00 2.122292e+00 1.333467e+00 1.678473e+00 1.307750e+00 1.161823e+00 2.721138e-01 4.315544e-02 8.346646e-02 1.145065e-01 1.525970e-01 2.135968e-01 3.062691e-01 2.748807e-01 3.890554e-01 3.121147e-01 3.703437e-01 2.727882e-01 2.499909e-01 2.642946e-02
<GCONST> 8.798540e+01
<STATE> 4
<MEAN> 39
 -2.286843e+01 1.139619e+00 -7.054234e+00 2.043373e+00 -2.240299e+00 -9.024239e+00 3.563489e+00 -8.051521e+00 9.504563e+00 -5.822510e+00 1.442073e+00 -2.052111e+00 7.119795e+01 5.989560e-02 -2.265563e-03 4.051844e-02 7.372635e-02 -1.231890e-01 1.948605e-01 -7.071321e-02 3.038062e-02 -1.145318e-02 -6.273298e-02 -2.664681e-01 2.664778e-02 1.395778e-01 3.192474e-01 -1.098046e-01 1.300994e-01 -7.097929e-02 9.695699e-02 -4.451377e-02 -7.526270e-02 5.710074e-02 -2.756765e-02 6.900085e-02 -8.534846e-02 -8.027206e-02 -3.930528e-02
<VARIANCE> 39
 7.207962e+00 8.105473e+00 1.309809e+01 1.912022e+01 2.713779e+01 2.122992e+01 3.450982e+01 2.497116e+01 2.603364e+01 2.124109e+01 2.299006e+01 2.453580e+01 3.838148e+00 7.213729e-01 5.908140e-01 7.607995e-01 9.546998e-01 9.797650e-01 1.826189e+00 1.794654e+00 1.342893e+00 1.593113e+00 1.363884e+00 1.619767e+00 1.528096e+00 1.529271e-01 2.105304e-01 6.883319e-02 1.052722e-01 2.069040e-01 2.050941e-01 3.433019e-01 4.054375e-01 2.772171e-01 2.730438e-01 2.532740e-01 3.150111e-01 3.122037e-01 2.644752e-02
<GCONST> 8.694902e+01
<TRANSP> 5
 0.000000e+00 1.000000e+00 0.000000e+00 0.000000e+00 0.000000e+00
 0.000000e+00 7.406108e-01 2.593892e-01 0.000000e+00 0.000000e+00
 0.000000e+00 0.000000e+00 7.878831e-01 2.121169e-01 0.000000e+00
 0.000000e+00 0.000000e+00 0.000000e+00 8.640794e-01 1.359206e-01
 0.000000e+00 0.000000e+00 0.000000e+00 0.000000e+00 0.000000e+00
<ENDHMM>
~h "t"
<BEGINHMM>
<NUMSTATES> 5
<STATE> 2
<MEAN> 39
 -5.546725e+00 -4.420188e+00 -6.424894e-01 -5.369195e+00 -2.225100e+00 -6.286178e+00 -5.753634e+00 1.006726e+00 4.210330e+00 -2.921604e+00 2.470477e+00 -4.429108e+00 6.309770e+01 -6.295841e-02 -4.654742e-02 3.257548e-01 -1.318804e-01 -3.077937e-01 -2.910134e-01 1.039514e-03 5.293188e-02 -9.141292e-02 -1.086424e-01 2.136010e-01 2.057281e-01 -2.887090e-02 -5.304064e-02 6.989519e-02 4.267768e-02 8.451241e-02 1.194017e-01 1.704166e-02 2.714760e-02 -9.372862e-02 -3.123125e-03 4.134623e-02 -1.736114e-02 -3.315664e-02 -5.119544e-02
<VARIANCE> 39
 1.216645e+01 2.128652e+01 2.404691e+01 1.236975e+01 4.727887e+01 3.946385e+01 2.053163e+01 1.982737e+01 1.571461e+01 1.620841e+01 1.530645e+01 2.627573e+01 1.541306e+01 4.457549e-01 5.995419e-01 7.859956e-01 1.327532e+00 2.102098e+00 1.672486e+00 1.574975e+00 2.252547e+00 1.288127e+00 1.610533e+00 1.336956e+00 1.630329e+00 2.386727e-01 6.102688e-02 1.018744e-01 1.062832e-01 2.447210e-01 4.006039e-01 2.346898e-01 2.943296e-01 4.406438e-01 2.341678e-01 2.239980e-01 2.542305e-01 3.159888e-01 4.729135e-02
<GCONST> 9.040732e+01
<STATE> 3
<MEAN> 39
 -3.142751e+00 -9.604181e+00 2.030110e+01 -3.705471e+00 -2.011939e+01 -8.735294e+00 -1.103392e+01 -2.693544e+00 -3.467683e+00 -4.589810e+00 6.787928e+00 -2.014672e+00 7.468652e+01 -3.677829e-02 2.936351e-01 2.125083e-01 2.930667e-01 4.046858e-01 1.514737e-01 1.252445e-01 -1.750238e-01 3.754438e-02 5.806976e-03 4.689401e-02 -8.379143e-02 -3.853833e-01 -2.452036e-02 7.677273e-02 -2.396184e-01 -2.120417e-02 2.327986e-01 1.050539e-02 8.323447e-02 1.161529e-01 1.408001e-01 3.851943e-02 -1.101427e-01 -2.227247e-02 -1.228026e-01
<VARIANCE> 39
 3.155492e+00 1.165537e+01 4.957051e+01 1.922061e+01 3.031615e+01 2.032277e+01 2.830202e+01 2.682568e+01 3.332770e+01 1.060373e+01 2.059616e+01 8.808971e+00 2.165667e+01 1.564597e-01 4.084446e-01 2.752430e+00 7.076701e-01 2.415454e+00 7.372269e-01 1.138464e+00 1.440202e+00 1.261917e+00 6.331600e-01 9.871711e-01 6.056021e-01 6.886889e-01 3.453856e-02 5.182126e-02 2.384574e-01 1.579012e-01 2.784965e-01 1.492258e-01 1.489888e-01 1.725176e-01 1.836007e-01 1.310872e-01 1.260238e-01 1.419663e-01 6.386048e-02
<GCONST> 8.026888e+01
<STATE> 4
<MEAN> 39
 -8.102173e+00 -3.804654e+00 3.079868e+00 -2.620664e+00 -1.170389e+00 -7.658239e+00 -2.771370e+00 1.070394e+00 7.821262e+00 -4.185146e+00 7.040478e-01 -2.139117e+00 6.231129e+01 -2.810759e-01 2.535191e-02 -7.094702e-01 -2.387180e-01 4.294360e-01 9.014886e-02 3.038748e-01 7.603500e-02 2.785142e-01 1.315014e-01 -1.294744e-01 -1.124885e-02 -1.300621e-01 -6.320063e-02 -1.069485e-01 1.669400e-01 -5.800916e-02 -2.449161e-01 6.690918e-02 -1.706448e-01 -5.393066e-02 -1.787370e-01 -2.349998e-02 9.018089e-02 5.604048e-02 1.806384e-01
<VARIANCE> 39
 1.936205e+01 1.111221e+01 2.597755e+01 1.834907e+01 2.027835e+01 2.871816e+01 2.369055e+01 1.834751e+01 3.180870e+01 2.486193e+01 1.770639e+01 2.506720e+01 1.075773e+01 1.493112e+00 1.197844e+00 2.835237e+00 1.807828e+00 3.621484e+00 2.974910e+00 2.856019e+00 2.285689e+00 3.997633e+00 2.470132e+00 1.786764e+00 2.352642e+00 1.336934e+00 2.925760e-01 2.277972e-01 4.392315e-01 3.493019e-01 6.739576e-01 5.445039e-01 6.212834e-01 4.814189e-01 6.022839e-01 4.469342e-01 3.307984e-01 4.171474e-01 2.891293e-01
<GCONST> 1.099602e+02
<TRANSP> 5
 0.000000e+00 1.000000e+00 0.000000e+00 0.000000e+00 0.000000e+00
 0.000000e+00 8.255964e-01 1.744036e-01 0.000000e+00 0.000000e+00
 0.000000e+00 0.000000e+00 8.979006e-01 1.020994e-01 0.000000e+00
 0.000000e+00 0.000000e+00 0.000000e+00 9.009737e-01 9.902627e-02
 0.000000e+00 0.000000e+00 0.000000e+00 0.000000e+00 0.000000e+00
<ENDHMM>
~h "u"
<BEGINHMM>
<NUMSTATES> 5
<STATE> 2
<MEAN> 39
 -2.018774e+01 -4.314540e+00 3.630116e+00 -7.782917e+00 -5.860887e+00 -8.199102e-01 -6.288538e+00 1.591021e+00 3.286618e+00 -3.008190e+00 1.673096e+00 5.555444e-01 7.169827e+01 -1.202755e+00 3.631837e-02 5.806533e-01 2.725393e-01 -8.883671e-01 5.855970e-02 -8.519969e-02 -1.323693e-01 -2.780376e-01 -2.232579e-01 5.011215e-02 1.906701e-01 1.097759e+00 3.557319e-01 5.232410e-02 3.854492e-02 2.889021e-01 8.495222e-02 -2.269657e-01 1.225447e-01 -9.540621e-02 -2.618510e-02 -1.307005e-01 -1.022643e-01 -1.753373e-01 -2.414227e-01
<VARIANCE> 39
 3.743486e+01 2.031330e+01 1.483804e+01 2.687904e+01 2.420029e+01 3.178297e+01 3.647751e+01 3.570469e+01 3.423507e+01 1.676758e+01 2.170816e+01 2.526190e+01 2.208591e+01 3.283564e+00 3.000656e+00 9.851381e-01 3.845121e+00 1.370101e+00 3.004627e+00 3.509863e+00 2.113336e+00 1.579115e+00 2.310766e+00 1.800947e+00 2.390718e+00 2.212887e+00 3.695258e-01 6.507533e-01 2.224940e-01 5.690376e-01 2.426733e-01 3.846623e-01 5.877172e-01 3.108360e-01 3.365179e-01 4.594477e-01 3.751941e-01 5.380982e-01 2.416282e-01
<GCONST> 1.120082e+02
<STATE> 3
<MEAN> 39
 -1.121345e+01 -6.003258e+00 1.263416e+01 3.075917e+00 -9.845265e+00 -8.369175e+00 -9.197778e+00 -1.099525e+00 -1.811841e-01 -9.072382e+00 1.044914e+00 -2.646057e+00 7.332633e+01 2.585638e+00 -7.827088e-01 1.554403e+00 1.034549e+00 -2.455060e-01 -1.622096e+00 -1.883188e+00 -4.986940e-02 -2.697470e-01 -1.033320e+00 4.138838e-01 -4.048187e-01 4.443299e-01 -2.435695e-01 -5.902428e-02 -1.234353e-01 -2.870248e-01 -3.097337e-02 1.101680e-01 -1.115949e-01 1.949798e-01 1.108902e-01 8.470331e-02 2.062057e-01 1.388039e-01 1.463722e-01
<VARIANCE> 39
 6.329152e+01 1.236385e+01 2.436493e+01 1.737038e+01 1.722097e+01 3.497417e+01 6.150734e+01 2.370037e+01 2.074283e+01 1.730800e+01 2.020864e+01 1.456828e+01 1.046124e+01 3.293757e+00 1.226465e+00 1.317869e+00 1.438224e+00 9.894523e-01 1.833790e+00 5.320979e+00 8.909547e-01 1.548646e+00 1.577372e+00 2.585962e+00 1.547530e+00 1.092935e+00 8.373835e-01 2.918999e-01 3.166735e-01 1.808165e-01 1.972017e-01 3.823170e-01 1.270071e+00 1.581246e-01 2.199089e-01 2.659426e-01 4.789564e-01 1.991671e-01 2.165267e-01
<GCONST> 1.033672e+02
<STATE> 4
<MEAN> 39
 -1.777111e+00 -7.235517e+00 1.231734e+01 3.436619e+00 -5.021051e+00 -1.198386e+01 -1.651043e+01 1.010649e-01 3.971110e+00 -7.341669e+00 3.812136e+00 -4.570395e+00 7.239875e+01 3.911200e-02 2.504177e-01 -4.706597e-01 -8.804062e-02 4.218051e-01 3.267627e-01 3.247768e-01 9.564045e-02 3.832528e-01 4.853900e-01 -2.005639e-01 -1.710351e-01 -4.052006e-01 -2.966116e-02 2.235524e-02 -2.852646e-02 -2.188744e-02 3.595641e-02 3.022896e-02 6.261045e-02 -4.210135e-03 1.861274e-02 1.479713e-02 -3.407189e-02 -1.436782e-03 -3.292897e-02
<VARIANCE> 39
 4.367867e+00 1.607007e+01 3.059775e+01 9.278443e+00 3.469565e+01 2.367045e+01 2.977008e+01 1.732645e+01 3.482175e+01 5.783204e+01 1.889870e+01 1.309705e+01 2.511115e+01 1.667832e-01 3.553638e-01 4.382043e-01 3.582062e-01 6.498826e-01 8.766322e-01 1.125158e+00 8.422157e-01 9.852073e-01 9.127320e-01 7.530563e-01 5.691984e-01 1.347708e-01 2.108113e-02 5.272356e-02 6.733567e-02 6.430182e-02 9.822735e-02 1.326315e-01 1.509201e-01 1.426351e-01 1.848740e-01 1.287133e-01 1.408643e-01 1.057563e-01 1.455367e-02
<GCONST> 7.002667e+01
<TRANSP> 5
 0.000000e+00 1.000000e+00 0.000000e+00 0.000000e+00 0.000000e+00
 0.000000e+00 9.074021e-01 9.259795e-02 0.000000e+00 0.000000e+00
 0.000000e+00 0.000000e+00 8.547243e-01 1.452757e-01 0.000000e+00
 0.000000e+00 0.000000e+00 0.000000e+00 9.655141e-01 3.448594e-02
 0.000000e+00 0.000000e+00 0.000000e+00 0.000000e+00 0.000000e+00
<ENDHMM>
~h "v"
<BEGINHMM>
<NUMSTATES> 5
<STATE> 2
<MEAN> 39
 -8.163637e-01 -1.558480e+01 -4.319124e-01 -9.724741e+00 -6.571538e+00 -7.335948e+00 -5.345793e+00 -4.383106e+00 1.608080e+01 -5.993459e+00 -5.269471e+00 -1.084815e+01 8.126297e+01 2.985865e-01 -4.136522e-01 2.338613e-02 -5.905285e-01 4.474124e-01 7.440326e-01 1.600157e-01 -1.243100e-01 2.770168e-01 1.091630e-01 4.153499e-01 -2.026956e-01 1.973918e-02 -1.831564e-01 5.495808e-01 2.010048e-02 3.541726e-01 2.309536e-01 -5.392751e-03 -1.133033e-01 -1.894898e-01 -4.408807e-01 1.941438e-01 4.305498e-01 2.179119e-01 -5.236680e-01
<VARIANCE> 39
 2.052492e+00 9.457333e+00 1.213183e+01 7.496391e+00 8.103957e+00 2.311553e+01 2.182097e+01 2.542009e+01 2.763984e+01 2.200192e+01 1.601441e+01 1.391157e+01 9.260590e+00 2.508781e-01 2.502240e+00 4.122629e-01 9.389850e-01 8.557001e-01 1.148669e+00 2.659186e+00 1.488968e+00 1.467397e+00 1.421232e+00 3.129931e+00 4.259668e-01 1.684699e+00 2.526237e-01 1.032718e-01 7.978348e-02 1.055500e-01 1.101472e-01 2.803911e-01 7.276708e-01 2.159077e-01 3.398642e-01 2.358616e-01 3.590221e-01 1.663236e-01 8.923458e-02
<GCONST> 8.472540e+01
<STATE> 3
<MEAN> 39
 7.239764e-01 -8.220345e+00 2.308422e+00 -6.431659e+00 -1.586374e+00 -6.083252e+00 -1.070499e+01 -7.996442e+00 9.031823e+00 -4.520488e-02 4.877260e+00 -7.549850e+00 7.144558e+01 -4.351689e-01 2.151167e+00 -9.953183e-02 1.190595e+00 1.598938e+00 7.026361e-01 -1.369231e-01 -3.156299e-01 -1.996311e+00 8.391870e-01 1.187551e+00 7.547746e-01 -2.275109e+00 -2.138270e-01 -2.910354e-01 -5.878044e-02 -1.423102e-01 -1.378154e-01 -2.503574e-02 5.452787e-01 4.375421e-01 2.340539e-01 -3.452431e-01 -4.658270e-01 -6.008335e-02 3.341674e-01
<VARIANCE> 39
 3.960551e+00 2.374449e+01 8.207754e+00 1.721979e+01 1.260788e+01 2.971716e+01 1.120416e+01 1.313223e+01 3.335437e+01 1.187822e+01 1.977280e+01 1.249785e+01 2.654426e+01 8.998486e-01 1.791994e+00 8.344127e-01 8.558217e-01 1.437597e+00 1.687458e+00 3.635494e+00 1.327544e+00 2.776944e+00 1.668126e+00 3.377741e+00 1.928100e+00 1.240988e+00 1.307516e-01 5.326477e-01 6.208116e-02 3.382575e-01 2.729974e-01 2.788876e-01 3.262753e-01 1.888960e-01 6.972691e-01 1.933052e-01 4.031263e-01 3.779101e-01 4.494140e-01
<GCONST> 9.650921e+01
<STATE> 4
<MEAN> 39
 -4.550930e+00 -6.839213e+00 -9.964103e-01 -6.935749e+00 1.357248e+00 -3.773889e+00 -5.636585e+00 -2.268287e+00 6.534343e+00 -1.441060e+00 2.285294e+00 -5.451561e+00 6.636463e+01 -7.473394e-02 -5.637710e-01 -3.734120e-01 -5.874684e-01 -1.089052e-01 3.464002e-01 -1.804077e-01 5.066397e-01 2.074152e-01 -4.003523e-02 7.771228e-02 -1.146313e-01 3.560818e-01 7.377575e-02 -1.522782e-01 3.384333e-02 -7.606211e-02 -1.320865e-01 -6.302613e-02 -1.448679e-01 5.914886e-02 1.210404e-01 -1.336772e-02 -3.182513e-02 -8.209362e-02 1.685393e-01
<VARIANCE> 39
 1.872871e+01 1.330727e+01 3.157891e+01 2.083711e+01 2.242844e+01 2.517871e+01 3.921348e+01 2.375883e+01 2.909176e+01 1.783554e+01 2.302738e+01 1.578705e+01 1.311465e+01 1.319749e+00 1.330794e+00 9.041513e-01 1.754581e+00 1.183352e+00 2.044906e+00 2.910152e+00 2.091672e+00 1.900610e+00 1.501976e+00 1.573975e+00 1.377221e+00 1.027454e+00 2.296933e-01 3.855813e-01 1.391829e-01 4.048010e-01 2.806018e-01 4.034030e-01 5.766837e-01 3.317356e-01 4.161581e-01 2.977306e-01 3.159057e-01 2.558387e-01 2.505464e-01
<GCONST> 1.020229e+02
<TRANSP> 5
 0.000000e+00 1.000000e+00 0.000000e+00 0.000000e+00 0.000000e+00
 0.000000e+00 8.209040e-01 1.790960e-01 0.000000e+00 0.000000e+00
 0.000000e+00 0.000000e+00 7.466605e-01 2.533395e-01 0.000000e+00
 0.000000e+00 0.000000e+00 0.000000e+00 8.827011e-01 1.172989e-01
 0.000000e+00 0.000000e+00 0.000000e+00 0.000000e+00 0.000000e+00
<ENDHMM>
~h "w"
<BEGINHMM>
<NUMSTATES> 5
<STATE> 2
<MEAN> 39
 -8.258004e+00 -4.534188e+00 1.228079e+00 -5.193469e+00 -3.127596e-01 -4.439348e+00 -2.524578e+00 2.644289e-01 3.489974e+00 -1.934620e+00 3.760155e+00 -1.826465e+00 6.062541e+01 7.330453e-02 1.343608e-01 -1.724241e-01 -1.586662e-01 4.452002e-03 -8.186784e-02 2.756224e-03 3.064423e-02 -1.589377e-01 -2.724008e-01 3.339113e-02 1.632499e-01 -7.393971e-02 1.235182e-01 7.601149e-02 4.859497e-02 4.703145e-03 -2.351678e-02 8.176985e-03 -4.216331e-02 -3.992194e-02 -6.398188e-02 -7.893712e-02 -7.917735e-02 -3.991986e-02 5.079035e-02
<VARIANCE> 39
 1.438291e+01 1.189650e+01 1.317317e+01 2.054467e+01 1.759668e+01 3.671111e+01 2.227069e+01 3.354016e+01 2.610594e+01 2.296198e+01 1.620599e+01 4.316527e+01 6.077603e+00 4.641070e-01 6.529308e-01 6.962134e-01 1.334182e+00 1.714169e+00 2.261448e+00 2.049994e+00 2.086550e+00 2.207221e+00 1.443027e+00 1.760426e+00 1.406293e+00 2.288449e-01 8.441569e-02 1.373676e-01 1.566918e-01 2.098832e-01 2.791477e-01 3.803837e-01 3.303769e-01 4.037863e-01 4.376701e-01 2.975235e-01 3.073241e-01 2.413627e-01 2.925313e-02
<GCONST> 9.208857e+01
<STATE> 3
<MEAN> 39
 -1.812228e-01 2.446692e+00 1.978391e+00 -1.129341e+01 -6.050224e+00 -1.018670e+01 -5.638020e+00 5.170690e-01 1.431478e+00 -6.198320e+00 8.012596e-01 -2.848652e+00 6.584344e+01 1.079320e+00 3.849821e-01 -3.163983e-02 -1.072770e+00 -1.234421e+00 2.752748e-02 7.860944e-02 1.978311e-01 6.700249e-02 -1.147938e-01 1.702286e-01 1.498936e-01 9.197649e-01 -7.015651e-02 -3.077816e-01 -1.826493e-01 -1.267973e-01 -5.368251e-02 2.842511e-01 1.844579e-01 1.092760e-01 5.366429e-02 7.014436e-02 7.993823e-02 -3.224662e-02 7.994553e-02
<VARIANCE> 39
 2.840590e+01 2.040751e+01 1.290788e+01 2.756202e+01 3.812968e+01 2.965688e+01 1.466713e+01 2.027308e+01 2.352280e+01 1.655099e+01 2.188994e+01 1.405065e+01 1.340563e+01 1.279961e+00 2.415010e+00 1.643090e+00 2.029188e+00 2.052425e+00 2.461416e+00 1.504921e+00 1.577276e+00 1.519230e+00 1.789820e+00 1.990505e+00 1.415132e+00 3.566440e-01 2.248944e-01 2.898335e-01 2.594021e-01 2.974318e-01 4.732291e-01 4.263023e-01 2.698276e-01 2.465991e-01 2.873101e-01 3.105612e-01 3.963113e-01 3.388867e-01 6.608450e-02
<GCONST> 1.000059e+02
<STATE> 4
<MEAN> 39
 3.789066e+00 -1.332611e+01 -5.468529e+00 -1.706411e+01 -7.742928e+00 8.042621e+00 1.946185e+00 -2.178193e+00 8.291097e-02 -5.707978e+00 3.491195e+00 -5.440667e+00 7.697115e+01 -1.713599e-01 -1.381573e+00 -4.735594e-01 5.576343e-01 7.934057e-01 1.142392e+00 1.812203e-01 -7.361639e-01 2.342384e-01 1.344698e-01 -3.810862e-02 -3.316131e-01 5.533782e-01 -5.011071e-02 1.806557e-01 1.106592e-01 1.907892e-01 9.692150e-02 -2.671220e-01 -1.741377e-01 -8.834702e-02 1.104183e-01 1.186608e-02 -7.402343e-03 4.120402e-02 -9.754313e-02
<VARIANCE> 39
 4.265122e+00 4.909116e+01 1.435630e+01 2.435326e+01 3.085923e+01 4.488985e+01 1.738011e+01 4.691162e+01 2.114340e+01 1.709730e+01 1.979730e+01 8.313038e+00 1.051155e+01 1.443758e-01 2.059082e+00 6.055868e-01 1.117033e+00 1.017911e+00 4.342408e+00 1.758632e+00 1.588968e+00 2.061845e+00 9.968022e-01 1.360593e+00 5.998625e-01 4.737955e-01 2.817450e-02 1.398394e-01 6.226083e-02 1.803454e-01 2.020727e-01 3.398693e-01 2.131479e-01 2.853086e-01 2.664812e-01 1.764041e-01 2.134099e-01 9.857134e-02 2.788660e-02
<GCONST> 8.483897e+01
<TRANSP> 5
 0.000000e+00 1.000000e+00 0.000000e+00 0.000000e+00 0.000000e+00
 0.000000e+00 9.217910e-01 7.820894e-02 0.000000e+00 0.000000e+00
 0.000000e+00 0.000000e+00 9.081661e-01 9.183393e-02 0.000000e+00
 0.000000e+00 0.000000e+00 0.000000e+00 9.269426e-01 7.305737e-02
 0.000000e+00 0.000000e+00 0.000000e+00 0.000000e+00 0.000000e+00
<ENDHMM>
~h "z"
<BEGINHMM>
<NUMSTATES> 5
<STATE> 2
<MEAN> 39
 -4.072410e+00 -3.409278e+00 4.859383e-01 -9.362100e-01 6.768082e+00 -1.901299e+00 3.723746e-01 -2.896259e-01 3.878436e+00 -1.922846e+00 -1.916915e+00 -6.887458e+00 6.105854e+01 -5.360488e-02 2.833151e-01 -2.687683e-01 -2.855698e-01 -4.740262e-01 -1.337530e+00 -9.733064e-01 -6.575100e-01 -4.883527e-01 1.327671e-01 3.265044e-01 1.101831e-01 -2.527370e-01 1.658915e-01 6.497415e-02 1.929186e-02 -2.096142e-02 -4.587806e-01 -3.101000e-01 -2.428681e-01 -1.136742e-01 -1.859054e-01 -1.275728e-01 2.800511e-01 2.021007e-01 9.948857e-02
<VARIANCE> 39
 7.366857e+00 1.747946e+01 1.130234e+01 3.186604e+01 7.242631e+00 2.774909e+01 1.436543e+01 1.310355e+01 2.157059e+01 2.336239e+01 3.562429e+01 1.268202e+01 4.104698e+00 6.009906e-01 6.454263e-01 1.263853e+00 1.262167e+00 1.439551e+00 1.388503e+00 2.305869e+00 1.254913e+00 1.687313e+00 2.086128e+00 1.203200e+00 1.248687e+00 2.328161e-01 5.157737e-02 1.251964e-01 1.396947e-01 1.898194e-01 1.514912e-01 3.833748e-01 4.201465e-01 2.232893e-01 2.022605e-01 3.498804e-01 3.384347e-01 2.117467e-01 1.159691e-02
<GCONST> 8.456744e+01
<STATE> 3
<MEAN> 39
 -5.381801e+00 -3.816941e+00 -2.147063e+00 -2.120334e+00 1.209760e+00 -6.812031e+00 -5.478431e+00 -2.604122e+00 4.320274e+00 -1.056947e+00 1.979804e+00 -4.273055e+00 5.854269e+01 9.815929e-02 1.428513e-01 2.752875e-02 -7.143296e-02 -3.625995e-01 -1.919335e-01 -1.466390e-01 1.311596e-01 1.653407e-04 -1.621473e-01 4.227709e-01 5.073025e-01 -4.718977e-02 -1.422009e-02 7.878038e-02 1.164200e-01 1.517601e-01 2.107262e-01 3.025890e-01 2.550597e-01 1.065412e-01 1.771627e-01 1.769055e-01 6.231194e-02 -1.080511e-01 -1.106821e-02
<VARIANCE> 39
 4.716247e+00 2.138355e+01 1.739034e+01 1.690207e+01 1.371696e+01 3.938906e+01 5.246920e+01 1.243560e+01 5.362432e+01 3.343339e+01 1.843887e+01 8.735288e+00 4.630491e+00 3.982842e-01 1.295230e+00 1.288189e+00 1.664739e+00 2.733135e+00 1.889615e+00 3.511875e+00 9.631955e-01 2.336795e+00 2.947054e+00 8.780251e-01 8.237779e-01 1.375928e-01 3.698033e-02 2.241936e-01 1.889875e-01 2.569493e-01 4.910604e-01 3.739339e-01 7.406875e-01 1.706236e-01 4.874842e-01 5.322332e-01 1.374375e-01 1.393153e-01 2.739078e-02
<GCONST> 9.095357e+01
<STATE> 4
<MEAN> 39
 -4.718191e+00 -2.502363e+00 -4.330967e+00 -9.011440e+00 4.382352e-01 -5.161510e+00 7.125679e-01 -9.396845e-02 6.151243e+00 2.963916e+00 5.710199e+00 -3.130939e+00 5.878801e+01 4.135603e-01 2.863061e-01 1.594975e-01 2.963803e-01 1.765270e-01 8.952422e-02 4.264613e-02 2.227929e-02 -4.182539e-01 -4.340799e-01 -1.260962e-01 -6.997645e-01 4.583572e-01 5.556189e-02 7.806286e-02 6.316715e-02 2.398800e-01 9.608740e-02 9.825101e-02 -9.991014e-02 -1.003893e-01 5.730637e-02 -2.362769e-01 -1.212592e-01 -1.080575e-01 1.217184e-01
<VARIANCE> 39
 5.249639e+00 5.750393e+00 1.978301e+01 3.824274e+01 9.850390e+00 1.836516e+01 1.863114e+01 1.574178e+01 2.390261e+01 2.717742e+01 1.740593e+01 2.130447e+01 1.134265e+01 4.451292e-01 8.303272e-01 1.115349e+00 1.615772e+00 1.025392e+00 1.947256e+00 2.343967e+00 2.380907e+00 2.667614e+00 2.975335e+00 2.646496e+00 3.806212e+00 2.407115e-01 1.051071e-01 1.391413e-01 2.244924e-01 1.213925e-01 1.904607e-01 2.323698e-01 3.341168e-01 6.085951e-01 6.200101e-01 3.767717e-01 4.771060e-01 6.573476e-01 3.992963e-02
<GCONST> 9.400233e+01
<TRANSP> 5
 0.000000e+00 1.000000e+00 0.000000e+00 0.000000e+00 0.000000e+00
 0.000000e+00 8.137920e-01 1.862080e-01 0.000000e+00 0.000000e+00
 0.000000e+00 0.000000e+00 8.122505e-01 1.877495e-01 0.000000e+00
 0.000000e+00 0.000000e+00 0.000000e+00 8.210592e-01 1.789408e-01
 0.000000e+00 0.000000e+00 0.000000e+00 0.000000e+00 0.000000e+00
<ENDHMM>
~h "O:"
<BEGINHMM>
<NUMSTATES> 5
<STATE> 2
<MEAN> 39
 -4.453142e+00 -3.089861e+00 -1.249787e+00 -7.963950e+00 -6.425464e+00 -7.860188e+00 -7.144732e+00 -4.702096e+00 -4.426827e+00 -1.993141e+00 -3.269373e+00 -2.843837e+00 6.783881e+01 -2.686240e-01 -1.718660e-01 -3.445257e-01 -4.425123e-01 -6.620774e-01 3.657792e-01 -4.511066e-02 -7.808176e-02 -2.452337e-01 -2.938681e-01 -1.828936e-03 3.990465e-01 3.459871e-01 -1.581165e-01 -5.779780e-02 -7.510133e-02 2.591860e-01 1.388397e-01 -7.057513e-02 1.459403e-01 4.466356e-02 1.656413e-01 1.175900e-01 -4.284625e-02 -1.207182e-01 -7.119052e-02
<VARIANCE> 39
 2.823647e+01 8.881125e+00 2.352212e+01 4.537487e+01 5.187286e+01 4.584794e+01 1.323469e+01 1.273796e+01 2.997088e+01 3.886884e+01 2.451848e+01 1.764867e+01 9.065420e+00 3.696852e-01 7.306510e-01 1.494177e+00 1.221988e+00 1.658999e+00 1.267577e+00 1.250596e+00 1.380463e+00 2.707440e+00 1.385761e+00 1.718915e+00 1.387017e+00 3.771723e-01 2.599662e-01 9.521034e-02 3.431840e-01 3.815834e-01 3.989207e-01 2.222172e-01 3.006492e-01 2.467918e-01 4.258232e-01 2.824963e-01 2.375041e-01 3.400074e-01 8.496204e-02
<GCONST> 9.635409e+01
<STATE> 3
<MEAN> 39
 4.800961e+00 -1.719054e+00 1.645289e+00 -2.103604e+01 -1.769500e+01 -3.788023e+00 -4.004603e+00 -3.099808e+00 3.860948e+00 -1.020345e+01 1.628712e-01 -6.517733e-01 7.288556e+01 3.725287e-01 -2.758703e-01 1.458762e-01 -2.019742e-01 -4.504901e-01 -3.761087e-01 5.131136e-01 3.914109e-01 3.296437e-01 6.385174e-02 1.503968e-01 -2.816032e-01 1.047703e-01 -8.175664e-03 -7.591514e-02 -5.079507e-02 1.825762e-01 1.572262e-01 -4.110472e-02 1.076247e-01 5.784335e-02 -2.881254e-02 9.424078e-03 -5.889447e-02 -2.408178e-02 -7.886590e-02
<VARIANCE> 39
 1.900361e+01 4.391844e+00 1.399296e+01 2.232853e+01 2.095782e+01 2.705752e+01 1.804963e+01 1.024234e+01 1.451586e+01 2.214780e+01 2.740869e+01 1.475450e+01 5.031312e+00 6.312178e-01 5.222662e-01 4.890172e-01 8.271056e-01 5.678656e-01 5.292478e-01 6.077682e-01 3.714246e-01 7.787504e-01 9.426509e-01 5.920194e-01 9.401299e-01 2.428246e-01 1.159658e-01 6.872325e-02 6.488166e-02 1.558162e-01 1.342603e-01 1.331473e-01 1.492382e-01 6.589346e-02 2.121212e-01 2.294412e-01 1.598684e-01 2.612076e-01 6.911903e-02
<GCONST> 7.283826e+01
<STATE> 4
<MEAN> 39
 7.194355e+00 -9.379488e+00 -4.838058e+00 -1.475250e+01 -1.144199e+01 -4.811315e+00 3.857372e-02 1.241730e+00 6.244042e+00 -8.730973e+00 -2.225231e-01 3.624868e+00 7.350790e+01 -2.591872e-01 -7.725426e-02 -5.409815e-01 1.077003e+00 1.394889e+00 1.289355e-01 8.605082e-02 2.202283e-01 5.541525e-02 4.739330e-01 -6.314828e-02 1.875717e-02 -3.381875e-01 -9.681794e-02 8.012101e-02 1.017444e-01 1.012665e-01 1.037703e-01 5.027261e-02 -1.622198e-02 4.995739e-02 1.030063e-02 5.315476e-02 1.095873e-02 -1.197390e-01 -9.631877e-02
<VARIANCE> 39
 6.876837e+00 2.111924e+01 3.086898e+01 3.510256e+01 5.304745e+01 1.103061e+01 1.174643e+01 9.707391e+00 1.329929e+01 1.774957e+01 1.188226e+01 2.464231e+01 4.725226e+00 6.130183e-01 1.563878e+00 1.019041e+00 9.060284e-01 1.777640e+00 1.078047e+00 9.607112e-01 1.717438e+00 8.554842e-01 1.125690e+00 6.579756e-01 1.970565e+00 6.580891e-01 5.409050e-02 1.820111e-01 1.569998e-01 9.718443e-02 2.266397e-01 1.357603e-01 1.517404e-01 2.544458e-01 1.282803e-01 1.505441e-01 1.103272e-01 2.061196e-01 6.772047e-02
<GCONST> 8.231920e+01
<TRANSP> 5
 0.000000e+00 1.000000e+00 0.000000e+00 0.000000e+00 0.000000e+00
 0.000000e+00 7.949045e-01 2.050955e-01 0.000000e+00 0.000000e+00
 0.000000e+00 0.000000e+00 9.055958e-01 9.440423e-02 0.000000e+00
 0.000000e+00 0.000000e+00 0.000000e+00 9.426115e-01 5.738857e-02
 0.000000e+00 0.000000e+00 0.000000e+00 0.000000e+00 0.000000e+00
<ENDHMM>
~h "aI"
<BEGINHMM>
<NUMSTATES> 5
<STATE> 2
<MEAN> 39
 1.170960e+00 -1.592877e+01 -1.920331e+00 -3.219195e+00 -7.088323e+00 4.109758e+00 -6.873796e+00 -4.398746e+00 1.100667e+01 -2.736962e+00 -1.901831e+00 -9.655440e+00 7.766856e+01 -9.845132e-02 -1.810453e+00 -1.638523e+00 -4.621154e-01 2.086980e-01 1.452624e+00 -1.169450e-01 4.898077e-01 5.178158e-01 -1.315832e+00 -1.017241e+00 -2.323602e-01 1.540603e+00 -1.068094e-01 4.865712e-01 3.555109e-01 -4.222072e-02 3.703613e-01 -3.426760e-01 2.684292e-01 -3.938744e-01 -1.835047e-01 1.848252e-01 1.560697e-01 2.331776e-01 -4.220953e-01
<VARIANCE> 39
 4.221332e+00 2.369324e+01 2.122439e+01 6.372738e+01 1.246471e+01 3.518778e+01 2.191326e+01 2.395913e+01 1.937575e+01 2.995309e+01 1.809968e+01 1.645281e+01 1.709615e+01 3.234759e-01 2.203023e+00 2.861074e+00 8.584064e-01 1.708700e+00 2.467301e+00 2.320825e+00 3.532206e+00 1.185347e+00 2.637607e+00 1.782542e+00 1.633519e+00 1.834325e+00 6.826718e-02 2.128870e-01 3.275120e-01 2.228763e-01 1.653241e-01 3.019038e-01 3.556130e-01 5.036874e-01 2.120292e-01 6.018401e-01 3.944069e-01 2.546311e-01 2.104792e-01
<GCONST> 1.001747e+02
<STATE> 3
<MEAN> 39
 8.901041e-01 -1.901103e+01 -3.804427e+00 -8.592484e+00 -2.275687e+00 5.337808e+00 -2.207410e+00 -8.570674e+00 1.237809e+01 -3.957523e+00 -4.539997e+00 -6.911368e+00 7.948362e+01 -3.976183e-02 -8.696502e-02 3.092030e-01 2.114833e-01 -1.768935e-01 -4.846047e-01 5.429916e-02 3.450628e-01 2.785146e-01 -1.525662e-01 -2.086585e-01 3.326043e-01 -7.355735e-02 -4.843493e-03 3.408575e-02 9.727225e-02 6.486641e-02 -1.461268e-01 -9.023333e-02 -3.684966e-02 1.410041e-01 -1.132139e-02 -5.758937e-02 7.932804e-02 8.875803e-03 -2.607157e-02
<VARIANCE> 39
 3.637649e+00 1.169392e+01 5.115866e+00 3.407637e+01 1.092488e+01 2.558327e+01 2.116647e+01 2.581830e+01 2.566296e+01 1.253940e+01 1.658798e+01 1.909131e+01 3.556071e+00 7.247885e-02 1.754661e-01 3.614770e-01 5.165049e-01 8.495417e-01 6.997589e-01 5.016178e-01 1.346861e+00 4.693902e-01 6.652837e-01 5.379425e-01 3.190544e-01 6.678841e-02 1.168872e-02 2.902637e-02 2.650747e-02 4.031191e-02 5.964986e-02 5.481378e-02 4.928179e-02 5.914126e-02 7.891347e-02 7.773256e-02 1.123800e-01 5.353587e-02 1.294407e-02
<GCONST> 5.179237e+01
<STATE> 4
<MEAN> 39
 -1.573071e+00 -1.589020e+01 9.123102e+00 -2.475496e+00 -1.373647e+01 -6.612855e+00 -4.084550e+00 5.126996e+00 1.055093e+01 -8.826702e+00 2.496243e+00 -2.537130e+00 7.623602e+01 -1.313729e-01 1.060256e+00 6.861852e-01 3.369801e-01 4.151114e-02 -8.570621e-01 -2.226637e-01 1.974866e-01 -8.784163e-01 3.763752e-01 9.672899e-01 -1.520163e-01 -7.632298e-01 3.315789e-02 2.068643e-01 -2.563218e-01 4.013120e-02 4.647509e-01 9.462691e-02 -4.210365e-02 -3.938600e-01 -1.697058e-02 2.964075e-01 -2.150584e-01 -1.544936e-01 -1.659749e-01
<VARIANCE> 39
 7.492925e+00 2.349061e+01 2.461087e+01 2.097890e+01 1.554827e+01 2.477014e+01 1.583962e+01 1.913753e+01 3.029174e+01 1.051376e+01 3.800249e+01 1.623936e+01 6.877798e+00 3.338038e-01 9.273452e-01 1.779695e+00 7.026344e-01 3.802435e+00 6.993527e-01 1.160436e+00 2.414290e+00 9.332515e-01 1.446201e+00 2.307566e+00 1.064566e+00 4.980514e-01 4.685556e-02 1.261228e-01 1.091476e-01 1.064699e-01 1.917363e-01 1.275184e-01 1.669111e-01 2.837731e-01 1.904496e-01 2.077724e-01 2.731831e-01 1.281132e-01 5.289368e-02
<GCONST> 8.457114e+01
<TRANSP> 5
 0.000000e+00 1.000000e+00 0.000000e+00 0.000000e+00 0.000000e+00
 0.000000e+00 7.797467e-01 2.202533e-01 0.000000e+00 0.000000e+00
 0.000000e+00 0.000000e+00 9.470878e-01 5.291217e-02 0.000000e+00
 0.000000e+00 0.000000e+00 0.000000e+00 9.051385e-01 9.486152e-02
 0.000000e+00 0.000000e+00 0.000000e+00 0.000000e+00 0.000000e+00
<ENDHMM>
~h "eh"
<BEGINHMM>
<NUMSTATES> 5
<STATE> 2
<MEAN> 39
 1.210225e+00 -1.378462e+01 -3.868231e+00 -8.294382e+00 -2.244392e-01 1.756215e+00 -7.548580e+00 -4.615980e+00 1.042378e+01 -1.682531e+00 2.720691e+00 -8.239676e+00 7.720859e+01 -9.033991e-02 3.873977e-01 -1.585719e-01 6.827440e-01 2.154547e-01 -6.436883e-01 -4.377085e-01 6.219388e-01 6.548094e-01 -1.604732e-02 -2.362083e-01 -2.366291e-01 -1.268534e-01 3.837577e-02 1.999236e-01 6.613360e-02 1.304669e-01 -1.578556e-02 -4.531818e-02 1.354242e-01 -1.747935e-01 -2.228591e-01 9.670158e-02 1.504250e-01 5.415021e-02 -2.675058e-01
<VARIANCE> 39
 2.502195e+00 8.862458e+00 1.874148e+01 1.015230e+01 8.451192e+00 3.811914e+01 4.621414e+01 2.798766e+01 1.464542e+01 9.797051e+00 2.148539e+01 1.205551e+01 4.500311e+00 1.136663e-01 5.668306e-01 3.373348e-01 5.352879e-01 5.776803e-01 4.132978e-01 9.273030e-01 8.403085e-01 9.347687e-01 6.481910e-01 1.226004e+00 6.681199e-01 4.851719e-01 2.454413e-02 5.841630e-02 9.880138e-02 9.929989e-02 9.234617e-02 8.787128e-02 1.455974e-01 1.894904e-01 1.272885e-01 9.246442e-02 2.258567e-01 9.294698e-02 6.056184e-02
<GCONST> 6.674653e+01
<STATE> 3
<MEAN> 39
 1.648786e+00 -9.024173e+00 -3.671655e+00 -3.829228e+00 5.594119e-01 -2.611252e+00 -9.397526e+00 -2.494870e+00 9.960143e+00 2.607563e-01 5.400863e+00 -1.005045e+01 7.279044e+01 -6.478574e-02 1.126218e+00 1.658990e+00 9.562382e-01 1.161814e-03 -2.422301e-01 7.920837e-01 -1.676120e+00 -1.022295e+00 1.298934e+00 7.623381e-01 3.330644e-01 -1.722482e+00 -2.037354e-01 9.628566e-02 7.150003e-01 1.892809e-02 -5.949749e-02 1.632132e-01 8.727533e-02 -4.179731e-01 -2.144577e-01 2.173593e-01 -2.342582e-01 3.426322e-01 -1.865525e-01
<VARIANCE> 39
 4.203174e+00 6.943576e+00 1.402546e+01 1.106195e+01 1.607026e+01 2.030567e+01 1.948078e+01 2.153105e+01 1.956230e+01 1.188855e+01 2.509115e+01 1.658396e+01 5.945675e+00 3.080839e-01 3.284631e-01 2.422095e+00 5.455323e-01 1.040580e+00 1.211427e+00 1.430115e+00 2.177747e+00 1.414933e+00 1.498876e+00 1.487760e+00 1.093057e+00 4.355904e-01 3.588462e-02 4.251511e-02 1.755584e-01 1.198977e-01 2.302043e-01 1.565831e-01 1.825481e-01 3.609848e-01 2.948948e-01 2.545204e-01 2.818035e-01 1.999252e-01 6.868404e-02
<GCONST> 8.041441e+01
<STATE> 4
<MEAN> 39
 -1.733303e-01 -4.695825e+00 6.848553e+00 -4.610426e-01 2.672144e-01 -2.175279e+00 -7.319550e+00 -9.548473e+00 6.594932e+00 3.770468e+00 4.557314e+00 -6.579052e+00 6.636688e+01 -4.041367e-01 8.640611e-01 7.084900e-01 3.401965e-01 4.878499e-01 -1.128011e-01 3.145195e-01 3.842121e-01 -2.814210e-01 -1.186118e-01 -5.036978e-01 1.273754e-01 -7.622987e-01 6.776598e-03 -6.981006e-02 -5.247506e-01 -1.520308e-01 1.667142e-01 7.466812e-02 1.220854e-01 6.398008e-01 1.644970e-01 -3.142160e-01 -1.063869e-01 -1.676001e-01 1.872202e-01
<VARIANCE> 39
 3.420439e+00 6.959921e+00 1.064817e+01 8.680651e+00 1.508175e+01 1.365735e+01 1.392090e+01 1.546929e+01 1.563459e+01 1.232413e+01 1.157324e+01 1.275533e+01 3.210770e+00 2.304558e-01 4.093914e-01 2.976852e+00 7.958649e-01 8.750761e-01 1.227245e+00 1.558659e+00 3.333741e+00 1.337263e+00 1.312508e+00 1.425681e+00 1.613159e+00 3.468970e-01 3.357729e-02 5.836148e-02 2.651827e-01 1.151530e-01 1.923385e-01 1.846310e-01 3.156034e-01 3.199635e-01 2.568309e-01 2.420837e-01 2.507099e-01 2.690965e-01 7.369947e-02
<GCONST> 7.861728e+01
<TRANSP> 5
 0.000000e+00 1.000000e+00 0.000000e+00 0.000000e+00 0.000000e+00
 0.000000e+00 8.550450e-01 1.449550e-01 0.000000e+00 0.000000e+00
 0.000000e+00 0.000000e+00 7.056508e-01 2.943493e-01 0.000000e+00
 0.000000e+00 0.000000e+00 0.000000e+00 8.320888e-01 1.679112e-01
 0.000000e+00 0.000000e+00 0.000000e+00 0.000000e+00 0.000000e+00
<ENDHMM>
~h "sp"
<BEGINHMM>
<NUMSTATES> 3
<STATE> 2
~s "silst"
<TRANSP> 3
 0.000000e+00 4.628888e-01 5.371112e-01
 0.000000e+00 8.451300e-01 1.548700e-01
 0.000000e+00 0.000000e+00 0.000000e+00
<ENDHMM>
~h "sil"
<BEGINHMM>
<NUMSTATES> 5
<STATE> 2
<MEAN> 39
 -7.163117e+00 -4.148529e+00 7.012270e-01 -5.183058e+00 2.399359e-01 -8.169709e+00 -4.722402e+00 9.058490e-01 4.847629e+00 -1.975446e+00 3.646123e-01 -5.335357e+00 6.062404e+01 3.273626e-02 4.124979e-02 4.451169e-02 6.448448e-02 -3.795677e-02 -7.572615e-02 -3.267623e-02 -8.065518e-02 -7.344152e-02 -5.749852e-02 4.334847e-02 -2.882866e-03 -1.046361e-01 -2.876433e-02 9.704190e-03 -1.606857e-02 2.445813e-04 4.853654e-03 3.873261e-02 2.788406e-02 5.988893e-03 -4.456347e-02 -7.430190e-04 1.593618e-02 3.846740e-02 6.347348e-03
<VARIANCE> 39
 6.694602e+00 9.603333e+00 1.646995e+01 1.991535e+01 1.841681e+01 2.397570e+01 2.186008e+01 2.454437e+01 2.533616e+01 2.850340e+01 2.672727e+01 2.191615e+01 3.666117e+00 2.764990e-01 4.998719e-01 7.630105e-01 9.723457e-01 1.341083e+00 1.438653e+00 1.419481e+00 1.846879e+00 1.959281e+00 1.612087e+00 1.593185e+00 1.703249e+00 8.906025e-02 3.962274e-02 7.820767e-02 1.197172e-01 1.654655e-01 2.233533e-01 2.360674e-01 2.592407e-01 3.596922e-01 3.741519e-01 2.920292e-01 2.972398e-01 3.226393e-01 1.322005e-02
<GCONST> 8.343887e+01
<STATE> 3
~s "silst"
<STATE> 4
<MEAN> 39
 -8.437040e+00 -3.258714e+00 -1.430016e-01 -6.557131e+00 -9.233276e-01 -7.021739e+00 -2.641847e+00 9.917294e-01 2.509633e+00 -1.342872e+00 1.146553e+00 -4.725544e+00 6.157610e+01 -6.935157e-02 -3.030902e-02 -9.235416e-02 -1.384793e-01 -8.572645e-02 1.236506e-01 1.162500e-01 2.047748e-01 1.549702e-01 7.283920e-02 -8.611150e-02 -1.043614e-01 1.424284e-01 3.443624e-02 -2.852693e-02 5.490324e-02 8.333063e-02 4.439946e-02 -2.070414e-02 -3.474515e-02 -5.435614e-02 4.674193e-02 -3.859586e-02 -2.968512e-02 -2.924557e-02 -3.183226e-02
<VARIANCE> 39
 1.365062e+01 1.847112e+01 2.345249e+01 3.094581e+01 3.379620e+01 4.119890e+01 2.561391e+01 2.784169e+01 3.254448e+01 2.677279e+01 2.933220e+01 2.276669e+01 1.088981e+01 7.070582e-01 7.994745e-01 1.141627e+00 1.732699e+00 2.075036e+00 2.179993e+00 2.069711e+00 1.966590e+00 2.042591e+00 1.885914e+00 2.063094e+00 1.938455e+00 3.524271e-01 1.209991e-01 1.382244e-01 1.958700e-01 2.949965e-01 3.824908e-01 4.439912e-01 3.651347e-01 3.331981e-01 3.684764e-01 3.457261e-01 3.899421e-01 3.724098e-01 5.996395e-02
<GCONST> 1.003557e+02
<TRANSP> 5
 0.000000e+00 1.000000e+00 0.000000e+00 0.000000e+00 0.000000e+00
 0.000000e+00 8.936520e-01 3.702224e-02 6.932582e-02 0.000000e+00
 0.000000e+00 0.000000e+00 9.334352e-01 6.656484e-02 0.000000e+00
 0.000000e+00 1.354777e-01 0.000000e+00 7.952192e-01 6.930308e-02
 0.000000e+00 0.000000e+00 0.000000e+00 0.000000e+00 0.000000e+00
<ENDHMM>
