~o
<STREAMINFO> 1 39
<VECSIZE> 39<NULLD><MFCC_D_A_0><DIAGC>
~h "I"
<BEGINHMM>
<NUMSTATES> 5
<STATE> 2
<MEAN> 39
 -7.874432e+00 -4.205885e+00 -3.856924e-01 -2.297459e+00 -1.626316e+00 -8.277698e+00 -1.612945e+00 -4.607159e+00 6.674685e+00 -3.822620e+00 1.018746e+00 -2.221340e+00 6.815467e+01 -3.397409e-02 2.391198e-02 -1.796838e-02 1.405576e-02 -1.370210e-02 -4.339255e-02 1.030773e-02 -1.524826e-02 2.149315e-02 -1.859765e-02 -5.144532e-04 -1.445116e-02 3.794550e-02 2.071277e-03 -1.629810e-03 6.550555e-04 -1.052361e-03 -2.839884e-04 6.834923e-05 -2.502378e-03 9.014663e-04 -2.364676e-04 6.355742e-04 -6.889694e-04 -3.480736e-04 1.486245e-04
<VARIANCE> 39
 7.295760e+01 3.897685e+01 6.683143e+01 3.693980e+01 4.645365e+01 5.494234e+01 6.795900e+01 4.088086e+01 4.499454e+01 2.652420e+01 2.608146e+01 2.798890e+01 4.565339e+01 1.683052e+00 1.594494e+00 2.923074e+00 1.523409e+00 2.258964e+00 2.298659e+00 3.203714e+00 2.260045e+00 2.785390e+00 1.878708e+00 1.792407e+00 1.736929e+00 9.520931e-01 1.921122e-01 2.170724e-01 3.447189e-01 2.452716e-01 3.330435e-01 3.578162e-01 4.673123e-01 3.657494e-01 4.477003e-01 3.430973e-01 3.194073e-01 3.406894e-01 1.020013e-01
<GCONST> 1.136482e+02
<STATE> 3
<MEAN> 39
 -8.009070e+00 -4.117341e+00 -4.523869e-01 -2.245463e+00 -1.690301e+00 -8.489115e+00 -1.611693e+00 -4.662937e+00 6.765445e+00 -3.901368e+00 1.004408e+00 -2.286330e+00 6.834016e+01 -2.181031e-02 1.391657e-02 -1.147185e-02 8.385945e-03 -1.186443e-02 -4.174954e-02 -4.367844e-03 -1.038275e-02 1.858917e-02 -1.383285e-02 -3.962432e-03 -1.390036e-02 3.421697e-02 2.596609e-03 -2.089566e-03 1.455636e-03 -1.096032e-03 3.217045e-04 3.449360e-04 -3.063990e-03 8.775695e-04 -6.728850e-04 9.081861e-04 -5.721815e-04 4.291730e-04 -8.163302e-04
<VARIANCE> 39
 7.431686e+01 3.916897e+01 6.768665e+01 3.713980e+01 4.704298e+01 5.503077e+01 6.874672e+01 4.152216e+01 4.569418e+01 2.690448e+01 2.631556e+01 2.830345e+01 4.520362e+01 1.706956e+00 1.581768e+00 2.993787e+00 1.540450e+00 2.261914e+00 2.310364e+00 3.210967e+00 2.250979e+00 2.789490e+00 1.903633e+00 1.808017e+00 1.727417e+00 9.656512e-01 1.944713e-01 2.145749e-01 3.523784e-01 2.481577e-01 3.309150e-01 3.561823e-01 4.660190e-01 3.654801e-01 4.483371e-01 3.474264e-01 3.221924e-01 3.383401e-01 1.039509e-01
<GCONST> 1.139030e+02
<STATE> 4
<MEAN> 39
 -7.866646e+00 -4.233542e+00 -3.566434e-01 -2.339024e+00 -1.722105e+00 -8.689121e+00 -1.939621e+00 -4.664273e+00 6.787855e+00 -4.000904e+00 1.026715e+00 -2.340822e+00 6.856264e+01 7.508945e-03 -7.325951e-03 1.473064e-03 -1.275190e-02 6.883723e-03 -2.523834e-02 -2.624089e-02 1.248392e-02 5.973711e-03 2.800552e-03 -1.293862e-02 -1.169819e-02 3.209843e-03 2.651157e-03 -1.773526e-03 1.064331e-03 -1.531609e-03 1.124831e-03 1.186191e-03 -1.793887e-03 1.332721e-03 -8.392692e-04 1.156815e-03 -5.056912e-04 5.380540e-04 -2.369418e-03
<VARIANCE> 39
 7.537946e+01 3.987801e+01 6.613254e+01 3.731905e+01 4.792164e+01 5.632816e+01 6.781487e+01 4.312913e+01 4.616046e+01 2.810024e+01 2.668896e+01 2.915721e+01 4.493438e+01 1.626147e+00 1.530798e+00 3.002781e+00 1.546571e+00 2.236062e+00 2.306801e+00 3.110026e+00 2.230110e+00 2.760381e+00 1.959678e+00 1.803568e+00 1.712776e+00 9.590518e-01 1.850840e-01 2.040706e-01 3.559353e-01 2.502828e-01 3.183177e-01 3.491602e-01 4.495093e-01 3.635521e-01 4.451994e-01 3.535372e-01 3.208941e-01 3.316786e-01 1.041406e-01
<GCONST> 1.137536e+02
<TRANSP> 5
 0.000000e+00 1.000000e+00 0.000000e+00 0.000000e+00 0.000000e+00
 0.000000e+00 8.005996e-01 1.994004e-01 0.000000e+00 0.000000e+00
 0.000000e+00 0.000000e+00 8.005998e-01 1.994002e-01 0.000000e+00
 0.000000e+00 0.000000e+00 0.000000e+00 9.327136e-01 6.728639e-02
 0.000000e+00 0.000000e+00 0.000000e+00 0.000000e+00 0.000000e+00
<ENDHMM>
~h "T"
<BEGINHMM>
<NUMSTATES> 5
<STATE> 2
<MEAN> 39
 -6.566408e+00 -6.316166e+00 4.205212e+00 -3.038234e+00 -4.609176e+00 -6.422982e+00 -4.839882e+00 -1.397413e+00 4.633838e+00 -3.750866e+00 1.591442e+00 -3.585679e+00 6.582916e+01 -2.252623e-02 1.391210e-02 8.187925e-02 7.480390e-02 -5.615994e-02 -3.469763e-02 -2.101713e-02 -1.068865e-02 1.830674e-02 5.810594e-03 1.831055e-02 -1.093286e-02 5.321592e-03 -1.840339e-03 -2.726432e-03 -6.524150e-05 3.127830e-03 2.274142e-03 1.408527e-03 -3.864784e-03 -4.410942e-03 2.866340e-03 1.685946e-03 1.079995e-04 -1.279604e-04 3.159473e-03
<VARIANCE> 39
 3.081394e+01 3.387224e+01 9.123492e+01 3.509099e+01 7.551405e+01 3.220628e+01 5.190076e+01 3.460032e+01 4.878358e+01 3.057349e+01 2.629615e+01 2.096237e+01 4.752222e+01 1.184521e+00 1.134454e+00 1.955106e+00 1.398591e+00 2.512641e+00 1.953220e+00 2.504394e+00 2.107485e+00 2.115760e+00 2.108525e+00 1.733568e+00 1.824857e+00 8.330933e-01 1.651124e-01 1.608608e-01 2.465998e-01 2.201410e-01 3.965360e-01 3.333586e-01 4.042901e-01 3.639899e-01 3.469070e-01 3.813256e-01 3.172652e-01 3.597580e-01 9.923319e-02
<GCONST> 1.095049e+02
<STATE> 3
<MEAN> 39
 -6.675154e+00 -6.334421e+00 4.675487e+00 -2.564538e+00 -4.923654e+00 -6.583843e+00 -5.041253e+00 -1.531584e+00 4.746391e+00 -3.689214e+00 1.689724e+00 -3.613034e+00 6.598019e+01 -2.174300e-02 -2.395232e-03 8.460899e-02 8.872838e-02 -5.275280e-02 -2.938955e-02 -3.390132e-02 -2.458073e-02 2.339532e-02 1.160422e-02 1.763768e-02 -3.396621e-03 2.535836e-02 3.504232e-04 -3.054569e-03 2.041175e-04 2.211629e-03 7.657716e-04 1.009648e-03 -1.989161e-03 -2.437255e-03 7.736609e-04 8.373946e-04 -4.481839e-05 1.436271e-03 3.662609e-03
<VARIANCE> 39
 3.098664e+01 3.165342e+01 9.381684e+01 3.302344e+01 7.506432e+01 3.177740e+01 5.225149e+01 3.577253e+01 4.729211e+01 3.026073e+01 2.699836e+01 2.063648e+01 4.644062e+01 1.252487e+00 1.139172e+00 2.047629e+00 1.389485e+00 2.499379e+00 2.001886e+00 2.615608e+00 2.184998e+00 2.165363e+00 2.167962e+00 1.718904e+00 1.861252e+00 8.277099e-01 1.731232e-01 1.629132e-01 2.591665e-01 2.224601e-01 3.891051e-01 3.424225e-01 4.266731e-01 3.759001e-01 3.558985e-01 3.933463e-01 3.098238e-01 3.681745e-01 9.834202e-02
<GCONST> 1.098924e+02
<STATE> 4
<MEAN> 39
 -6.569627e+00 -6.773262e+00 6.051635e+00 -1.350688e+00 -5.841139e+00 -6.645458e+00 -5.667769e+00 -1.733883e+00 4.562550e+00 -3.510587e+00 1.838870e+00 -3.580495e+00 6.689525e+01 6.182755e-03 -1.706433e-02 8.503568e-02 6.853009e-02 -4.642980e-02 -7.821839e-03 -3.361253e-02 -2.193789e-03 -9.261467e-03 7.628258e-03 3.060103e-03 9.066151e-03 3.974859e-02 1.208365e-03 -3.803569e-04 -1.173518e-03 -1.691951e-03 1.568344e-03 1.249058e-03 9.137263e-04 1.214886e-03 -1.548559e-03 -4.677348e-04 -8.371627e-04 6.835648e-04 -2.097238e-04
<VARIANCE> 39
 3.280868e+01 2.786411e+01 1.043650e+02 2.905450e+01 7.814579e+01 3.131190e+01 5.368204e+01 3.849401e+01 4.425849e+01 3.054527e+01 2.911115e+01 2.086183e+01 4.528852e+01 1.363796e+00 1.160512e+00 2.273746e+00 1.376991e+00 2.523959e+00 2.039687e+00 2.816402e+00 2.286079e+00 2.229337e+00 2.248952e+00 1.754878e+00 1.918888e+00 7.740476e-01 1.803158e-01 1.654961e-01 2.789147e-01 2.233535e-01 3.735441e-01 3.497669e-01 4.509393e-01 3.904207e-01 3.686217e-01 3.999218e-01 3.114561e-01 3.808563e-01 8.957674e-02
<GCONST> 1.105326e+02
<TRANSP> 5
 0.000000e+00 1.000000e+00 0.000000e+00 0.000000e+00 0.000000e+00
 0.000000e+00 8.103423e-01 1.896577e-01 0.000000e+00 0.000000e+00
 0.000000e+00 0.000000e+00 8.103426e-01 1.896574e-01 0.000000e+00
 0.000000e+00 0.000000e+00 0.000000e+00 9.445101e-01 5.548988e-02
 0.000000e+00 0.000000e+00 0.000000e+00 0.000000e+00 0.000000e+00
<ENDHMM>
~h "e"
<BEGINHMM>
<NUMSTATES> 5
<STATE> 2
<MEAN> 39
 -7.268048e+00 -5.336066e+00 2.315931e+00 -3.289918e+00 -2.546224e+00 -7.519420e+00 -4.822689e+00 -1.816062e+00 6.795402e+00 -2.807727e+00 1.886572e+00 -5.004770e+00 6.762728e+01 2.169690e-03 5.435276e-03 -2.535998e-02 -1.752011e-02 3.152746e-02 1.085815e-02 -1.573955e-02 -9.102993e-03 1.867025e-03 2.562949e-02 1.706117e-02 -1.249535e-02 -1.194998e-02 1.826565e-03 -8.462682e-04 1.987436e-03 -1.913035e-04 -1.614363e-03 2.368181e-03 1.899612e-04 -9.789431e-05 -1.558880e-03 4.520145e-05 -1.639927e-03 -2.571535e-04 7.100640e-04
<VARIANCE> 39
 5.701291e+01 3.135987e+01 7.361320e+01 3.325414e+01 5.980224e+01 3.436052e+01 5.492947e+01 3.824365e+01 4.414777e+01 2.909797e+01 2.771123e+01 2.438869e+01 4.981336e+01 1.542161e+00 1.353485e+00 1.485951e+00 1.434642e+00 2.065439e+00 1.826833e+00 2.439286e+00 2.091341e+00 2.113452e+00 1.732803e+00 1.808340e+00 1.491148e+00 1.098870e+00 1.833689e-01 1.920384e-01 2.000208e-01 2.288569e-01 3.094058e-01 3.155285e-01 4.087915e-01 3.719252e-01 3.708640e-01 3.242328e-01 3.072990e-01 2.806846e-01 1.384589e-01
<GCONST> 1.094777e+02
<STATE> 3
<MEAN> 39
 -7.231350e+00 -5.319121e+00 2.198678e+00 -3.394854e+00 -2.431039e+00 -7.426762e+00 -4.880119e+00 -1.855920e+00 6.776659e+00 -2.676272e+00 1.949856e+00 -5.057033e+00 6.758701e+01 1.214711e-02 1.472975e-03 -1.658763e-02 -2.240585e-02 1.699268e-02 1.976850e-02 -1.440762e-02 -8.130888e-03 -8.775711e-03 2.546784e-02 1.128229e-02 -9.013094e-03 -6.927782e-03 1.850039e-03 -7.297106e-04 2.079005e-03 -8.008082e-04 -3.284310e-03 1.418598e-03 2.821747e-04 4.860178e-04 -2.163535e-03 -1.872003e-05 -1.267973e-03 8.456907e-04 1.012735e-03
<VARIANCE> 39
 5.688275e+01 3.071441e+01 7.043107e+01 3.201796e+01 5.955153e+01 3.372562e+01 5.513959e+01 3.799396e+01 4.465282e+01 2.891127e+01 2.757372e+01 2.466161e+01 5.058793e+01 1.533076e+00 1.370620e+00 1.452025e+00 1.414767e+00 2.079148e+00 1.821473e+00 2.466002e+00 2.106128e+00 2.102453e+00 1.701146e+00 1.821385e+00 1.501166e+00 1.132565e+00 1.835229e-01 1.940653e-01 1.971982e-01 2.252087e-01 3.137034e-01 3.174122e-01 4.156268e-01 3.740813e-01 3.698364e-01 3.184285e-01 3.128319e-01 2.820333e-01 1.438261e-01
<GCONST> 1.094481e+02
<STATE> 4
<MEAN> 39
 -7.050231e+00 -5.239414e+00 2.225298e+00 -3.708960e+00 -2.467508e+00 -7.175377e+00 -4.945989e+00 -1.647598e+00 6.603972e+00 -2.284245e+00 2.082006e+00 -5.169384e+00 6.736365e+01 2.650977e-02 -7.740090e-04 -1.472974e-02 -3.378284e-02 2.344045e-03 2.759442e-02 -5.070630e-03 -4.536820e-03 -1.134848e-02 2.641926e-02 6.382595e-03 -6.022353e-03 -7.204006e-03 1.081944e-03 -1.232171e-04 1.470989e-03 -3.597890e-04 -1.662704e-03 -2.332113e-04 1.466232e-04 7.592574e-04 -4.105362e-04 1.294808e-05 -7.843611e-04 2.802498e-04 -2.049491e-04
<VARIANCE> 39
 5.395557e+01 2.977389e+01 6.622334e+01 2.991823e+01 5.976606e+01 3.330975e+01 5.412087e+01 3.630345e+01 4.563567e+01 2.818836e+01 2.709790e+01 2.476732e+01 5.326743e+01 1.471790e+00 1.368198e+00 1.427002e+00 1.382153e+00 2.107310e+00 1.777043e+00 2.430612e+00 2.101815e+00 2.077433e+00 1.654898e+00 1.815256e+00 1.503991e+00 1.158989e+00 1.794333e-01 1.942783e-01 1.969642e-01 2.231393e-01 3.256797e-01 3.118937e-01 4.198796e-01 3.735248e-01 3.656502e-01 3.089660e-01 3.167327e-01 2.804728e-01 1.500843e-01
<GCONST> 1.090723e+02
<TRANSP> 5
 0.000000e+00 1.000000e+00 0.000000e+00 0.000000e+00 0.000000e+00
 0.000000e+00 8.009794e-01 1.990205e-01 0.000000e+00 0.000000e+00
 0.000000e+00 0.000000e+00 8.009791e-01 1.990208e-01 0.000000e+00
 0.000000e+00 0.000000e+00 0.000000e+00 9.345089e-01 6.549103e-02
 0.000000e+00 0.000000e+00 0.000000e+00 0.000000e+00 0.000000e+00
<ENDHMM>
~h "f"
<BEGINHMM>
<NUMSTATES> 5
<STATE> 2
<MEAN> 39
 -4.971300e+00 -7.318511e+00 1.047442e+00 -5.529497e+00 -3.783418e+00 -5.636675e+00 -3.537110e+00 -2.395122e+00 5.505803e+00 -4.433520e+00 3.074532e-01 -4.150940e+00 6.851025e+01 3.386549e-02 -2.024702e-02 -3.578632e-02 -6.000524e-02 3.954657e-03 4.761017e-02 3.374623e-02 -5.452589e-02 -8.157026e-03 1.337144e-02 2.694036e-02 -3.409304e-03 3.933918e-02 5.853116e-05 -2.313238e-03 -1.244622e-03 -3.612194e-03 2.955951e-03 2.166432e-03 -1.023936e-03 -1.252161e-03 1.325333e-03 2.053201e-03 -3.349050e-04 -1.434168e-03 1.145497e-03
<VARIANCE> 39
 5.490107e+01 3.907062e+01 4.745733e+01 5.696834e+01 5.626004e+01 5.351819e+01 3.415916e+01 3.750027e+01 3.381416e+01 3.475230e+01 2.516931e+01 2.640325e+01 5.582800e+01 1.456239e+00 1.152886e+00 1.286696e+00 1.767810e+00 1.890030e+00 1.632319e+00 1.635453e+00 1.847864e+00 1.749059e+00 1.603000e+00 1.487276e+00 1.408918e+00 7.120340e-01 1.792144e-01 1.661405e-01 1.872520e-01 2.563401e-01 2.713481e-01 2.639404e-01 2.993188e-01 3.298868e-01 3.164404e-01 2.705291e-01 2.789259e-01 2.721127e-01 9.437159e-02
<GCONST> 1.061108e+02
<STATE> 3
<MEAN> 39
 -4.761680e+00 -7.496332e+00 8.247934e-01 -5.891637e+00 -3.715639e+00 -5.340571e+00 -3.408639e+00 -2.689170e+00 5.510956e+00 -4.348756e+00 4.036506e-01 -4.206758e+00 6.874066e+01 3.892281e-02 -3.559436e-02 -4.260540e-02 -6.929984e-02 1.392064e-02 5.779895e-02 2.110717e-02 -5.631323e-02 1.785330e-03 1.744999e-02 1.935061e-02 -1.022982e-02 4.506121e-02 1.002413e-03 -3.066961e-03 -1.256911e-03 -1.513445e-03 1.630954e-03 2.027776e-03 -2.578912e-03 -2.237885e-04 2.055757e-03 6.911997e-04 -1.524682e-03 -1.218405e-03 1.092634e-03
<VARIANCE> 39
 5.628477e+01 4.154049e+01 4.592895e+01 5.866993e+01 5.615548e+01 5.438236e+01 3.354798e+01 3.777030e+01 3.469006e+01 3.477206e+01 2.413646e+01 2.668340e+01 5.575701e+01 1.510235e+00 1.166072e+00 1.267079e+00 1.835755e+00 1.908813e+00 1.679266e+00 1.625733e+00 1.866911e+00 1.770240e+00 1.618785e+00 1.509499e+00 1.405581e+00 7.192523e-01 1.862024e-01 1.648545e-01 1.834493e-01 2.630345e-01 2.755260e-01 2.683015e-01 2.982626e-01 3.277608e-01 3.209183e-01 2.702337e-01 2.826478e-01 2.702343e-01 9.511268e-02
<GCONST> 1.064321e+02
<STATE> 4
<MEAN> 39
 -3.829900e+00 -8.200109e+00 2.754613e-01 -6.832127e+00 -3.676002e+00 -4.407074e+00 -3.301319e+00 -3.047396e+00 5.832246e+00 -4.138477e+00 5.058315e-01 -4.217932e+00 6.935471e+01 5.519662e-02 -4.768026e-02 -4.129519e-02 -6.354547e-02 1.141716e-02 5.359011e-02 1.093664e-02 -2.511511e-02 1.868821e-02 1.371534e-02 1.148290e-03 -3.525118e-03 3.864715e-02 4.981740e-04 -4.255411e-04 3.978031e-04 8.205203e-04 -2.035727e-04 -5.233634e-04 -9.888919e-04 2.071742e-03 7.962600e-04 -2.730283e-04 -8.142679e-04 6.307469e-04 -5.675023e-04
<VARIANCE> 39
 5.709296e+01 4.675064e+01 4.243019e+01 6.377789e+01 5.790849e+01 5.545408e+01 3.255865e+01 3.929184e+01 3.591175e+01 3.474825e+01 2.339243e+01 2.700550e+01 5.452293e+01 1.593091e+00 1.229915e+00 1.267850e+00 1.975384e+00 1.990200e+00 1.764172e+00 1.603354e+00 1.920579e+00 1.768204e+00 1.689395e+00 1.538592e+00 1.422231e+00 7.524838e-01 1.973515e-01 1.669820e-01 1.816228e-01 2.775519e-01 2.811309e-01 2.733192e-01 2.905629e-01 3.281944e-01 3.193823e-01 2.780907e-01 2.865320e-01 2.715620e-01 9.822574e-02
<GCONST> 1.072276e+02
<TRANSP> 5
 0.000000e+00 1.000000e+00 0.000000e+00 0.000000e+00 0.000000e+00
 0.000000e+00 8.118919e-01 1.881081e-01 0.000000e+00 0.000000e+00
 0.000000e+00 0.000000e+00 8.118919e-01 1.881081e-01 0.000000e+00
 0.000000e+00 0.000000e+00 0.000000e+00 9.453610e-01 5.463900e-02
 0.000000e+00 0.000000e+00 0.000000e+00 0.000000e+00 0.000000e+00
<ENDHMM>
~h "i"
<BEGINHMM>
<NUMSTATES> 5
<STATE> 2
<MEAN> 39
 -6.549004e+00 -6.591592e+00 6.346500e+00 -7.547323e-01 -5.253510e+00 -6.769443e+00 -5.524557e+00 -1.242075e+00 4.406752e+00 -3.652496e+00 1.264710e+00 -3.225342e+00 6.626826e+01 -8.739829e-03 1.339426e-02 -5.763027e-02 -9.984520e-03 4.267083e-02 -4.025901e-03 1.922435e-02 -3.243088e-03 6.097520e-03 -7.849352e-03 -1.792613e-02 -6.424724e-03 -3.290765e-02 4.968311e-05 -1.054827e-04 -2.990772e-03 -1.811714e-03 5.636655e-04 1.577003e-04 -8.752244e-05 9.193606e-04 1.124998e-03 -4.884078e-04 -1.309366e-03 -1.978297e-03 1.258290e-04
<VARIANCE> 39
 3.730765e+01 2.673912e+01 9.708435e+01 2.639289e+01 7.755607e+01 3.476423e+01 5.217520e+01 4.317578e+01 4.127625e+01 2.961124e+01 3.037428e+01 2.480474e+01 4.854436e+01 1.226703e+00 1.107160e+00 2.077472e+00 1.356209e+00 2.191652e+00 1.963448e+00 2.733351e+00 2.083802e+00 2.329360e+00 2.190978e+00 1.885110e+00 1.867125e+00 6.312669e-01 1.507406e-01 1.583643e-01 2.579774e-01 2.307039e-01 2.891695e-01 3.304857e-01 4.135890e-01 3.516901e-01 4.167374e-01 3.831673e-01 3.406760e-01 3.679872e-01 6.828111e-02
<GCONST> 1.092080e+02
<STATE> 3
<MEAN> 39
 -6.595094e+00 -6.513820e+00 5.979016e+00 -8.397673e-01 -5.010497e+00 -6.799877e+00 -5.416184e+00 -1.258868e+00 4.470505e+00 -3.696832e+00 1.159494e+00 -3.275221e+00 6.608003e+01 -7.596171e-03 1.212907e-02 -7.221960e-02 -1.884592e-02 4.420361e-02 -3.239323e-03 1.790178e-02 1.909750e-03 1.296952e-02 -1.046033e-02 -2.439130e-02 -1.719545e-02 -3.016293e-02 2.838383e-04 -5.866357e-04 -2.457756e-03 -1.532457e-03 1.233681e-04 5.074043e-04 -6.103684e-04 1.933087e-03 1.485766e-03 -5.879410e-04 -1.653934e-03 -2.067157e-03 8.623452e-04
<VARIANCE> 39
 3.886454e+01 2.757576e+01 9.382044e+01 2.778621e+01 7.605766e+01 3.538036e+01 5.085048e+01 4.341593e+01 4.079340e+01 2.955132e+01 3.012623e+01 2.533451e+01 4.957204e+01 1.224423e+00 1.115903e+00 2.012135e+00 1.375014e+00 2.149100e+00 1.959767e+00 2.679614e+00 2.078130e+00 2.318899e+00 2.165350e+00 1.887451e+00 1.844236e+00 6.221390e-01 1.492895e-01 1.582977e-01 2.516498e-01 2.331524e-01 2.845747e-01 3.303222e-01 4.071366e-01 3.483543e-01 4.192694e-01 3.779052e-01 3.417046e-01 3.624803e-01 6.632374e-02
<GCONST> 1.090817e+02
<STATE> 4
<MEAN> 39
 -6.392774e+00 -6.524705e+00 4.901409e+00 -1.231549e+00 -4.562369e+00 -6.851809e+00 -5.295080e+00 -1.113191e+00 4.811952e+00 -3.768594e+00 8.381613e-01 -3.540035e+00 6.589623e+01 5.177591e-03 8.468196e-03 -8.244601e-02 -2.969917e-02 3.640955e-02 -1.888831e-03 8.544558e-03 1.467909e-02 2.684786e-02 -1.036702e-02 -2.803392e-02 -2.813850e-02 -1.838621e-02 4.439614e-04 -5.994447e-04 -6.174154e-04 -5.299831e-04 -7.722401e-04 7.427904e-04 -1.410330e-03 2.289213e-03 1.041015e-03 2.015609e-04 -1.146814e-03 -9.014847e-04 1.391079e-03
<VARIANCE> 39
 4.441560e+01 3.050854e+01 8.447276e+01 3.222510e+01 7.247366e+01 3.702833e+01 4.892797e+01 4.360942e+01 3.976533e+01 2.975889e+01 2.907512e+01 2.625227e+01 5.176477e+01 1.228634e+00 1.169280e+00 1.831301e+00 1.443941e+00 2.092835e+00 1.905886e+00 2.546272e+00 2.068218e+00 2.269562e+00 2.079717e+00 1.883488e+00 1.824201e+00 6.391564e-01 1.489333e-01 1.637866e-01 2.272786e-01 2.389673e-01 2.812004e-01 3.212394e-01 3.932909e-01 3.467982e-01 4.184768e-01 3.575950e-01 3.416932e-01 3.566427e-01 6.655909e-02
<GCONST> 1.090000e+02
<TRANSP> 5
 0.000000e+00 1.000000e+00 0.000000e+00 0.000000e+00 0.000000e+00
 0.000000e+00 8.103345e-01 1.896655e-01 0.000000e+00 0.000000e+00
 0.000000e+00 0.000000e+00 8.103346e-01 1.896655e-01 0.000000e+00
 0.000000e+00 0.000000e+00 0.000000e+00 9.444829e-01 5.551707e-02
 0.000000e+00 0.000000e+00 0.000000e+00 0.000000e+00 0.000000e+00
<ENDHMM>
~h "k"
<BEGINHMM>
<NUMSTATES> 5
<STATE> 2
<MEAN> 39
 -1.180647e+01 -3.777628e+00 -1.590399e+00 -1.842299e+00 -1.505401e+00 -1.112129e+01 -3.162234e-01 -4.046186e+00 7.995504e+00 -4.153538e+00 4.904117e-01 -3.107977e+00 6.976140e+01 6.672154e-02 -1.970239e-02 3.810659e-02 8.869076e-03 3.444603e-02 1.320131e-02 -8.469189e-02 3.228970e-02 1.590731e-02 -5.842843e-04 -2.096499e-02 -9.000639e-03 -2.098258e-02 4.161705e-03 -1.191512e-03 2.529562e-03 -1.106656e-03 9.445418e-04 2.294661e-03 -1.856730e-03 2.325594e-04 -1.481865e-03 1.172799e-03 -1.513858e-04 1.271700e-03 -2.629447e-03
<VARIANCE> 39
 6.499715e+01 3.855523e+01 7.584365e+01 3.260180e+01 6.051802e+01 4.198074e+01 6.477652e+01 4.192014e+01 5.837910e+01 2.378387e+01 3.189272e+01 1.762400e+01 3.842265e+01 1.951400e+00 1.820562e+00 3.551325e+00 1.608007e+00 2.551003e+00 2.232056e+00 3.590432e+00 2.267418e+00 3.245396e+00 2.031408e+00 1.925089e+00 1.568103e+00 1.432375e+00 2.305066e-01 2.549850e-01 4.146541e-01 2.766588e-01 3.549041e-01 3.538163e-01 5.278838e-01 3.764109e-01 4.908656e-01 3.959429e-01 3.319001e-01 3.207767e-01 1.638957e-01
<GCONST> 1.160996e+02
<STATE> 3
<MEAN> 39
 -1.140831e+01 -3.892622e+00 -1.391824e+00 -1.833823e+00 -1.299792e+00 -1.100028e+01 -7.516881e-01 -3.865386e+00 8.063372e+00 -4.135638e+00 3.792048e-01 -3.145664e+00 6.960504e+01 8.436388e-02 -2.404894e-02 4.753110e-02 2.571305e-03 3.745991e-02 2.437649e-02 -8.929171e-02 3.117077e-02 1.088735e-02 3.747041e-03 -2.217668e-02 -3.593376e-03 -3.166403e-02 2.787343e-03 -4.043320e-04 1.437497e-03 -1.418710e-03 6.108420e-04 2.247191e-03 -1.767932e-04 -3.073227e-04 -1.129089e-03 1.087954e-03 -1.641390e-04 1.205966e-03 -1.855685e-03
<VARIANCE> 39
 6.657646e+01 3.923198e+01 7.437315e+01 3.390674e+01 5.823304e+01 4.333656e+01 6.393525e+01 4.196008e+01 5.711090e+01 2.376741e+01 3.177334e+01 1.731026e+01 3.889177e+01 1.845260e+00 1.747290e+00 3.477808e+00 1.632848e+00 2.470574e+00 2.210227e+00 3.405882e+00 2.204681e+00 3.162621e+00 2.058077e+00 1.907519e+00 1.524414e+00 1.367600e+00 2.176577e-01 2.436265e-01 4.101105e-01 2.760827e-01 3.476686e-01 3.474820e-01 5.035543e-01 3.661354e-01 4.773998e-01 3.997104e-01 3.309660e-01 3.089279e-01 1.562264e-01
<GCONST> 1.154516e+02
<STATE> 4
<MEAN> 39
 -1.036525e+01 -4.185568e+00 -9.779346e-01 -1.983458e+00 -7.748410e-01 -1.047845e+01 -1.580185e+00 -3.432814e+00 8.234267e+00 -3.994006e+00 1.210378e-01 -3.180908e+00 6.926965e+01 1.107472e-01 -3.226274e-02 5.523791e-02 -1.896706e-02 2.715878e-02 5.286955e-02 -8.691269e-02 2.838616e-02 6.510155e-03 7.935298e-03 -2.184134e-02 1.011907e-03 -3.889590e-02 8.598809e-04 1.424870e-04 7.397101e-04 -1.643159e-03 -1.363495e-03 1.990363e-03 1.033619e-03 -7.613945e-04 -1.055124e-03 8.064160e-04 3.519745e-04 1.014103e-03 2.455302e-05
<VARIANCE> 39
 6.839877e+01 4.160914e+01 6.735915e+01 3.644052e+01 5.189059e+01 4.827311e+01 6.017596e+01 4.286315e+01 5.313351e+01 2.363449e+01 3.007613e+01 1.705028e+01 3.950285e+01 1.529281e+00 1.582136e+00 3.058024e+00 1.605483e+00 2.253737e+00 2.183026e+00 2.996766e+00 2.138082e+00 2.910414e+00 2.062106e+00 1.834144e+00 1.475072e+00 1.166789e+00 1.792800e-01 2.180565e-01 3.716689e-01 2.608238e-01 3.252534e-01 3.395728e-01 4.537751e-01 3.531680e-01 4.430334e-01 3.948810e-01 3.250706e-01 2.957160e-01 1.303238e-01
<GCONST> 1.133040e+02
<TRANSP> 5
 0.000000e+00 1.000000e+00 0.000000e+00 0.000000e+00 0.000000e+00
 0.000000e+00 7.995306e-01 2.004694e-01 0.000000e+00 0.000000e+00
 0.000000e+00 0.000000e+00 7.995304e-01 2.004696e-01 0.000000e+00
 0.000000e+00 0.000000e+00 0.000000e+00 9.309703e-01 6.902978e-02
 0.000000e+00 0.000000e+00 0.000000e+00 0.000000e+00 0.000000e+00
<ENDHMM>
~h "n"
<BEGINHMM>
<NUMSTATES> 5
<STATE> 2
<MEAN> 39
 -4.808124e+00 -7.117749e+00 1.897738e+00 -4.206275e+00 -2.055013e+00 -4.172289e+00 -4.024616e+00 -1.478806e+00 6.367531e+00 -2.558700e+00 5.219572e-01 -5.290679e+00 6.720975e+01 -2.202943e-02 1.184626e-02 3.996342e-03 1.913967e-02 -4.015458e-03 -1.007557e-02 1.137015e-02 2.866697e-03 1.238992e-02 7.818495e-03 -4.753471e-03 -1.082694e-03 -2.503418e-02 -9.515139e-04 7.128051e-04 -1.003934e-03 8.495875e-04 -3.120594e-04 -1.916288e-03 -1.971855e-04 1.230747e-03 -8.502037e-05 2.303274e-04 6.661039e-04 5.447954e-04 2.436942e-04
<VARIANCE> 39
 3.512242e+01 4.424416e+01 4.745224e+01 3.737432e+01 5.022009e+01 4.953831e+01 3.135914e+01 3.841289e+01 4.021670e+01 3.098893e+01 3.164276e+01 2.394566e+01 5.859147e+01 8.039508e-01 1.451709e+00 1.504030e+00 1.386419e+00 2.062823e+00 1.840533e+00 1.804072e+00 2.226988e+00 1.981491e+00 1.920341e+00 1.886255e+00 1.470635e+00 8.509631e-01 1.035000e-01 1.873988e-01 1.954795e-01 2.031560e-01 3.066185e-01 2.846660e-01 3.147442e-01 3.876703e-01 3.415584e-01 3.349656e-01 3.269981e-01 2.704749e-01 9.064648e-02
<GCONST> 1.063527e+02
<STATE> 3
<MEAN> 39
 -4.943629e+00 -7.038930e+00 1.915343e+00 -4.104350e+00 -2.080954e+00 -4.256698e+00 -3.969966e+00 -1.455876e+00 6.418484e+00 -2.519192e+00 5.219166e-01 -5.288429e+00 6.707130e+01 -2.513401e-02 1.447034e-02 -6.585330e-04 2.314329e-02 -7.191591e-03 -1.606802e-02 1.109904e-02 7.075053e-03 9.800489e-03 9.273855e-03 1.844668e-03 6.663165e-04 -2.298598e-02 -8.337697e-04 4.334919e-04 -5.441566e-04 1.043089e-03 -4.050170e-04 -1.048663e-03 -4.269996e-04 6.268721e-04 -9.264551e-04 9.859309e-05 1.113473e-03 5.360304e-04 5.205472e-04
<VARIANCE> 39
 3.473493e+01 4.371977e+01 4.822641e+01 3.689590e+01 5.045047e+01 4.880516e+01 3.151352e+01 3.850110e+01 3.937751e+01 3.105364e+01 3.184807e+01 2.397816e+01 5.849305e+01 8.123435e-01 1.421548e+00 1.521486e+00 1.389127e+00 2.086760e+00 1.827016e+00 1.795131e+00 2.218055e+00 1.985860e+00 1.947255e+00 1.887856e+00 1.477261e+00 8.358206e-01 1.046167e-01 1.857883e-01 1.972188e-01 2.043793e-01 3.101091e-01 2.857291e-01 3.113043e-01 3.869979e-01 3.427491e-01 3.406722e-01 3.256662e-01 2.718335e-01 8.889940e-02
<GCONST> 1.063397e+02
<STATE> 4
<MEAN> 39
 -5.289753e+00 -6.820222e+00 2.148301e+00 -3.728411e+00 -2.269726e+00 -4.557004e+00 -3.920141e+00 -1.423206e+00 6.390563e+00 -2.419566e+00 7.498164e-01 -5.136235e+00 6.688485e+01 -3.205932e-02 1.879772e-02 -1.131627e-03 2.466872e-02 -9.532318e-03 -2.172683e-02 1.044150e-02 1.096180e-02 -6.934508e-03 6.286054e-03 1.165448e-02 5.479549e-03 -1.862366e-02 -5.858798e-04 2.351706e-04 2.090686e-04 6.987994e-04 2.846670e-04 -9.481791e-05 -8.852066e-04 -3.398205e-04 -1.741808e-03 -4.665055e-04 4.220718e-04 6.193977e-04 8.877083e-04
<VARIANCE> 39
 3.485464e+01 4.313561e+01 5.238786e+01 3.513137e+01 5.360400e+01 4.789832e+01 3.291990e+01 3.836405e+01 3.887206e+01 3.128507e+01 3.194662e+01 2.443804e+01 5.756694e+01 8.697316e-01 1.390683e+00 1.564991e+00 1.380369e+00 2.189325e+00 1.828231e+00 1.839358e+00 2.205940e+00 1.984299e+00 1.985212e+00 1.879879e+00 1.517634e+00 8.257216e-01 1.118438e-01 1.863020e-01 1.997442e-01 2.066609e-01 3.252755e-01 2.911806e-01 3.155668e-01 3.849027e-01 3.407985e-01 3.482739e-01 3.235940e-01 2.794815e-01 8.747760e-02
<GCONST> 1.068006e+02
<TRANSP> 5
 0.000000e+00 1.000000e+00 0.000000e+00 0.000000e+00 0.000000e+00
 0.000000e+00 8.040399e-01 1.959601e-01 0.000000e+00 0.000000e+00
 0.000000e+00 0.000000e+00 8.040400e-01 1.959600e-01 0.000000e+00
 0.000000e+00 0.000000e+00 0.000000e+00 9.372690e-01 6.273094e-02
 0.000000e+00 0.000000e+00 0.000000e+00 0.000000e+00 0.000000e+00
<ENDHMM>
~h "o"
<BEGINHMM>
<NUMSTATES> 5
<STATE> 2
<MEAN> 39
 -4.684495e+00 -4.917807e+00 -2.071744e-01 -4.594195e+00 -1.447079e+00 -7.835442e+00 -3.168346e+00 -3.811634e+00 5.520729e+00 -2.905685e+00 6.631984e-01 -2.128209e+00 6.599274e+01 -4.800216e-02 3.743298e-03 -4.639705e-02 -4.081744e-02 3.274268e-03 -2.535663e-02 4.704420e-02 5.133716e-02 4.777170e-03 1.754220e-02 9.036820e-04 1.607616e-03 -4.129764e-02 -2.246922e-03 1.629659e-03 2.161706e-03 3.160253e-03 -2.708723e-04 2.784722e-04 -1.800157e-04 1.826834e-03 -6.973170e-04 -4.567922e-04 4.783408e-04 5.574069e-04 -7.486489e-04
<VARIANCE> 39
 5.430138e+01 2.985340e+01 4.457356e+01 2.916734e+01 3.899722e+01 5.319365e+01 5.895007e+01 5.004200e+01 3.253968e+01 3.139938e+01 1.837847e+01 3.380706e+01 5.010484e+01 9.769780e-01 1.121843e+00 1.995606e+00 1.227392e+00 1.961836e+00 2.018273e+00 2.362206e+00 2.251475e+00 2.253885e+00 1.678177e+00 1.518990e+00 1.608612e+00 4.772687e-01 1.038015e-01 1.405419e-01 2.674916e-01 1.960356e-01 2.777814e-01 3.013119e-01 3.363895e-01 3.737603e-01 4.051466e-01 2.669656e-01 2.990626e-01 3.030948e-01 4.838064e-02
<GCONST> 1.052760e+02
<STATE> 3
<MEAN> 39
 -4.962956e+00 -4.863822e+00 -4.333381e-01 -4.765924e+00 -1.419723e+00 -7.964102e+00 -2.923350e+00 -3.529626e+00 5.554695e+00 -2.822045e+00 6.631253e-01 -2.132897e+00 6.576202e+01 -5.936394e-02 1.270270e-02 -3.399540e-02 -2.281379e-02 5.495496e-04 -2.450056e-02 4.467121e-02 5.815206e-02 1.591930e-03 1.388595e-02 3.527629e-03 5.619558e-03 -4.307499e-02 -2.336236e-03 2.292447e-03 2.802054e-03 4.066803e-03 -7.704006e-04 9.591002e-04 -8.059510e-04 1.426021e-03 -1.171537e-03 -6.379007e-04 -3.989389e-05 8.100854e-04 -5.092478e-04
<VARIANCE> 39
 5.451429e+01 2.862610e+01 4.331315e+01 2.723183e+01 3.902917e+01 5.259009e+01 5.730831e+01 5.048759e+01 3.316608e+01 3.009811e+01 1.781450e+01 3.230997e+01 4.973327e+01 9.805905e-01 1.170120e+00 1.939854e+00 1.200737e+00 1.949699e+00 1.993854e+00 2.330329e+00 2.316267e+00 2.314139e+00 1.657811e+00 1.487428e+00 1.643828e+00 5.174356e-01 1.070037e-01 1.493554e-01 2.627147e-01 1.940636e-01 2.756510e-01 3.029793e-01 3.314955e-01 3.823274e-01 4.138114e-01 2.670963e-01 2.958605e-01 3.107092e-01 5.322460e-02
<GCONST> 1.052910e+02
<STATE> 4
<MEAN> 39
 -5.656229e+00 -4.581539e+00 -5.655122e-01 -4.985065e+00 -1.318313e+00 -8.090767e+00 -2.598389e+00 -2.698435e+00 5.482622e+00 -2.886435e+00 6.112548e-01 -2.418493e+00 6.500589e+01 -7.565437e-02 3.158774e-02 -1.365640e-02 1.469078e-02 -5.571598e-03 -2.016169e-02 3.414344e-02 5.924946e-02 4.651978e-03 5.554687e-03 2.361845e-03 1.462620e-02 -3.923341e-02 -1.560139e-03 2.413510e-03 2.173779e-03 3.971347e-03 -7.046193e-04 3.192934e-03 -9.598709e-04 1.045650e-03 4.059269e-05 -4.469419e-04 -1.450154e-03 4.042379e-05 4.355441e-04
<VARIANCE> 39
 5.155015e+01 2.606805e+01 3.967140e+01 2.473848e+01 3.824941e+01 5.365498e+01 5.153513e+01 5.031345e+01 3.396355e+01 2.816783e+01 1.721386e+01 3.010539e+01 4.767292e+01 9.787244e-01 1.243085e+00 1.807023e+00 1.193405e+00 1.905162e+00 2.077840e+00 2.290641e+00 2.323003e+00 2.361243e+00 1.618855e+00 1.439640e+00 1.760883e+00 5.852636e-01 1.148175e-01 1.634216e-01 2.538881e-01 1.984642e-01 2.688439e-01 3.229156e-01 3.319911e-01 3.773206e-01 4.148915e-01 2.671361e-01 2.900282e-01 3.337264e-01 6.170225e-02
<GCONST> 1.051770e+02
<TRANSP> 5
 0.000000e+00 1.000000e+00 0.000000e+00 0.000000e+00 0.000000e+00
 0.000000e+00 8.016341e-01 1.983658e-01 0.000000e+00 0.000000e+00
 0.000000e+00 0.000000e+00 8.016344e-01 1.983656e-01 0.000000e+00
 0.000000e+00 0.000000e+00 0.000000e+00 9.342919e-01 6.570810e-02
 0.000000e+00 0.000000e+00 0.000000e+00 0.000000e+00 0.000000e+00
<ENDHMM>
~h "r"
<BEGINHMM>
<NUMSTATES> 5
<STATE> 2
<MEAN> 39
 -4.547143e+00 -6.114054e+00 2.917590e+00 -3.280714e+00 -4.540159e+00 -6.233409e+00 -4.499423e+00 -2.447177e+00 5.009815e+00 -3.627720e+00 1.111761e+00 -2.554722e+00 6.724184e+01 3.755375e-03 -1.781238e-02 2.058877e-02 1.743614e-02 -5.105925e-03 -6.825803e-03 -9.918276e-04 1.953790e-03 1.269034e-03 6.118393e-03 -3.316048e-03 2.447568e-03 1.412802e-02 -1.858086e-04 -2.150431e-04 -8.176588e-04 -5.739715e-04 1.218004e-03 3.100421e-04 6.316583e-04 8.082694e-04 -8.879398e-04 2.092033e-05 -2.787832e-04 -8.588094e-05 -1.128461e-03
<VARIANCE> 39
 4.887038e+01 3.173809e+01 8.304398e+01 5.344157e+01 7.065779e+01 3.895358e+01 4.940510e+01 4.080715e+01 3.854456e+01 3.500968e+01 2.682094e+01 3.062047e+01 4.470165e+01 1.324922e+00 1.225591e+00 2.067787e+00 1.636152e+00 2.286448e+00 1.973530e+00 2.340296e+00 2.152445e+00 2.078265e+00 2.166460e+00 1.720138e+00 1.861414e+00 6.722851e-01 1.549405e-01 1.680008e-01 2.605322e-01 2.419488e-01 3.242604e-01 3.212442e-01 3.677239e-01 3.659254e-01 3.550506e-01 3.692464e-01 3.143135e-01 3.466743e-01 7.707212e-02
<GCONST> 1.102763e+02
<STATE> 3
<MEAN> 39
 -4.531997e+00 -6.206066e+00 3.019049e+00 -3.196211e+00 -4.539476e+00 -6.263549e+00 -4.499038e+00 -2.408270e+00 4.995955e+00 -3.593296e+00 1.082236e+00 -2.547709e+00 6.728249e+01 7.941637e-04 -1.690583e-02 1.414615e-02 1.433376e-02 3.279367e-03 -5.773294e-03 3.266320e-03 6.448566e-03 -2.218785e-03 6.782169e-03 -4.627691e-03 1.048459e-03 4.718412e-03 -6.353893e-04 2.068895e-04 -1.181690e-03 -5.878701e-04 1.423507e-03 2.395125e-04 7.697183e-04 8.848564e-04 -6.448032e-04 1.305714e-04 -2.267199e-04 -3.456355e-04 -1.707968e-03
<VARIANCE> 39
 4.889212e+01 3.164390e+01 8.458425e+01 5.267259e+01 7.132533e+01 3.895720e+01 4.982054e+01 4.155935e+01 3.827931e+01 3.502713e+01 2.699359e+01 3.112953e+01 4.489815e+01 1.305944e+00 1.236188e+00 2.061070e+00 1.614850e+00 2.282920e+00 1.965738e+00 2.352058e+00 2.159364e+00 2.089363e+00 2.163797e+00 1.734045e+00 1.859472e+00 6.644347e-01 1.513919e-01 1.688047e-01 2.587688e-01 2.401720e-01 3.198844e-01 3.201871e-01 3.663939e-01 3.668862e-01 3.588386e-01 3.674310e-01 3.170269e-01 3.452191e-01 7.565077e-02
<GCONST> 1.102556e+02
<STATE> 4
<MEAN> 39
 -4.595531e+00 -6.441030e+00 3.050871e+00 -3.063759e+00 -4.352904e+00 -6.168536e+00 -4.440844e+00 -2.115529e+00 4.934348e+00 -3.534330e+00 9.779717e-01 -2.697846e+00 6.713704e+01 -1.450249e-02 -7.305106e-03 -8.671205e-03 1.049041e-02 2.621989e-02 -9.629269e-03 1.151473e-02 1.258976e-02 1.565399e-03 8.628665e-03 -9.040034e-03 -9.210182e-03 -2.167168e-02 -1.080220e-03 6.442050e-04 -1.550497e-03 -4.677965e-04 1.067430e-03 -1.114111e-04 6.509865e-04 3.147196e-04 2.672581e-04 1.138174e-04 -6.975266e-05 -6.994617e-04 -1.439161e-03
<VARIANCE> 39
 4.914373e+01 3.147803e+01 8.396979e+01 5.033265e+01 7.224890e+01 3.943857e+01 4.901088e+01 4.175885e+01 3.810536e+01 3.525569e+01 2.743501e+01 3.232922e+01 4.525626e+01 1.243805e+00 1.262643e+00 1.958556e+00 1.585483e+00 2.254540e+00 1.949304e+00 2.349122e+00 2.148196e+00 2.084731e+00 2.138222e+00 1.765385e+00 1.865039e+00 6.532400e-01 1.415136e-01 1.720194e-01 2.431560e-01 2.383595e-01 3.108983e-01 3.164839e-01 3.636650e-01 3.656977e-01 3.601421e-01 3.582214e-01 3.224610e-01 3.419683e-01 7.242015e-02
<GCONST> 1.099186e+02
<TRANSP> 5
 0.000000e+00 1.000000e+00 0.000000e+00 0.000000e+00 0.000000e+00
 0.000000e+00 8.097200e-01 1.902800e-01 0.000000e+00 0.000000e+00
 0.000000e+00 0.000000e+00 8.097199e-01 1.902801e-01 0.000000e+00
 0.000000e+00 0.000000e+00 0.000000e+00 9.436615e-01 5.633857e-02
 0.000000e+00 0.000000e+00 0.000000e+00 0.000000e+00 0.000000e+00
<ENDHMM>
~h "s"
<BEGINHMM>
<NUMSTATES> 5
<STATE> 2
<MEAN> 39
 -7.927816e+00 -5.203822e+00 1.332337e+00 -2.730802e+00 -2.403760e+00 -7.644608e+00 -3.399032e+00 -2.790184e+00 7.057456e+00 -3.508528e+00 1.259557e+00 -3.785809e+00 6.862962e+01 -2.433554e-02 1.928223e-02 5.523369e-03 1.369054e-02 1.590287e-02 -2.033245e-02 -5.232357e-03 -1.736860e-02 9.906781e-03 -4.149077e-03 1.119144e-03 8.489780e-04 1.060679e-02 -4.730299e-04 -5.832789e-04 -2.456421e-03 -1.735321e-03 1.364189e-03 1.535099e-03 1.264881e-03 2.919301e-04 8.019994e-04 2.871949e-04 -1.619397e-03 -8.297652e-04 9.278941e-04
<VARIANCE> 39
 6.796529e+01 3.813026e+01 7.275713e+01 3.888610e+01 5.392017e+01 4.556751e+01 6.159381e+01 4.364027e+01 4.603991e+01 2.742429e+01 2.753507e+01 2.444600e+01 4.492894e+01 1.668396e+00 1.503885e+00 2.019520e+00 1.585018e+00 2.033316e+00 1.937480e+00 2.700226e+00 2.218682e+00 2.416257e+00 1.851670e+00 1.783881e+00 1.469446e+00 1.057308e+00 1.896048e-01 2.071425e-01 2.625416e-01 2.554536e-01 2.938555e-01 3.131815e-01 4.256946e-01 3.714809e-01 4.048220e-01 3.341412e-01 3.046327e-01 2.896699e-01 1.248638e-01
<GCONST> 1.117307e+02
<STATE> 3
<MEAN> 39
 -8.053933e+00 -5.126779e+00 1.333522e+00 -2.677224e+00 -2.324950e+00 -7.740798e+00 -3.406662e+00 -2.861407e+00 7.129704e+00 -3.533725e+00 1.235625e+00 -3.804226e+00 6.870825e+01 -2.508040e-02 1.635036e-02 -5.049764e-03 6.266349e-03 1.789285e-02 -1.571202e-02 -3.672744e-04 -1.402386e-02 1.440427e-02 -2.629807e-03 -3.907211e-03 -4.607381e-03 1.597672e-02 1.285622e-04 -6.658989e-04 -2.062920e-03 -1.446944e-03 3.724605e-04 8.080821e-04 8.492238e-04 9.248001e-04 8.916390e-04 1.558633e-04 -9.205205e-04 -1.315609e-03 8.618929e-04
<VARIANCE> 39
 6.878032e+01 3.810417e+01 7.284527e+01 3.836338e+01 5.268334e+01 4.487474e+01 6.296007e+01 4.273899e+01 4.643468e+01 2.733931e+01 2.750422e+01 2.459000e+01 4.454021e+01 1.696385e+00 1.526629e+00 1.993842e+00 1.574541e+00 2.028640e+00 1.955135e+00 2.749574e+00 2.197077e+00 2.433057e+00 1.839472e+00 1.797627e+00 1.478685e+00 1.069276e+00 1.930812e-01 2.097439e-01 2.583794e-01 2.522874e-01 2.958100e-01 3.169142e-01 4.342642e-01 3.679399e-01 4.064045e-01 3.328690e-01 3.091897e-01 2.913038e-01 1.264652e-01
<GCONST> 1.118108e+02
<STATE> 4
<MEAN> 39
 -8.267108e+00 -5.022254e+00 1.293556e+00 -2.599576e+00 -2.213705e+00 -7.907287e+00 -3.603187e+00 -2.823250e+00 7.367828e+00 -3.559850e+00 1.225387e+00 -4.000995e+00 6.898708e+01 -1.582865e-02 8.944999e-03 -1.317358e-02 -1.132087e-03 1.113125e-02 -9.909585e-03 -7.085291e-03 -6.081352e-03 2.110301e-02 5.098590e-03 -3.157025e-03 -1.470504e-02 2.247962e-02 1.231542e-03 -5.943374e-04 -8.202698e-04 -9.658461e-04 -1.369627e-04 6.909684e-04 -4.302402e-04 9.410899e-04 2.398438e-04 6.190788e-04 2.024702e-04 -1.124328e-03 -1.635405e-04
<VARIANCE> 39
 7.026025e+01 3.824406e+01 7.102704e+01 3.681847e+01 4.968655e+01 4.463516e+01 6.620612e+01 4.222600e+01 4.660320e+01 2.684175e+01 2.760690e+01 2.451073e+01 4.362032e+01 1.757992e+00 1.576077e+00 1.938277e+00 1.533903e+00 2.011114e+00 1.983069e+00 2.837984e+00 2.155629e+00 2.434433e+00 1.792298e+00 1.828281e+00 1.494215e+00 1.106872e+00 2.012680e-01 2.154985e-01 2.485000e-01 2.438852e-01 2.967491e-01 3.202805e-01 4.513905e-01 3.619378e-01 4.041916e-01 3.267240e-01 3.180442e-01 2.937264e-01 1.321884e-01
<GCONST> 1.118647e+02
<TRANSP> 5
 0.000000e+00 1.000000e+00 0.000000e+00 0.000000e+00 0.000000e+00
 0.000000e+00 7.986909e-01 2.013092e-01 0.000000e+00 0.000000e+00
 0.000000e+00 0.000000e+00 7.986910e-01 2.013089e-01 0.000000e+00
 0.000000e+00 0.000000e+00 0.000000e+00 9.308929e-01 6.910703e-02
 0.000000e+00 0.000000e+00 0.000000e+00 0.000000e+00 0.000000e+00
<ENDHMM>
~h "t"
<BEGINHMM>
<NUMSTATES> 5
<STATE> 2
<MEAN> 39
 -6.701277e+00 -5.097231e+00 3.048373e+00 -3.566596e+00 -2.886822e+00 -6.733447e+00 -5.902298e+00 9.576938e-02 4.287134e+00 -3.136040e+00 1.927803e+00 -4.016226e+00 6.531409e+01 -1.700895e-03 -5.904062e-03 4.857749e-02 -1.160475e-02 -4.349035e-02 -1.466172e-02 -9.894226e-03 4.729223e-03 -2.563474e-02 -1.638402e-02 1.635130e-03 2.724828e-02 1.579476e-02 -1.052706e-03 3.993022e-04 7.529859e-04 1.381541e-03 4.423702e-04 -1.274956e-03 -4.249438e-04 5.445803e-04 1.401831e-03 -5.957144e-04 -1.226558e-03 1.339706e-03 1.230327e-03
<VARIANCE> 39
 3.301762e+01 2.090126e+01 7.238303e+01 3.421323e+01 6.472243e+01 3.815498e+01 5.523226e+01 2.581114e+01 3.608517e+01 3.141597e+01 2.575881e+01 2.370650e+01 4.668598e+01 1.105690e+00 9.759879e-01 1.498254e+00 1.383123e+00 2.125784e+00 2.015449e+00 2.232754e+00 1.819576e+00 1.708109e+00 1.660022e+00 1.549436e+00 1.488771e+00 7.783113e-01 1.269992e-01 1.676105e-01 2.039018e-01 2.335413e-01 3.321476e-01 3.254634e-01 3.806557e-01 3.321914e-01 3.063679e-01 2.956771e-01 2.734433e-01 2.745660e-01 9.527130e-02
<GCONST> 1.051545e+02
<STATE> 3
<MEAN> 39
 -6.724411e+00 -5.101003e+00 3.290599e+00 -3.583985e+00 -3.071497e+00 -6.825855e+00 -5.962484e+00 1.174464e-01 4.184961e+00 -3.227577e+00 1.931106e+00 -3.866085e+00 6.539690e+01 -5.934303e-03 -9.366098e-04 4.774307e-02 -2.591593e-03 -3.650087e-02 -2.245976e-02 -1.072934e-02 8.683911e-03 -1.854370e-02 -1.600229e-02 -1.892879e-03 2.797706e-02 1.816002e-02 -9.824936e-04 1.156918e-03 -8.087892e-04 1.672037e-03 1.819750e-03 -1.114547e-03 6.214328e-05 6.188620e-04 1.260505e-03 -3.107747e-05 -3.662783e-04 -2.382999e-04 7.488624e-05
<VARIANCE> 39
 3.408722e+01 2.128048e+01 7.364056e+01 3.476393e+01 6.518727e+01 3.762535e+01 5.645084e+01 2.568407e+01 3.655960e+01 3.230100e+01 2.563503e+01 2.280879e+01 4.768464e+01 1.150819e+00 9.974159e-01 1.498815e+00 1.406296e+00 2.115551e+00 1.977426e+00 2.238816e+00 1.809429e+00 1.740178e+00 1.638261e+00 1.554639e+00 1.491995e+00 7.882034e-01 1.317714e-01 1.707905e-01 2.060238e-01 2.384712e-01 3.337545e-01 3.204485e-01 3.806066e-01 3.294138e-01 3.107428e-01 2.888195e-01 2.751920e-01 2.767217e-01 9.719442e-02
<GCONST> 1.054343e+02
<STATE> 4
<MEAN> 39
 -6.749923e+00 -4.890190e+00 3.487000e+00 -3.386333e+00 -3.007073e+00 -7.055762e+00 -6.016670e+00 8.851088e-02 4.201404e+00 -3.401186e+00 2.045254e+00 -3.670863e+00 6.543697e+01 -2.788875e-03 1.075835e-02 5.484966e-03 -2.944559e-03 2.559590e-04 -3.297075e-02 8.945328e-04 7.379103e-03 1.728431e-03 -5.560107e-03 -3.587360e-03 1.138514e-02 4.820390e-03 -4.316078e-04 9.070886e-04 -2.979475e-03 5.307966e-05 2.198083e-03 -1.915332e-04 9.510046e-04 -5.473767e-05 8.751915e-04 4.802318e-04 -1.609196e-04 -1.339479e-03 -7.534259e-04
<VARIANCE> 39
 3.636485e+01 2.221840e+01 7.147974e+01 3.729222e+01 5.908887e+01 3.803366e+01 5.897414e+01 2.613821e+01 3.411181e+01 3.693080e+01 2.461980e+01 2.153073e+01 4.877859e+01 1.224025e+00 1.005606e+00 1.423880e+00 1.459361e+00 2.015620e+00 1.942989e+00 2.240896e+00 1.766004e+00 1.834239e+00 1.673113e+00 1.531083e+00 1.488182e+00 7.408409e-01 1.421132e-01 1.695998e-01 2.003560e-01 2.486547e-01 3.259828e-01 3.112638e-01 3.828104e-01 3.176294e-01 3.289620e-01 2.895762e-01 2.742884e-01 2.825319e-01 9.390164e-02
<GCONST> 1.055476e+02
<TRANSP> 5
 0.000000e+00 1.000000e+00 0.000000e+00 0.000000e+00 0.000000e+00
 0.000000e+00 8.116556e-01 1.883444e-01 0.000000e+00 0.000000e+00
 0.000000e+00 0.000000e+00 8.116554e-01 1.883446e-01 0.000000e+00
 0.000000e+00 0.000000e+00 0.000000e+00 9.457738e-01 5.422617e-02
 0.000000e+00 0.000000e+00 0.000000e+00 0.000000e+00 0.000000e+00
<ENDHMM>
~h "u"
<BEGINHMM>
<NUMSTATES> 5
<STATE> 2
<MEAN> 39
 -7.004592e+00 -5.135297e+00 3.923355e+00 -2.433580e+00 -2.529279e+00 -6.971421e+00 -7.263817e+00 3.314661e-01 4.152651e+00 -4.460569e+00 1.936969e+00 -3.748885e+00 6.673527e+01 1.507009e-02 3.221215e-03 1.438086e-02 -6.045642e-03 -9.392276e-03 -2.578846e-02 -5.956616e-03 -1.708000e-02 -1.645835e-02 -5.306987e-03 1.223231e-02 1.932240e-02 2.338161e-02 1.516271e-03 5.296752e-04 -9.894437e-04 -1.402759e-04 1.423131e-04 4.959936e-04 -1.700172e-04 -1.358317e-03 4.265106e-04 9.466122e-04 2.628231e-04 -4.420069e-04 5.035654e-05
<VARIANCE> 39
 4.669428e+01 2.270376e+01 6.308292e+01 4.246688e+01 4.397999e+01 4.360625e+01 6.357455e+01 2.728971e+01 2.859347e+01 4.196706e+01 2.621192e+01 2.336020e+01 4.646531e+01 1.535122e+00 1.142142e+00 1.198411e+00 1.705035e+00 1.810921e+00 2.052839e+00 2.440831e+00 1.601899e+00 1.745001e+00 1.741165e+00 1.551751e+00 1.444661e+00 7.442237e-01 1.711475e-01 1.837752e-01 1.691740e-01 2.836494e-01 2.905194e-01 3.123550e-01 4.056669e-01 2.838570e-01 3.184328e-01 2.918451e-01 2.815130e-01 2.738051e-01 8.995627e-02
<GCONST> 1.060715e+02
<STATE> 3
<MEAN> 39
 -6.892472e+00 -5.114484e+00 3.954543e+00 -2.492170e+00 -2.566140e+00 -7.098777e+00 -7.280277e+00 2.284223e-01 4.084752e+00 -4.457928e+00 2.002383e+00 -3.657305e+00 6.684707e+01 2.230986e-02 5.236077e-03 7.833581e-03 -9.481518e-03 -8.307620e-03 -2.199939e-02 -5.597273e-03 -2.443342e-02 -1.316659e-02 -1.596917e-04 1.292264e-02 1.764238e-02 2.302623e-02 1.293299e-03 5.532910e-04 -1.278060e-03 -7.263201e-04 2.002905e-04 9.268352e-04 1.540009e-04 -1.235406e-03 7.080622e-04 9.896556e-04 4.114747e-05 -7.765466e-04 -1.371071e-04
<VARIANCE> 39
 4.682962e+01 2.326849e+01 6.337812e+01 4.304342e+01 4.383463e+01 4.455071e+01 6.344389e+01 2.823687e+01 2.930579e+01 4.305566e+01 2.550426e+01 2.347100e+01 4.694146e+01 1.519148e+00 1.144523e+00 1.195244e+00 1.713151e+00 1.827715e+00 2.055827e+00 2.419482e+00 1.594262e+00 1.754266e+00 1.765366e+00 1.529055e+00 1.420864e+00 7.479349e-01 1.708689e-01 1.817851e-01 1.691006e-01 2.833800e-01 2.942556e-01 3.111284e-01 4.023127e-01 2.814122e-01 3.193283e-01 2.963651e-01 2.805848e-01 2.711168e-01 9.052223e-02
<GCONST> 1.061779e+02
<STATE> 4
<MEAN> 39
 -6.382050e+00 -5.155233e+00 3.733543e+00 -2.761205e+00 -2.681889e+00 -7.212222e+00 -7.267336e+00 4.666623e-02 4.172249e+00 -4.311534e+00 2.173431e+00 -3.563263e+00 6.710547e+01 2.967486e-02 1.774395e-03 -1.280571e-02 -2.924696e-02 -6.667067e-03 -7.094291e-03 3.875541e-03 -2.565467e-02 -3.228554e-03 6.039914e-03 7.805791e-03 9.419180e-03 1.942721e-02 4.681393e-04 2.999249e-04 -9.740114e-04 -1.049128e-03 -3.740051e-04 1.644652e-03 2.665210e-04 -1.316404e-04 7.039362e-04 1.665732e-04 -3.381669e-04 -1.412558e-03 4.618647e-05
<VARIANCE> 39
 4.602598e+01 2.391215e+01 6.158851e+01 4.584668e+01 4.380451e+01 4.735400e+01 6.172865e+01 2.935435e+01 3.101431e+01 4.522382e+01 2.371115e+01 2.382511e+01 4.687160e+01 1.478126e+00 1.134309e+00 1.192663e+00 1.710245e+00 1.868801e+00 2.096429e+00 2.346959e+00 1.562950e+00 1.779445e+00 1.829077e+00 1.481055e+00 1.411558e+00 7.428203e-01 1.714503e-01 1.748374e-01 1.718959e-01 2.757856e-01 3.014016e-01 3.137361e-01 3.939335e-01 2.750010e-01 3.266197e-01 3.090631e-01 2.765694e-01 2.740676e-01 9.110663e-02
<GCONST> 1.063055e+02
<TRANSP> 5
 0.000000e+00 1.000000e+00 0.000000e+00 0.000000e+00 0.000000e+00
 0.000000e+00 8.150272e-01 1.849727e-01 0.000000e+00 0.000000e+00
 0.000000e+00 0.000000e+00 8.150273e-01 1.849727e-01 0.000000e+00
 0.000000e+00 0.000000e+00 0.000000e+00 9.488764e-01 5.112359e-02
 0.000000e+00 0.000000e+00 0.000000e+00 0.000000e+00 0.000000e+00
<ENDHMM>
~h "v"
<BEGINHMM>
<NUMSTATES> 5
<STATE> 2
<MEAN> 39
 -5.835041e+00 -7.661731e+00 6.694719e-01 -5.378216e+00 -1.401056e+00 -5.190289e+00 -4.692870e+00 -2.968629e+00 7.841860e+00 -2.872710e+00 1.300496e+00 -6.123512e+00 7.003187e+01 5.917299e-03 2.856179e-02 4.069287e-04 -7.060925e-03 2.086406e-02 -2.218254e-02 -1.280982e-02 2.185865e-02 -1.771479e-02 2.956090e-02 -6.347917e-04 -7.469418e-03 -5.712468e-02 -4.631596e-04 1.562527e-03 2.418411e-03 1.067279e-03 -1.694583e-03 -9.849283e-04 2.342946e-04 9.556980e-04 -9.621720e-04 1.035484e-04 -2.729051e-04 2.625634e-04 -2.306324e-03
<VARIANCE> 39
 6.323242e+01 5.334122e+01 4.057772e+01 4.122145e+01 3.879862e+01 4.904258e+01 4.627613e+01 4.134893e+01 4.088756e+01 2.754106e+01 2.781742e+01 2.419264e+01 4.963566e+01 1.691899e+00 1.629422e+00 1.100812e+00 1.626859e+00 1.738327e+00 1.946874e+00 2.381172e+00 2.199726e+00 1.982903e+00 1.557172e+00 1.959104e+00 1.473538e+00 1.169037e+00 2.106397e-01 2.122356e-01 1.565994e-01 2.516963e-01 2.692861e-01 3.147771e-01 4.131422e-01 3.693682e-01 3.507133e-01 2.826549e-01 3.469501e-01 2.726478e-01 1.543424e-01
<GCONST> 1.093621e+02
<STATE> 3
<MEAN> 39
 -5.822536e+00 -7.480791e+00 6.951619e-01 -5.393571e+00 -1.302408e+00 -5.318161e+00 -4.753301e+00 -2.847411e+00 7.724626e+00 -2.718979e+00 1.296830e+00 -6.150914e+00 6.970746e+01 3.901821e-03 3.484030e-02 1.216056e-02 -2.907345e-03 1.193501e-02 -2.484686e-02 -1.094359e-02 2.537628e-02 -2.244356e-02 2.979857e-02 -1.359121e-03 -6.542203e-03 -6.708193e-02 -3.884628e-04 1.047709e-03 2.060758e-03 7.440672e-04 -1.746395e-03 -1.947807e-04 4.360533e-04 7.887806e-04 -5.727966e-04 -5.835658e-05 -2.614347e-04 2.694584e-04 -1.687151e-03
<VARIANCE> 39
 6.071857e+01 5.139669e+01 3.827927e+01 3.909683e+01 3.821633e+01 4.718441e+01 4.480322e+01 4.032617e+01 4.196734e+01 2.799799e+01 2.784422e+01 2.404147e+01 5.027167e+01 1.624055e+00 1.614361e+00 1.093025e+00 1.599107e+00 1.746863e+00 1.928505e+00 2.372996e+00 2.202069e+00 1.989733e+00 1.572343e+00 1.956211e+00 1.493519e+00 1.162698e+00 2.031893e-01 2.117412e-01 1.562543e-01 2.497405e-01 2.718202e-01 3.163021e-01 4.160847e-01 3.722723e-01 3.532771e-01 2.862565e-01 3.473951e-01 2.760945e-01 1.541943e-01
<GCONST> 1.090638e+02
<STATE> 4
<MEAN> 39
 -5.806585e+00 -7.163659e+00 8.317392e-01 -5.531499e+00 -1.114354e+00 -5.447784e+00 -4.849754e+00 -2.479893e+00 7.384268e+00 -2.440158e+00 1.326861e+00 -6.154461e+00 6.906656e+01 7.891120e-04 3.825485e-02 2.777536e-02 1.135515e-04 -3.072537e-03 -2.159162e-02 -3.208124e-03 2.615244e-02 -3.528913e-02 2.623723e-02 9.046263e-04 -2.261869e-03 -7.324486e-02 -2.735168e-05 -3.513924e-04 1.267251e-03 3.581012e-04 -2.015900e-03 4.241975e-04 8.182956e-04 5.677956e-04 3.349727e-05 -7.044571e-04 -3.201767e-04 5.060325e-04 -1.745270e-04
<VARIANCE> 39
 5.487105e+01 4.674498e+01 3.598406e+01 3.548120e+01 3.913757e+01 4.452494e+01 4.140906e+01 3.883514e+01 4.276955e+01 2.880741e+01 2.732326e+01 2.349160e+01 5.042716e+01 1.502094e+00 1.562081e+00 1.091285e+00 1.556858e+00 1.791777e+00 1.906891e+00 2.301546e+00 2.188188e+00 1.972089e+00 1.613729e+00 1.921761e+00 1.523036e+00 1.130131e+00 1.898837e-01 2.082472e-01 1.569892e-01 2.488598e-01 2.781225e-01 3.198128e-01 4.132493e-01 3.733163e-01 3.567402e-01 2.942317e-01 3.422127e-01 2.813180e-01 1.522695e-01
<GCONST> 1.083701e+02
<TRANSP> 5
 0.000000e+00 1.000000e+00 0.000000e+00 0.000000e+00 0.000000e+00
 0.000000e+00 8.019446e-01 1.980554e-01 0.000000e+00 0.000000e+00
 0.000000e+00 0.000000e+00 8.019449e-01 1.980552e-01 0.000000e+00
 0.000000e+00 0.000000e+00 0.000000e+00 9.351877e-01 6.481232e-02
 0.000000e+00 0.000000e+00 0.000000e+00 0.000000e+00 0.000000e+00
<ENDHMM>
~h "w"
<BEGINHMM>
<NUMSTATES> 5
<STATE> 2
<MEAN> 39
 -4.270107e+00 -5.935866e+00 2.411472e-01 -6.494579e+00 -1.910900e+00 -4.175155e+00 -3.653629e+00 -1.684241e+00 2.748210e+00 -3.123139e+00 1.996346e+00 -4.304350e+00 6.566505e+01 8.916038e-02 7.374773e-03 -3.562817e-02 -6.787018e-02 6.765903e-06 5.686709e-02 3.089277e-02 5.527073e-03 2.855069e-02 -1.266134e-02 1.595541e-02 7.750842e-03 4.823494e-02 4.421221e-04 3.751931e-03 6.529262e-04 -6.181704e-03 -3.668036e-03 2.338909e-03 -5.749504e-04 -9.894862e-04 1.323001e-03 5.983198e-05 2.412116e-03 2.941097e-03 2.763527e-03
<VARIANCE> 39
 3.591103e+01 3.786886e+01 2.757688e+01 4.454874e+01 3.744233e+01 6.733770e+01 2.865469e+01 4.048510e+01 3.334607e+01 2.348768e+01 2.168447e+01 2.533924e+01 5.177450e+01 6.913346e-01 1.489705e+00 1.298709e+00 1.621409e+00 1.613930e+00 2.339094e+00 1.850343e+00 2.607189e+00 1.857643e+00 1.523892e+00 1.710416e+00 1.461270e+00 6.153686e-01 9.477907e-02 1.738925e-01 2.075500e-01 2.451973e-01 2.561449e-01 3.663144e-01 3.172851e-01 4.542780e-01 3.289456e-01 2.836799e-01 3.281938e-01 2.795877e-01 5.817008e-02
<GCONST> 1.039696e+02
<STATE> 3
<MEAN> 39
 -3.772281e+00 -5.872782e+00 7.323401e-02 -6.973365e+00 -1.988269e+00 -3.776416e+00 -3.507324e+00 -1.706844e+00 2.936465e+00 -3.175803e+00 2.110029e+00 -4.247368e+00 6.602456e+01 9.166040e-02 1.255927e-02 -2.792238e-02 -9.280763e-02 -1.487594e-02 7.557159e-02 2.812899e-02 -3.093588e-03 3.882002e-02 -9.779330e-03 2.106050e-02 1.038699e-02 6.732309e-02 3.144201e-04 6.389957e-04 1.417790e-03 -4.548749e-03 -2.776583e-03 3.593573e-03 -3.398460e-04 -1.670718e-03 1.852148e-03 6.997609e-04 3.818873e-04 1.310832e-04 3.706968e-03
<VARIANCE> 39
 3.607371e+01 4.126752e+01 2.762241e+01 4.673149e+01 3.735635e+01 6.856380e+01 2.757995e+01 3.982020e+01 3.185128e+01 2.328009e+01 2.180919e+01 2.443008e+01 5.249607e+01 7.281117e-01 1.598337e+00 1.309122e+00 1.605305e+00 1.673346e+00 2.322718e+00 1.823923e+00 2.542113e+00 1.814798e+00 1.450818e+00 1.719319e+00 1.452927e+00 6.318046e-01 9.961233e-02 1.809411e-01 2.075486e-01 2.339506e-01 2.626828e-01 3.404671e-01 3.122537e-01 4.412223e-01 3.188119e-01 2.645054e-01 3.308708e-01 2.784242e-01 5.661709e-02
<GCONST> 1.038869e+02
<STATE> 4
<MEAN> 39
 -2.608907e+00 -6.162851e+00 -3.285779e-01 -7.948464e+00 -2.271700e+00 -2.269548e+00 -3.127007e+00 -1.965776e+00 3.502168e+00 -3.081724e+00 2.311137e+00 -4.341191e+00 6.733363e+01 6.872615e-02 -2.638056e-02 -1.831060e-02 -5.146334e-02 -1.226351e-02 9.216599e-02 2.315202e-02 -1.954769e-02 5.451315e-02 9.249702e-03 5.282168e-03 -1.574480e-02 8.443396e-02 -2.827037e-03 -2.127097e-03 1.059295e-03 3.445472e-03 5.048724e-04 1.351805e-05 -3.018187e-04 -5.665109e-04 8.191991e-04 1.189327e-03 -1.739212e-03 -1.473570e-03 -1.697108e-04
<VARIANCE> 39
 3.749111e+01 5.262080e+01 3.038236e+01 5.108220e+01 3.789418e+01 7.386594e+01 2.753456e+01 3.975542e+01 3.096554e+01 2.463582e+01 2.206105e+01 2.287668e+01 5.521417e+01 7.949390e-01 1.880608e+00 1.359829e+00 1.574879e+00 1.787113e+00 2.490781e+00 1.788777e+00 2.318847e+00 1.799276e+00 1.430156e+00 1.712962e+00 1.378748e+00 6.871153e-01 1.038129e-01 1.962577e-01 2.044282e-01 2.114708e-01 2.742084e-01 3.258191e-01 2.970190e-01 3.876675e-01 3.089509e-01 2.548331e-01 3.227246e-01 2.649471e-01 5.641872e-02
<GCONST> 1.044405e+02
<TRANSP> 5
 0.000000e+00 1.000000e+00 0.000000e+00 0.000000e+00 0.000000e+00
 0.000000e+00 8.063579e-01 1.936421e-01 0.000000e+00 0.000000e+00
 0.000000e+00 0.000000e+00 8.063579e-01 1.936420e-01 0.000000e+00
 0.000000e+00 0.000000e+00 0.000000e+00 9.396441e-01 6.035589e-02
 0.000000e+00 0.000000e+00 0.000000e+00 0.000000e+00 0.000000e+00
<ENDHMM>
~h "z"
<BEGINHMM>
<NUMSTATES> 5
<STATE> 2
<MEAN> 39
 -4.384200e+00 -4.682263e+00 9.803602e-01 -2.360414e+00 -4.556596e-01 -6.185616e+00 -3.623110e+00 -4.422851e+00 5.718000e+00 -3.703328e+00 3.476476e-02 -2.083475e+00 6.661793e+01 5.248988e-03 1.997285e-03 3.500352e-02 5.120802e-02 1.149867e-02 -1.019055e-02 -4.149983e-02 7.288866e-03 3.927138e-02 1.918958e-02 3.443296e-02 4.797371e-02 -6.418327e-03 2.393264e-03 3.806553e-04 -2.173651e-03 -2.885884e-03 -6.157243e-03 2.454515e-03 1.119264e-03 2.157431e-03 -5.383465e-04 -1.342788e-03 4.960998e-03 -1.022163e-03 -2.712844e-03
<VARIANCE> 39
 5.173612e+01 4.456430e+01 5.499691e+01 4.660860e+01 3.502385e+01 5.793614e+01 5.170173e+01 3.144655e+01 3.273701e+01 2.910437e+01 2.957585e+01 2.844043e+01 4.859624e+01 1.132603e+00 1.403326e+00 2.587322e+00 1.548438e+00 1.802973e+00 2.280797e+00 2.298783e+00 1.896961e+00 2.248190e+00 2.003594e+00 1.822429e+00 1.597902e+00 6.300713e-01 1.253862e-01 1.747041e-01 3.165270e-01 2.222706e-01 3.107067e-01 3.440863e-01 3.405786e-01 3.134817e-01 3.623151e-01 3.690860e-01 3.303714e-01 2.917699e-01 6.857418e-02
<GCONST> 1.086268e+02
<STATE> 3
<MEAN> 39
 -4.280944e+00 -4.657267e+00 1.098446e+00 -2.174547e+00 -5.092936e-01 -6.167307e+00 -3.805209e+00 -4.381026e+00 5.867315e+00 -3.652623e+00 2.831811e-01 -1.891582e+00 6.657076e+01 1.774779e-02 8.102292e-03 2.076336e-02 3.330835e-02 -1.263308e-02 3.206578e-03 -3.165168e-02 1.083316e-02 2.703180e-02 1.015838e-02 4.959222e-02 3.215478e-02 -1.258750e-02 2.281863e-03 1.294924e-03 -2.772693e-03 -3.498206e-03 -4.500481e-03 2.235237e-03 2.055637e-03 3.115997e-04 -2.550987e-03 -1.676986e-03 2.507853e-03 -3.353176e-03 -9.018484e-04
<VARIANCE> 39
 5.098574e+01 4.393808e+01 5.511661e+01 4.537856e+01 3.308596e+01 5.679966e+01 5.363606e+01 3.283867e+01 3.119374e+01 2.889102e+01 2.804475e+01 2.966129e+01 4.783445e+01 1.145432e+00 1.344536e+00 2.591496e+00 1.545365e+00 1.796568e+00 2.260637e+00 2.336549e+00 1.900920e+00 2.188753e+00 1.981578e+00 1.789007e+00 1.636978e+00 5.680569e-01 1.252154e-01 1.708207e-01 3.148068e-01 2.224728e-01 3.134377e-01 3.408178e-01 3.429480e-01 3.141504e-01 3.514790e-01 3.618779e-01 3.296263e-01 2.990235e-01 5.873323e-02
<GCONST> 1.081296e+02
<STATE> 4
<MEAN> 39
 -3.834433e+00 -4.608996e+00 1.157096e+00 -2.139983e+00 -9.866456e-01 -5.963146e+00 -3.989478e+00 -4.633609e+00 5.922800e+00 -3.808440e+00 1.076577e+00 -1.673571e+00 6.678636e+01 1.980181e-02 1.069042e-02 -4.143879e-03 -1.516626e-04 -2.830020e-02 7.062695e-03 -8.880604e-03 -9.184698e-03 5.161384e-03 -4.299347e-03 3.745816e-02 9.401976e-03 1.125103e-02 -5.451759e-04 2.450583e-04 -1.591218e-03 -2.304181e-03 -7.973675e-04 -8.402076e-04 1.791507e-03 -1.300590e-03 -1.342367e-03 -4.518570e-04 -1.287759e-03 -1.978504e-03 1.386525e-03
<VARIANCE> 39
 4.953553e+01 4.459568e+01 5.680674e+01 4.489393e+01 3.052681e+01 5.590088e+01 5.712870e+01 3.661441e+01 3.112190e+01 3.024681e+01 2.495600e+01 3.317810e+01 4.750875e+01 1.201133e+00 1.261317e+00 2.632241e+00 1.586790e+00 1.742069e+00 2.256175e+00 2.369750e+00 2.022583e+00 2.184186e+00 1.995612e+00 1.732144e+00 1.712577e+00 4.761915e-01 1.298466e-01 1.595747e-01 3.117772e-01 2.268598e-01 2.990093e-01 3.387929e-01 3.399036e-01 3.314994e-01 3.603497e-01 3.511183e-01 3.272551e-01 3.112962e-01 4.250248e-02
<GCONST> 1.078272e+02
<TRANSP> 5
 0.000000e+00 1.000000e+00 0.000000e+00 0.000000e+00 0.000000e+00
 0.000000e+00 8.016591e-01 1.983410e-01 0.000000e+00 0.000000e+00
 0.000000e+00 0.000000e+00 8.016591e-01 1.983409e-01 0.000000e+00
 0.000000e+00 0.000000e+00 0.000000e+00 9.343765e-01 6.562348e-02
 0.000000e+00 0.000000e+00 0.000000e+00 0.000000e+00 0.000000e+00
<ENDHMM>
~h "O:"
<BEGINHMM>
<NUMSTATES> 5
<STATE> 2
<MEAN> 39
 -3.104888e+00 -5.744829e+00 -1.298062e-02 -6.181065e+00 -4.769517e+00 -5.812129e+00 -3.544177e+00 -1.871441e+00 4.250806e+00 -3.824708e+00 4.595750e-01 -2.100539e+00 6.705985e+01 3.604114e-02 -4.818066e-03 -2.981689e-02 -2.949242e-02 5.183100e-04 2.403283e-02 1.074594e-02 -1.192350e-02 2.549853e-02 3.082429e-03 1.029196e-03 1.408977e-02 1.677956e-02 -4.106543e-04 -9.961904e-04 2.851980e-04 3.663970e-04 -3.777707e-04 1.110491e-03 6.831646e-04 9.463533e-04 1.406566e-03 1.899799e-04 -5.315733e-04 -4.160071e-04 1.196736e-03
<VARIANCE> 39
 5.812884e+01 2.373161e+01 4.504697e+01 7.330058e+01 7.509869e+01 3.585313e+01 3.094803e+01 2.958270e+01 3.644348e+01 4.197680e+01 2.356904e+01 2.731289e+01 4.375011e+01 1.401368e+00 1.164312e+00 1.510956e+00 2.047045e+00 2.288574e+00 1.577599e+00 1.699478e+00 1.971533e+00 1.805549e+00 2.058788e+00 1.526361e+00 1.674612e+00 6.599289e-01 1.584978e-01 1.699456e-01 2.173287e-01 2.757346e-01 3.108298e-01 2.815926e-01 3.130671e-01 3.584751e-01 3.133426e-01 3.351327e-01 2.891047e-01 3.068670e-01 8.522192e-02
<GCONST> 1.070624e+02
<STATE> 3
<MEAN> 39
 -2.922583e+00 -5.785068e+00 -1.662307e-01 -6.334902e+00 -4.775996e+00 -5.658725e+00 -3.463937e+00 -1.919363e+00 4.414742e+00 -3.809466e+00 4.512300e-01 -2.031783e+00 6.717278e+01 3.309839e-02 -9.837273e-03 -2.673773e-02 -2.595280e-02 -1.419606e-03 2.847107e-02 1.429943e-02 -7.879568e-03 3.136877e-02 2.846408e-03 -1.803250e-03 1.163661e-02 2.343709e-02 -5.618216e-04 -9.345653e-04 6.251478e-04 7.517337e-04 -2.855060e-04 7.889927e-04 6.885212e-04 7.476906e-04 9.685013e-04 -2.571739e-05 -5.128959e-04 -5.659793e-04 1.155491e-03
<VARIANCE> 39
 5.802350e+01 2.498692e+01 4.363519e+01 7.548172e+01 7.503497e+01 3.526987e+01 3.062699e+01 2.984749e+01 3.634753e+01 4.274761e+01 2.390183e+01 2.844892e+01 4.285413e+01 1.418780e+00 1.204358e+00 1.516226e+00 2.081414e+00 2.304945e+00 1.590259e+00 1.681539e+00 1.984988e+00 1.790364e+00 2.114965e+00 1.563444e+00 1.722951e+00 6.741452e-01 1.593317e-01 1.733586e-01 2.162694e-01 2.787191e-01 3.143959e-01 2.812166e-01 3.058991e-01 3.586955e-01 3.100244e-01 3.442981e-01 2.969748e-01 3.133498e-01 8.618752e-02
<GCONST> 1.074042e+02
<STATE> 4
<MEAN> 39
 -2.511422e+00 -6.035813e+00 -3.709447e-01 -6.467000e+00 -4.777074e+00 -5.100811e+00 -3.190066e+00 -1.922596e+00 4.939314e+00 -3.827875e+00 4.293728e-01 -1.909028e+00 6.760175e+01 1.864583e-02 -1.899975e-02 -7.360084e-03 3.660217e-03 3.929217e-03 2.025856e-02 1.060673e-02 -4.829169e-03 3.089323e-02 -1.355506e-03 -2.539712e-03 5.273505e-03 2.698279e-02 -9.307786e-04 -7.273118e-04 1.271685e-03 2.093234e-03 5.280764e-04 -5.775941e-04 -2.987615e-04 2.839492e-04 -2.457595e-04 2.740951e-05 4.296221e-06 -7.914469e-04 8.301719e-05
<VARIANCE> 39
 5.797242e+01 2.872646e+01 4.303126e+01 7.999292e+01 7.521355e+01 3.369649e+01 3.040818e+01 3.160842e+01 3.601326e+01 4.299063e+01 2.463971e+01 3.123688e+01 4.101950e+01 1.444894e+00 1.330289e+00 1.548827e+00 2.119842e+00 2.339176e+00 1.635910e+00 1.669862e+00 2.005668e+00 1.781376e+00 2.180594e+00 1.615909e+00 1.824328e+00 7.165408e-01 1.591782e-01 1.869297e-01 2.134583e-01 2.803536e-01 3.220191e-01 2.837197e-01 2.934776e-01 3.529142e-01 3.062271e-01 3.558388e-01 3.060234e-01 3.245738e-01 8.901285e-02
<GCONST> 1.082112e+02
<TRANSP> 5
 0.000000e+00 1.000000e+00 0.000000e+00 0.000000e+00 0.000000e+00
 0.000000e+00 8.143395e-01 1.856604e-01 0.000000e+00 0.000000e+00
 0.000000e+00 0.000000e+00 8.143397e-01 1.856603e-01 0.000000e+00
 0.000000e+00 0.000000e+00 0.000000e+00 9.479429e-01 5.205712e-02
 0.000000e+00 0.000000e+00 0.000000e+00 0.000000e+00 0.000000e+00
<ENDHMM>
~h "aI"
<BEGINHMM>
<NUMSTATES> 5
<STATE> 2
<MEAN> 39
 -4.186006e+00 -1.003282e+01 1.997328e+00 -4.736653e+00 -2.997093e+00 -3.726277e+00 -3.697203e+00 -2.216537e+00 7.458832e+00 -3.567491e+00 -3.120256e-01 -5.870791e+00 6.968684e+01 9.594426e-03 -2.488204e-02 1.417737e-02 -1.544094e-02 -5.498067e-03 2.590753e-02 -1.120716e-02 -5.895271e-03 4.929508e-03 1.572781e-02 2.261387e-02 -1.390512e-02 2.082155e-02 -8.189654e-04 1.932960e-03 7.496481e-04 1.315252e-03 9.634654e-04 -1.283488e-03 -7.493724e-04 1.178235e-03 -1.842476e-03 -6.306273e-04 7.213270e-04 1.129128e-03 -1.905010e-03
<VARIANCE> 39
 3.293468e+01 5.841560e+01 5.137128e+01 4.469071e+01 5.642841e+01 6.182656e+01 2.737997e+01 4.554143e+01 3.990442e+01 2.974359e+01 2.963626e+01 2.213400e+01 6.760622e+01 1.020190e+00 1.555185e+00 1.457680e+00 1.565518e+00 2.288906e+00 1.990089e+00 1.501870e+00 2.202651e+00 1.845207e+00 1.972850e+00 1.877144e+00 1.308266e+00 9.751049e-01 1.369369e-01 1.954835e-01 1.764949e-01 2.253791e-01 3.238498e-01 2.915142e-01 2.648743e-01 3.670491e-01 3.144496e-01 3.316087e-01 3.259659e-01 2.431101e-01 1.047167e-01
<GCONST> 1.076191e+02
<STATE> 3
<MEAN> 39
 -4.165273e+00 -1.011099e+01 2.093248e+00 -4.792378e+00 -3.003114e+00 -3.648549e+00 -3.761976e+00 -2.194739e+00 7.440294e+00 -3.501146e+00 -1.860240e-01 -5.908952e+00 6.974275e+01 1.523527e-03 -8.933662e-03 1.721428e-02 -9.717582e-03 1.562973e-03 1.455863e-02 -1.403137e-02 2.235695e-03 -5.511267e-03 1.280495e-02 2.524853e-02 -6.307836e-03 5.950506e-03 -1.269996e-03 2.940718e-03 7.005321e-04 1.230647e-03 1.052872e-03 -2.177394e-03 -4.732726e-04 1.513941e-03 -1.780325e-03 -4.830652e-04 6.137145e-04 1.522504e-03 -2.595304e-03
<VARIANCE> 39
 3.196372e+01 5.900281e+01 5.317243e+01 4.412349e+01 5.898188e+01 6.264426e+01 2.713714e+01 4.497602e+01 4.037921e+01 2.939372e+01 2.956962e+01 2.163162e+01 6.834650e+01 1.011523e+00 1.559255e+00 1.461556e+00 1.537298e+00 2.324972e+00 2.011713e+00 1.511195e+00 2.209664e+00 1.859642e+00 1.984977e+00 1.864880e+00 1.300023e+00 9.839789e-01 1.372118e-01 1.969348e-01 1.752190e-01 2.233162e-01 3.267100e-01 2.936682e-01 2.661788e-01 3.663528e-01 3.169648e-01 3.341345e-01 3.221382e-01 2.410925e-01 1.059693e-01
<GCONST> 1.076865e+02
<STATE> 4
<MEAN> 39
 -4.324703e+00 -9.853173e+00 2.551645e+00 -4.721251e+00 -3.014049e+00 -3.949393e+00 -3.962248e+00 -2.004786e+00 7.314069e+00 -3.380157e+00 1.838704e-01 -5.723841e+00 6.955673e+01 -3.322006e-02 4.653425e-02 1.957638e-02 6.441569e-04 2.220001e-02 -3.002210e-02 -1.163709e-02 2.366923e-02 -3.320752e-02 1.103545e-02 2.947380e-02 1.068809e-02 -4.875242e-02 -1.829286e-03 3.545862e-03 -6.873759e-05 8.490068e-04 1.011976e-03 -2.442367e-03 2.644217e-04 7.899699e-04 -1.437268e-03 1.695712e-04 5.526392e-04 1.143166e-03 -3.267577e-03
<VARIANCE> 39
 3.045681e+01 5.801472e+01 5.926890e+01 4.128653e+01 6.641644e+01 6.085388e+01 2.779754e+01 4.285051e+01 4.176867e+01 2.849909e+01 2.997329e+01 2.117386e+01 6.690501e+01 9.694176e-01 1.514609e+00 1.461156e+00 1.460983e+00 2.420305e+00 2.007584e+00 1.577111e+00 2.194729e+00 1.880327e+00 1.926763e+00 1.807543e+00 1.318864e+00 9.629523e-01 1.332548e-01 1.972911e-01 1.679435e-01 2.201171e-01 3.318347e-01 2.968950e-01 2.773681e-01 3.617341e-01 3.198675e-01 3.254009e-01 3.056427e-01 2.439447e-01 1.046218e-01
<GCONST> 1.074963e+02
<TRANSP> 5
 0.000000e+00 1.000000e+00 0.000000e+00 0.000000e+00 0.000000e+00
 0.000000e+00 8.069441e-01 1.930560e-01 0.000000e+00 0.000000e+00
 0.000000e+00 0.000000e+00 8.069440e-01 1.930560e-01 0.000000e+00
 0.000000e+00 0.000000e+00 0.000000e+00 9.400607e-01 5.993933e-02
 0.000000e+00 0.000000e+00 0.000000e+00 0.000000e+00 0.000000e+00
<ENDHMM>
~h "eh"
<BEGINHMM>
<NUMSTATES> 5
<STATE> 2
<MEAN> 39
 -4.156708e+00 -6.009781e+00 4.249313e-01 -6.237470e+00 -1.574904e+00 -3.736640e+00 -4.141616e+00 -2.336579e+00 5.888469e+00 -2.318653e+00 1.940386e+00 -5.456814e+00 6.798856e+01 2.687773e-02 -1.107926e-02 4.922468e-03 -2.104795e-02 4.447393e-03 4.711988e-02 1.521710e-02 3.681360e-04 1.762740e-02 1.643318e-02 -2.002956e-02 -1.163593e-02 -4.058276e-03 -2.401965e-03 -7.524005e-04 1.444153e-04 2.923300e-03 -7.199550e-05 -7.385509e-04 5.602816e-05 -1.363214e-04 2.922055e-04 -2.836528e-05 -1.230096e-03 -2.165730e-05 -7.863326e-04
<VARIANCE> 39
 5.106887e+01 4.361347e+01 3.033243e+01 4.565018e+01 3.418773e+01 5.577730e+01 3.772248e+01 3.834702e+01 3.738857e+01 2.884889e+01 2.668595e+01 2.451960e+01 5.182544e+01 1.131531e+00 1.744418e+00 1.241582e+00 1.567987e+00 1.710877e+00 2.052468e+00 2.124319e+00 2.329632e+00 1.938857e+00 1.539863e+00 1.866049e+00 1.515373e+00 9.604750e-01 1.427685e-01 2.031311e-01 1.883717e-01 2.282862e-01 2.755856e-01 3.030499e-01 3.697412e-01 3.995981e-01 3.367310e-01 2.744440e-01 3.376600e-01 2.844684e-01 1.083573e-01
<GCONST> 1.071299e+02
<STATE> 3
<MEAN> 39
 -4.067679e+00 -6.082701e+00 4.577944e-01 -6.269886e+00 -1.529768e+00 -3.517919e+00 -4.071563e+00 -2.341409e+00 5.979582e+00 -2.225970e+00 1.831598e+00 -5.515722e+00 6.794186e+01 1.178234e-02 -1.293464e-02 5.325993e-03 -3.657493e-03 6.405883e-03 3.970884e-02 1.479141e-02 -7.094304e-06 1.874554e-02 1.618906e-02 -2.515182e-02 -1.073106e-02 -1.178278e-02 -2.723454e-03 -4.037608e-04 -3.707071e-04 3.507667e-03 2.377405e-04 -1.519137e-03 -7.811442e-05 -6.632050e-05 2.364375e-04 -5.854612e-05 -6.277392e-04 1.724958e-04 -1.215557e-03
<VARIANCE> 39
 4.937894e+01 4.399128e+01 3.068584e+01 4.568457e+01 3.407021e+01 5.564239e+01 3.720476e+01 3.820753e+01 3.656276e+01 2.937875e+01 2.704270e+01 2.414811e+01 5.178342e+01 1.083723e+00 1.719956e+00 1.258147e+00 1.548836e+00 1.714957e+00 2.033619e+00 2.075171e+00 2.304727e+00 1.942830e+00 1.560834e+00 1.844459e+00 1.511962e+00 9.342804e-01 1.365238e-01 1.997059e-01 1.887365e-01 2.246929e-01 2.759328e-01 2.974481e-01 3.598223e-01 3.951534e-01 3.379006e-01 2.778533e-01 3.317029e-01 2.839475e-01 1.047873e-01
<GCONST> 1.067948e+02
<STATE> 4
<MEAN> 39
 -4.197949e+00 -6.202960e+00 5.241888e-01 -5.906629e+00 -1.289147e+00 -3.165201e+00 -3.993127e+00 -2.326489e+00 6.090387e+00 -1.953619e+00 1.762619e+00 -5.525420e+00 6.770000e+01 -2.716356e-02 6.590749e-04 1.005601e-02 3.232909e-02 1.166234e-02 2.774966e-03 1.136263e-02 2.116602e-03 1.581323e-02 1.423063e-02 -2.415169e-02 -9.298204e-04 -3.877464e-02 -2.346074e-03 7.803072e-04 -6.110395e-04 2.352141e-03 -5.429619e-04 -2.597283e-03 5.239562e-05 5.196237e-04 -1.368123e-04 -4.085139e-04 1.456110e-04 5.283938e-04 -1.024682e-03
<VARIANCE> 39
 4.671695e+01 4.279441e+01 3.277173e+01 4.366625e+01 3.376467e+01 5.375274e+01 3.709692e+01 3.843664e+01 3.501381e+01 3.030051e+01 2.712937e+01 2.417742e+01 5.070683e+01 1.014829e+00 1.631128e+00 1.323679e+00 1.500019e+00 1.714465e+00 1.941830e+00 2.032107e+00 2.291162e+00 1.942500e+00 1.629623e+00 1.806147e+00 1.521881e+00 8.694179e-01 1.265073e-01 1.929266e-01 1.942848e-01 2.177039e-01 2.766632e-01 2.839296e-01 3.470857e-01 3.918252e-01 3.383722e-01 2.905919e-01 3.223228e-01 2.841435e-01 9.720721e-02
<GCONST> 1.061876e+02
<TRANSP> 5
 0.000000e+00 1.000000e+00 0.000000e+00 0.000000e+00 0.000000e+00
 0.000000e+00 8.022202e-01 1.977798e-01 0.000000e+00 0.000000e+00
 0.000000e+00 0.000000e+00 8.022203e-01 1.977797e-01 0.000000e+00
 0.000000e+00 0.000000e+00 0.000000e+00 9.355074e-01 6.449264e-02
 0.000000e+00 0.000000e+00 0.000000e+00 0.000000e+00 0.000000e+00
<ENDHMM>
~h "sil"
<BEGINHMM>
<NUMSTATES> 5
<STATE> 2
<MEAN> 39
 -8.359919e+00 -4.039600e+00 2.942883e-01 -4.859921e+00 8.427234e-02 -7.688235e+00 -4.227777e+00 1.036997e+00 3.483733e+00 -2.096546e+00 4.856369e-02 -4.112918e+00 6.074668e+01 1.178544e-02 4.440513e-02 -1.373900e-02 4.433400e-02 -8.652001e-03 -8.942720e-02 -7.388830e-02 3.569169e-02 -1.530647e-01 -3.721026e-02 -7.559814e-02 -2.724265e-02 1.813856e-02 5.864073e-03 1.006751e-02 3.755273e-03 1.019462e-03 -1.576617e-02 4.000612e-02 2.868820e-02 9.306783e-03 1.572345e-02 1.115584e-02 3.786710e-02 -1.010385e-02 -4.858336e-03
<VARIANCE> 39
 9.632054e+00 1.330886e+01 1.823079e+01 2.130171e+01 2.418674e+01 2.895758e+01 2.048842e+01 2.832757e+01 3.026686e+01 2.464791e+01 2.467044e+01 2.211956e+01 9.178445e+00 4.815964e-01 7.698226e-01 9.149224e-01 1.305962e+00 1.761597e+00 2.222709e+00 1.714373e+00 2.221883e+00 1.998242e+00 2.222551e+00 1.854228e+00 1.592160e+00 2.485633e-01 7.322656e-02 1.191184e-01 1.458106e-01 2.097525e-01 3.020517e-01 4.116878e-01 2.884518e-01 3.799776e-01 3.912381e-01 3.744661e-01 3.314324e-01 2.987288e-01 3.671622e-02
<GCONST> 9.354878e+01
<STATE> 3
<MEAN> 39
 -8.236441e+00 -3.895121e+00 2.330166e-01 -4.685838e+00 -1.495949e-01 -7.784538e+00 -4.228616e+00 1.164726e+00 3.057254e+00 -2.221828e+00 4.815326e-02 -4.314332e+00 6.070464e+01 2.326306e-02 2.642724e-02 -3.147618e-03 2.756613e-02 -3.539348e-02 -6.819772e-03 2.333926e-02 1.095242e-03 -5.575706e-02 -1.205724e-02 9.391810e-03 -4.072678e-02 -1.257634e-02 2.584154e-03 -5.968199e-03 5.834001e-04 -1.092486e-02 -3.547988e-04 9.090410e-03 2.221111e-02 -8.898825e-03 2.021473e-02 7.530577e-03 1.605636e-02 1.083090e-03 -6.502026e-03
<VARIANCE> 39
 9.328659e+00 1.350160e+01 1.880596e+01 2.046867e+01 2.562798e+01 3.161521e+01 2.172175e+01 2.962149e+01 3.019638e+01 2.390641e+01 2.564919e+01 2.277560e+01 8.969695e+00 4.850865e-01 7.253162e-01 9.918354e-01 1.285968e+00 1.623258e+00 2.355291e+00 1.854776e+00 2.196067e+00 1.969645e+00 1.958466e+00 1.881627e+00 1.698338e+00 2.717636e-01 8.066402e-02 1.232494e-01 1.714186e-01 2.317587e-01 3.000230e-01 4.694805e-01 3.453577e-01 4.176749e-01 4.004156e-01 4.021741e-01 3.629501e-01 3.261136e-01 4.360573e-02
<GCONST> 9.510384e+01
<STATE> 4
<MEAN> 39
 -7.935891e+00 -3.887259e+00 5.161473e-01 -4.828321e+00 -6.989990e-01 -7.617918e+00 -3.989598e+00 7.305933e-01 3.169305e+00 -2.294671e+00 3.325665e-01 -4.436838e+00 6.121664e+01 1.722672e-02 -1.312884e-03 1.920788e-02 -2.997803e-02 -1.336748e-02 1.250092e-02 4.735885e-02 -2.812913e-02 3.378714e-02 1.715978e-02 1.171161e-02 -3.461566e-03 3.322404e-02 4.437238e-04 -4.942006e-03 -6.220532e-03 -8.376080e-03 6.287503e-03 2.176887e-03 3.329248e-03 1.598208e-03 2.032373e-03 -2.248171e-03 6.341838e-03 1.001352e-02 2.841236e-03
<VARIANCE> 39
 1.472563e+01 1.635511e+01 2.303607e+01 2.453732e+01 2.970335e+01 3.413036e+01 2.644495e+01 2.984099e+01 3.074202e+01 2.372475e+01 2.423725e+01 2.234726e+01 1.852966e+01 6.178017e-01 7.397208e-01 1.078941e+00 1.285184e+00 1.621247e+00 2.092221e+00 1.993969e+00 2.109618e+00 1.870847e+00 1.756162e+00 1.779327e+00 1.726793e+00 3.352420e-01 9.268615e-02 1.203266e-01 1.797114e-01 2.160211e-01 2.760969e-01 4.062432e-01 3.712696e-01 3.810855e-01 3.471138e-01 3.440922e-01 3.411632e-01 3.192786e-01 4.752879e-02
<GCONST> 9.704140e+01
<TRANSP> 5
 0.000000e+00 1.000000e+00 0.000000e+00 0.000000e+00 0.000000e+00
 0.000000e+00 8.068444e-01 1.931557e-01 0.000000e+00 0.000000e+00
 0.000000e+00 0.000000e+00 8.068444e-01 1.931556e-01 0.000000e+00
 0.000000e+00 0.000000e+00 0.000000e+00 9.404733e-01 5.952675e-02
 0.000000e+00 0.000000e+00 0.000000e+00 0.000000e+00 0.000000e+00
<ENDHMM>
