~o
<STREAMINFO> 1 39
<VECSIZE> 39<NULLD><MFCC_D_A_0><DIAGC>
~h "I"
<BEGINHMM>
<NUMSTATES> 5
<STATE> 2
<MEAN> 39
 -5.531252e+00 3.100512e+00 -2.656175e+00 2.565650e-01 1.365331e+00 -8.222556e+00 1.179542e-02 -5.712916e+00 7.023912e+00 -4.086827e+00 1.910085e+00 -7.434182e+00 6.725571e+01 -1.250412e+00 1.306051e+00 -6.744661e-01 1.225309e+00 -3.142878e-01 -2.500130e-01 1.313121e+00 -1.479824e+00 1.513029e+00 -4.331369e-01 2.197524e-01 4.905079e-01 1.206800e+00 -6.027627e-01 -1.790303e-01 -1.794125e-01 -4.137172e-03 -8.780893e-02 -1.849308e-02 2.529741e-01 -6.787273e-02 -1.769494e-02 5.446782e-02 -1.281787e-01 2.865255e-01 -3.686918e-02
<VARIANCE> 39
 6.678957e+01 1.855129e+01 4.693720e+01 3.612553e+01 1.663750e+01 7.124073e+01 5.924833e+01 2.212019e+01 4.393155e+01 2.120957e+01 1.556562e+01 2.871745e+01 1.869855e+01 3.167193e+00 8.356600e-01 1.562997e+00 1.861932e+00 1.580370e+00 1.742106e+00 2.238027e+00 1.902115e+00 4.931534e+00 2.244630e+00 1.912388e+00 1.932009e+00 3.542186e-01 3.423036e-01 2.088107e-01 2.969767e-01 2.203521e-01 2.617569e-01 4.813104e-01 4.928608e-01 4.176826e-01 1.026604e+00 6.264615e-01 4.538313e-01 4.802600e-01 6.541925e-02
<GCONST> 1.098263e+02
<STATE> 3
<MEAN> 39
 -1.780289e+01 3.999192e+00 -6.156532e+00 4.414197e+00 -1.480118e+00 -8.963328e+00 7.337576e+00 -1.017347e+01 1.119603e+01 -5.053868e+00 -2.464425e-01 -3.064588e+00 7.109941e+01 -5.718911e-01 -4.761729e-02 2.423827e-01 2.743567e-01 -2.577597e-02 -1.977484e-01 -1.161206e-01 -3.320004e-01 -3.246595e-01 -2.195720e-02 -3.828000e-01 4.640639e-01 3.385597e-01 4.589901e-01 -1.486508e-01 2.884366e-01 -1.157615e-01 3.427336e-02 -2.163293e-01 -4.219515e-01 4.553608e-02 -2.016462e-01 -3.381182e-03 4.882423e-02 -4.606241e-03 -6.442651e-02
<VARIANCE> 39
 2.300377e+01 1.520951e+01 3.706134e+01 3.619154e+01 1.490952e+01 3.962094e+01 3.385561e+01 8.826233e+00 2.907091e+01 1.995910e+01 2.327783e+01 2.001896e+01 3.574694e+00 2.842920e+00 9.487089e-01 1.722872e+00 7.787078e-01 1.612593e+00 2.468405e+00 2.531295e+00 9.037992e-01 1.340679e+00 2.110606e+00 1.434613e+00 1.232979e+00 1.912696e-01 1.663945e-01 3.411414e-01 1.629285e-01 1.621269e-01 4.130554e-01 3.834476e-01 3.612298e-01 1.987777e-01 2.883018e-01 4.483893e-01 3.238408e-01 2.916798e-01 4.105882e-02
<GCONST> 9.547293e+01
<STATE> 4
<MEAN> 39
 -1.414416e+01 2.139484e+00 2.202531e-01 3.697624e+00 -2.527222e+00 -1.555089e+01 2.492966e+00 -1.298715e+01 8.696074e+00 -5.440495e+00 -5.224620e-01 -8.785504e-02 7.367717e+01 7.942501e-01 -1.154798e+00 2.048254e+00 -7.098970e-01 -7.311383e-01 -8.358127e-01 -9.466018e-01 2.411746e-01 -7.205147e-01 -4.709971e-01 -6.435248e-04 2.587457e-01 3.184831e-01 1.696897e-01 -2.218311e-01 2.572268e-01 -1.790478e-01 -1.842788e-01 2.662649e-01 -2.049574e-01 3.043854e-01 -1.780913e-02 -1.659287e-01 6.673378e-02 -1.771590e-01 -2.522809e-02
<VARIANCE> 39
 4.229171e+01 1.578029e+01 1.016658e+02 3.483673e+01 1.032678e+01 3.326584e+01 3.284151e+01 1.448160e+01 2.435685e+01 1.360958e+01 1.650070e+01 1.564392e+01 2.732596e+00 6.116884e-01 1.742615e+00 3.603250e+00 1.452526e+00 1.766926e+00 2.131921e+00 1.415204e+00 2.074119e+00 1.760607e+00 1.676243e+00 1.696192e+00 1.081151e+00 1.712781e-01 2.377387e-01 1.461151e-01 3.370433e-01 1.651279e-01 1.840448e-01 4.132566e-01 4.102526e-01 2.753561e-01 2.561795e-01 3.393926e-01 3.598298e-01 2.003918e-01 1.513326e-02
<GCONST> 9.449693e+01
<TRANSP> 5
 0.000000e+00 1.000000e+00 0.000000e+00 0.000000e+00 0.000000e+00
 0.000000e+00 6.663595e-01 3.336404e-01 0.000000e+00 0.000000e+00
 0.000000e+00 0.000000e+00 8.324007e-01 1.675993e-01 0.000000e+00
 0.000000e+00 0.000000e+00 0.000000e+00 7.911379e-01 2.088621e-01
 0.000000e+00 0.000000e+00 0.000000e+00 0.000000e+00 0.000000e+00
<ENDHMM>
~h "T"
<BEGINHMM>
<NUMSTATES> 5
<STATE> 2
<MEAN> 39
 -9.749618e+00 -2.905337e+00 4.621418e-01 -3.520710e+00 -2.954871e+00 -6.092569e+00 -3.452628e+00 -3.677359e+00 3.877974e+00 -2.498208e+00 1.896667e+00 -4.691784e+00 6.380347e+01 -9.444556e-01 4.319160e-01 -5.509655e-01 3.025964e-01 -3.287218e-01 -6.916193e-01 6.771781e-01 -2.445398e-01 1.252420e-01 -8.767340e-02 -1.313168e-01 1.399461e-01 5.878090e-01 -1.712512e-02 -2.399654e-01 -1.402144e-01 3.319473e-02 -7.144044e-02 1.042451e-02 3.649748e-02 9.540477e-02 1.264838e-01 -1.554801e-01 -7.099078e-02 2.201482e-01 1.010701e-01
<VARIANCE> 39
 2.013769e+01 9.308486e+00 5.479338e+01 2.273969e+01 5.375077e+01 1.976770e+01 3.936932e+01 2.009192e+01 4.883308e+01 2.060512e+01 1.287747e+01 1.629063e+01 1.117992e+01 3.720925e-01 1.134515e+00 1.396321e+00 2.134465e+00 2.403818e+00 2.128018e+00 3.686221e+00 2.642796e+00 2.192325e+00 2.841693e+00 1.369874e+00 2.172974e+00 6.057709e-01 9.333121e-02 1.470604e-01 2.164350e-01 2.670846e-01 3.217909e-01 2.728545e-01 4.166603e-01 3.653089e-01 3.462768e-01 5.248583e-01 1.763369e-01 5.124595e-01 8.344577e-02
<GCONST> 1.008646e+02
<STATE> 3
<MEAN> 39
 -1.318701e+01 -3.034851e+00 -3.150110e+00 -2.164351e+00 -1.132609e+00 -7.189149e+00 -3.269514e-01 -2.899296e+00 7.005824e+00 -3.060391e+00 5.412354e-01 -2.939330e+00 6.543718e+01 2.640437e-03 -1.876223e-01 2.783875e-01 7.661635e-02 -1.520718e-01 1.217805e-01 7.037844e-02 -2.283997e-01 2.390728e-01 1.278514e-01 -4.103136e-02 -3.222105e-02 4.426501e-01 2.291185e-01 -5.782237e-02 2.496347e-01 3.309042e-02 -4.245722e-02 5.300293e-02 -8.436308e-02 -1.062241e-01 -3.333429e-02 5.488411e-02 2.880074e-02 -9.242062e-02 -2.540567e-02
<VARIANCE> 39
 1.555002e+01 9.188006e+00 1.142653e+01 1.677187e+01 2.133166e+01 1.750320e+01 1.603244e+01 3.725603e+01 2.208865e+01 1.507570e+01 2.099884e+01 2.031294e+01 1.271568e+01 1.706259e+00 7.854283e-01 2.292029e+00 1.473697e+00 1.889596e+00 1.776913e+00 2.099955e+00 2.451855e+00 1.887712e+00 1.703400e+00 1.678673e+00 2.282448e+00 7.845601e-01 2.252461e-01 1.501474e-01 3.074286e-01 3.482902e-01 4.304323e-01 3.819788e-01 4.788982e-01 4.323111e-01 3.397113e-01 3.742493e-01 3.418463e-01 4.226938e-01 1.326600e-01
<GCONST> 1.002270e+02
<STATE> 4
<MEAN> 39
 -6.087788e+00 -9.448449e+00 7.506867e+00 1.485798e+00 -7.202335e+00 -8.475161e+00 -4.990754e+00 -9.598082e+00 8.384035e+00 -1.525684e+00 1.996211e+00 -5.790365e+00 7.066528e+01 2.090389e+00 -9.504221e-01 1.232540e+00 6.690797e-01 -1.288275e+00 -6.187389e-01 -1.252193e+00 -3.513955e-01 -2.517310e-01 1.116986e-01 -8.744597e-02 7.362460e-02 8.358976e-01 -1.852553e-01 -1.363998e-01 -1.697429e-01 -1.259949e-02 -1.335239e-01 -1.346005e-01 -6.228634e-02 3.389740e-01 -1.009666e-01 -1.597412e-01 1.326607e-01 3.246905e-01 1.307909e-01
<VARIANCE> 39
 5.846341e+01 2.514168e+01 2.004840e+01 2.270489e+01 3.572006e+01 2.597133e+01 4.795955e+01 1.826884e+01 3.478098e+01 2.105852e+01 2.870917e+01 2.120156e+01 1.416596e+01 3.709967e+00 1.233515e+00 2.345874e+00 2.132867e+00 4.271283e+00 1.813728e+00 3.908127e+00 3.157816e+00 3.102623e+00 4.122211e+00 3.647550e+00 3.742719e+00 1.963400e+00 8.469676e-01 2.313776e-01 6.132293e-01 3.561424e-01 8.266688e-01 3.825651e-01 7.433642e-01 3.085789e-01 6.468422e-01 4.057254e-01 7.784001e-01 7.415544e-01 2.811228e-01
<GCONST> 1.189551e+02
<TRANSP> 5
 0.000000e+00 1.000000e+00 0.000000e+00 0.000000e+00 0.000000e+00
 0.000000e+00 4.808247e-01 5.191754e-01 0.000000e+00 0.000000e+00
 0.000000e+00 0.000000e+00 9.261571e-01 7.384297e-02 0.000000e+00
 0.000000e+00 0.000000e+00 0.000000e+00 7.762527e-01 2.237472e-01
 0.000000e+00 0.000000e+00 0.000000e+00 0.000000e+00 0.000000e+00
<ENDHMM>
~h "e"
<BEGINHMM>
<NUMSTATES> 5
<STATE> 2
<MEAN> 39
 -1.211299e+01 -1.615578e+00 -2.831887e+00 -1.930012e-01 -1.720120e+00 -9.788383e+00 -2.760940e+00 -5.167626e+00 6.559637e+00 -2.765552e+00 -4.087753e-01 -4.369692e+00 6.809032e+01 3.045240e+00 -9.993798e-01 8.703380e-01 -1.257845e+00 -1.508319e+00 -8.154405e-01 -1.706645e+00 3.120682e-01 3.225754e-01 7.492313e-01 -4.514319e-02 -5.412203e-01 6.243416e-01 2.987521e-01 -5.094768e-01 7.047343e-02 -4.760609e-01 -2.712702e-01 3.655379e-03 -2.181757e-01 2.477424e-01 4.282056e-01 -1.933987e-01 -1.283387e-01 -1.544631e-01 4.809846e-01
<VARIANCE> 39
 6.318136e+01 8.196576e+00 1.404622e+01 2.450720e+01 3.187843e+01 2.615583e+01 2.808999e+01 5.641123e+01 1.882161e+01 3.298478e+01 2.252800e+01 2.258066e+01 3.682453e+01 5.058281e+00 2.754890e+00 1.225312e+00 2.818824e+00 2.551043e+00 2.132723e+00 3.489637e+00 1.479840e+00 1.393599e+00 2.191199e+00 3.223318e+00 2.345710e+00 1.861800e+00 1.058025e+00 1.731116e-01 1.228383e-01 2.915876e-01 5.019927e-01 4.823667e-01 9.394063e-01 4.327365e-01 5.552084e-01 4.370400e-01 3.220709e-01 3.804205e-01 1.864572e-01
<GCONST> 1.125616e+02
<STATE> 3
<MEAN> 39
 -9.202858e+00 -4.099732e+00 -2.727911e+00 -2.807328e+00 -4.357425e+00 -1.143948e+01 -4.050144e+00 -3.293258e+00 8.234163e+00 -1.154077e-01 -5.654197e-01 -5.139353e+00 6.910489e+01 3.042376e+00 -1.729221e+00 9.029302e-01 -1.724937e+00 -1.320495e+00 -5.085381e-01 -1.816633e+00 6.170155e-01 6.572755e-01 3.576215e-01 -4.964288e-01 -8.370725e-01 1.293829e+00 -1.806488e-01 -3.439070e-01 1.209232e-02 -9.367964e-02 1.560424e-02 2.741221e-01 8.245819e-02 5.429918e-02 1.983023e-01 -4.404981e-01 -2.153147e-01 -1.029624e-01 4.448834e-01
<VARIANCE> 39
 6.287615e+01 1.278745e+01 1.434213e+01 2.883125e+01 2.302740e+01 3.044283e+01 2.328115e+01 4.853796e+01 2.937447e+01 3.855255e+01 2.936560e+01 2.449842e+01 4.791339e+01 4.565935e+00 2.372555e+00 1.310928e+00 2.334171e+00 4.765162e+00 1.336700e+00 1.816351e+00 2.322803e+00 2.631959e+00 2.116122e+00 2.309637e+00 1.979614e+00 1.856366e+00 1.049251e+00 2.607827e-01 1.553000e-01 5.702716e-01 5.206027e-01 4.442083e-01 1.193885e+00 2.774079e-01 5.214528e-01 4.691916e-01 4.117126e-01 3.735026e-01 3.756246e-01
<GCONST> 1.155534e+02
<STATE> 4
<MEAN> 39
 -5.160393e+00 -5.116590e+00 2.187243e+00 -4.974101e+00 -7.386958e+00 -1.262324e+01 -6.856304e+00 6.655568e-01 4.406875e+00 -1.723790e+00 -2.802468e-01 -4.825678e+00 6.855413e+01 1.462170e+00 -1.592866e+00 1.536117e+00 -2.823876e-01 -2.136347e+00 -2.440871e-02 -1.135983e+00 2.862540e-01 -5.560543e-02 -4.287671e-01 -3.153006e-01 -1.387641e-01 2.021721e+00 -3.509222e-01 -6.495552e-02 -4.538191e-02 3.389923e-02 1.101846e-01 1.773401e-01 2.909252e-01 -9.025433e-02 1.049567e-01 -2.821566e-02 1.437963e-01 8.300365e-02 1.017369e-01
<VARIANCE> 39
 1.807259e+01 2.759875e+01 4.045476e+01 2.052141e+01 6.317055e+01 2.247085e+01 2.878058e+01 4.132915e+01 4.340644e+01 2.714322e+01 2.165271e+01 2.129391e+01 4.861082e+01 3.868437e+00 2.822115e+00 1.463905e+00 3.252540e+00 5.135544e+00 1.994651e+00 3.283030e+00 2.524983e+00 3.335294e+00 1.877595e+00 1.157995e+00 1.890978e+00 2.272989e+00 3.837611e-01 5.267620e-01 3.130230e-01 4.304503e-01 9.749037e-01 3.297704e-01 5.805107e-01 4.423847e-01 3.369640e-01 4.578956e-01 2.593120e-01 1.768434e-01 5.713468e-01
<GCONST> 1.162632e+02
<TRANSP> 5
 0.000000e+00 1.000000e+00 0.000000e+00 0.000000e+00 0.000000e+00
 0.000000e+00 3.866309e-02 9.613369e-01 0.000000e+00 0.000000e+00
 0.000000e+00 0.000000e+00 1.819591e-01 8.180410e-01 0.000000e+00
 0.000000e+00 0.000000e+00 0.000000e+00 5.999698e-01 4.000302e-01
 0.000000e+00 0.000000e+00 0.000000e+00 0.000000e+00 0.000000e+00
<ENDHMM>
~h "f"
<BEGINHMM>
<NUMSTATES> 5
<STATE> 2
<MEAN> 39
 -1.011009e+01 -6.247667e+00 -1.059689e+00 -3.308951e+00 -1.017365e+00 -5.289293e+00 -3.887517e+00 -2.927520e+00 7.189147e+00 -2.966545e+00 1.752471e-01 -5.886456e+00 6.484119e+01 -6.784325e-01 1.196043e-01 -1.697006e-02 3.459045e-01 1.021591e-01 1.181590e-01 2.292445e-01 -2.940775e-01 -1.635897e-02 7.213518e-02 4.333024e-02 -2.391488e-02 3.409601e-01 -7.153650e-03 1.603540e-02 2.927648e-02 2.594334e-02 3.355507e-02 3.498764e-02 5.659676e-02 4.415038e-02 1.794675e-02 9.142536e-02 7.941671e-02 8.567201e-02 1.038179e-02
<VARIANCE> 39
 2.310654e+01 1.545827e+01 1.323827e+01 2.024487e+01 1.887166e+01 1.858602e+01 1.369674e+01 3.204888e+01 2.484476e+01 2.061033e+01 1.832042e+01 1.706680e+01 1.189915e+01 3.056891e-01 7.298291e-01 7.247729e-01 1.223014e+00 1.636299e+00 1.805064e+00 1.216923e+00 2.176251e+00 1.668852e+00 1.438508e+00 1.610331e+00 1.678820e+00 2.297161e-01 4.843664e-02 1.297906e-01 1.507478e-01 1.846431e-01 2.633049e-01 3.355450e-01 2.313078e-01 4.168038e-01 3.089568e-01 3.110828e-01 3.484451e-01 3.326561e-01 2.543498e-02
<GCONST> 8.880145e+01
<STATE> 3
<MEAN> 39
 -1.727398e+01 -4.902077e+00 -7.103667e-01 -9.974018e-02 -6.544014e-01 -4.504392e+00 -1.365695e+00 -4.919556e+00 9.494466e+00 -2.613828e+00 1.933277e+00 -4.101931e+00 6.911426e+01 3.099517e-01 5.573894e-02 -1.347893e-01 -1.609401e-01 1.915806e-02 1.376626e-01 9.590849e-02 -1.108839e-01 -7.684647e-02 7.568140e-02 -6.578287e-02 -5.913702e-02 6.254905e-02 5.494249e-01 6.190656e-03 1.601315e-02 -2.762147e-01 -1.156305e-01 3.454961e-02 -6.247105e-02 -9.758031e-02 -2.147900e-01 -1.815915e-01 -1.265972e-01 -1.255458e-01 -4.482987e-02
<VARIANCE> 39
 1.823519e+01 8.576314e+00 1.045869e+01 1.948894e+01 1.358836e+01 1.759571e+01 1.750823e+01 2.093819e+01 1.719118e+01 2.160261e+01 1.762384e+01 1.796790e+01 6.399702e+00 1.801367e+00 9.304466e-01 7.725205e-01 1.383634e+00 1.636249e+00 1.577690e+00 2.057908e+00 1.290025e+00 1.813019e+00 1.565502e+00 1.425544e+00 1.828797e+00 3.744914e-01 2.939669e-01 1.900823e-01 2.123446e-01 3.381428e-01 3.885641e-01 3.015046e-01 4.642339e-01 2.943636e-01 3.261482e-01 3.389972e-01 2.823221e-01 3.890614e-01 8.684193e-02
<GCONST> 9.397874e+01
<STATE> 4
<MEAN> 39
 -2.303569e+00 -7.547080e+00 -1.644275e+00 -1.055692e+01 -4.218461e+00 1.072027e+00 -1.831044e+00 -8.482159e+00 5.868983e+00 -6.049115e+00 4.681369e-03 -7.677365e+00 7.213663e+01 3.241371e+00 -8.745516e-01 1.289260e-01 -3.175919e+00 -1.605572e+00 1.583590e+00 -4.459770e-01 -5.468563e-01 -3.100065e-01 -1.200072e+00 9.689922e-02 -1.953374e-01 1.557589e+00 -5.941180e-01 -1.694956e-01 3.337047e-02 4.148579e-03 -1.517471e-02 -5.435684e-02 -6.728066e-02 2.808758e-01 2.386374e-01 1.281181e-01 1.249458e-01 2.239441e-01 2.083658e-01
<VARIANCE> 39
 5.707586e+01 4.532334e+01 2.044352e+01 7.627680e+01 3.437208e+01 4.424879e+01 1.868757e+01 4.518607e+01 2.241290e+01 1.918412e+01 1.965675e+01 1.591765e+01 3.432046e+01 6.100721e+00 4.264223e+00 2.195692e+00 4.345235e+00 3.588487e+00 2.501767e+00 2.426800e+00 3.273096e+00 3.140115e+00 2.258045e+00 3.207198e+00 2.685294e+00 2.062740e+00 1.033865e+00 4.750073e-01 2.792965e-01 1.332714e+00 8.025697e-01 5.259319e-01 3.767312e-01 4.956568e-01 4.981357e-01 3.585877e-01 5.757650e-01 3.683609e-01 5.427667e-01
<GCONST> 1.227914e+02
<TRANSP> 5
 0.000000e+00 1.000000e+00 0.000000e+00 0.000000e+00 0.000000e+00
 0.000000e+00 8.863400e-01 1.136601e-01 0.000000e+00 0.000000e+00
 0.000000e+00 0.000000e+00 8.418747e-01 1.581253e-01 0.000000e+00
 0.000000e+00 0.000000e+00 0.000000e+00 7.506798e-01 2.493202e-01
 0.000000e+00 0.000000e+00 0.000000e+00 0.000000e+00 0.000000e+00
<ENDHMM>
~h "i"
<BEGINHMM>
<NUMSTATES> 5
<STATE> 2
<MEAN> 39
 -3.470682e+00 -9.255615e+00 2.321581e+01 8.049097e-01 -1.849711e+01 -4.998497e+00 -1.363010e+01 -1.962198e+00 -3.472299e+00 -7.002481e+00 7.786772e+00 -8.339887e-01 7.426611e+01 -1.783134e-01 6.668108e-01 -1.955169e-01 3.468017e-02 5.395977e-01 5.406322e-01 6.335657e-01 2.595088e-01 -1.496371e-01 7.057524e-01 -1.278333e-01 -1.065747e-01 -5.850886e-01 4.268426e-02 -3.827674e-02 -2.360042e-01 6.126304e-02 1.771992e-01 -7.282862e-03 2.374651e-01 5.622867e-02 2.214687e-01 8.141235e-02 -1.500321e-01 -4.133575e-02 -4.493433e-02
<VARIANCE> 39
 4.756612e+00 1.774385e+01 1.683489e+01 6.316426e+00 2.173072e+01 1.638081e+01 2.800868e+01 1.575198e+01 1.887702e+01 2.404056e+01 2.284618e+01 1.112489e+01 9.734293e+00 3.016800e-01 6.414080e-01 1.968370e+00 5.033338e-01 1.782320e+00 9.725839e-01 3.053299e+00 1.169214e+00 1.966796e+00 1.253501e+00 1.062509e+00 6.108600e-01 2.074815e-01 3.878282e-02 9.299361e-02 1.366016e-01 7.876807e-02 1.973489e-01 1.530771e-01 3.016206e-01 1.848377e-01 2.639134e-01 2.512648e-01 1.649936e-01 1.275575e-01 2.526961e-02
<GCONST> 7.894733e+01
<STATE> 3
<MEAN> 39
 -5.740408e+00 -4.579629e+00 1.281901e+01 4.183696e+00 -4.207480e+00 -1.001387e+00 2.836275e+00 4.488888e+00 3.528651e+00 -1.248346e+00 1.206310e+00 -2.091244e+00 6.556434e+01 -4.892237e-01 -2.309804e-01 -1.088292e+00 -1.181046e-01 1.240625e+00 -2.357012e-01 2.576239e-01 1.910634e-01 9.828200e-01 -5.004723e-01 -5.943235e-01 3.514281e-02 -7.017059e-01 -1.103976e-02 -1.240774e-01 -9.881885e-03 -1.559554e-01 -2.081975e-01 -2.569510e-01 -5.375690e-01 -2.037617e-01 -1.149537e-01 -8.573005e-02 4.460800e-02 6.584905e-02 2.608171e-02
<VARIANCE> 39
 4.950103e+00 8.679324e+00 1.934838e+01 1.027448e+01 2.729579e+01 1.990417e+01 2.894271e+01 1.774725e+01 3.669219e+01 2.909879e+01 1.927886e+01 2.639997e+01 7.949852e+00 1.610353e-01 5.123723e-01 1.061539e+00 1.396032e+00 1.682670e+00 3.015281e+00 5.055260e+00 1.833787e+00 1.917902e+00 2.015921e+00 1.760120e+00 2.023059e+00 1.004486e-01 2.475580e-02 7.499808e-02 2.455457e-01 2.043826e-01 2.207576e-01 4.525861e-01 5.623407e-01 2.664199e-01 4.182917e-01 4.814158e-01 3.282375e-01 3.479728e-01 2.194067e-02
<GCONST> 8.954693e+01
<STATE> 4
<MEAN> 39
 -9.091852e+00 -6.036522e+00 5.664696e-01 -2.235458e+00 1.710998e+00 -9.029860e+00 -5.589490e+00 1.694693e+00 6.028236e+00 -4.452681e+00 -1.507647e+00 -3.966033e+00 6.075820e+01 -8.825952e-02 2.557401e-02 -6.754578e-01 -3.604311e-01 1.660150e-01 -1.618699e-01 -4.675744e-01 -6.019887e-01 -8.979861e-02 2.525749e-02 -1.720615e-01 -2.748849e-01 -1.126508e-01 1.886503e-02 5.387647e-02 1.345478e-01 7.719234e-02 -2.884430e-02 9.136197e-02 9.677032e-02 -3.542177e-02 -1.295421e-02 4.141628e-02 6.663160e-02 -3.027021e-02 5.927486e-02
<VARIANCE> 39
 5.737650e+00 6.829731e+00 1.879420e+01 1.579379e+01 1.905946e+01 2.934774e+01 2.427495e+01 2.823213e+01 2.675230e+01 2.005422e+01 1.817852e+01 2.473633e+01 4.876123e+00 3.000659e-01 4.660234e-01 9.644935e-01 1.104228e+00 1.129796e+00 2.090135e+00 2.328320e+00 1.599514e+00 2.013235e+00 1.474779e+00 1.688260e+00 2.242349e+00 1.432502e-01 5.883825e-02 7.572570e-02 1.291075e-01 1.729086e-01 2.287319e-01 3.749192e-01 4.058092e-01 2.816510e-01 4.195207e-01 2.305336e-01 3.332117e-01 4.844130e-01 2.210095e-02
<GCONST> 8.680664e+01
<TRANSP> 5
 0.000000e+00 1.000000e+00 0.000000e+00 0.000000e+00 0.000000e+00
 0.000000e+00 9.374260e-01 6.257396e-02 0.000000e+00 0.000000e+00
 0.000000e+00 0.000000e+00 8.907061e-01 1.092940e-01 0.000000e+00
 0.000000e+00 0.000000e+00 0.000000e+00 9.225159e-01 7.748410e-02
 0.000000e+00 0.000000e+00 0.000000e+00 0.000000e+00 0.000000e+00
<ENDHMM>
~h "k"
<BEGINHMM>
<NUMSTATES> 5
<STATE> 2
<MEAN> 39
 -7.374632e+00 -7.298242e+00 5.233893e+00 -2.520248e+00 -8.940045e+00 -1.296623e+01 -4.660159e+00 -2.769144e+00 2.286083e+00 -5.071410e+00 3.491721e+00 -2.513489e+00 7.202784e+01 4.784334e-01 -3.208337e-01 6.534289e-02 2.920066e-01 1.940201e-01 -9.095495e-02 -5.803731e-01 3.961674e-01 8.962470e-02 1.876836e-01 9.514102e-02 -1.056426e-02 -2.246413e-01 -1.552699e-01 1.022276e-02 -1.224668e-01 5.245797e-02 2.809986e-02 -3.220289e-02 1.163270e-01 -6.597618e-02 1.231188e-01 1.081887e-02 -2.664935e-02 3.372625e-02 9.285548e-02
<VARIANCE> 39
 2.914483e+01 4.664755e+01 1.033661e+02 2.167909e+01 7.483340e+01 2.138747e+01 4.504272e+01 3.534336e+01 6.746870e+01 3.231545e+01 3.048633e+01 1.726292e+01 6.100666e+01 4.332215e+00 4.615760e+00 8.893830e+00 2.295338e+00 5.777944e+00 2.221972e+00 6.132171e+00 3.013215e+00 6.566452e+00 2.368602e+00 2.454531e+00 2.310498e+00 3.962327e+00 5.322930e-01 6.224719e-01 8.263738e-01 4.352801e-01 6.562129e-01 3.471978e-01 8.452476e-01 5.243669e-01 9.320806e-01 4.675905e-01 3.259799e-01 4.408039e-01 4.896716e-01
<GCONST> 1.288544e+02
<STATE> 3
<MEAN> 39
 -1.722508e+01 -5.074342e+00 -7.626053e+00 6.669276e+00 1.931291e+00 -1.737355e+01 3.545794e-01 -6.982056e+00 1.555842e+01 -4.267157e+00 -3.118275e+00 -1.714731e+00 7.148371e+01 -1.623459e+00 9.078753e-01 1.852809e-01 3.185999e-02 -2.362308e-01 -5.097772e-01 1.459424e+00 -8.393545e-01 8.915423e-01 -3.442779e-01 -7.189874e-02 2.306511e-01 8.137167e-01 1.239567e-01 1.793083e-01 1.046356e-01 -4.145403e-01 -9.445874e-02 4.073122e-01 7.521209e-02 1.392667e-01 -3.273599e-01 8.839012e-02 3.084672e-01 -1.308891e-01 -2.299358e-01
<VARIANCE> 39
 2.976136e+01 1.357203e+01 1.692597e+01 1.067849e+01 1.431361e+01 1.115785e+01 3.892139e+01 1.484386e+01 1.860551e+01 1.029169e+01 1.445603e+01 9.554091e+00 1.319617e+01 1.375794e+00 1.315647e+00 2.748908e+00 1.701300e+00 1.182316e+00 2.400783e+00 2.217636e+00 1.358556e+00 1.986066e+00 1.556563e+00 1.932127e+00 1.245907e+00 7.837220e-01 3.379773e-01 3.448032e-01 7.153494e-01 1.820771e-01 2.478810e-01 2.135951e-01 4.087979e-01 2.110482e-01 3.397502e-01 2.595650e-01 2.206125e-01 3.422062e-01 1.559475e-01
<GCONST> 9.666956e+01
<STATE> 4
<MEAN> 39
 -1.974474e+01 9.421204e-01 -5.916140e+00 -7.944030e-01 3.376304e+00 -1.439205e+01 6.673428e+00 -8.117661e+00 1.198374e+01 -5.653701e+00 -2.177564e+00 -2.937568e+00 7.196249e+01 4.854737e-01 1.667760e-02 2.407929e-01 -4.015335e-01 2.884448e-01 1.642165e-01 -3.086484e-01 3.558416e-01 -4.215508e-01 -1.271910e-01 -1.979508e-01 -2.971456e-01 -4.211778e-01 7.690064e-02 -6.011921e-02 7.446073e-02 7.835134e-02 1.224841e-02 -2.126475e-02 -1.589252e-01 4.267418e-02 -6.326224e-03 3.020243e-02 -4.386771e-02 -2.048482e-02 -5.795990e-02
<VARIANCE> 39
 1.117586e+01 8.155875e+00 1.517154e+01 2.121697e+01 2.206949e+01 1.325517e+01 2.776948e+01 2.050979e+01 2.279952e+01 1.813908e+01 2.406730e+01 1.568261e+01 8.313083e+00 4.165211e-01 4.343220e-01 6.953760e-01 8.164795e-01 1.046323e+00 1.582771e+00 2.398559e+00 1.571526e+00 1.248882e+00 1.394190e+00 1.050713e+00 1.171296e+00 1.950992e-01 3.200549e-02 4.825563e-02 1.124666e-01 1.130845e-01 2.285634e-01 2.948200e-01 3.295058e-01 2.731791e-01 2.900689e-01 2.918227e-01 2.046330e-01 2.583776e-01 1.552855e-02
<GCONST> 8.122971e+01
<TRANSP> 5
 0.000000e+00 1.000000e+00 0.000000e+00 0.000000e+00 0.000000e+00
 0.000000e+00 9.555679e-01 4.443210e-02 0.000000e+00 0.000000e+00
 0.000000e+00 0.000000e+00 8.576583e-01 1.423417e-01 0.000000e+00
 0.000000e+00 0.000000e+00 0.000000e+00 9.438633e-01 5.613666e-02
 0.000000e+00 0.000000e+00 0.000000e+00 0.000000e+00 0.000000e+00
<ENDHMM>
~h "n"
<BEGINHMM>
<NUMSTATES> 5
<STATE> 2
<MEAN> 39
 -2.621248e+00 -1.673128e+00 5.639796e+00 2.079133e+00 2.009550e+00 -5.579737e+00 -3.729433e+00 -3.028201e+00 5.009658e+00 1.837834e+00 2.300793e+00 -7.763055e+00 6.420732e+01 -3.523386e-01 8.552973e-01 -1.484101e-01 2.169994e-01 1.274169e+00 6.809529e-01 8.549336e-01 2.384967e-01 -2.748591e-02 4.668884e-01 -5.406539e-01 -2.922128e-01 -7.797117e-01 -6.493726e-02 -3.674354e-01 7.813464e-02 -1.738913e-01 -3.107960e-01 1.193803e-01 1.026059e-01 3.572148e-01 1.770138e-01 -2.808562e-01 1.891317e-02 1.748455e-01 1.936079e-01
<VARIANCE> 39
 7.349522e+00 1.685934e+01 1.850441e+01 2.545353e+01 1.970872e+01 3.172499e+01 1.814167e+01 2.814867e+01 1.972234e+01 2.368031e+01 1.895945e+01 1.232604e+01 6.058259e+00 4.470956e-01 1.837973e+00 1.163059e+00 1.276896e+00 1.911282e+00 1.449836e+00 1.624890e+00 5.677081e+00 1.893159e+00 3.107331e+00 2.090640e+00 1.347159e+00 5.919308e-01 7.635225e-02 2.958897e-01 1.840584e-01 1.960972e-01 3.003356e-01 2.946477e-01 3.451001e-01 7.112878e-01 3.316158e-01 3.992729e-01 3.227231e-01 2.336439e-01 7.154753e-02
<GCONST> 9.626527e+01
<STATE> 3
<MEAN> 39
 -4.513868e+00 -4.436136e+00 1.961686e+00 -2.575384e+00 3.123955e+00 -1.904612e+00 -2.010691e+00 1.544961e+00 7.937122e+00 4.786393e-01 -6.162308e-01 -7.756111e+00 6.274520e+01 -3.236828e-01 -2.953805e-01 -1.273474e-01 -2.349898e-01 -8.895013e-02 -9.222116e-02 4.253542e-02 2.963130e-01 1.538798e-01 -2.547827e-01 -2.704996e-01 1.474620e-01 -1.862376e-01 -3.043545e-03 -9.039430e-02 -5.290343e-03 -2.485420e-02 -1.636356e-01 -1.632810e-01 -1.592422e-01 -1.894007e-01 -1.964061e-02 6.380877e-04 5.644263e-02 4.527625e-02 6.170144e-02
<VARIANCE> 39
 6.443301e+00 2.303761e+01 2.897448e+01 3.945808e+01 2.104748e+01 2.775255e+01 2.325455e+01 2.156308e+01 2.695988e+01 2.323514e+01 2.433770e+01 1.950985e+01 5.393162e+00 3.715903e-01 1.260903e+00 1.046544e+00 2.125864e+00 1.580741e+00 1.739024e+00 1.554464e+00 2.058316e+00 2.121554e+00 1.823321e+00 1.843774e+00 1.462771e+00 2.331250e-01 4.519084e-02 2.466114e-01 1.496876e-01 3.214952e-01 3.257242e-01 3.303086e-01 2.685940e-01 3.754359e-01 3.982558e-01 3.337238e-01 3.711958e-01 2.754170e-01 4.358072e-02
<GCONST> 9.421310e+01
<STATE> 4
<MEAN> 39
 -6.939734e+00 -4.063920e+00 3.645190e+00 -1.784178e+00 9.942151e-01 -6.092042e+00 -3.924486e+00 -1.246082e+00 6.651152e+00 -9.172090e-01 1.057763e-01 -5.600236e+00 6.178509e+01 3.812714e-02 -2.905454e-01 -4.338392e-03 -7.700999e-02 -4.184867e-01 -1.014328e-01 -2.423412e-01 -3.613366e-01 3.599134e-04 3.797771e-02 2.044275e-01 1.000629e-01 2.609114e-01 2.643686e-02 -7.794629e-03 -1.142605e-01 -2.004221e-03 -2.514036e-04 5.121005e-02 8.989096e-03 4.044429e-02 3.300782e-03 -8.866354e-03 5.354544e-03 -4.391217e-02 8.094542e-02
<VARIANCE> 39
 2.014701e+01 1.958936e+01 2.544932e+01 1.803055e+01 3.375331e+01 2.503194e+01 2.273760e+01 3.829105e+01 2.795594e+01 3.393250e+01 2.416982e+01 2.317462e+01 1.049479e+01 9.307039e-01 1.821388e+00 1.356654e+00 1.457689e+00 2.315726e+00 2.031785e+00 1.913616e+00 2.053893e+00 2.379606e+00 2.566541e+00 2.290260e+00 2.345992e+00 6.578300e-01 1.326922e-01 3.069911e-01 2.350234e-01 2.712977e-01 4.127357e-01 3.959908e-01 3.508210e-01 4.563136e-01 4.385586e-01 4.737188e-01 4.709641e-01 4.559582e-01 9.643611e-02
<GCONST> 1.049804e+02
<TRANSP> 5
 0.000000e+00 1.000000e+00 0.000000e+00 0.000000e+00 0.000000e+00
 0.000000e+00 6.595118e-01 3.404882e-01 0.000000e+00 0.000000e+00
 0.000000e+00 0.000000e+00 8.278250e-01 1.721750e-01 0.000000e+00
 0.000000e+00 0.000000e+00 0.000000e+00 8.832503e-01 1.167497e-01
 0.000000e+00 0.000000e+00 0.000000e+00 0.000000e+00 0.000000e+00
<ENDHMM>
~h "o"
<BEGINHMM>
<NUMSTATES> 5
<STATE> 2
<MEAN> 39
 7.012823e+00 -1.354787e+01 -2.904222e+00 -5.314095e+00 -6.665428e+00 -4.338840e+00 -1.270961e+01 -1.066455e+01 1.021858e+01 -3.160933e-01 1.632463e+00 3.339372e+00 7.515945e+01 3.751858e-02 1.577991e-01 -3.924783e-01 -5.944948e-01 -1.453707e-01 4.289224e-01 8.456486e-01 3.584432e-01 -1.966670e-01 8.680572e-03 3.780506e-01 1.218001e-01 -1.655300e-01 -6.391513e-02 6.558412e-02 1.138499e-01 9.407512e-02 1.070920e-02 -9.603975e-02 6.259725e-02 1.147395e-01 -5.365496e-02 -1.189412e-01 1.110591e-02 -2.378115e-02 -3.409255e-02
<VARIANCE> 39
 1.040319e+00 6.042737e+00 6.130231e+00 1.632854e+01 5.172792e+00 9.494392e+00 2.295085e+01 2.225081e+01 1.315195e+01 1.611497e+01 1.385195e+01 1.055524e+01 1.798648e+00 1.235605e-01 7.574750e-01 2.336683e-01 3.684254e-01 3.907804e-01 4.164324e-01 4.678643e-01 1.331861e+00 1.591253e+00 9.310214e-01 5.986708e-01 7.923786e-01 1.833653e-01 1.964074e-02 6.890032e-02 6.697340e-02 6.524187e-02 1.064849e-01 1.292256e-01 8.031639e-02 2.426113e-01 1.996475e-01 1.665890e-01 1.064509e-01 1.292787e-01 1.631002e-02
<GCONST> 5.795355e+01
<STATE> 3
<MEAN> 39
 3.694296e+00 -4.876828e+00 -2.374814e+00 -7.634533e+00 -1.516250e-01 -6.298640e-01 2.207251e+00 -3.705466e+00 6.939681e-01 -1.816334e+00 3.544366e+00 5.296539e+00 6.892999e+01 -8.520628e-01 5.692324e-01 8.053427e-01 6.510225e-01 1.284184e+00 7.715183e-01 1.385589e+00 6.823286e-01 -4.948347e-01 2.532715e-01 -5.609264e-01 -1.495856e-01 -8.316522e-01 -1.273787e-01 -1.966639e-01 1.477362e-01 -4.277413e-02 -5.734505e-02 9.171342e-02 -1.160198e-01 -1.474719e-02 2.625490e-01 -5.473802e-02 -4.560449e-02 -1.877448e-02 1.029675e-02
<VARIANCE> 39
 1.061384e+01 6.779219e+00 1.529335e+01 1.790124e+01 3.297130e+01 2.443969e+01 4.347615e+01 4.414082e+01 2.757999e+01 1.839970e+01 1.125596e+01 1.371300e+01 6.106156e+00 3.451245e-01 8.309787e-01 8.643516e-01 1.311336e+00 9.411306e-01 1.914527e+00 9.089175e-01 2.227355e+00 1.809202e+00 1.115300e+00 1.617656e+00 7.533692e-01 2.907400e-01 3.489916e-02 5.655025e-02 1.623950e-01 1.887327e-01 1.694724e-01 1.959995e-01 1.846291e-01 4.693289e-01 3.229617e-01 2.090220e-01 3.022844e-01 1.282240e-01 3.876831e-02
<GCONST> 8.397006e+01
<STATE> 4
<MEAN> 39
 -4.855735e+00 -6.611038e+00 -1.132301e+00 -7.023798e+00 2.805858e+00 3.271014e+00 3.249022e+00 -2.896996e+00 2.170245e+00 -2.322538e+00 9.812732e-01 1.326229e+00 6.300191e+01 -5.735077e-01 -3.366890e-01 -5.289997e-01 -4.166419e-01 2.243607e-02 -6.205321e-01 -7.803490e-01 5.138581e-02 4.284907e-01 -1.145783e-01 -1.616487e-01 -6.877980e-01 -2.167882e-01 7.975978e-02 6.961396e-03 -1.088319e-01 -3.725623e-02 -3.974506e-02 -2.847474e-01 -9.645788e-02 6.867719e-02 4.942724e-02 6.533293e-02 2.191217e-02 -9.155495e-02 1.121215e-01
<VARIANCE> 39
 7.717690e+00 1.570020e+01 2.905310e+01 2.029351e+01 2.822484e+01 2.628781e+01 2.583248e+01 3.107833e+01 3.397886e+01 2.205454e+01 3.260343e+01 4.030049e+01 2.461361e+00 6.060145e-01 5.599902e-01 1.742616e+00 1.175015e+00 1.236332e+00 1.847750e+00 1.702149e+00 2.183446e+00 2.895527e+00 1.515671e+00 2.044108e+00 1.830312e+00 2.700329e-01 5.554768e-02 1.112874e-01 4.315499e-01 2.599231e-01 2.202625e-01 3.051967e-01 2.846718e-01 3.597272e-01 5.308027e-01 2.822806e-01 3.427335e-01 2.973459e-01 1.721754e-02
<GCONST> 9.362003e+01
<TRANSP> 5
 0.000000e+00 1.000000e+00 0.000000e+00 0.000000e+00 0.000000e+00
 0.000000e+00 9.424818e-01 5.751821e-02 0.000000e+00 0.000000e+00
 0.000000e+00 0.000000e+00 8.742983e-01 1.257018e-01 0.000000e+00
 0.000000e+00 0.000000e+00 0.000000e+00 9.030864e-01 9.691361e-02
 0.000000e+00 0.000000e+00 0.000000e+00 0.000000e+00 0.000000e+00
<ENDHMM>
~h "r"
<BEGINHMM>
<NUMSTATES> 5
<STATE> 2
<MEAN> 39
 -1.920429e+00 -8.317455e+00 8.266858e+00 1.465630e+00 -5.322486e+00 -1.012304e+01 -4.754737e+00 -5.682933e+00 5.104208e+00 -2.631257e+00 8.914075e-01 -2.810632e+00 7.292706e+01 7.019126e-01 -1.413539e+00 9.264442e-01 2.844174e-01 -9.718887e-01 -4.962109e-01 -1.192344e+00 4.018188e-01 -1.778582e-01 -4.179572e-01 5.227894e-01 5.594545e-02 4.303780e-01 -1.760280e-01 -1.155733e-02 -3.223018e-01 3.624116e-02 -1.419781e-01 -1.210992e-01 -3.857167e-02 1.084762e-02 1.098940e-01 -3.146343e-01 -3.349591e-02 1.920749e-01 -3.173123e-03
<VARIANCE> 39
 1.930434e+01 1.427367e+01 1.322889e+02 2.132747e+01 6.364948e+01 5.829094e+01 3.781707e+01 6.208865e+01 1.907794e+01 6.596521e+01 1.429813e+01 2.050899e+01 1.785678e+01 2.485718e+00 1.135534e+00 2.929909e+00 2.964324e+00 2.415516e+00 3.335360e+00 1.975989e+00 3.108634e+00 1.623873e+00 2.925395e+00 1.889835e+00 1.837225e+00 8.304906e-01 2.684468e-01 1.566696e-01 9.878013e-01 4.575413e-01 6.325164e-01 6.046973e-01 3.563677e-01 8.335747e-01 3.626751e-01 6.541522e-01 3.657243e-01 3.861240e-01 1.247639e-01
<GCONST> 1.150252e+02
<STATE> 3
<MEAN> 39
 8.590338e-01 -1.395320e+01 1.193154e+01 2.090524e+00 -1.062689e+01 -1.311544e+01 -1.129180e+01 -3.702351e+00 6.318269e+00 -7.763531e+00 1.727901e+00 -8.944501e-01 7.568079e+01 3.535380e-01 -7.235387e-01 -2.766191e-03 5.051086e-01 -6.817461e-01 8.454154e-02 -1.222565e+00 4.416112e-01 1.015474e-01 -7.542728e-01 3.204081e-01 6.575314e-01 1.093418e-01 -1.144885e-01 5.072977e-01 -2.565709e-01 -2.267348e-01 2.924831e-01 3.968969e-01 1.222090e-01 -4.406224e-01 -2.899613e-01 3.763666e-01 7.612457e-02 3.320131e-02 -1.801883e-01
<VARIANCE> 39
 1.246507e+01 2.045494e+01 7.652154e+01 1.909916e+01 5.872031e+01 3.209072e+01 3.634468e+01 2.531194e+01 1.112241e+01 6.151553e+01 1.607069e+01 1.532566e+01 2.108251e+01 1.763447e+00 1.239188e+00 1.023664e+01 1.447433e+00 4.203236e+00 1.606845e+00 1.364239e+00 3.836268e+00 2.523072e+00 6.420034e+00 2.781096e+00 1.170129e+00 5.916160e-01 1.552660e-01 1.649171e-01 4.903859e-01 3.756254e-01 3.573201e-01 3.661563e-01 2.884944e-01 3.575348e-01 2.745655e-01 7.636346e-01 4.983446e-01 2.476714e-01 6.440338e-02
<GCONST> 1.083781e+02
<STATE> 4
<MEAN> 39
 -2.024285e+00 -1.121093e+01 1.585994e+00 1.139845e+00 -1.831386e+00 -5.241169e+00 -4.941877e+00 -2.773740e+00 4.028136e+00 -2.643821e+00 2.789509e+00 -3.448639e+00 6.666888e+01 -8.206952e-02 2.074345e-01 1.446855e-01 -5.876351e-01 -1.595484e-01 5.765641e-01 -1.715196e-01 -6.304997e-01 -5.103420e-01 3.183672e-01 1.699346e-01 7.799591e-02 -2.802865e-01 -4.652834e-02 1.497968e-01 2.130985e-02 -1.469293e-01 1.078212e-01 -6.424702e-02 7.656062e-02 2.227777e-02 -1.872498e-02 2.243148e-03 -5.857032e-02 -6.517101e-02 2.279587e-02
<VARIANCE> 39
 1.401797e+01 1.234296e+01 6.821604e+01 1.562161e+01 8.364420e+01 3.761694e+01 7.176642e+01 3.266039e+01 1.913935e+01 2.932018e+01 1.814652e+01 2.061021e+01 4.535117e+01 6.676421e-01 7.340218e-01 2.634902e+00 9.313578e-01 1.772919e+00 3.040060e+00 1.512703e+00 2.641382e+00 2.413804e+00 2.617008e+00 1.912830e+00 1.467774e+00 1.822918e-01 6.596769e-02 1.286891e-01 3.153746e-01 2.166249e-01 4.002101e-01 4.350009e-01 3.305170e-01 3.351600e-01 3.390255e-01 4.648502e-01 2.669519e-01 3.084748e-01 4.547808e-02
<GCONST> 1.012760e+02
<TRANSP> 5
 0.000000e+00 1.000000e+00 0.000000e+00 0.000000e+00 0.000000e+00
 0.000000e+00 6.145342e-01 3.854658e-01 0.000000e+00 0.000000e+00
 0.000000e+00 0.000000e+00 6.353336e-01 3.646664e-01 0.000000e+00
 0.000000e+00 0.000000e+00 0.000000e+00 6.650323e-01 3.349677e-01
 0.000000e+00 0.000000e+00 0.000000e+00 0.000000e+00 0.000000e+00
<ENDHMM>
~h "s"
<BEGINHMM>
<NUMSTATES> 5
<STATE> 2
<MEAN> 39
 -9.787628e+00 -4.395350e+00 4.680935e-01 -4.049930e+00 3.289653e+00 -9.067099e+00 -3.835763e+00 -4.424402e-01 8.049901e+00 -2.289218e+00 3.379129e-01 -5.658356e+00 6.433882e+01 -1.057419e+00 6.348056e-01 -4.200369e-01 3.072885e-01 3.647033e-01 -1.061293e+00 7.406016e-01 -8.041239e-01 3.308197e-02 -1.130165e-01 8.073072e-02 2.682737e-01 5.379676e-01 -2.437978e-01 1.476919e-01 -1.869684e-01 6.825124e-02 -1.321476e-01 8.213826e-02 2.597551e-01 -1.306283e-01 -5.261572e-02 -9.037410e-02 1.851574e-03 1.347059e-01 1.163326e-01
<VARIANCE> 39
 1.143243e+01 1.449433e+01 1.950648e+01 2.291208e+01 2.871352e+01 2.938060e+01 4.613577e+01 3.972388e+01 1.932401e+01 1.897764e+01 3.031518e+01 1.107033e+01 5.885405e+00 1.331307e+00 1.066176e+00 1.142047e+00 1.322001e+00 2.792925e+00 2.528744e+00 4.307454e+00 2.913376e+00 2.430357e+00 2.258514e+00 2.256415e+00 1.534402e+00 5.853598e-01 1.115867e-01 1.402087e-01 1.772271e-01 1.782630e-01 4.137045e-01 3.351818e-01 6.583312e-01 4.575975e-01 2.714123e-01 4.252146e-01 4.748281e-01 2.932093e-01 4.240452e-02
<GCONST> 1.002105e+02
<STATE> 3
<MEAN> 39
 -1.719844e+01 -7.230705e-01 -3.839828e+00 -7.024121e-01 1.853303e+00 -1.006440e+01 2.544631e+00 -4.220976e+00 8.467711e+00 -3.597779e+00 9.498613e-01 -3.832879e+00 6.786172e+01 -1.294458e+00 4.732452e-01 -6.788781e-01 3.563689e-01 -7.869909e-01 3.554206e-02 6.024776e-01 -5.433388e-01 2.070263e-01 -1.334852e-01 3.160272e-01 2.691222e-01 6.892576e-01 1.174336e-01 -7.857804e-02 5.742826e-02 -6.077846e-02 -1.482927e-01 8.716593e-02 -2.325002e-01 6.826424e-02 -8.219256e-02 2.217673e-02 4.696010e-02 -3.430334e-02 -3.445493e-02
<VARIANCE> 39
 1.756506e+01 1.427692e+01 1.493100e+01 2.173558e+01 2.522250e+01 2.841567e+01 2.894600e+01 3.744247e+01 2.382257e+01 2.075765e+01 2.706998e+01 1.222581e+01 1.024487e+01 6.516570e-01 5.045801e-01 7.662812e-01 1.051570e+00 1.152707e+00 1.583965e+00 2.132816e+00 2.206407e+00 1.447177e+00 1.834978e+00 1.422382e+00 1.210467e+00 2.635238e-01 5.426880e-02 9.053594e-02 1.244361e-01 1.430850e-01 1.892126e-01 2.743507e-01 3.072496e-01 4.317289e-01 3.022832e-01 3.737655e-01 2.659325e-01 2.537162e-01 2.810904e-02
<GCONST> 8.911781e+01
<STATE> 4
<MEAN> 39
 -2.241517e+01 1.111646e+00 -6.521453e+00 2.356036e+00 -1.686119e+00 -9.157594e+00 3.511679e+00 -8.333442e+00 9.638278e+00 -6.010568e+00 1.404869e+00 -2.067372e+00 7.097865e+01 2.939234e-01 -2.208914e-02 3.816651e-02 1.389272e-02 -2.405206e-01 5.380756e-02 -1.912476e-01 -7.361682e-02 -3.632124e-02 -9.099957e-03 -2.698414e-01 -1.085297e-01 2.326665e-01 3.428936e-01 -1.472553e-01 1.052792e-01 -1.288442e-01 2.541801e-02 -2.352682e-02 -1.026449e-01 8.139788e-02 2.066429e-02 7.303219e-02 -7.688399e-02 -9.539758e-02 6.571487e-04
<VARIANCE> 39
 1.118867e+01 8.871449e+00 1.243237e+01 1.760838e+01 2.541665e+01 1.927416e+01 3.433519e+01 2.349231e+01 2.628535e+01 2.224452e+01 2.155878e+01 2.484309e+01 4.505564e+00 2.422842e+00 7.261351e-01 8.080422e-01 1.139433e+00 1.078192e+00 2.081984e+00 2.621455e+00 1.492021e+00 1.630248e+00 1.330873e+00 1.647290e+00 1.801301e+00 2.463392e-01 2.478503e-01 9.519476e-02 1.143869e-01 2.302752e-01 1.874329e-01 3.739410e-01 4.179209e-01 3.043679e-01 3.173967e-01 2.615635e-01 2.863653e-01 3.236493e-01 6.131096e-02
<GCONST> 9.206391e+01
<TRANSP> 5
 0.000000e+00 1.000000e+00 0.000000e+00 0.000000e+00 0.000000e+00
 0.000000e+00 6.972986e-01 3.027014e-01 0.000000e+00 0.000000e+00
 0.000000e+00 0.000000e+00 7.818307e-01 2.181694e-01 0.000000e+00
 0.000000e+00 0.000000e+00 0.000000e+00 8.669673e-01 1.330327e-01
 0.000000e+00 0.000000e+00 0.000000e+00 0.000000e+00 0.000000e+00
<ENDHMM>
~h "t"
<BEGINHMM>
<NUMSTATES> 5
<STATE> 2
<MEAN> 39
 -6.172417e+00 -4.744636e+00 -5.124759e-01 -5.515566e+00 -1.410066e+00 -6.626714e+00 -5.961552e+00 1.588777e+00 4.716244e+00 -2.567435e+00 1.863868e+00 -3.756194e+00 6.227210e+01 -6.683010e-02 -9.062503e-02 2.521122e-01 -1.216339e-01 -3.030897e-01 -2.736577e-01 -3.569670e-02 1.157550e-01 -2.495504e-01 -1.309239e-01 8.378723e-02 6.802611e-02 -2.832503e-03 -2.189293e-02 2.316661e-02 4.295598e-02 3.073465e-02 7.220066e-02 3.191368e-02 -8.391860e-03 -6.918829e-02 2.005697e-02 1.102748e-02 -1.781444e-03 -2.550018e-03 -7.545608e-03
<VARIANCE> 39
 1.018391e+01 1.895321e+01 2.151008e+01 1.161900e+01 4.391580e+01 3.067423e+01 1.921304e+01 2.147995e+01 1.393531e+01 1.751178e+01 1.774465e+01 2.346375e+01 1.440144e+01 3.637067e-01 7.086176e-01 8.099552e-01 1.077730e+00 2.039215e+00 1.911742e+00 1.685727e+00 2.273457e+00 1.120299e+00 1.608097e+00 1.438322e+00 1.982429e+00 3.037940e-01 5.676818e-02 1.345522e-01 1.123403e-01 2.225953e-01 3.606185e-01 2.883910e-01 2.932619e-01 4.928192e-01 2.199570e-01 2.539401e-01 2.783189e-01 4.045197e-01 5.354488e-02
<GCONST> 9.078594e+01
<STATE> 3
<MEAN> 39
 -3.143456e+00 -9.500397e+00 1.937222e+01 -3.851807e+00 -1.924142e+01 -8.815712e+00 -1.073450e+01 -2.462027e+00 -2.986630e+00 -4.561872e+00 6.528211e+00 -2.219872e+00 7.425587e+01 -9.312183e-03 2.552956e-01 6.936314e-02 1.991883e-01 5.063469e-01 2.222824e-01 1.302459e-01 -3.670157e-02 1.246620e-01 8.615447e-03 8.210327e-03 -5.534319e-02 -3.743125e-01 -3.488041e-02 6.005719e-02 -1.731993e-01 -3.036635e-02 1.761563e-01 1.219483e-02 7.257818e-02 7.454631e-02 1.242884e-01 3.039373e-02 -7.162476e-02 1.711083e-04 -8.740731e-02
<VARIANCE> 39
 3.317265e+00 1.240160e+01 6.313970e+01 1.807265e+01 4.593839e+01 1.940221e+01 2.807418e+01 2.690076e+01 3.547071e+01 1.064456e+01 2.168416e+01 9.016254e+00 2.537103e+01 2.119495e-01 5.186360e-01 3.847601e+00 7.567936e-01 3.394135e+00 8.523084e-01 1.128611e+00 1.681223e+00 1.606347e+00 7.237353e-01 1.144343e+00 7.803518e-01 9.948285e-01 3.913019e-02 7.384575e-02 3.334894e-01 1.573443e-01 3.733573e-01 1.738008e-01 1.626812e-01 2.099950e-01 1.933807e-01 1.368282e-01 1.413708e-01 1.552924e-01 1.092000e-01
<GCONST> 8.632113e+01
<STATE> 4
<MEAN> 39
 -7.493809e+00 -4.039038e+00 3.194336e+00 -3.097222e+00 -1.011596e+00 -7.830849e+00 -3.663689e+00 9.422981e-01 7.440289e+00 -4.303040e+00 1.313938e+00 -2.337337e+00 6.230951e+01 -3.033419e-01 7.056761e-02 -5.117507e-01 -1.911239e-01 2.182605e-01 2.349601e-02 3.024646e-01 -8.212224e-02 1.631498e-01 6.296690e-02 -6.545287e-02 -5.492121e-03 -9.921438e-02 -3.770451e-02 -7.128714e-02 1.183644e-01 -5.665691e-03 -1.820025e-01 6.484737e-02 -8.875217e-02 -4.444886e-02 -1.541135e-01 -1.564644e-02 5.189771e-02 4.255560e-03 1.315699e-01
<VARIANCE> 39
 1.883928e+01 1.150579e+01 2.491269e+01 1.843739e+01 2.235455e+01 3.066481e+01 2.575640e+01 1.561594e+01 3.139548e+01 2.423560e+01 1.723247e+01 2.330228e+01 1.127262e+01 1.351182e+00 9.522566e-01 1.666191e+00 1.740200e+00 2.543316e+00 2.856808e+00 2.821984e+00 1.889744e+00 3.479826e+00 2.357581e+00 1.913640e+00 1.895411e+00 8.375458e-01 2.305955e-01 1.796309e-01 3.478388e-01 3.187353e-01 6.480106e-01 5.516829e-01 6.274780e-01 4.538689e-01 5.876616e-01 4.223342e-01 3.832949e-01 3.941087e-01 1.959244e-01
<GCONST> 1.063729e+02
<TRANSP> 5
 0.000000e+00 1.000000e+00 0.000000e+00 0.000000e+00 0.000000e+00
 0.000000e+00 8.578084e-01 1.421917e-01 0.000000e+00 0.000000e+00
 0.000000e+00 0.000000e+00 9.025311e-01 9.746891e-02 0.000000e+00
 0.000000e+00 0.000000e+00 0.000000e+00 8.941610e-01 1.058390e-01
 0.000000e+00 0.000000e+00 0.000000e+00 0.000000e+00 0.000000e+00
<ENDHMM>
~h "u"
<BEGINHMM>
<NUMSTATES> 5
<STATE> 2
<MEAN> 39
 -1.911739e+01 -4.233552e+00 3.477386e+00 -7.396334e+00 -5.469623e+00 -9.679453e-01 -5.741486e+00 1.153130e+00 3.565235e+00 -3.092668e+00 1.452411e+00 4.331017e-01 7.089175e+01 -1.208986e+00 5.090538e-02 7.028067e-01 2.266922e-01 -8.569537e-01 5.446644e-02 -2.831371e-01 -6.814783e-02 -2.890317e-01 -1.862433e-01 6.464887e-02 2.395176e-01 1.192442e+00 2.723974e-01 6.101931e-03 4.070929e-02 2.306757e-01 2.543625e-02 -2.153769e-01 4.279776e-02 -8.634795e-02 -1.301752e-02 -1.051756e-01 -6.132105e-02 -1.434463e-01 -1.534126e-01
<VARIANCE> 39
 4.372174e+01 2.080059e+01 1.649315e+01 2.985117e+01 2.563178e+01 3.360194e+01 3.912207e+01 3.764797e+01 3.230583e+01 1.720023e+01 2.455210e+01 2.611838e+01 2.871261e+01 3.716723e+00 3.168052e+00 1.251809e+00 4.025931e+00 1.484445e+00 3.358021e+00 3.814490e+00 1.961221e+00 1.792414e+00 2.501861e+00 1.846629e+00 2.649211e+00 2.148165e+00 4.526002e-01 6.932616e-01 2.294753e-01 6.289815e-01 2.522823e-01 3.981488e-01 7.066764e-01 3.227881e-01 3.498423e-01 4.765909e-01 3.858451e-01 5.421075e-01 3.336717e-01
<GCONST> 1.151141e+02
<STATE> 3
<MEAN> 39
 -1.231047e+01 -6.024328e+00 1.214345e+01 2.263444e+00 -9.835916e+00 -8.122540e+00 -9.529657e+00 -2.959924e-01 -5.432365e-01 -8.806349e+00 1.400555e+00 -2.227237e+00 7.360680e+01 2.267661e+00 -8.138901e-01 1.302097e+00 9.356968e-01 -3.429613e-01 -1.366109e+00 -1.495877e+00 -1.177048e-01 -2.890405e-01 -9.216017e-01 3.697494e-01 -3.235195e-01 3.811749e-01 -1.638471e-01 -1.549353e-02 -1.259728e-01 -2.236175e-01 3.263773e-02 1.040715e-01 -3.641701e-02 1.516503e-01 9.295391e-02 5.681815e-02 1.061795e-01 7.712405e-02 7.250069e-02
<VARIANCE> 39
 7.509970e+01 1.163578e+01 2.986327e+01 2.596117e+01 1.816238e+01 3.416629e+01 5.613925e+01 2.286201e+01 1.951133e+01 1.834408e+01 1.567398e+01 1.478842e+01 1.057205e+01 3.338890e+00 1.055307e+00 1.186918e+00 1.266118e+00 1.026849e+00 1.953535e+00 5.492739e+00 1.149207e+00 1.378534e+00 1.417027e+00 2.409577e+00 1.480301e+00 1.047688e+00 8.011742e-01 2.418850e-01 2.924458e-01 2.094789e-01 2.083521e-01 3.499487e-01 1.123767e+00 1.585816e-01 1.941700e-01 2.572004e-01 4.802646e-01 2.298150e-01 2.135929e-01
<GCONST> 1.030475e+02
<STATE> 4
<MEAN> 39
 -2.440358e+00 -6.600121e+00 1.085754e+01 2.323507e+00 -4.211579e+00 -1.058739e+01 -1.464496e+01 4.532302e-01 4.461528e+00 -6.480552e+00 3.292008e+00 -4.614448e+00 7.080650e+01 3.195182e-03 2.037109e-01 -4.327881e-01 -1.305091e-01 3.788975e-01 3.107612e-01 3.003149e-01 8.539382e-02 2.817921e-01 3.941802e-01 -1.331417e-01 -1.198639e-01 -3.729404e-01 -2.552057e-02 1.343343e-02 -2.479430e-02 -1.353034e-02 1.652422e-02 1.348109e-02 3.160305e-02 -8.492773e-03 -3.852556e-03 7.771231e-03 -1.708497e-02 -3.490112e-03 -2.052488e-02
<VARIANCE> 39
 7.249068e+00 1.794127e+01 3.891245e+01 1.819748e+01 3.452896e+01 3.432295e+01 4.872271e+01 1.703962e+01 3.462703e+01 5.697111e+01 2.055228e+01 1.442780e+01 3.569362e+01 2.267049e-01 3.897479e-01 5.052314e-01 4.593817e-01 7.819095e-01 9.648808e-01 1.267804e+00 8.639125e-01 1.144098e+00 9.569511e-01 7.906303e-01 6.908257e-01 1.475042e-01 2.881090e-02 6.105852e-02 8.067897e-02 8.115827e-02 1.182743e-01 1.440945e-01 1.722943e-01 1.432052e-01 2.191788e-01 1.469025e-01 1.425053e-01 1.323880e-01 1.623019e-02
<GCONST> 7.658279e+01
<TRANSP> 5
 0.000000e+00 1.000000e+00 0.000000e+00 0.000000e+00 0.000000e+00
 0.000000e+00 9.073238e-01 9.267620e-02 0.000000e+00 0.000000e+00
 0.000000e+00 0.000000e+00 8.692350e-01 1.307649e-01 0.000000e+00
 0.000000e+00 0.000000e+00 0.000000e+00 9.702477e-01 2.975223e-02
 0.000000e+00 0.000000e+00 0.000000e+00 0.000000e+00 0.000000e+00
<ENDHMM>
~h "v"
<BEGINHMM>
<NUMSTATES> 5
<STATE> 2
<MEAN> 39
 -8.998065e-01 -1.512821e+01 -3.860732e-01 -9.275015e+00 -6.514278e+00 -7.591303e+00 -5.713657e+00 -4.525521e+00 1.555053e+01 -6.131273e+00 -5.233941e+00 -1.086621e+01 8.086474e+01 4.915347e-01 -6.536462e-01 -3.393086e-02 -7.872872e-01 3.527290e-01 7.095830e-01 1.364088e-01 -7.026020e-02 4.486539e-01 -1.421744e-02 1.529365e-01 -3.564776e-01 3.031584e-01 -2.742786e-01 4.802664e-01 8.344026e-03 3.070639e-01 2.112574e-01 1.972119e-02 -3.994844e-02 -1.234686e-01 -3.477381e-01 1.680342e-01 4.197120e-01 2.105011e-01 -4.389308e-01
<VARIANCE> 39
 2.187459e+00 1.332431e+01 1.200744e+01 9.619025e+00 8.392691e+00 2.447771e+01 2.332904e+01 2.491558e+01 2.852809e+01 1.892543e+01 1.514094e+01 1.289655e+01 1.294229e+01 9.569166e-01 2.956471e+00 4.575494e-01 1.283410e+00 1.221846e+00 1.195711e+00 2.754873e+00 1.427685e+00 1.783747e+00 1.349044e+00 2.272861e+00 5.569637e-01 2.219101e+00 3.634093e-01 1.501404e-01 8.375196e-02 1.176156e-01 1.220849e-01 3.369665e-01 7.700745e-01 2.626008e-01 3.400103e-01 2.437542e-01 3.640426e-01 1.587196e-01 1.325023e-01
<GCONST> 9.010204e+01
<STATE> 3
<MEAN> 39
 1.668530e-01 -8.563054e+00 1.622788e+00 -7.115182e+00 -1.756498e+00 -5.537444e+00 -9.520168e+00 -7.677280e+00 9.731318e+00 -5.456430e-01 3.836950e+00 -8.443301e+00 7.225394e+01 -1.341445e-01 1.698406e+00 1.536238e-02 9.150240e-01 1.235852e+00 6.237214e-01 -6.205765e-01 -2.503477e-01 -1.770329e+00 8.271577e-01 1.476508e+00 6.933085e-01 -1.853609e+00 -1.448150e-01 -2.169174e-01 -7.140765e-02 -5.574626e-02 -9.242546e-02 1.352925e-02 3.372233e-01 3.418841e-01 1.143224e-01 -2.282206e-01 -3.040894e-01 1.875214e-02 2.421771e-01
<VARIANCE> 39
 7.092087e+00 3.072316e+01 7.732150e+00 1.812214e+01 1.294774e+01 2.227363e+01 1.861882e+01 1.379187e+01 3.749889e+01 1.451696e+01 2.683407e+01 1.523731e+01 3.577044e+01 1.310756e+00 3.077435e+00 9.333113e-01 1.462004e+00 1.797606e+00 1.779992e+00 4.180087e+00 1.582494e+00 2.924906e+00 1.652687e+00 3.771775e+00 1.867646e+00 2.728446e+00 2.262191e-01 6.443872e-01 8.229766e-02 3.718317e-01 2.975145e-01 2.618827e-01 6.025790e-01 2.200515e-01 7.144986e-01 2.414650e-01 5.726843e-01 4.106828e-01 5.600387e-01
<GCONST> 1.046267e+02
<STATE> 4
<MEAN> 39
 -4.930984e+00 -6.932805e+00 -1.114539e+00 -7.011603e+00 1.251948e+00 -4.591368e+00 -5.344717e+00 -1.435821e+00 7.138598e+00 -1.249688e+00 2.165205e+00 -5.378016e+00 6.551546e+01 -2.255462e-01 -3.044823e-01 -3.204672e-01 -4.268498e-01 3.773803e-02 2.172297e-01 1.097962e-01 3.474356e-01 1.206449e-01 2.112399e-02 3.730543e-02 -9.812811e-02 1.815868e-01 4.770930e-02 -1.055468e-01 4.345083e-02 -7.296053e-02 -1.352545e-01 -6.588571e-02 -1.094303e-01 5.797264e-02 1.138750e-01 -9.511359e-03 -4.796633e-02 -7.788674e-02 1.417906e-01
<VARIANCE> 39
 1.757036e+01 1.079686e+01 2.932535e+01 1.853417e+01 1.993310e+01 2.905777e+01 3.633128e+01 2.484137e+01 2.958813e+01 1.993003e+01 2.006646e+01 1.472841e+01 1.405239e+01 1.043304e+00 1.214996e+00 8.011181e-01 1.614641e+00 1.157826e+00 2.126380e+00 2.340767e+00 1.904101e+00 1.931951e+00 1.677386e+00 1.377848e+00 1.389206e+00 7.686419e-01 1.676196e-01 3.225374e-01 1.180192e-01 3.635608e-01 2.474364e-01 3.992690e-01 4.846915e-01 3.166687e-01 4.458540e-01 3.403826e-01 2.639970e-01 2.448507e-01 2.035018e-01
<GCONST> 9.907904e+01
<TRANSP> 5
 0.000000e+00 1.000000e+00 0.000000e+00 0.000000e+00 0.000000e+00
 0.000000e+00 8.137641e-01 1.862359e-01 0.000000e+00 0.000000e+00
 0.000000e+00 0.000000e+00 7.756879e-01 2.243121e-01 0.000000e+00
 0.000000e+00 0.000000e+00 0.000000e+00 8.952961e-01 1.047039e-01
 0.000000e+00 0.000000e+00 0.000000e+00 0.000000e+00 0.000000e+00
<ENDHMM>
~h "w"
<BEGINHMM>
<NUMSTATES> 5
<STATE> 2
<MEAN> 39
 -8.325674e+00 -4.568881e+00 9.858000e-01 -5.502605e+00 -4.049517e-01 -4.550287e+00 -2.760383e+00 3.925637e-01 3.295585e+00 -2.132220e+00 3.768164e+00 -1.766319e+00 6.073921e+01 9.167707e-02 1.151653e-01 -1.517387e-01 -1.485201e-01 -7.648167e-02 -1.219652e-01 -3.185114e-02 8.653348e-02 -1.478163e-01 -2.536344e-01 6.668377e-02 2.161933e-01 -6.869689e-02 1.132571e-01 6.116083e-02 4.150674e-02 1.042116e-02 1.083295e-03 2.960496e-02 -1.775191e-02 -3.587515e-02 -3.494127e-02 -7.020908e-02 -8.612755e-02 -5.282893e-02 4.373046e-02
<VARIANCE> 39
 1.391371e+01 1.368878e+01 1.357626e+01 2.061502e+01 1.786349e+01 3.681322e+01 2.325469e+01 3.377873e+01 2.564720e+01 2.287808e+01 1.597148e+01 4.159275e+01 6.275319e+00 4.549355e-01 6.345015e-01 6.956887e-01 1.378383e+00 1.634695e+00 2.234296e+00 1.971097e+00 2.105724e+00 2.231335e+00 1.513550e+00 1.704784e+00 1.317990e+00 2.257828e-01 7.300575e-02 1.249530e-01 1.512609e-01 2.212160e-01 2.612656e-01 3.822088e-01 3.423386e-01 4.068126e-01 4.368823e-01 3.149974e-01 2.982825e-01 2.298883e-01 2.777121e-02
<GCONST> 9.178184e+01
<STATE> 3
<MEAN> 39
 -7.482865e-01 1.793330e+00 2.202210e+00 -1.001036e+01 -4.814216e+00 -1.004993e+01 -5.773874e+00 7.589021e-01 1.372846e+00 -6.142173e+00 4.536083e-01 -3.281387e+00 6.507626e+01 1.164603e+00 7.414833e-01 1.590606e-01 -9.613472e-01 -1.114495e+00 -2.891199e-01 -6.782655e-02 9.408122e-02 -1.613372e-02 -1.663201e-01 6.980913e-02 2.173758e-01 8.783954e-01 -4.240019e-02 -2.162288e-01 -1.764254e-01 -1.714396e-01 -1.363043e-01 1.841298e-01 1.453632e-01 5.837581e-02 9.303826e-02 1.068642e-01 1.398221e-01 3.767920e-02 8.345202e-02
<VARIANCE> 39
 2.694790e+01 2.143583e+01 1.346830e+01 2.317720e+01 3.662900e+01 3.057627e+01 1.498909e+01 2.262676e+01 2.464356e+01 1.684204e+01 2.123014e+01 1.465477e+01 1.290505e+01 1.417150e+00 1.877052e+00 1.545757e+00 2.014787e+00 2.397632e+00 1.687398e+00 1.403413e+00 1.605574e+00 1.488877e+00 1.927679e+00 2.078129e+00 1.509404e+00 3.550411e-01 2.716565e-01 3.284810e-01 3.059211e-01 3.079257e-01 5.091916e-01 4.267678e-01 2.977017e-01 2.343337e-01 2.820830e-01 3.113627e-01 4.071235e-01 3.386703e-01 7.232849e-02
<GCONST> 1.004317e+02
<STATE> 4
<MEAN> 39
 3.594312e+00 -1.217597e+01 -5.095940e+00 -1.643360e+01 -7.331239e+00 6.536882e+00 1.202716e+00 -2.883180e+00 1.154808e+00 -5.512951e+00 3.273523e+00 -5.157629e+00 7.656720e+01 -1.056476e-01 -1.184686e+00 -4.786425e-01 3.807981e-01 5.688380e-01 1.013166e+00 1.520793e-01 -5.405741e-01 3.956863e-01 8.884232e-02 1.256022e-03 -3.278599e-01 5.282479e-01 -4.964617e-02 1.026719e-01 7.614157e-02 1.600854e-01 9.778871e-02 -1.530016e-01 -1.257027e-01 -1.219068e-02 4.316050e-02 2.046073e-03 -3.399792e-02 2.505939e-03 -7.930051e-02
<VARIANCE> 39
 4.419012e+00 7.108818e+01 1.625340e+01 2.461295e+01 3.363709e+01 6.638151e+01 1.904067e+01 4.562269e+01 2.518668e+01 1.596666e+01 1.974298e+01 1.039805e+01 1.401084e+01 1.752290e-01 2.141688e+00 6.562551e-01 1.478147e+00 1.368501e+00 4.204713e+00 1.719379e+00 1.588689e+00 1.890433e+00 8.901710e-01 1.303166e+00 6.077058e-01 4.989426e-01 2.824157e-02 1.844458e-01 6.346499e-02 1.615463e-01 1.867575e-01 3.831000e-01 1.990591e-01 2.767962e-01 2.613336e-01 1.640129e-01 2.048492e-01 1.191726e-01 3.172459e-02
<GCONST> 8.750725e+01
<TRANSP> 5
 0.000000e+00 1.000000e+00 0.000000e+00 0.000000e+00 0.000000e+00
 0.000000e+00 9.215710e-01 7.842896e-02 0.000000e+00 0.000000e+00
 0.000000e+00 0.000000e+00 8.928726e-01 1.071274e-01 0.000000e+00
 0.000000e+00 0.000000e+00 0.000000e+00 9.419537e-01 5.804630e-02
 0.000000e+00 0.000000e+00 0.000000e+00 0.000000e+00 0.000000e+00
<ENDHMM>
~h "z"
<BEGINHMM>
<NUMSTATES> 5
<STATE> 2
<MEAN> 39
 -4.356514e+00 -3.304816e+00 3.797597e-02 -1.203683e+00 6.403197e+00 -2.471501e+00 1.351882e-01 -5.449477e-01 3.317113e+00 -1.655823e+00 -1.315687e+00 -6.565417e+00 6.054614e+01 -4.897703e-02 2.237017e-01 -2.679319e-01 -4.495314e-01 -6.433840e-01 -1.203758e+00 -8.277268e-01 -6.031507e-01 -4.756041e-01 8.294109e-02 2.600996e-01 -1.069852e-01 -2.076598e-01 1.532532e-01 7.693143e-02 4.316384e-02 2.604932e-02 -4.282956e-01 -2.972008e-01 -2.313116e-01 -1.463328e-01 -1.035359e-01 -1.262853e-01 2.181656e-01 9.872574e-02 1.138789e-01
<VARIANCE> 39
 5.792566e+00 1.960730e+01 1.502688e+01 3.357892e+01 8.778369e+00 2.688697e+01 1.278379e+01 1.471635e+01 1.652727e+01 2.148932e+01 3.620255e+01 1.360066e+01 3.992566e+00 5.327672e-01 6.224275e-01 1.006271e+00 9.031752e-01 1.060708e+00 1.355040e+00 2.011381e+00 1.141473e+00 2.002869e+00 2.392283e+00 1.061658e+00 9.403647e-01 2.143402e-01 5.489128e-02 1.414974e-01 1.481779e-01 1.995772e-01 1.801292e-01 4.172597e-01 4.463711e-01 2.478888e-01 2.023446e-01 3.581709e-01 3.365947e-01 2.117760e-01 1.517926e-02
<GCONST> 8.418850e+01
<STATE> 3
<MEAN> 39
 -5.407360e+00 -3.818383e+00 -1.752770e+00 -1.826182e+00 1.506205e+00 -6.971317e+00 -5.113720e+00 -2.452393e+00 3.954297e+00 -1.079480e+00 1.524778e+00 -4.677926e+00 5.878418e+01 1.409466e-01 1.828095e-01 7.458373e-02 9.010343e-03 -3.427907e-01 -2.481860e-01 -3.999419e-01 -8.129473e-05 6.927770e-02 -1.478727e-01 4.939212e-01 4.791731e-01 1.147080e-02 -6.288862e-03 1.001566e-01 9.409910e-02 1.271973e-01 2.008681e-01 3.170935e-01 2.182933e-01 7.880424e-02 2.337982e-01 2.112646e-01 8.312306e-02 -5.884264e-02 -8.301676e-03
<VARIANCE> 39
 4.909631e+00 2.137399e+01 1.680228e+01 1.831717e+01 1.629191e+01 3.862671e+01 5.533401e+01 1.253265e+01 4.562923e+01 3.597773e+01 2.113439e+01 1.068137e+01 5.522864e+00 5.262485e-01 1.571041e+00 1.678057e+00 1.760176e+00 2.956964e+00 2.304376e+00 4.150769e+00 1.365612e+00 2.338977e+00 2.840041e+00 9.703820e-01 1.076226e+00 1.734880e-01 4.394795e-02 2.181558e-01 1.991835e-01 2.662429e-01 5.164167e-01 3.824638e-01 7.274356e-01 1.851203e-01 4.333355e-01 5.329407e-01 1.534215e-01 1.805133e-01 3.080906e-02
<GCONST> 9.456680e+01
<STATE> 4
<MEAN> 39
 -4.595768e+00 -2.256304e+00 -3.990265e+00 -8.400626e+00 3.527814e-01 -5.093965e+00 -1.035988e-01 -4.487222e-01 6.023504e+00 2.495137e+00 5.299850e+00 -3.427209e+00 5.887803e+01 4.039475e-01 2.946106e-01 1.056838e-01 2.507311e-01 8.700967e-02 1.183293e-01 1.176586e-01 4.615886e-02 -2.444488e-01 -2.471267e-01 5.693442e-02 -5.320014e-01 4.460693e-01 1.337871e-02 8.777711e-02 1.818504e-02 2.117755e-01 9.933631e-02 5.165734e-02 2.409941e-03 -8.051904e-02 5.696208e-02 -2.600923e-01 -1.294161e-01 -5.989762e-02 1.200898e-01
<VARIANCE> 39
 5.903121e+00 8.724946e+00 2.345621e+01 4.276286e+01 9.050968e+00 2.199136e+01 2.393237e+01 1.441455e+01 3.583705e+01 2.879026e+01 1.908087e+01 2.330336e+01 1.119237e+01 4.118218e-01 7.285019e-01 1.049449e+00 1.741275e+00 1.027618e+00 1.815523e+00 2.299989e+00 2.176710e+00 2.940809e+00 2.833054e+00 2.564872e+00 3.749710e+00 2.757823e-01 1.223298e-01 1.289317e-01 2.323758e-01 1.362369e-01 1.877628e-01 2.687349e-01 3.873287e-01 5.596663e-01 7.118723e-01 3.926252e-01 4.621659e-01 6.413519e-01 4.108982e-02
<GCONST> 9.604646e+01
<TRANSP> 5
 0.000000e+00 1.000000e+00 0.000000e+00 0.000000e+00 0.000000e+00
 0.000000e+00 7.992259e-01 2.007740e-01 0.000000e+00 0.000000e+00
 0.000000e+00 0.000000e+00 8.010226e-01 1.989774e-01 0.000000e+00
 0.000000e+00 0.000000e+00 0.000000e+00 8.346884e-01 1.653116e-01
 0.000000e+00 0.000000e+00 0.000000e+00 0.000000e+00 0.000000e+00
<ENDHMM>
~h "O:"
<BEGINHMM>
<NUMSTATES> 5
<STATE> 2
<MEAN> 39
 -5.229988e+00 -4.693313e+00 -2.256500e+00 -5.070793e+00 -1.914020e+00 -6.423359e+00 -3.966761e+00 1.178463e-01 2.253695e+00 -4.075140e-01 -1.350437e+00 -3.843032e+00 6.524873e+01 -2.511342e-01 -8.007292e-02 -2.374757e-01 -2.156814e-01 -3.224169e-01 1.340673e-01 1.147478e-02 -1.153105e-01 -2.132001e-01 -6.398662e-02 7.324168e-03 2.140958e-01 1.416672e-01 -3.844248e-02 -4.429274e-02 -4.528903e-02 4.894354e-02 1.086723e-02 -2.996249e-02 3.820534e-02 1.836008e-02 4.305745e-02 2.897061e-02 -4.658973e-03 -3.515502e-02 -1.230051e-03
<VARIANCE> 39
 1.898243e+01 8.691108e+00 2.138529e+01 3.313719e+01 4.783810e+01 2.622739e+01 1.997294e+01 3.349878e+01 5.367360e+01 3.317112e+01 2.550841e+01 1.466943e+01 9.059924e+00 3.048574e-01 6.588948e-01 1.210415e+00 1.780881e+00 2.312505e+00 1.404440e+00 1.480035e+00 2.431737e+00 2.501526e+00 2.049844e+00 1.617466e+00 1.478543e+00 3.242683e-01 1.251811e-01 1.034746e-01 2.413607e-01 3.353531e-01 3.620796e-01 2.647752e-01 3.265118e-01 4.626379e-01 4.553269e-01 3.633424e-01 2.447797e-01 3.119088e-01 3.994209e-02
<GCONST> 9.691489e+01
<STATE> 3
<MEAN> 39
 2.957938e+00 -2.557200e+00 4.064116e-01 -1.803727e+01 -1.636967e+01 -5.396187e+00 -3.895614e+00 -3.480727e+00 4.416719e+00 -7.688762e+00 -1.308908e+00 -4.893276e-01 7.156405e+01 5.882506e-01 -1.619812e-01 2.633487e-01 -4.682766e-01 -4.849697e-01 -2.490538e-01 2.758979e-01 3.202866e-01 2.879004e-01 -1.210183e-01 1.519738e-01 -1.603472e-01 1.239855e-01 3.881187e-02 3.947446e-03 1.689533e-03 1.425704e-01 1.069503e-01 -3.787843e-03 8.181626e-02 5.195313e-02 -6.626937e-02 -4.474572e-02 -6.205076e-02 -7.849723e-02 -7.700270e-02
<VARIANCE> 39
 5.074832e+01 6.667507e+00 2.338778e+01 5.813689e+01 4.485903e+01 1.660178e+01 2.053286e+01 1.190464e+01 1.922121e+01 3.810387e+01 2.432889e+01 1.531536e+01 7.080723e+00 1.075212e+00 6.713228e-01 7.968818e-01 1.146900e+00 6.926738e-01 5.490106e-01 6.713111e-01 4.195205e-01 1.122842e+00 1.638597e+00 6.225839e-01 1.217230e+00 4.275753e-01 2.073983e-01 1.016288e-01 1.269588e-01 2.916319e-01 1.739117e-01 1.242565e-01 1.645258e-01 7.082713e-02 2.556593e-01 3.527826e-01 1.553755e-01 3.164191e-01 1.223576e-01
<GCONST> 8.517364e+01
<STATE> 4
<MEAN> 39
 6.156567e+00 -7.558801e+00 -3.484414e+00 -1.513972e+01 -1.134738e+01 -3.628438e+00 -7.912207e-01 8.495547e-01 5.544221e+00 -8.876702e+00 2.255431e-01 2.353923e+00 7.307037e+01 -9.965471e-02 -6.396326e-02 -2.909460e-01 7.376766e-01 9.033029e-01 9.483577e-02 1.917865e-01 2.526255e-01 8.408790e-02 2.983679e-01 -5.148729e-02 -6.068482e-02 -2.576700e-01 -8.948461e-02 1.181665e-03 4.479861e-02 8.687106e-02 5.847999e-02 -3.079471e-03 -6.460495e-03 2.177755e-02 1.911863e-02 5.039001e-02 9.128221e-03 -5.402974e-02 -5.750597e-02
<VARIANCE> 39
 1.213113e+01 2.746938e+01 3.210004e+01 5.288061e+01 6.268375e+01 1.845097e+01 1.440786e+01 1.164573e+01 1.390156e+01 2.132003e+01 1.484493e+01 2.790786e+01 7.913933e+00 1.162107e+00 1.424480e+00 1.175656e+00 1.950603e+00 2.717485e+00 1.270289e+00 1.017214e+00 1.482515e+00 8.773648e-01 1.331399e+00 8.382229e-01 2.055615e+00 7.915674e-01 1.071406e-01 1.897586e-01 1.568426e-01 1.823107e-01 3.092402e-01 1.750121e-01 1.667200e-01 2.451446e-01 1.489763e-01 1.534844e-01 1.454386e-01 2.757828e-01 9.233945e-02
<GCONST> 9.139464e+01
<TRANSP> 5
 0.000000e+00 1.000000e+00 0.000000e+00 0.000000e+00 0.000000e+00
 0.000000e+00 9.224074e-01 7.759255e-02 0.000000e+00 0.000000e+00
 0.000000e+00 0.000000e+00 8.765593e-01 1.234407e-01 0.000000e+00
 0.000000e+00 0.000000e+00 0.000000e+00 9.572858e-01 4.271425e-02
 0.000000e+00 0.000000e+00 0.000000e+00 0.000000e+00 0.000000e+00
<ENDHMM>
~h "aI"
<BEGINHMM>
<NUMSTATES> 5
<STATE> 2
<MEAN> 39
 1.236817e+00 -1.594404e+01 -1.792254e+00 -2.771207e+00 -7.036821e+00 3.692358e+00 -6.908417e+00 -4.274247e+00 1.110209e+01 -2.379532e+00 -2.005345e+00 -9.637290e+00 7.750710e+01 -6.388201e-02 -1.813966e+00 -1.736162e+00 -4.455911e-01 1.847873e-01 1.454155e+00 -1.339687e-01 4.540874e-01 5.597731e-01 -1.350896e+00 -1.008055e+00 -2.099240e-01 1.563274e+00 -7.915974e-02 4.690339e-01 3.630013e-01 -9.716212e-02 3.589058e-01 -3.087417e-01 2.798927e-01 -4.125659e-01 -1.660830e-01 1.419054e-01 1.661923e-01 2.439112e-01 -3.962005e-01
<VARIANCE> 39
 3.922523e+00 2.360255e+01 2.029732e+01 5.915020e+01 1.274752e+01 3.348629e+01 2.161882e+01 2.423472e+01 1.886149e+01 2.866354e+01 1.827285e+01 1.663694e+01 1.700302e+01 3.373936e-01 2.227065e+00 2.853116e+00 8.836916e-01 1.754124e+00 2.561105e+00 2.308752e+00 3.699733e+00 1.176222e+00 2.798815e+00 1.896469e+00 1.643495e+00 1.916293e+00 5.844615e-02 2.258401e-01 3.313127e-01 1.604171e-01 1.834663e-01 2.897236e-01 3.698848e-01 5.260553e-01 2.098557e-01 5.897284e-01 3.975323e-01 2.467565e-01 2.050247e-01
<GCONST> 9.989230e+01
<STATE> 3
<MEAN> 39
 8.552450e-01 -1.905518e+01 -3.660241e+00 -8.369904e+00 -2.457765e+00 5.174706e+00 -2.326595e+00 -8.307496e+00 1.252063e+01 -4.126859e+00 -4.580979e+00 -6.810856e+00 7.947001e+01 -4.683431e-02 -8.022885e-02 3.451095e-01 2.098596e-01 -2.167508e-01 -5.047377e-01 4.918573e-02 3.853563e-01 2.583008e-01 -1.844719e-01 -1.576597e-01 3.397616e-01 -7.558313e-02 -5.793986e-03 4.187903e-02 9.870614e-02 5.493868e-02 -1.405428e-01 -8.956508e-02 -2.998389e-02 1.315298e-01 -2.333309e-02 -3.836885e-02 9.021720e-02 2.492222e-03 -2.955006e-02
<VARIANCE> 39
 3.646779e+00 1.172631e+01 5.910560e+00 3.409440e+01 1.210942e+01 2.618417e+01 2.175848e+01 2.767576e+01 2.543373e+01 1.310507e+01 1.630969e+01 1.929644e+01 3.573581e+00 7.159769e-02 1.778504e-01 4.096935e-01 5.163206e-01 9.146893e-01 7.161695e-01 5.004996e-01 1.383616e+00 4.877276e-01 6.727287e-01 6.348922e-01 3.306468e-01 6.675569e-02 1.142856e-02 3.141556e-02 2.676193e-02 4.253502e-02 6.027044e-02 5.545488e-02 5.067880e-02 6.497400e-02 8.443971e-02 9.012971e-02 1.147610e-01 5.331049e-02 1.414684e-02
<GCONST> 5.328289e+01
<STATE> 4
<MEAN> 39
 -1.650827e+00 -1.553187e+01 9.355625e+00 -2.401763e+00 -1.377947e+01 -6.997006e+00 -4.082254e+00 5.248292e+00 1.026902e+01 -8.671828e+00 2.803075e+00 -2.551819e+00 7.600296e+01 -1.362456e-01 1.140657e+00 5.988553e-01 3.272189e-01 1.924662e-01 -8.176246e-01 -2.274803e-01 6.288928e-02 -8.872468e-01 4.698535e-01 8.987424e-01 -1.960650e-01 -8.050857e-01 3.521754e-02 2.047541e-01 -2.700315e-01 4.543275e-02 4.776826e-01 1.084565e-01 -4.682575e-02 -3.952082e-01 -2.445523e-03 2.818131e-01 -2.360617e-01 -1.580301e-01 -1.678710e-01
<VARIANCE> 39
 7.457084e+00 2.383272e+01 2.344468e+01 2.051008e+01 1.577823e+01 2.535754e+01 1.583861e+01 1.867568e+01 2.938527e+01 1.143503e+01 3.527594e+01 1.595421e+01 7.371680e+00 3.415173e-01 1.058618e+00 1.809383e+00 7.332788e-01 3.881087e+00 7.070153e-01 1.167709e+00 2.432131e+00 9.803439e-01 1.427252e+00 2.340935e+00 1.052642e+00 5.305348e-01 4.897291e-02 1.292786e-01 1.053450e-01 1.060821e-01 1.932921e-01 1.355455e-01 1.698044e-01 2.849550e-01 1.884390e-01 2.119182e-01 2.614372e-01 1.303670e-01 5.383577e-02
<GCONST> 8.503642e+01
<TRANSP> 5
 0.000000e+00 1.000000e+00 0.000000e+00 0.000000e+00 0.000000e+00
 0.000000e+00 7.658171e-01 2.341829e-01 0.000000e+00 0.000000e+00
 0.000000e+00 0.000000e+00 9.483789e-01 5.162111e-02 0.000000e+00
 0.000000e+00 0.000000e+00 0.000000e+00 9.029921e-01 9.700789e-02
 0.000000e+00 0.000000e+00 0.000000e+00 0.000000e+00 0.000000e+00
<ENDHMM>
~h "eh"
<BEGINHMM>
<NUMSTATES> 5
<STATE> 2
<MEAN> 39
 1.222868e+00 -1.307145e+01 -3.306785e+00 -7.716002e+00 -3.960660e-02 5.203578e-01 -8.736147e+00 -4.126886e+00 1.086827e+01 -1.338819e+00 3.056017e+00 -8.294029e+00 7.671732e+01 -3.685316e-02 3.368565e-01 -9.642596e-02 6.225572e-01 5.637965e-02 -5.508007e-01 -4.638360e-01 6.978146e-01 5.598064e-01 5.923929e-02 -1.692303e-01 -2.816824e-01 -1.307669e-01 2.362242e-02 1.831136e-01 1.140965e-01 1.525826e-01 -2.643731e-02 -1.914864e-02 1.694183e-01 -2.362771e-01 -2.220226e-01 1.017358e-01 1.350706e-01 4.244445e-02 -2.827799e-01
<VARIANCE> 39
 2.395041e+00 7.696716e+00 1.923749e+01 9.435989e+00 8.910741e+00 3.287020e+01 4.003274e+01 2.352324e+01 1.420620e+01 9.550619e+00 2.420326e+01 1.195169e+01 4.616913e+00 1.440536e-01 6.789723e-01 3.687294e-01 7.139333e-01 6.245086e-01 4.730800e-01 1.032987e+00 1.032604e+00 1.033166e+00 7.248027e-01 1.472375e+00 7.063432e-01 7.406430e-01 2.980141e-02 5.686068e-02 1.415109e-01 1.110654e-01 1.042051e-01 9.624168e-02 1.520282e-01 1.983599e-01 1.523358e-01 1.111419e-01 2.722424e-01 1.170939e-01 6.520047e-02
<GCONST> 7.017154e+01
<STATE> 3
<MEAN> 39
 1.420974e+00 -9.126526e+00 -3.245259e+00 -3.949753e+00 5.166936e-02 -2.360258e+00 -9.583540e+00 -2.334080e+00 9.870370e+00 3.383971e-01 5.179260e+00 -9.978528e+00 7.296893e+01 -8.129535e-02 1.100212e+00 1.480327e+00 9.322252e-01 1.062080e-01 -3.591766e-01 7.438855e-01 -1.452821e+00 -9.599088e-01 1.076162e+00 7.046524e-01 3.051746e-01 -1.612520e+00 -1.700421e-01 1.099190e-01 6.172776e-01 8.142267e-03 -9.938891e-03 9.013218e-02 9.645982e-02 -4.195203e-01 -2.118557e-01 2.058411e-01 -1.804607e-01 3.139830e-01 -1.781452e-01
<VARIANCE> 39
 4.165399e+00 6.354367e+00 1.647021e+01 1.116647e+01 1.654127e+01 1.973315e+01 2.063867e+01 2.706857e+01 1.853820e+01 1.061280e+01 2.282375e+01 1.662824e+01 6.376102e+00 2.333349e-01 3.355141e-01 2.740157e+00 5.419345e-01 9.629462e-01 1.056739e+00 1.348118e+00 2.371554e+00 1.449311e+00 1.676609e+00 1.428052e+00 1.037719e+00 5.770870e-01 4.098465e-02 4.125549e-02 2.368136e-01 1.099693e-01 2.235447e-01 1.630484e-01 1.738272e-01 3.256959e-01 2.644183e-01 2.395041e-01 2.853808e-01 1.983862e-01 7.231490e-02
<GCONST> 8.064232e+01
<STATE> 4
<MEAN> 39
 -2.175325e-01 -4.516895e+00 6.191407e+00 -7.884785e-01 5.122506e-01 -1.865692e+00 -6.912695e+00 -8.378060e+00 6.963212e+00 3.332317e+00 4.607967e+00 -6.751680e+00 6.641021e+01 -4.177053e-01 8.438364e-01 6.633788e-01 3.217585e-01 4.316445e-01 2.751618e-02 4.087174e-01 3.467651e-01 -2.451030e-01 -2.620338e-02 -4.322459e-01 1.755521e-01 -7.652057e-01 -1.304619e-02 -8.072471e-02 -4.230683e-01 -1.180985e-01 1.311830e-01 7.508116e-02 8.231685e-02 5.141744e-01 1.410260e-01 -2.759104e-01 -1.145425e-01 -1.453408e-01 1.670316e-01
<VARIANCE> 39
 4.077650e+00 8.574559e+00 1.519468e+01 8.708724e+00 1.468992e+01 1.622123e+01 1.696936e+01 2.923437e+01 1.666971e+01 1.365717e+01 1.245942e+01 1.561508e+01 3.267868e+00 2.368767e-01 5.436953e-01 3.148331e+00 8.180941e-01 9.512333e-01 1.406349e+00 1.702327e+00 3.918221e+00 1.351492e+00 1.476880e+00 1.427580e+00 1.673195e+00 3.664548e-01 3.676920e-02 7.973571e-02 3.563016e-01 1.228709e-01 1.940919e-01 1.862913e-01 3.159577e-01 5.151997e-01 2.520571e-01 2.532990e-01 2.694843e-01 2.874145e-01 7.704782e-02
<GCONST> 8.335423e+01
<TRANSP> 5
 0.000000e+00 1.000000e+00 0.000000e+00 0.000000e+00 0.000000e+00
 0.000000e+00 8.337626e-01 1.662373e-01 0.000000e+00 0.000000e+00
 0.000000e+00 0.000000e+00 7.010772e-01 2.989229e-01 0.000000e+00
 0.000000e+00 0.000000e+00 0.000000e+00 8.389342e-01 1.610658e-01
 0.000000e+00 0.000000e+00 0.000000e+00 0.000000e+00 0.000000e+00
<ENDHMM>
~h "sil"
<BEGINHMM>
<NUMSTATES> 5
<STATE> 2
<MEAN> 39
 -7.461619e+00 -3.898514e+00 4.603107e-01 -5.596509e+00 3.429080e-01 -7.805132e+00 -4.434271e+00 5.924512e-01 4.571597e+00 -1.800611e+00 8.795596e-01 -5.177204e+00 6.054778e+01 1.594389e-02 4.310332e-02 1.582384e-03 1.236428e-02 -4.194589e-02 -7.229120e-02 -3.667642e-02 2.499356e-03 -6.066860e-02 -2.640213e-02 1.727563e-02 -5.011887e-02 -6.302934e-02 -6.091377e-03 3.848075e-03 7.466619e-03 1.168568e-02 7.489596e-03 2.626990e-02 1.038240e-02 1.419660e-04 -7.228832e-03 5.534081e-03 5.884598e-03 9.531228e-03 4.912272e-03
<VARIANCE> 39
 7.811046e+00 1.066157e+01 1.615351e+01 2.100595e+01 2.146684e+01 2.734053e+01 2.368862e+01 2.583284e+01 2.550166e+01 2.840021e+01 2.616391e+01 2.077986e+01 5.186547e+00 3.537257e-01 5.858620e-01 7.937469e-01 1.071990e+00 1.434814e+00 1.579107e+00 1.544287e+00 1.961892e+00 2.019413e+00 1.780455e+00 1.599248e+00 1.624876e+00 1.264110e-01 5.226706e-02 9.674818e-02 1.287682e-01 1.759046e-01 2.475085e-01 2.611750e-01 2.763255e-01 3.691242e-01 3.784892e-01 3.230393e-01 2.921483e-01 2.984451e-01 1.778915e-02
<GCONST> 8.693823e+01
<STATE> 3
<MEAN> 39
 -8.191631e+00 -4.178377e+00 4.515541e-01 -4.296714e+00 7.064158e-01 -8.178721e+00 -4.072359e+00 5.496449e-01 2.544221e+00 -2.794456e+00 -1.128403e-01 -3.600357e+00 5.941804e+01 1.951946e-02 4.889601e-03 -1.439263e-02 -5.110652e-02 3.045473e-02 -1.087221e-02 2.355266e-02 -6.969940e-02 -3.736285e-02 5.472762e-02 9.160722e-03 1.297203e-02 5.577225e-03 3.016985e-03 3.603616e-03 -1.128588e-02 -2.476640e-02 -1.258782e-02 5.557809e-03 2.613176e-02 -2.921915e-03 2.353790e-02 6.899947e-03 1.513003e-02 -3.471965e-03 7.735924e-03
<VARIANCE> 39
 6.244789e+00 9.994860e+00 1.635711e+01 1.567770e+01 2.541840e+01 2.849953e+01 2.555962e+01 2.664094e+01 2.398270e+01 2.280509e+01 2.220002e+01 2.424667e+01 5.074986e+00 4.035810e-01 6.841026e-01 1.033336e+00 1.264779e+00 1.570539e+00 2.467366e+00 2.234273e+00 2.313096e+00 1.934256e+00 1.961432e+00 1.902796e+00 1.721675e+00 2.735318e-01 6.949204e-02 1.179598e-01 1.865185e-01 2.429935e-01 2.831918e-01 4.948540e-01 4.342684e-01 4.387687e-01 3.815934e-01 3.948267e-01 3.833211e-01 3.329201e-01 4.737099e-02
<GCONST> 9.336308e+01
<STATE> 4
<MEAN> 39
 -8.420248e+00 -2.833893e+00 1.351953e-01 -5.846689e+00 -1.474017e+00 -7.473326e+00 -2.510763e+00 6.216468e-01 2.477369e+00 -1.634519e+00 1.072972e+00 -4.576232e+00 6.148715e+01 -7.543208e-02 -1.701198e-02 -8.508552e-02 -6.697726e-02 -7.554593e-02 1.138942e-01 1.820964e-01 1.278694e-01 1.884724e-01 2.534729e-03 -8.852408e-02 -4.817973e-02 9.286092e-02 -4.387313e-03 -1.553219e-02 1.189366e-02 4.047085e-02 2.080007e-02 -1.308856e-02 -1.191796e-02 -5.670934e-03 -2.433781e-03 -1.642873e-02 -2.390986e-02 1.735850e-03 4.385848e-03
<VARIANCE> 39
 1.338701e+01 1.751175e+01 2.179576e+01 2.915602e+01 2.768123e+01 3.816826e+01 2.274235e+01 2.961254e+01 3.611423e+01 2.581878e+01 2.661403e+01 2.005824e+01 1.277151e+01 6.478437e-01 6.400838e-01 1.054676e+00 1.561667e+00 1.929062e+00 1.852361e+00 1.860917e+00 1.882893e+00 2.099070e+00 1.705516e+00 2.077974e+00 1.971666e+00 3.318161e-01 1.122439e-01 1.029284e-01 1.731073e-01 2.566800e-01 3.508710e-01 3.781950e-01 3.470615e-01 3.191557e-01 3.764912e-01 3.126261e-01 3.916295e-01 3.898835e-01 4.843526e-02
<GCONST> 9.761651e+01
<TRANSP> 5
 0.000000e+00 1.000000e+00 0.000000e+00 0.000000e+00 0.000000e+00
 0.000000e+00 9.648657e-01 3.513428e-02 0.000000e+00 0.000000e+00
 0.000000e+00 0.000000e+00 9.505668e-01 4.943323e-02 0.000000e+00
 0.000000e+00 0.000000e+00 0.000000e+00 9.027291e-01 9.727089e-02
 0.000000e+00 0.000000e+00 0.000000e+00 0.000000e+00 0.000000e+00
<ENDHMM>
