~o
<STREAMINFO> 1 39
<VECSIZE> 39<NULLD><MFCC_D_A_0><DIAGC>
~h "I"
<BEGINHMM>
<NUMSTATES> 5
<STATE> 2
<MEAN> 39
 -1.242747e+01 9.156939e+00 3.126844e+00 3.557416e+00 -6.494429e-01 -1.501996e+01 3.718079e+00 -8.207650e-01 2.587677e+00 -3.140421e+00 3.374041e+00 -3.214349e+00 5.897469e+01 -5.354293e-01 1.036471e+00 5.217003e-01 3.918554e-01 -3.014545e-01 -4.296267e-01 1.441690e-02 -1.385392e-01 -8.461982e-02 -3.026584e-01 3.996299e-01 1.180212e-01 8.516359e-01 -1.189051e-01 -1.965759e-01 7.331330e-02 -1.017348e-01 2.013850e-02 3.052289e-01 -4.762007e-02 1.888584e-02 -4.721044e-02 1.234835e-02 4.732125e-02 3.494239e-03 -1.251062e-01
<VARIANCE> 39
 2.849150e+01 8.110526e+01 3.452607e+01 4.702872e+01 5.209146e+01 3.929359e+01 2.921990e+01 1.742397e+01 1.653019e+01 1.398279e+01 1.615502e+01 1.334572e+01 4.316229e+01 3.716172e+00 6.085802e+00 3.748934e+00 2.113572e+00 2.697417e+00 5.102318e+00 2.547886e+00 1.862160e+00 1.734705e+00 1.197544e+00 1.201487e+00 1.003210e+00 1.944778e+00 4.381337e-01 7.106677e-01 4.967907e-01 2.779473e-01 3.721720e-01 9.358879e-01 3.916002e-01 3.225120e-01 3.103916e-01 2.535384e-01 2.007565e-01 1.890552e-01 2.885399e-01
<GCONST> 1.128768e+02
<STATE> 3
<MEAN> 39
 -1.458001e+01 1.140329e+01 6.162278e+00 4.197272e+00 -1.676112e+00 -1.449928e+01 3.063712e+00 -1.611463e+00 1.665428e+00 -4.009655e+00 5.234037e+00 -2.658644e+00 6.144973e+01 -1.202170e-01 -2.653700e-01 1.227448e+00 -3.577185e-01 -6.461092e-01 1.277054e-01 -4.991115e-01 -1.954880e-01 -3.931479e-01 -1.421341e-01 5.111639e-01 2.086810e-01 6.590599e-01 2.063828e-01 -3.885792e-01 2.058544e-01 -2.061225e-01 -1.045593e-01 7.215498e-02 -1.594574e-01 2.743810e-03 -6.886844e-02 1.541068e-02 2.720969e-02 2.856711e-02 -4.702913e-02
<VARIANCE> 39
 2.580399e+01 9.031690e+01 6.555263e+01 4.591477e+01 6.594534e+01 3.344011e+01 3.768642e+01 1.644887e+01 1.820592e+01 1.099418e+01 2.032625e+01 1.232785e+01 3.030082e+01 2.580100e+00 5.430183e+00 4.050796e+00 2.480042e+00 2.436191e+00 3.483941e+00 2.776161e+00 1.743317e+00 1.363582e+00 9.831465e-01 1.265007e+00 1.155549e+00 9.858162e-01 2.957500e-01 5.013861e-01 5.575815e-01 2.592033e-01 3.432385e-01 7.542186e-01 4.797346e-01 3.194411e-01 2.756248e-01 2.099785e-01 2.391330e-01 2.127349e-01 1.818602e-01
<GCONST> 1.105214e+02
<STATE> 4
<MEAN> 39
 -6.194717e+00 -3.149965e+00 1.828735e+01 -2.335447e+00 -1.014822e+01 -1.334506e+01 -8.227848e+00 3.523532e-01 -1.313932e+00 -6.235669e+00 1.092608e+01 -1.392192e+00 6.636970e+01 1.228576e+00 -1.426296e+00 -2.463138e-01 -8.941679e-02 -1.900668e-01 1.757343e-01 -1.055349e+00 5.195962e-02 1.334323e-01 -4.272546e-02 2.062671e-01 1.940755e-01 -6.336745e-03 1.395793e-02 1.434622e-01 -3.318200e-01 7.774783e-02 1.938161e-01 8.670088e-02 5.044279e-02 -1.403250e-01 5.814121e-02 8.551888e-02 -9.450180e-02 2.026123e-02 -9.023190e-02
<VARIANCE> 39
 5.360276e+01 1.189397e+02 1.136400e+02 4.389713e+01 4.897166e+01 2.325302e+01 7.542810e+01 3.113091e+01 3.028525e+01 1.741595e+01 2.685184e+01 1.717984e+01 1.796888e+01 9.836118e-01 2.410768e+00 1.131583e+01 4.119647e+00 3.580384e+00 3.871061e+00 3.857002e+00 3.792105e+00 3.576849e+00 1.720304e+00 2.500407e+00 1.407130e+00 8.333285e-01 1.458331e-01 2.424270e-01 8.111436e-01 5.205005e-01 4.021398e-01 8.340802e-01 7.075418e-01 7.070251e-01 7.041354e-01 3.230653e-01 3.868182e-01 2.711524e-01 6.925074e-02
<GCONST> 1.195567e+02
<TRANSP> 5
 0.000000e+00 1.000000e+00 0.000000e+00 0.000000e+00 0.000000e+00
 0.000000e+00 7.140279e-01 2.859721e-01 0.000000e+00 0.000000e+00
 0.000000e+00 0.000000e+00 7.783727e-01 2.216273e-01 0.000000e+00
 0.000000e+00 0.000000e+00 0.000000e+00 9.234585e-01 7.654151e-02
 0.000000e+00 0.000000e+00 0.000000e+00 0.000000e+00 0.000000e+00
<ENDHMM>
~h "T"
<BEGINHMM>
<NUMSTATES> 5
<STATE> 2
<MEAN> 39
 -1.304005e+01 -2.384574e+00 9.735081e-01 8.552121e-01 4.485953e+00 -1.076778e+00 7.469707e+00 2.033352e+00 6.389647e+00 6.178045e-01 2.057698e+00 -1.421393e+00 4.776331e+01 -2.261913e-01 -4.438258e-01 -9.279570e-02 -1.525556e-01 -3.525914e-01 -1.273911e-01 -3.541783e-01 2.622765e-01 3.424633e-01 2.981588e-01 2.839980e-01 6.713501e-02 8.093011e-02 2.332832e-02 -5.130351e-02 -4.342191e-02 -1.311297e-02 -1.648302e-02 -2.138250e-02 -7.670904e-02 -2.519334e-02 1.732106e-02 -8.657976e-04 3.484291e-02 1.643276e-02 8.348073e-02
<VARIANCE> 39
 2.008990e+01 1.119495e+01 9.906059e+00 2.002537e+01 1.952373e+01 2.821368e+01 3.297500e+01 3.217408e+01 1.565085e+01 1.510320e+01 1.612496e+01 1.250999e+01 3.216580e+01 6.515014e-01 7.381790e-01 6.516426e-01 1.279251e+00 1.282631e+00 1.294268e+00 1.316748e+00 2.631162e+00 1.745707e+00 1.891515e+00 1.605489e+00 1.062481e+00 1.173503e+00 8.753743e-02 1.407889e-01 9.999605e-02 1.885390e-01 2.488960e-01 2.097101e-01 2.093690e-01 4.825879e-01 3.430011e-01 3.715836e-01 2.900038e-01 2.094922e-01 5.627334e-02
<GCONST> 9.127786e+01
<STATE> 3
<MEAN> 39
 -1.680990e+01 -7.267830e+00 -7.961530e-01 6.031705e-01 5.402229e-01 -2.155699e+00 1.493068e+00 4.035396e+00 8.431860e+00 2.673515e+00 4.802216e+00 -2.041067e+00 5.237317e+01 -2.002661e-01 -8.855478e-01 -5.896767e-01 -5.390108e-01 -5.553938e-01 -7.854545e-01 -1.048506e+00 1.368154e-03 4.628245e-01 4.485297e-01 5.488765e-01 1.102574e-01 1.233177e+00 1.683160e-01 -3.406344e-02 7.370209e-04 5.524999e-02 5.879103e-02 -1.205089e-01 -1.379509e-01 -9.348483e-02 -4.838490e-02 -4.016947e-02 -3.555639e-02 -1.329209e-02 -6.516611e-03
<VARIANCE> 39
 1.508268e+01 1.731572e+01 1.241835e+01 9.320844e+00 1.622147e+01 2.035381e+01 3.331690e+01 2.147600e+01 1.577850e+01 1.796691e+01 1.434167e+01 1.103156e+01 3.824593e+01 8.275198e-01 4.656838e-01 4.736931e-01 1.107876e+00 1.161701e+00 1.760760e+00 1.571671e+00 1.957182e+00 2.103900e+00 1.690765e+00 1.308528e+00 1.249953e+00 7.146313e-01 1.341320e-01 8.200925e-02 9.967907e-02 2.163592e-01 2.068197e-01 3.116834e-01 2.563556e-01 3.563457e-01 5.237946e-01 3.481994e-01 2.574290e-01 2.496096e-01 1.324519e-01
<GCONST> 9.043828e+01
<STATE> 4
<MEAN> 39
 -1.413080e+01 -1.227232e+01 -4.441948e+00 -7.586375e-01 -1.581286e+00 -8.793297e+00 -6.669020e+00 2.514956e+00 9.816297e+00 4.968726e+00 6.758976e+00 -2.310718e+00 5.966367e+01 1.549560e+00 -8.780878e-02 7.010055e-02 2.299571e-01 1.385808e-01 -6.373032e-01 -9.991771e-01 -4.622639e-01 3.365299e-02 -2.377972e-01 -6.782123e-02 2.038281e-01 3.979869e-01 2.674159e-01 1.052554e-01 1.987575e-01 1.010380e-01 -6.314594e-04 5.387432e-02 -2.395400e-02 -6.048820e-03 -5.781635e-02 -2.171507e-01 -3.763487e-02 8.481365e-02 -6.127826e-02
<VARIANCE> 39
 6.196945e+01 1.583435e+01 1.122159e+01 1.101002e+01 1.421775e+01 1.802789e+01 2.426631e+01 2.462641e+01 2.995954e+01 1.658699e+01 1.384399e+01 1.556091e+01 1.342461e+01 5.654670e+00 1.831924e+00 1.449908e+00 1.196473e+00 1.631980e+00 1.768719e+00 2.610485e+00 2.894657e+00 2.947405e+00 2.880400e+00 1.353217e+00 1.641953e+00 1.648560e+00 6.366839e-01 3.128945e-01 2.012543e-01 2.198419e-01 3.676820e-01 3.422281e-01 6.125766e-01 6.277631e-01 5.341151e-01 4.557439e-01 2.801259e-01 2.964835e-01 2.834822e-01
<GCONST> 1.059867e+02
<TRANSP> 5
 0.000000e+00 1.000000e+00 0.000000e+00 0.000000e+00 0.000000e+00
 0.000000e+00 8.928340e-01 1.071660e-01 0.000000e+00 0.000000e+00
 0.000000e+00 0.000000e+00 7.456657e-01 2.543343e-01 0.000000e+00
 0.000000e+00 0.000000e+00 0.000000e+00 8.930463e-01 1.069537e-01
 0.000000e+00 0.000000e+00 0.000000e+00 0.000000e+00 0.000000e+00
<ENDHMM>
~h "e"
<BEGINHMM>
<NUMSTATES> 5
<STATE> 2
<MEAN> 39
 -2.308511e+01 3.867359e+00 -5.393941e+00 -3.439009e+00 1.833051e+00 -1.159923e+01 5.670190e+00 9.987605e-01 7.469832e+00 -8.728755e-01 3.086983e+00 -5.785549e-01 6.045797e+01 3.659618e+00 -1.868178e+00 1.624383e+00 -1.066397e+00 -1.475876e+00 -1.606974e+00 -1.953862e+00 4.744411e-01 1.440728e-01 7.253904e-01 -5.591699e-01 -5.224627e-01 1.380816e+00 7.479056e-01 -4.762918e-01 4.229423e-01 -2.601534e-01 -2.533302e-01 4.499019e-02 -4.635930e-01 4.325410e-01 4.889550e-02 2.057100e-01 -1.291012e-01 -4.549307e-01 3.870772e-01
<VARIANCE> 39
 6.851848e+01 2.248398e+01 1.734461e+01 1.728360e+01 1.915476e+01 2.794616e+01 3.230815e+01 1.707897e+01 1.468378e+01 1.762919e+01 1.948874e+01 1.345105e+01 1.316676e+01 9.863943e+00 2.805161e+00 2.672829e+00 1.767952e+00 1.176747e+00 2.843872e+00 5.974491e+00 2.000830e+00 1.171049e+00 1.765334e+00 2.156301e+00 2.105530e+00 1.534412e+00 1.175149e+00 2.275277e-01 2.851645e-01 2.889988e-01 1.888717e-01 6.193415e-01 8.674651e-01 4.539326e-01 2.682982e-01 3.327830e-01 3.452715e-01 3.302147e-01 2.691042e-01
<GCONST> 1.094558e+02
<STATE> 3
<MEAN> 39
 -9.045076e+00 -4.095884e+00 8.493673e-01 -7.976953e+00 -3.722268e+00 -1.607934e+01 -2.334031e+00 4.379806e+00 8.087002e+00 2.463492e+00 8.647214e-01 -3.927540e+00 6.656237e+01 4.461272e+00 -3.295436e+00 2.209054e+00 -1.960389e+00 -1.981421e+00 -7.026842e-01 -2.517238e+00 2.548714e+00 5.038353e-01 1.151851e+00 -4.938233e-01 -1.607079e+00 2.401532e+00 -8.064556e-01 -2.338723e-02 -2.646563e-01 -3.717523e-02 9.507716e-02 6.772625e-01 6.352590e-01 6.121615e-01 1.933644e-01 -3.003076e-01 2.066320e-01 6.792438e-02 -8.039128e-02
<VARIANCE> 39
 7.858323e+01 3.921357e+01 2.033697e+01 1.760200e+01 2.067112e+01 1.484521e+01 4.792906e+01 3.608768e+01 1.095372e+01 1.808600e+01 1.465039e+01 1.566800e+01 2.798898e+01 5.245618e+00 1.168808e+00 1.702924e+00 1.534508e+00 8.458971e-01 2.953502e+00 4.281888e+00 3.326209e+00 1.077698e+00 1.524505e+00 1.573550e+00 1.179048e+00 1.526556e+00 1.168903e+00 3.664938e-01 3.622137e-01 2.772295e-01 2.007026e-01 4.254543e-01 1.013799e+00 5.951498e-01 2.093595e-01 3.627670e-01 3.041475e-01 3.954243e-01 4.721690e-01
<GCONST> 1.091549e+02
<STATE> 4
<MEAN> 39
 1.012957e+00 -1.154683e+01 5.238883e+00 -1.028836e+01 -5.425034e+00 -1.195683e+01 -8.961881e+00 1.099958e+01 9.785584e+00 1.819959e+00 2.368036e+00 -7.693584e+00 6.777631e+01 2.962850e-01 2.238332e-02 2.334053e-01 1.926908e-01 1.573958e-01 2.523396e-01 -2.470218e-01 -4.501946e-02 5.811662e-02 -1.241945e-01 -7.625448e-02 -5.995571e-02 -2.394845e-01 -1.330305e-01 1.718860e-01 -6.146982e-02 1.522900e-01 9.274051e-02 -2.016303e-03 7.970322e-02 -1.991863e-01 -4.684541e-02 -5.291716e-02 -2.479628e-02 8.557551e-02 -1.339216e-01
<VARIANCE> 39
 6.713564e+00 1.964253e+01 1.181293e+01 2.609916e+01 1.702548e+01 1.212182e+01 3.726437e+01 5.023409e+01 8.226472e+00 1.611152e+01 2.174963e+01 7.914934e+00 2.397547e+01 8.386241e-01 2.371472e+00 1.022322e+00 3.259357e+00 1.318191e+00 1.223989e+00 2.083741e+00 5.512559e+00 9.174465e-01 1.766924e+00 2.073110e+00 7.229842e-01 1.851258e+00 2.260218e-01 3.158557e-01 2.309306e-01 5.038422e-01 2.291216e-01 2.532356e-01 4.577721e-01 7.225428e-01 1.848810e-01 3.900910e-01 3.727836e-01 1.604411e-01 3.086277e-01
<GCONST> 9.931552e+01
<TRANSP> 5
 0.000000e+00 1.000000e+00 0.000000e+00 0.000000e+00 0.000000e+00
 0.000000e+00 6.642349e-01 3.357651e-01 0.000000e+00 0.000000e+00
 0.000000e+00 0.000000e+00 6.100553e-01 3.899447e-01 0.000000e+00
 0.000000e+00 0.000000e+00 0.000000e+00 9.459867e-01 5.401329e-02
 0.000000e+00 0.000000e+00 0.000000e+00 0.000000e+00 0.000000e+00
<ENDHMM>
~h "f"
<BEGINHMM>
<NUMSTATES> 5
<STATE> 2
<MEAN> 39
 -1.372162e+01 -1.912267e+00 -1.143188e+00 -1.718033e-01 2.459360e+00 -2.757679e+00 5.514037e+00 9.357741e-01 4.310700e+00 -2.375112e-01 3.440999e+00 -8.601087e-01 5.227253e+01 -1.725336e-01 -4.645275e-01 -3.394862e-01 -4.082640e-01 -2.655254e-02 2.359338e-01 -1.345511e-01 2.506478e-01 -1.259317e-01 1.887497e-01 1.273190e-01 3.799440e-02 -3.322668e-04 -1.051274e-02 1.263221e-02 9.382769e-02 7.551561e-02 -2.373952e-02 2.403794e-02 -1.079189e-01 2.090239e-02 9.218574e-03 -2.830870e-02 -1.151130e-01 -6.614161e-02 -3.857168e-02
<VARIANCE> 39
 5.781406e+01 2.176126e+01 2.286963e+01 2.437286e+01 1.109763e+01 3.984869e+01 3.449038e+01 2.110115e+01 1.909266e+01 1.305512e+01 2.086957e+01 1.502401e+01 4.285523e+01 1.557970e+00 7.867736e-01 1.216897e+00 1.901464e+00 7.881794e-01 1.638977e+00 1.560230e+00 1.994366e+00 2.170383e+00 1.518349e+00 2.002156e+00 1.430093e+00 1.158735e+00 3.280331e-01 2.097309e-01 2.020348e-01 3.532536e-01 1.742965e-01 2.988676e-01 3.004605e-01 3.068895e-01 3.874531e-01 3.167010e-01 3.617764e-01 3.306226e-01 1.284723e-01
<GCONST> 1.007410e+02
<STATE> 3
<MEAN> 39
 -1.429149e+01 -3.119516e+00 -1.629016e+00 -2.346061e-01 2.247640e+00 -1.868015e+00 4.703314e+00 1.636125e+00 4.217543e+00 1.060267e-01 3.317336e+00 -8.523656e-01 5.169858e+01 -3.284053e-01 -3.245524e-01 -1.058273e-01 -2.473990e-02 -1.328084e-02 1.771325e-01 -2.403906e-01 3.672356e-01 1.491520e-01 1.119966e-01 -7.767390e-02 -2.953396e-02 -5.939833e-02 -2.417249e-02 4.246724e-02 6.972002e-02 1.107458e-01 1.168025e-02 -3.626622e-02 -3.400547e-02 -1.524298e-03 8.872291e-02 -4.391275e-02 -3.623644e-02 1.106401e-04 -1.014321e-02
<VARIANCE> 39
 4.041314e+01 1.520703e+01 1.889684e+01 2.745456e+01 1.219945e+01 4.001368e+01 3.457307e+01 1.977205e+01 2.059951e+01 1.442056e+01 1.965973e+01 1.240928e+01 3.141593e+01 1.809948e+00 7.123289e-01 9.603446e-01 2.177058e+00 9.861298e-01 1.512341e+00 1.309294e+00 1.592393e+00 1.879428e+00 1.527984e+00 1.493299e+00 1.524598e+00 1.053840e+00 2.723533e-01 1.210307e-01 2.049811e-01 4.284485e-01 2.111553e-01 2.836655e-01 2.641348e-01 3.364578e-01 3.828468e-01 3.066557e-01 3.464286e-01 3.002938e-01 1.236623e-01
<GCONST> 9.818602e+01
<STATE> 4
<MEAN> 39
 -1.595221e+01 -4.623223e+00 -2.177565e+00 4.119981e-01 2.076458e+00 -1.291167e+00 2.984230e+00 2.738651e+00 5.461723e+00 2.039180e-01 3.943364e+00 -6.922638e-01 5.183440e+01 -1.923837e-01 -1.932697e-01 -1.213257e-01 -7.934276e-02 -1.808916e-01 -4.964154e-02 -3.015742e-01 1.024779e-01 1.345331e-01 -1.834654e-02 8.720793e-02 3.212158e-02 1.815627e-01 9.053134e-02 3.467319e-02 -3.049996e-03 -4.038329e-02 -4.764841e-02 -3.059955e-02 4.218698e-03 -9.350574e-02 -4.081778e-02 -3.755423e-02 1.812016e-02 8.703096e-03 3.532083e-02
<VARIANCE> 39
 2.342863e+01 1.098566e+01 1.739811e+01 2.130268e+01 1.364784e+01 2.441550e+01 3.191073e+01 1.737950e+01 1.870691e+01 1.522929e+01 1.889053e+01 1.007812e+01 2.448079e+01 1.920832e+00 5.607489e-01 1.139075e+00 2.130244e+00 1.295735e+00 1.532888e+00 1.354169e+00 1.790708e+00 1.900735e+00 1.528283e+00 1.526804e+00 1.158640e+00 9.691873e-01 2.604971e-01 1.138601e-01 2.044386e-01 3.638048e-01 2.561778e-01 2.814518e-01 2.828331e-01 3.482393e-01 3.790096e-01 3.024861e-01 3.207046e-01 2.530564e-01 7.661569e-02
<GCONST> 9.519704e+01
<TRANSP> 5
 0.000000e+00 1.000000e+00 0.000000e+00 0.000000e+00 0.000000e+00
 0.000000e+00 6.107808e-01 3.892193e-01 0.000000e+00 0.000000e+00
 0.000000e+00 0.000000e+00 6.451626e-01 3.548374e-01 0.000000e+00
 0.000000e+00 0.000000e+00 0.000000e+00 8.509275e-01 1.490725e-01
 0.000000e+00 0.000000e+00 0.000000e+00 0.000000e+00 0.000000e+00
<ENDHMM>
~h "i"
<BEGINHMM>
<NUMSTATES> 5
<STATE> 2
<MEAN> 39
 -4.397220e+00 -6.435341e+00 2.304601e+01 -6.499400e+00 -1.279686e+01 -6.147695e+00 -8.399822e+00 -3.032927e+00 -4.066029e+00 -4.748057e+00 8.511038e+00 -3.994112e+00 5.906657e+01 -3.954853e-01 5.569288e-01 2.360385e-02 -2.073075e-01 5.056440e-01 4.567174e-01 4.660860e-02 -2.275282e-01 1.797162e-01 1.166349e-01 -3.814130e-01 -2.651862e-01 -4.106653e-01 5.271412e-02 -2.859256e-02 -1.652945e-01 9.952563e-02 5.057208e-02 -9.629929e-02 -3.681085e-02 1.045349e-01 6.717871e-02 -7.185939e-02 4.943760e-02 3.721412e-02 -1.700257e-02
<VARIANCE> 39
 1.937841e+01 2.969888e+01 1.435711e+02 4.850537e+01 7.347373e+01 1.248428e+01 4.286108e+01 1.457994e+01 3.381581e+01 1.790939e+01 3.847678e+01 3.135735e+01 7.291283e+01 2.540914e-01 6.014907e-01 1.934743e+00 1.474887e+00 1.092176e+00 1.235587e+00 1.849199e+00 1.277287e+00 1.394614e+00 1.425455e+00 1.087584e+00 8.227522e-01 2.722551e-01 3.227256e-02 6.700424e-02 1.424198e-01 1.175577e-01 2.218729e-01 2.079728e-01 3.935939e-01 2.742782e-01 2.987787e-01 3.374159e-01 1.876150e-01 1.205367e-01 2.275392e-02
<GCONST> 9.214024e+01
<STATE> 3
<MEAN> 39
 -5.686121e+00 -3.897842e+00 2.061418e+01 -5.051552e+00 -9.796395e+00 -4.408864e+00 -6.616364e+00 -3.136734e+00 -1.867419e+00 -4.155477e+00 7.655218e+00 -3.833555e+00 5.587826e+01 -2.173075e-01 4.553584e-01 -4.094631e-01 4.496558e-02 5.180277e-01 2.683932e-01 1.447092e-01 -5.872138e-02 1.601789e-01 -7.978542e-03 -1.523642e-01 -1.480404e-01 -4.361413e-01 3.482182e-02 -2.501160e-02 -1.222418e-01 6.421769e-02 1.364411e-02 -5.614603e-02 4.732891e-02 1.927544e-02 -1.604547e-02 -9.664983e-03 -4.853578e-03 2.723190e-02 -1.558146e-02
<VARIANCE> 39
 1.893532e+01 1.778607e+01 1.806666e+02 5.398436e+01 8.702879e+01 1.413034e+01 5.723922e+01 1.604903e+01 2.911931e+01 1.953754e+01 4.184751e+01 2.199708e+01 8.372668e+01 2.045929e-01 6.463596e-01 1.356377e+00 1.037465e+00 9.915209e-01 1.200159e+00 1.790746e+00 1.317218e+00 1.282786e+00 1.122235e+00 1.003638e+00 8.292251e-01 2.159349e-01 2.912669e-02 7.335165e-02 1.303062e-01 1.195578e-01 1.793851e-01 2.655214e-01 3.998103e-01 2.794387e-01 2.440114e-01 2.251833e-01 1.901860e-01 1.318409e-01 2.117409e-02
<GCONST> 9.022552e+01
<STATE> 4
<MEAN> 39
 -5.011230e+00 6.105300e-01 1.615610e+01 -1.316346e+00 -5.109279e+00 -2.214018e+00 -3.032885e+00 -3.660333e+00 -5.226357e-01 -4.647943e+00 4.754448e+00 -4.660128e+00 5.205734e+01 -2.560076e-01 1.861687e-01 -9.649447e-01 5.533523e-01 7.924437e-01 1.425613e-01 6.148657e-01 -3.203316e-02 2.344267e-01 1.027412e-01 -5.448740e-01 1.740531e-02 -6.771819e-01 -8.583738e-03 -3.021144e-02 1.134609e-02 -2.110237e-03 -9.567401e-03 -1.439631e-02 1.445726e-02 2.898595e-02 1.433983e-02 2.412435e-02 2.341093e-02 2.277462e-02 7.311018e-03
<VARIANCE> 39
 1.078078e+01 1.610365e+01 1.025101e+02 5.615191e+01 7.923333e+01 1.620033e+01 5.297046e+01 2.235733e+01 2.268942e+01 1.573995e+01 4.685592e+01 1.599350e+01 5.609926e+01 2.657772e-01 7.011521e-01 1.306340e+00 1.350731e+00 1.416062e+00 1.456673e+00 1.352638e+00 1.338571e+00 1.193495e+00 1.122269e+00 1.253222e+00 1.006594e+00 3.821536e-01 4.519398e-02 8.860177e-02 1.910227e-01 2.214061e-01 2.611966e-01 3.441358e-01 2.825903e-01 2.433005e-01 2.083200e-01 2.260946e-01 2.087846e-01 2.045667e-01 4.566281e-02
<GCONST> 9.295365e+01
<TRANSP> 5
 0.000000e+00 1.000000e+00 0.000000e+00 0.000000e+00 0.000000e+00
 0.000000e+00 8.885660e-01 1.114340e-01 0.000000e+00 0.000000e+00
 0.000000e+00 0.000000e+00 8.660437e-01 1.339563e-01 0.000000e+00
 0.000000e+00 0.000000e+00 0.000000e+00 9.463671e-01 5.363287e-02
 0.000000e+00 0.000000e+00 0.000000e+00 0.000000e+00 0.000000e+00
<ENDHMM>
~h "k"
<BEGINHMM>
<NUMSTATES> 5
<STATE> 2
<MEAN> 39
 -1.591090e+01 -1.129382e+00 -4.251890e-03 -4.249108e+00 -3.206960e+00 -1.340835e+01 3.397424e+00 2.468981e-01 1.510990e+00 -2.676106e+00 5.570261e+00 -5.663888e-01 5.951476e+01 -5.704138e-01 2.416989e-01 -4.551062e-01 1.017452e-01 5.495688e-02 -3.443321e-01 2.002998e-01 8.567851e-02 2.629171e-01 -2.345305e-02 -6.196403e-02 5.939085e-02 4.125381e-01 -7.677924e-02 6.181750e-02 8.738560e-03 1.398931e-02 -1.624496e-02 5.333922e-02 2.998577e-02 7.275536e-03 4.831101e-05 -1.490761e-02 1.880651e-02 -6.065993e-02 -3.024511e-02
<VARIANCE> 39
 9.517026e+01 4.826228e+01 1.261904e+02 2.429037e+01 8.960278e+01 2.422001e+01 3.181144e+01 2.000443e+01 1.715051e+01 1.284057e+01 2.615210e+01 2.242271e+01 3.446128e+01 5.528395e+00 3.464456e+00 6.809368e+00 2.002024e+00 3.676017e+00 2.516949e+00 2.762620e+00 2.438493e+00 1.673169e+00 1.259236e+00 2.060549e+00 2.280534e+00 2.455796e+00 5.637699e-01 4.912978e-01 8.161702e-01 3.470106e-01 3.871312e-01 5.140316e-01 4.833961e-01 4.160744e-01 2.912594e-01 2.776882e-01 3.368160e-01 4.410661e-01 3.817459e-01
<GCONST> 1.193244e+02
<STATE> 3
<MEAN> 39
 -2.050522e+01 9.754167e-01 -5.136703e+00 -5.839518e-01 -1.108114e+00 -1.485998e+01 7.658297e+00 1.250542e+00 2.927793e+00 -4.427039e+00 3.058267e+00 -2.184042e-01 6.051721e+01 -1.689194e+00 1.277075e+00 -9.290231e-01 6.785651e-02 7.873257e-01 5.040182e-01 7.774635e-01 5.281417e-02 3.027560e-01 -2.738962e-01 -2.258793e-01 4.560910e-02 -1.087838e-01 3.660888e-01 -2.140237e-01 2.292370e-01 -1.320921e-01 -1.195454e-02 2.070050e-01 -2.184328e-01 2.496366e-02 -1.096950e-01 9.390321e-02 5.357373e-02 -9.052668e-02 -1.350150e-01
<VARIANCE> 39
 6.842966e+01 3.507568e+01 8.895428e+01 1.278610e+01 4.608919e+01 2.806556e+01 2.898465e+01 1.782957e+01 1.607716e+01 2.430496e+01 1.964300e+01 1.456638e+01 1.764400e+01 3.504927e+00 2.848534e+00 3.413878e+00 7.742357e-01 1.722734e+00 2.136726e+00 2.465975e+00 2.065017e+00 1.759778e+00 1.771236e+00 1.258207e+00 1.425315e+00 1.342757e+00 5.092186e-01 5.244661e-01 5.673717e-01 1.449039e-01 2.872713e-01 4.020745e-01 4.814111e-01 5.203674e-01 3.243354e-01 3.422331e-01 2.671581e-01 2.860419e-01 2.459009e-01
<GCONST> 1.090902e+02
<STATE> 4
<MEAN> 39
 -2.172531e+01 2.320558e+00 -6.684125e+00 -3.985350e+00 5.835551e+00 -8.469550e+00 9.902803e+00 1.741738e+00 4.572549e+00 -2.466731e+00 9.596717e-01 -7.016330e-01 5.496570e+01 4.142647e-01 -2.157774e-01 2.104713e-01 -1.677518e-01 2.595801e-01 4.043377e-01 -2.797058e-02 -4.052305e-02 -5.709967e-02 1.205539e-01 -8.611981e-02 -3.734707e-02 -4.438868e-01 6.115767e-02 -5.480751e-02 4.026550e-02 2.486522e-02 -3.427143e-02 -3.897669e-03 -2.107672e-02 -5.233502e-03 5.956064e-03 -1.352981e-02 3.767855e-03 2.726992e-03 -9.268050e-03
<VARIANCE> 39
 5.054642e+01 3.039895e+01 4.883579e+01 2.324817e+01 2.704423e+01 4.578444e+01 2.065332e+01 1.643962e+01 1.677751e+01 2.623632e+01 1.995921e+01 1.337470e+01 3.678370e+01 1.197304e+00 1.066807e+00 1.072204e+00 1.162376e+00 1.494095e+00 1.703559e+00 1.632319e+00 1.603567e+00 1.765505e+00 1.597783e+00 1.364116e+00 1.492420e+00 5.967354e-01 1.623547e-01 1.773618e-01 1.824884e-01 2.274145e-01 2.810860e-01 3.043719e-01 3.093907e-01 3.109339e-01 3.588802e-01 2.907394e-01 2.549729e-01 3.366950e-01 8.892534e-02
<GCONST> 9.920583e+01
<TRANSP> 5
 0.000000e+00 1.000000e+00 0.000000e+00 0.000000e+00 0.000000e+00
 0.000000e+00 9.428878e-01 5.711218e-02 0.000000e+00 0.000000e+00
 0.000000e+00 0.000000e+00 7.382311e-01 2.617689e-01 0.000000e+00
 0.000000e+00 0.000000e+00 0.000000e+00 9.597982e-01 4.020186e-02
 0.000000e+00 0.000000e+00 0.000000e+00 0.000000e+00 0.000000e+00
<ENDHMM>
~h "n"
<BEGINHMM>
<NUMSTATES> 5
<STATE> 2
<MEAN> 39
 -4.153175e+00 -2.210029e+00 5.268535e+00 1.838448e-01 2.245754e+00 -2.905157e+00 -3.135548e-02 -1.250042e+00 2.808875e+00 -3.403616e+00 -2.368951e+00 -5.759504e+00 5.182711e+01 -3.661741e-01 2.133878e-01 -2.047809e-03 4.360425e-01 1.426858e-02 1.822544e-01 4.158018e-01 -1.434810e-01 1.881510e-01 1.161360e-01 4.035731e-02 1.241896e-02 -4.559817e-01 4.023027e-03 -1.872653e-02 -9.786234e-03 -4.274839e-02 5.431286e-02 1.132179e-02 -5.506695e-02 4.836751e-02 2.568547e-03 6.566480e-03 6.749265e-03 -1.607870e-02 4.657724e-02
<VARIANCE> 39
 1.778001e+01 3.484939e+01 2.730618e+01 4.603048e+01 4.814697e+01 3.017602e+01 3.934002e+01 3.586342e+01 2.367944e+01 1.797120e+01 2.861275e+01 1.657850e+01 6.085508e+01 9.418563e-01 1.313089e+00 1.431985e+00 2.576847e+00 2.031325e+00 1.786787e+00 2.752155e+00 2.691040e+00 1.856011e+00 1.687106e+00 2.047039e+00 1.395235e+00 9.376537e-01 1.234394e-01 1.911300e-01 2.726591e-01 4.958207e-01 4.144669e-01 3.121649e-01 4.894591e-01 5.156345e-01 4.076456e-01 3.671168e-01 4.020502e-01 3.070606e-01 1.043210e-01
<GCONST> 1.076146e+02
<STATE> 3
<MEAN> 39
 -6.270387e+00 -1.039349e+00 4.396228e+00 2.191089e+00 4.044932e+00 -1.273188e+00 2.516458e+00 -1.508687e+00 3.868796e+00 -2.465718e+00 -2.070857e+00 -5.243583e+00 4.853978e+01 -3.415568e-01 5.993754e-03 -3.883367e-02 1.821234e-01 4.410167e-02 1.884472e-01 3.246039e-01 3.589294e-02 9.274428e-02 1.176449e-01 1.474227e-01 5.823457e-02 -2.497379e-01 3.247342e-02 -3.536974e-02 -3.079382e-02 -6.816621e-02 -5.213313e-03 -4.984861e-02 -5.343435e-02 2.993745e-03 -4.258434e-02 -4.312131e-05 1.831542e-02 1.990853e-02 5.349209e-02
<VARIANCE> 39
 1.859591e+01 1.420586e+01 2.130666e+01 2.982341e+01 2.480059e+01 3.066682e+01 3.557454e+01 2.455005e+01 1.941080e+01 1.478832e+01 1.959512e+01 1.501143e+01 2.868047e+01 1.022418e+00 1.024701e+00 1.311623e+00 2.056066e+00 1.696250e+00 1.929159e+00 2.571772e+00 2.096686e+00 1.772182e+00 1.419304e+00 1.556800e+00 1.442808e+00 1.050641e+00 1.507306e-01 1.794204e-01 2.287380e-01 4.097674e-01 3.156364e-01 3.421290e-01 4.438938e-01 3.834708e-01 3.642570e-01 2.950460e-01 3.033071e-01 2.706844e-01 1.070105e-01
<GCONST> 1.005654e+02
<STATE> 4
<MEAN> 39
 -7.740281e+00 -2.792178e+00 2.383955e+00 1.177915e+00 3.156118e+00 -5.022834e-01 3.937863e+00 -1.905352e+00 4.839766e+00 -1.060867e+00 -1.381761e+00 -3.596114e+00 4.835398e+01 -7.508144e-02 -1.615244e-01 -5.870296e-02 -2.921593e-02 -8.728226e-02 -1.737388e-02 4.032744e-02 -1.631767e-02 6.583783e-02 1.619759e-01 5.900668e-02 1.183816e-01 1.155330e-01 1.519767e-02 -3.395161e-02 -1.679629e-02 -7.324205e-02 2.985088e-03 -3.284065e-02 -5.122529e-02 3.539099e-02 -3.000982e-02 1.096363e-02 1.096384e-02 5.725410e-03 6.954145e-02
<VARIANCE> 39
 2.158742e+01 2.486881e+01 3.866602e+01 4.006044e+01 3.504046e+01 3.251342e+01 3.685517e+01 2.156964e+01 2.257017e+01 1.640928e+01 1.865348e+01 2.027655e+01 3.091316e+01 1.220798e+00 1.213780e+00 2.045495e+00 2.498155e+00 1.694553e+00 2.229512e+00 2.708661e+00 1.820297e+00 1.810286e+00 1.541003e+00 1.807914e+00 1.719008e+00 1.797346e+00 1.992436e-01 2.532462e-01 3.991274e-01 4.905440e-01 3.160442e-01 4.728668e-01 5.219802e-01 3.346919e-01 3.396520e-01 2.942398e-01 3.358025e-01 3.211780e-01 2.304959e-01
<GCONST> 1.077406e+02
<TRANSP> 5
 0.000000e+00 1.000000e+00 0.000000e+00 0.000000e+00 0.000000e+00
 0.000000e+00 7.369039e-01 2.630961e-01 0.000000e+00 0.000000e+00
 0.000000e+00 0.000000e+00 7.245399e-01 2.754601e-01 0.000000e+00
 0.000000e+00 0.000000e+00 0.000000e+00 8.309848e-01 1.690152e-01
 0.000000e+00 0.000000e+00 0.000000e+00 0.000000e+00 0.000000e+00
<ENDHMM>
~h "o"
<BEGINHMM>
<NUMSTATES> 5
<STATE> 2
<MEAN> 39
 7.469903e+00 -1.045887e+01 -4.864389e+00 -1.823564e+00 -5.725539e+00 -9.287150e+00 -1.976135e+01 2.151807e-01 8.694018e+00 1.794397e+00 1.026044e+01 2.293854e+00 6.521553e+01 -1.165939e-01 -6.510484e-02 -1.932583e-01 -5.791205e-01 -2.752593e-01 -3.892286e-02 2.069181e-02 8.554342e-01 3.914456e-01 4.452384e-01 3.588139e-01 -3.345428e-01 1.586803e-01 -4.627611e-02 -2.403750e-04 1.649132e-01 -6.435864e-02 -3.257049e-02 1.421617e-02 9.906141e-02 4.886526e-02 -1.512457e-01 -3.752070e-02 9.860037e-02 -9.041715e-02 -1.214144e-02
<VARIANCE> 39
 5.071388e+00 1.603812e+01 1.363251e+01 2.477284e+01 1.553094e+01 2.352862e+01 2.678975e+01 7.273828e+01 5.213568e+01 2.195257e+01 3.103600e+01 2.339510e+01 1.488743e+01 2.444627e-01 7.990032e-01 1.440005e+00 7.829435e-01 1.317447e+00 1.034185e+00 1.349685e+00 2.913833e+00 4.232337e+00 1.187063e+00 1.849327e+00 1.316857e+00 2.793241e-01 3.186180e-02 1.134920e-01 1.488520e-01 1.155142e-01 2.173383e-01 1.788420e-01 2.038460e-01 3.851263e-01 4.588313e-01 1.966476e-01 2.707480e-01 1.829015e-01 2.762874e-02
<GCONST> 8.862195e+01
<STATE> 3
<MEAN> 39
 6.129648e+00 -8.594401e+00 -3.500493e+00 -8.790596e+00 -6.266343e+00 -7.092775e+00 -1.635131e+01 3.346906e+00 1.917652e+00 2.951681e+00 1.600639e+01 -6.376376e-01 6.492622e+01 -1.010475e-01 6.449495e-01 1.115027e-01 -6.162215e-01 2.016326e-01 3.723365e-01 6.638933e-01 -3.828086e-01 -1.124662e+00 -2.125175e-01 4.471303e-01 -2.991024e-02 -4.388358e-01 -9.473782e-03 6.514801e-02 -1.454205e-03 7.577301e-02 4.659783e-02 2.252411e-02 6.443079e-02 -1.155490e-01 -3.253475e-02 -7.346647e-02 -9.604830e-02 5.689064e-02 -6.910631e-02
<VARIANCE> 39
 5.736426e+00 3.309632e+01 9.556482e+00 3.455637e+01 1.223580e+01 2.163226e+01 3.977577e+01 5.362731e+01 9.843201e+01 3.343600e+01 3.720069e+01 2.667850e+01 2.777586e+01 3.036155e-01 8.222361e-01 6.070200e-01 9.875352e-01 1.066449e+00 1.034589e+00 1.319946e+00 2.432458e+00 2.301214e+00 1.930017e+00 1.993252e+00 1.271633e+00 3.250490e-01 3.839161e-02 9.630648e-02 9.345505e-02 1.267413e-01 1.837905e-01 1.716281e-01 2.310562e-01 2.749908e-01 2.897867e-01 2.742271e-01 2.673010e-01 1.900069e-01 1.974146e-02
<GCONST> 8.926707e+01
<STATE> 4
<MEAN> 39
 -3.232945e-01 2.291506e-01 -3.702963e-01 -5.457479e+00 -1.171078e+00 -3.650832e+00 -3.804407e+00 -5.028833e+00 -3.571889e+00 -1.289943e+00 1.014996e+01 4.102250e-01 5.244426e+01 -6.769894e-01 1.479491e-01 2.758879e-01 5.475459e-01 3.235491e-01 1.167918e-01 6.065097e-01 -1.408588e-01 2.366062e-01 -5.751554e-02 -7.026374e-01 -6.243010e-02 -6.820084e-01 -2.678638e-02 -6.867732e-02 -1.644229e-03 -1.289566e-03 -1.147212e-02 -2.733652e-02 -4.666879e-02 8.632284e-02 7.890511e-02 3.366176e-02 -9.349243e-03 -2.175839e-02 4.551004e-02
<VARIANCE> 39
 4.472695e+01 1.916323e+01 1.579170e+01 5.574871e+01 1.951288e+01 1.501605e+01 5.465708e+01 3.159352e+01 6.166000e+01 2.515869e+01 5.972628e+01 1.723830e+01 4.951202e+01 5.473440e-01 9.880583e-01 7.452862e-01 1.488310e+00 1.192668e+00 1.433414e+00 1.814467e+00 2.111717e+00 2.106086e+00 1.840448e+00 2.120131e+00 1.450951e+00 3.949108e-01 6.322790e-02 1.171617e-01 1.307230e-01 2.457152e-01 2.492987e-01 2.754275e-01 3.293964e-01 3.638647e-01 2.875770e-01 3.379280e-01 3.855441e-01 2.955346e-01 5.086107e-02
<GCONST> 9.882388e+01
<TRANSP> 5
 0.000000e+00 1.000000e+00 0.000000e+00 0.000000e+00 0.000000e+00
 0.000000e+00 9.077200e-01 9.227998e-02 0.000000e+00 0.000000e+00
 0.000000e+00 0.000000e+00 8.944336e-01 1.055664e-01 0.000000e+00
 0.000000e+00 0.000000e+00 0.000000e+00 9.489763e-01 5.102370e-02
 0.000000e+00 0.000000e+00 0.000000e+00 0.000000e+00 0.000000e+00
<ENDHMM>
~h "r"
<BEGINHMM>
<NUMSTATES> 5
<STATE> 2
<MEAN> 39
 1.659336e+00 -9.941067e+00 2.250835e+00 1.467485e+00 -3.488076e+00 -9.823895e+00 -1.256384e+01 -1.857714e+00 6.046860e+00 -1.967308e+00 7.793332e+00 1.228947e+00 6.055537e+01 1.101215e+00 9.783525e-02 1.121994e-01 1.065611e-01 -2.007590e-01 1.553852e-01 -3.934417e-01 -6.052672e-01 -4.782235e-01 -3.494003e-01 2.416373e-01 6.130306e-01 2.998980e-03 -3.273334e-01 -4.995476e-02 3.337871e-01 -1.394727e-01 -3.303236e-01 -8.895379e-02 2.580915e-01 3.093260e-01 -1.898255e-01 -5.799874e-02 1.694865e-01 -3.315556e-02 5.867538e-02
<VARIANCE> 39
 7.843839e+01 2.723598e+01 4.959171e+01 1.051558e+01 3.323980e+01 3.838140e+01 8.116024e+01 3.504261e+01 3.699731e+01 2.730483e+01 1.931700e+01 1.515435e+01 4.162231e+01 3.895138e+00 2.172898e+00 6.614499e+00 9.862381e-01 4.823572e+00 2.985583e+00 3.183692e+00 6.027413e+00 3.190520e+00 3.646411e+00 2.040214e+00 1.562577e+00 9.296582e-01 5.952125e-01 3.779469e-01 2.780679e-01 1.910195e-01 3.561579e-01 4.414582e-01 6.531740e-01 9.655427e-01 7.995548e-01 4.932296e-01 3.732206e-01 3.594165e-01 1.044359e-01
<GCONST> 1.182675e+02
<STATE> 3
<MEAN> 39
 3.635858e+00 -1.025541e+01 5.597781e+00 1.539162e+00 -6.448615e+00 -1.016686e+01 -1.216229e+01 -1.526033e+00 3.854708e+00 -3.882758e+00 9.467981e+00 2.481775e+00 6.112626e+01 2.716010e-02 6.163907e-02 4.565865e-01 -2.774701e-01 -6.449906e-01 2.400197e-01 2.794939e-01 -2.281156e-01 -8.078169e-01 7.886603e-02 4.883780e-01 3.213120e-01 -2.796698e-02 -2.054226e-01 5.293166e-02 1.241589e-01 -1.481736e-01 -4.933713e-02 -2.422003e-02 4.947663e-02 1.090329e-01 7.918495e-02 9.071587e-02 -8.130264e-02 -1.158894e-01 5.225222e-02
<VARIANCE> 39
 4.842076e+01 2.835659e+01 8.174722e+01 1.283629e+01 5.599601e+01 3.926546e+01 8.248409e+01 4.052026e+01 4.357708e+01 2.962074e+01 2.316508e+01 1.226894e+01 4.576182e+01 1.501896e+00 1.524789e+00 7.912008e+00 1.195953e+00 4.631959e+00 2.433672e+00 3.174294e+00 4.609333e+00 4.044848e+00 2.969493e+00 2.118108e+00 1.553885e+00 4.621335e-01 1.884850e-01 2.376017e-01 3.076173e-01 1.796270e-01 4.289292e-01 5.299413e-01 5.942991e-01 9.364965e-01 8.280544e-01 6.297657e-01 4.140115e-01 2.717836e-01 6.245244e-02
<GCONST> 1.157126e+02
<STATE> 4
<MEAN> 39
 2.612065e+00 -9.323884e+00 7.416440e+00 -9.121240e-02 -7.941816e+00 -8.665767e+00 -1.112244e+01 -2.592986e+00 1.619277e+00 -2.921341e+00 1.020045e+01 2.250910e+00 6.066469e+01 -1.869466e-01 4.373032e-01 -5.743064e-02 -5.460953e-01 1.720164e-02 5.525817e-01 -1.256299e-01 -5.159462e-01 -6.062170e-02 4.608614e-01 -2.321903e-01 5.036092e-02 -1.133785e-01 -4.789367e-02 7.575700e-04 -4.351286e-02 -2.315806e-02 1.020382e-01 -1.097604e-01 -1.660922e-01 1.690000e-01 4.405314e-01 6.239831e-03 -2.567540e-01 -7.798193e-02 8.024007e-02
<VARIANCE> 39
 4.935575e+01 2.647132e+01 1.533491e+02 1.704513e+01 8.017395e+01 3.209750e+01 8.626573e+01 3.291475e+01 4.227044e+01 2.749025e+01 2.675667e+01 1.229608e+01 5.040514e+01 6.926924e-01 8.351430e-01 4.997534e+00 1.381748e+00 2.175113e+00 1.836584e+00 2.519789e+00 2.538844e+00 3.960903e+00 2.169256e+00 1.670316e+00 1.420737e+00 3.041618e-01 5.708854e-02 1.792705e-01 3.094152e-01 1.699416e-01 4.233811e-01 4.205170e-01 5.790829e-01 5.568433e-01 6.970027e-01 5.470713e-01 3.898689e-01 2.067640e-01 5.847461e-02
<GCONST> 1.090436e+02
<TRANSP> 5
 0.000000e+00 1.000000e+00 0.000000e+00 0.000000e+00 0.000000e+00
 0.000000e+00 5.250927e-01 4.749072e-01 0.000000e+00 0.000000e+00
 0.000000e+00 0.000000e+00 4.555799e-01 5.444201e-01 0.000000e+00
 0.000000e+00 0.000000e+00 0.000000e+00 4.126801e-01 5.873200e-01
 0.000000e+00 0.000000e+00 0.000000e+00 0.000000e+00 0.000000e+00
<ENDHMM>
~h "s"
<BEGINHMM>
<NUMSTATES> 5
<STATE> 2
<MEAN> 39
 -1.358905e+01 5.017686e-01 -3.596593e-02 -1.722021e+00 5.783502e+00 -4.160835e+00 5.015111e+00 -1.678134e-01 3.307337e+00 -1.081366e+00 1.258637e+00 -1.532585e+00 5.035188e+01 -9.214131e-01 2.250859e-01 -1.694438e-01 -5.119774e-01 8.304307e-01 -1.101488e+00 1.721592e-02 3.251807e-01 1.838874e-01 2.002219e-01 -1.846935e-01 -1.442506e-02 5.169164e-01 -3.008738e-01 2.790439e-01 -1.305997e-01 -4.394274e-02 1.314685e-01 -2.369826e-01 1.100920e-01 -7.715020e-02 8.666310e-02 -4.187111e-03 7.888589e-02 -4.436725e-02 2.218255e-01
<VARIANCE> 39
 6.575443e+01 1.940898e+01 4.887646e+01 2.591540e+01 2.554173e+01 4.295509e+01 5.283718e+01 2.365061e+01 2.927668e+01 2.404134e+01 2.369714e+01 1.116971e+01 4.199535e+01 2.941228e+00 1.916572e+00 1.795403e+00 2.151488e+00 2.398302e+00 4.321859e+00 2.920785e+00 2.357527e+00 1.566709e+00 2.999192e+00 2.048294e+00 1.439167e+00 1.267511e+00 4.162434e-01 3.841693e-01 3.023352e-01 2.775419e-01 4.021326e-01 5.221617e-01 4.357140e-01 5.366252e-01 3.371614e-01 4.886420e-01 2.468048e-01 2.696391e-01 1.707762e-01
<GCONST> 1.125852e+02
<STATE> 3
<MEAN> 39
 -1.689843e+01 2.523611e+00 -1.042398e+00 -2.801037e+00 7.980696e+00 -7.216243e+00 5.324187e+00 6.046957e-02 3.600897e+00 -6.449855e-01 1.061173e+00 -2.045670e+00 5.222672e+01 -1.594688e+00 8.349450e-01 -6.201254e-01 -3.512745e-01 6.125042e-01 -1.031946e+00 3.249787e-01 -6.742147e-04 2.992634e-01 -2.216867e-02 3.661242e-02 -4.653596e-02 8.304457e-01 -1.773971e-01 1.939152e-01 -1.028062e-01 1.447444e-01 -1.473379e-01 1.685406e-01 1.066059e-01 -7.764128e-02 5.478839e-02 -1.399638e-01 7.034914e-02 3.355991e-02 7.354191e-02
<VARIANCE> 39
 7.332259e+01 3.191681e+01 4.144324e+01 2.436981e+01 3.116578e+01 4.185200e+01 5.582883e+01 2.407588e+01 3.555890e+01 3.356439e+01 1.763110e+01 1.362095e+01 3.096249e+01 4.527109e+00 2.548659e+00 1.742381e+00 2.266820e+00 3.047699e+00 4.393887e+00 3.377151e+00 3.616489e+00 2.289528e+00 2.859074e+00 1.734813e+00 1.732859e+00 1.429883e+00 6.215833e-01 4.285495e-01 2.194505e-01 3.036435e-01 4.269916e-01 6.342897e-01 5.968576e-01 5.448461e-01 4.128124e-01 7.409576e-01 2.927618e-01 3.345894e-01 1.148163e-01
<GCONST> 1.168489e+02
<STATE> 4
<MEAN> 39
 -2.595939e+01 7.183130e+00 -5.184319e+00 -1.759196e+00 6.759579e+00 -8.317015e+00 7.306024e+00 -9.409562e-02 4.955313e+00 -2.097192e+00 2.512702e+00 -1.729339e+00 5.665565e+01 -3.987915e-01 -1.251055e-02 -2.269665e-01 -3.235359e-02 -5.295894e-01 -8.166745e-02 7.853236e-02 1.046053e-02 1.588734e-01 -1.139776e-01 1.860290e-01 1.571408e-01 5.059772e-01 3.324022e-01 -1.923315e-01 1.723647e-01 -3.244126e-02 -1.630469e-01 -3.159574e-02 -1.455440e-01 2.183012e-02 -3.980987e-02 4.296996e-02 -5.076449e-03 6.737147e-03 -5.761342e-03
<VARIANCE> 39
 5.190297e+01 3.226495e+01 2.316477e+01 2.301400e+01 2.693759e+01 2.241409e+01 2.919333e+01 1.740802e+01 2.375169e+01 1.986483e+01 1.314890e+01 1.077624e+01 1.809763e+01 4.484788e+00 2.283434e+00 1.494022e+00 1.478665e+00 1.904856e+00 2.105871e+00 2.724626e+00 1.663830e+00 1.895229e+00 2.129285e+00 1.138087e+00 1.292807e+00 7.400995e-01 4.708093e-01 2.593079e-01 2.516976e-01 2.654143e-01 3.074219e-01 4.444857e-01 4.942100e-01 3.240883e-01 3.718027e-01 4.153537e-01 2.337787e-01 2.740219e-01 8.628354e-02
<GCONST> 1.038224e+02
<TRANSP> 5
 0.000000e+00 1.000000e+00 0.000000e+00 0.000000e+00 0.000000e+00
 0.000000e+00 4.124711e-01 5.875289e-01 0.000000e+00 0.000000e+00
 0.000000e+00 0.000000e+00 5.297371e-01 4.702629e-01 0.000000e+00
 0.000000e+00 0.000000e+00 0.000000e+00 9.009669e-01 9.903313e-02
 0.000000e+00 0.000000e+00 0.000000e+00 0.000000e+00 0.000000e+00
<ENDHMM>
~h "t"
<BEGINHMM>
<NUMSTATES> 5
<STATE> 2
<MEAN> 39
 -8.293498e+00 2.425061e+00 1.809996e+01 -5.528127e+00 -4.552001e+00 -1.868915e+00 -5.883817e+00 -5.501433e+00 -1.187480e+00 -5.352427e+00 2.724173e+00 -9.349197e+00 5.318247e+01 -6.101204e-01 -7.014484e-02 -2.052554e+00 7.286624e-01 9.471458e-01 -1.548149e-02 7.645596e-01 -3.487747e-01 5.225052e-01 -3.193380e-02 -1.626685e-01 5.122712e-01 -1.765202e-01 -2.720652e-01 -1.122268e-01 -2.389902e-01 -3.066519e-01 -3.142343e-03 -2.179113e-01 1.138013e-01 2.860996e-01 -2.191535e-03 1.417598e-01 1.547237e-01 1.426083e-01 4.655566e-01
<VARIANCE> 39
 1.523516e+01 1.637927e+01 9.434108e+01 3.500555e+01 3.385976e+01 3.086971e+01 4.713174e+01 3.661621e+01 2.725761e+01 2.166084e+01 2.361166e+01 2.448477e+01 4.704851e+01 1.894412e+00 1.515232e+00 5.201258e+00 3.535930e+00 1.978349e+00 3.580151e+00 5.270044e+00 3.008830e+00 1.852569e+00 1.985656e+00 2.100954e+00 2.079205e+00 5.029830e+00 2.478664e-01 3.134436e-01 8.659672e-01 4.322899e-01 3.632475e-01 6.369332e-01 9.685574e-01 4.485428e-01 4.173939e-01 3.572113e-01 3.550901e-01 3.920212e-01 5.931326e-01
<GCONST> 1.191441e+02
<STATE> 3
<MEAN> 39
 -1.106849e+01 1.746464e+00 1.133311e+01 -4.575456e+00 -1.600549e+00 -2.575097e+00 -2.865528e+00 -5.156881e+00 5.011746e-01 -4.910378e+00 2.719126e+00 -7.217081e+00 5.452744e+01 -1.556139e+00 -2.339777e-01 -2.878258e+00 -8.444723e-02 8.036439e-01 -8.905007e-01 1.465314e+00 5.649270e-01 6.169814e-01 3.477438e-01 2.758116e-01 9.625136e-01 1.245235e+00 -2.473646e-01 7.495470e-02 -1.003291e-01 -1.489595e-01 -9.619807e-02 -2.785594e-01 2.255677e-01 2.461535e-01 -1.319492e-02 9.770786e-02 6.053988e-02 6.608675e-02 2.771692e-01
<VARIANCE> 39
 3.637961e+01 1.931291e+01 1.288452e+02 2.628853e+01 3.332272e+01 3.600184e+01 5.365383e+01 3.485789e+01 2.242831e+01 2.169804e+01 2.199739e+01 3.337358e+01 4.824270e+01 2.812356e+00 2.016300e+00 7.649793e+00 3.653939e+00 2.825618e+00 4.527517e+00 4.637677e+00 2.583282e+00 1.746143e+00 2.103047e+00 1.902966e+00 2.219050e+00 6.831978e+00 4.473749e-01 4.796502e-01 1.447142e+00 5.875934e-01 4.234124e-01 7.665074e-01 7.246085e-01 3.653887e-01 3.650443e-01 3.706513e-01 3.568470e-01 4.596381e-01 1.073316e+00
<GCONST> 1.245140e+02
<STATE> 4
<MEAN> 39
 -1.902430e+01 1.477914e+00 -6.002944e-01 -5.734944e+00 3.449510e+00 -9.416835e+00 5.577905e+00 1.325759e+00 3.587291e+00 -1.378026e+00 2.036591e+00 -2.383510e+00 5.820238e+01 -3.929075e-01 2.429002e-02 -7.813413e-01 1.278818e-01 2.347474e-01 -5.982081e-01 7.179608e-01 4.804018e-01 2.176110e-01 2.834880e-01 -1.765836e-01 4.807786e-01 -4.966702e-02 2.173218e-01 2.352341e-02 3.395972e-01 1.136750e-01 -5.959282e-02 1.030073e-01 -1.611709e-01 -1.147499e-01 -7.064342e-02 -6.642011e-02 -8.114304e-02 -8.782014e-02 -2.038069e-01
<VARIANCE> 39
 4.096000e+01 1.532711e+01 6.330608e+01 2.005355e+01 2.731919e+01 3.897938e+01 3.989154e+01 3.859259e+01 1.760446e+01 1.822094e+01 1.922271e+01 2.266487e+01 4.392492e+01 4.693913e+00 1.814715e+00 6.290692e+00 2.191940e+00 2.396322e+00 3.842596e+00 3.303449e+00 3.075889e+00 1.625149e+00 1.773178e+00 1.745176e+00 2.009981e+00 4.315466e+00 4.753512e-01 3.997060e-01 8.265488e-01 3.787732e-01 4.449371e-01 6.500152e-01 4.512839e-01 5.041432e-01 3.163173e-01 3.265264e-01 3.181204e-01 3.825870e-01 5.752680e-01
<GCONST> 1.178136e+02
<TRANSP> 5
 0.000000e+00 1.000000e+00 0.000000e+00 0.000000e+00 0.000000e+00
 0.000000e+00 6.505331e-01 3.494669e-01 0.000000e+00 0.000000e+00
 0.000000e+00 0.000000e+00 6.375593e-01 3.624407e-01 0.000000e+00
 0.000000e+00 0.000000e+00 0.000000e+00 9.012717e-01 9.872828e-02
 0.000000e+00 0.000000e+00 0.000000e+00 0.000000e+00 0.000000e+00
<ENDHMM>
~h "u"
<BEGINHMM>
<NUMSTATES> 5
<STATE> 2
<MEAN> 39
 7.001673e-01 -4.516726e+00 1.340135e+01 -6.355649e-01 -3.676193e+00 -1.789476e+01 -1.939799e+01 9.095809e+00 -1.130278e+00 -1.052186e+01 1.660037e+01 -6.420045e+00 6.258325e+01 1.145600e+00 2.012847e-01 7.232171e-02 3.864391e-01 3.162294e-01 -1.615699e-01 -1.036553e+00 -8.324672e-02 -1.248007e-01 -1.497148e-01 3.905967e-01 -2.885538e-01 -1.251085e-01 -1.416254e-01 2.913975e-02 -1.592365e-01 -1.426107e-01 8.926503e-02 2.435425e-01 1.222518e-01 -6.693993e-02 5.181499e-02 1.340851e-01 -3.756428e-02 4.713952e-02 -9.244832e-02
<VARIANCE> 39
 4.138303e+01 9.859276e+00 1.666624e+01 2.064301e+01 1.274610e+01 3.736563e+01 5.655346e+01 2.319220e+01 9.364018e+00 2.263905e+01 1.239693e+01 1.791591e+01 5.504582e+00 3.113487e+00 1.015833e+00 2.171099e+00 3.410336e+00 6.352687e-01 4.478874e+00 3.338777e+00 2.155854e+00 1.115847e+00 2.468849e+00 1.329589e+00 1.475036e+00 5.521674e-01 6.191470e-01 1.565898e-01 2.244353e-01 4.774245e-01 8.412862e-02 3.295427e-01 4.328050e-01 2.821961e-01 1.800952e-01 2.117733e-01 3.053812e-01 2.398373e-01 1.081782e-01
<GCONST> 9.824585e+01
<STATE> 3
<MEAN> 39
 5.054442e+00 1.737954e+00 7.082650e+00 -1.481658e+00 1.549346e+00 -8.723620e+00 -1.875240e+01 -5.577276e-01 -3.054745e+00 -5.883116e+00 1.763953e+01 -5.742089e+00 5.702753e+01 -2.060416e-01 6.819330e-01 -5.696760e-01 6.562141e-01 4.793950e-01 9.756564e-01 1.455248e+00 -1.512278e+00 1.224449e-01 2.520801e-01 -6.528239e-01 7.656200e-01 -8.219969e-01 -1.258296e-01 -8.354463e-02 8.274148e-02 1.226988e-01 2.803935e-02 -2.034336e-02 1.431573e-01 5.712879e-02 8.496428e-02 2.629037e-03 -2.309551e-01 4.759545e-03 -2.711926e-02
<VARIANCE> 39
 4.128224e+00 1.437800e+01 1.134968e+01 1.458402e+01 6.556778e+00 2.098404e+01 4.770497e+01 5.282716e+01 1.264553e+01 7.205594e+00 2.026684e+01 2.032021e+01 1.350328e+01 5.506253e-01 4.671247e-01 6.406117e-01 1.119897e+00 5.598572e-01 4.869317e-01 1.557815e+00 8.827657e-01 1.827404e+00 8.448979e-01 1.905751e+00 1.215913e+00 8.864509e-02 5.691802e-02 6.275530e-02 1.205725e-01 1.598478e-01 1.240851e-01 1.230766e-01 2.033115e-01 1.354942e-01 3.692382e-01 1.569676e-01 1.847733e-01 2.167437e-01 1.444499e-02
<GCONST> 7.528207e+01
<STATE> 4
<MEAN> 39
 -5.771909e+00 -5.405476e-01 4.651251e+00 5.355729e+00 6.100626e+00 -2.986817e-01 2.282398e+00 -1.854364e+00 3.396211e+00 -9.933782e-01 3.194981e+00 -3.554110e+00 4.802541e+01 -5.247969e-01 -5.522562e-01 -3.313007e-01 -1.691042e-01 -3.860980e-02 2.582840e-01 7.887705e-01 5.207732e-01 9.634437e-02 1.972785e-01 -2.895216e-01 -1.423086e-01 -5.483182e-02 4.685357e-02 1.998724e-02 6.296717e-03 -3.355081e-02 -3.625688e-02 -3.507750e-02 -1.083131e-01 -1.867474e-02 -6.146112e-03 1.033265e-03 8.996760e-02 6.255785e-03 -8.889305e-03
<VARIANCE> 39
 2.675672e+01 3.129924e+01 2.616500e+01 2.194836e+01 7.558533e+00 9.773485e+00 5.563274e+01 4.194413e+01 2.304345e+01 1.114310e+01 2.778838e+01 1.125128e+01 1.794713e+01 4.320027e-01 1.554691e+00 2.069361e+00 1.907660e+00 8.912124e-01 9.005567e-01 1.891551e+00 2.241120e+00 3.168750e+00 6.845725e-01 1.945024e+00 6.947445e-01 1.821324e+00 6.248512e-02 3.319812e-01 3.841620e-01 3.220179e-01 1.758365e-01 1.881251e-01 3.724384e-01 4.667771e-01 7.539123e-01 8.698503e-02 2.301333e-01 1.153292e-01 3.288715e-01
<GCONST> 9.628399e+01
<TRANSP> 5
 0.000000e+00 1.000000e+00 0.000000e+00 0.000000e+00 0.000000e+00
 0.000000e+00 9.433975e-01 5.660248e-02 0.000000e+00 0.000000e+00
 0.000000e+00 0.000000e+00 8.657004e-01 1.342997e-01 0.000000e+00
 0.000000e+00 0.000000e+00 0.000000e+00 9.610283e-01 3.897173e-02
 0.000000e+00 0.000000e+00 0.000000e+00 0.000000e+00 0.000000e+00
<ENDHMM>
~h "v"
<BEGINHMM>
<NUMSTATES> 5
<STATE> 2
<MEAN> 39
 1.975410e+00 -1.593272e+01 6.399683e+00 -1.004212e+01 -6.711053e+00 -1.040253e+01 -6.699352e+00 1.427863e+01 8.442838e+00 -4.637541e-01 2.416214e+00 -7.325033e+00 6.806744e+01 -5.707501e-02 5.656905e-01 8.981473e-01 7.899319e-01 -4.950075e-01 -1.022414e+00 -1.864401e-02 8.923282e-02 -5.340056e-01 -3.556145e-01 2.031600e-01 7.430142e-01 -4.691947e-01 -3.571352e-02 1.691344e-01 -4.167969e-02 -5.869742e-03 3.105886e-02 1.940473e-01 -4.807257e-02 -3.814733e-01 -1.687778e-01 9.176183e-02 2.354374e-01 -1.828216e-02 -8.537994e-02
<VARIANCE> 39
 7.018836e+00 6.541523e+01 1.927615e+01 3.702593e+01 2.937086e+01 1.988407e+01 1.823136e+01 7.037548e+01 1.841580e+01 1.627775e+01 3.151614e+01 1.033137e+01 2.827178e+01 4.700411e-01 8.764755e-01 1.604236e+00 1.595628e+00 1.982988e+00 3.838294e+00 8.298320e-01 4.343673e+00 1.569307e+00 1.220609e+00 2.243507e+00 9.688717e-01 5.637497e-01 6.862959e-02 1.466566e-01 1.803857e-01 2.756934e-01 2.651515e-01 3.073461e-01 1.627197e-01 5.354709e-01 3.020201e-01 2.648190e-01 3.889228e-01 1.518206e-01 9.618962e-02
<GCONST> 9.670853e+01
<STATE> 3
<MEAN> 39
 1.256067e+00 -1.266876e+01 8.208018e+00 -7.253894e+00 -7.400849e+00 -1.226368e+01 -7.522165e+00 1.235431e+01 5.729479e+00 -9.241933e-01 5.523396e+00 -6.169613e+00 6.590098e+01 -1.514691e-01 9.292973e-01 1.816429e-01 9.656215e-01 2.750243e-01 -1.003513e-01 -4.010647e-02 -9.297733e-01 -2.677328e-01 -1.126913e-01 4.733447e-02 2.497455e-01 -7.691945e-01 -3.023327e-02 2.229527e-02 -1.243817e-01 8.286023e-03 1.150305e-01 1.691168e-01 5.028283e-02 -1.205704e-01 9.540272e-02 -3.591881e-03 -7.019076e-02 -7.583208e-02 -2.959228e-02
<VARIANCE> 39
 8.374742e+00 4.601350e+01 1.967360e+01 4.286906e+01 3.367857e+01 1.828084e+01 2.860094e+01 6.826419e+01 3.285229e+01 1.536570e+01 4.945803e+01 1.274341e+01 3.181282e+01 6.624920e-01 1.031700e+00 2.113122e+00 1.723149e+00 1.919649e+00 2.064065e+00 1.509029e+00 3.196779e+00 2.048029e+00 1.219494e+00 2.701909e+00 1.076312e+00 6.043669e-01 9.089290e-02 1.399808e-01 2.743950e-01 2.943633e-01 2.613054e-01 2.761188e-01 2.134458e-01 6.563653e-01 3.215104e-01 2.651133e-01 3.771875e-01 1.612809e-01 1.004285e-01
<GCONST> 1.008049e+02
<STATE> 4
<MEAN> 39
 -2.318275e+00 -5.671848e+00 5.182408e+00 -9.086974e-01 -1.277436e+00 -8.653508e+00 -3.407017e+00 4.205686e+00 6.056573e+00 -1.746609e+00 1.589136e+00 -4.843924e+00 5.792645e+01 -3.114870e-01 4.301471e-01 -2.598736e-01 3.669444e-01 4.148040e-01 5.359769e-01 3.559597e-01 -5.914947e-01 2.094243e-01 -4.810274e-03 -1.852192e-01 6.152673e-02 -5.728385e-01 -1.633548e-02 -4.813596e-02 -4.891620e-03 -1.221372e-01 -1.777887e-02 2.552970e-02 1.733339e-03 1.132941e-01 2.911454e-03 4.456766e-02 6.627793e-02 -1.394968e-02 3.950080e-02
<VARIANCE> 39
 3.041505e+01 2.577801e+01 2.723608e+01 3.253855e+01 2.688504e+01 2.772074e+01 4.820369e+01 4.817015e+01 2.594998e+01 1.863304e+01 4.267675e+01 1.285968e+01 3.306489e+01 8.771812e-01 8.330269e-01 1.266884e+00 1.600653e+00 1.492902e+00 1.286511e+00 1.515829e+00 3.027278e+00 1.665715e+00 1.556424e+00 2.209244e+00 9.409075e-01 5.867431e-01 1.645180e-01 1.141991e-01 2.205646e-01 2.351933e-01 2.107146e-01 2.184665e-01 2.691567e-01 6.229334e-01 3.141277e-01 3.169723e-01 3.489797e-01 1.688603e-01 9.953996e-02
<GCONST> 9.995750e+01
<TRANSP> 5
 0.000000e+00 1.000000e+00 0.000000e+00 0.000000e+00 0.000000e+00
 0.000000e+00 5.935780e-01 4.064220e-01 0.000000e+00 0.000000e+00
 0.000000e+00 0.000000e+00 7.751924e-01 2.248076e-01 0.000000e+00
 0.000000e+00 0.000000e+00 0.000000e+00 8.702166e-01 1.297834e-01
 0.000000e+00 0.000000e+00 0.000000e+00 0.000000e+00 0.000000e+00
<ENDHMM>
~h "w"
<BEGINHMM>
<NUMSTATES> 5
<STATE> 2
<MEAN> 39
 -1.033016e+01 -2.193700e+00 2.651129e+00 2.192350e+00 4.041555e+00 -1.449456e+00 3.357529e+00 -2.190578e+00 4.397264e+00 -3.710159e-01 1.459025e+00 -2.273486e+00 4.674764e+01 8.305337e-02 -4.833333e-02 1.836196e-02 -2.789178e-02 -1.110067e-01 6.587123e-02 -5.938669e-02 8.313674e-02 1.270582e-01 1.020635e-01 9.543075e-02 -5.281478e-02 -1.395947e-01 1.319257e-01 7.344133e-02 -1.280852e-02 -1.206269e-01 -1.421742e-01 -1.317936e-01 -5.885157e-02 4.822956e-02 -1.797083e-02 -1.434130e-02 6.074495e-02 -2.603719e-02 7.917718e-02
<VARIANCE> 39
 9.208039e+00 2.055788e+01 1.298953e+01 1.489039e+01 1.961880e+01 1.862050e+01 1.310807e+01 2.161990e+01 1.726274e+01 1.818403e+01 1.514435e+01 1.419740e+01 2.117825e+01 1.163190e+00 8.708610e-01 9.534967e-01 1.177080e+00 1.768111e+00 2.386112e+00 1.100498e+00 1.700189e+00 2.173917e+00 1.873048e+00 2.056154e+00 1.889430e+00 7.343779e-01 3.334241e-01 1.357284e-01 1.594741e-01 2.428187e-01 3.646458e-01 4.589365e-01 1.915319e-01 3.321324e-01 4.990197e-01 4.167592e-01 4.870966e-01 3.401095e-01 1.544784e-01
<GCONST> 9.642741e+01
<STATE> 3
<MEAN> 39
 -9.128332e+00 -2.386484e+00 2.364955e+00 1.653979e+00 2.170343e+00 -1.147769e+00 3.798069e+00 -8.400699e-01 4.582586e+00 3.124474e-02 1.484405e+00 -2.331804e+00 4.598890e+01 1.231474e+00 9.430535e-01 9.410610e-02 -1.118372e+00 -1.570328e+00 -1.173629e+00 -7.381748e-01 2.113486e-01 -1.228807e-01 -5.031003e-01 1.679083e-01 -4.080131e-01 7.232730e-01 5.867663e-01 2.415304e-01 -3.705295e-02 -5.961792e-01 -4.797076e-01 -3.568444e-01 -2.899567e-01 1.627697e-01 -7.813771e-02 -2.038493e-01 2.865613e-01 -1.347690e-01 4.264099e-01
<VARIANCE> 39
 1.422186e+01 1.459726e+01 8.256170e+00 1.664712e+01 2.015514e+01 2.060134e+01 1.302941e+01 1.197563e+01 1.317659e+01 2.022548e+01 1.263969e+01 1.301979e+01 1.385898e+01 3.756728e+00 1.553937e+00 8.731773e-01 3.788393e+00 3.292218e+00 3.716803e+00 2.122005e+00 1.272177e+00 1.522098e+00 2.415688e+00 1.665499e+00 1.827536e+00 1.741300e+00 5.650821e-01 1.586402e-01 1.102866e-01 5.735950e-01 3.655607e-01 4.745659e-01 3.353867e-01 3.088791e-01 3.532666e-01 4.663813e-01 4.139925e-01 3.966387e-01 2.579465e-01
<GCONST> 1.016042e+02
<STATE> 4
<MEAN> 39
 6.145780e+00 -6.272137e+00 -1.842924e+00 -2.068258e+01 -8.284895e+00 5.128801e+00 -3.952688e+00 8.495428e+00 4.140071e-01 -5.646217e+00 1.038890e+01 -9.319695e+00 6.522250e+01 3.194742e-01 -4.577287e-01 -2.527442e-01 -4.087954e-01 2.291715e-01 2.626925e-01 -3.432102e-01 1.798767e-01 -1.244690e-02 8.340320e-02 2.834083e-02 -2.963612e-01 6.290603e-01 -1.110964e-01 -2.047357e-02 1.188055e-02 1.584838e-01 1.242737e-01 1.810561e-03 5.141930e-02 -4.511365e-02 6.691420e-03 4.022864e-02 -6.079053e-02 4.272372e-02 -1.074807e-01
<VARIANCE> 39
 1.217655e+01 1.022841e+02 2.200008e+01 4.376125e+01 4.758580e+01 1.235387e+02 2.290202e+01 3.659643e+01 1.835225e+01 1.953607e+01 3.253006e+01 2.376192e+01 4.563777e+01 2.128241e+00 2.124441e+00 9.579855e-01 3.246168e+00 2.808984e+00 4.633729e+00 2.304212e+00 2.199309e+00 1.484406e+00 1.585121e+00 2.056553e+00 1.250290e+00 1.243627e+00 2.152218e-01 1.878519e-01 1.351278e-01 2.923447e-01 3.170902e-01 4.674667e-01 3.821251e-01 3.154294e-01 2.344729e-01 2.384616e-01 2.444815e-01 2.219305e-01 9.614976e-02
<GCONST> 1.076839e+02
<TRANSP> 5
 0.000000e+00 1.000000e+00 0.000000e+00 0.000000e+00 0.000000e+00
 0.000000e+00 9.009971e-01 9.900284e-02 0.000000e+00 0.000000e+00
 0.000000e+00 0.000000e+00 6.761480e-01 3.238520e-01 0.000000e+00
 0.000000e+00 0.000000e+00 0.000000e+00 9.667996e-01 3.320047e-02
 0.000000e+00 0.000000e+00 0.000000e+00 0.000000e+00 0.000000e+00
<ENDHMM>
~h "z"
<BEGINHMM>
<NUMSTATES> 5
<STATE> 2
<MEAN> 39
 -8.020316e+00 -4.913125e+00 3.979765e+00 -2.954266e+00 -1.790558e+00 -9.689373e+00 1.673262e-01 3.947244e+00 2.847449e+00 -1.435383e+00 3.890203e+00 -3.039671e+00 5.393899e+01 2.697018e-01 5.420519e-01 -2.014849e-01 1.629188e-01 -1.665551e-02 -8.996112e-01 -1.990192e-01 -1.586401e-01 -6.496432e-02 -6.185122e-02 -5.312366e-02 -5.581854e-02 2.687976e-01 1.079783e-01 1.576417e-01 -5.880507e-02 1.104890e-01 5.722738e-02 -1.661229e-01 3.284482e-02 -4.864039e-02 4.481606e-03 -1.543187e-02 -6.717636e-02 -7.789522e-02 2.140123e-01
<VARIANCE> 39
 5.398041e+01 6.435435e+01 8.373695e+01 5.403191e+01 4.093497e+01 5.555515e+01 4.267657e+01 6.258111e+01 3.727939e+01 1.793668e+01 4.412269e+01 9.792586e+00 8.129540e+01 1.304514e+00 1.831202e+00 3.066209e+00 3.345182e+00 1.877412e+00 5.101334e+00 2.370473e+00 2.156933e+00 2.828764e+00 1.903248e+00 1.677442e+00 1.235371e+00 3.199905e+00 2.393772e-01 3.887910e-01 3.705148e-01 5.277262e-01 3.136530e-01 6.799802e-01 3.696623e-01 4.147671e-01 4.341945e-01 3.661018e-01 2.868456e-01 2.339520e-01 3.090532e-01
<GCONST> 1.183624e+02
<STATE> 3
<MEAN> 39
 -7.703781e+00 -2.795767e+00 5.712122e-01 -2.200710e+00 -4.063942e-01 -1.020761e+01 7.648981e-01 2.728698e+00 4.438765e+00 -7.426533e-01 1.933666e+00 -3.807013e+00 5.265739e+01 2.851363e-01 7.909738e-01 -7.774319e-02 2.728435e-01 -7.658339e-02 -1.077266e+00 -5.604991e-02 -6.476054e-02 -6.881180e-02 -3.013086e-02 -1.326928e-01 -1.683477e-01 5.881529e-01 -3.995151e-02 2.935189e-01 9.958392e-02 1.458007e-01 -2.768408e-03 -1.426349e-01 1.293355e-01 -3.972020e-02 3.153745e-02 -2.327023e-02 3.617386e-02 5.007033e-03 1.554611e-01
<VARIANCE> 39
 4.173974e+01 5.712297e+01 7.553657e+01 6.927916e+01 1.986219e+01 5.053499e+01 3.453429e+01 4.053832e+01 5.808018e+01 2.319928e+01 2.355132e+01 1.110361e+01 4.090087e+01 1.609427e+00 2.826913e+00 1.803959e+00 3.053578e+00 2.150527e+00 6.447388e+00 2.328032e+00 2.240410e+00 2.391098e+00 2.184588e+00 1.373750e+00 9.586496e-01 3.821641e+00 2.575041e-01 4.473351e-01 2.932701e-01 4.558689e-01 3.033836e-01 8.543921e-01 3.876668e-01 4.360073e-01 4.258968e-01 3.591892e-01 1.881485e-01 1.984764e-01 3.376208e-01
<GCONST> 1.158753e+02
<STATE> 4
<MEAN> 39
 -8.775474e+00 4.962126e+00 2.173533e+00 2.339396e+00 -1.799520e+00 -1.517547e+01 1.816224e+00 1.461323e+00 2.859663e+00 -2.405656e+00 1.617189e+00 -4.951513e+00 5.646102e+01 -2.287496e-01 1.559828e+00 1.259250e-01 8.931627e-01 -2.243665e-01 -9.273114e-01 2.857197e-01 -7.751245e-02 7.274932e-02 -3.337038e-01 2.400278e-01 -7.163043e-02 1.154975e+00 -2.477742e-01 8.157565e-02 -5.371591e-02 2.617641e-02 6.858410e-02 2.077157e-01 1.259166e-01 -5.503315e-02 8.569766e-02 -7.416227e-03 3.604824e-02 6.742247e-02 -6.145095e-02
<VARIANCE> 39
 2.425251e+01 6.743340e+01 3.127757e+01 6.312228e+01 2.641208e+01 5.833329e+01 2.380866e+01 3.023241e+01 3.421120e+01 2.502826e+01 1.278294e+01 1.422813e+01 3.826117e+01 2.007805e+00 3.428305e+00 2.096634e+00 2.521507e+00 1.825626e+00 6.983305e+00 1.993612e+00 2.243087e+00 2.590271e+00 2.140246e+00 1.045765e+00 9.897618e-01 2.658592e+00 2.969289e-01 5.002389e-01 3.133455e-01 4.041954e-01 3.449271e-01 1.297033e+00 3.583568e-01 4.183947e-01 4.796422e-01 3.875817e-01 2.019674e-01 1.669313e-01 4.452085e-01
<GCONST> 1.139899e+02
<TRANSP> 5
 0.000000e+00 1.000000e+00 0.000000e+00 0.000000e+00 0.000000e+00
 0.000000e+00 5.699536e-01 4.300464e-01 0.000000e+00 0.000000e+00
 0.000000e+00 0.000000e+00 5.695455e-01 4.304545e-01 0.000000e+00
 0.000000e+00 0.000000e+00 0.000000e+00 7.479125e-01 2.520874e-01
 0.000000e+00 0.000000e+00 0.000000e+00 0.000000e+00 0.000000e+00
<ENDHMM>
~h "AI"
<BEGINHMM>
<NUMSTATES> 5
<STATE> 2
<MEAN> 39
 1.165444e+00 -6.544865e+00 6.952527e+00 3.131918e+00 -2.575105e+00 -7.001249e+00 -5.305268e+00 -2.617371e+00 8.930273e+00 2.697935e+00 -4.110112e+00 -6.687280e+00 6.121400e+01 2.895564e-01 -1.175499e+00 -8.526842e-01 -1.347450e+00 2.215331e-01 1.101259e+00 -2.935766e-01 4.888624e-01 -1.231968e-01 3.287416e-01 -3.927154e-02 -4.951828e-01 1.283813e+00 -6.225888e-02 -9.347954e-02 -1.469071e-01 -9.358976e-02 4.602102e-02 1.963578e-01 7.420638e-02 2.579521e-02 -5.180553e-02 -1.045801e-01 -3.477977e-03 1.004187e-01 -7.724695e-02
<VARIANCE> 39
 1.421551e+01 2.458790e+01 3.782024e+01 1.013292e+02 2.949879e+01 5.045237e+01 2.026376e+01 2.417260e+01 9.313778e+00 9.704103e+00 1.366799e+01 2.521883e+01 4.830590e+01 1.045516e+00 1.822284e+00 4.396946e+00 7.982632e+00 1.688141e+00 4.839943e+00 1.079767e+00 3.131328e+00 1.108831e+00 8.113145e-01 1.521142e+00 1.307900e+00 2.076485e+00 1.692157e-01 1.675128e-01 6.201593e-01 1.086173e+00 2.289708e-01 5.469028e-01 2.164751e-01 5.581388e-01 1.916166e-01 1.419429e-01 3.174854e-01 2.457044e-01 3.471960e-01
<GCONST> 1.069801e+02
<STATE> 3
<MEAN> 39
 2.219683e+00 -1.242236e+01 2.653024e+00 -3.997260e+00 -6.694295e-01 -1.647881e+00 -6.511760e+00 -3.754563e-01 8.015079e+00 3.762575e+00 -5.040473e+00 -8.580465e+00 6.687988e+01 -2.969739e-03 -1.341206e+00 -1.032510e+00 -1.586429e+00 5.989844e-01 1.439231e+00 9.407162e-03 4.193240e-01 -4.061014e-01 -2.566242e-02 -3.278756e-01 2.042454e-01 9.559462e-01 -1.786230e-02 6.689662e-02 1.510725e-01 1.745390e-01 -5.155412e-02 -1.053305e-01 3.711080e-02 -1.438327e-01 -1.473466e-02 -5.076556e-02 -4.221195e-02 1.452230e-01 -1.284647e-01
<VARIANCE> 39
 3.385702e+00 4.384333e+01 5.196483e+01 1.379008e+02 3.347129e+01 8.553912e+01 1.084099e+01 2.920240e+01 9.666032e+00 6.291260e+00 1.305695e+01 1.336925e+01 3.796743e+01 2.765997e-01 1.563476e+00 2.960301e+00 6.503882e+00 1.907643e+00 3.463041e+00 9.176276e-01 3.301745e+00 8.916729e-01 6.182394e-01 1.036644e+00 1.122670e+00 1.628437e+00 5.328335e-02 2.237137e-01 5.435796e-01 1.167644e+00 3.012360e-01 4.980583e-01 1.918684e-01 7.085744e-01 1.547547e-01 1.032061e-01 2.253365e-01 1.580615e-01 3.019750e-01
<GCONST> 9.989249e+01
<STATE> 4
<MEAN> 39
 -2.972207e-02 -1.332655e+01 6.150535e+00 -6.080546e+00 -1.552843e+00 6.161348e-01 -2.534173e+00 3.370607e+00 5.754529e+00 -1.939311e+00 -4.763116e+00 -4.793222e+00 6.346112e+01 -1.601781e-01 3.335070e-01 2.597888e-01 2.820977e-01 -1.069383e-01 -2.482983e-01 2.663388e-01 8.777333e-02 -4.994747e-02 -1.640305e-01 1.517441e-01 6.397222e-02 -5.078319e-01 -1.041371e-02 4.572802e-02 9.559686e-03 1.771824e-02 -1.370831e-02 -3.759596e-02 -2.701050e-03 1.377556e-03 -3.989817e-03 1.160240e-02 3.794619e-02 -3.477811e-02 -2.574471e-02
<VARIANCE> 39
 1.172721e+01 1.022865e+02 5.181184e+01 7.439359e+01 5.189516e+01 4.494135e+01 3.317027e+01 3.142457e+01 1.208434e+01 2.661086e+01 3.413483e+01 1.339597e+01 1.131773e+02 2.666528e-01 1.331691e+00 2.056949e+00 2.329415e+00 2.402955e+00 2.107902e+00 1.808802e+00 2.914436e+00 1.082633e+00 1.074509e+00 2.596634e+00 1.018999e+00 7.498575e-01 3.720732e-02 1.540907e-01 2.358494e-01 4.213032e-01 2.582226e-01 3.193395e-01 3.584553e-01 4.968739e-01 1.948376e-01 1.835293e-01 3.609592e-01 1.843243e-01 9.945551e-02
<GCONST> 1.029675e+02
<TRANSP> 5
 0.000000e+00 1.000000e+00 0.000000e+00 0.000000e+00 0.000000e+00
 0.000000e+00 8.575958e-01 1.424042e-01 0.000000e+00 0.000000e+00
 0.000000e+00 0.000000e+00 8.197198e-01 1.802802e-01 0.000000e+00
 0.000000e+00 0.000000e+00 0.000000e+00 9.712464e-01 2.875362e-02
 0.000000e+00 0.000000e+00 0.000000e+00 0.000000e+00 0.000000e+00
<ENDHMM>
~h "O:"
<BEGINHMM>
<NUMSTATES> 5
<STATE> 2
<MEAN> 39
 -7.659386e+00 -4.995209e+00 -5.380549e+00 -7.042963e+00 -5.729277e+00 -2.533216e+00 -3.606655e-01 2.921636e+00 3.892731e+00 -2.455126e+00 6.944582e+00 -5.028074e-01 5.869837e+01 1.450816e+00 1.288706e-01 -2.858779e-01 -8.113866e-01 -6.462513e-01 -2.608613e-01 -6.443519e-02 1.599816e-01 -1.155118e-01 -3.888353e-01 1.674215e-01 8.036185e-02 4.880874e-01 9.666057e-02 1.134613e-02 -5.972435e-03 1.221137e-02 2.787568e-02 1.407744e-02 4.323139e-03 6.638631e-02 3.150015e-02 -6.297827e-03 -2.249759e-03 5.180472e-03 -8.109636e-03
<VARIANCE> 39
 1.699265e+02 1.043299e+01 2.150392e+01 6.063648e+01 6.343227e+01 1.619477e+01 2.341975e+01 3.183879e+01 2.251507e+01 2.387076e+01 2.059075e+01 1.374148e+01 2.567023e+01 6.335565e+00 1.232338e+00 1.467061e+00 1.911460e+00 3.084514e+00 1.188560e+00 2.041379e+00 2.430706e+00 2.118746e+00 1.468734e+00 1.669120e+00 1.283301e+00 4.254341e-01 8.453813e-01 2.319522e-01 2.529640e-01 2.995412e-01 4.626966e-01 2.065154e-01 3.745431e-01 4.176151e-01 3.859843e-01 2.668831e-01 3.046180e-01 2.347634e-01 5.159964e-02
<GCONST> 1.057990e+02
<STATE> 3
<MEAN> 39
 3.970633e+00 -4.328642e+00 -9.876027e+00 -1.244943e+01 -8.162148e+00 -4.286695e+00 -1.734986e+00 5.451672e+00 5.840710e+00 -5.017015e+00 7.921594e+00 -2.627718e-01 6.229576e+01 1.165515e+00 6.600288e-02 -6.609731e-01 -4.697830e-01 1.447050e-01 -3.885844e-02 -4.588478e-01 2.519928e-01 3.219435e-01 -9.746143e-03 -1.433006e-01 -3.991203e-02 1.957310e-01 -1.189438e-01 -5.193891e-03 -1.715694e-02 3.998093e-02 1.080658e-01 5.947134e-02 -4.373957e-02 -5.494357e-02 9.202530e-03 9.739902e-02 -5.294805e-02 -3.601621e-02 -4.646115e-02
<VARIANCE> 39
 1.416017e+02 9.871820e+00 4.134147e+01 4.106898e+01 4.908919e+01 2.039272e+01 4.493496e+01 4.237060e+01 4.392001e+01 2.627937e+01 2.168884e+01 2.801469e+01 1.960201e+01 4.415890e+00 8.819538e-01 1.036483e+00 1.506832e+00 3.195246e+00 1.289022e+00 2.371319e+00 2.270281e+00 2.451698e+00 1.823181e+00 2.024423e+00 1.677138e+00 4.122294e-01 5.816349e-01 1.636966e-01 1.441110e-01 2.458791e-01 4.192835e-01 1.859269e-01 4.007143e-01 3.427937e-01 3.667623e-01 2.706088e-01 3.339603e-01 2.449677e-01 3.971773e-02
<GCONST> 1.057238e+02
<STATE> 4
<MEAN> 39
 1.610735e+00 -2.209744e+00 -8.083336e+00 -7.854398e+00 5.853216e-01 -5.169518e-01 1.212970e+00 1.539484e+00 6.176155e+00 3.392141e-01 2.737380e+00 -1.700090e+00 5.427116e+01 -5.049709e-01 5.616732e-02 3.557643e-01 3.718191e-01 2.061278e-01 1.525863e-01 2.921687e-01 -1.858902e-01 -7.857624e-02 1.046621e-01 -5.071126e-02 -5.339741e-02 -3.864591e-01 -2.147964e-02 -3.495407e-03 1.913361e-02 1.216258e-02 -2.431068e-02 -2.444211e-02 6.617451e-03 7.881450e-03 -7.468662e-03 -1.204181e-02 2.637492e-02 2.407729e-02 1.834215e-03
<VARIANCE> 39
 1.062125e+02 1.006951e+01 7.326993e+01 5.965397e+01 3.090911e+01 1.826736e+01 5.941216e+01 2.576665e+01 1.901265e+01 2.628088e+01 1.749291e+01 1.157505e+01 5.978236e+01 9.550655e-01 4.370478e-01 1.174625e+00 1.151605e+00 1.538721e+00 1.192764e+00 2.338528e+00 1.370728e+00 1.645038e+00 1.532470e+00 1.600016e+00 1.258402e+00 4.886094e-01 8.857637e-02 7.863178e-02 1.231345e-01 1.702526e-01 2.907587e-01 2.272160e-01 4.178161e-01 2.440673e-01 2.990207e-01 2.587067e-01 2.989046e-01 2.495233e-01 3.399679e-02
<GCONST> 9.606017e+01
<TRANSP> 5
 0.000000e+00 1.000000e+00 0.000000e+00 0.000000e+00 0.000000e+00
 0.000000e+00 9.009028e-01 9.909718e-02 0.000000e+00 0.000000e+00
 0.000000e+00 0.000000e+00 9.047076e-01 9.529244e-02 0.000000e+00
 0.000000e+00 0.000000e+00 0.000000e+00 9.742094e-01 2.579067e-02
 0.000000e+00 0.000000e+00 0.000000e+00 0.000000e+00 0.000000e+00
<ENDHMM>
~h "aI"
<BEGINHMM>
<NUMSTATES> 5
<STATE> 2
<MEAN> 39
 -1.598012e+01 -5.890868e+00 -3.311753e-01 -5.093246e-01 2.320483e+00 -1.091389e+00 4.185642e+00 4.038250e+00 6.476669e+00 2.825253e-01 3.791829e+00 -1.044846e+00 5.178856e+01 2.699387e-01 -3.127910e-01 -8.364664e-02 -3.515608e-01 -1.582591e-01 3.398327e-01 -2.896349e-01 9.560744e-02 -1.623880e-01 4.606047e-02 2.279759e-01 -2.160854e-01 4.806868e-01 1.238880e-01 -2.408667e-02 -4.913118e-02 -1.178291e-01 -2.924323e-02 3.917807e-02 -2.024376e-03 1.525475e-02 -5.927353e-02 7.354354e-03 1.897196e-02 -5.175855e-02 6.380708e-02
<VARIANCE> 39
 4.616125e+01 1.363356e+01 1.321540e+01 4.182188e+01 2.000364e+01 1.972415e+01 2.547730e+01 2.031514e+01 2.159302e+01 1.189669e+01 1.687913e+01 1.650005e+01 4.874743e+01 4.264692e+00 7.901918e-01 8.598105e-01 2.926223e+00 1.541173e+00 1.917036e+00 1.572565e+00 2.060856e+00 1.960084e+00 1.233797e+00 1.395016e+00 1.795584e+00 1.254912e+00 4.870209e-01 1.459247e-01 1.147945e-01 3.644823e-01 3.200048e-01 3.708922e-01 3.264838e-01 3.841688e-01 3.128833e-01 2.394613e-01 2.980531e-01 3.487540e-01 1.181123e-01
<GCONST> 1.011368e+02
<STATE> 3
<MEAN> 39
 -8.605580e+00 -9.775327e+00 -3.364695e+00 -9.167156e+00 -8.054134e-01 2.434731e+00 1.046808e+00 6.611481e+00 2.030806e+00 1.071943e+00 7.068257e+00 -4.876335e+00 5.930475e+01 1.382239e+00 -6.591840e-01 -2.259463e-01 -1.291255e+00 -2.839157e-01 7.148580e-01 -3.283568e-01 4.781383e-01 -6.144416e-01 5.977581e-02 3.233675e-01 -7.146841e-01 9.572716e-01 -7.903084e-02 -3.695712e-02 2.784734e-02 8.435896e-02 3.500049e-02 8.567262e-03 1.862638e-02 -2.293512e-02 7.368720e-02 -1.679523e-02 -6.124011e-02 -2.080387e-04 -4.218142e-02
<VARIANCE> 39
 1.623436e+02 2.325153e+01 1.337423e+01 1.273243e+02 2.530452e+01 3.579501e+01 2.068310e+01 2.910365e+01 4.591348e+01 1.179387e+01 2.183246e+01 3.369240e+01 7.341911e+01 7.958488e+00 9.974433e-01 7.185392e-01 4.250591e+00 1.929447e+00 2.707621e+00 1.794436e+00 2.671916e+00 2.642503e+00 1.131159e+00 1.517338e+00 2.219341e+00 1.271986e+00 1.212619e+00 1.602216e-01 1.118758e-01 7.162000e-01 3.949091e-01 4.890620e-01 3.612660e-01 5.445048e-01 4.960362e-01 2.276168e-01 3.086525e-01 3.902617e-01 2.260425e-01
<GCONST> 1.134946e+02
<STATE> 4
<MEAN> 39
 5.315881e+00 -2.154108e+01 -3.860606e+00 -1.977277e+01 -2.925832e+00 9.222649e+00 -3.284681e+00 1.017287e+01 6.838520e-01 -1.065675e-01 8.058092e+00 -1.301413e+01 7.047942e+01 -1.862270e-01 -6.411369e-01 4.459856e-01 6.609851e-01 -1.140462e-01 -9.951038e-01 -1.693159e-01 3.164976e-01 9.807844e-01 -1.302793e-01 -5.180368e-01 1.155960e-01 8.982034e-02 -4.221667e-02 9.578894e-02 1.017798e-01 6.419132e-02 -1.203120e-01 -3.401302e-01 -1.030882e-02 1.928704e-01 -1.202886e-02 -2.434496e-02 1.361198e-02 1.396677e-01 -1.951724e-02
<VARIANCE> 39
 8.907485e+00 1.834026e+01 8.210189e+00 2.481419e+01 7.852676e+00 2.482269e+01 8.222103e+00 1.170524e+01 3.487760e+01 6.303671e+00 1.070153e+01 1.156913e+01 1.577129e+01 2.495751e-01 3.647861e-01 6.560920e-01 8.052504e-01 8.905905e-01 2.977669e+00 6.377698e-01 2.034882e+00 8.425348e-01 4.172097e-01 9.178561e-01 7.666933e-01 1.214610e-01 5.211987e-02 6.537917e-02 8.908893e-02 1.313003e-01 1.661693e-01 1.308663e-01 1.019049e-01 2.604031e-01 1.737696e-01 8.039720e-02 1.793015e-01 1.213448e-01 2.376782e-02
<GCONST> 7.017001e+01
<TRANSP> 5
 0.000000e+00 1.000000e+00 0.000000e+00 0.000000e+00 0.000000e+00
 0.000000e+00 9.147885e-01 8.521146e-02 0.000000e+00 0.000000e+00
 0.000000e+00 0.000000e+00 9.252405e-01 7.475952e-02 0.000000e+00
 0.000000e+00 0.000000e+00 0.000000e+00 9.217604e-01 7.823954e-02
 0.000000e+00 0.000000e+00 0.000000e+00 0.000000e+00 0.000000e+00
<ENDHMM>
~h "eI"
<BEGINHMM>
<NUMSTATES> 5
<STATE> 2
<MEAN> 39
 -1.153210e+01 -2.777833e+00 2.286368e+00 1.534429e+00 3.455105e+00 -1.442130e-01 7.651406e+00 -3.776518e-01 5.518595e+00 9.210579e-01 2.072190e+00 -1.976353e+00 4.402494e+01 -1.264713e-02 -2.082484e-01 6.582226e-02 2.220803e-01 -3.135380e-02 3.659371e-01 -1.845232e-02 -1.236761e-01 -5.577350e-02 -9.134156e-02 1.732156e-02 -1.259177e-01 1.511348e-02 1.082849e-01 -8.241090e-02 2.962112e-01 -3.957188e-01 -2.421666e-01 -1.622812e-01 -1.679878e-01 2.434674e-01 -1.730424e-01 8.717533e-02 1.874698e-02 -7.687183e-02 3.697572e-01
<VARIANCE> 39
 4.984443e+00 9.829981e+00 5.809615e+00 9.169635e+00 9.660707e+00 1.341982e+01 1.889758e+01 1.949337e+01 1.217605e+01 8.725773e+00 1.214445e+01 1.178596e+01 1.105689e+01 2.781077e-01 5.417455e-01 7.133934e-01 9.418890e-01 6.887925e-01 1.159967e+00 1.697257e+00 1.888531e+00 1.400548e+00 1.329222e+00 1.763514e+00 1.014602e+00 5.304133e-01 7.510123e-02 1.345309e-01 4.131969e-01 4.919857e-01 2.934422e-01 2.873909e-01 4.264695e-01 4.283376e-01 3.835514e-01 2.467398e-01 2.797233e-01 2.038515e-01 2.781607e-01
<GCONST> 8.470749e+01
<STATE> 3
<MEAN> 39
 -1.117612e+01 -3.345436e+00 2.278769e+00 2.169839e+00 3.270077e+00 1.011173e+00 6.792530e+00 -1.042731e+00 5.185294e+00 1.428824e+00 2.147116e+00 -1.687305e+00 4.420561e+01 2.027651e-01 -2.834523e-01 6.103116e-01 -6.267368e-01 -4.856296e-01 -2.502587e-01 -3.506029e-01 5.011848e-01 -2.478606e-01 2.155861e-01 4.797600e-02 -6.856990e-02 7.055805e-01 1.854861e-01 -2.300017e-01 7.814254e-01 -8.885280e-01 -6.292356e-01 -3.210182e-01 -3.238209e-01 3.443196e-01 -3.616323e-01 2.202233e-01 1.379113e-01 -1.240812e-01 7.621207e-01
<VARIANCE> 39
 7.239284e+00 9.603344e+00 8.485785e+00 1.249928e+01 1.020935e+01 8.578684e+00 1.556195e+01 1.600462e+01 1.114216e+01 1.127233e+01 1.400974e+01 1.126438e+01 1.731442e+01 4.422060e-01 8.982997e-01 2.728552e+00 3.956035e+00 2.211301e+00 1.745292e+00 1.726518e+00 1.725665e+00 2.216665e+00 1.232694e+00 1.204347e+00 9.323746e-01 2.097519e+00 1.103897e-01 2.557684e-01 8.317108e-01 1.084122e+00 6.594670e-01 3.569474e-01 5.461590e-01 4.399310e-01 3.965087e-01 2.740382e-01 3.324488e-01 2.448121e-01 7.541054e-01
<GCONST> 9.752560e+01
<STATE> 4
<MEAN> 39
 -7.427151e+00 -5.307573e+00 2.772308e+01 -1.695708e+01 -1.323513e+01 -3.613351e+00 -9.400346e+00 -5.323315e-01 -2.625273e+00 1.360606e+00 6.743194e+00 -6.980156e+00 6.459545e+01 1.101158e-01 2.425367e-01 6.181487e-01 -2.699194e-01 -2.723446e-01 -7.563456e-02 -4.472361e-01 -1.720612e-01 -2.204138e-01 -2.272024e-01 3.402090e-02 -2.776075e-01 2.933350e-01 -3.600624e-02 3.368449e-02 -1.568757e-01 1.319346e-01 1.005553e-01 3.013922e-02 7.229304e-02 -5.866301e-02 6.049189e-02 -2.737512e-02 -2.176064e-02 3.042225e-02 -1.006918e-01
<VARIANCE> 39
 5.738601e+00 3.491212e+01 8.571086e+01 6.211487e+01 4.832672e+01 2.080976e+01 4.626046e+01 2.861180e+01 2.434059e+01 2.803299e+01 1.550283e+01 1.990407e+01 7.680927e+01 6.231311e-01 1.596817e+00 6.225693e+00 6.619580e+00 4.495055e+00 1.894655e+00 3.292158e+00 2.427778e+00 2.228226e+00 1.396430e+00 1.610639e+00 1.084096e+00 6.268767e+00 1.010845e-01 2.172714e-01 6.587216e-01 8.602610e-01 5.379342e-01 3.501141e-01 4.912529e-01 3.719952e-01 4.003114e-01 2.041725e-01 2.758289e-01 2.018643e-01 6.559880e-01
<GCONST> 1.141502e+02
<TRANSP> 5
 0.000000e+00 1.000000e+00 0.000000e+00 0.000000e+00 0.000000e+00
 0.000000e+00 5.128474e-01 4.871527e-01 0.000000e+00 0.000000e+00
 0.000000e+00 0.000000e+00 5.013087e-01 4.986913e-01 0.000000e+00
 0.000000e+00 0.000000e+00 0.000000e+00 9.659122e-01 3.408775e-02
 0.000000e+00 0.000000e+00 0.000000e+00 0.000000e+00 0.000000e+00
<ENDHMM>
~h "eh"
<BEGINHMM>
<NUMSTATES> 5
<STATE> 2
<MEAN> 39
 3.301481e+00 -7.053178e+00 3.746140e+00 -4.184237e+00 1.850079e-01 -3.723764e+00 -1.022849e+01 1.206022e-03 7.668175e+00 -1.403440e+00 1.903109e-01 -8.577467e+00 6.224688e+01 -2.121850e-01 8.291765e-01 2.870991e-01 9.222433e-01 1.196395e-01 -3.517452e-01 2.090998e-03 -8.391364e-01 7.121335e-03 -3.903745e-01 -3.191777e-01 3.339623e-01 -6.929166e-01 -4.270910e-02 -2.367818e-04 -1.883586e-02 -7.875302e-02 -1.457955e-03 1.760285e-01 5.852589e-02 -1.934073e-02 -8.107495e-02 -3.902883e-02 4.083923e-02 4.421500e-03 -1.001059e-02
<VARIANCE> 39
 8.229851e+00 2.572430e+01 3.981540e+01 5.895443e+01 3.094559e+01 3.628831e+01 2.579564e+01 4.173371e+01 3.173135e+01 2.179018e+01 2.549101e+01 2.022412e+01 2.427787e+01 4.161678e-01 9.472643e-01 1.244651e+00 2.808029e+00 2.118491e+00 2.505926e+00 1.712255e+00 4.740540e+00 2.062770e+00 1.766834e+00 1.992063e+00 9.711084e-01 6.932575e-01 7.770082e-02 1.649184e-01 2.013466e-01 3.656420e-01 3.941368e-01 4.672451e-01 3.340757e-01 9.467693e-01 3.974379e-01 3.013327e-01 3.430313e-01 1.879834e-01 1.223488e-01
<GCONST> 1.036692e+02
<STATE> 3
<MEAN> 39
 2.297629e+00 -3.956318e+00 4.489971e+00 -1.404219e+00 1.551626e+00 -4.619538e+00 -1.005657e+01 -2.317425e+00 6.976989e+00 -3.273916e+00 -7.690771e-01 -7.436629e+00 5.977071e+01 -3.196031e-01 6.525913e-01 3.773818e-03 3.209500e-01 5.845290e-01 -9.173267e-02 2.465008e-01 -1.877581e-01 -5.378555e-01 -2.971774e-01 -2.527365e-01 1.052347e-01 -6.590267e-01 -3.129619e-02 -6.542407e-02 -4.102876e-02 -9.366809e-02 4.516549e-02 9.538537e-02 1.278435e-01 8.455698e-02 -9.273592e-02 1.432111e-02 -4.860137e-02 -4.026661e-02 -2.275683e-02
<VARIANCE> 39
 7.218763e+00 2.113151e+01 2.652187e+01 3.517620e+01 3.871603e+01 2.235840e+01 3.599625e+01 3.623908e+01 3.097775e+01 2.592826e+01 2.147836e+01 1.658617e+01 1.927503e+01 3.880048e-01 9.073975e-01 1.254299e+00 3.035404e+00 2.564481e+00 1.873050e+00 2.167903e+00 4.491911e+00 2.211673e+00 1.577079e+00 2.427321e+00 1.058813e+00 4.717119e-01 7.016817e-02 1.533694e-01 2.036048e-01 4.371674e-01 4.204524e-01 3.476926e-01 3.768278e-01 8.260566e-01 4.084554e-01 2.888193e-01 4.374613e-01 1.961771e-01 8.394398e-02
<GCONST> 1.014721e+02
<STATE> 4
<MEAN> 39
 -2.759520e-01 -1.365036e+00 3.353139e+00 -2.258327e+00 5.555207e+00 -5.069904e+00 -8.084627e+00 -3.500723e+00 -7.201120e-02 -5.434571e+00 -3.522230e+00 -8.012815e+00 5.573723e+01 -4.879934e-01 3.716740e-01 -2.140751e-02 3.770946e-01 2.605847e-01 2.324565e-01 8.400127e-01 -2.629558e-01 -3.547298e-01 -5.415108e-02 -2.705620e-01 5.950136e-02 -8.734446e-01 -3.825822e-02 -5.596570e-02 2.495673e-02 6.118544e-02 -1.052581e-01 4.167468e-02 5.782807e-02 -2.293948e-02 1.284181e-01 2.738230e-02 5.205977e-02 3.031779e-02 3.984785e-05
<VARIANCE> 39
 1.316185e+01 1.712086e+01 1.773706e+01 3.078551e+01 3.324459e+01 3.002422e+01 5.505721e+01 4.127353e+01 4.025498e+01 2.415593e+01 1.956845e+01 1.157073e+01 3.375329e+01 5.719894e-01 1.148401e+00 1.247693e+00 3.050869e+00 3.204092e+00 2.125728e+00 2.591073e+00 5.085885e+00 2.924439e+00 1.845470e+00 1.615838e+00 1.319805e+00 5.673664e-01 9.818197e-02 1.950155e-01 2.353851e-01 5.159312e-01 5.551018e-01 3.467042e-01 4.469206e-01 1.078044e+00 5.324674e-01 3.581237e-01 3.113840e-01 2.744630e-01 9.128422e-02
<GCONST> 1.061907e+02
<TRANSP> 5
 0.000000e+00 1.000000e+00 0.000000e+00 0.000000e+00 0.000000e+00
 0.000000e+00 7.328487e-01 2.671513e-01 0.000000e+00 0.000000e+00
 0.000000e+00 0.000000e+00 7.362909e-01 2.637091e-01 0.000000e+00
 0.000000e+00 0.000000e+00 0.000000e+00 8.689609e-01 1.310392e-01
 0.000000e+00 0.000000e+00 0.000000e+00 0.000000e+00 0.000000e+00
<ENDHMM>
~h "sil"
<BEGINHMM>
<NUMSTATES> 5
<STATE> 2
<MEAN> 39
 -1.108045e+01 -2.971040e+00 1.900651e+00 1.729880e+00 2.971035e+00 -1.737278e-01 5.957649e+00 3.779069e-01 5.611295e+00 1.025151e-01 2.044793e+00 -1.857106e+00 4.390122e+01 -5.181111e-02 -1.471078e-02 8.555664e-03 2.036483e-02 -2.783605e-03 1.695209e-02 1.248387e-02 3.540453e-02 3.800901e-02 4.283480e-02 3.381121e-02 2.332184e-02 -5.906846e-02 2.820114e-03 -5.392588e-04 -3.015396e-04 -1.489799e-02 -2.596910e-03 -1.961764e-03 -6.659618e-04 1.748435e-04 -1.373438e-03 -1.960662e-03 -4.835144e-03 5.424625e-04 1.195103e-02
<VARIANCE> 39
 4.699946e+00 6.698578e+00 9.151941e+00 1.168768e+01 1.072612e+01 1.352891e+01 1.361040e+01 1.692760e+01 1.411393e+01 1.424234e+01 1.383949e+01 1.154410e+01 7.430514e+00 2.097121e-01 3.589602e-01 5.677887e-01 8.112291e-01 9.455323e-01 1.132270e+00 1.315422e+00 1.324002e+00 1.442484e+00 1.296307e+00 1.346279e+00 1.151765e+00 1.576747e-01 3.518326e-02 6.826791e-02 1.050168e-01 1.565843e-01 1.838048e-01 2.248020e-01 2.615545e-01 2.506607e-01 2.888181e-01 2.478996e-01 2.667698e-01 2.321629e-01 2.598625e-02
<GCONST> 7.395865e+01
<STATE> 3
<MEAN> 39
 -1.181907e+01 -4.153058e+00 1.356003e+00 4.927935e-01 2.570155e+00 -7.662865e-01 5.945538e+00 1.841007e+00 5.466371e+00 -8.869456e-02 2.428460e+00 -1.323307e+00 4.477851e+01 3.384750e-03 -7.882252e-02 -3.351942e-02 -7.858706e-02 -9.589378e-02 2.446288e-02 5.451537e-03 -5.957674e-02 -1.974239e-02 7.267178e-03 9.649530e-03 9.597632e-03 1.371380e-01 1.427359e-02 -6.858149e-02 -1.257118e-02 -7.609092e-02 -1.703808e-02 -2.038209e-02 2.720609e-02 -1.681497e-02 -5.130703e-02 -6.234083e-03 3.097652e-02 -4.943563e-02 1.608132e-01
<VARIANCE> 39
 3.567290e+00 8.470862e+00 1.103043e+01 1.347450e+01 1.164843e+01 1.791213e+01 1.390557e+01 2.188849e+01 1.540486e+01 1.325591e+01 1.118260e+01 1.210140e+01 8.014865e+00 3.173865e-01 8.767413e-01 6.850458e-01 1.239196e+00 1.041660e+00 1.645189e+00 1.772540e+00 1.253907e+00 1.565680e+00 1.224095e+00 1.187440e+00 1.272365e+00 5.919077e-01 7.105453e-02 1.892060e-01 1.446805e-01 2.771789e-01 2.034686e-01 3.675315e-01 3.894749e-01 2.779202e-01 3.174973e-01 2.357872e-01 2.372945e-01 2.635373e-01 1.636980e-01
<GCONST> 8.437128e+01
<STATE> 4
<MEAN> 39
 -1.117101e+01 -5.580939e+00 3.230165e-01 -1.105895e+00 2.303502e+00 -4.096088e-01 5.300272e+00 8.862960e-02 4.197359e+00 -6.028703e-01 2.190094e+00 -1.763494e+00 4.812836e+01 2.205989e-02 -3.725253e-02 -1.649438e-02 -2.554325e-02 -5.287594e-03 -4.022801e-02 -4.790096e-02 -3.526041e-02 -1.603099e-01 -1.126894e-01 -1.441916e-03 -5.370750e-02 1.997267e-01 1.763510e-02 6.379589e-02 -7.875527e-03 4.446625e-02 -1.875237e-02 -4.477971e-02 -3.985004e-02 1.203854e-02 -2.628133e-03 -7.739368e-03 -2.895902e-03 -2.344936e-04 -3.549649e-02
<VARIANCE> 39
 1.039842e+01 1.895893e+01 1.798164e+01 2.447955e+01 1.504473e+01 1.804049e+01 2.355309e+01 2.199855e+01 2.230709e+01 1.892552e+01 1.349609e+01 1.150373e+01 2.224146e+01 6.869472e-01 1.955526e+00 9.493975e-01 2.382224e+00 1.149331e+00 1.810380e+00 2.290699e+00 1.729621e+00 2.120364e+00 1.710057e+00 1.463697e+00 1.245580e+00 2.742909e+00 1.291616e-01 3.817691e-01 1.676555e-01 4.600650e-01 2.164417e-01 3.574330e-01 4.492257e-01 3.164365e-01 4.168196e-01 3.163927e-01 2.891973e-01 2.447161e-01 4.827753e-01
<GCONST> 9.972878e+01
<TRANSP> 5
 0.000000e+00 1.000000e+00 0.000000e+00 0.000000e+00 0.000000e+00
 0.000000e+00 9.790874e-01 2.091263e-02 0.000000e+00 0.000000e+00
 0.000000e+00 0.000000e+00 8.156810e-01 1.843189e-01 0.000000e+00
 0.000000e+00 0.000000e+00 0.000000e+00 9.157276e-01 8.427239e-02
 0.000000e+00 0.000000e+00 0.000000e+00 0.000000e+00 0.000000e+00
<ENDHMM>
