~o
<STREAMINFO> 1 39
<VECSIZE> 39<NULLD><MFCC_D_A_0><DIAGC>
~h "proto"
<BEGINHMM>
<NUMSTATES> 5
<STATE> 2
<MEAN> 39
 -6.138430e+00 -4.928990e+00 2.013369e+00 -5.581855e+00 -4.459950e+00 -5.461114e+00 -5.728384e+00 -1.425528e+00 2.450705e+00 -2.457052e+00 1.639620e+00 -5.580794e+00 6.411878e+01 8.525861e-04 -2.005679e-03 -1.381725e-03 -1.133433e-03 -1.041966e-03 -1.750439e-03 3.082104e-03 -2.293171e-03 -1.287666e-04 -2.131398e-04 -1.223549e-03 -4.289729e-04 4.506350e-04 -3.576422e-04 -4.773758e-05 -9.585937e-04 -2.664934e-04 -5.311302e-04 7.554910e-04 8.458710e-05 4.050561e-04 -4.388197e-04 -2.824213e-04 -1.369770e-03 -8.659668e-04 1.601574e-04
<VARIANCE> 39
 2.593298e+01 2.227898e+01 4.037893e+01 3.200714e+01 4.159396e+01 3.640816e+01 3.582076e+01 2.906704e+01 3.188848e+01 3.388865e+01 3.554290e+01 3.725723e+01 2.907830e+01 7.797709e-01 1.027534e+00 1.409203e+00 1.583480e+00 1.931743e+00 1.973053e+00 1.914809e+00 2.037948e+00 2.237880e+00 2.054278e+00 2.070587e+00 1.891889e+00 5.135518e-01 1.111152e-01 1.492025e-01 1.928802e-01 2.517293e-01 3.071502e-01 3.344163e-01 3.402067e-01 3.698969e-01 4.024818e-01 3.751706e-01 3.611895e-01 3.249907e-01 6.279238e-02
<GCONST> 1.042465e+02
<STATE> 3
<MEAN> 39
 -6.138430e+00 -4.928990e+00 2.013369e+00 -5.581855e+00 -4.459950e+00 -5.461114e+00 -5.728384e+00 -1.425528e+00 2.450705e+00 -2.457052e+00 1.639620e+00 -5.580794e+00 6.411878e+01 8.525861e-04 -2.005679e-03 -1.381725e-03 -1.133433e-03 -1.041966e-03 -1.750439e-03 3.082104e-03 -2.293171e-03 -1.287666e-04 -2.131398e-04 -1.223549e-03 -4.289729e-04 4.506350e-04 -3.576422e-04 -4.773758e-05 -9.585937e-04 -2.664934e-04 -5.311302e-04 7.554910e-04 8.458710e-05 4.050561e-04 -4.388197e-04 -2.824213e-04 -1.369770e-03 -8.659668e-04 1.601574e-04
<VARIANCE> 39
 2.593298e+01 2.227898e+01 4.037893e+01 3.200714e+01 4.159396e+01 3.640816e+01 3.582076e+01 2.906704e+01 3.188848e+01 3.388865e+01 3.554290e+01 3.725723e+01 2.907830e+01 7.797709e-01 1.027534e+00 1.409203e+00 1.583480e+00 1.931743e+00 1.973053e+00 1.914809e+00 2.037948e+00 2.237880e+00 2.054278e+00 2.070587e+00 1.891889e+00 5.135518e-01 1.111152e-01 1.492025e-01 1.928802e-01 2.517293e-01 3.071502e-01 3.344163e-01 3.402067e-01 3.698969e-01 4.024818e-01 3.751706e-01 3.611895e-01 3.249907e-01 6.279238e-02
<GCONST> 1.042465e+02
<STATE> 4
<MEAN> 39
 -6.138430e+00 -4.928990e+00 2.013369e+00 -5.581855e+00 -4.459950e+00 -5.461114e+00 -5.728384e+00 -1.425528e+00 2.450705e+00 -2.457052e+00 1.639620e+00 -5.580794e+00 6.411878e+01 8.525861e-04 -2.005679e-03 -1.381725e-03 -1.133433e-03 -1.041966e-03 -1.750439e-03 3.082104e-03 -2.293171e-03 -1.287666e-04 -2.131398e-04 -1.223549e-03 -4.289729e-04 4.506350e-04 -3.576422e-04 -4.773758e-05 -9.585937e-04 -2.664934e-04 -5.311302e-04 7.554910e-04 8.458710e-05 4.050561e-04 -4.388197e-04 -2.824213e-04 -1.369770e-03 -8.659668e-04 1.601574e-04
<VARIANCE> 39
 2.593298e+01 2.227898e+01 4.037893e+01 3.200714e+01 4.159396e+01 3.640816e+01 3.582076e+01 2.906704e+01 3.188848e+01 3.388865e+01 3.554290e+01 3.725723e+01 2.907830e+01 7.797709e-01 1.027534e+00 1.409203e+00 1.583480e+00 1.931743e+00 1.973053e+00 1.914809e+00 2.037948e+00 2.237880e+00 2.054278e+00 2.070587e+00 1.891889e+00 5.135518e-01 1.111152e-01 1.492025e-01 1.928802e-01 2.517293e-01 3.071502e-01 3.344163e-01 3.402067e-01 3.698969e-01 4.024818e-01 3.751706e-01 3.611895e-01 3.249907e-01 6.279238e-02
<GCONST> 1.042465e+02
<TRANSP> 5
 0.000000e+00 1.000000e+00 0.000000e+00 0.000000e+00 0.000000e+00
 0.000000e+00 6.000000e-01 4.000000e-01 0.000000e+00 0.000000e+00
 0.000000e+00 0.000000e+00 6.000000e-01 4.000000e-01 0.000000e+00
 0.000000e+00 0.000000e+00 0.000000e+00 7.000000e-01 3.000000e-01
 0.000000e+00 0.000000e+00 0.000000e+00 0.000000e+00 0.000000e+00
<ENDHMM>
