~o
<STREAMINFO> 1 39
<VECSIZE> 39<NULLD><MFCC_D_A_0><DIAGC>
~h "proto"
<BEGINHMM>
<NUMSTATES> 5
<STATE> 2
<MEAN> 39
 -5.918919e+00 -5.998121e+00 1.654774e+00 -4.155068e+00 -2.393695e+00 -5.989372e+00 -4.197330e+00 -1.618544e+00 5.529315e+00 -3.051267e+00 1.034814e+00 -4.284381e+00 6.669640e+01 2.621240e-03 4.941922e-03 9.465097e-04 -1.971372e-03 -1.705697e-04 -2.002215e-03 3.616430e-03 5.539876e-04 5.043469e-04 6.985276e-03 4.295268e-04 -2.826194e-03 -1.008246e-03 -7.627541e-06 -1.877104e-04 -5.576869e-04 -7.626460e-04 1.480448e-04 1.426368e-03 1.473193e-03 5.151589e-04 9.275863e-04 3.554284e-04 1.762758e-03 5.901732e-04 -2.649969e-04
<VARIANCE> 39
 4.577081e+01 3.770338e+01 5.602149e+01 4.138640e+01 5.255909e+01 4.826886e+01 4.335514e+01 3.927440e+01 4.032069e+01 3.073435e+01 2.752605e+01 2.604408e+01 5.273175e+01 1.153774e+00 1.303277e+00 1.571084e+00 1.501557e+00 2.011805e+00 1.986789e+00 2.160299e+00 2.131377e+00 2.034300e+00 1.853018e+00 1.772975e+00 1.577421e+00 7.838908e-01 1.424212e-01 1.777653e-01 2.110438e-01 2.322546e-01 3.041467e-01 3.242522e-01 3.619930e-01 3.679036e-01 3.557487e-01 3.290114e-01 3.189713e-01 2.969986e-01 9.182283e-02
<GCONST> 1.081969e+02
<STATE> 3
<MEAN> 39
 -5.918919e+00 -5.998121e+00 1.654774e+00 -4.155068e+00 -2.393695e+00 -5.989372e+00 -4.197330e+00 -1.618544e+00 5.529315e+00 -3.051267e+00 1.034814e+00 -4.284381e+00 6.669640e+01 2.621240e-03 4.941922e-03 9.465097e-04 -1.971372e-03 -1.705697e-04 -2.002215e-03 3.616430e-03 5.539876e-04 5.043469e-04 6.985276e-03 4.295268e-04 -2.826194e-03 -1.008246e-03 -7.627541e-06 -1.877104e-04 -5.576869e-04 -7.626460e-04 1.480448e-04 1.426368e-03 1.473193e-03 5.151589e-04 9.275863e-04 3.554284e-04 1.762758e-03 5.901732e-04 -2.649969e-04
<VARIANCE> 39
 4.577081e+01 3.770338e+01 5.602149e+01 4.138640e+01 5.255909e+01 4.826886e+01 4.335514e+01 3.927440e+01 4.032069e+01 3.073435e+01 2.752605e+01 2.604408e+01 5.273175e+01 1.153774e+00 1.303277e+00 1.571084e+00 1.501557e+00 2.011805e+00 1.986789e+00 2.160299e+00 2.131377e+00 2.034300e+00 1.853018e+00 1.772975e+00 1.577421e+00 7.838908e-01 1.424212e-01 1.777653e-01 2.110438e-01 2.322546e-01 3.041467e-01 3.242522e-01 3.619930e-01 3.679036e-01 3.557487e-01 3.290114e-01 3.189713e-01 2.969986e-01 9.182283e-02
<GCONST> 1.081969e+02
<STATE> 4
<MEAN> 39
 -5.918919e+00 -5.998121e+00 1.654774e+00 -4.155068e+00 -2.393695e+00 -5.989372e+00 -4.197330e+00 -1.618544e+00 5.529315e+00 -3.051267e+00 1.034814e+00 -4.284381e+00 6.669640e+01 2.621240e-03 4.941922e-03 9.465097e-04 -1.971372e-03 -1.705697e-04 -2.002215e-03 3.616430e-03 5.539876e-04 5.043469e-04 6.985276e-03 4.295268e-04 -2.826194e-03 -1.008246e-03 -7.627541e-06 -1.877104e-04 -5.576869e-04 -7.626460e-04 1.480448e-04 1.426368e-03 1.473193e-03 5.151589e-04 9.275863e-04 3.554284e-04 1.762758e-03 5.901732e-04 -2.649969e-04
<VARIANCE> 39
 4.577081e+01 3.770338e+01 5.602149e+01 4.138640e+01 5.255909e+01 4.826886e+01 4.335514e+01 3.927440e+01 4.032069e+01 3.073435e+01 2.752605e+01 2.604408e+01 5.273175e+01 1.153774e+00 1.303277e+00 1.571084e+00 1.501557e+00 2.011805e+00 1.986789e+00 2.160299e+00 2.131377e+00 2.034300e+00 1.853018e+00 1.772975e+00 1.577421e+00 7.838908e-01 1.424212e-01 1.777653e-01 2.110438e-01 2.322546e-01 3.041467e-01 3.242522e-01 3.619930e-01 3.679036e-01 3.557487e-01 3.290114e-01 3.189713e-01 2.969986e-01 9.182283e-02
<GCONST> 1.081969e+02
<TRANSP> 5
 0.000000e+00 1.000000e+00 0.000000e+00 0.000000e+00 0.000000e+00
 0.000000e+00 6.000000e-01 4.000000e-01 0.000000e+00 0.000000e+00
 0.000000e+00 0.000000e+00 6.000000e-01 4.000000e-01 0.000000e+00
 0.000000e+00 0.000000e+00 0.000000e+00 7.000000e-01 3.000000e-01
 0.000000e+00 0.000000e+00 0.000000e+00 0.000000e+00 0.000000e+00
<ENDHMM>
