~o
<STREAMINFO> 1 39
<VECSIZE> 39<NULLD><MFCC_D_A_0><DIAGC>
~h "proto"
<BEGINHMM>
<NUMSTATES> 5
<STATE> 2
<MEAN> 39
 -7.010926e+00 -3.691065e+00 3.058264e+00 -3.022767e+00 -7.716387e-01 -3.760799e+00 -2.991978e-01 8.471692e-01 3.726950e+00 -1.077493e+00 3.936431e+00 -2.836993e+00 5.418536e+01 -2.139541e-03 -3.505737e-03 -2.975430e-03 -4.388757e-03 1.639259e-03 1.779561e-03 5.219364e-04 -2.626254e-03 -3.116384e-03 -1.571445e-04 3.131904e-03 9.757667e-04 2.594385e-03 3.877876e-04 5.704376e-04 2.719199e-04 3.739128e-05 -7.024141e-04 7.867177e-04 1.343850e-03 1.562033e-03 -3.324328e-04 -7.242251e-04 -9.112644e-04 -3.212564e-04 -2.770109e-04
<VARIANCE> 39
 8.419183e+01 5.209446e+01 9.822787e+01 6.802364e+01 5.486951e+01 5.142603e+01 8.414149e+01 3.938629e+01 3.647984e+01 2.441325e+01 4.055320e+01 2.310717e+01 9.987928e+01 1.602527e+00 1.519464e+00 2.263163e+00 2.191236e+00 1.913046e+00 2.145577e+00 2.261124e+00 2.315531e+00 2.003345e+00 1.583460e+00 1.720534e+00 1.322951e+00 1.379566e+00 1.864221e-01 1.977809e-01 2.708769e-01 3.304754e-01 2.927199e-01 3.689995e-01 3.866933e-01 4.030560e-01 3.591180e-01 2.905151e-01 3.007658e-01 2.483362e-01 1.681221e-01
<GCONST> 1.145820e+02
<STATE> 3
<MEAN> 39
 -7.010926e+00 -3.691065e+00 3.058264e+00 -3.022767e+00 -7.716387e-01 -3.760799e+00 -2.991978e-01 8.471692e-01 3.726950e+00 -1.077493e+00 3.936431e+00 -2.836993e+00 5.418536e+01 -2.139541e-03 -3.505737e-03 -2.975430e-03 -4.388757e-03 1.639259e-03 1.779561e-03 5.219364e-04 -2.626254e-03 -3.116384e-03 -1.571445e-04 3.131904e-03 9.757667e-04 2.594385e-03 3.877876e-04 5.704376e-04 2.719199e-04 3.739128e-05 -7.024141e-04 7.867177e-04 1.343850e-03 1.562033e-03 -3.324328e-04 -7.242251e-04 -9.112644e-04 -3.212564e-04 -2.770109e-04
<VARIANCE> 39
 8.419183e+01 5.209446e+01 9.822787e+01 6.802364e+01 5.486951e+01 5.142603e+01 8.414149e+01 3.938629e+01 3.647984e+01 2.441325e+01 4.055320e+01 2.310717e+01 9.987928e+01 1.602527e+00 1.519464e+00 2.263163e+00 2.191236e+00 1.913046e+00 2.145577e+00 2.261124e+00 2.315531e+00 2.003345e+00 1.583460e+00 1.720534e+00 1.322951e+00 1.379566e+00 1.864221e-01 1.977809e-01 2.708769e-01 3.304754e-01 2.927199e-01 3.689995e-01 3.866933e-01 4.030560e-01 3.591180e-01 2.905151e-01 3.007658e-01 2.483362e-01 1.681221e-01
<GCONST> 1.145820e+02
<STATE> 4
<MEAN> 39
 -7.010926e+00 -3.691065e+00 3.058264e+00 -3.022767e+00 -7.716387e-01 -3.760799e+00 -2.991978e-01 8.471692e-01 3.726950e+00 -1.077493e+00 3.936431e+00 -2.836993e+00 5.418536e+01 -2.139541e-03 -3.505737e-03 -2.975430e-03 -4.388757e-03 1.639259e-03 1.779561e-03 5.219364e-04 -2.626254e-03 -3.116384e-03 -1.571445e-04 3.131904e-03 9.757667e-04 2.594385e-03 3.877876e-04 5.704376e-04 2.719199e-04 3.739128e-05 -7.024141e-04 7.867177e-04 1.343850e-03 1.562033e-03 -3.324328e-04 -7.242251e-04 -9.112644e-04 -3.212564e-04 -2.770109e-04
<VARIANCE> 39
 8.419183e+01 5.209446e+01 9.822787e+01 6.802364e+01 5.486951e+01 5.142603e+01 8.414149e+01 3.938629e+01 3.647984e+01 2.441325e+01 4.055320e+01 2.310717e+01 9.987928e+01 1.602527e+00 1.519464e+00 2.263163e+00 2.191236e+00 1.913046e+00 2.145577e+00 2.261124e+00 2.315531e+00 2.003345e+00 1.583460e+00 1.720534e+00 1.322951e+00 1.379566e+00 1.864221e-01 1.977809e-01 2.708769e-01 3.304754e-01 2.927199e-01 3.689995e-01 3.866933e-01 4.030560e-01 3.591180e-01 2.905151e-01 3.007658e-01 2.483362e-01 1.681221e-01
<GCONST> 1.145820e+02
<TRANSP> 5
 0.000000e+00 1.000000e+00 0.000000e+00 0.000000e+00 0.000000e+00
 0.000000e+00 6.000000e-01 4.000000e-01 0.000000e+00 0.000000e+00
 0.000000e+00 0.000000e+00 6.000000e-01 4.000000e-01 0.000000e+00
 0.000000e+00 0.000000e+00 0.000000e+00 7.000000e-01 3.000000e-01
 0.000000e+00 0.000000e+00 0.000000e+00 0.000000e+00 0.000000e+00
<ENDHMM>
