~o
<STREAMINFO> 1 39
<VECSIZE> 39<NULLD><MFCC_D_A_0><DIAGC>
~h "I"
<BEGINHMM>
<NUMSTATES> 5
<STATE> 2
<MEAN> 39
 -7.586151e+00 -1.848819e+00 3.370130e+00 -2.376371e+00 -2.085962e+00 -7.961505e+00 -1.953262e+00 7.566503e-02 2.687331e+00 -1.583261e+00 5.787453e+00 -1.835838e+00 5.683379e+01 3.307866e-03 5.051162e-02 -3.133792e-02 3.155974e-02 6.962992e-03 -3.367997e-02 -2.362878e-02 -2.548485e-02 5.551996e-03 -3.364347e-03 3.046173e-02 1.501167e-02 4.156667e-02 9.254946e-04 -6.826116e-04 7.870715e-04 2.393284e-04 -2.936405e-04 1.882795e-03 -4.525499e-04 8.820225e-04 -1.530143e-05 -1.016827e-04 6.146988e-05 -1.547224e-04 4.077095e-04
<VARIANCE> 39
 1.047602e+02 7.642961e+01 1.155374e+02 5.863408e+01 5.587226e+01 5.336665e+01 1.031991e+02 3.689313e+01 4.680204e+01 2.611755e+01 4.512508e+01 2.373487e+01 8.577520e+01 1.843779e+00 2.267904e+00 3.586604e+00 2.233996e+00 2.141174e+00 2.835994e+00 2.516468e+00 2.442867e+00 2.340384e+00 1.630219e+00 1.834059e+00 1.359764e+00 1.415452e+00 1.971570e-01 2.503413e-01 3.925102e-01 3.129010e-01 3.125039e-01 5.201181e-01 4.119932e-01 4.206372e-01 3.998188e-01 2.988090e-01 3.057785e-01 2.501655e-01 1.615955e-01
<GCONST> 1.188063e+02
<STATE> 3
<MEAN> 39
 -7.538985e+00 -1.632016e+00 3.223223e+00 -2.227131e+00 -2.078906e+00 -8.125235e+00 -2.115842e+00 -3.596777e-02 2.705692e+00 -1.609029e+00 5.963184e+00 -1.743238e+00 5.708157e+01 9.071322e-03 4.056276e-02 -2.780129e-02 2.872146e-02 4.282430e-03 -2.267801e-02 -2.700403e-02 -2.014324e-02 4.148179e-03 -3.939704e-03 3.126759e-02 1.583922e-02 4.312085e-02 1.164161e-03 -2.108730e-03 1.005033e-03 -5.816642e-04 -7.810926e-04 2.134655e-03 -6.938112e-04 1.091827e-03 -4.323124e-04 -1.804539e-04 1.144942e-04 1.440267e-04 3.373278e-04
<VARIANCE> 39
 1.090451e+02 7.783019e+01 1.144621e+02 5.725231e+01 5.630748e+01 5.313384e+01 1.057422e+02 3.628669e+01 4.711824e+01 2.636936e+01 4.526800e+01 2.363503e+01 8.384266e+01 1.872816e+00 2.325217e+00 3.640664e+00 2.241948e+00 2.144616e+00 2.861746e+00 2.552677e+00 2.459890e+00 2.395296e+00 1.637712e+00 1.853279e+00 1.351107e+00 1.400806e+00 1.977100e-01 2.517048e-01 3.934789e-01 3.122754e-01 3.130718e-01 5.256107e-01 4.165302e-01 4.214329e-01 4.096634e-01 3.001876e-01 3.084388e-01 2.482565e-01 1.592439e-01
<GCONST> 1.189965e+02
<STATE> 4
<MEAN> 39
 -6.868126e+00 -1.589915e+00 3.117544e+00 -2.124661e+00 -2.249039e+00 -8.204408e+00 -3.003270e+00 -3.013837e-01 2.506119e+00 -1.729222e+00 6.562397e+00 -1.493319e+00 5.781605e+01 2.979783e-02 -7.661936e-03 -3.297568e-02 4.660126e-03 2.773253e-03 1.197702e-02 -3.560395e-02 -8.254666e-03 7.494572e-04 2.336334e-03 3.186640e-02 2.260812e-02 2.408570e-02 1.151374e-03 -3.382999e-03 1.344218e-04 -1.592500e-03 1.659631e-05 3.406980e-03 3.829763e-04 9.903758e-04 -2.929388e-04 4.720748e-04 -6.864003e-04 -8.152732e-05 -2.237982e-03
<VARIANCE> 39
 1.163374e+02 8.083410e+01 1.120726e+02 5.470157e+01 5.664680e+01 5.266404e+01 1.145028e+02 3.728756e+01 4.897707e+01 2.769026e+01 4.775911e+01 2.356081e+01 8.188283e+01 1.852534e+00 2.361801e+00 3.662708e+00 2.222025e+00 2.127605e+00 2.817291e+00 2.590287e+00 2.544047e+00 2.554011e+00 1.680002e+00 1.943444e+00 1.351074e+00 1.328063e+00 1.896043e-01 2.469781e-01 3.801322e-01 3.087118e-01 3.098631e-01 5.201252e-01 4.194593e-01 4.283356e-01 4.348828e-01 3.073075e-01 3.196325e-01 2.479571e-01 1.463727e-01
<GCONST> 1.192900e+02
<TRANSP> 5
 0.000000e+00 1.000000e+00 0.000000e+00 0.000000e+00 0.000000e+00
 0.000000e+00 8.020158e-01 1.979842e-01 0.000000e+00 0.000000e+00
 0.000000e+00 0.000000e+00 8.020160e-01 1.979839e-01 0.000000e+00
 0.000000e+00 0.000000e+00 0.000000e+00 9.361193e-01 6.388072e-02
 0.000000e+00 0.000000e+00 0.000000e+00 0.000000e+00 0.000000e+00
<ENDHMM>
~h "T"
<BEGINHMM>
<NUMSTATES> 5
<STATE> 2
<MEAN> 39
 -8.642152e+00 -4.578597e+00 4.204926e+00 -1.772158e+00 -5.756720e-01 -2.708402e+00 -1.216244e-01 3.408355e-01 4.281319e+00 -7.278122e-01 4.044678e+00 -2.938836e+00 5.138319e+01 -2.714124e-02 -2.537367e-02 6.609111e-02 5.720071e-03 -3.429853e-02 -6.232001e-02 -5.265828e-02 -1.654477e-02 -9.177946e-03 1.419306e-02 3.033333e-02 1.804228e-02 1.898500e-02 2.034697e-03 -9.059699e-04 -4.020699e-04 -2.569382e-04 -6.012231e-04 -4.676040e-04 -1.049232e-03 1.992246e-03 2.615852e-04 -2.833088e-03 -7.716932e-05 6.592510e-04 2.170419e-03
<VARIANCE> 39
 5.708984e+01 2.750978e+01 1.156585e+02 5.683759e+01 5.947452e+01 4.181904e+01 7.799448e+01 2.977166e+01 4.022942e+01 2.351291e+01 2.809117e+01 2.438079e+01 8.840932e+01 1.411485e+00 9.446720e-01 1.892277e+00 1.633734e+00 1.881147e+00 1.744523e+00 2.456930e+00 2.066837e+00 1.968426e+00 1.654059e+00 1.497766e+00 1.325670e+00 9.726834e-01 1.666990e-01 1.453284e-01 2.121544e-01 2.594340e-01 2.917930e-01 2.897342e-01 4.311480e-01 3.995396e-01 3.576154e-01 3.186284e-01 2.716053e-01 2.497012e-01 1.007560e-01
<GCONST> 1.093208e+02
<STATE> 3
<MEAN> 39
 -8.741431e+00 -4.746057e+00 4.560566e+00 -1.739082e+00 -8.177829e-01 -3.088356e+00 -4.669111e-01 2.878439e-01 4.237783e+00 -7.158034e-01 4.186953e+00 -2.823595e+00 5.155516e+01 -1.507893e-02 -2.994967e-02 6.180281e-02 4.576069e-03 -4.293287e-02 -6.644510e-02 -6.260984e-02 -8.991546e-03 -8.093161e-03 6.855343e-04 2.423994e-02 1.947089e-02 2.965668e-02 2.247797e-03 -8.438965e-04 -9.095105e-04 -2.538014e-04 -1.512055e-03 -6.248588e-04 -1.789575e-03 1.375037e-03 1.556202e-04 -2.361350e-03 -1.219345e-03 2.053624e-04 1.978173e-03
<VARIANCE> 39
 5.753542e+01 2.869952e+01 1.201667e+02 5.316190e+01 6.178187e+01 4.089722e+01 7.820658e+01 3.025211e+01 4.129345e+01 2.331532e+01 2.792682e+01 2.420743e+01 8.617690e+01 1.485773e+00 9.895959e-01 1.975148e+00 1.619659e+00 1.904681e+00 1.763400e+00 2.457915e+00 2.110862e+00 2.012942e+00 1.650714e+00 1.448611e+00 1.314789e+00 9.896901e-01 1.731410e-01 1.524996e-01 2.174224e-01 2.564253e-01 2.900205e-01 2.953460e-01 4.308757e-01 4.072790e-01 3.651701e-01 3.160611e-01 2.602175e-01 2.446656e-01 1.023376e-01
<GCONST> 1.096243e+02
<STATE> 4
<MEAN> 39
 -8.279840e+00 -5.306431e+00 5.995936e+00 -1.858576e+00 -2.104231e+00 -4.134088e+00 -1.972166e+00 1.989790e-02 3.675564e+00 -1.039515e+00 4.618300e+00 -2.656309e+00 5.291573e+01 2.651072e-02 -1.681807e-02 8.301803e-02 4.853439e-03 -6.770586e-02 -4.821851e-02 -6.230111e-02 -1.720130e-02 -2.213599e-02 -1.453906e-02 1.937539e-02 1.518831e-02 4.394636e-02 2.315211e-03 1.074807e-03 1.726076e-04 -3.030371e-04 -4.029726e-04 1.930805e-03 7.759148e-04 -2.051341e-04 -7.031205e-04 -6.788876e-04 -4.476912e-04 -5.482022e-04 1.945317e-04
<VARIANCE> 39
 6.291365e+01 3.432398e+01 1.460567e+02 5.008878e+01 7.297475e+01 3.983799e+01 8.011726e+01 3.164357e+01 4.666858e+01 2.483466e+01 2.958963e+01 2.544991e+01 8.454964e+01 1.792524e+00 1.144755e+00 2.354743e+00 1.678914e+00 2.122613e+00 1.859684e+00 2.515271e+00 2.243375e+00 2.141534e+00 1.733317e+00 1.430160e+00 1.306922e+00 1.080639e+00 2.047881e-01 1.745152e-01 2.378677e-01 2.573925e-01 3.070202e-01 3.155033e-01 4.369792e-01 4.343505e-01 3.835868e-01 3.247431e-01 2.521945e-01 2.365678e-01 1.127372e-01
<GCONST> 1.121881e+02
<TRANSP> 5
 0.000000e+00 1.000000e+00 0.000000e+00 0.000000e+00 0.000000e+00
 0.000000e+00 8.142174e-01 1.857827e-01 0.000000e+00 0.000000e+00
 0.000000e+00 0.000000e+00 8.142172e-01 1.857829e-01 0.000000e+00
 0.000000e+00 0.000000e+00 0.000000e+00 9.483589e-01 5.164113e-02
 0.000000e+00 0.000000e+00 0.000000e+00 0.000000e+00 0.000000e+00
<ENDHMM>
~h "e"
<BEGINHMM>
<NUMSTATES> 5
<STATE> 2
<MEAN> 39
 -8.169647e+00 -2.288397e+00 4.814009e-01 -3.943894e+00 4.201871e-01 -8.049862e+00 -1.509476e+00 3.292435e+00 6.681253e+00 -3.285361e-01 2.385997e+00 -3.739154e+00 5.899603e+01 2.032865e-02 -4.395868e-02 6.504851e-02 -2.423296e-02 -3.645821e-02 -4.997912e-02 -8.689136e-02 4.952764e-02 3.821560e-02 -1.673517e-02 -3.260699e-02 -6.030200e-02 1.152504e-01 7.357989e-03 -4.939120e-03 4.755855e-03 -7.948286e-04 -3.410195e-03 2.732738e-03 -2.590293e-03 1.606205e-03 -1.678957e-04 -7.499894e-04 -6.402074e-04 -1.131273e-03 -4.864794e-04
<VARIANCE> 39
 1.629743e+02 7.694404e+01 5.787490e+01 4.672327e+01 5.026925e+01 3.601568e+01 9.462991e+01 5.476529e+01 2.886316e+01 2.452366e+01 3.743372e+01 1.892750e+01 7.593719e+01 3.995560e+00 2.424251e+00 1.651207e+00 2.372849e+00 1.945278e+00 2.410650e+00 3.024698e+00 3.446657e+00 1.667358e+00 2.018577e+00 1.721141e+00 1.296816e+00 1.521777e+00 4.451092e-01 2.896225e-01 2.179014e-01 3.692033e-01 2.882698e-01 4.286833e-01 5.088235e-01 5.472888e-01 3.079729e-01 4.060310e-01 3.049274e-01 2.544172e-01 1.721235e-01
<GCONST> 1.181552e+02
<STATE> 3
<MEAN> 39
 -7.926463e+00 -2.594423e+00 8.887687e-01 -4.064358e+00 2.064787e-01 -8.227519e+00 -1.967014e+00 3.550648e+00 6.855000e+00 -4.073468e-01 2.221713e+00 -4.039627e+00 5.949418e+01 6.040535e-02 -6.939889e-02 8.936715e-02 -2.381990e-02 -4.653633e-02 -3.233777e-02 -9.748805e-02 5.335653e-02 3.476891e-02 -1.761053e-02 -3.557535e-02 -6.330367e-02 9.978019e-02 8.295314e-03 -5.201478e-03 5.009524e-03 1.241228e-04 -1.742630e-03 3.959206e-03 -1.714810e-03 5.073087e-04 -8.659288e-04 -5.536655e-07 -5.958880e-04 -4.260289e-04 -3.993216e-03
<VARIANCE> 39
 1.605001e+02 7.850182e+01 5.651578e+01 4.767960e+01 5.013155e+01 3.525001e+01 9.254115e+01 5.768462e+01 2.836272e+01 2.371282e+01 3.668182e+01 1.913250e+01 7.284531e+01 3.932157e+00 2.442201e+00 1.608987e+00 2.421914e+00 1.930563e+00 2.336675e+00 3.001368e+00 3.586075e+00 1.664180e+00 1.952275e+00 1.735722e+00 1.297108e+00 1.542277e+00 4.357591e-01 2.905052e-01 2.155704e-01 3.729558e-01 2.865342e-01 4.158530e-01 4.980421e-01 5.687683e-01 3.080924e-01 3.939491e-01 3.037032e-01 2.555735e-01 1.784228e-01
<GCONST> 1.179939e+02
<STATE> 4
<MEAN> 39
 -6.852822e+00 -3.454391e+00 1.972956e+00 -4.313307e+00 -2.325888e-01 -8.323601e+00 -3.021879e+00 3.951614e+00 7.134628e+00 -5.410678e-01 1.865558e+00 -4.669833e+00 6.013931e+01 1.221914e-01 -8.950762e-02 1.213063e-01 4.669003e-04 -3.273373e-02 7.230576e-03 -1.044495e-01 3.082541e-02 2.043226e-02 -1.893755e-02 -4.723847e-02 -5.884342e-02 2.806409e-02 4.064117e-03 -5.345572e-04 1.340972e-03 2.543345e-03 2.120464e-03 4.270188e-03 1.529639e-03 -3.287734e-03 -1.928105e-03 3.889452e-05 -7.490566e-04 1.434462e-03 -8.181824e-03
<VARIANCE> 39
 1.463563e+02 7.706219e+01 5.305112e+01 4.887808e+01 4.992911e+01 3.409819e+01 9.003413e+01 6.159201e+01 2.737347e+01 2.333902e+01 3.594967e+01 1.959629e+01 7.079625e+01 3.518904e+00 2.354961e+00 1.524021e+00 2.520764e+00 1.886710e+00 2.161800e+00 2.863327e+00 3.794420e+00 1.654391e+00 1.836262e+00 1.787751e+00 1.254757e+00 1.547217e+00 3.854673e-01 2.793981e-01 2.119279e-01 3.846734e-01 2.806181e-01 3.887146e-01 4.673280e-01 6.047406e-01 3.040057e-01 3.716702e-01 3.069416e-01 2.473488e-01 1.873467e-01
<GCONST> 1.171654e+02
<TRANSP> 5
 0.000000e+00 1.000000e+00 0.000000e+00 0.000000e+00 0.000000e+00
 0.000000e+00 7.803515e-01 2.196485e-01 0.000000e+00 0.000000e+00
 0.000000e+00 0.000000e+00 7.803515e-01 2.196485e-01 0.000000e+00
 0.000000e+00 0.000000e+00 0.000000e+00 9.086410e-01 9.135896e-02
 0.000000e+00 0.000000e+00 0.000000e+00 0.000000e+00 0.000000e+00
<ENDHMM>
~h "f"
<BEGINHMM>
<NUMSTATES> 5
<STATE> 2
<MEAN> 39
 -5.113926e+00 -4.782072e+00 2.178860e-01 -3.932572e+00 -1.179765e+00 -1.964880e+00 -3.408942e-01 2.377103e+00 3.392769e+00 -1.164470e+00 4.934513e+00 -2.723946e+00 5.520366e+01 4.430051e-03 -8.158993e-03 -6.508828e-02 -2.320436e-02 5.695975e-04 2.320317e-02 3.180259e-02 1.809623e-02 1.331948e-02 8.098998e-04 1.040106e-02 9.677488e-03 -7.399512e-03 -2.147225e-03 -7.567828e-05 -1.124410e-03 -6.712552e-04 -3.642025e-04 -2.635499e-04 1.337515e-03 1.217503e-03 1.084124e-03 2.880349e-05 -5.000768e-04 1.086828e-03 -9.083956e-04
<VARIANCE> 39
 1.026723e+02 4.642342e+01 9.466264e+01 7.798807e+01 4.848417e+01 4.015074e+01 6.884061e+01 4.474093e+01 3.649553e+01 2.307361e+01 3.936545e+01 2.324823e+01 8.479707e+01 2.214343e+00 1.014972e+00 1.745246e+00 2.023129e+00 1.823037e+00 1.782298e+00 1.902669e+00 2.239133e+00 2.196605e+00 1.424717e+00 1.724047e+00 1.340361e+00 9.804314e-01 2.581133e-01 1.468869e-01 2.107938e-01 3.006437e-01 2.921052e-01 2.777747e-01 3.194288e-01 3.821436e-01 3.917928e-01 2.433094e-01 3.028966e-01 2.389685e-01 1.016518e-01
<GCONST> 1.114048e+02
<STATE> 3
<MEAN> 39
 -5.114563e+00 -4.827818e+00 -1.507043e-01 -4.068287e+00 -1.191139e+00 -1.851504e+00 -1.631819e-01 2.492150e+00 3.490683e+00 -1.153298e+00 4.993325e+00 -2.643896e+00 5.514402e+01 -3.479466e-03 -8.231149e-03 -6.650756e-02 -2.707301e-02 -2.929946e-03 2.269138e-02 3.589363e-02 2.084406e-02 1.915617e-02 3.370637e-03 9.259056e-03 1.584395e-02 -1.129114e-02 -1.229819e-03 -7.676848e-05 -1.454126e-04 -8.200598e-04 -7.202773e-04 -1.786928e-04 5.627157e-04 5.155950e-04 1.058547e-03 5.348664e-04 -1.168593e-04 1.090792e-03 -5.195855e-04
<VARIANCE> 39
 1.044904e+02 4.513369e+01 9.235662e+01 7.741956e+01 4.834629e+01 3.953686e+01 6.539808e+01 4.427938e+01 3.580460e+01 2.303610e+01 3.756881e+01 2.303514e+01 8.258097e+01 2.288598e+00 1.001105e+00 1.693157e+00 2.016474e+00 1.833679e+00 1.768027e+00 1.885436e+00 2.242645e+00 2.196599e+00 1.428586e+00 1.721643e+00 1.342536e+00 9.493960e-01 2.677345e-01 1.458110e-01 2.076284e-01 2.996315e-01 2.951732e-01 2.759992e-01 3.178792e-01 3.873949e-01 3.936377e-01 2.455629e-01 3.024188e-01 2.409841e-01 9.857177e-02
<GCONST> 1.111393e+02
<STATE> 4
<MEAN> 39
 -5.065655e+00 -4.983869e+00 -1.041082e+00 -4.715382e+00 -1.295239e+00 -1.636204e+00 3.698263e-01 2.885463e+00 3.877856e+00 -1.033859e+00 4.986373e+00 -2.534243e+00 5.502738e+01 4.441780e-03 -2.727587e-03 -4.964324e-02 -2.383961e-02 -1.492038e-03 1.784955e-02 3.190390e-02 1.530321e-02 2.041176e-02 3.308770e-03 1.395279e-04 1.384041e-02 -2.098629e-02 2.788048e-04 1.735967e-04 1.719734e-03 -4.871988e-05 -1.222794e-05 -3.108432e-04 -2.851990e-04 -3.583697e-04 -7.249140e-06 1.403356e-04 -6.778114e-04 -3.085663e-04 -4.726588e-05
<VARIANCE> 39
 1.101437e+02 4.170819e+01 8.944347e+01 7.710498e+01 4.880716e+01 3.845635e+01 5.674893e+01 4.295586e+01 3.298781e+01 2.247689e+01 3.277115e+01 2.295294e+01 8.059030e+01 2.436298e+00 9.563995e-01 1.617005e+00 1.991493e+00 1.906402e+00 1.781729e+00 1.887770e+00 2.234937e+00 2.145870e+00 1.426707e+00 1.735439e+00 1.384823e+00 9.254730e-01 2.836237e-01 1.406550e-01 2.021969e-01 2.909367e-01 3.087920e-01 2.783328e-01 3.224133e-01 3.926297e-01 3.847035e-01 2.531702e-01 3.066694e-01 2.516571e-01 9.415215e-02
<GCONST> 1.106727e+02
<TRANSP> 5
 0.000000e+00 1.000000e+00 0.000000e+00 0.000000e+00 0.000000e+00
 0.000000e+00 8.110722e-01 1.889278e-01 0.000000e+00 0.000000e+00
 0.000000e+00 0.000000e+00 8.110722e-01 1.889278e-01 0.000000e+00
 0.000000e+00 0.000000e+00 0.000000e+00 9.455279e-01 5.447214e-02
 0.000000e+00 0.000000e+00 0.000000e+00 0.000000e+00 0.000000e+00
<ENDHMM>
~h "i"
<BEGINHMM>
<NUMSTATES> 5
<STATE> 2
<MEAN> 39
 -6.697894e+00 -4.343482e+00 8.266366e+00 -2.098356e+00 -3.382677e+00 -3.609851e+00 -2.206531e+00 -5.632855e-01 2.815811e+00 -1.489691e+00 4.838880e+00 -2.819995e+00 5.293586e+01 4.641576e-02 3.038634e-02 1.846635e-02 -2.862710e-02 -8.824744e-03 3.769896e-02 6.993975e-03 1.744154e-03 -2.428552e-02 -1.192476e-02 3.866493e-03 -2.129390e-02 1.449682e-02 -3.722922e-04 4.626912e-04 -1.652126e-03 -1.549839e-04 1.078961e-03 8.553810e-04 1.247265e-03 -4.845819e-06 3.695542e-04 2.907577e-04 -4.684550e-04 -2.191115e-04 2.281870e-04
<VARIANCE> 39
 5.740054e+01 4.051343e+01 1.541579e+02 6.488393e+01 8.231409e+01 3.979730e+01 7.170026e+01 2.988198e+01 4.096416e+01 2.539018e+01 3.443729e+01 2.316855e+01 8.822884e+01 1.633004e+00 1.168254e+00 2.526939e+00 1.995040e+00 2.216124e+00 1.896324e+00 2.091156e+00 2.129344e+00 1.909041e+00 1.613153e+00 1.534134e+00 1.277235e+00 1.129304e+00 1.982219e-01 1.653337e-01 2.462313e-01 3.033900e-01 2.964131e-01 3.209018e-01 3.592593e-01 4.095400e-01 3.496149e-01 2.927399e-01 2.676767e-01 2.370535e-01 1.184425e-01
<GCONST> 1.121728e+02
<STATE> 3
<MEAN> 39
 -6.463171e+00 -4.166440e+00 8.318933e+00 -2.262161e+00 -3.396736e+00 -3.385300e+00 -2.137291e+00 -5.395814e-01 2.698282e+00 -1.548370e+00 4.843492e+00 -2.949102e+00 5.299593e+01 4.383289e-02 3.125473e-02 7.088867e-03 -2.931955e-02 -2.491914e-03 4.110350e-02 1.359375e-02 2.621363e-03 -2.117654e-02 -9.982139e-03 8.643115e-04 -2.184829e-02 1.663699e-02 -7.737025e-04 -6.728322e-05 -1.844063e-03 -6.845109e-05 1.086081e-03 5.081628e-04 1.389099e-03 -3.720687e-04 3.717565e-04 4.140367e-04 -6.328516e-04 3.202270e-05 8.265442e-04
<VARIANCE> 39
 5.706284e+01 4.108385e+01 1.527923e+02 6.962818e+01 8.280109e+01 4.152743e+01 7.052939e+01 3.007076e+01 3.981223e+01 2.581541e+01 3.557452e+01 2.274491e+01 8.942744e+01 1.596024e+00 1.177745e+00 2.512486e+00 2.055651e+00 2.214120e+00 1.938917e+00 2.043010e+00 2.112613e+00 1.880115e+00 1.604474e+00 1.551702e+00 1.273722e+00 1.166560e+00 1.972644e-01 1.641360e-01 2.465040e-01 3.110637e-01 2.954537e-01 3.240825e-01 3.499297e-01 4.048866e-01 3.453077e-01 2.897628e-01 2.692626e-01 2.383388e-01 1.227109e-01
<GCONST> 1.123233e+02
<STATE> 4
<MEAN> 39
 -5.945296e+00 -3.783681e+00 8.415141e+00 -2.868921e+00 -3.455154e+00 -2.836174e+00 -2.006704e+00 -5.283362e-01 2.355617e+00 -1.658829e+00 4.683422e+00 -3.401535e+00 5.347906e+01 3.350604e-02 2.251963e-02 -3.490525e-02 -2.976586e-02 1.853754e-02 4.359690e-02 3.273259e-02 1.058188e-02 -4.712584e-03 4.645058e-04 -1.187425e-02 -1.874685e-02 2.209120e-02 -1.409960e-03 -1.201309e-03 -2.078610e-03 2.984736e-04 1.024967e-03 -3.934027e-04 1.004418e-03 -7.813413e-04 4.631942e-04 4.176665e-04 -8.898575e-04 5.019499e-04 1.938465e-03
<VARIANCE> 39
 5.728759e+01 4.287911e+01 1.499801e+02 8.389046e+01 8.380030e+01 4.614452e+01 6.788757e+01 3.108276e+01 3.758967e+01 2.666308e+01 3.896157e+01 2.193372e+01 9.394686e+01 1.502915e+00 1.202086e+00 2.509192e+00 2.232151e+00 2.270672e+00 2.067478e+00 1.996256e+00 2.092006e+00 1.815242e+00 1.575773e+00 1.609270e+00 1.268735e+00 1.385889e+00 1.929355e-01 1.602425e-01 2.596973e-01 3.306359e-01 3.064698e-01 3.345613e-01 3.401641e-01 3.952726e-01 3.329673e-01 2.855184e-01 2.793047e-01 2.407179e-01 1.486173e-01
<GCONST> 1.132484e+02
<TRANSP> 5
 0.000000e+00 1.000000e+00 0.000000e+00 0.000000e+00 0.000000e+00
 0.000000e+00 8.142106e-01 1.857895e-01 0.000000e+00 0.000000e+00
 0.000000e+00 0.000000e+00 8.142104e-01 1.857896e-01 0.000000e+00
 0.000000e+00 0.000000e+00 0.000000e+00 9.483376e-01 5.166240e-02
 0.000000e+00 0.000000e+00 0.000000e+00 0.000000e+00 0.000000e+00
<ENDHMM>
~h "k"
<BEGINHMM>
<NUMSTATES> 5
<STATE> 2
<MEAN> 39
 -1.742298e+01 -1.052705e-01 -6.236328e-01 -3.444811e+00 1.619356e+00 -8.706083e+00 4.878064e+00 5.885309e-01 2.430267e+00 -1.497660e+00 4.503519e+00 -1.597252e+00 5.541510e+01 -1.327623e-02 -3.295092e-02 -2.262099e-02 -1.299374e-02 4.746739e-03 6.147475e-02 8.739941e-02 8.793344e-03 3.725859e-02 -4.267137e-03 -4.914472e-02 2.788595e-03 -3.365474e-02 8.611669e-03 -4.903094e-03 1.293306e-03 -2.657954e-05 -5.039242e-03 3.317045e-03 -4.083043e-03 -9.920024e-04 -1.062853e-04 2.505324e-05 -4.403628e-04 -6.640872e-04 -1.091279e-03
<VARIANCE> 39
 1.044655e+02 5.804634e+01 8.170815e+01 3.336279e+01 8.364803e+01 5.208989e+01 6.014003e+01 2.171826e+01 3.575675e+01 2.147198e+01 3.139532e+01 1.772595e+01 7.137550e+01 3.238041e+00 2.157975e+00 3.334769e+00 1.550516e+00 2.782960e+00 2.489753e+00 2.554894e+00 1.889306e+00 2.114481e+00 1.504838e+00 1.721823e+00 1.586297e+00 1.329750e+00 3.430453e-01 2.830131e-01 4.651662e-01 2.497375e-01 3.588601e-01 4.529478e-01 4.428903e-01 3.551912e-01 4.046919e-01 2.932430e-01 2.859809e-01 3.100358e-01 1.644628e-01
<GCONST> 1.161192e+02
<STATE> 3
<MEAN> 39
 -1.737588e+01 -3.465732e-01 -7.176979e-01 -3.513081e+00 1.622671e+00 -8.342961e+00 5.263843e+00 6.148139e-01 2.610534e+00 -1.509278e+00 4.241492e+00 -1.583327e+00 5.519768e+01 2.934131e-02 -5.562961e-02 -1.669100e-02 -1.124706e-02 -1.728911e-02 7.854667e-02 6.886360e-02 3.734878e-03 3.695830e-02 -3.542259e-03 -5.179516e-02 -7.945960e-04 -4.288185e-02 7.646409e-03 -3.805657e-03 1.110579e-03 3.799255e-04 -4.107803e-03 1.974128e-03 -3.720672e-03 -5.806321e-04 -2.674233e-04 7.178178e-05 -3.737047e-04 -8.164801e-04 -1.197784e-03
<VARIANCE> 39
 9.916258e+01 5.791409e+01 8.376681e+01 3.190094e+01 8.275584e+01 5.322544e+01 5.584452e+01 2.105561e+01 3.460615e+01 2.230712e+01 3.026510e+01 1.761187e+01 7.269178e+01 3.144902e+00 2.097354e+00 3.263485e+00 1.531201e+00 2.707901e+00 2.440097e+00 2.547559e+00 1.853811e+00 2.140482e+00 1.484164e+00 1.650708e+00 1.594499e+00 1.284133e+00 3.358097e-01 2.717502e-01 4.559593e-01 2.492688e-01 3.514259e-01 4.414667e-01 4.396361e-01 3.481050e-01 4.093608e-01 2.874095e-01 2.746205e-01 3.144400e-01 1.592248e-01
<GCONST> 1.154712e+02
<STATE> 4
<MEAN> 39
 -1.693356e+01 -1.020970e+00 -7.387666e-01 -3.591108e+00 1.711212e+00 -7.659369e+00 5.847199e+00 5.750771e-01 2.982417e+00 -1.524530e+00 3.668188e+00 -1.413898e+00 5.459281e+01 8.412515e-02 -7.859895e-02 -1.708879e-02 -1.470250e-03 -1.600201e-02 1.111097e-01 4.492863e-02 -5.669068e-03 3.905776e-02 2.997580e-03 -6.044485e-02 -4.530590e-03 -8.341000e-02 4.185718e-03 -5.476524e-04 3.077367e-05 1.033941e-03 -1.318180e-03 2.396934e-04 -2.656042e-03 2.511949e-05 -1.854053e-04 3.865727e-04 8.932658e-05 -6.902301e-04 -1.251520e-03
<VARIANCE> 39
 8.677695e+01 5.457096e+01 8.339776e+01 2.799426e+01 7.860943e+01 5.634865e+01 4.839894e+01 1.982549e+01 3.132449e+01 2.297085e+01 2.874619e+01 1.738588e+01 7.079473e+01 2.811867e+00 1.942258e+00 3.006767e+00 1.464070e+00 2.495997e+00 2.319337e+00 2.419724e+00 1.795825e+00 2.086846e+00 1.449940e+00 1.527673e+00 1.616116e+00 1.189544e+00 3.022908e-01 2.510347e-01 4.203415e-01 2.439114e-01 3.293536e-01 4.145339e-01 4.147525e-01 3.380204e-01 3.989148e-01 2.751158e-01 2.537851e-01 3.222393e-01 1.520377e-01
<GCONST> 1.133911e+02
<TRANSP> 5
 0.000000e+00 1.000000e+00 0.000000e+00 0.000000e+00 0.000000e+00
 0.000000e+00 7.978063e-01 2.021938e-01 0.000000e+00 0.000000e+00
 0.000000e+00 0.000000e+00 7.978061e-01 2.021939e-01 0.000000e+00
 0.000000e+00 0.000000e+00 0.000000e+00 9.310738e-01 6.892619e-02
 0.000000e+00 0.000000e+00 0.000000e+00 0.000000e+00 0.000000e+00
<ENDHMM>
~h "n"
<BEGINHMM>
<NUMSTATES> 5
<STATE> 2
<MEAN> 39
 -5.053383e+00 -5.048817e+00 4.186899e+00 -3.087556e+00 9.679887e-02 -2.492991e+00 -8.680589e-01 8.560320e-01 4.446120e+00 -1.433300e+00 9.206821e-01 -4.320946e+00 5.504340e+01 -3.824741e-02 1.063768e-02 8.432556e-03 3.336442e-02 7.456035e-03 -4.117630e-03 1.943269e-02 -2.931868e-02 -1.347999e-02 1.312114e-02 1.154965e-02 1.980677e-02 -3.309020e-02 -7.265485e-04 4.179643e-04 1.886048e-04 -3.165447e-04 -1.182605e-04 -1.780555e-03 -6.742206e-04 7.801072e-04 3.416670e-04 6.103194e-04 1.735589e-03 4.291277e-04 7.371833e-04
<VARIANCE> 39
 6.161014e+01 6.151338e+01 7.009536e+01 8.170119e+01 5.498316e+01 5.690335e+01 6.768871e+01 4.246693e+01 2.821127e+01 2.439851e+01 4.218034e+01 2.261188e+01 1.131333e+02 1.191782e+00 1.526456e+00 2.130063e+00 2.626742e+00 2.047561e+00 2.474120e+00 2.294359e+00 2.580738e+00 1.781291e+00 1.485021e+00 1.736238e+00 1.279771e+00 1.369293e+00 1.549893e-01 1.900882e-01 2.882019e-01 4.026824e-01 3.082268e-01 3.924164e-01 4.079536e-01 4.539625e-01 3.337479e-01 2.748409e-01 2.934915e-01 2.404310e-01 1.588250e-01
<GCONST> 1.141551e+02
<STATE> 3
<MEAN> 39
 -5.270646e+00 -4.997544e+00 4.251972e+00 -2.917182e+00 1.258579e-01 -2.552844e+00 -7.802660e-01 7.266738e-01 4.396896e+00 -1.351067e+00 9.863254e-01 -4.212100e+00 5.488394e+01 -4.047950e-02 1.309814e-02 9.844264e-03 3.009738e-02 5.303289e-03 -1.324680e-02 1.514375e-02 -2.512023e-02 -1.157047e-02 1.530552e-02 1.897219e-02 2.236352e-02 -2.946690e-02 -3.109500e-04 3.942627e-04 2.824424e-04 -1.206914e-03 -4.990455e-04 -1.620622e-03 -7.009963e-04 4.572999e-04 6.762267e-05 3.356903e-04 1.021894e-03 3.833033e-04 9.930960e-04
<VARIANCE> 39
 6.208413e+01 6.155014e+01 7.239088e+01 7.957722e+01 5.489530e+01 5.649721e+01 6.839089e+01 4.091098e+01 2.820508e+01 2.437704e+01 4.210822e+01 2.228125e+01 1.132827e+02 1.199650e+00 1.521253e+00 2.204047e+00 2.614696e+00 2.050277e+00 2.439646e+00 2.298927e+00 2.562688e+00 1.783583e+00 1.463012e+00 1.722430e+00 1.275047e+00 1.369223e+00 1.553831e-01 1.902735e-01 2.950885e-01 4.034428e-01 3.083663e-01 3.880535e-01 4.079053e-01 4.513381e-01 3.352420e-01 2.699952e-01 2.919395e-01 2.392689e-01 1.600378e-01
<GCONST> 1.141034e+02
<STATE> 4
<MEAN> 39
 -5.605224e+00 -4.994883e+00 4.687898e+00 -2.831987e+00 -9.636743e-02 -2.557664e+00 -7.251320e-01 3.984310e-01 4.145887e+00 -1.166168e+00 1.082168e+00 -4.126458e+00 5.471367e+01 -4.117707e-02 1.383038e-02 1.605829e-02 2.067237e-02 -6.761795e-03 -2.785886e-02 1.015238e-02 -1.691502e-02 -4.977924e-03 1.910100e-02 2.394909e-02 2.630790e-02 -2.331998e-02 5.967376e-04 7.598966e-05 -7.312845e-05 -1.873546e-03 -7.472861e-04 -4.384393e-04 3.649717e-05 -1.175120e-04 -6.241508e-04 -1.237501e-04 5.188233e-04 1.633621e-04 1.077997e-03
<VARIANCE> 39
 6.165102e+01 6.045644e+01 8.455962e+01 7.875289e+01 5.581349e+01 5.398438e+01 6.946350e+01 3.844977e+01 2.888684e+01 2.507110e+01 4.137599e+01 2.243005e+01 1.159265e+02 1.210304e+00 1.484752e+00 2.393316e+00 2.639273e+00 2.060486e+00 2.315622e+00 2.348621e+00 2.514242e+00 1.807557e+00 1.448657e+00 1.696368e+00 1.277334e+00 1.438104e+00 1.574469e-01 1.908038e-01 3.151577e-01 4.075021e-01 3.063403e-01 3.709860e-01 4.171755e-01 4.450939e-01 3.449752e-01 2.650989e-01 2.903986e-01 2.398182e-01 1.692386e-01
<GCONST> 1.143947e+02
<TRANSP> 5
 0.000000e+00 1.000000e+00 0.000000e+00 0.000000e+00 0.000000e+00
 0.000000e+00 8.038746e-01 1.961254e-01 0.000000e+00 0.000000e+00
 0.000000e+00 0.000000e+00 8.038747e-01 1.961252e-01 0.000000e+00
 0.000000e+00 0.000000e+00 0.000000e+00 9.394753e-01 6.052466e-02
 0.000000e+00 0.000000e+00 0.000000e+00 0.000000e+00 0.000000e+00
<ENDHMM>
~h "o"
<BEGINHMM>
<NUMSTATES> 5
<STATE> 2
<MEAN> 39
 -3.910594e+00 -3.250862e+00 2.186031e+00 -2.418475e+00 -2.113328e+00 -5.660817e+00 -4.550365e+00 -2.598212e-01 2.651072e+00 -1.083631e+00 7.288474e+00 -1.096895e+00 5.654099e+01 -2.040841e-02 -3.375619e-02 -3.179856e-02 -3.056097e-02 4.062129e-02 7.939665e-02 4.736776e-02 1.183198e-02 -5.482502e-03 2.074392e-02 -2.153469e-02 -1.596258e-02 -8.263306e-02 -2.557083e-03 8.254563e-04 2.594505e-04 -6.696393e-04 7.885391e-04 -3.900239e-04 3.004325e-03 -7.505414e-05 3.360882e-04 9.178828e-05 -1.666640e-03 -1.437857e-03 -1.234943e-03
<VARIANCE> 39
 8.890928e+01 6.511528e+01 8.240319e+01 5.529443e+01 4.551757e+01 4.904280e+01 1.219134e+02 4.311015e+01 5.604239e+01 2.784599e+01 5.318239e+01 2.110260e+01 1.015762e+02 1.251541e+00 1.716758e+00 2.635656e+00 2.033763e+00 1.693472e+00 2.072124e+00 2.145591e+00 2.545560e+00 2.505401e+00 1.646729e+00 2.048760e+00 1.314313e+00 9.560469e-01 1.184248e-01 1.764411e-01 2.677230e-01 2.890303e-01 2.678539e-01 3.854743e-01 3.468666e-01 4.054161e-01 4.029619e-01 2.976610e-01 3.415673e-01 2.395746e-01 9.879722e-02
<GCONST> 1.142016e+02
<STATE> 3
<MEAN> 39
 -4.078119e+00 -3.379932e+00 2.021243e+00 -2.569047e+00 -1.882234e+00 -5.251421e+00 -4.222595e+00 -2.076108e-01 2.633831e+00 -9.833797e-01 7.139157e+00 -1.200708e+00 5.606969e+01 -3.520466e-02 -2.640106e-02 -2.774451e-02 -3.157569e-02 4.385454e-02 7.532558e-02 6.359500e-02 1.077436e-02 -3.908222e-03 1.976123e-02 -3.019214e-02 -2.349244e-02 -8.591306e-02 -2.766592e-03 1.279090e-03 7.031101e-04 -4.681368e-04 6.755109e-04 -7.781053e-04 3.271731e-03 -6.614468e-04 -1.264133e-04 -5.526776e-04 -1.604110e-03 -1.388849e-03 1.609966e-04
<VARIANCE> 39
 8.933897e+01 6.125415e+01 7.763778e+01 5.565559e+01 4.508906e+01 4.781993e+01 1.220224e+02 4.325362e+01 5.625358e+01 2.729382e+01 5.355091e+01 2.090963e+01 1.044657e+02 1.239378e+00 1.626947e+00 2.455691e+00 2.001190e+00 1.665092e+00 1.988543e+00 2.077582e+00 2.501403e+00 2.432458e+00 1.641604e+00 2.033054e+00 1.319759e+00 9.554905e-01 1.191718e-01 1.743349e-01 2.570392e-01 2.879843e-01 2.636254e-01 3.706298e-01 3.392683e-01 3.974734e-01 3.890842e-01 2.980037e-01 3.399644e-01 2.419576e-01 1.003923e-01
<GCONST> 1.136164e+02
<STATE> 4
<MEAN> 39
 -4.623251e+00 -3.294661e+00 1.807078e+00 -2.805307e+00 -1.299542e+00 -4.390373e+00 -3.220134e+00 -3.572237e-01 2.625112e+00 -9.227762e-01 6.773527e+00 -1.509574e+00 5.493938e+01 -7.081348e-02 -3.365951e-03 -9.279496e-03 -2.163151e-02 4.615123e-02 6.325237e-02 1.007812e-01 7.207180e-03 2.068857e-03 9.690407e-03 -4.974150e-02 -3.482771e-02 -8.063202e-02 -1.992275e-03 8.974164e-04 1.430403e-03 -2.233881e-04 2.115427e-04 -1.225604e-03 1.878383e-03 -1.054301e-03 -9.244699e-04 -1.424022e-03 -1.150140e-03 -4.913458e-04 2.792235e-03
<VARIANCE> 39
 8.854504e+01 5.354918e+01 7.063992e+01 5.809731e+01 4.358280e+01 4.476839e+01 1.155665e+02 4.273712e+01 5.683430e+01 2.653805e+01 5.478944e+01 2.115862e+01 1.054476e+02 1.211221e+00 1.490131e+00 2.124083e+00 1.979383e+00 1.644520e+00 1.894696e+00 2.010735e+00 2.381261e+00 2.336702e+00 1.649666e+00 2.052124e+00 1.347098e+00 1.018499e+00 1.231757e-01 1.767836e-01 2.409728e-01 2.903065e-01 2.596865e-01 3.526378e-01 3.366088e-01 3.797176e-01 3.693562e-01 3.024113e-01 3.454852e-01 2.502198e-01 1.108434e-01
<GCONST> 1.129139e+02
<TRANSP> 5
 0.000000e+00 1.000000e+00 0.000000e+00 0.000000e+00 0.000000e+00
 0.000000e+00 8.030767e-01 1.969232e-01 0.000000e+00 0.000000e+00
 0.000000e+00 0.000000e+00 8.030769e-01 1.969230e-01 0.000000e+00
 0.000000e+00 0.000000e+00 0.000000e+00 9.372733e-01 6.272671e-02
 0.000000e+00 0.000000e+00 0.000000e+00 0.000000e+00 0.000000e+00
<ENDHMM>
~h "r"
<BEGINHMM>
<NUMSTATES> 5
<STATE> 2
<MEAN> 39
 -4.987894e+00 -3.082814e+00 2.855755e+00 -2.591688e+00 -2.481584e+00 -5.470700e+00 -2.916204e+00 1.327287e-01 3.454201e+00 -1.302121e+00 5.964869e+00 -1.564015e+00 5.593280e+01 2.660387e-02 -1.357232e-02 9.855310e-03 -3.999135e-03 -3.945527e-03 1.882083e-02 -2.933863e-02 -7.824762e-03 -7.946198e-03 7.349960e-03 1.621546e-02 9.397351e-03 3.104671e-03 -7.508049e-04 -1.507611e-03 5.394246e-04 -9.358703e-04 6.189458e-04 1.575213e-03 1.084761e-03 7.429285e-04 -5.074121e-04 3.401335e-04 -5.117325e-04 -4.911069e-04 -1.568473e-03
<VARIANCE> 39
 9.396452e+01 5.866055e+01 1.318885e+02 6.044384e+01 5.553481e+01 4.892979e+01 9.911555e+01 3.719012e+01 4.525676e+01 2.747928e+01 4.212713e+01 2.224483e+01 8.853545e+01 1.715549e+00 1.681213e+00 2.873260e+00 2.067536e+00 1.971659e+00 2.207822e+00 2.425083e+00 2.397240e+00 2.377543e+00 1.688480e+00 1.809571e+00 1.304819e+00 1.121890e+00 1.771042e-01 1.870545e-01 2.850506e-01 2.933817e-01 2.979858e-01 4.041495e-01 3.986616e-01 4.123583e-01 4.094182e-01 3.050387e-01 3.101659e-01 2.397382e-01 1.182451e-01
<GCONST> 1.156584e+02
<STATE> 3
<MEAN> 39
 -4.860725e+00 -3.177913e+00 2.914648e+00 -2.630360e+00 -2.491050e+00 -5.340853e+00 -3.047031e+00 9.277033e-02 3.405593e+00 -1.255473e+00 6.042525e+00 -1.520442e+00 5.590649e+01 2.123805e-02 -1.935740e-02 1.125372e-02 -8.925300e-03 7.206735e-04 2.750230e-02 -2.140228e-02 -4.689851e-03 -1.004587e-02 9.552251e-03 1.259892e-02 5.656276e-03 -7.371978e-03 -9.778459e-04 -1.242391e-03 1.496074e-04 -1.029234e-03 7.893086e-04 1.461743e-03 1.361038e-03 6.139211e-04 -3.172472e-04 4.571728e-04 -6.311027e-04 -6.783599e-04 -1.875238e-03
<VARIANCE> 39
 9.390413e+01 5.789196e+01 1.319328e+02 6.021084e+01 5.615876e+01 4.818544e+01 1.008959e+02 3.735405e+01 4.576247e+01 2.750220e+01 4.268092e+01 2.200794e+01 9.001905e+01 1.693162e+00 1.641364e+00 2.825430e+00 2.052378e+00 1.960857e+00 2.152335e+00 2.397158e+00 2.397477e+00 2.373512e+00 1.691083e+00 1.826595e+00 1.306263e+00 1.104963e+00 1.733075e-01 1.826375e-01 2.781286e-01 2.925480e-01 2.955702e-01 3.947007e-01 3.944074e-01 4.109569e-01 4.078842e-01 3.054566e-01 3.132315e-01 2.399599e-01 1.159614e-01
<GCONST> 1.154513e+02
<STATE> 4
<MEAN> 39
 -4.705862e+00 -3.414459e+00 3.311961e+00 -2.850538e+00 -2.437562e+00 -4.757967e+00 -3.147576e+00 -1.326486e-01 3.123004e+00 -1.191279e+00 6.114908e+00 -1.607331e+00 5.548201e+01 -2.152985e-03 -1.271504e-02 9.998074e-03 -1.497959e-02 1.438811e-02 4.139074e-02 1.064162e-02 -2.851073e-03 -1.032879e-02 1.168553e-02 -7.427288e-04 -7.582449e-03 -3.702744e-02 -1.605633e-03 1.628411e-04 -4.353773e-04 -5.973086e-04 9.058433e-04 6.475857e-04 2.139506e-03 4.907009e-04 8.170364e-05 1.738188e-04 -1.009398e-03 -1.049587e-03 -1.432785e-03
<VARIANCE> 39
 9.057908e+01 5.312651e+01 1.347113e+02 6.223906e+01 5.866891e+01 4.569241e+01 1.022524e+02 3.790610e+01 4.790767e+01 2.754691e+01 4.458746e+01 2.217837e+01 9.385592e+01 1.605069e+00 1.489870e+00 2.637931e+00 2.038072e+00 1.970152e+00 2.031249e+00 2.318751e+00 2.358756e+00 2.345638e+00 1.706755e+00 1.877189e+00 1.318120e+00 1.114807e+00 1.659506e-01 1.724422e-01 2.593222e-01 2.951742e-01 2.951529e-01 3.739832e-01 3.863390e-01 4.027260e-01 3.990251e-01 3.093154e-01 3.225210e-01 2.431376e-01 1.169182e-01
<GCONST> 1.150396e+02
<TRANSP> 5
 0.000000e+00 1.000000e+00 0.000000e+00 0.000000e+00 0.000000e+00
 0.000000e+00 8.072788e-01 1.927213e-01 0.000000e+00 0.000000e+00
 0.000000e+00 0.000000e+00 8.072786e-01 1.927214e-01 0.000000e+00
 0.000000e+00 0.000000e+00 0.000000e+00 9.417651e-01 5.823486e-02
 0.000000e+00 0.000000e+00 0.000000e+00 0.000000e+00 0.000000e+00
<ENDHMM>
~h "s"
<BEGINHMM>
<NUMSTATES> 5
<STATE> 2
<MEAN> 39
 -1.049687e+01 -2.205282e+00 8.681586e-02 -3.536089e+00 4.310700e-01 -6.641759e+00 1.066666e+00 1.166722e+00 4.094353e+00 -6.812258e-01 3.732426e+00 -2.236273e+00 5.553135e+01 -4.156245e-02 9.537195e-03 -2.874553e-02 -4.113883e-03 2.149610e-02 -8.034805e-03 3.294339e-02 -1.490997e-03 1.085256e-02 2.199762e-03 -2.344715e-02 -1.184519e-02 -8.043507e-03 -2.473233e-03 8.395145e-04 1.626229e-03 2.427207e-03 6.584036e-04 -3.409307e-03 -1.875271e-03 4.615253e-04 3.178109e-04 -1.734969e-04 -6.719558e-04 -3.222902e-04 2.801052e-03
<VARIANCE> 39
 1.344793e+02 5.661748e+01 8.218968e+01 4.165274e+01 5.999250e+01 4.631447e+01 1.046192e+02 3.371518e+01 3.859666e+01 2.638658e+01 4.089047e+01 1.875524e+01 9.342348e+01 2.741327e+00 1.822599e+00 2.484308e+00 1.794977e+00 2.087155e+00 2.076043e+00 2.465451e+00 2.345888e+00 1.914113e+00 1.719428e+00 1.661105e+00 1.406436e+00 1.210850e+00 2.958311e-01 2.280607e-01 3.232969e-01 2.868508e-01 3.014472e-01 3.721178e-01 4.276030e-01 3.994946e-01 3.474165e-01 3.246401e-01 2.837909e-01 2.699898e-01 1.400854e-01
<GCONST> 1.157674e+02
<STATE> 3
<MEAN> 39
 -1.072945e+01 -2.138677e+00 -4.777187e-02 -3.534192e+00 5.289984e-01 -6.710024e+00 1.215831e+00 1.182476e+00 4.169545e+00 -6.831124e-01 3.609375e+00 -2.300047e+00 5.553728e+01 -5.050929e-02 1.569447e-02 -2.314867e-02 7.157698e-04 2.016709e-02 -2.113868e-02 2.786789e-02 5.902929e-03 1.510336e-02 -1.096290e-03 -2.497555e-02 -1.464332e-02 1.059878e-02 -1.622113e-03 1.071165e-03 1.228864e-03 5.762996e-04 -2.520984e-04 -2.012386e-03 -7.682770e-04 1.223092e-03 8.551816e-04 -8.985599e-04 -4.306941e-04 -6.104973e-04 4.294003e-03
<VARIANCE> 39
 1.340356e+02 5.659987e+01 7.868654e+01 4.136923e+01 5.887933e+01 4.650682e+01 1.015756e+02 3.447990e+01 3.893724e+01 2.623122e+01 4.024300e+01 1.883988e+01 9.241290e+01 2.879271e+00 1.867421e+00 2.413562e+00 1.809803e+00 2.072030e+00 2.148685e+00 2.521073e+00 2.383579e+00 1.899958e+00 1.751519e+00 1.673561e+00 1.433219e+00 1.255821e+00 3.156045e-01 2.366546e-01 3.182305e-01 2.916901e-01 2.977318e-01 3.857985e-01 4.373800e-01 4.055066e-01 3.440345e-01 3.325687e-01 2.867472e-01 2.755525e-01 1.459005e-01
<GCONST> 1.161139e+02
<STATE> 4
<MEAN> 39
 -1.150048e+01 -1.981356e+00 -2.021083e-01 -3.664645e+00 6.690643e-01 -6.911622e+00 1.685886e+00 1.193665e+00 4.266129e+00 -7.824224e-01 3.468225e+00 -2.333310e+00 5.567520e+01 -3.591435e-02 7.901835e-03 -4.029552e-03 -4.552498e-03 6.327553e-03 -2.269236e-02 1.880111e-02 2.468785e-02 2.123963e-02 -5.461676e-03 -2.504574e-02 -2.341415e-02 3.590358e-02 1.892004e-03 -1.278316e-03 3.092203e-03 -5.838517e-04 -8.325341e-04 2.876482e-04 -1.415243e-03 4.742090e-04 -1.048890e-04 -9.157261e-04 -3.363879e-04 -1.020688e-03 3.059364e-03
<VARIANCE> 39
 1.314204e+02 5.723476e+01 7.592937e+01 3.970974e+01 5.844926e+01 4.744225e+01 9.320462e+01 3.561221e+01 3.743453e+01 2.513803e+01 3.799189e+01 1.907490e+01 8.734798e+01 3.048968e+00 1.967268e+00 2.362746e+00 1.812744e+00 2.086715e+00 2.213722e+00 2.557444e+00 2.425451e+00 1.858932e+00 1.724494e+00 1.661407e+00 1.446751e+00 1.335730e+00 3.370813e-01 2.530476e-01 3.151186e-01 2.944786e-01 2.956967e-01 3.991096e-01 4.401760e-01 4.152416e-01 3.394334e-01 3.297715e-01 2.823335e-01 2.804373e-01 1.591583e-01
<GCONST> 1.162456e+02
<TRANSP> 5
 0.000000e+00 1.000000e+00 0.000000e+00 0.000000e+00 0.000000e+00
 0.000000e+00 7.898973e-01 2.101027e-01 0.000000e+00 0.000000e+00
 0.000000e+00 0.000000e+00 7.898971e-01 2.101030e-01 0.000000e+00
 0.000000e+00 0.000000e+00 0.000000e+00 9.220033e-01 7.799668e-02
 0.000000e+00 0.000000e+00 0.000000e+00 0.000000e+00 0.000000e+00
<ENDHMM>
~h "t"
<BEGINHMM>
<NUMSTATES> 5
<STATE> 2
<MEAN> 39
 -9.647132e+00 -3.326782e+00 8.007246e+00 -5.913157e+00 -2.072420e+00 -3.285295e+00 -2.281617e-01 6.732770e-01 2.382216e+00 -6.556301e-01 3.964628e+00 -3.943694e+00 5.484204e+01 -8.124812e-03 -1.427380e-03 -1.710363e-02 -1.534217e-02 4.182578e-04 -2.853691e-02 9.734250e-03 2.483866e-02 9.571396e-03 1.150505e-02 1.304089e-02 -1.515654e-03 2.770500e-02 2.442844e-03 -7.083241e-04 -3.750772e-04 -1.389023e-04 -8.003327e-04 -4.537134e-04 -1.705211e-03 -3.784992e-04 -1.826318e-04 -4.328788e-04 4.058227e-06 -3.367225e-04 1.692991e-03
<VARIANCE> 39
 5.880545e+01 3.465150e+01 1.916341e+02 9.424155e+01 7.761600e+01 4.367385e+01 8.994734e+01 3.647355e+01 3.186887e+01 2.490533e+01 3.061954e+01 2.429537e+01 1.058295e+02 1.605951e+00 1.296980e+00 3.519140e+00 3.260177e+00 2.424845e+00 2.236654e+00 2.644760e+00 2.318272e+00 1.806806e+00 1.459908e+00 1.589754e+00 1.439364e+00 2.874384e+00 1.994882e-01 2.113237e-01 4.230182e-01 4.960890e-01 3.681460e-01 3.735170e-01 4.285530e-01 4.001122e-01 3.326269e-01 2.574756e-01 2.928948e-01 2.655380e-01 3.546218e-01
<GCONST> 1.182811e+02
<STATE> 3
<MEAN> 39
 -9.656999e+00 -3.348245e+00 7.875879e+00 -5.991097e+00 -2.070709e+00 -3.444657e+00 -1.887136e-01 8.062124e-01 2.435124e+00 -6.076721e-01 4.026538e+00 -3.955028e+00 5.500520e+01 3.776807e-03 -4.222251e-03 -2.104928e-02 -1.475157e-02 -1.683285e-03 -2.960134e-02 2.299800e-03 2.317179e-02 8.634952e-03 8.383166e-03 1.218250e-02 -2.827658e-03 3.405287e-02 1.960703e-03 -3.599873e-04 -6.114290e-04 1.590240e-04 -2.929110e-04 -1.474735e-04 -1.237039e-03 -4.365589e-04 -1.822329e-04 -6.699286e-04 -4.002582e-04 -2.366987e-04 1.040771e-03
<VARIANCE> 39
 6.010958e+01 3.604052e+01 1.915755e+02 9.482795e+01 7.745113e+01 4.497653e+01 8.878517e+01 3.647637e+01 3.186942e+01 2.479604e+01 3.042672e+01 2.444896e+01 1.056316e+02 1.672046e+00 1.321506e+00 3.511177e+00 3.259050e+00 2.421052e+00 2.286270e+00 2.635298e+00 2.333802e+00 1.807728e+00 1.459191e+00 1.581632e+00 1.450382e+00 2.859911e+00 2.069595e-01 2.147118e-01 4.213606e-01 4.941382e-01 3.677940e-01 3.799623e-01 4.258029e-01 4.023436e-01 3.339374e-01 2.575799e-01 2.900520e-01 2.658722e-01 3.527679e-01
<GCONST> 1.184845e+02
<STATE> 4
<MEAN> 39
 -9.666553e+00 -3.420512e+00 7.247879e+00 -6.269887e+00 -2.055621e+00 -3.690508e+00 6.036796e-02 1.126099e+00 2.589493e+00 -4.664990e-01 4.081641e+00 -3.977121e+00 5.548743e+01 2.067427e-02 -4.579903e-03 -5.807727e-02 1.080914e-02 1.242362e-02 -2.149421e-02 7.226222e-03 2.218561e-02 1.336254e-02 -2.681952e-03 4.320433e-03 1.695572e-03 1.589846e-02 8.727336e-04 2.931475e-04 -1.150165e-03 1.683055e-03 7.336749e-04 5.541028e-04 1.323930e-04 -5.727145e-04 1.280541e-04 -7.938668e-04 -7.158517e-04 2.419576e-04 -9.929630e-04
<VARIANCE> 39
 6.618027e+01 4.037884e+01 1.925601e+02 9.304888e+01 7.681736e+01 4.798265e+01 8.445326e+01 3.681093e+01 3.309275e+01 2.443922e+01 2.882332e+01 2.575466e+01 1.035507e+02 1.856433e+00 1.368529e+00 3.467465e+00 3.085327e+00 2.428452e+00 2.398654e+00 2.613020e+00 2.376656e+00 1.860388e+00 1.465220e+00 1.566934e+00 1.489734e+00 2.755923e+00 2.220514e-01 2.190259e-01 4.121718e-01 4.614147e-01 3.743016e-01 3.953653e-01 4.219407e-01 4.076951e-01 3.453279e-01 2.618313e-01 2.850344e-01 2.683091e-01 3.364367e-01
<GCONST> 1.188988e+02
<TRANSP> 5
 0.000000e+00 1.000000e+00 0.000000e+00 0.000000e+00 0.000000e+00
 0.000000e+00 8.139385e-01 1.860615e-01 0.000000e+00 0.000000e+00
 0.000000e+00 0.000000e+00 8.139382e-01 1.860618e-01 0.000000e+00
 0.000000e+00 0.000000e+00 0.000000e+00 9.489813e-01 5.101869e-02
 0.000000e+00 0.000000e+00 0.000000e+00 0.000000e+00 0.000000e+00
<ENDHMM>
~h "u"
<BEGINHMM>
<NUMSTATES> 5
<STATE> 2
<MEAN> 39
 -4.187629e+00 -2.344196e+00 5.394897e+00 1.008859e+00 2.075548e+00 -5.690409e+00 -6.196901e+00 1.676898e+00 1.303625e+00 -4.055022e+00 8.441140e+00 -3.961738e+00 5.327675e+01 1.102532e-03 -5.717132e-03 -1.131686e-01 -1.032263e-02 1.811114e-03 5.778190e-02 8.255439e-02 -3.579593e-03 4.358891e-02 6.897970e-02 8.970671e-04 2.212744e-02 1.013166e-02 -3.025201e-03 -1.233650e-03 -7.466519e-03 -1.981938e-03 -7.766558e-04 4.842998e-03 7.599423e-03 -3.010343e-03 2.911489e-03 2.383015e-03 -8.373455e-03 8.684299e-04 -2.679381e-03
<VARIANCE> 39
 6.882253e+01 2.503062e+01 5.234095e+01 4.051600e+01 3.114892e+01 7.494223e+01 1.494933e+02 5.537523e+01 2.186552e+01 3.133254e+01 6.607842e+01 1.848487e+01 6.044178e+01 2.314235e+00 1.138114e+00 1.690759e+00 2.989494e+00 1.328728e+00 2.090753e+00 3.420644e+00 2.325780e+00 2.031115e+00 1.374921e+00 1.830925e+00 1.187103e+00 1.899979e+00 3.447904e-01 1.907837e-01 2.651418e-01 5.243177e-01 2.071617e-01 2.227017e-01 5.062146e-01 3.565230e-01 4.260384e-01 1.645097e-01 2.775411e-01 1.904788e-01 2.925309e-01
<GCONST> 1.131237e+02
<STATE> 3
<MEAN> 39
 -4.230482e+00 -2.387127e+00 4.766195e+00 9.410646e-01 2.079334e+00 -5.349401e+00 -5.699757e+00 1.618594e+00 1.546279e+00 -3.699004e+00 8.330470e+00 -3.846514e+00 5.328073e+01 -1.408793e-02 -1.266940e-02 -1.493862e-01 -2.277650e-02 -3.314562e-03 7.850912e-02 1.182782e-01 -1.486165e-02 5.629855e-02 7.993385e-02 -3.552065e-02 2.798547e-02 -5.927120e-04 -2.688179e-03 -1.448132e-03 -7.445038e-03 -3.185588e-03 -1.451945e-03 3.693577e-03 6.728003e-03 -1.984690e-03 2.496533e-03 2.115641e-03 -6.875759e-03 1.357193e-03 -1.582055e-03
<VARIANCE> 39
 7.226455e+01 2.593293e+01 5.696434e+01 4.149130e+01 3.011330e+01 6.999620e+01 1.464777e+02 5.300287e+01 2.267161e+01 3.123899e+01 6.239061e+01 1.839845e+01 5.651972e+01 2.311563e+00 1.155895e+00 1.648176e+00 2.769662e+00 1.277072e+00 1.939890e+00 3.273652e+00 2.286768e+00 2.106884e+00 1.338225e+00 1.810347e+00 1.177340e+00 1.772837e+00 3.302095e-01 1.931058e-01 2.624545e-01 4.820158e-01 2.061688e-01 2.154285e-01 4.821375e-01 3.529979e-01 4.471391e-01 1.611428e-01 2.745355e-01 1.878652e-01 2.739847e-01
<GCONST> 1.124273e+02
<STATE> 4
<MEAN> 39
 -4.493566e+00 -2.570282e+00 3.163627e+00 6.130429e-01 1.991500e+00 -4.517205e+00 -4.382069e+00 1.425937e+00 2.129794e+00 -2.923874e+00 7.746820e+00 -3.540770e+00 5.320596e+01 -2.887115e-02 -2.682915e-02 -2.102324e-01 -6.176370e-02 -2.404930e-02 9.607337e-02 1.603795e-01 -2.169827e-02 7.330281e-02 9.434823e-02 -7.760188e-02 4.271853e-02 -3.639716e-04 2.358228e-04 -1.107010e-03 -5.736650e-03 -5.220572e-03 -2.909392e-03 3.303684e-04 2.309067e-03 -2.889040e-04 1.517112e-03 1.237047e-03 -2.942273e-03 1.605728e-03 1.414850e-03
<VARIANCE> 39
 8.142286e+01 2.722131e+01 6.557314e+01 4.496420e+01 2.917010e+01 5.835653e+01 1.344449e+02 4.743992e+01 2.380746e+01 3.073318e+01 5.487021e+01 1.829546e+01 4.982838e+01 2.399955e+00 1.186053e+00 1.564987e+00 2.376716e+00 1.226438e+00 1.649588e+00 2.990428e+00 2.202680e+00 2.220161e+00 1.280864e+00 1.725718e+00 1.153081e+00 1.544024e+00 3.137507e-01 1.980111e-01 2.593810e-01 4.076393e-01 2.128560e-01 2.028290e-01 4.462223e-01 3.524446e-01 4.790190e-01 1.558302e-01 2.663801e-01 1.837050e-01 2.415654e-01
<GCONST> 1.110522e+02
<TRANSP> 5
 0.000000e+00 1.000000e+00 0.000000e+00 0.000000e+00 0.000000e+00
 0.000000e+00 7.876978e-01 2.123022e-01 0.000000e+00 0.000000e+00
 0.000000e+00 0.000000e+00 7.876979e-01 2.123021e-01 0.000000e+00
 0.000000e+00 0.000000e+00 0.000000e+00 9.165956e-01 8.340430e-02
 0.000000e+00 0.000000e+00 0.000000e+00 0.000000e+00 0.000000e+00
<ENDHMM>
~h "v"
<BEGINHMM>
<NUMSTATES> 5
<STATE> 2
<MEAN> 39
 -6.309182e+00 -5.425123e+00 1.929906e+00 -3.961338e+00 -2.305708e-01 -5.210585e+00 -1.346445e+00 4.242559e+00 5.800155e+00 -7.024561e-01 2.793638e+00 -4.357842e+00 5.762955e+01 8.035108e-02 -4.870771e-02 8.486155e-02 1.506821e-02 -9.640728e-03 6.770881e-03 -4.921171e-02 2.619466e-03 1.695773e-03 -1.540308e-02 -3.214377e-02 -3.216508e-02 -7.830383e-03 3.169696e-04 2.353075e-03 -2.707518e-04 2.205034e-03 1.478390e-03 8.263066e-04 1.611345e-03 -3.637178e-03 -1.474949e-03 -5.161877e-04 -4.774396e-04 1.793029e-03 -4.421362e-03
<VARIANCE> 39
 1.067848e+02 7.442393e+01 4.372101e+01 6.476016e+01 4.316002e+01 5.875831e+01 7.503013e+01 5.902538e+01 3.074481e+01 1.943605e+01 3.465986e+01 2.321035e+01 1.013738e+02 2.637293e+00 1.794844e+00 1.431524e+00 2.372899e+00 1.647439e+00 2.150716e+00 2.163484e+00 3.169863e+00 1.758003e+00 1.539402e+00 1.824946e+00 1.334740e+00 1.212358e+00 3.063683e-01 2.102865e-01 2.012057e-01 3.502300e-01 2.546567e-01 3.509608e-01 3.588961e-01 5.266528e-01 3.073680e-01 3.067071e-01 3.249127e-01 2.549612e-01 1.450947e-01
<GCONST> 1.143303e+02
<STATE> 3
<MEAN> 39
 -5.936200e+00 -5.598049e+00 2.323466e+00 -3.833194e+00 -2.343095e-01 -5.165379e+00 -1.549396e+00 4.192393e+00 5.791798e+00 -7.846551e-01 2.625348e+00 -4.483049e+00 5.751209e+01 7.405145e-02 -3.210066e-02 7.865646e-02 2.712828e-02 -1.648998e-03 8.596948e-03 -3.816682e-02 -1.718582e-02 -5.460292e-03 -1.849069e-02 -3.409528e-02 -2.113401e-02 -2.822351e-02 -1.910162e-03 3.507220e-03 -1.471858e-03 2.440819e-03 1.725497e-03 5.987454e-04 2.695840e-03 -4.231588e-03 -1.514261e-03 -5.142213e-04 -1.965037e-04 2.452718e-03 -4.142661e-03
<VARIANCE> 39
 9.795373e+01 7.298132e+01 4.325053e+01 6.511733e+01 4.327555e+01 5.931306e+01 7.463635e+01 5.958358e+01 3.042136e+01 1.961846e+01 3.505037e+01 2.306824e+01 1.031581e+02 2.405601e+00 1.778768e+00 1.465556e+00 2.394563e+00 1.651555e+00 2.151023e+00 2.105046e+00 3.138027e+00 1.744207e+00 1.521687e+00 1.824091e+00 1.307766e+00 1.208773e+00 2.809187e-01 2.095931e-01 2.066901e-01 3.545513e-01 2.561458e-01 3.504449e-01 3.473526e-01 5.250564e-01 3.022009e-01 3.017429e-01 3.236185e-01 2.492409e-01 1.473273e-01
<GCONST> 1.139831e+02
<STATE> 4
<MEAN> 39
 -5.727083e+00 -5.670602e+00 2.689069e+00 -3.114266e+00 1.310653e-01 -4.359594e+00 -9.502806e-01 3.665380e+00 5.579532e+00 -8.978053e-01 2.463266e+00 -4.351316e+00 5.606147e+01 3.103037e-02 1.348325e-02 5.062535e-02 5.133232e-02 1.279942e-02 3.631050e-03 -5.357415e-03 -5.429818e-02 -1.621414e-02 -2.343701e-02 -3.318767e-02 9.274869e-03 -5.755020e-02 -4.124023e-03 3.259914e-03 -2.354740e-03 1.111259e-03 9.826999e-04 -4.663679e-05 3.328330e-03 -3.300468e-03 -1.345668e-03 -2.682013e-05 1.022507e-03 2.675143e-03 -1.767867e-03
<VARIANCE> 39
 7.843665e+01 6.795907e+01 4.109800e+01 6.417608e+01 4.290722e+01 6.158917e+01 7.276744e+01 5.790851e+01 2.884790e+01 1.984637e+01 3.448525e+01 2.274219e+01 1.117211e+02 1.874986e+00 1.637293e+00 1.497715e+00 2.260503e+00 1.621455e+00 2.156126e+00 1.903026e+00 2.878578e+00 1.698027e+00 1.495019e+00 1.808726e+00 1.276968e+00 1.104686e+00 2.239959e-01 1.976570e-01 2.108231e-01 3.387958e-01 2.520600e-01 3.471991e-01 3.131890e-01 4.942528e-01 2.895131e-01 2.902958e-01 3.238549e-01 2.437226e-01 1.365772e-01
<GCONST> 1.121898e+02
<TRANSP> 5
 0.000000e+00 1.000000e+00 0.000000e+00 0.000000e+00 0.000000e+00
 0.000000e+00 7.926676e-01 2.073324e-01 0.000000e+00 0.000000e+00
 0.000000e+00 0.000000e+00 7.926680e-01 2.073319e-01 0.000000e+00
 0.000000e+00 0.000000e+00 0.000000e+00 9.269575e-01 7.304244e-02
 0.000000e+00 0.000000e+00 0.000000e+00 0.000000e+00 0.000000e+00
<ENDHMM>
~h "w"
<BEGINHMM>
<NUMSTATES> 5
<STATE> 2
<MEAN> 39
 -5.714284e+00 -3.702488e+00 1.885278e+00 -4.633543e+00 -7.126870e-01 -3.720380e-01 8.694795e-01 9.512055e-01 3.859267e+00 -1.638217e+00 4.436951e+00 -3.802643e+00 5.218023e+01 8.714945e-02 -9.109201e-03 -4.644524e-02 -8.551228e-02 -1.331397e-02 5.697727e-02 -5.906285e-03 4.816226e-02 -2.041408e-02 -2.717454e-02 3.665376e-04 -4.600854e-02 3.249406e-02 2.375243e-03 -1.861662e-03 2.920645e-03 -9.083776e-04 4.828265e-04 5.322789e-04 -3.591853e-04 1.206093e-03 -1.541881e-03 -9.915151e-04 -6.932438e-04 4.146975e-04 2.602609e-03
<VARIANCE> 39
 7.431168e+01 3.449591e+01 5.375917e+01 1.033686e+02 5.877675e+01 5.036509e+01 4.629736e+01 3.852922e+01 2.745674e+01 2.488703e+01 3.362999e+01 2.874232e+01 8.503201e+01 1.314595e+00 1.278127e+00 1.355214e+00 2.300190e+00 2.034407e+00 2.493308e+00 2.088915e+00 1.947112e+00 1.823267e+00 1.628482e+00 1.877302e+00 1.362348e+00 1.178467e+00 1.811699e-01 1.736899e-01 1.831169e-01 3.265747e-01 3.071042e-01 3.871984e-01 3.785470e-01 3.508831e-01 3.550187e-01 2.966628e-01 3.606357e-01 2.520920e-01 1.421692e-01
<GCONST> 1.113237e+02
<STATE> 3
<MEAN> 39
 -5.169219e+00 -3.781512e+00 1.641356e+00 -5.152921e+00 -7.821586e-01 -5.812661e-02 7.871243e-01 1.266450e+00 3.735100e+00 -1.804076e+00 4.452994e+00 -4.055895e+00 5.247844e+01 9.245845e-02 -1.386680e-02 -3.776264e-02 -8.321275e-02 -7.270370e-03 5.479507e-02 -1.361646e-02 5.350874e-02 -2.073441e-02 -2.702451e-02 -1.059997e-03 -4.386635e-02 4.853457e-02 5.554059e-04 -6.703541e-04 1.550687e-03 7.668600e-04 9.899460e-04 -6.804420e-04 -1.435068e-03 7.785127e-04 5.964286e-05 1.479112e-04 -1.646297e-04 4.361301e-04 2.673391e-03
<VARIANCE> 39
 7.513907e+01 3.619119e+01 4.804902e+01 1.079857e+02 5.831877e+01 5.227970e+01 4.715062e+01 4.035423e+01 2.649812e+01 2.441612e+01 3.482520e+01 3.023415e+01 8.923110e+01 1.332144e+00 1.263417e+00 1.287477e+00 2.328297e+00 2.044343e+00 2.540353e+00 2.136958e+00 2.055338e+00 1.757218e+00 1.651430e+00 1.829047e+00 1.343521e+00 1.153877e+00 1.818281e-01 1.629944e-01 1.752452e-01 3.248473e-01 3.090826e-01 3.843401e-01 3.824841e-01 3.736146e-01 3.406845e-01 3.029109e-01 3.441899e-01 2.460985e-01 1.306625e-01
<GCONST> 1.112537e+02
<STATE> 4
<MEAN> 39
 -3.383930e+00 -4.039387e+00 1.244696e+00 -6.929320e+00 -1.050293e+00 5.746357e-01 -3.667804e-01 1.949576e+00 3.034031e+00 -2.467350e+00 4.524737e+00 -5.213011e+00 5.440824e+01 8.424750e-02 -1.379347e-02 -1.404409e-02 -6.090873e-02 9.014839e-03 3.924600e-02 -4.496641e-02 2.321972e-02 -3.016238e-02 -2.807828e-02 -1.304972e-02 -5.581003e-02 7.950792e-02 -2.150473e-03 2.138070e-04 2.200970e-03 2.757884e-03 8.202058e-04 -1.674901e-03 -8.198437e-04 -2.030366e-03 -1.555243e-04 5.386614e-04 -8.212208e-04 1.898974e-04 -7.126332e-05
<VARIANCE> 39
 7.392113e+01 4.452793e+01 4.490510e+01 1.224620e+02 6.350553e+01 6.252689e+01 5.444329e+01 4.914536e+01 2.750666e+01 2.607323e+01 4.238607e+01 3.415188e+01 1.045650e+02 1.419976e+00 1.410221e+00 1.340435e+00 2.455706e+00 2.207900e+00 2.848779e+00 2.390035e+00 2.370916e+00 1.765926e+00 1.698183e+00 1.784361e+00 1.356224e+00 1.214191e+00 1.953156e-01 1.621480e-01 1.873558e-01 3.268657e-01 3.303294e-01 4.012176e-01 4.175260e-01 4.249440e-01 3.355192e-01 3.051428e-01 3.102999e-01 2.449005e-01 1.214008e-01
<GCONST> 1.137452e+02
<TRANSP> 5
 0.000000e+00 1.000000e+00 0.000000e+00 0.000000e+00 0.000000e+00
 0.000000e+00 8.165313e-01 1.834687e-01 0.000000e+00 0.000000e+00
 0.000000e+00 0.000000e+00 8.165315e-01 1.834684e-01 0.000000e+00
 0.000000e+00 0.000000e+00 0.000000e+00 9.510781e-01 4.892185e-02
 0.000000e+00 0.000000e+00 0.000000e+00 0.000000e+00 0.000000e+00
<ENDHMM>
~h "z"
<BEGINHMM>
<NUMSTATES> 5
<STATE> 2
<MEAN> 39
 -6.744625e+00 -3.462981e+00 4.640843e+00 -3.010371e+00 -2.481920e+00 -6.336730e+00 -1.259404e+00 1.212082e+00 3.001053e+00 -1.611017e+00 4.769620e+00 -2.341590e+00 5.576248e+01 2.116751e-02 2.890315e-02 -1.417683e-02 -2.060935e-03 -1.457024e-02 -6.386914e-02 -3.447668e-02 -2.971929e-02 -5.913443e-03 2.126072e-03 3.806443e-02 2.237276e-02 3.734702e-02 1.233701e-03 8.247267e-04 -1.626333e-03 3.666195e-03 3.509076e-03 1.874160e-03 3.123640e-04 -3.644571e-03 -3.190572e-04 2.130573e-04 -2.813202e-04 -1.265805e-03 -5.450622e-04
<VARIANCE> 39
 7.369685e+01 7.304762e+01 1.167508e+02 6.522865e+01 4.991510e+01 5.285432e+01 8.599813e+01 4.398428e+01 4.300024e+01 2.515380e+01 4.519557e+01 2.366597e+01 9.726821e+01 1.464071e+00 1.916185e+00 3.053445e+00 2.214939e+00 1.917630e+00 2.551397e+00 2.264029e+00 2.437382e+00 2.127301e+00 1.560897e+00 1.721531e+00 1.335198e+00 1.376929e+00 1.724316e-01 2.207578e-01 3.420689e-01 3.151335e-01 2.825352e-01 4.558151e-01 3.740234e-01 4.282767e-01 3.610127e-01 2.887022e-01 2.944027e-01 2.505722e-01 1.573985e-01
<GCONST> 1.163581e+02
<STATE> 3
<MEAN> 39
 -6.626596e+00 -3.251271e+00 4.569016e+00 -2.930027e+00 -2.517649e+00 -6.655820e+00 -1.460172e+00 1.008735e+00 2.970453e+00 -1.597115e+00 4.951713e+00 -2.253352e+00 5.595378e+01 2.575205e-02 4.027059e-02 -2.074927e-02 1.615406e-02 -4.112856e-03 -5.810092e-02 -4.041290e-02 -4.143272e-02 -2.581151e-03 3.831921e-03 3.545681e-02 1.729746e-02 3.566897e-02 7.756599e-04 2.530332e-03 -1.042069e-03 3.689710e-03 2.042887e-03 1.469019e-03 -1.015845e-03 -2.108202e-03 7.156836e-04 4.424621e-04 -7.528760e-04 -1.237789e-03 -6.144832e-04
<VARIANCE> 39
 7.474899e+01 7.422515e+01 1.196094e+02 6.540600e+01 4.986316e+01 5.329161e+01 8.890559e+01 4.307793e+01 4.352092e+01 2.568507e+01 4.497971e+01 2.404303e+01 9.533186e+01 1.466123e+00 1.971877e+00 3.164306e+00 2.252977e+00 1.947182e+00 2.654995e+00 2.312650e+00 2.452892e+00 2.172345e+00 1.581443e+00 1.725109e+00 1.334202e+00 1.390111e+00 1.710002e-01 2.232468e-01 3.503928e-01 3.184192e-01 2.891335e-01 4.783130e-01 3.802753e-01 4.290223e-01 3.680001e-01 2.913686e-01 2.950440e-01 2.497793e-01 1.581083e-01
<GCONST> 1.168277e+02
<STATE> 4
<MEAN> 39
 -6.055230e+00 -2.361771e+00 4.639907e+00 -2.390242e+00 -2.602285e+00 -7.252402e+00 -2.386193e+00 2.919423e-01 2.703222e+00 -1.720666e+00 5.512429e+00 -2.238385e+00 5.672357e+01 4.114269e-02 5.250999e-02 -2.028238e-02 3.762796e-02 -1.049411e-02 -5.444704e-02 -6.859732e-02 -4.325307e-02 -1.198206e-03 -2.717273e-03 4.333853e-02 1.837931e-02 5.570674e-02 1.081042e-03 4.204576e-04 -2.632840e-04 1.179037e-03 -7.075230e-05 1.369484e-03 -1.364494e-03 3.356187e-05 2.438905e-04 -1.566347e-04 3.451843e-04 -1.150377e-04 6.302082e-04
<VARIANCE> 39
 7.880364e+01 8.089606e+01 1.209844e+02 6.625440e+01 4.910323e+01 5.524974e+01 9.711403e+01 4.183326e+01 4.679957e+01 2.744149e+01 4.711736e+01 2.479401e+01 9.346402e+01 1.519205e+00 2.199416e+00 3.410826e+00 2.339292e+00 1.978507e+00 2.912313e+00 2.497907e+00 2.521538e+00 2.349561e+00 1.642275e+00 1.795629e+00 1.320577e+00 1.455131e+00 1.719116e-01 2.368146e-01 3.579489e-01 3.236033e-01 2.987698e-01 5.281840e-01 4.085554e-01 4.339494e-01 3.956808e-01 2.984435e-01 3.031682e-01 2.434634e-01 1.623692e-01
<GCONST> 1.183706e+02
<TRANSP> 5
 0.000000e+00 1.000000e+00 0.000000e+00 0.000000e+00 0.000000e+00
 0.000000e+00 8.030961e-01 1.969038e-01 0.000000e+00 0.000000e+00
 0.000000e+00 0.000000e+00 8.030965e-01 1.969035e-01 0.000000e+00
 0.000000e+00 0.000000e+00 0.000000e+00 9.373308e-01 6.266927e-02
 0.000000e+00 0.000000e+00 0.000000e+00 0.000000e+00 0.000000e+00
<ENDHMM>
~h "AI"
<BEGINHMM>
<NUMSTATES> 5
<STATE> 2
<MEAN> 39
 -4.684379e+00 -6.892855e+00 5.233892e+00 -1.810296e+00 -3.557833e-01 -1.961516e+00 -7.328455e-02 1.719246e-01 5.317832e+00 -8.903139e-01 -1.444124e+00 -3.882370e+00 5.526694e+01 1.361060e-02 2.985970e-03 1.004494e-03 2.467429e-02 -1.328156e-02 1.205122e-02 3.829774e-03 8.493921e-03 2.220522e-02 4.972995e-03 -1.016748e-02 8.924832e-04 -5.058818e-03 -4.988725e-04 -9.266501e-06 -2.369618e-04 -1.686380e-03 -1.158422e-03 -1.185341e-03 -4.073706e-04 1.535045e-03 -7.178869e-04 -1.537968e-04 1.829792e-03 7.472128e-04 7.321297e-04
<VARIANCE> 39
 4.889417e+01 7.218086e+01 5.632999e+01 6.909264e+01 4.526347e+01 4.437919e+01 4.488121e+01 3.208825e+01 1.925779e+01 2.199333e+01 3.396737e+01 1.831193e+01 1.326035e+02 9.352913e-01 1.414897e+00 2.170484e+00 3.091439e+00 1.977342e+00 2.423668e+00 2.075575e+00 2.538563e+00 1.545967e+00 1.261670e+00 1.839561e+00 1.330778e+00 1.454088e+00 1.257535e-01 1.710062e-01 2.918034e-01 4.925221e-01 2.725045e-01 3.718253e-01 4.019842e-01 4.607335e-01 3.085488e-01 2.242292e-01 3.041789e-01 2.465612e-01 1.725490e-01
<GCONST> 1.109364e+02
<STATE> 3
<MEAN> 39
 -4.609686e+00 -6.891284e+00 5.234772e+00 -1.721709e+00 -4.469273e-01 -1.918275e+00 -6.298254e-02 2.469610e-01 5.410362e+00 -8.794414e-01 -1.479923e+00 -3.865903e+00 5.527016e+01 8.462336e-03 3.789003e-03 -1.835031e-03 1.572851e-02 -1.749970e-02 6.642651e-03 3.498258e-03 1.466134e-02 1.566270e-02 3.326021e-03 2.880192e-04 4.931223e-03 -3.795672e-03 -7.273756e-04 -1.658925e-04 -5.836207e-04 -1.914592e-03 -9.030796e-04 -1.181792e-03 -1.285243e-04 1.195497e-03 -1.318813e-03 -2.211927e-04 1.725181e-03 6.913951e-04 7.265484e-04
<VARIANCE> 39
 4.839724e+01 7.419370e+01 5.441463e+01 6.827064e+01 4.456791e+01 4.458097e+01 4.476757e+01 3.187117e+01 1.881919e+01 2.231014e+01 3.451577e+01 1.829410e+01 1.365350e+02 9.177276e-01 1.432850e+00 2.170907e+00 3.033498e+00 1.968817e+00 2.332127e+00 2.103602e+00 2.540943e+00 1.537933e+00 1.259075e+00 1.832538e+00 1.301504e+00 1.424054e+00 1.223183e-01 1.714948e-01 2.893645e-01 4.813214e-01 2.696064e-01 3.558899e-01 4.089951e-01 4.637048e-01 3.085961e-01 2.256848e-01 3.010908e-01 2.393345e-01 1.687700e-01
<GCONST> 1.106722e+02
<STATE> 4
<MEAN> 39
 -4.519696e+00 -6.867204e+00 5.256247e+00 -1.752408e+00 -8.045831e-01 -1.940359e+00 -2.596269e-02 5.826988e-01 5.344310e+00 -9.614362e-01 -1.397120e+00 -3.750198e+00 5.538065e+01 -1.757854e-02 2.393816e-02 -4.847051e-03 -1.800944e-04 -1.756702e-02 -7.282257e-03 9.802178e-03 1.888037e-02 -5.513825e-03 -7.207603e-03 2.967795e-02 1.527013e-02 -2.146054e-02 -1.664002e-03 1.346767e-03 -5.354078e-04 -1.086147e-03 3.530760e-07 -1.210373e-03 4.044346e-04 6.325817e-05 -1.301302e-03 -2.037871e-04 2.121017e-03 7.627254e-04 -9.053213e-04
<VARIANCE> 39
 4.793936e+01 7.924151e+01 5.732008e+01 6.880486e+01 4.542001e+01 4.461620e+01 4.652271e+01 3.204263e+01 1.832430e+01 2.331824e+01 3.711022e+01 1.797783e+01 1.436815e+02 8.678899e-01 1.487297e+00 2.207675e+00 2.841039e+00 1.959580e+00 2.114076e+00 2.103220e+00 2.513562e+00 1.506283e+00 1.269169e+00 1.849197e+00 1.192952e+00 1.327591e+00 1.136283e-01 1.747421e-01 2.874030e-01 4.433248e-01 2.631348e-01 3.237644e-01 4.082367e-01 4.561363e-01 3.000883e-01 2.295758e-01 3.013286e-01 2.179465e-01 1.549842e-01
<GCONST> 1.101632e+02
<TRANSP> 5
 0.000000e+00 1.000000e+00 0.000000e+00 0.000000e+00 0.000000e+00
 0.000000e+00 8.103962e-01 1.896038e-01 0.000000e+00 0.000000e+00
 0.000000e+00 0.000000e+00 8.103963e-01 1.896038e-01 0.000000e+00
 0.000000e+00 0.000000e+00 0.000000e+00 9.447612e-01 5.523880e-02
 0.000000e+00 0.000000e+00 0.000000e+00 0.000000e+00 0.000000e+00
<ENDHMM>
~h "O:"
<BEGINHMM>
<NUMSTATES> 5
<STATE> 2
<MEAN> 39
 -3.981371e+00 -3.588100e+00 -1.951432e+00 -4.903991e+00 -1.747105e+00 -1.705483e+00 -5.415092e-02 1.957068e+00 4.170551e+00 -1.377063e+00 4.987081e+00 -1.920606e+00 5.464694e+01 2.844757e-02 2.836599e-02 -3.978079e-02 -3.547917e-02 -6.434010e-03 9.461497e-03 2.572825e-02 -2.463579e-03 2.848112e-02 6.403904e-03 -1.852498e-02 1.789050e-02 -6.240334e-03 2.005181e-04 -3.163333e-04 1.599629e-03 -2.194388e-04 7.955352e-04 -2.344438e-04 -2.357366e-04 7.049378e-05 6.219812e-05 5.574831e-04 -5.049109e-04 -4.503746e-04 -2.889422e-04
<VARIANCE> 39
 1.231642e+02 2.580072e+01 1.152399e+02 7.261643e+01 5.511781e+01 2.661747e+01 5.893763e+01 3.725997e+01 3.062982e+01 2.668491e+01 3.316145e+01 1.759007e+01 7.570012e+01 2.567614e+00 8.965167e-01 1.718077e+00 1.827703e+00 2.029566e+00 1.441908e+00 2.058692e+00 2.080841e+00 2.085596e+00 1.585619e+00 1.759685e+00 1.305758e+00 8.883888e-01 2.840694e-01 1.478586e-01 2.121477e-01 2.698146e-01 3.133655e-01 2.520901e-01 3.393014e-01 3.697202e-01 3.855401e-01 2.692083e-01 3.133897e-01 2.462571e-01 8.975513e-02
<GCONST> 1.096941e+02
<STATE> 3
<MEAN> 39
 -3.833476e+00 -3.445354e+00 -2.127191e+00 -5.076532e+00 -1.749437e+00 -1.651609e+00 8.946884e-02 1.943888e+00 4.320806e+00 -1.332464e+00 4.877986e+00 -1.834102e+00 5.458293e+01 2.709934e-02 2.576280e-02 -2.891558e-02 -3.482510e-02 -1.247041e-03 7.989129e-03 2.545748e-02 -2.923525e-03 2.856616e-02 1.025251e-02 -2.110792e-02 1.517616e-02 -9.191782e-03 -4.895109e-04 -4.928096e-04 2.156584e-03 2.492121e-04 1.057745e-03 -4.139068e-04 -7.446263e-05 -6.221636e-05 -1.367281e-05 7.127146e-04 -4.236478e-04 -5.839312e-04 -5.879902e-04
<VARIANCE> 39
 1.251743e+02 2.383850e+01 1.180794e+02 7.320843e+01 5.606601e+01 2.564200e+01 5.813687e+01 3.630761e+01 2.975839e+01 2.695147e+01 3.192780e+01 1.713929e+01 7.457956e+01 2.566733e+00 8.791023e-01 1.720489e+00 1.838952e+00 2.048074e+00 1.433631e+00 2.095741e+00 2.041718e+00 2.056596e+00 1.608229e+00 1.757305e+00 1.311648e+00 9.035335e-01 2.809584e-01 1.451282e-01 2.106646e-01 2.702970e-01 3.167852e-01 2.543782e-01 3.471402e-01 3.622590e-01 3.785801e-01 2.754143e-01 3.145419e-01 2.481657e-01 9.087363e-02
<GCONST> 1.095318e+02
<STATE> 4
<MEAN> 39
 -3.761822e+00 -3.178647e+00 -2.261515e+00 -5.289658e+00 -1.452154e+00 -1.467035e+00 7.005988e-01 1.870638e+00 4.651223e+00 -1.121854e+00 4.413252e+00 -1.732882e+00 5.398698e+01 -6.970523e-03 1.534412e-02 2.200210e-02 -7.424754e-03 1.562650e-02 4.764342e-03 2.642117e-02 -1.337385e-02 1.929231e-02 1.882597e-02 -2.329055e-02 6.939654e-03 -2.973171e-02 -2.263919e-03 -7.276956e-04 3.224087e-03 1.145623e-03 5.961930e-04 -8.560063e-04 -4.718803e-04 -4.594687e-04 -6.090042e-04 5.223449e-04 9.322471e-05 -7.624918e-04 -3.123023e-04
<VARIANCE> 39
 1.245600e+02 1.994971e+01 1.244329e+02 7.380251e+01 5.676109e+01 2.391710e+01 5.860802e+01 3.384445e+01 2.742270e+01 2.600668e+01 2.913320e+01 1.616166e+01 7.605186e+01 2.358597e+00 8.173457e-01 1.697862e+00 1.831711e+00 2.065834e+00 1.441326e+00 2.165154e+00 1.942684e+00 1.968461e+00 1.630807e+00 1.743024e+00 1.331269e+00 9.586274e-01 2.515402e-01 1.347428e-01 1.986990e-01 2.718606e-01 3.236617e-01 2.657450e-01 3.642238e-01 3.434750e-01 3.602325e-01 2.866529e-01 3.165380e-01 2.568280e-01 9.697859e-02
<GCONST> 1.088183e+02
<TRANSP> 5
 0.000000e+00 1.000000e+00 0.000000e+00 0.000000e+00 0.000000e+00
 0.000000e+00 8.106707e-01 1.893294e-01 0.000000e+00 0.000000e+00
 0.000000e+00 0.000000e+00 8.106707e-01 1.893294e-01 0.000000e+00
 0.000000e+00 0.000000e+00 0.000000e+00 9.449512e-01 5.504873e-02
 0.000000e+00 0.000000e+00 0.000000e+00 0.000000e+00 0.000000e+00
<ENDHMM>
~h "aI"
<BEGINHMM>
<NUMSTATES> 5
<STATE> 2
<MEAN> 39
 -6.591318e+00 -6.955703e+00 -2.971368e-01 -4.158265e+00 -3.715310e-01 -1.011807e+00 1.582349e+00 4.269147e+00 3.647941e+00 -6.095444e-01 5.004510e+00 -2.969389e+00 5.462243e+01 -3.858253e-02 -5.493806e-02 -1.347969e-03 -1.385192e-02 4.539496e-03 2.652534e-02 3.680033e-02 3.445803e-02 3.362855e-03 7.065282e-03 1.061438e-02 -7.304181e-03 -2.429391e-02 2.048684e-03 4.259403e-04 3.044450e-03 4.343198e-04 -1.009515e-03 -2.032134e-03 -2.105980e-03 -6.865987e-04 -6.187149e-04 -6.036772e-04 -6.313260e-04 -1.363897e-03 2.077182e-03
<VARIANCE> 39
 8.735332e+01 5.822057e+01 3.734918e+01 8.297140e+01 3.486342e+01 5.264051e+01 4.582249e+01 4.795409e+01 3.302075e+01 1.583185e+01 2.747213e+01 2.811688e+01 9.061194e+01 2.267476e+00 9.939508e-01 1.256056e+00 2.197847e+00 1.512483e+00 2.145306e+00 1.530278e+00 2.416135e+00 2.153693e+00 1.273200e+00 1.742449e+00 1.500715e+00 8.107015e-01 2.906439e-01 1.170199e-01 1.694091e-01 3.151056e-01 2.663249e-01 3.038436e-01 2.848608e-01 4.293116e-01 3.701638e-01 2.488103e-01 3.149196e-01 2.666815e-01 8.501473e-02
<GCONST> 1.086943e+02
<STATE> 3
<MEAN> 39
 -6.750444e+00 -7.215810e+00 -2.493825e-01 -4.202546e+00 -3.542497e-01 -8.939526e-01 1.743916e+00 4.418252e+00 3.652869e+00 -5.920326e-01 5.039918e+00 -3.033409e+00 5.450808e+01 -2.542407e-02 -5.104670e-02 1.439216e-02 -1.115390e-02 8.265583e-04 1.707834e-02 2.558557e-02 3.068311e-02 1.085331e-04 3.481702e-03 6.576138e-03 -1.516474e-02 -1.223688e-02 2.750356e-03 9.123280e-04 2.922003e-03 5.402246e-04 -8.192968e-04 -2.180245e-03 -2.418295e-03 -7.839049e-04 -6.340171e-04 -7.853581e-04 -6.941797e-04 -1.414358e-03 2.430974e-03
<VARIANCE> 39
 8.581567e+01 5.957156e+01 3.494126e+01 8.357552e+01 3.399282e+01 5.365420e+01 4.333719e+01 4.875145e+01 3.221577e+01 1.532687e+01 2.658319e+01 2.845940e+01 9.692986e+01 2.287011e+00 9.990197e-01 1.231575e+00 2.172854e+00 1.468781e+00 2.165332e+00 1.488156e+00 2.407130e+00 2.114270e+00 1.257659e+00 1.770392e+00 1.527944e+00 8.006433e-01 2.951550e-01 1.158553e-01 1.683558e-01 3.089382e-01 2.550851e-01 3.047955e-01 2.770011e-01 4.303859e-01 3.622956e-01 2.464374e-01 3.235576e-01 2.736284e-01 8.346141e-02
<GCONST> 1.084229e+02
<STATE> 4
<MEAN> 39
 -6.915140e+00 -7.523483e+00 2.182781e-01 -4.014938e+00 -1.101460e-01 -7.601433e-01 2.178933e+00 4.527097e+00 3.886453e+00 -4.350872e-01 4.928354e+00 -3.345017e+00 5.395722e+01 -5.221846e-04 -2.056990e-02 3.666750e-02 1.265359e-02 6.919586e-03 4.997798e-03 1.482403e-02 9.691948e-03 1.366553e-03 -4.309000e-03 -8.168230e-03 -1.808026e-02 -1.201564e-02 2.066621e-03 1.643755e-03 1.639961e-03 8.961190e-04 -3.524892e-04 -2.190445e-03 -1.755291e-03 -9.839009e-04 -1.259407e-04 -6.635583e-04 -6.333899e-04 -2.637170e-04 1.532019e-03
<VARIANCE> 39
 7.774056e+01 6.177936e+01 3.230603e+01 8.303810e+01 3.377415e+01 5.647881e+01 3.853729e+01 4.992225e+01 2.940854e+01 1.488732e+01 2.506213e+01 2.891838e+01 1.138926e+02 2.128911e+00 9.752058e-01 1.209998e+00 1.998535e+00 1.389620e+00 2.196559e+00 1.362678e+00 2.332985e+00 1.984740e+00 1.232514e+00 1.836691e+00 1.562604e+00 7.604308e-01 2.762610e-01 1.091397e-01 1.660519e-01 2.754149e-01 2.321247e-01 3.047716e-01 2.514979e-01 4.215648e-01 3.372682e-01 2.409213e-01 3.467675e-01 2.838557e-01 7.658032e-02
<GCONST> 1.072511e+02
<TRANSP> 5
 0.000000e+00 1.000000e+00 0.000000e+00 0.000000e+00 0.000000e+00
 0.000000e+00 8.116987e-01 1.883012e-01 0.000000e+00 0.000000e+00
 0.000000e+00 0.000000e+00 8.116990e-01 1.883009e-01 0.000000e+00
 0.000000e+00 0.000000e+00 0.000000e+00 9.463805e-01 5.361949e-02
 0.000000e+00 0.000000e+00 0.000000e+00 0.000000e+00 0.000000e+00
<ENDHMM>
~h "eI"
<BEGINHMM>
<NUMSTATES> 5
<STATE> 2
<MEAN> 39
 -8.523862e+00 -3.684471e+00 8.066313e+00 -5.795517e+00 -2.442580e+00 -2.330996e+00 -6.376249e-01 1.461689e-01 2.054248e+00 -7.533644e-01 3.861656e+00 -3.876199e+00 5.471714e+01 -8.119226e-02 1.898631e-02 3.717409e-02 -2.459396e-02 5.133167e-03 -2.199229e-02 3.282638e-02 8.890191e-03 1.151873e-02 1.139238e-02 -1.424829e-02 -4.109212e-03 -1.011375e-02 1.170412e-03 1.421177e-03 -1.388580e-03 8.397575e-04 1.215737e-03 1.036059e-03 9.997294e-04 7.881268e-04 3.692190e-04 8.778902e-04 4.459117e-04 1.979376e-04 -3.261636e-05
<VARIANCE> 39
 6.068119e+01 3.454313e+01 1.894595e+02 9.608451e+01 7.660357e+01 3.830018e+01 9.363417e+01 3.489140e+01 3.397842e+01 2.568131e+01 3.321161e+01 2.440333e+01 1.086059e+02 1.162431e+00 1.227115e+00 3.441673e+00 3.037770e+00 2.449455e+00 2.032703e+00 2.586481e+00 2.221696e+00 1.974747e+00 1.555675e+00 1.691864e+00 1.346411e+00 2.643572e+00 1.434238e-01 1.886039e-01 4.154105e-01 4.564497e-01 3.738053e-01 3.571033e-01 4.221179e-01 3.821546e-01 3.602588e-01 2.830943e-01 3.122737e-01 2.513447e-01 3.180308e-01
<GCONST> 1.172565e+02
<STATE> 3
<MEAN> 39
 -8.941485e+00 -3.563543e+00 8.253828e+00 -5.914454e+00 -2.410166e+00 -2.429100e+00 -4.438743e-01 1.992575e-01 2.123783e+00 -6.696349e-01 3.809107e+00 -3.886873e+00 5.466722e+01 -7.215344e-02 2.120603e-02 2.750308e-02 -2.063225e-02 7.478471e-03 -1.728744e-02 3.604242e-02 1.224352e-02 1.438387e-02 1.584993e-02 -9.629580e-03 -2.204533e-03 -8.087325e-03 1.889025e-03 2.301401e-04 -1.526696e-03 6.708571e-04 1.753102e-04 8.817145e-04 3.334192e-04 4.933336e-04 4.596670e-04 8.260323e-04 9.339803e-04 3.280065e-04 5.605873e-04
<VARIANCE> 39
 5.869546e+01 3.364955e+01 1.936052e+02 9.511423e+01 7.767001e+01 3.769291e+01 9.201344e+01 3.470557e+01 3.353751e+01 2.500686e+01 3.156239e+01 2.428482e+01 1.084481e+02 1.216219e+00 1.238825e+00 3.519746e+00 3.093441e+00 2.465057e+00 2.028622e+00 2.598638e+00 2.230910e+00 1.919686e+00 1.523096e+00 1.670207e+00 1.373432e+00 2.736966e+00 1.494343e-01 1.942479e-01 4.238828e-01 4.657889e-01 3.757060e-01 3.558857e-01 4.251516e-01 3.847843e-01 3.494627e-01 2.757564e-01 3.100425e-01 2.571468e-01 3.307192e-01
<GCONST> 1.173122e+02
<STATE> 4
<MEAN> 39
 -9.711937e+00 -3.336613e+00 8.815169e+00 -6.448717e+00 -2.549251e+00 -2.771071e+00 -1.845465e-01 3.250087e-01 2.218045e+00 -3.500968e-01 3.815630e+00 -4.001188e+00 5.507082e+01 -4.156355e-02 6.877900e-03 -4.814740e-03 -1.956856e-02 1.960096e-03 -2.607012e-02 2.611198e-02 1.798381e-02 1.410176e-02 1.321878e-02 -1.216879e-03 -1.059508e-03 1.344512e-02 2.449519e-03 -9.250900e-04 -1.739041e-03 1.530191e-04 -3.811109e-04 -4.028679e-04 -9.497022e-04 2.803045e-04 -7.275624e-05 -1.883542e-04 4.114809e-04 -8.495988e-05 1.373112e-03
<VARIANCE> 39
 5.614238e+01 3.372491e+01 2.075799e+02 9.533006e+01 8.166852e+01 3.831762e+01 8.942316e+01 3.440496e+01 3.385955e+01 2.421946e+01 2.760841e+01 2.521591e+01 1.094318e+02 1.427132e+00 1.271411e+00 3.784309e+00 3.234532e+00 2.532006e+00 2.143456e+00 2.644958e+00 2.266660e+00 1.891326e+00 1.480838e+00 1.588943e+00 1.448959e+00 3.022722e+00 1.709669e-01 2.049988e-01 4.526762e-01 4.874830e-01 3.839231e-01 3.728876e-01 4.278841e-01 3.886499e-01 3.466480e-01 2.656641e-01 2.971849e-01 2.695249e-01 3.669731e-01
<GCONST> 1.181878e+02
<TRANSP> 5
 0.000000e+00 1.000000e+00 0.000000e+00 0.000000e+00 0.000000e+00
 0.000000e+00 8.158405e-01 1.841595e-01 0.000000e+00 0.000000e+00
 0.000000e+00 0.000000e+00 8.158408e-01 1.841593e-01 0.000000e+00
 0.000000e+00 0.000000e+00 0.000000e+00 9.505964e-01 4.940361e-02
 0.000000e+00 0.000000e+00 0.000000e+00 0.000000e+00 0.000000e+00
<ENDHMM>
~h "eh"
<BEGINHMM>
<NUMSTATES> 5
<STATE> 2
<MEAN> 39
 -3.858723e+00 -4.217425e+00 2.601412e+00 -4.862729e+00 -1.247396e-01 -2.828937e+00 -1.976762e+00 2.335900e+00 4.788594e+00 -1.817514e+00 2.372175e+00 -5.241314e+00 5.612227e+01 1.506467e-02 3.522397e-03 1.970749e-02 2.514187e-02 2.773653e-02 4.046252e-02 9.682023e-03 -3.905240e-02 -2.984551e-02 -1.118051e-02 -2.522636e-02 -4.362368e-03 -3.574703e-02 -4.288340e-03 1.742555e-03 -6.967456e-04 1.477835e-03 4.593394e-04 -1.066997e-03 1.872818e-03 -1.480887e-03 -7.596437e-04 6.053853e-04 1.424984e-03 1.860115e-03 -7.161013e-04
<VARIANCE> 39
 7.518324e+01 5.189088e+01 4.603256e+01 9.350813e+01 5.574936e+01 6.776082e+01 7.173345e+01 5.327294e+01 3.106418e+01 2.518519e+01 4.335910e+01 2.584451e+01 9.640611e+01 1.564727e+00 1.662729e+00 1.534037e+00 2.578754e+00 2.041204e+00 2.477268e+00 2.411786e+00 2.878030e+00 1.757470e+00 1.678168e+00 1.793185e+00 1.268558e+00 1.337868e+00 1.939241e-01 2.020140e-01 2.253915e-01 3.769876e-01 3.189824e-01 3.824050e-01 4.090417e-01 5.007520e-01 3.200021e-01 3.207543e-01 3.069192e-01 2.385798e-01 1.557973e-01
<GCONST> 1.149909e+02
<STATE> 3
<MEAN> 39
 -3.839378e+00 -4.185348e+00 2.689869e+00 -4.728148e+00 2.460137e-02 -2.648632e+00 -1.917274e+00 2.122485e+00 4.624514e+00 -1.866237e+00 2.250198e+00 -5.253871e+00 5.596968e+01 -6.529387e-03 9.146900e-03 1.857902e-02 3.174821e-02 2.846107e-02 3.328539e-02 1.796276e-02 -4.459244e-02 -3.247333e-02 -6.833975e-03 -1.774071e-02 5.107904e-03 -3.830712e-02 -3.807626e-03 1.164782e-03 -4.284785e-04 9.978524e-04 1.433608e-04 -1.551702e-03 1.214309e-03 -6.787397e-04 -5.100664e-04 7.888728e-04 1.963322e-03 1.781876e-03 -1.365070e-04
<VARIANCE> 39
 7.209802e+01 5.220969e+01 4.809010e+01 9.481644e+01 5.645303e+01 6.842276e+01 7.263451e+01 5.260280e+01 3.142291e+01 2.544253e+01 4.410220e+01 2.568413e+01 9.688184e+01 1.485832e+00 1.653933e+00 1.612253e+00 2.559639e+00 2.065887e+00 2.524116e+00 2.408127e+00 2.837527e+00 1.773158e+00 1.666919e+00 1.775608e+00 1.274019e+00 1.340052e+00 1.863595e-01 2.014381e-01 2.360803e-01 3.750936e-01 3.240135e-01 3.878837e-01 4.087243e-01 4.961057e-01 3.208826e-01 3.171450e-01 3.026527e-01 2.397557e-01 1.550594e-01
<GCONST> 1.150668e+02
<STATE> 4
<MEAN> 39
 -3.734875e+00 -4.206333e+00 2.928194e+00 -5.056976e+00 1.805223e-01 -1.828850e+00 -1.953033e+00 1.435903e+00 3.702753e+00 -2.071861e+00 2.314434e+00 -5.542373e+00 5.591854e+01 -5.049746e-02 5.944555e-03 3.442544e-02 4.713267e-02 2.587994e-02 1.310848e-03 2.081288e-02 -4.781385e-02 -2.597266e-02 1.086554e-02 -1.097741e-02 1.906241e-02 -3.867412e-02 -2.715789e-03 1.184881e-04 3.718598e-04 5.195991e-04 -6.466543e-04 -2.303072e-03 1.179747e-04 3.775641e-04 4.206893e-04 1.148371e-03 2.040166e-03 1.414225e-03 -1.226556e-04
<VARIANCE> 39
 6.827775e+01 5.260892e+01 6.168551e+01 1.038363e+02 6.026995e+01 7.129488e+01 7.322383e+01 5.291039e+01 3.317790e+01 2.690125e+01 4.565831e+01 2.568576e+01 1.009503e+02 1.377838e+00 1.624211e+00 1.862038e+00 2.586239e+00 2.168172e+00 2.684120e+00 2.445762e+00 2.767041e+00 1.876075e+00 1.651261e+00 1.724062e+00 1.299408e+00 1.379369e+00 1.811852e-01 1.996441e-01 2.703057e-01 3.755816e-01 3.368242e-01 4.045257e-01 4.165888e-01 4.872771e-01 3.424503e-01 3.059967e-01 2.907234e-01 2.456767e-01 1.531295e-01
<GCONST> 1.160757e+02
<TRANSP> 5
 0.000000e+00 1.000000e+00 0.000000e+00 0.000000e+00 0.000000e+00
 0.000000e+00 7.990025e-01 2.009974e-01 0.000000e+00 0.000000e+00
 0.000000e+00 0.000000e+00 7.990027e-01 2.009973e-01 0.000000e+00
 0.000000e+00 0.000000e+00 0.000000e+00 9.351146e-01 6.488540e-02
 0.000000e+00 0.000000e+00 0.000000e+00 0.000000e+00 0.000000e+00
<ENDHMM>
~h "sil"
<BEGINHMM>
<NUMSTATES> 5
<STATE> 2
<MEAN> 39
 -1.067718e+01 -3.407616e+00 1.970400e+00 1.373821e+00 2.925789e+00 -3.393057e-01 5.882656e+00 3.097620e-01 4.974793e+00 -3.853314e-01 1.870210e+00 -2.010955e+00 4.508492e+01 -9.080642e-02 -9.217373e-02 -4.974983e-02 -3.418402e-02 -4.124907e-02 -7.883137e-02 -5.042437e-02 4.257395e-02 8.181646e-02 4.639635e-02 1.058414e-01 6.120075e-02 2.712123e-02 6.337188e-05 9.878533e-03 -3.316987e-03 -3.198382e-02 -1.281246e-02 1.998394e-03 1.765892e-02 2.266364e-02 -3.504900e-03 5.551487e-03 -2.813045e-02 -4.316166e-03 -6.671232e-03
<VARIANCE> 39
 7.704061e+00 1.102716e+01 1.385574e+01 1.647599e+01 1.147589e+01 1.462430e+01 1.699312e+01 2.132582e+01 1.600065e+01 1.664111e+01 1.422420e+01 1.083414e+01 1.407711e+01 3.242347e-01 7.965735e-01 7.142027e-01 1.230637e+00 1.039355e+00 1.100118e+00 1.543965e+00 1.368873e+00 1.625795e+00 1.659724e+00 1.441774e+00 1.177758e+00 7.500345e-01 4.940758e-02 1.589268e-01 1.130254e-01 2.059716e-01 1.849941e-01 2.039109e-01 2.753598e-01 2.572116e-01 2.891009e-01 2.731142e-01 2.557718e-01 2.352345e-01 1.434903e-01
<GCONST> 8.464323e+01
<STATE> 3
<MEAN> 39
 -1.098715e+01 -3.620659e+00 1.763793e+00 1.017887e+00 2.690419e+00 -5.256765e-01 5.852171e+00 3.893017e-01 5.129343e+00 -1.819087e-01 2.021531e+00 -1.869487e+00 4.519254e+01 -4.735525e-02 -2.799937e-02 -3.574641e-02 -6.959212e-02 -3.575732e-02 -2.518456e-02 -3.560320e-03 2.775192e-03 3.174315e-03 1.682832e-02 1.124750e-02 2.075223e-02 3.081083e-02 9.937295e-03 1.461865e-02 2.265356e-03 3.409322e-03 3.611313e-03 1.104210e-02 5.765147e-03 -2.563973e-03 -1.195111e-02 -1.058667e-02 -1.528355e-02 -8.649709e-03 -3.781256e-03
<VARIANCE> 39
 6.826734e+00 1.137376e+01 1.245905e+01 1.656920e+01 1.246628e+01 1.530672e+01 1.731570e+01 2.106807e+01 1.715793e+01 1.558735e+01 1.436758e+01 1.099623e+01 1.555397e+01 3.540744e-01 1.011074e+00 7.028722e-01 1.280454e+00 1.064316e+00 1.220749e+00 1.706339e+00 1.367221e+00 1.676954e+00 1.465683e+00 1.461990e+00 1.167968e+00 1.099636e+00 5.950530e-02 2.093758e-01 1.247709e-01 2.489677e-01 2.061768e-01 2.403938e-01 3.440760e-01 2.584373e-01 3.362379e-01 2.781177e-01 2.854276e-01 2.452684e-01 2.160976e-01
<GCONST> 8.756913e+01
<STATE> 4
<MEAN> 39
 -1.088011e+01 -3.760530e+00 1.620246e+00 3.436338e-01 2.382554e+00 -4.906518e-01 5.640272e+00 2.100530e-01 4.745241e+00 -2.734788e-01 2.233319e+00 -2.065759e+00 4.588834e+01 1.201626e-02 -1.256060e-02 -4.974960e-03 -2.446518e-02 -1.875424e-03 6.739744e-03 -1.375462e-02 1.883446e-04 -6.034626e-02 -5.311742e-02 5.688978e-03 -1.566810e-02 6.514431e-02 2.500470e-03 3.262266e-04 1.309343e-03 8.202376e-03 -7.184981e-03 3.784875e-03 6.365755e-03 1.475883e-02 2.749189e-03 -6.905152e-03 3.392659e-03 1.711524e-04 3.114578e-04
<VARIANCE> 39
 1.391210e+01 1.568755e+01 1.453726e+01 2.497226e+01 1.676561e+01 1.834235e+01 2.240124e+01 2.110274e+01 1.889960e+01 1.723516e+01 1.591136e+01 1.335995e+01 2.814754e+01 5.242240e-01 1.146010e+00 7.393415e-01 1.528656e+00 1.150978e+00 1.480011e+00 1.848162e+00 1.449906e+00 1.716608e+00 1.542361e+00 1.416987e+00 1.183443e+00 1.436124e+00 8.552506e-02 2.162067e-01 1.265833e-01 2.781454e-01 2.162940e-01 2.791426e-01 3.576784e-01 2.686351e-01 3.396192e-01 2.857481e-01 2.747150e-01 2.329818e-01 2.525664e-01
<GCONST> 9.336690e+01
<TRANSP> 5
 0.000000e+00 1.000000e+00 0.000000e+00 0.000000e+00 0.000000e+00
 0.000000e+00 8.066357e-01 1.933643e-01 0.000000e+00 0.000000e+00
 0.000000e+00 0.000000e+00 8.066359e-01 1.933641e-01 0.000000e+00
 0.000000e+00 0.000000e+00 0.000000e+00 9.417008e-01 5.829922e-02
 0.000000e+00 0.000000e+00 0.000000e+00 0.000000e+00 0.000000e+00
<ENDHMM>
