~o
<STREAMINFO> 1 39
<VECSIZE> 39<NULLD><MFCC_D_A_0><DIAGC>
~h "I"
<BEGINHMM>
<NUMSTATES> 5
<STATE> 2
<MEAN> 39
 -6.092118e+00 -4.087196e+00 1.592942e+00 -4.111676e+00 -4.448108e+00 -6.222827e+00 -6.958129e+00 -2.613909e+00 2.339021e+00 -2.488995e+00 2.061854e+00 -5.079081e+00 6.386828e+01 -6.969185e-03 -9.220021e-03 -1.272331e-02 -1.849929e-03 -3.393197e-03 -9.805348e-03 -4.375454e-03 1.810843e-03 1.208890e-02 -1.802526e-03 7.274071e-03 2.165540e-02 1.035154e-02 5.717684e-04 -8.737230e-04 -7.771670e-04 -8.695057e-04 -1.055090e-04 7.018219e-04 -2.160094e-04 3.879704e-04 7.257796e-04 -4.456665e-04 -6.669321e-04 -5.072904e-04 7.106707e-04
<VARIANCE> 39
 2.837278e+01 2.334303e+01 4.190478e+01 2.785591e+01 3.143843e+01 3.750250e+01 4.009198e+01 2.949093e+01 3.016126e+01 3.383805e+01 3.610897e+01 3.236423e+01 2.188450e+01 9.503401e-01 1.166017e+00 1.935422e+00 1.502852e+00 1.950188e+00 2.157043e+00 2.228896e+00 2.131299e+00 2.261692e+00 2.317952e+00 2.191092e+00 1.926589e+00 4.933064e-01 1.286749e-01 1.637040e-01 2.591687e-01 2.455920e-01 3.192991e-01 3.775620e-01 3.770490e-01 3.958713e-01 4.124440e-01 4.267701e-01 3.963023e-01 3.525405e-01 6.253677e-02
<GCONST> 1.059066e+02
<STATE> 3
<MEAN> 39
 -6.116109e+00 -4.150654e+00 1.506091e+00 -4.141339e+00 -4.472108e+00 -6.257178e+00 -6.989882e+00 -2.601676e+00 2.419113e+00 -2.509659e+00 2.094929e+00 -4.965245e+00 6.394189e+01 -3.917763e-03 -1.277056e-02 -1.565861e-02 -6.556489e-03 -4.339719e-03 -5.490580e-03 -5.222243e-03 3.390755e-03 1.482054e-02 -3.982872e-03 4.636097e-03 1.886196e-02 1.340018e-02 6.061547e-04 -6.073912e-04 -4.708002e-04 -8.210966e-04 -1.225818e-04 8.371421e-04 -1.500278e-04 2.479625e-04 4.252236e-04 -4.088377e-04 -4.306943e-04 -4.991837e-04 5.283788e-04
<VARIANCE> 39
 2.902676e+01 2.370612e+01 4.246363e+01 2.789969e+01 3.181710e+01 3.674517e+01 4.090721e+01 2.970244e+01 2.984507e+01 3.393991e+01 3.638268e+01 3.220393e+01 2.163735e+01 9.628417e-01 1.178171e+00 1.972871e+00 1.516356e+00 1.968600e+00 2.159675e+00 2.243959e+00 2.141618e+00 2.284920e+00 2.336868e+00 2.214202e+00 1.924039e+00 5.002186e-01 1.298882e-01 1.651527e-01 2.632232e-01 2.480596e-01 3.212188e-01 3.780935e-01 3.787797e-01 3.977683e-01 4.178568e-01 4.318628e-01 3.998149e-01 3.531844e-01 6.348649e-02
<GCONST> 1.061884e+02
<STATE> 4
<MEAN> 39
 -6.100702e+00 -4.281395e+00 1.207430e+00 -4.339254e+00 -4.508930e+00 -6.120923e+00 -7.072932e+00 -2.605315e+00 2.640421e+00 -2.617050e+00 2.156054e+00 -4.726867e+00 6.416666e+01 1.605808e-03 -1.823778e-02 -1.568088e-02 -1.778969e-02 -5.513481e-03 1.678438e-03 -3.730956e-03 6.382565e-03 1.581265e-02 -5.151934e-03 1.600785e-03 1.214232e-02 1.329527e-02 3.847539e-04 -3.268205e-04 2.070705e-04 -5.579503e-04 1.100130e-04 4.752079e-04 2.303062e-04 2.695480e-04 -1.161412e-04 -1.978553e-05 -2.514808e-04 -6.134146e-04 -1.417184e-04
<VARIANCE> 39
 3.140807e+01 2.432291e+01 4.472551e+01 2.815739e+01 3.344645e+01 3.478325e+01 4.365612e+01 3.068073e+01 2.916193e+01 3.480379e+01 3.648529e+01 3.293613e+01 2.183314e+01 9.776267e-01 1.215387e+00 2.084721e+00 1.538724e+00 1.987874e+00 2.143467e+00 2.286580e+00 2.149391e+00 2.321701e+00 2.406539e+00 2.241079e+00 1.894844e+00 5.311930e-01 1.304104e-01 1.711051e-01 2.736675e-01 2.531085e-01 3.192733e-01 3.734322e-01 3.838395e-01 3.980180e-01 4.274158e-01 4.477848e-01 4.034348e-01 3.447230e-01 6.756625e-02
<GCONST> 1.069256e+02
<TRANSP> 5
 0.000000e+00 1.000000e+00 0.000000e+00 0.000000e+00 0.000000e+00
 0.000000e+00 8.163124e-01 1.836876e-01 0.000000e+00 0.000000e+00
 0.000000e+00 0.000000e+00 8.163132e-01 1.836868e-01 0.000000e+00
 0.000000e+00 0.000000e+00 0.000000e+00 9.506559e-01 4.934411e-02
 0.000000e+00 0.000000e+00 0.000000e+00 0.000000e+00 0.000000e+00
<ENDHMM>
~h "T"
<BEGINHMM>
<NUMSTATES> 5
<STATE> 2
<MEAN> 39
 -8.608311e+00 -5.408513e+00 2.068176e+00 -5.199069e+00 -4.211570e+00 -7.531098e+00 -5.081681e+00 -1.325682e+00 8.090397e-01 -2.432853e+00 2.679179e+00 -3.935507e+00 6.368096e+01 -1.070411e-02 -3.371682e-02 2.986598e-02 -4.438284e-03 1.607061e-03 2.968786e-02 -3.451357e-03 -3.564387e-02 -1.636649e-02 -4.639439e-02 6.929902e-03 -1.126592e-02 2.668785e-02 -7.246958e-04 3.168828e-03 2.015380e-03 2.947954e-03 6.039341e-04 6.380381e-03 1.707186e-03 9.344392e-03 9.969952e-03 -2.302955e-03 -4.609701e-03 2.040047e-04 -6.125788e-03
<VARIANCE> 39
 2.176883e+01 2.152557e+01 3.613209e+01 1.712526e+01 3.021844e+01 2.575739e+01 3.952181e+01 2.365974e+01 3.170654e+01 2.949222e+01 2.683490e+01 1.877826e+01 2.550146e+01 1.075444e+00 8.278386e-01 1.382745e+00 1.208669e+00 1.497850e+00 1.756953e+00 1.950735e+00 2.013762e+00 2.551171e+00 2.426195e+00 1.837579e+00 1.615451e+00 5.692424e-01 1.714309e-01 1.270139e-01 2.085589e-01 2.026019e-01 2.519094e-01 3.382372e-01 3.317921e-01 3.795108e-01 4.817615e-01 4.658618e-01 3.159381e-01 2.859603e-01 8.103622e-02
<GCONST> 1.011979e+02
<STATE> 3
<MEAN> 39
 -8.652741e+00 -5.498073e+00 2.271511e+00 -5.149036e+00 -4.263009e+00 -7.304235e+00 -5.096581e+00 -1.347248e+00 9.302318e-01 -2.727367e+00 2.682414e+00 -4.008847e+00 6.370515e+01 -6.404764e-03 -1.277982e-02 3.950705e-02 8.263182e-03 -1.297009e-02 4.381352e-02 -6.384438e-03 -1.827681e-03 3.194905e-02 -5.331338e-02 2.314587e-03 -1.251940e-02 2.493910e-04 9.048772e-04 3.827324e-03 1.668109e-03 2.182631e-03 -2.909419e-03 2.299146e-03 -7.414658e-04 5.857635e-03 8.821288e-03 -1.093189e-03 -6.894379e-04 -2.280022e-04 -4.814654e-03
<VARIANCE> 39
 2.374524e+01 2.164542e+01 4.085926e+01 1.732981e+01 3.285160e+01 2.641645e+01 4.206639e+01 2.327684e+01 3.188802e+01 3.054980e+01 2.710530e+01 1.958085e+01 2.588606e+01 1.158851e+00 8.518716e-01 1.437854e+00 1.249799e+00 1.623783e+00 1.793397e+00 2.053415e+00 2.027096e+00 2.442337e+00 2.413441e+00 1.775453e+00 1.649514e+00 5.235849e-01 1.818222e-01 1.298751e-01 2.061084e-01 2.135160e-01 2.755112e-01 3.427338e-01 3.539189e-01 3.841476e-01 4.549760e-01 4.559061e-01 3.119448e-01 2.927309e-01 7.061767e-02
<GCONST> 1.019724e+02
<STATE> 4
<MEAN> 39
 -8.330367e+00 -5.548641e+00 3.410224e+00 -5.045421e+00 -5.082936e+00 -6.421225e+00 -5.884218e+00 -1.413966e+00 1.574342e+00 -3.643785e+00 3.281767e+00 -4.439404e+00 6.404723e+01 2.284460e-02 1.917280e-04 4.811721e-02 -6.575019e-03 -5.142033e-02 4.798391e-02 -4.223180e-02 -8.419170e-04 6.093360e-02 -4.349758e-02 4.001261e-02 -1.119967e-02 1.546989e-02 1.431650e-03 2.055218e-04 2.810721e-04 -1.079710e-03 -1.838996e-03 6.010524e-04 -1.985247e-03 1.378102e-04 1.950453e-03 4.331603e-04 1.342363e-03 4.452123e-05 5.963340e-04
<VARIANCE> 39
 3.034759e+01 2.281521e+01 6.409425e+01 1.779142e+01 4.515838e+01 2.978884e+01 5.577633e+01 2.352938e+01 3.184873e+01 3.685189e+01 3.042138e+01 2.210019e+01 2.934154e+01 1.559811e+00 1.007170e+00 1.813742e+00 1.359160e+00 2.007149e+00 1.959542e+00 2.455030e+00 2.198204e+00 2.283406e+00 2.543139e+00 1.804985e+00 1.784053e+00 5.091338e-01 2.366119e-01 1.498150e-01 2.299009e-01 2.360080e-01 3.287411e-01 3.616311e-01 4.209121e-01 4.193819e-01 4.198360e-01 4.601870e-01 3.217314e-01 3.202949e-01 5.895673e-02
<GCONST> 1.063955e+02
<TRANSP> 5
 0.000000e+00 1.000000e+00 0.000000e+00 0.000000e+00 0.000000e+00
 0.000000e+00 8.148097e-01 1.851903e-01 0.000000e+00 0.000000e+00
 0.000000e+00 0.000000e+00 8.148099e-01 1.851901e-01 0.000000e+00
 0.000000e+00 0.000000e+00 0.000000e+00 9.490677e-01 5.093233e-02
 0.000000e+00 0.000000e+00 0.000000e+00 0.000000e+00 0.000000e+00
<ENDHMM>
~h "e"
<BEGINHMM>
<NUMSTATES> 5
<STATE> 2
<MEAN> 39
 -6.247034e+00 -4.664652e+00 3.098032e+00 -5.050378e+00 -5.958170e+00 -5.572414e+00 -7.126698e+00 -1.428561e+00 2.608485e+00 -2.819107e+00 2.754455e+00 -6.735631e+00 6.505332e+01 1.815591e-02 -6.454333e-03 1.299727e-02 1.307120e-02 -1.641416e-03 1.544732e-02 -2.321629e-02 -1.226203e-02 -8.989348e-03 -8.107947e-03 3.271793e-03 -1.936606e-02 2.307508e-02 1.215474e-04 5.240537e-04 -2.455287e-04 5.224089e-05 2.347777e-04 9.056848e-05 6.550445e-04 9.790009e-04 1.529554e-03 -4.180266e-04 -3.335942e-04 2.330161e-04 2.930864e-04
<VARIANCE> 39
 2.641643e+01 1.877074e+01 5.051335e+01 2.917612e+01 5.724707e+01 2.917151e+01 4.225043e+01 2.841327e+01 3.054234e+01 3.619601e+01 4.153389e+01 3.169148e+01 3.035923e+01 8.096723e-01 1.051205e+00 1.459665e+00 1.724988e+00 2.218128e+00 1.815558e+00 2.013172e+00 2.205977e+00 2.446522e+00 1.935064e+00 2.169381e+00 1.735078e+00 7.132781e-01 1.079204e-01 1.664364e-01 1.888953e-01 2.871422e-01 3.504158e-01 3.342148e-01 3.555858e-01 3.971019e-01 4.648176e-01 3.576762e-01 3.681817e-01 3.124818e-01 9.242517e-02
<GCONST> 1.061084e+02
<STATE> 3
<MEAN> 39
 -6.143924e+00 -4.689453e+00 3.169389e+00 -4.990967e+00 -5.962506e+00 -5.494040e+00 -7.249769e+00 -1.461221e+00 2.598635e+00 -2.866636e+00 2.764324e+00 -6.840301e+00 6.518996e+01 1.848676e-02 -3.983016e-03 1.273754e-02 1.076857e-02 -2.998763e-04 1.398653e-02 -2.080753e-02 -5.227675e-03 -1.078434e-03 -7.776145e-03 1.015171e-03 -1.832877e-02 2.406898e-02 4.292436e-05 4.116343e-04 -4.521813e-05 -4.919433e-04 1.718528e-04 -2.545610e-04 4.915422e-04 1.281059e-03 1.354398e-03 4.870037e-05 -3.767384e-04 2.370276e-04 1.421229e-04
<VARIANCE> 39
 2.628970e+01 1.900451e+01 5.051680e+01 2.970690e+01 5.818140e+01 2.901779e+01 4.305618e+01 2.877828e+01 3.051866e+01 3.552142e+01 4.152560e+01 3.172031e+01 3.036479e+01 8.202500e-01 1.066141e+00 1.452110e+00 1.753104e+00 2.253634e+00 1.846704e+00 2.042914e+00 2.241319e+00 2.451185e+00 1.925064e+00 2.171976e+00 1.745872e+00 7.401010e-01 1.098035e-01 1.677528e-01 1.886553e-01 2.923496e-01 3.554845e-01 3.393408e-01 3.642317e-01 4.021130e-01 4.651397e-01 3.567435e-01 3.693374e-01 3.154208e-01 9.605281e-02
<GCONST> 1.064576e+02
<STATE> 4
<MEAN> 39
 -5.918684e+00 -4.697809e+00 3.416625e+00 -4.967649e+00 -6.064201e+00 -5.231481e+00 -7.425801e+00 -1.412762e+00 2.515580e+00 -3.142167e+00 2.801348e+00 -7.111757e+00 6.542513e+01 1.312063e-02 5.981471e-04 1.844163e-02 8.592224e-03 4.733694e-03 4.958472e-03 -6.552815e-03 2.257636e-03 -5.954699e-03 -6.956304e-03 -8.036921e-03 -1.017034e-02 1.183358e-02 -3.579121e-04 1.849351e-04 -1.322269e-04 -3.069372e-04 2.818014e-04 -3.489674e-04 1.194716e-03 3.366814e-04 -2.119942e-04 2.229224e-04 -4.977624e-04 6.122190e-04 -8.780290e-04
<VARIANCE> 39
 2.521112e+01 1.995094e+01 5.379863e+01 3.095989e+01 6.345590e+01 2.826143e+01 4.360484e+01 2.807304e+01 3.055730e+01 3.624754e+01 4.277426e+01 3.097595e+01 3.086908e+01 8.012237e-01 1.076630e+00 1.470590e+00 1.761759e+00 2.314972e+00 1.860232e+00 2.080511e+00 2.266361e+00 2.461587e+00 1.956348e+00 2.187768e+00 1.740463e+00 7.832003e-01 1.079384e-01 1.643493e-01 1.890011e-01 2.942102e-01 3.594200e-01 3.391173e-01 3.765706e-01 4.065917e-01 4.621527e-01 3.578835e-01 3.692141e-01 3.126581e-01 9.950193e-02
<GCONST> 1.068574e+02
<TRANSP> 5
 0.000000e+00 1.000000e+00 0.000000e+00 0.000000e+00 0.000000e+00
 0.000000e+00 8.150375e-01 1.849624e-01 0.000000e+00 0.000000e+00
 0.000000e+00 0.000000e+00 8.150371e-01 1.849629e-01 0.000000e+00
 0.000000e+00 0.000000e+00 0.000000e+00 9.498341e-01 5.016592e-02
 0.000000e+00 0.000000e+00 0.000000e+00 0.000000e+00 0.000000e+00
<ENDHMM>
~h "f"
<BEGINHMM>
<NUMSTATES> 5
<STATE> 2
<MEAN> 39
 -5.585609e+00 -5.931177e+00 1.150111e+00 -6.827532e+00 -4.874715e+00 -4.288050e+00 -4.930926e+00 -1.181043e+00 3.248664e+00 -2.776148e+00 2.905580e+00 -4.773581e+00 6.506483e+01 1.215352e-02 -1.596429e-02 -5.106615e-03 -1.369812e-02 -6.570467e-03 -2.396587e-04 3.968012e-03 8.297849e-03 -2.631921e-04 -4.165105e-03 5.311117e-03 1.377991e-02 1.234052e-02 -1.001190e-03 7.919027e-04 6.580108e-04 2.277304e-04 8.674483e-04 -1.306800e-03 -3.171525e-04 5.874761e-04 -3.911164e-04 -1.864515e-05 -1.611574e-03 9.719108e-05 -6.585800e-04
<VARIANCE> 39
 3.155620e+01 2.218573e+01 4.208968e+01 3.851158e+01 4.993191e+01 4.070750e+01 2.863643e+01 3.198939e+01 2.958999e+01 3.469510e+01 3.417731e+01 4.999981e+01 3.279777e+01 9.447158e-01 9.248269e-01 1.329481e+00 1.697479e+00 2.136535e+00 1.980662e+00 1.733246e+00 1.960616e+00 2.008902e+00 1.941344e+00 2.019042e+00 2.142141e+00 6.075019e-01 1.343926e-01 1.335729e-01 1.786692e-01 2.577824e-01 3.170556e-01 3.126710e-01 3.236057e-01 3.444023e-01 3.522269e-01 3.388354e-01 3.626038e-01 3.192883e-01 7.215808e-02
<GCONST> 1.050820e+02
<STATE> 3
<MEAN> 39
 -5.522851e+00 -6.002475e+00 1.117079e+00 -6.913348e+00 -4.916272e+00 -4.322304e+00 -4.915988e+00 -1.146851e+00 3.249840e+00 -2.799986e+00 2.913693e+00 -4.693442e+00 6.512616e+01 8.059174e-03 -1.109908e-02 -3.871870e-03 -1.260366e-02 -5.004380e-03 -1.100870e-02 2.563903e-03 6.708920e-03 -1.556981e-03 -2.066862e-03 -2.271368e-03 1.358024e-02 6.917752e-03 -7.666794e-04 9.194996e-04 1.021897e-04 1.276499e-04 2.125189e-04 -1.977829e-03 -1.916443e-04 -4.764224e-04 -2.625300e-04 4.109674e-04 -1.371137e-03 -8.918433e-05 -1.034444e-03
<VARIANCE> 39
 3.207831e+01 2.207074e+01 4.178885e+01 3.874373e+01 4.962089e+01 4.158275e+01 2.812027e+01 3.205206e+01 2.966763e+01 3.449167e+01 3.414977e+01 5.068188e+01 3.271186e+01 9.590691e-01 9.048393e-01 1.331463e+00 1.704419e+00 2.134462e+00 2.002853e+00 1.723885e+00 1.965489e+00 2.011789e+00 1.930654e+00 2.004554e+00 2.156936e+00 6.054495e-01 1.365541e-01 1.304224e-01 1.795956e-01 2.584624e-01 3.159547e-01 3.146647e-01 3.224857e-01 3.460104e-01 3.531999e-01 3.369452e-01 3.599890e-01 3.209685e-01 7.166681e-02
<GCONST> 1.050882e+02
<STATE> 4
<MEAN> 39
 -5.310693e+00 -6.068250e+00 9.280399e-01 -7.124092e+00 -5.005979e+00 -4.428792e+00 -4.950077e+00 -1.195565e+00 3.367319e+00 -2.705877e+00 2.971140e+00 -4.623974e+00 6.533608e+01 8.543237e-03 -1.355914e-03 -1.043822e-02 -5.957630e-03 -1.719968e-03 -1.793012e-02 4.189895e-03 -3.266280e-03 4.652014e-03 1.561020e-02 -1.231290e-03 8.830973e-03 -1.878900e-03 -5.499820e-04 6.902167e-04 -1.483546e-04 5.996182e-04 5.149391e-04 -6.555954e-04 1.272528e-04 -5.580098e-04 -6.155671e-05 1.030689e-03 -4.018566e-04 -4.054816e-04 -9.797083e-04
<VARIANCE> 39
 3.320548e+01 2.243388e+01 4.159821e+01 3.932397e+01 4.949923e+01 4.251172e+01 2.705714e+01 3.228505e+01 2.952393e+01 3.419539e+01 3.380122e+01 5.342707e+01 3.352584e+01 1.007043e+00 8.851973e-01 1.332707e+00 1.713277e+00 2.138127e+00 2.039239e+00 1.662192e+00 1.963608e+00 2.020965e+00 1.917481e+00 1.951615e+00 2.220192e+00 5.920904e-01 1.443422e-01 1.275792e-01 1.789656e-01 2.608338e-01 3.177839e-01 3.190399e-01 3.082337e-01 3.419475e-01 3.575630e-01 3.349591e-01 3.500024e-01 3.288721e-01 6.977960e-02
<GCONST> 1.051616e+02
<TRANSP> 5
 0.000000e+00 1.000000e+00 0.000000e+00 0.000000e+00 0.000000e+00
 0.000000e+00 8.180215e-01 1.819786e-01 0.000000e+00 0.000000e+00
 0.000000e+00 0.000000e+00 8.180217e-01 1.819783e-01 0.000000e+00
 0.000000e+00 0.000000e+00 0.000000e+00 9.526895e-01 4.731054e-02
 0.000000e+00 0.000000e+00 0.000000e+00 0.000000e+00 0.000000e+00
<ENDHMM>
~h "i"
<BEGINHMM>
<NUMSTATES> 5
<STATE> 2
<MEAN> 39
 -7.154032e+00 -6.139068e+00 4.173547e+00 -6.199774e+00 -6.218583e+00 -4.480084e+00 -7.051885e+00 -1.271706e+00 4.078570e+00 -4.464061e+00 3.926722e+00 -4.616053e+00 6.441235e+01 2.106549e-02 -2.341263e-02 1.138723e-02 -1.848002e-02 1.199911e-02 4.512439e-02 -6.289764e-04 4.769882e-03 1.137972e-02 -6.994368e-03 -2.016181e-02 -1.374994e-02 -1.465024e-03 -1.341590e-03 2.725470e-03 -2.158449e-03 2.003051e-04 2.531698e-03 -1.753247e-03 2.551081e-03 -1.561178e-03 -4.538327e-03 3.362113e-03 -1.054762e-03 7.991462e-05 -1.244423e-03
<VARIANCE> 39
 2.295049e+01 3.200857e+01 8.279352e+01 2.224301e+01 4.836938e+01 3.268458e+01 5.590333e+01 2.314574e+01 4.864674e+01 4.152328e+01 3.109246e+01 3.112927e+01 3.051041e+01 1.223649e+00 1.203611e+00 2.048484e+00 1.395293e+00 2.230631e+00 2.168663e+00 2.676630e+00 2.222181e+00 2.135443e+00 2.583634e+00 1.918812e+00 1.893898e+00 4.713035e-01 1.803591e-01 1.611259e-01 2.332329e-01 2.249449e-01 3.622082e-01 3.965131e-01 4.587780e-01 4.400901e-01 3.633264e-01 4.683601e-01 3.610008e-01 3.338973e-01 4.671528e-02
<GCONST> 1.082959e+02
<STATE> 3
<MEAN> 39
 -7.051192e+00 -6.252945e+00 4.179158e+00 -6.293097e+00 -6.106241e+00 -4.258198e+00 -7.002701e+00 -1.238585e+00 4.121654e+00 -4.461039e+00 3.780683e+00 -4.689907e+00 6.437567e+01 1.337469e-02 -7.812625e-03 -2.554623e-03 -1.736468e-02 2.507416e-02 3.559994e-02 1.298221e-02 -3.494222e-03 -1.072705e-02 1.179357e-02 -2.649311e-02 -1.352489e-02 -8.873921e-03 -1.328705e-03 2.857077e-03 -2.959561e-03 -5.179195e-04 1.534083e-03 -1.873355e-03 1.049351e-03 -1.577041e-03 -2.603894e-03 3.671203e-03 -1.257074e-03 -9.972342e-05 -1.210654e-03
<VARIANCE> 39
 2.119634e+01 3.200368e+01 8.008540e+01 2.402777e+01 4.750182e+01 3.279514e+01 5.485788e+01 2.294282e+01 4.940771e+01 4.166591e+01 3.114500e+01 3.282381e+01 3.024532e+01 1.127961e+00 1.202875e+00 1.954560e+00 1.372990e+00 2.170918e+00 2.180552e+00 2.656941e+00 2.195722e+00 2.122914e+00 2.522295e+00 1.896824e+00 1.910460e+00 4.609609e-01 1.670851e-01 1.614697e-01 2.254700e-01 2.182692e-01 3.536591e-01 3.997038e-01 4.558050e-01 4.370067e-01 3.556314e-01 4.574593e-01 3.534117e-01 3.353569e-01 4.609331e-02
<GCONST> 1.077987e+02
<STATE> 4
<MEAN> 39
 -6.809462e+00 -6.272236e+00 3.762146e+00 -6.442525e+00 -5.580116e+00 -3.855615e+00 -6.605188e+00 -1.202939e+00 4.185372e+00 -4.194091e+00 3.223455e+00 -5.117224e+00 6.432821e+01 2.106799e-03 9.069305e-03 -3.839303e-02 -1.452356e-02 3.598936e-02 1.700767e-02 2.377634e-02 -9.782618e-03 -1.837922e-02 3.697988e-02 -4.468831e-02 -1.686808e-02 -1.199150e-02 -1.017435e-03 2.092920e-03 -2.164271e-03 -9.146763e-04 -1.986859e-04 -2.364709e-03 -2.145864e-03 -9.886175e-04 5.876231e-04 2.331390e-03 -1.023094e-03 -1.157453e-04 -1.878082e-04
<VARIANCE> 39
 1.752827e+01 3.286613e+01 6.712408e+01 2.827592e+01 4.406018e+01 3.504861e+01 4.887893e+01 2.240623e+01 4.988599e+01 4.040344e+01 3.099426e+01 3.993553e+01 3.057286e+01 8.783960e-01 1.220459e+00 1.737372e+00 1.381904e+00 2.077555e+00 2.224287e+00 2.440392e+00 2.053169e+00 2.122776e+00 2.355953e+00 1.830966e+00 2.057466e+00 4.625347e-01 1.325824e-01 1.590945e-01 2.104418e-01 2.127780e-01 3.441590e-01 3.955162e-01 4.221016e-01 4.033866e-01 3.440430e-01 4.294125e-01 3.306331e-01 3.524030e-01 4.819643e-02
<GCONST> 1.065014e+02
<TRANSP> 5
 0.000000e+00 1.000000e+00 0.000000e+00 0.000000e+00 0.000000e+00
 0.000000e+00 8.147989e-01 1.852011e-01 0.000000e+00 0.000000e+00
 0.000000e+00 0.000000e+00 8.147986e-01 1.852014e-01 0.000000e+00
 0.000000e+00 0.000000e+00 0.000000e+00 9.490292e-01 5.097083e-02
 0.000000e+00 0.000000e+00 0.000000e+00 0.000000e+00 0.000000e+00
<ENDHMM>
~h "k"
<BEGINHMM>
<NUMSTATES> 5
<STATE> 2
<MEAN> 39
 -8.103325e+00 -4.277558e+00 7.470357e-01 -4.219584e+00 -5.022040e+00 -4.632966e+00 -6.207263e+00 -1.781697e+00 2.294674e+00 -2.567298e+00 3.045257e+00 -5.596397e+00 6.374991e+01 -1.802874e-03 -1.353046e-02 -4.783206e-04 -1.590381e-03 -1.736187e-03 -7.614723e-03 1.737875e-02 5.066878e-03 6.284727e-03 -2.087705e-03 -1.745561e-02 1.314534e-02 5.984978e-04 9.878894e-04 -1.413345e-04 1.149116e-04 -2.635085e-04 4.695830e-04 4.516841e-05 3.565408e-04 4.388492e-04 2.568788e-04 5.632644e-04 -2.777433e-04 -2.205542e-04 -5.272600e-05
<VARIANCE> 39
 2.550875e+01 2.112917e+01 4.082272e+01 2.366691e+01 3.555628e+01 2.837388e+01 4.713980e+01 3.041086e+01 3.110149e+01 3.642479e+01 3.849609e+01 2.900550e+01 1.999011e+01 1.171626e+00 1.169641e+00 2.192938e+00 1.392330e+00 2.099208e+00 2.237527e+00 2.626169e+00 2.329967e+00 2.674905e+00 2.476081e+00 2.482516e+00 2.058404e+00 7.196254e-01 1.608851e-01 1.795838e-01 3.120901e-01 2.472971e-01 3.452949e-01 4.160540e-01 4.542134e-01 4.381885e-01 5.035620e-01 4.644828e-01 4.441232e-01 3.568249e-01 9.993346e-02
<GCONST> 1.087942e+02
<STATE> 3
<MEAN> 39
 -8.103855e+00 -4.353534e+00 7.497750e-01 -4.227449e+00 -5.027711e+00 -4.677882e+00 -6.106949e+00 -1.748166e+00 2.333769e+00 -2.571072e+00 2.947916e+00 -5.524474e+00 6.375065e+01 3.798407e-03 -1.396022e-02 1.386270e-04 -3.110391e-03 9.953286e-04 -7.208207e-03 1.913960e-02 7.277482e-03 7.612218e-03 1.018792e-03 -1.880347e-02 1.184790e-02 6.421026e-05 1.051067e-03 -7.006137e-06 1.373177e-04 -3.238072e-04 5.046352e-04 1.051385e-04 2.114239e-04 3.594610e-04 2.725006e-04 5.268614e-04 -1.450000e-04 -2.253852e-04 -6.647892e-05
<VARIANCE> 39
 2.561502e+01 2.143359e+01 4.037142e+01 2.380575e+01 3.551168e+01 2.807159e+01 4.687334e+01 3.024772e+01 3.042089e+01 3.671584e+01 3.788458e+01 2.934476e+01 2.022225e+01 1.155265e+00 1.169523e+00 2.189529e+00 1.407031e+00 2.090806e+00 2.210948e+00 2.593449e+00 2.323959e+00 2.676983e+00 2.529065e+00 2.456667e+00 2.059484e+00 7.174554e-01 1.588378e-01 1.780191e-01 3.109115e-01 2.487350e-01 3.447049e-01 4.112579e-01 4.489691e-01 4.382554e-01 5.068496e-01 4.756512e-01 4.387560e-01 3.561114e-01 9.994365e-02
<GCONST> 1.087219e+02
<STATE> 4
<MEAN> 39
 -8.153948e+00 -4.327517e+00 8.787599e-01 -4.181419e+00 -4.967787e+00 -4.740723e+00 -5.743638e+00 -1.721363e+00 2.405465e+00 -2.574497e+00 2.717017e+00 -5.390238e+00 6.362054e+01 1.468813e-02 -1.293318e-02 4.637607e-03 -5.563289e-03 5.655454e-03 -8.305585e-03 2.086158e-02 9.508144e-03 1.074726e-02 8.761872e-03 -1.857689e-02 9.534694e-03 -2.858478e-03 1.104604e-03 2.133771e-04 2.362422e-04 -4.799653e-04 4.384316e-04 1.533417e-04 -1.406514e-04 1.082172e-04 2.554865e-04 4.979658e-04 1.650133e-04 -2.619804e-04 1.000640e-05
<VARIANCE> 39
 2.607670e+01 2.210284e+01 4.071261e+01 2.390183e+01 3.655553e+01 2.786893e+01 4.708243e+01 3.025251e+01 2.865047e+01 3.799338e+01 3.602785e+01 3.045445e+01 2.121935e+01 1.098343e+00 1.176850e+00 2.206671e+00 1.425107e+00 2.091493e+00 2.146370e+00 2.526964e+00 2.294366e+00 2.626332e+00 2.656346e+00 2.372450e+00 2.028668e+00 7.227021e-01 1.509313e-01 1.756679e-01 3.073584e-01 2.489103e-01 3.446499e-01 3.987341e-01 4.333794e-01 4.299040e-01 5.046689e-01 5.035660e-01 4.220393e-01 3.472618e-01 1.008138e-01
<GCONST> 1.085507e+02
<TRANSP> 5
 0.000000e+00 1.000000e+00 0.000000e+00 0.000000e+00 0.000000e+00
 0.000000e+00 8.168691e-01 1.831308e-01 0.000000e+00 0.000000e+00
 0.000000e+00 0.000000e+00 8.168693e-01 1.831307e-01 0.000000e+00
 0.000000e+00 0.000000e+00 0.000000e+00 9.515796e-01 4.842043e-02
 0.000000e+00 0.000000e+00 0.000000e+00 0.000000e+00 0.000000e+00
<ENDHMM>
~h "n"
<BEGINHMM>
<NUMSTATES> 5
<STATE> 2
<MEAN> 39
 -5.363131e+00 -4.716356e+00 2.787169e+00 -5.561573e+00 -3.955581e+00 -5.045154e+00 -5.542256e+00 -1.142659e+00 1.811180e+00 -2.836283e+00 3.465248e-01 -6.817080e+00 6.462744e+01 -5.085148e-03 -6.173997e-03 -7.923714e-05 4.536694e-03 1.954624e-03 -2.971465e-03 3.075427e-03 2.198515e-03 2.360934e-03 6.549399e-03 1.130339e-02 5.638350e-03 -2.589014e-04 -9.548395e-04 3.758053e-04 4.421818e-04 3.894470e-04 -1.804458e-04 -8.145714e-04 -4.595958e-04 -5.021896e-04 -3.086983e-05 9.371312e-04 1.091687e-03 1.104958e-03 -3.686449e-04
<VARIANCE> 39
 2.389532e+01 2.553222e+01 3.582664e+01 3.428668e+01 3.886422e+01 4.003934e+01 3.154868e+01 2.875783e+01 3.373169e+01 3.571180e+01 3.448701e+01 3.797540e+01 3.143612e+01 6.561179e-01 1.243527e+00 1.454481e+00 1.670208e+00 1.857089e+00 2.004373e+00 1.838927e+00 2.103269e+00 2.365529e+00 2.126250e+00 2.199114e+00 1.866473e+00 5.182656e-01 9.000172e-02 1.713120e-01 1.990948e-01 2.542186e-01 2.941629e-01 3.283127e-01 3.246250e-01 3.906849e-01 4.114017e-01 3.894300e-01 3.772889e-01 3.210635e-01 5.922926e-02
<GCONST> 1.044789e+02
<STATE> 3
<MEAN> 39
 -5.409720e+00 -4.739477e+00 2.792001e+00 -5.529261e+00 -3.945223e+00 -5.067181e+00 -5.521495e+00 -1.135491e+00 1.814971e+00 -2.804836e+00 4.114931e-01 -6.767599e+00 6.461665e+01 -1.001106e-02 -3.406661e-03 -1.097334e-03 5.168085e-03 1.400960e-03 -4.584908e-03 3.188089e-03 -4.219989e-04 1.017995e-03 7.491354e-03 1.310346e-02 1.169430e-02 -2.072122e-03 -8.607693e-04 5.743191e-04 -4.870985e-04 9.481076e-05 -1.257008e-04 -2.834349e-04 6.818586e-05 -4.607801e-04 -1.497205e-04 2.728272e-04 3.152210e-04 1.032323e-03 -2.710278e-04
<VARIANCE> 39
 2.413085e+01 2.520355e+01 3.590083e+01 3.391854e+01 3.898554e+01 3.959726e+01 3.153533e+01 2.898604e+01 3.365250e+01 3.553753e+01 3.429540e+01 3.765897e+01 3.114788e+01 6.667985e-01 1.233870e+00 1.454530e+00 1.661527e+00 1.860361e+00 1.999617e+00 1.849447e+00 2.101905e+00 2.367188e+00 2.117353e+00 2.176596e+00 1.866575e+00 5.160630e-01 9.163267e-02 1.708426e-01 1.986045e-01 2.532474e-01 2.944367e-01 3.292155e-01 3.265060e-01 3.889437e-01 4.122105e-01 3.886479e-01 3.747941e-01 3.223105e-01 5.957879e-02
<GCONST> 1.044427e+02
<STATE> 4
<MEAN> 39
 -5.528605e+00 -4.774430e+00 2.693549e+00 -5.428175e+00 -3.881769e+00 -5.059827e+00 -5.492346e+00 -1.165186e+00 1.791605e+00 -2.774445e+00 5.409261e-01 -6.625371e+00 6.463728e+01 -1.588933e-02 1.057864e-03 -8.712845e-03 1.871341e-03 5.996802e-05 -4.631407e-03 1.048676e-03 -6.264588e-03 -8.656799e-04 7.740827e-03 1.639660e-02 2.089738e-02 -3.882400e-03 -2.037447e-04 2.995060e-04 -9.127252e-04 -1.651743e-04 -2.510605e-04 -3.342714e-04 -7.412352e-05 -3.132756e-04 1.191886e-04 5.087415e-04 3.128196e-04 4.117853e-04 1.445784e-05
<VARIANCE> 39
 2.452176e+01 2.435009e+01 3.700991e+01 3.292948e+01 3.948339e+01 3.804715e+01 3.188232e+01 2.977597e+01 3.339175e+01 3.567244e+01 3.425409e+01 3.664559e+01 3.035594e+01 6.990031e-01 1.194603e+00 1.472360e+00 1.639854e+00 1.885044e+00 1.986029e+00 1.886958e+00 2.090338e+00 2.363046e+00 2.105345e+00 2.154962e+00 1.834740e+00 5.114741e-01 9.632725e-02 1.672029e-01 2.003481e-01 2.519045e-01 2.984202e-01 3.309614e-01 3.331971e-01 3.829805e-01 4.122386e-01 3.876858e-01 3.739076e-01 3.169572e-01 6.054638e-02
<GCONST> 1.044188e+02
<TRANSP> 5
 0.000000e+00 1.000000e+00 0.000000e+00 0.000000e+00 0.000000e+00
 0.000000e+00 8.141603e-01 1.858397e-01 0.000000e+00 0.000000e+00
 0.000000e+00 0.000000e+00 8.141605e-01 1.858395e-01 0.000000e+00
 0.000000e+00 0.000000e+00 0.000000e+00 9.484717e-01 5.152820e-02
 0.000000e+00 0.000000e+00 0.000000e+00 0.000000e+00 0.000000e+00
<ENDHMM>
~h "o"
<BEGINHMM>
<NUMSTATES> 5
<STATE> 2
<MEAN> 39
 -4.485785e+00 -5.655176e+00 1.388059e+00 -6.004244e+00 -4.256563e+00 -6.899109e+00 -7.781523e+00 -2.311092e+00 3.289403e+00 -2.854904e+00 1.711128e+00 -4.491463e+00 6.488396e+01 -2.105905e-02 -1.253578e-02 9.924145e-03 -2.367121e-02 8.148288e-03 2.344300e-02 1.390648e-02 2.649368e-02 -9.823508e-03 -3.607848e-03 1.017462e-02 -2.447106e-02 4.862625e-03 -1.132376e-03 1.040753e-03 2.536244e-04 7.840888e-05 -2.898316e-04 -2.070086e-04 4.927016e-04 3.918479e-05 -1.010019e-03 7.923401e-04 9.307318e-05 1.123027e-04 -4.745087e-04
<VARIANCE> 39
 2.915125e+01 2.455283e+01 4.967786e+01 2.837837e+01 3.835423e+01 3.054481e+01 3.941174e+01 3.358655e+01 2.722807e+01 3.282943e+01 3.662416e+01 4.349353e+01 2.799179e+01 6.587172e-01 1.165402e+00 1.768849e+00 1.632191e+00 1.653782e+00 1.841038e+00 1.948746e+00 2.074963e+00 2.178605e+00 2.238937e+00 2.041177e+00 1.778260e+00 4.914311e-01 8.569372e-02 1.665102e-01 2.084727e-01 2.670251e-01 2.454615e-01 3.004466e-01 3.313373e-01 3.778131e-01 3.944297e-01 4.103958e-01 3.512862e-01 3.181537e-01 5.765003e-02
<GCONST> 1.040378e+02
<STATE> 3
<MEAN> 39
 -4.623785e+00 -5.710778e+00 1.459077e+00 -6.120232e+00 -4.214020e+00 -6.774659e+00 -7.690363e+00 -2.159762e+00 3.220976e+00 -2.871803e+00 1.764753e+00 -4.634407e+00 6.489966e+01 -2.689993e-02 -6.618114e-03 1.120786e-02 -2.251379e-02 5.995516e-03 2.208985e-02 1.582975e-02 2.620653e-02 -1.519289e-02 5.313661e-04 1.086409e-02 -2.337722e-02 2.514507e-03 -4.950267e-04 7.847883e-04 2.440047e-04 4.436229e-04 -9.769961e-04 -4.179490e-04 -4.143710e-04 -4.999829e-04 -1.057989e-03 8.400221e-04 3.125759e-04 3.263440e-04 -6.072969e-04
<VARIANCE> 39
 2.943906e+01 2.429611e+01 4.953229e+01 2.774944e+01 3.947659e+01 3.031201e+01 3.917799e+01 3.369867e+01 2.739026e+01 3.249844e+01 3.707076e+01 4.428417e+01 2.811102e+01 6.583477e-01 1.160885e+00 1.726373e+00 1.645634e+00 1.651291e+00 1.836150e+00 1.946446e+00 2.095577e+00 2.188384e+00 2.222884e+00 2.049940e+00 1.794850e+00 5.090715e-01 8.574928e-02 1.674262e-01 2.035441e-01 2.716565e-01 2.446574e-01 3.014263e-01 3.327914e-01 3.809754e-01 3.964322e-01 4.076410e-01 3.519970e-01 3.184099e-01 6.069234e-02
<GCONST> 1.041553e+02
<STATE> 4
<MEAN> 39
 -5.018831e+00 -5.781160e+00 1.711774e+00 -6.305816e+00 -4.246845e+00 -6.509833e+00 -7.471097e+00 -1.812687e+00 2.977906e+00 -2.909163e+00 1.908837e+00 -4.978216e+00 6.485378e+01 -3.292114e-02 2.670476e-03 1.727103e-02 -9.840555e-03 -7.702669e-04 1.661769e-02 1.365859e-02 2.179032e-02 -2.354839e-02 3.098846e-03 1.177755e-02 -2.246534e-02 -9.857365e-04 8.025366e-04 6.765572e-05 2.679070e-04 1.499136e-03 -1.468270e-03 -1.212092e-03 -1.924849e-03 -1.496035e-03 -5.723396e-04 6.722197e-04 2.288169e-04 7.288841e-04 -5.130927e-04
<VARIANCE> 39
 2.896975e+01 2.372343e+01 4.809657e+01 2.739771e+01 4.067593e+01 3.110546e+01 3.848449e+01 3.276130e+01 2.801174e+01 3.150576e+01 3.782550e+01 4.620774e+01 2.827417e+01 6.803545e-01 1.151938e+00 1.626756e+00 1.713282e+00 1.649861e+00 1.870266e+00 1.982369e+00 2.135770e+00 2.224855e+00 2.170350e+00 2.069582e+00 1.850002e+00 5.507556e-01 9.014762e-02 1.700105e-01 1.937532e-01 2.848745e-01 2.472986e-01 3.087353e-01 3.442208e-01 3.882881e-01 4.030244e-01 3.992980e-01 3.547452e-01 3.209332e-01 6.825999e-02
<GCONST> 1.045948e+02
<TRANSP> 5
 0.000000e+00 1.000000e+00 0.000000e+00 0.000000e+00 0.000000e+00
 0.000000e+00 8.158337e-01 1.841663e-01 0.000000e+00 0.000000e+00
 0.000000e+00 0.000000e+00 8.158338e-01 1.841663e-01 0.000000e+00
 0.000000e+00 0.000000e+00 0.000000e+00 9.498178e-01 5.018217e-02
 0.000000e+00 0.000000e+00 0.000000e+00 0.000000e+00 0.000000e+00
<ENDHMM>
~h "r"
<BEGINHMM>
<NUMSTATES> 5
<STATE> 2
<MEAN> 39
 -5.893144e+00 -5.126823e+00 1.048499e+00 -6.073214e+00 -4.913696e+00 -6.156096e+00 -5.306308e+00 -2.342674e+00 2.775972e+00 -2.498178e+00 2.739381e+00 -3.657829e+00 6.385006e+01 4.362284e-03 -1.087352e-02 1.366776e-02 -1.712800e-02 -7.359431e-03 1.500003e-02 -2.354703e-02 4.303321e-03 1.051315e-02 -4.944984e-03 6.646062e-03 -9.466855e-03 7.206105e-04 8.208636e-04 -8.579472e-04 -3.325780e-04 -4.911795e-04 -5.811774e-04 1.593105e-03 -1.528526e-04 6.356901e-04 4.132438e-04 -2.618532e-04 -3.564984e-06 -4.921302e-04 8.560742e-04
<VARIANCE> 39
 3.395327e+01 1.950431e+01 4.511759e+01 3.379995e+01 4.201199e+01 3.559189e+01 3.609475e+01 2.931129e+01 3.046178e+01 3.509866e+01 3.200330e+01 3.241753e+01 2.822957e+01 9.470543e-01 8.780168e-01 1.422791e+00 1.526047e+00 1.929468e+00 1.883513e+00 1.844189e+00 1.918136e+00 2.015740e+00 2.092085e+00 1.789950e+00 1.752701e+00 3.994581e-01 1.323808e-01 1.280209e-01 1.834752e-01 2.413528e-01 3.029017e-01 3.210649e-01 3.220555e-01 3.534970e-01 3.620013e-01 3.778503e-01 3.177806e-01 3.145444e-01 4.679354e-02
<GCONST> 1.027932e+02
<STATE> 3
<MEAN> 39
 -5.861775e+00 -5.195785e+00 1.129776e+00 -6.179173e+00 -4.953756e+00 -6.068834e+00 -5.438690e+00 -2.313982e+00 2.823053e+00 -2.521233e+00 2.775181e+00 -3.720447e+00 6.386200e+01 7.888880e-03 -1.558017e-02 1.198548e-02 -1.900392e-02 -9.405613e-03 2.304180e-02 -2.333083e-02 8.149196e-03 1.167411e-02 -6.074320e-03 5.370734e-03 -1.237949e-02 4.668822e-03 4.997613e-04 -6.790455e-04 -4.717217e-04 1.827949e-04 -2.630405e-04 1.515307e-03 3.687072e-04 7.728551e-04 2.320504e-04 -7.424545e-05 -4.610717e-04 -4.401365e-04 6.139561e-04
<VARIANCE> 39
 3.349768e+01 2.007581e+01 4.699421e+01 3.337473e+01 4.254266e+01 3.544811e+01 3.670092e+01 2.945351e+01 3.106435e+01 3.559305e+01 3.210543e+01 3.323507e+01 2.873398e+01 9.309858e-01 8.887224e-01 1.445405e+00 1.527699e+00 1.927358e+00 1.898338e+00 1.877849e+00 1.932734e+00 2.015017e+00 2.094555e+00 1.806497e+00 1.761681e+00 3.984095e-01 1.302572e-01 1.290938e-01 1.844002e-01 2.421617e-01 3.019336e-01 3.244230e-01 3.289790e-01 3.571025e-01 3.614108e-01 3.777783e-01 3.205084e-01 3.146410e-01 4.606182e-02
<GCONST> 1.030332e+02
<STATE> 4
<MEAN> 39
 -5.615535e+00 -5.393810e+00 1.250681e+00 -6.525433e+00 -5.043216e+00 -5.699087e+00 -5.664243e+00 -2.219925e+00 2.862770e+00 -2.578070e+00 2.862983e+00 -3.970472e+00 6.399511e+01 4.167232e-03 -1.888154e-02 1.012379e-02 -1.431041e-02 -4.950925e-03 2.847009e-02 -1.348429e-02 1.826593e-02 6.633983e-03 -4.602162e-03 -4.383560e-03 -2.148514e-02 1.901772e-03 -1.979076e-04 1.652223e-04 -4.431618e-04 1.281619e-03 4.580515e-04 9.355412e-04 1.450493e-03 6.610322e-04 -4.156252e-05 -1.215843e-04 -1.025257e-03 -9.928523e-05 -1.344317e-04
<VARIANCE> 39
 3.156717e+01 2.108830e+01 5.064117e+01 3.274052e+01 4.361139e+01 3.598611e+01 3.722281e+01 2.961206e+01 3.199633e+01 3.651626e+01 3.272464e+01 3.734530e+01 2.979149e+01 8.457472e-01 9.059495e-01 1.465308e+00 1.534472e+00 1.915845e+00 1.919873e+00 1.922749e+00 1.960677e+00 2.010782e+00 2.076032e+00 1.842013e+00 1.808762e+00 4.144574e-01 1.185381e-01 1.306640e-01 1.850964e-01 2.432223e-01 2.968210e-01 3.286127e-01 3.382447e-01 3.647043e-01 3.596871e-01 3.739297e-01 3.237256e-01 3.160719e-01 4.746329e-02
<GCONST> 1.034239e+02
<TRANSP> 5
 0.000000e+00 1.000000e+00 0.000000e+00 0.000000e+00 0.000000e+00
 0.000000e+00 8.158431e-01 1.841569e-01 0.000000e+00 0.000000e+00
 0.000000e+00 0.000000e+00 8.158435e-01 1.841564e-01 0.000000e+00
 0.000000e+00 0.000000e+00 0.000000e+00 9.501147e-01 4.988535e-02
 0.000000e+00 0.000000e+00 0.000000e+00 0.000000e+00 0.000000e+00
<ENDHMM>
~h "s"
<BEGINHMM>
<NUMSTATES> 5
<STATE> 2
<MEAN> 39
 -6.665089e+00 -4.454474e+00 1.998714e+00 -4.801198e+00 -5.044138e+00 -5.547741e+00 -6.396564e+00 -1.227160e+00 2.654865e+00 -2.509142e+00 2.400961e+00 -6.108474e+00 6.441433e+01 3.117338e-03 -9.160914e-04 1.121884e-02 4.403375e-03 1.181601e-02 -8.720371e-05 -1.333216e-02 2.420555e-04 -5.551605e-03 8.406796e-03 2.052916e-02 4.948215e-03 1.286577e-03 -5.531691e-04 4.731591e-04 -1.408555e-03 -7.430626e-04 4.834057e-04 5.371574e-04 -9.598868e-04 -3.414204e-05 1.405098e-03 1.084151e-03 -1.080262e-04 3.129350e-04 1.109099e-04
<VARIANCE> 39
 2.678569e+01 2.053675e+01 4.462250e+01 2.595230e+01 4.196400e+01 3.140797e+01 4.284089e+01 2.836282e+01 3.101906e+01 3.506140e+01 3.671816e+01 3.193904e+01 2.781788e+01 9.188908e-01 1.052450e+00 1.605416e+00 1.538094e+00 1.920066e+00 1.911842e+00 2.152046e+00 2.205590e+00 2.444794e+00 2.141478e+00 2.064939e+00 1.853327e+00 5.990894e-01 1.260453e-01 1.616698e-01 2.191559e-01 2.600257e-01 3.181072e-01 3.433713e-01 3.677126e-01 4.124728e-01 4.631166e-01 3.985367e-01 3.646897e-01 3.240535e-01 7.824784e-02
<GCONST> 1.056944e+02
<STATE> 3
<MEAN> 39
 -6.655387e+00 -4.452424e+00 2.025886e+00 -4.791641e+00 -4.982701e+00 -5.538580e+00 -6.480331e+00 -1.220400e+00 2.654297e+00 -2.450782e+00 2.497426e+00 -6.083798e+00 6.443090e+01 2.752304e-03 5.791695e-04 5.180562e-03 1.264357e-03 1.148864e-02 1.646789e-03 -1.663134e-02 8.291032e-04 8.506083e-04 1.118337e-02 1.706889e-02 4.358026e-03 4.011696e-03 -6.900587e-05 2.497393e-04 -1.069468e-03 -5.017428e-04 -1.252831e-04 2.367104e-04 -5.400323e-04 1.397571e-04 1.119970e-03 4.522004e-04 -7.161851e-04 -1.516816e-04 5.060510e-04
<VARIANCE> 39
 2.698404e+01 2.049816e+01 4.446352e+01 2.597315e+01 4.195121e+01 3.105788e+01 4.359420e+01 2.824778e+01 3.099889e+01 3.495381e+01 3.648700e+01 3.200022e+01 2.780151e+01 9.268265e-01 1.061731e+00 1.600651e+00 1.571171e+00 1.937803e+00 1.919423e+00 2.162160e+00 2.217373e+00 2.462256e+00 2.123469e+00 2.070838e+00 1.857242e+00 6.081018e-01 1.270476e-01 1.642745e-01 2.189643e-01 2.654061e-01 3.221528e-01 3.462336e-01 3.692412e-01 4.151802e-01 4.693199e-01 3.969159e-01 3.651782e-01 3.241978e-01 7.943840e-02
<GCONST> 1.058690e+02
<STATE> 4
<MEAN> 39
 -6.616214e+00 -4.419843e+00 2.032414e+00 -4.713370e+00 -4.911466e+00 -5.412285e+00 -6.723193e+00 -1.246260e+00 2.676054e+00 -2.434636e+00 2.607784e+00 -6.199915e+00 6.450024e+01 1.136005e-02 -1.449322e-03 7.392942e-03 3.642349e-03 8.415881e-03 3.697724e-05 -2.020178e-02 1.062651e-03 4.407269e-03 3.753288e-03 2.274556e-03 -4.513839e-03 1.075623e-02 4.319375e-04 -6.034735e-05 2.644162e-04 1.824854e-04 -1.655092e-04 -2.208495e-04 -1.301750e-04 -1.786695e-05 1.439534e-04 -3.471120e-04 -8.303429e-04 -3.444467e-04 2.807999e-04
<VARIANCE> 39
 2.791359e+01 2.081670e+01 4.448846e+01 2.647200e+01 4.228839e+01 3.094549e+01 4.677766e+01 2.781446e+01 3.126542e+01 3.402223e+01 3.606598e+01 3.226564e+01 2.744411e+01 9.640490e-01 1.088951e+00 1.604315e+00 1.645393e+00 2.012950e+00 1.981892e+00 2.225460e+00 2.219182e+00 2.502881e+00 2.103412e+00 2.112747e+00 1.870038e+00 6.538410e-01 1.314367e-01 1.684664e-01 2.195124e-01 2.779264e-01 3.353561e-01 3.592025e-01 3.811084e-01 4.134167e-01 4.769615e-01 3.959939e-01 3.749332e-01 3.255247e-01 8.555667e-02
<GCONST> 1.066122e+02
<TRANSP> 5
 0.000000e+00 1.000000e+00 0.000000e+00 0.000000e+00 0.000000e+00
 0.000000e+00 8.143788e-01 1.856212e-01 0.000000e+00 0.000000e+00
 0.000000e+00 0.000000e+00 8.143786e-01 1.856214e-01 0.000000e+00
 0.000000e+00 0.000000e+00 0.000000e+00 9.489180e-01 5.108190e-02
 0.000000e+00 0.000000e+00 0.000000e+00 0.000000e+00 0.000000e+00
<ENDHMM>
~h "t"
<BEGINHMM>
<NUMSTATES> 5
<STATE> 2
<MEAN> 39
 -6.701539e+00 -4.508958e+00 2.623540e+00 -5.485739e+00 -7.012064e+00 -4.538364e+00 -5.582132e+00 -2.027466e+00 2.099034e+00 -3.004648e+00 2.922690e+00 -6.412475e+00 6.426648e+01 9.801477e-04 -7.168210e-03 -2.975654e-03 -1.164096e-02 -1.594801e-02 9.498439e-04 -2.346982e-02 4.571261e-03 2.027771e-02 -2.775765e-03 1.239690e-02 8.385933e-03 3.377837e-02 -5.128758e-04 4.015695e-04 1.547907e-03 6.361306e-04 1.569188e-03 -2.986592e-04 -6.273008e-04 -7.575330e-04 -1.111795e-03 5.140924e-04 6.659633e-04 1.074588e-03 -8.989107e-04
<VARIANCE> 39
 1.895500e+01 1.587163e+01 6.289170e+01 2.445991e+01 7.247659e+01 2.522139e+01 4.059914e+01 3.621301e+01 3.514492e+01 4.912379e+01 5.472584e+01 2.932145e+01 3.412832e+01 6.591536e-01 7.594373e-01 1.616603e+00 1.348991e+00 2.354233e+00 1.701270e+00 2.238419e+00 2.335606e+00 2.179457e+00 2.251593e+00 2.300569e+00 1.543022e+00 7.578542e-01 9.295516e-02 1.159056e-01 2.036030e-01 2.256642e-01 3.430316e-01 2.994849e-01 4.132974e-01 3.758806e-01 4.076503e-01 3.977359e-01 3.613407e-01 2.705624e-01 9.209754e-02
<GCONST> 1.053226e+02
<STATE> 3
<MEAN> 39
 -6.703752e+00 -4.528369e+00 2.658699e+00 -5.527021e+00 -7.053142e+00 -4.541064e+00 -5.734890e+00 -2.043144e+00 2.151336e+00 -3.014157e+00 3.017976e+00 -6.337340e+00 6.441331e+01 -1.364840e-03 -3.852518e-03 5.268877e-03 -7.970544e-03 -4.499354e-03 -1.587981e-04 -2.455118e-02 1.717372e-04 1.118335e-02 -1.181213e-03 1.474700e-02 1.454370e-02 2.501590e-02 -3.696876e-04 5.633372e-04 1.405434e-03 7.414210e-04 2.065928e-03 -2.517243e-04 -5.240617e-05 -6.933531e-04 -1.698041e-03 3.161811e-04 3.419139e-04 1.029152e-03 -1.652963e-03
<VARIANCE> 39
 1.910979e+01 1.595370e+01 6.302922e+01 2.446540e+01 7.277052e+01 2.547987e+01 4.041277e+01 3.562676e+01 3.558209e+01 4.970993e+01 5.455168e+01 2.909361e+01 3.335839e+01 6.722335e-01 7.426501e-01 1.607697e+00 1.357131e+00 2.343639e+00 1.682494e+00 2.248591e+00 2.326113e+00 2.178601e+00 2.268372e+00 2.312588e+00 1.560261e+00 7.464797e-01 9.459484e-02 1.122963e-01 2.010073e-01 2.280833e-01 3.422070e-01 2.952892e-01 4.153484e-01 3.738768e-01 4.049770e-01 3.975649e-01 3.631262e-01 2.745005e-01 9.055425e-02
<GCONST> 1.052752e+02
<STATE> 4
<MEAN> 39
 -6.697858e+00 -4.443985e+00 2.844384e+00 -5.471733e+00 -6.811975e+00 -4.706605e+00 -6.043986e+00 -2.174129e+00 2.018903e+00 -3.035876e+00 3.314416e+00 -6.037569e+00 6.442389e+01 -2.233058e-04 -2.960428e-03 -1.393781e-03 -2.194168e-03 1.650086e-02 -4.716495e-03 -1.100553e-02 -7.430962e-04 3.107493e-03 2.253265e-03 6.173945e-03 2.293597e-02 4.166801e-03 1.315620e-05 -6.694624e-05 -4.404262e-04 4.036096e-04 1.028557e-03 -2.414287e-04 1.126941e-03 5.174933e-04 -1.705565e-04 2.614016e-04 -7.275477e-04 2.432266e-04 -9.736584e-04
<VARIANCE> 39
 2.014982e+01 1.717507e+01 6.041817e+01 2.511373e+01 7.059203e+01 2.773071e+01 3.947332e+01 3.335746e+01 3.529797e+01 4.824079e+01 4.930315e+01 2.869033e+01 3.146535e+01 7.296072e-01 7.343681e-01 1.593782e+00 1.380365e+00 2.312013e+00 1.679019e+00 2.261950e+00 2.254199e+00 2.172259e+00 2.239543e+00 2.247830e+00 1.631198e+00 7.001050e-01 1.029639e-01 1.082898e-01 1.984600e-01 2.350458e-01 3.450851e-01 2.899100e-01 4.126408e-01 3.692429e-01 3.957840e-01 3.876886e-01 3.561031e-01 2.885317e-01 8.377983e-02
<GCONST> 1.050544e+02
<TRANSP> 5
 0.000000e+00 1.000000e+00 0.000000e+00 0.000000e+00 0.000000e+00
 0.000000e+00 8.200484e-01 1.799516e-01 0.000000e+00 0.000000e+00
 0.000000e+00 0.000000e+00 8.200480e-01 1.799520e-01 0.000000e+00
 0.000000e+00 0.000000e+00 0.000000e+00 9.549989e-01 4.500116e-02
 0.000000e+00 0.000000e+00 0.000000e+00 0.000000e+00 0.000000e+00
<ENDHMM>
~h "u"
<BEGINHMM>
<NUMSTATES> 5
<STATE> 2
<MEAN> 39
 -7.252882e+00 -3.657804e+00 1.969427e+00 -4.694679e+00 -3.507218e+00 -6.471226e+00 -5.318808e+00 -2.148597e+00 1.698534e+00 -8.526879e-01 1.219778e+00 -5.106919e+00 6.260955e+01 -2.194433e-02 -1.569712e-03 2.532515e-02 2.121912e-03 1.611632e-02 -6.922825e-03 -4.167820e-03 3.708084e-02 1.096312e-02 -1.028488e-02 1.305742e-02 1.566020e-02 3.817987e-03 6.889913e-04 2.699899e-04 5.486826e-04 2.364466e-03 -3.871465e-04 6.282362e-04 1.055466e-03 5.477769e-04 -2.549068e-03 -1.437563e-03 1.476273e-03 9.670344e-06 -3.565246e-04
<VARIANCE> 39
 1.680896e+01 1.552321e+01 2.279591e+01 1.977439e+01 2.681765e+01 3.302436e+01 4.408113e+01 3.839340e+01 4.337852e+01 2.961934e+01 2.996824e+01 1.995140e+01 1.650466e+01 7.874172e-01 6.519612e-01 1.187059e+00 1.346251e+00 1.716059e+00 1.590136e+00 2.326679e+00 2.345638e+00 2.307728e+00 1.863165e+00 1.889104e+00 1.500275e+00 3.766367e-01 1.199957e-01 9.896784e-02 1.909243e-01 2.497183e-01 2.939264e-01 2.635652e-01 4.021376e-01 3.666012e-01 4.132839e-01 3.466248e-01 3.463357e-01 2.807615e-01 5.586417e-02
<GCONST> 9.884740e+01
<STATE> 3
<MEAN> 39
 -7.367514e+00 -3.668228e+00 2.098516e+00 -4.669937e+00 -3.425609e+00 -6.494391e+00 -5.326663e+00 -1.925907e+00 1.756868e+00 -9.378350e-01 1.286419e+00 -5.022756e+00 6.262819e+01 -1.919913e-02 -9.213134e-05 2.629195e-02 1.618759e-02 1.350440e-02 -1.528124e-03 2.040614e-03 3.909351e-02 -2.167720e-03 -1.776005e-02 1.944800e-02 1.468997e-02 2.902544e-03 3.458457e-04 5.613808e-04 1.449394e-04 2.994732e-03 -1.928733e-04 8.294320e-04 8.026406e-04 -7.190937e-04 -3.391338e-03 -1.559782e-03 1.519058e-03 -1.658343e-04 -1.075892e-04
<VARIANCE> 39
 1.683187e+01 1.607733e+01 2.176652e+01 2.036649e+01 2.699142e+01 3.402444e+01 4.461994e+01 3.812729e+01 4.252306e+01 2.930534e+01 2.920949e+01 1.943402e+01 1.634101e+01 8.000695e-01 6.581616e-01 1.190321e+00 1.345491e+00 1.726187e+00 1.588468e+00 2.352206e+00 2.317631e+00 2.300761e+00 1.844932e+00 1.900851e+00 1.532456e+00 3.837729e-01 1.224659e-01 9.988556e-02 1.927548e-01 2.487574e-01 2.970454e-01 2.630822e-01 4.027658e-01 3.684091e-01 4.084843e-01 3.441187e-01 3.494726e-01 2.890146e-01 5.734343e-02
<GCONST> 9.897649e+01
<STATE> 4
<MEAN> 39
 -7.435359e+00 -3.537296e+00 2.367394e+00 -4.426628e+00 -3.376329e+00 -6.357193e+00 -5.426330e+00 -1.766687e+00 1.604115e+00 -1.278621e+00 1.535596e+00 -4.931744e+00 6.268210e+01 -2.181911e-02 4.113389e-03 2.222190e-02 3.012575e-02 1.229013e-02 1.918439e-02 1.046988e-02 3.210318e-02 -1.833292e-02 -2.587467e-02 1.426019e-02 6.299605e-03 3.343942e-03 -2.373283e-04 5.529044e-04 2.652580e-05 2.351272e-03 6.248036e-04 1.428712e-04 1.450458e-04 -1.721644e-03 -3.483444e-03 -1.004856e-03 1.390246e-03 -6.259535e-04 -7.267612e-05
<VARIANCE> 39
 1.774512e+01 1.709330e+01 2.168346e+01 2.180054e+01 2.898584e+01 3.626247e+01 4.864644e+01 3.645359e+01 4.336135e+01 2.987546e+01 2.996351e+01 1.946099e+01 1.677332e+01 8.724494e-01 6.720467e-01 1.220317e+00 1.360484e+00 1.882886e+00 1.640491e+00 2.528358e+00 2.282019e+00 2.346157e+00 1.878430e+00 1.927677e+00 1.608885e+00 4.253863e-01 1.356000e-01 1.026304e-01 1.977833e-01 2.461713e-01 3.304288e-01 2.705499e-01 4.216939e-01 3.808498e-01 4.142219e-01 3.545052e-01 3.544204e-01 3.048358e-01 6.187312e-02
<GCONST> 1.004905e+02
<TRANSP> 5
 0.000000e+00 1.000000e+00 0.000000e+00 0.000000e+00 0.000000e+00
 0.000000e+00 8.194008e-01 1.805992e-01 0.000000e+00 0.000000e+00
 0.000000e+00 0.000000e+00 8.194009e-01 1.805991e-01 0.000000e+00
 0.000000e+00 0.000000e+00 0.000000e+00 9.540942e-01 4.590585e-02
 0.000000e+00 0.000000e+00 0.000000e+00 0.000000e+00 0.000000e+00
<ENDHMM>
~h "v"
<BEGINHMM>
<NUMSTATES> 5
<STATE> 2
<MEAN> 39
 -5.387508e+00 -5.441656e+00 2.725515e+00 -5.374506e+00 -4.161554e+00 -5.831955e+00 -6.864561e+00 -8.391998e-01 2.943244e+00 -1.966820e+00 1.708565e+00 -6.447597e+00 6.544801e+01 4.097298e-05 8.189249e-03 -1.289787e-02 3.283764e-03 1.645192e-02 -2.171380e-03 2.563271e-02 -1.133199e-02 -1.191033e-02 8.377940e-03 -2.663057e-02 -1.317974e-03 -2.002125e-02 -3.192611e-04 6.891561e-05 -3.836081e-04 -1.457785e-04 -4.319406e-05 6.514194e-04 7.574689e-04 1.714691e-04 2.231058e-05 -5.334010e-05 1.673372e-04 2.225038e-04 -5.516844e-04
<VARIANCE> 39
 2.483202e+01 2.531122e+01 4.047958e+01 3.405291e+01 4.125705e+01 3.700440e+01 3.992735e+01 2.783014e+01 3.063938e+01 2.843950e+01 3.182820e+01 4.372836e+01 3.020911e+01 8.653339e-01 1.128637e+00 1.316317e+00 1.828687e+00 2.084409e+00 2.074615e+00 1.874586e+00 2.154374e+00 2.385373e+00 1.879919e+00 2.014256e+00 2.103121e+00 5.979361e-01 1.269598e-01 1.678164e-01 1.805372e-01 2.994913e-01 3.402821e-01 3.501755e-01 3.410166e-01 3.901231e-01 4.390415e-01 3.466456e-01 3.672913e-01 3.415746e-01 7.651164e-02
<GCONST> 1.058155e+02
<STATE> 3
<MEAN> 39
 -5.398649e+00 -5.392280e+00 2.642516e+00 -5.363415e+00 -4.068869e+00 -5.840895e+00 -6.703138e+00 -9.025432e-01 2.872952e+00 -1.922988e+00 1.559570e+00 -6.439651e+00 6.532001e+01 -1.897022e-03 8.466596e-03 -1.532193e-02 2.112325e-03 1.561320e-02 1.206547e-03 2.921531e-02 -1.010267e-02 -1.132422e-02 7.980802e-03 -2.514992e-02 1.065325e-04 -2.264301e-02 -3.953258e-04 4.849982e-05 -3.061940e-04 2.695643e-05 -2.785210e-04 6.312315e-04 4.241965e-04 1.133998e-04 4.626992e-05 2.797815e-05 6.207706e-04 4.098542e-04 -3.905794e-04
<VARIANCE> 39
 2.420857e+01 2.488433e+01 4.014635e+01 3.428059e+01 4.091708e+01 3.697287e+01 3.959916e+01 2.806455e+01 3.048909e+01 2.805137e+01 3.218641e+01 4.258477e+01 2.965485e+01 8.401678e-01 1.120421e+00 1.313769e+00 1.819569e+00 2.065215e+00 2.049264e+00 1.865109e+00 2.149761e+00 2.374336e+00 1.873163e+00 2.018385e+00 2.069961e+00 5.809818e-01 1.235769e-01 1.664833e-01 1.817340e-01 2.975306e-01 3.363594e-01 3.462655e-01 3.405442e-01 3.903867e-01 4.368385e-01 3.457866e-01 3.675627e-01 3.384793e-01 7.429580e-02
<GCONST> 1.054829e+02
<STATE> 4
<MEAN> 39
 -5.451266e+00 -5.331217e+00 2.317644e+00 -5.426373e+00 -3.854923e+00 -5.756992e+00 -6.250567e+00 -1.024156e+00 2.750987e+00 -1.818506e+00 1.303964e+00 -6.297851e+00 6.495818e+01 -6.956389e-03 7.604065e-03 -2.318745e-02 -3.198680e-03 1.091649e-02 6.142807e-03 3.208934e-02 -8.064748e-03 -1.014856e-02 4.428612e-03 -1.908855e-02 4.745741e-03 -2.472858e-02 -2.901567e-04 -2.647660e-04 -7.056595e-05 5.980481e-05 -6.364104e-04 4.889274e-04 -4.831891e-04 -6.004406e-07 1.376529e-04 1.078451e-04 1.436933e-03 2.822321e-04 2.486511e-04
<VARIANCE> 39
 2.300934e+01 2.399494e+01 3.980010e+01 3.410178e+01 4.054255e+01 3.672267e+01 3.722840e+01 2.853894e+01 3.015218e+01 2.819780e+01 3.329179e+01 4.065650e+01 2.827926e+01 7.839767e-01 1.100315e+00 1.322792e+00 1.764521e+00 2.022778e+00 2.003384e+00 1.816824e+00 2.125030e+00 2.339933e+00 1.892547e+00 2.040951e+00 2.029075e+00 5.398572e-01 1.165653e-01 1.623669e-01 1.855215e-01 2.863611e-01 3.264402e-01 3.393872e-01 3.328599e-01 3.881586e-01 4.315990e-01 3.492527e-01 3.688298e-01 3.343939e-01 6.775621e-02
<GCONST> 1.046933e+02
<TRANSP> 5
 0.000000e+00 1.000000e+00 0.000000e+00 0.000000e+00 0.000000e+00
 0.000000e+00 8.158038e-01 1.841962e-01 0.000000e+00 0.000000e+00
 0.000000e+00 0.000000e+00 8.158035e-01 1.841965e-01 0.000000e+00
 0.000000e+00 0.000000e+00 0.000000e+00 9.505162e-01 4.948377e-02
 0.000000e+00 0.000000e+00 0.000000e+00 0.000000e+00 0.000000e+00
<ENDHMM>
~h "w"
<BEGINHMM>
<NUMSTATES> 5
<STATE> 2
<MEAN> 39
 -5.566460e+00 -4.317756e+00 2.897017e+00 -5.948871e+00 -3.629027e+00 -4.686394e+00 -5.067767e+00 -1.191081e+00 1.822293e+00 -3.079849e+00 -1.961471e-01 -6.177901e+00 6.317831e+01 1.640251e-02 1.352021e-02 -3.039986e-02 -5.050702e-03 7.751773e-03 -3.358296e-02 1.054606e-02 8.872439e-03 1.675419e-03 2.094192e-02 -3.830271e-02 -1.365993e-02 5.703684e-03 1.312223e-03 -6.775396e-04 1.163268e-03 2.001174e-03 3.716280e-04 -2.095789e-03 -4.171499e-03 1.060228e-03 5.815233e-05 7.652671e-04 7.308037e-04 -1.444663e-03 2.093725e-03
<VARIANCE> 39
 2.619197e+01 2.499871e+01 2.993341e+01 3.671869e+01 3.463134e+01 4.209232e+01 3.062692e+01 2.434604e+01 3.357737e+01 2.947841e+01 3.673449e+01 3.514792e+01 3.229160e+01 5.297043e-01 1.217964e+00 1.207594e+00 1.576951e+00 1.796225e+00 2.250277e+00 1.691174e+00 1.886600e+00 2.203110e+00 2.181799e+00 2.478472e+00 2.104046e+00 4.336515e-01 7.190932e-02 1.585449e-01 1.708744e-01 2.118541e-01 2.841409e-01 3.541537e-01 3.055649e-01 3.746276e-01 3.859618e-01 4.064342e-01 4.136801e-01 3.862405e-01 4.290691e-02
<GCONST> 1.026555e+02
<STATE> 3
<MEAN> 39
 -5.463324e+00 -4.229468e+00 2.767931e+00 -5.949194e+00 -3.585853e+00 -4.839571e+00 -5.073010e+00 -1.146985e+00 1.821397e+00 -2.982272e+00 -3.563152e-01 -6.251095e+00 6.325117e+01 1.897743e-02 1.652477e-02 -2.309794e-02 6.705908e-05 7.133052e-03 -2.705496e-02 -2.918190e-03 7.392555e-03 -2.442894e-04 1.700199e-02 -2.624307e-02 -1.287299e-02 1.483027e-02 4.412717e-04 6.364418e-04 1.351357e-03 7.897210e-04 -1.594722e-04 1.542686e-03 -2.398456e-03 -4.417589e-04 -3.469950e-04 -9.405041e-04 2.383306e-03 2.771924e-04 1.697056e-03
<VARIANCE> 39
 2.571055e+01 2.563955e+01 2.852535e+01 3.786355e+01 3.442994e+01 4.462385e+01 3.033828e+01 2.416219e+01 3.372470e+01 2.898537e+01 3.671144e+01 3.588221e+01 3.219686e+01 5.476685e-01 1.240666e+00 1.221819e+00 1.608313e+00 1.803011e+00 2.283373e+00 1.685347e+00 1.861482e+00 2.205007e+00 2.175542e+00 2.515571e+00 2.123677e+00 4.483114e-01 7.459272e-02 1.613430e-01 1.742903e-01 2.166528e-01 2.852038e-01 3.555967e-01 3.072872e-01 3.704575e-01 3.864149e-01 4.074636e-01 4.174653e-01 3.871681e-01 4.437450e-02
<GCONST> 1.029725e+02
<STATE> 4
<MEAN> 39
 -4.976717e+00 -4.135448e+00 2.601387e+00 -6.052271e+00 -3.387170e+00 -4.565091e+00 -5.278936e+00 -1.297915e+00 1.795179e+00 -2.992515e+00 -5.136068e-01 -6.573132e+00 6.397293e+01 1.818443e-02 9.044415e-03 -1.185863e-02 -1.848186e-03 1.146613e-02 8.619078e-03 -1.122809e-02 -9.021275e-03 7.859326e-04 1.028306e-03 -7.781960e-03 -1.442846e-02 3.356186e-02 -6.072657e-05 -5.315865e-04 5.766301e-04 -1.467544e-05 1.100714e-04 1.704795e-03 -5.658558e-04 -8.732990e-04 9.522751e-05 -8.622020e-04 1.215135e-03 -3.291137e-05 9.384346e-04
<VARIANCE> 39
 2.626799e+01 2.950583e+01 2.692156e+01 4.404595e+01 3.562846e+01 5.273465e+01 3.093366e+01 2.314758e+01 3.354527e+01 2.792672e+01 3.742089e+01 3.986160e+01 3.292397e+01 5.989974e-01 1.379742e+00 1.249918e+00 1.729352e+00 1.835592e+00 2.437545e+00 1.725696e+00 1.807814e+00 2.222063e+00 2.239191e+00 2.628435e+00 2.187871e+00 5.085480e-01 8.045689e-02 1.741577e-01 1.745772e-01 2.274922e-01 2.881178e-01 3.636955e-01 3.120346e-01 3.549146e-01 3.850674e-01 4.281051e-01 4.267805e-01 3.865408e-01 4.939033e-02
<GCONST> 1.044958e+02
<TRANSP> 5
 0.000000e+00 1.000000e+00 0.000000e+00 0.000000e+00 0.000000e+00
 0.000000e+00 8.157087e-01 1.842913e-01 0.000000e+00 0.000000e+00
 0.000000e+00 0.000000e+00 8.157086e-01 1.842914e-01 0.000000e+00
 0.000000e+00 0.000000e+00 0.000000e+00 9.497842e-01 5.021584e-02
 0.000000e+00 0.000000e+00 0.000000e+00 0.000000e+00 0.000000e+00
<ENDHMM>
~h "z"
<BEGINHMM>
<NUMSTATES> 5
<STATE> 2
<MEAN> 39
 -4.811306e+00 -4.169344e+00 2.286500e+00 -4.571658e+00 -4.039641e+00 -6.515388e+00 -7.058795e+00 -3.427062e+00 2.139992e+00 -3.173021e+00 3.075546e-01 -5.499716e+00 6.353941e+01 -1.637394e-02 5.162368e-02 5.388090e-02 5.153683e-02 -9.830493e-03 -5.298531e-02 5.812268e-03 -2.146613e-02 -2.361112e-02 3.090921e-02 2.895498e-02 4.381358e-02 -1.694986e-02 -1.343523e-03 -2.793297e-03 -1.530952e-03 -3.826869e-03 -5.056394e-05 -2.394003e-05 1.171659e-03 3.296072e-03 -5.508379e-04 1.092279e-03 2.174539e-03 -5.296032e-04 1.152845e-03
<VARIANCE> 39
 2.285718e+01 2.632031e+01 3.094430e+01 3.588815e+01 2.578097e+01 4.244456e+01 2.581923e+01 2.425057e+01 2.799049e+01 3.020011e+01 2.833359e+01 3.683158e+01 2.305297e+01 6.215053e-01 1.236982e+00 1.435484e+00 1.570307e+00 1.677816e+00 2.040342e+00 1.747644e+00 1.680560e+00 2.001481e+00 2.328615e+00 1.876162e+00 1.937510e+00 3.176751e-01 8.408880e-02 1.628458e-01 1.929745e-01 2.294899e-01 2.790914e-01 3.363490e-01 3.028729e-01 3.215841e-01 3.566458e-01 4.152464e-01 3.346808e-01 3.495806e-01 3.526776e-02
<GCONST> 1.003926e+02
<STATE> 3
<MEAN> 39
 -4.902353e+00 -3.984445e+00 2.509802e+00 -4.357261e+00 -4.073984e+00 -6.796080e+00 -7.023166e+00 -3.490656e+00 2.046548e+00 -3.011020e+00 4.900109e-01 -5.271255e+00 6.348678e+01 -1.741841e-02 3.074181e-02 3.859140e-02 3.678287e-02 -6.088173e-03 -5.147642e-02 6.937812e-03 -8.413862e-03 -1.504523e-02 2.950284e-02 3.328061e-02 4.072656e-02 -8.859040e-03 -6.470527e-05 -3.837907e-03 -2.886976e-03 -2.547258e-03 7.609600e-04 3.428318e-04 7.737857e-05 2.317299e-03 1.740815e-03 -3.923170e-04 4.674618e-04 -7.371265e-04 1.484387e-03
<VARIANCE> 39
 2.325506e+01 2.517515e+01 3.185964e+01 3.395711e+01 2.593304e+01 4.132890e+01 2.683374e+01 2.451640e+01 2.774878e+01 3.080469e+01 2.882767e+01 3.593928e+01 2.288456e+01 6.445366e-01 1.210472e+00 1.494453e+00 1.570343e+00 1.709053e+00 2.057933e+00 1.764839e+00 1.741931e+00 1.965596e+00 2.364320e+00 1.884904e+00 1.924972e+00 3.165490e-01 8.677422e-02 1.568029e-01 1.974699e-01 2.332294e-01 2.830792e-01 3.466931e-01 3.060423e-01 3.318937e-01 3.516022e-01 4.236226e-01 3.393382e-01 3.536649e-01 3.596906e-02
<GCONST> 1.006541e+02
<STATE> 4
<MEAN> 39
 -4.940072e+00 -3.980181e+00 2.542335e+00 -3.960325e+00 -4.040101e+00 -7.356894e+00 -7.168535e+00 -3.484682e+00 2.236119e+00 -2.767270e+00 8.648872e-01 -4.617143e+00 6.371459e+01 2.763479e-03 -5.999099e-03 -8.161442e-03 1.338752e-02 -2.185356e-03 -3.479805e-02 -1.125026e-02 4.020275e-03 1.696267e-02 1.317681e-02 2.203105e-02 4.104618e-02 1.940351e-02 8.789929e-04 -1.918052e-03 -2.325078e-03 -1.521661e-03 1.668691e-04 1.144691e-03 -7.610084e-04 8.720661e-04 1.644608e-03 -8.584852e-04 -8.104787e-04 -5.550642e-04 1.264398e-03
<VARIANCE> 39
 2.593911e+01 2.613797e+01 3.660364e+01 3.181018e+01 2.731272e+01 3.899497e+01 3.100812e+01 2.541050e+01 2.655836e+01 3.200282e+01 2.980484e+01 3.378284e+01 2.255822e+01 7.200848e-01 1.236443e+00 1.673110e+00 1.634200e+00 1.845309e+00 2.079842e+00 1.813565e+00 1.891665e+00 1.974954e+00 2.439824e+00 1.956396e+00 1.886015e+00 3.243805e-01 9.486391e-02 1.551687e-01 2.118534e-01 2.472754e-01 3.038285e-01 3.541427e-01 3.056753e-01 3.558030e-01 3.563442e-01 4.478521e-01 3.579752e-01 3.620427e-01 3.763445e-02
<GCONST> 1.021180e+02
<TRANSP> 5
 0.000000e+00 1.000000e+00 0.000000e+00 0.000000e+00 0.000000e+00
 0.000000e+00 8.158445e-01 1.841555e-01 0.000000e+00 0.000000e+00
 0.000000e+00 0.000000e+00 8.158447e-01 1.841553e-01 0.000000e+00
 0.000000e+00 0.000000e+00 0.000000e+00 9.498552e-01 5.014483e-02
 0.000000e+00 0.000000e+00 0.000000e+00 0.000000e+00 0.000000e+00
<ENDHMM>
~h "O:"
<BEGINHMM>
<NUMSTATES> 5
<STATE> 2
<MEAN> 39
 -5.267339e+00 -5.157793e+00 -2.807591e-01 -7.238848e+00 -5.583749e+00 -4.880166e+00 -3.617932e+00 -2.326830e+00 3.095000e+00 -2.750604e+00 3.431707e+00 -3.076042e+00 6.415328e+01 -2.066997e-02 5.640423e-03 -1.223718e-02 1.307042e-02 2.155314e-02 -2.415586e-02 6.478258e-03 -4.661036e-03 -1.049673e-02 2.804468e-02 -1.780374e-02 6.748537e-04 -3.264515e-02 -1.583863e-04 2.219348e-04 7.564163e-04 -4.092955e-05 -2.232936e-05 2.607149e-04 -6.484045e-04 -6.778934e-04 -1.505371e-04 2.314302e-04 4.009017e-04 -5.409138e-04 1.800635e-05
<VARIANCE> 39
 3.867889e+01 1.146513e+01 3.158282e+01 4.337984e+01 5.031961e+01 3.972718e+01 2.138665e+01 3.351117e+01 2.802256e+01 3.324611e+01 3.541817e+01 3.262067e+01 2.857565e+01 1.005855e+00 6.538506e-01 1.032358e+00 1.676434e+00 2.131696e+00 1.780475e+00 1.557451e+00 1.804889e+00 1.882082e+00 1.776590e+00 1.756068e+00 1.648539e+00 4.602637e-01 1.356297e-01 1.088950e-01 1.542238e-01 2.558216e-01 3.148814e-01 2.916880e-01 2.884428e-01 3.198272e-01 3.340188e-01 3.113539e-01 3.057298e-01 2.857456e-01 5.786670e-02
<GCONST> 1.006327e+02
<STATE> 3
<MEAN> 39
 -5.369359e+00 -5.126906e+00 -3.426852e-01 -7.165527e+00 -5.466656e+00 -4.997537e+00 -3.584296e+00 -2.361361e+00 3.050224e+00 -2.583414e+00 3.346947e+00 -3.076105e+00 6.397908e+01 -2.088761e-02 6.404193e-03 -6.465113e-03 1.251093e-02 2.127335e-02 -2.234739e-02 2.925427e-03 -7.254697e-03 -1.185204e-02 2.829103e-02 -1.517944e-02 -1.343366e-03 -3.178892e-02 3.017138e-04 7.693781e-06 8.701996e-04 -3.705116e-04 -2.712987e-04 6.481877e-04 -6.241391e-04 -4.487134e-04 -1.486975e-04 -2.143555e-04 6.612503e-04 -1.612348e-04 4.425787e-04
<VARIANCE> 39
 3.835946e+01 1.150315e+01 3.027456e+01 4.268690e+01 4.930064e+01 3.926766e+01 2.102259e+01 3.279246e+01 2.829328e+01 3.339952e+01 3.462447e+01 3.231500e+01 2.863170e+01 9.828874e-01 6.452467e-01 1.004096e+00 1.646801e+00 2.090985e+00 1.775336e+00 1.540576e+00 1.784718e+00 1.886742e+00 1.769937e+00 1.719923e+00 1.653755e+00 4.403017e-01 1.330673e-01 1.073726e-01 1.502534e-01 2.525476e-01 3.124171e-01 2.928202e-01 2.839945e-01 3.167191e-01 3.351742e-01 3.109106e-01 2.993119e-01 2.887801e-01 5.556174e-02
<GCONST> 1.001423e+02
<STATE> 4
<MEAN> 39
 -5.206927e+00 -5.104861e+00 -5.752448e-01 -7.280790e+00 -5.392264e+00 -4.906280e+00 -3.570575e+00 -2.528013e+00 3.048941e+00 -2.340750e+00 3.408162e+00 -2.990187e+00 6.390335e+01 -1.520951e-02 1.945797e-03 8.541197e-03 7.906113e-03 1.924230e-02 -1.904543e-02 -4.801602e-03 -2.492499e-03 -1.478736e-02 2.791018e-02 -1.251936e-02 -8.344567e-03 -2.652440e-02 5.026353e-04 -4.010758e-04 8.297585e-04 -7.758724e-04 -4.751078e-04 7.601379e-04 -7.221659e-04 3.027654e-04 -2.836687e-04 -6.948588e-04 3.446391e-04 -3.394747e-04 7.455425e-04
<VARIANCE> 39
 3.843903e+01 1.208849e+01 2.924173e+01 4.270998e+01 4.829040e+01 3.810966e+01 2.044533e+01 3.201721e+01 2.951618e+01 3.395022e+01 3.302720e+01 3.348004e+01 2.907005e+01 9.337773e-01 6.379775e-01 9.512206e-01 1.621854e+00 2.020952e+00 1.751390e+00 1.494083e+00 1.763463e+00 1.936862e+00 1.764476e+00 1.679456e+00 1.693478e+00 4.145738e-01 1.258728e-01 1.048942e-01 1.416990e-01 2.496061e-01 3.040590e-01 2.917518e-01 2.721674e-01 3.144395e-01 3.453114e-01 3.106948e-01 2.904524e-01 2.937320e-01 5.261538e-02
<GCONST> 9.959183e+01
<TRANSP> 5
 0.000000e+00 1.000000e+00 0.000000e+00 0.000000e+00 0.000000e+00
 0.000000e+00 8.162856e-01 1.837144e-01 0.000000e+00 0.000000e+00
 0.000000e+00 0.000000e+00 8.162855e-01 1.837145e-01 0.000000e+00
 0.000000e+00 0.000000e+00 0.000000e+00 9.507142e-01 4.928585e-02
 0.000000e+00 0.000000e+00 0.000000e+00 0.000000e+00 0.000000e+00
<ENDHMM>
~h "aI"
<BEGINHMM>
<NUMSTATES> 5
<STATE> 2
<MEAN> 39
 -5.405914e+00 -6.271223e+00 2.626584e+00 -6.520047e+00 -4.375732e+00 -4.669285e+00 -5.835873e+00 -3.501127e-01 2.877242e+00 -2.315565e+00 1.516588e+00 -6.407314e+00 6.559586e+01 3.600453e-03 3.477995e-03 2.946068e-03 -1.237571e-03 -6.618252e-03 -1.155717e-02 8.305019e-03 -8.745698e-03 1.404421e-03 1.712720e-02 -5.155439e-03 -2.710132e-03 3.019723e-03 1.004084e-04 5.085407e-04 -9.254846e-04 -6.132214e-05 2.433640e-04 5.275648e-04 5.360206e-04 -3.254804e-04 -8.894568e-04 -8.432625e-04 -1.188298e-04 -2.072827e-04 -7.697562e-05
<VARIANCE> 39
 2.405399e+01 2.837209e+01 4.535824e+01 3.050007e+01 4.162526e+01 4.102924e+01 2.744196e+01 3.000011e+01 3.161598e+01 4.052752e+01 3.132339e+01 5.637718e+01 3.671297e+01 7.889122e-01 1.119204e+00 1.603153e+00 1.601150e+00 2.031255e+00 2.138727e+00 1.773641e+00 2.142009e+00 2.233903e+00 2.045465e+00 2.080938e+00 2.290140e+00 5.924168e-01 1.189576e-01 1.552636e-01 2.066221e-01 2.511624e-01 3.146378e-01 3.414123e-01 3.176357e-01 3.764910e-01 3.846240e-01 3.640243e-01 3.717344e-01 3.369403e-01 6.940664e-02
<GCONST> 1.059897e+02
<STATE> 3
<MEAN> 39
 -5.379678e+00 -6.247540e+00 2.631316e+00 -6.524395e+00 -4.409171e+00 -4.722727e+00 -5.789934e+00 -4.014268e-01 2.872825e+00 -2.229096e+00 1.498836e+00 -6.421407e+00 6.561060e+01 3.928176e-03 5.372544e-03 -1.954815e-03 -1.226067e-03 -5.058007e-03 -8.902181e-03 1.064266e-02 -9.688299e-03 -3.263552e-03 1.282324e-02 -4.976586e-03 -2.912945e-03 2.042516e-03 1.292894e-04 3.071045e-04 -7.640214e-04 -7.345323e-05 3.083831e-04 5.344796e-04 3.044979e-04 -7.765746e-05 -9.035403e-04 -8.674827e-04 1.355256e-04 -1.424173e-04 -3.824872e-05
<VARIANCE> 39
 2.384728e+01 2.801621e+01 4.554202e+01 3.087719e+01 4.175323e+01 4.102573e+01 2.731243e+01 3.041687e+01 3.164756e+01 4.071613e+01 3.151393e+01 5.568911e+01 3.656485e+01 7.915252e-01 1.104766e+00 1.594737e+00 1.593575e+00 2.052962e+00 2.130178e+00 1.775663e+00 2.135236e+00 2.249349e+00 2.046627e+00 2.084912e+00 2.258241e+00 5.806857e-01 1.196014e-01 1.538471e-01 2.054251e-01 2.490716e-01 3.175538e-01 3.397386e-01 3.180071e-01 3.743473e-01 3.879081e-01 3.636817e-01 3.724241e-01 3.321977e-01 6.819153e-02
<GCONST> 1.059119e+02
<STATE> 4
<MEAN> 39
 -5.255423e+00 -6.218129e+00 2.608057e+00 -6.420943e+00 -4.438058e+00 -4.750937e+00 -5.750242e+00 -4.492337e-01 2.856950e+00 -2.108037e+00 1.644901e+00 -6.392715e+00 6.572021e+01 -2.756552e-03 1.011507e-02 -1.441249e-02 1.526563e-03 3.538300e-03 -8.538786e-03 1.533151e-02 -1.140261e-02 -1.173373e-02 7.079154e-03 -4.049039e-03 1.213464e-02 -1.180500e-02 -3.417557e-04 2.853983e-04 -8.153214e-04 -1.076650e-04 5.561969e-04 2.484019e-04 2.672448e-04 -2.346131e-05 -6.915532e-04 -7.476305e-04 -2.720701e-05 4.789131e-04 -4.624510e-04
<VARIANCE> 39
 2.336782e+01 2.767437e+01 4.657449e+01 3.153852e+01 4.291379e+01 4.069287e+01 2.686567e+01 3.115438e+01 3.159415e+01 4.044247e+01 3.199286e+01 5.385496e+01 3.563506e+01 7.985724e-01 1.081732e+00 1.578126e+00 1.583338e+00 2.132746e+00 2.113029e+00 1.753714e+00 2.092393e+00 2.251336e+00 2.052157e+00 2.118629e+00 2.232421e+00 5.627773e-01 1.216485e-01 1.507328e-01 2.022935e-01 2.458916e-01 3.282546e-01 3.368582e-01 3.156249e-01 3.613787e-01 3.914438e-01 3.618219e-01 3.765694e-01 3.286246e-01 6.649808e-02
<GCONST> 1.057713e+02
<TRANSP> 5
 0.000000e+00 1.000000e+00 0.000000e+00 0.000000e+00 0.000000e+00
 0.000000e+00 8.176264e-01 1.823736e-01 0.000000e+00 0.000000e+00
 0.000000e+00 0.000000e+00 8.176265e-01 1.823735e-01 0.000000e+00
 0.000000e+00 0.000000e+00 0.000000e+00 9.524125e-01 4.758745e-02
 0.000000e+00 0.000000e+00 0.000000e+00 0.000000e+00 0.000000e+00
<ENDHMM>
~h "eh"
<BEGINHMM>
<NUMSTATES> 5
<STATE> 2
<MEAN> 39
 -5.219594e+00 -4.245923e+00 3.025066e+00 -5.091715e+00 -3.607868e+00 -5.400365e+00 -6.035303e+00 -1.236355e+00 1.960817e+00 -2.523470e+00 1.871170e-01 -6.983793e+00 6.446038e+01 7.221009e-03 -5.751175e-04 -1.233493e-02 -1.143780e-02 4.693598e-03 1.393854e-02 1.534726e-02 -5.961780e-03 -1.626070e-03 -7.635858e-04 -6.803481e-03 -6.775991e-03 7.007508e-03 -1.283722e-04 -5.960785e-04 4.730942e-05 -1.910782e-04 -2.970628e-04 6.346994e-04 -2.655771e-04 -1.732853e-04 2.417203e-04 -5.560692e-04 6.436864e-04 6.803276e-05 3.756970e-04
<VARIANCE> 39
 2.471431e+01 2.666153e+01 3.022563e+01 3.936433e+01 3.699776e+01 4.317206e+01 3.845924e+01 2.493856e+01 3.371318e+01 2.779302e+01 3.379314e+01 3.621304e+01 3.014226e+01 6.806500e-01 1.331374e+00 1.278473e+00 1.789207e+00 1.866501e+00 2.161463e+00 1.847296e+00 2.083539e+00 2.416390e+00 2.059659e+00 2.296086e+00 2.006251e+00 5.474904e-01 9.213731e-02 1.806302e-01 1.820823e-01 2.667100e-01 2.996785e-01 3.482345e-01 3.341267e-01 4.027942e-01 4.318224e-01 3.891508e-01 3.937568e-01 3.501990e-01 6.175336e-02
<GCONST> 1.049156e+02
<STATE> 3
<MEAN> 39
 -5.186332e+00 -4.261299e+00 2.957421e+00 -5.155229e+00 -3.582088e+00 -5.319956e+00 -5.953498e+00 -1.268798e+00 1.957306e+00 -2.531157e+00 1.557401e-01 -7.022315e+00 6.450144e+01 6.107318e-03 -4.049031e-03 -1.195853e-02 -1.127451e-02 3.237913e-03 1.536789e-02 1.383291e-02 -6.080242e-03 -1.447170e-04 -2.976335e-03 -4.179820e-03 -6.473827e-03 8.163306e-03 -2.508384e-04 -6.345485e-04 1.015455e-04 1.198693e-04 -2.245170e-04 1.925174e-04 -2.728642e-04 -7.565691e-06 2.435145e-04 -3.462885e-04 4.454684e-04 1.062552e-04 1.483565e-04
<VARIANCE> 39
 2.483023e+01 2.711538e+01 3.024449e+01 3.997295e+01 3.704471e+01 4.420211e+01 3.776120e+01 2.510501e+01 3.393645e+01 2.825977e+01 3.391262e+01 3.689369e+01 3.015539e+01 6.794970e-01 1.344833e+00 1.298625e+00 1.785272e+00 1.853327e+00 2.167587e+00 1.848287e+00 2.085356e+00 2.421065e+00 2.094233e+00 2.309497e+00 2.020600e+00 5.476813e-01 9.169690e-02 1.810135e-01 1.838888e-01 2.638696e-01 2.966307e-01 3.469532e-01 3.333560e-01 4.016483e-01 4.318182e-01 3.950035e-01 3.952050e-01 3.502642e-01 6.108030e-02
<GCONST> 1.050482e+02
<STATE> 4
<MEAN> 39
 -5.143020e+00 -4.352901e+00 2.755002e+00 -5.188116e+00 -3.415351e+00 -5.179201e+00 -5.764314e+00 -1.329088e+00 1.905252e+00 -2.568669e+00 3.588230e-02 -7.116518e+00 6.457139e+01 -3.605648e-03 -7.159078e-03 -1.059018e-02 -2.765799e-03 1.580092e-03 3.930069e-03 1.141493e-02 -2.705879e-03 2.968315e-03 -2.493439e-03 8.742934e-04 1.610044e-03 8.211440e-04 -5.814965e-04 -2.165544e-04 2.195015e-04 5.838814e-04 -2.039343e-04 -5.836883e-04 -3.388300e-04 1.150432e-04 1.694628e-04 -4.931114e-05 4.687940e-04 6.900444e-04 -4.025346e-04
<VARIANCE> 39
 2.477221e+01 2.746089e+01 3.088737e+01 4.014876e+01 3.721419e+01 4.457931e+01 3.602735e+01 2.584397e+01 3.403015e+01 2.916501e+01 3.430368e+01 3.789684e+01 3.000833e+01 6.670110e-01 1.347251e+00 1.340097e+00 1.765582e+00 1.802245e+00 2.155106e+00 1.840603e+00 2.100270e+00 2.432554e+00 2.163176e+00 2.297580e+00 2.020858e+00 5.404398e-01 8.972587e-02 1.790028e-01 1.866340e-01 2.568409e-01 2.877595e-01 3.414950e-01 3.290690e-01 4.008165e-01 4.340604e-01 4.065590e-01 3.923258e-01 3.455717e-01 5.937747e-02
<GCONST> 1.050170e+02
<TRANSP> 5
 0.000000e+00 1.000000e+00 0.000000e+00 0.000000e+00 0.000000e+00
 0.000000e+00 8.139337e-01 1.860664e-01 0.000000e+00 0.000000e+00
 0.000000e+00 0.000000e+00 8.139339e-01 1.860660e-01 0.000000e+00
 0.000000e+00 0.000000e+00 0.000000e+00 9.481184e-01 5.188154e-02
 0.000000e+00 0.000000e+00 0.000000e+00 0.000000e+00 0.000000e+00
<ENDHMM>
~h "sil"
<BEGINHMM>
<NUMSTATES> 5
<STATE> 2
<MEAN> 39
 -8.745119e+00 -4.503869e+00 8.711547e-01 -5.289863e+00 -2.911490e+00 -6.542051e+00 -4.655759e+00 -5.196377e-01 2.488063e+00 -1.212973e+00 3.322492e-01 -4.291041e+00 6.083103e+01 3.288192e-03 2.603890e-02 3.022449e-02 -2.280321e-02 -8.816083e-02 -2.173166e-02 1.303107e-02 -4.842801e-02 4.994962e-02 -6.507476e-02 7.293815e-02 5.437753e-02 -4.349237e-02 -9.387455e-03 3.901419e-03 -5.895772e-03 -7.450862e-04 -3.145033e-02 2.710837e-03 2.199747e-03 -4.856382e-03 -9.592044e-03 5.485015e-03 -6.779315e-03 -8.767285e-03 1.060417e-03
<VARIANCE> 39
 9.425929e+00 1.493903e+01 2.156707e+01 2.304373e+01 2.129185e+01 2.419946e+01 2.674099e+01 2.811584e+01 3.238202e+01 2.529025e+01 2.446537e+01 2.025637e+01 1.019776e+01 4.239956e-01 6.751387e-01 9.679660e-01 1.279637e+00 1.460241e+00 1.819990e+00 1.795813e+00 1.709772e+00 2.199505e+00 1.761957e+00 1.822880e+00 1.666692e+00 1.989278e-01 6.756048e-02 1.094623e-01 1.473596e-01 2.068845e-01 2.502578e-01 3.180033e-01 2.998149e-01 2.722271e-01 3.432709e-01 3.069664e-01 3.140764e-01 3.012098e-01 2.780059e-02
<GCONST> 9.122475e+01
<STATE> 3
<MEAN> 39
 -8.705982e+00 -4.445145e+00 8.582518e-01 -5.332292e+00 -3.430968e+00 -6.553542e+00 -4.516422e+00 -8.564885e-01 2.404412e+00 -1.444065e+00 4.184160e-01 -4.187627e+00 6.075802e+01 1.252808e-02 3.849875e-03 -5.044674e-03 -1.784343e-03 -7.896216e-02 -1.907253e-02 3.720882e-02 -5.854574e-02 -1.376900e-02 -4.060169e-02 -2.904214e-03 3.504992e-03 -1.321001e-02 2.033999e-03 -4.617679e-03 -8.321408e-03 2.222467e-03 7.439426e-03 2.321248e-03 5.486064e-03 1.277227e-03 -1.125719e-02 2.555542e-03 -1.870496e-02 -1.070629e-02 5.109364e-03
<VARIANCE> 39
 8.738351e+00 1.478288e+01 2.124852e+01 2.205047e+01 2.143707e+01 2.558033e+01 2.657549e+01 2.533710e+01 2.873827e+01 2.769641e+01 2.501534e+01 2.068086e+01 1.046993e+01 4.335682e-01 7.148198e-01 9.687800e-01 1.275856e+00 1.491213e+00 1.800841e+00 1.763261e+00 1.671767e+00 1.991845e+00 1.770425e+00 1.951001e+00 1.673093e+00 2.291437e-01 7.547419e-02 1.189807e-01 1.650583e-01 2.220600e-01 2.673969e-01 3.270340e-01 3.145538e-01 2.892757e-01 3.617323e-01 3.283239e-01 3.464793e-01 3.252801e-01 3.447253e-02
<GCONST> 9.232931e+01
<STATE> 4
<MEAN> 39
 -8.511742e+00 -4.676724e+00 1.174233e+00 -5.189821e+00 -3.719673e+00 -6.597351e+00 -4.515739e+00 -1.216722e+00 1.989005e+00 -1.470851e+00 4.137027e-01 -4.575511e+00 6.119207e+01 6.229935e-03 -1.284003e-02 -2.157518e-03 8.150618e-03 9.834179e-07 -1.789240e-02 1.472754e-02 5.138661e-03 -1.055469e-02 -1.177306e-02 -3.165358e-02 -4.298810e-02 1.479023e-02 -9.784059e-04 -1.401496e-03 -5.378386e-03 -4.403474e-03 -7.820816e-05 6.770665e-03 -7.229928e-04 5.264137e-03 -7.638827e-05 -6.238546e-03 -9.548402e-03 -6.076606e-03 1.373790e-03
<VARIANCE> 39
 9.742231e+00 1.382906e+01 2.289525e+01 2.141596e+01 2.468359e+01 2.982152e+01 2.802645e+01 2.503282e+01 2.786342e+01 2.738334e+01 2.831969e+01 2.376608e+01 1.216359e+01 4.990892e-01 7.223585e-01 9.860410e-01 1.259307e+00 1.535866e+00 1.795064e+00 1.747156e+00 1.755524e+00 1.988922e+00 1.823184e+00 1.917967e+00 1.668814e+00 2.896626e-01 8.457906e-02 1.197871e-01 1.660820e-01 2.148720e-01 2.593880e-01 3.247328e-01 3.203314e-01 3.109505e-01 3.625961e-01 3.326240e-01 3.327541e-01 3.119769e-01 4.100041e-02
<GCONST> 9.384107e+01
<TRANSP> 5
 0.000000e+00 1.000000e+00 0.000000e+00 0.000000e+00 0.000000e+00
 0.000000e+00 8.162546e-01 1.837454e-01 0.000000e+00 0.000000e+00
 0.000000e+00 0.000000e+00 8.162544e-01 1.837456e-01 0.000000e+00
 0.000000e+00 0.000000e+00 0.000000e+00 9.507270e-01 4.927291e-02
 0.000000e+00 0.000000e+00 0.000000e+00 0.000000e+00 0.000000e+00
<ENDHMM>
