~o
<STREAMINFO> 1 39
<VECSIZE> 39<NULLD><MFCC_D_A_0><DIAGC>
~s "silst"
<MEAN> 39
 -1.157385e+01 -4.244722e+00 7.307999e-01 -4.352882e-02 2.610996e+00 -1.809556e+00 5.440590e+00 1.681569e+00 5.746334e+00 -2.855659e-01 2.341402e+00 -1.198556e+00 4.643217e+01 -5.984101e-03 -6.465339e-02 -1.135790e-01 1.240798e-02 -6.617068e-02 2.586838e-02 1.413853e-02 5.180511e-02 4.546789e-02 9.391462e-02 4.802331e-02 -2.060543e-02 -5.784945e-02 1.827367e-02 -2.093010e-02 -3.086384e-02 -5.190188e-02 1.801025e-02 5.569883e-03 -5.129939e-03 -2.100873e-02 -3.995610e-02 -1.713550e-02 -2.464536e-02 -3.091978e-02 8.434806e-02
<VARIANCE> 39
 5.303567e+00 1.278483e+01 1.389280e+01 1.359413e+01 1.227186e+01 1.791645e+01 1.631198e+01 2.316794e+01 1.489466e+01 1.468637e+01 1.440095e+01 1.151335e+01 7.616754e+00 2.990406e-01 4.853229e-01 6.985977e-01 9.108666e-01 1.014285e+00 1.325637e+00 1.452527e+00 1.298838e+00 1.524270e+00 1.355555e+00 1.277773e+00 1.064084e+00 3.123413e-01 5.719830e-02 1.026166e-01 1.251847e-01 1.806414e-01 1.935346e-01 2.672434e-01 3.082012e-01 2.275250e-01 3.108049e-01 2.656107e-01 2.514409e-01 2.267475e-01 5.986609e-02
<GCONST> 8.068863e+01
~h "I"
<BEGINHMM>
<NUMSTATES> 5
<STATE> 2
<MEAN> 39
 -1.415820e+01 1.543180e+01 9.937288e-01 7.402606e+00 2.321842e-01 -1.599626e+01 4.551369e+00 -6.733454e-01 4.096852e+00 -4.148684e+00 4.052310e+00 -3.539101e+00 6.046576e+01 -1.092928e+00 1.297181e+00 -1.117078e-01 7.424378e-01 -3.505728e-03 4.916426e-01 1.941438e-01 -1.141211e-01 2.614703e-01 -2.008598e-01 2.482645e-01 1.081993e-01 3.633898e-01 1.583230e-01 -6.671737e-01 2.812162e-01 -2.902744e-01 -6.759379e-02 1.942562e-01 -9.973404e-02 -3.744450e-03 -2.895398e-01 6.709960e-03 -1.476705e-01 -9.967011e-03 -2.214389e-01
<VARIANCE> 39
 1.951212e+01 1.903035e+01 1.219311e+01 3.226400e+01 3.864709e+01 2.658665e+01 1.259620e+01 1.198506e+01 1.370609e+01 1.293196e+01 9.345063e+00 1.269486e+01 7.199771e+00 2.717351e+00 3.442590e+00 1.466774e+00 1.125754e+00 1.631140e+00 3.042414e+00 1.564967e+00 1.399202e+00 1.580283e+00 7.805825e-01 9.361122e-01 1.022209e+00 4.967437e-01 2.246798e-01 3.198839e-01 2.416578e-01 2.260329e-01 2.746916e-01 6.344534e-01 2.718229e-01 2.517633e-01 1.776610e-01 1.731128e-01 1.484715e-01 1.871023e-01 1.955694e-01
<GCONST> 9.337178e+01
<STATE> 3
<MEAN> 39
 -1.743674e+01 1.419973e+01 5.814743e+00 5.583490e+00 -1.277206e+00 -1.492030e+01 4.499434e+00 -3.875798e+00 1.454217e+00 -3.934547e+00 4.509296e+00 -1.942336e+00 6.303963e+01 9.110373e-01 -1.757790e+00 2.677368e+00 -1.352432e+00 -1.429585e+00 -3.424452e-01 -1.331275e+00 -6.245425e-01 -6.409886e-01 1.367439e-03 6.892605e-01 6.139743e-01 1.025606e+00 4.655178e-01 -5.289134e-01 6.539009e-01 -3.753132e-01 -2.627963e-01 1.170356e-01 -5.844393e-01 2.359339e-01 -5.441176e-03 -1.198884e-01 2.698442e-01 4.661382e-03 9.074727e-02
<VARIANCE> 39
 8.149164e+00 1.866473e+01 2.943000e+01 1.909848e+01 3.136486e+01 2.664282e+01 1.193090e+01 1.208179e+01 1.355779e+01 8.453571e+00 1.271541e+01 1.212150e+01 8.979515e+00 3.158184e+00 1.608032e+00 3.372538e+00 9.204524e-01 2.096157e+00 2.277218e+00 3.162990e+00 1.029994e+00 9.701800e-01 9.658567e-01 1.399008e+00 7.596919e-01 3.336371e-01 1.268850e-01 1.047777e-01 1.885784e-01 1.079474e-01 2.582056e-01 5.965332e-01 3.120750e-01 3.684754e-01 2.003420e-01 2.116065e-01 2.479733e-01 1.880166e-01 6.680290e-02
<GCONST> 8.992616e+01
<STATE> 4
<MEAN> 39
 -5.158165e+00 -6.677514e+00 2.405268e+01 -6.205728e+00 -1.386442e+01 -1.303072e+01 -1.069092e+01 1.961691e+00 -2.560324e+00 -6.514207e+00 1.323063e+01 -1.294747e+00 6.847575e+01 1.455380e+00 -1.919577e+00 -2.303066e-02 6.167244e-02 -7.003216e-01 -1.575977e-02 -1.153043e+00 1.001922e+00 3.804270e-03 -3.837020e-01 5.167691e-01 -1.047252e-01 3.710160e-02 -1.367636e-01 3.379424e-01 -8.709669e-01 3.566368e-01 4.473531e-01 1.190548e-02 2.782693e-01 -2.622883e-01 2.611413e-01 1.726235e-01 -3.168728e-01 -1.370282e-02 -2.301047e-01
<VARIANCE> 39
 1.504458e+01 4.141943e+01 4.528455e+01 2.533363e+01 2.308790e+01 2.092255e+01 2.159481e+01 2.532687e+01 2.105188e+01 1.837057e+01 1.291687e+01 1.163397e+01 7.085746e+00 9.184892e-01 1.693894e+00 1.169907e+01 4.858079e+00 2.847603e+00 3.563626e+00 4.058531e+00 2.114457e+00 3.617213e+00 1.070549e+00 2.297765e+00 1.388119e+00 6.567746e-01 1.890285e-01 1.410398e-01 4.137006e-01 4.678867e-01 3.449505e-01 8.671040e-01 6.663612e-01 6.871251e-01 5.184880e-01 2.647012e-01 2.753444e-01 2.361613e-01 5.522409e-02
<GCONST> 1.067421e+02
<TRANSP> 5
 0.000000e+00 1.000000e+00 0.000000e+00 0.000000e+00 0.000000e+00
 0.000000e+00 7.593572e-01 2.406428e-01 0.000000e+00 0.000000e+00
 0.000000e+00 0.000000e+00 8.101118e-01 1.898883e-01 0.000000e+00
 0.000000e+00 0.000000e+00 0.000000e+00 8.963802e-01 1.036198e-01
 0.000000e+00 0.000000e+00 0.000000e+00 0.000000e+00 0.000000e+00
<ENDHMM>
~h "T"
<BEGINHMM>
<NUMSTATES> 5
<STATE> 2
<MEAN> 39
 -1.272331e+01 -2.402061e+00 2.040305e+00 2.665581e+00 3.749137e+00 2.112430e-01 6.330976e+00 1.099751e+00 5.808494e+00 1.982121e-01 2.093922e+00 -1.145802e+00 4.473637e+01 -6.834539e-01 -4.149783e-01 8.972020e-02 3.623468e-01 1.721401e-03 2.726707e-01 -3.377756e-01 3.950801e-01 2.038081e-01 8.151852e-02 -2.380072e-02 -2.318865e-01 3.513720e-01 -5.023999e-02 -7.429549e-02 -1.132224e-01 -1.481005e-01 -5.139076e-02 -5.096417e-02 1.927127e-02 1.635410e-01 2.845905e-02 4.687092e-02 6.751979e-02 -2.695809e-02 1.476000e-01
<VARIANCE> 39
 8.935543e+00 5.302006e+00 2.813668e+00 6.376731e+00 5.878197e+00 1.054087e+01 1.454280e+01 2.091238e+01 1.907144e+01 1.127219e+01 1.146426e+01 6.224837e+00 8.697022e+00 6.745158e-01 3.187480e-01 7.437353e-01 7.018701e-01 5.811464e-01 1.036571e+00 7.886519e-01 1.811935e+00 1.165411e+00 1.383618e+00 1.407280e+00 5.532421e-01 5.893428e-01 7.074855e-02 6.968483e-02 9.331051e-02 1.196519e-01 1.469333e-01 2.549109e-01 1.179633e-01 3.465071e-01 2.564621e-01 3.120172e-01 2.408534e-01 1.375212e-01 3.724650e-02
<GCONST> 7.191692e+01
<STATE> 3
<MEAN> 39
 -1.919044e+01 -7.834983e+00 -1.412038e+00 1.835713e+00 7.161481e-02 -1.938060e+00 -4.052419e-01 5.202112e+00 6.739525e+00 2.074188e+00 5.209054e+00 -2.029738e+00 5.417952e+01 -2.886525e-01 -9.682077e-01 -9.157962e-01 -8.598379e-01 -1.030131e+00 -1.266863e+00 -1.323113e+00 -8.759532e-02 5.498547e-01 6.699289e-01 6.936256e-01 -1.270843e-01 1.554647e+00 2.341155e-01 -1.116732e-01 -6.916300e-02 -1.317700e-01 -6.855512e-02 -2.097075e-01 -1.378400e-01 -1.426142e-01 1.183373e-01 6.638743e-02 2.973923e-02 4.356178e-02 -2.836464e-02
<VARIANCE> 39
 1.977604e+00 7.309654e+00 9.613054e+00 1.083125e+01 1.157580e+01 1.478296e+01 1.897594e+01 1.595915e+01 1.612227e+01 1.575684e+01 1.221903e+01 1.102126e+01 1.436191e+01 4.298511e-01 4.804425e-01 5.540572e-01 9.574419e-01 1.185587e+00 1.753722e+00 8.499545e-01 1.278244e+00 1.384783e+00 1.321803e+00 1.259813e+00 1.278895e+00 2.799374e-01 8.834209e-02 5.615056e-02 1.720866e-01 2.602863e-01 1.990833e-01 2.947961e-01 1.477757e-01 2.350949e-01 3.214535e-01 2.354914e-01 3.139140e-01 2.406317e-01 7.787496e-02
<GCONST> 7.904213e+01
<STATE> 4
<MEAN> 39
 -1.668009e+01 -1.429583e+01 -5.461349e+00 -1.367013e+00 -2.901687e+00 -9.445675e+00 -6.866587e+00 3.805057e+00 1.116119e+01 6.512203e+00 7.592846e+00 -2.763387e+00 6.013802e+01 1.744063e+00 1.645558e-01 1.637059e-01 3.692103e-01 4.282897e-01 -4.488247e-01 -5.506397e-01 -5.436725e-01 -1.001706e-02 -1.928501e-01 -3.456958e-01 1.021198e-01 -1.631230e-01 6.052965e-01 3.671889e-01 2.516285e-01 2.146070e-01 2.038803e-01 1.369706e-01 -1.410619e-01 -2.512935e-01 -2.625761e-01 -4.048544e-01 -1.525915e-01 1.354124e-01 -5.780456e-02
<VARIANCE> 39
 1.233250e+01 4.031476e+00 6.027063e+00 1.050840e+01 9.210126e+00 1.189500e+01 1.003813e+01 1.793393e+01 2.462082e+01 1.070279e+01 1.567026e+01 1.540168e+01 8.278547e+00 3.575153e+00 2.022764e+00 1.183220e+00 1.173850e+00 9.435891e-01 1.452211e+00 1.817084e+00 3.416492e+00 3.498861e+00 2.944954e+00 1.605205e+00 1.266575e+00 1.024832e+00 2.356485e-01 1.511289e-01 9.869025e-02 1.913573e-01 2.023818e-01 3.260566e-01 6.274959e-01 5.781358e-01 4.735700e-01 4.542233e-01 2.945001e-01 3.221483e-01 3.480810e-01
<GCONST> 9.432619e+01
<TRANSP> 5
 0.000000e+00 1.000000e+00 0.000000e+00 0.000000e+00 0.000000e+00
 0.000000e+00 8.648705e-01 1.351295e-01 0.000000e+00 0.000000e+00
 0.000000e+00 0.000000e+00 8.366552e-01 1.633448e-01 0.000000e+00
 0.000000e+00 0.000000e+00 0.000000e+00 8.777145e-01 1.222856e-01
 0.000000e+00 0.000000e+00 0.000000e+00 0.000000e+00 0.000000e+00
<ENDHMM>
~h "e"
<BEGINHMM>
<NUMSTATES> 5
<STATE> 2
<MEAN> 39
 -2.497100e+01 3.697124e+00 -5.886441e+00 -4.171690e+00 1.922239e+00 -1.131519e+01 7.247442e+00 1.401016e+00 8.168207e+00 -1.068385e+00 3.822122e+00 1.030205e+00 6.038303e+01 4.594859e+00 -2.137167e+00 1.862686e+00 -9.398697e-01 -1.478434e+00 -2.072367e+00 -2.549453e+00 2.042022e-01 8.932439e-02 7.629445e-01 -9.239334e-01 -5.589325e-01 1.116166e+00 1.180949e+00 -6.042147e-01 6.377410e-01 -2.792064e-01 -2.969982e-01 -2.930494e-02 -8.425896e-01 3.957111e-01 -5.676949e-02 3.477654e-01 -2.779741e-01 -7.784852e-01 5.848249e-01
<VARIANCE> 39
 1.790961e+01 6.948655e+00 1.308741e+01 1.207620e+01 1.014951e+01 2.078111e+01 1.959184e+01 1.569750e+01 1.064221e+01 1.166869e+01 2.383113e+01 1.086110e+01 5.577873e+00 4.229985e+00 9.120711e-01 1.667936e+00 1.190658e+00 7.312093e-01 1.637438e+00 4.015681e+00 1.119768e+00 9.643653e-01 9.702420e-01 2.282919e+00 2.390284e+00 1.305380e+00 3.927125e-01 9.625626e-02 2.382314e-01 2.131114e-01 1.572901e-01 3.426687e-01 4.779128e-01 4.685026e-01 2.338396e-01 1.480848e-01 3.649704e-01 1.658519e-01 1.887403e-01
<GCONST> 9.184917e+01
<STATE> 3
<MEAN> 39
 -4.228478e+00 -6.926511e+00 2.702323e+00 -9.727787e+00 -5.887897e+00 -1.765998e+01 -5.584785e+00 5.819709e+00 8.393256e+00 3.958366e+00 3.889099e-01 -5.643388e+00 6.941174e+01 3.784092e+00 -3.657207e+00 2.312345e+00 -2.403231e+00 -2.061087e+00 -8.483855e-02 -2.223418e+00 3.595434e+00 8.508236e-01 1.127949e+00 -2.191387e-01 -1.637774e+00 2.667861e+00 -1.432811e+00 2.531026e-01 -5.051033e-01 1.633028e-01 2.738922e-01 9.108859e-01 1.135271e+00 5.245097e-01 2.493050e-01 -6.040167e-01 2.824315e-01 3.596125e-01 -4.501858e-01
<VARIANCE> 39
 8.363083e+00 2.335119e+01 1.051093e+01 1.303271e+01 6.207446e+00 4.671910e+00 2.097159e+01 3.165029e+01 1.044372e+01 1.326001e+01 7.604571e+00 9.150305e+00 1.151566e+01 5.386970e+00 5.560827e-01 1.354630e+00 9.029002e-01 7.698504e-01 2.811815e+00 3.493728e+00 1.405599e+00 1.000712e+00 1.598520e+00 1.329477e+00 6.528620e-01 1.011815e+00 1.683070e-01 2.524480e-01 2.041601e-01 2.559523e-01 1.155693e-01 2.127484e-01 3.876642e-01 5.626531e-01 1.410228e-01 2.364231e-01 2.111358e-01 2.208595e-01 2.664602e-01
<GCONST> 8.822861e+01
<STATE> 4
<MEAN> 39
 1.108800e+00 -1.247898e+01 5.430843e+00 -1.059706e+01 -6.030059e+00 -1.121250e+01 -9.546354e+00 1.153715e+01 9.598939e+00 1.895887e+00 3.628467e+00 -8.273565e+00 6.799503e+01 1.652243e-01 8.708329e-02 5.004092e-02 5.666490e-02 3.087448e-01 2.897116e-01 -2.683739e-01 -7.676307e-02 5.892020e-02 -1.167814e-01 -3.208676e-02 -5.057638e-02 -2.343867e-01 -6.066956e-02 1.729705e-01 -4.922978e-02 1.460344e-01 9.828548e-02 -4.305238e-02 4.627809e-02 -2.167500e-01 -4.367527e-02 -4.562700e-02 -3.710130e-02 5.003655e-02 -1.137278e-01
<VARIANCE> 39
 5.509595e+00 1.677077e+01 1.084443e+01 2.231213e+01 1.436582e+01 1.226059e+01 3.777906e+01 5.084141e+01 7.099348e+00 1.491716e+01 2.327452e+01 8.016967e+00 2.235111e+01 4.514297e-01 1.618536e+00 7.496658e-01 2.241660e+00 1.120753e+00 1.130880e+00 2.040790e+00 4.606435e+00 8.337973e-01 1.663345e+00 2.318074e+00 6.045097e-01 1.308026e+00 1.008434e-01 3.040473e-01 1.876858e-01 4.780630e-01 1.999387e-01 2.056318e-01 3.600175e-01 8.021465e-01 1.666813e-01 3.513599e-01 3.982000e-01 1.358860e-01 2.722358e-01
<GCONST> 9.365350e+01
<TRANSP> 5
 0.000000e+00 1.000000e+00 0.000000e+00 0.000000e+00 0.000000e+00
 0.000000e+00 6.901311e-01 3.098689e-01 0.000000e+00 0.000000e+00
 0.000000e+00 0.000000e+00 6.759019e-01 3.240981e-01 0.000000e+00
 0.000000e+00 0.000000e+00 0.000000e+00 9.521958e-01 4.780427e-02
 0.000000e+00 0.000000e+00 0.000000e+00 0.000000e+00 0.000000e+00
<ENDHMM>
~h "f"
<BEGINHMM>
<NUMSTATES> 5
<STATE> 2
<MEAN> 39
 -7.242512e+00 -2.982191e+00 -1.241912e+00 -1.231460e+00 1.606210e+00 -1.105119e+00 3.466688e+00 -2.544265e+00 1.731251e+00 1.363316e-01 4.878203e+00 7.719021e-01 4.788969e+01 1.233914e-01 -6.215279e-01 -1.120798e+00 -1.194868e+00 -6.962267e-02 2.874342e-01 -4.246036e-01 1.139143e-01 -9.205118e-01 -2.188090e-01 6.284987e-01 -2.012094e-01 1.035619e+00 -5.039300e-01 6.239685e-02 1.446519e-01 2.349589e-01 -2.151625e-02 1.464291e-01 -5.467505e-03 2.641416e-01 2.142412e-01 -3.947404e-02 -1.291062e-01 -1.718789e-01 -4.868613e-02
<VARIANCE> 39
 1.988983e+01 1.568613e+01 2.511917e+01 2.741642e+01 1.363543e+01 1.810986e+01 1.726943e+01 2.167523e+01 2.913117e+01 9.099497e+00 1.443955e+01 1.358536e+01 1.567432e+01 2.227087e+00 1.759762e+00 2.298555e+00 2.147067e+00 8.038023e-01 1.346505e+00 1.044082e+00 1.884601e+00 2.546739e+00 1.168142e+00 1.173890e+00 1.651465e+00 1.167127e+00 5.232181e-01 2.517482e-01 6.292035e-01 9.200286e-01 2.218690e-01 3.629760e-01 3.216956e-01 3.635192e-01 7.594876e-01 2.333570e-01 4.081439e-01 3.579048e-01 2.835313e-01
<GCONST> 1.024720e+02
<STATE> 3
<MEAN> 39
 -1.132018e+01 -2.948832e+00 -1.652292e+00 1.679646e-01 1.388793e+00 1.778280e+00 3.372828e+00 5.952814e-01 2.499522e+00 -1.290032e+00 2.575323e+00 -2.078501e+00 4.829592e+01 -1.362297e+00 -1.736694e-01 1.476992e-01 7.427436e-01 1.585316e-01 1.693248e-01 -3.142468e-01 6.545708e-01 7.302139e-01 -2.564248e-02 -2.389733e-01 -1.295220e-01 1.729541e-01 -1.128392e-01 -1.700509e-01 5.192954e-02 1.110099e-01 4.658315e-02 -2.368608e-01 -3.480107e-02 1.322900e-01 1.804836e-01 1.184519e-01 1.561984e-01 6.814440e-02 1.302269e-01
<VARIANCE> 39
 1.359543e+01 9.711456e+00 5.193120e+00 1.380036e+01 8.303257e+00 8.177291e+00 1.633997e+01 1.088281e+01 1.622231e+01 1.181761e+01 1.264292e+01 1.354955e+01 6.112825e+00 1.263970e+00 8.706768e-01 9.104961e-01 1.957523e+00 1.136162e+00 1.648166e+00 8.517250e-01 1.221538e+00 1.173498e+00 1.151275e+00 1.574794e+00 1.521853e+00 7.566390e-01 1.747018e-01 1.325123e-01 1.321823e-01 2.872445e-01 1.781688e-01 2.670767e-01 1.647351e-01 2.112215e-01 3.743135e-01 3.187865e-01 3.403078e-01 2.986484e-01 8.703909e-02
<GCONST> 8.438363e+01
<STATE> 4
<MEAN> 39
 -1.908747e+01 -6.920671e+00 -3.040794e+00 8.919148e-01 1.134399e+00 -1.160755e-01 1.408737e-01 3.809976e+00 5.748295e+00 3.094404e-01 5.739728e+00 -6.760672e-01 5.415076e+01 -4.801246e-01 -2.601395e-01 -2.775769e-01 -3.159476e-01 -3.034181e-01 -1.720901e-01 -2.466475e-01 4.987460e-02 1.512210e-01 1.846198e-01 3.011794e-01 1.034821e-01 6.374511e-01 2.141023e-01 6.883650e-02 -4.523765e-02 -1.738408e-01 -7.825816e-02 -8.411811e-03 5.947559e-02 -8.798277e-02 -6.228579e-02 -2.397449e-02 -4.248567e-02 -1.815282e-03 -1.118052e-02
<VARIANCE> 39
 6.973381e+00 4.114088e+00 1.242496e+01 1.040875e+01 1.096435e+01 1.142997e+01 1.443890e+01 1.433820e+01 1.455090e+01 1.241489e+01 1.478493e+01 1.066606e+01 7.470449e+00 5.837177e-01 4.727349e-01 6.962140e-01 1.350402e+00 1.089507e+00 1.219080e+00 1.435793e+00 1.950843e+00 1.856109e+00 1.283093e+00 1.361737e+00 1.053074e+00 2.759779e-01 1.283508e-01 6.734061e-02 1.301632e-01 2.190399e-01 2.094971e-01 2.469199e-01 3.184306e-01 3.794104e-01 3.877407e-01 2.208893e-01 2.578735e-01 1.920973e-01 3.923629e-02
<GCONST> 8.014896e+01
<TRANSP> 5
 0.000000e+00 1.000000e+00 0.000000e+00 0.000000e+00 0.000000e+00
 0.000000e+00 5.592281e-01 4.407720e-01 0.000000e+00 0.000000e+00
 0.000000e+00 0.000000e+00 7.287342e-01 2.712658e-01 0.000000e+00
 0.000000e+00 0.000000e+00 0.000000e+00 9.051058e-01 9.489424e-02
 0.000000e+00 0.000000e+00 0.000000e+00 0.000000e+00 0.000000e+00
<ENDHMM>
~h "i"
<BEGINHMM>
<NUMSTATES> 5
<STATE> 2
<MEAN> 39
 -2.249731e+00 -9.424452e+00 3.175232e+01 -1.046659e+01 -1.837484e+01 -6.806636e+00 -1.241012e+01 -1.635947e+00 -5.554921e+00 -5.230194e+00 1.246034e+01 -4.316137e+00 6.531801e+01 -4.803808e-01 9.233793e-01 6.083655e-01 -8.949467e-01 3.611875e-01 7.571139e-01 -4.396198e-01 -6.505873e-02 1.843076e-01 -1.210963e-01 -2.095089e-01 -5.338991e-01 -2.959918e-01 9.123810e-02 -7.628516e-03 -3.059762e-01 2.114256e-01 8.298842e-02 -1.667742e-01 5.904508e-02 1.505085e-01 5.669593e-02 -5.213397e-02 9.213034e-02 6.917099e-02 -7.419792e-02
<VARIANCE> 39
 6.341980e+00 1.348782e+01 1.324399e+01 2.044195e+01 6.250818e+00 8.926468e+00 1.302914e+01 9.072618e+00 2.210778e+01 1.421524e+01 1.269650e+01 3.365641e+01 4.246294e+00 2.053286e-01 1.917364e-01 1.402687e+00 6.488347e-01 4.432411e-01 8.916997e-01 1.253368e+00 7.050185e-01 8.135951e-01 1.080122e+00 8.876052e-01 5.240272e-01 2.216684e-01 2.772927e-02 2.975770e-02 1.135921e-01 7.593083e-02 1.291929e-01 8.904451e-02 2.896088e-01 1.454933e-01 2.216647e-01 2.950990e-01 1.728448e-01 9.052160e-02 1.599389e-02
<GCONST> 6.648811e+01
<STATE> 3
<MEAN> 39
 -2.768810e+00 -1.606336e+00 2.904141e+01 -1.018367e+01 -1.531741e+01 -3.857867e+00 -1.105870e+01 -1.613854e+00 -3.397068e+00 -5.150167e+00 1.260365e+01 -6.263460e+00 6.056435e+01 4.186971e-02 8.806341e-01 -1.166971e+00 4.591504e-01 6.607441e-01 1.205332e-02 5.761038e-01 -4.778261e-01 -1.992693e-01 8.230768e-02 -4.751488e-01 -1.123606e-01 -8.239611e-01 4.926044e-02 -2.339512e-02 -2.332441e-01 2.098873e-01 1.131533e-01 -4.877591e-02 1.416939e-01 -1.386880e-01 4.402002e-02 -1.638976e-03 -1.936086e-01 9.023079e-02 -5.293887e-02
<VARIANCE> 39
 1.428691e+00 9.494078e+00 1.617082e+01 1.358981e+01 1.092669e+01 1.305178e+01 1.141175e+01 2.257513e+01 1.683400e+01 1.489591e+01 1.395855e+01 1.678053e+01 7.657249e+00 1.245070e-01 3.406425e-01 8.080740e-01 6.180117e-01 9.644396e-01 1.245541e+00 1.617017e+00 1.094139e+00 6.271096e-01 1.201519e+00 1.081909e+00 4.569042e-01 2.775950e-01 1.874507e-02 5.895500e-02 1.057827e-01 1.346588e-01 1.331584e-01 3.535135e-01 3.277871e-01 2.187129e-01 1.467606e-01 3.194339e-01 1.349335e-01 7.781480e-02 2.222287e-02
<GCONST> 6.966150e+01
<STATE> 4
<MEAN> 39
 -4.650201e+00 1.398049e+00 1.227171e+01 7.675945e-01 -3.435791e+00 -3.525815e+00 -2.425255e+00 -5.718368e+00 -5.176787e-01 -5.211849e+00 2.079578e+00 -4.212096e+00 5.029521e+01 -3.972096e-01 -1.725242e-02 -1.146790e+00 1.004151e+00 1.109947e+00 2.017836e-01 7.661946e-01 -5.605477e-03 5.418792e-01 1.009436e-01 -7.712941e-01 1.961417e-01 -7.997722e-01 -7.135212e-02 -6.358717e-02 1.130526e-01 -9.484103e-02 -3.436969e-02 2.629898e-02 -5.361530e-02 1.166070e-01 1.005273e-02 9.709981e-03 8.919814e-02 -5.589522e-03 7.179538e-02
<VARIANCE> 39
 7.026412e+00 1.531606e+01 3.241354e+01 2.786113e+01 4.238845e+01 1.579647e+01 2.395916e+01 1.851072e+01 2.375287e+01 1.802839e+01 1.950476e+01 1.715829e+01 1.505012e+01 2.677206e-01 7.955748e-01 1.517159e+00 1.530796e+00 1.790368e+00 1.709779e+00 1.530696e+00 1.570650e+00 1.824176e+00 1.382252e+00 1.058789e+00 1.230753e+00 3.695046e-01 5.242624e-02 1.257536e-01 2.310320e-01 2.784998e-01 4.022036e-01 4.170441e-01 3.306470e-01 2.886860e-01 3.622440e-01 2.488789e-01 1.879988e-01 2.301971e-01 5.448835e-02
<GCONST> 9.147735e+01
<TRANSP> 5
 0.000000e+00 1.000000e+00 0.000000e+00 0.000000e+00 0.000000e+00
 0.000000e+00 8.898520e-01 1.101480e-01 0.000000e+00 0.000000e+00
 0.000000e+00 0.000000e+00 8.617363e-01 1.382637e-01 0.000000e+00
 0.000000e+00 0.000000e+00 0.000000e+00 9.248841e-01 7.511585e-02
 0.000000e+00 0.000000e+00 0.000000e+00 0.000000e+00 0.000000e+00
<ENDHMM>
~h "k"
<BEGINHMM>
<NUMSTATES> 5
<STATE> 2
<MEAN> 39
 -6.002079e+00 -7.000166e+00 8.335908e+00 -2.454756e+00 -9.475347e+00 -1.275013e+01 1.516649e+00 5.681337e-01 -3.425601e+00 -2.652848e+00 7.559994e+00 -5.293527e+00 5.779508e+01 -7.525892e-01 3.880084e-01 -2.137204e+00 8.369060e-01 1.679851e+00 -2.098529e-01 6.748295e-01 -1.560212e-01 9.339195e-01 1.069963e-01 -1.084970e+00 8.704829e-01 -4.726443e-01 -3.943269e-01 9.985549e-02 -1.409040e-01 -1.243585e-01 -4.999325e-02 -1.823896e-01 -1.359002e-02 9.829635e-02 2.015250e-01 -9.143445e-02 6.152492e-02 2.373238e-01 3.694513e-01
<VARIANCE> 39
 9.764949e+00 3.032899e+01 8.464954e+01 3.402806e+01 4.942937e+01 2.237649e+01 2.250042e+01 2.267849e+01 2.838082e+01 2.089224e+01 2.994646e+01 3.300603e+01 3.176133e+01 1.907924e+00 1.444490e+00 4.008564e+00 2.454556e+00 1.105823e+00 3.152167e+00 2.464037e+00 2.277586e+00 2.460420e+00 1.142905e+00 1.821190e+00 2.615785e+00 4.172143e+00 2.625740e-01 4.126244e-01 8.397208e-01 3.881737e-01 2.792479e-01 5.049730e-01 6.178553e-01 3.054446e-01 5.261286e-01 3.111086e-01 3.955727e-01 5.998664e-01 3.857309e-01
<GCONST> 1.144432e+02
<STATE> 3
<MEAN> 39
 -2.108562e+01 6.020955e-02 -8.793775e+00 5.589060e-03 -7.250382e-01 -1.663708e+01 8.824994e+00 1.811150e+00 2.798391e+00 -6.418045e+00 1.604238e+00 5.609728e-01 6.256518e+01 -3.118145e+00 2.532238e+00 -9.382650e-01 2.979850e-01 6.130318e-01 3.312576e-01 1.807874e+00 2.187576e-01 4.925790e-01 -1.036633e+00 -2.896764e-01 -1.295994e-01 2.218334e-02 6.332564e-01 -1.215751e-01 6.231802e-01 -1.601113e-01 -4.059931e-02 6.370913e-01 -2.921583e-01 -1.281106e-01 -2.889766e-01 2.179557e-01 9.153263e-02 -1.977665e-01 -4.616461e-01
<VARIANCE> 39
 3.308475e+01 2.877574e+01 5.148983e+01 1.118988e+01 2.322907e+01 3.918629e+01 2.045025e+01 2.198542e+01 1.840688e+01 2.530766e+01 1.195195e+01 8.453839e+00 9.139352e+00 2.349175e+00 2.289744e+00 3.008474e+00 8.040152e-01 1.928318e+00 2.016381e+00 1.443499e+00 2.198987e+00 2.207578e+00 1.435998e+00 9.098364e-01 7.438129e-01 9.116079e-01 4.427250e-01 8.106809e-01 5.310570e-01 2.093643e-01 3.347849e-01 3.572553e-01 4.617054e-01 7.076908e-01 2.801247e-01 3.998919e-01 2.730461e-01 1.448316e-01 1.875622e-01
<GCONST> 1.029794e+02
<STATE> 4
<MEAN> 39
 -2.550061e+01 4.708655e+00 -8.208555e+00 -4.615104e+00 6.550300e+00 -1.129013e+01 1.049469e+01 2.996911e+00 5.134254e+00 -2.416062e+00 1.940302e+00 -5.503972e-01 5.746816e+01 5.075898e-01 -2.222702e-01 2.708752e-01 -3.143986e-01 4.139938e-01 2.062827e-01 -2.611753e-01 -6.109401e-02 2.368444e-02 3.453453e-01 -1.094891e-01 -6.990644e-02 -5.619683e-01 1.438566e-01 -1.100858e-01 4.051849e-02 7.842869e-02 -1.086048e-01 9.233621e-03 -4.727152e-02 -4.139181e-02 8.904022e-04 -3.939406e-02 -1.569760e-02 -1.132749e-02 -3.440562e-02
<VARIANCE> 39
 1.303429e+01 9.611487e+00 4.588471e+01 2.549217e+01 2.830251e+01 2.324390e+01 1.850558e+01 1.340558e+01 1.582436e+01 2.592901e+01 1.481533e+01 1.446041e+01 2.224057e+01 1.034683e+00 6.360254e-01 7.463602e-01 9.602295e-01 1.278262e+00 1.598086e+00 1.621999e+00 1.575553e+00 1.688582e+00 1.528234e+00 1.331485e+00 1.724018e+00 3.754972e-01 9.394064e-02 1.026992e-01 1.441557e-01 1.848698e-01 2.430662e-01 3.003449e-01 3.535855e-01 3.002338e-01 3.368728e-01 3.263966e-01 2.263012e-01 3.860395e-01 5.441903e-02
<GCONST> 9.107887e+01
<TRANSP> 5
 0.000000e+00 1.000000e+00 0.000000e+00 0.000000e+00 0.000000e+00
 0.000000e+00 8.939567e-01 1.060433e-01 0.000000e+00 0.000000e+00
 0.000000e+00 0.000000e+00 7.713671e-01 2.286329e-01 0.000000e+00
 0.000000e+00 0.000000e+00 0.000000e+00 9.479688e-01 5.203126e-02
 0.000000e+00 0.000000e+00 0.000000e+00 0.000000e+00 0.000000e+00
<ENDHMM>
~h "n"
<BEGINHMM>
<NUMSTATES> 5
<STATE> 2
<MEAN> 39
 -2.014971e+00 -1.861691e+00 5.033866e+00 -5.318844e-01 2.258242e+00 -5.011909e+00 -1.944697e+00 -1.433915e+00 2.569719e+00 -4.458075e+00 -3.380064e+00 -6.334551e+00 5.360736e+01 -6.687713e-01 2.890345e-01 -3.450198e-01 7.551972e-01 4.758739e-01 3.514698e-01 7.295196e-01 -4.689236e-01 -7.473799e-03 -9.456791e-03 -2.610826e-01 4.140469e-02 -8.442789e-01 -5.968676e-02 -1.395752e-01 7.474746e-02 -1.143642e-01 2.153095e-03 1.189894e-01 -6.699896e-03 1.931503e-01 -1.733321e-02 6.678944e-02 1.313908e-01 -1.193597e-02 6.616584e-02
<VARIANCE> 39
 1.570499e+01 1.948260e+01 2.142378e+01 2.895588e+01 4.204990e+01 2.083372e+01 2.862843e+01 3.557375e+01 2.537024e+01 1.934438e+01 2.460603e+01 1.572823e+01 3.423405e+01 5.146831e-01 1.331781e+00 1.151275e+00 3.443793e+00 2.512441e+00 1.715248e+00 3.061326e+00 3.515127e+00 1.932101e+00 1.821247e+00 1.364494e+00 1.169332e+00 7.788547e-01 8.446206e-02 2.231020e-01 1.818053e-01 6.600837e-01 4.516381e-01 2.959175e-01 5.653372e-01 6.364833e-01 4.341231e-01 4.054715e-01 2.630437e-01 2.617460e-01 1.287584e-01
<GCONST> 1.039427e+02
<STATE> 3
<MEAN> 39
 -7.469710e+00 4.807203e-01 5.184434e+00 4.532330e+00 5.328853e+00 6.543869e-01 4.510324e+00 -2.334965e+00 3.037562e+00 -3.354317e+00 -2.014457e+00 -5.128027e+00 4.545055e+01 -5.020550e-01 -2.594698e-01 -7.753441e-02 -1.628923e-02 -4.426929e-02 3.651759e-01 3.994486e-01 2.937289e-01 2.616568e-01 3.158371e-01 4.441847e-01 2.194383e-01 -3.377955e-01 4.686642e-02 -6.537046e-02 -7.414672e-02 -1.320017e-01 1.859050e-02 -7.275128e-02 -1.262690e-01 4.286524e-02 4.387043e-02 1.938478e-02 7.001929e-03 3.582683e-02 1.064084e-01
<VARIANCE> 39
 6.912000e+00 5.443027e+00 8.392577e+00 1.123788e+01 1.213606e+01 1.455007e+01 1.773429e+01 2.107857e+01 1.724648e+01 1.539958e+01 1.805788e+01 1.114867e+01 6.778388e+00 2.788295e-01 4.051927e-01 5.571463e-01 9.689296e-01 9.574838e-01 1.243730e+00 1.595060e+00 1.226499e+00 1.485778e+00 1.460061e+00 1.551907e+00 9.964677e-01 1.956688e-01 5.516968e-02 7.625689e-02 1.123141e-01 2.044718e-01 1.796579e-01 2.506770e-01 3.123745e-01 3.220945e-01 3.068918e-01 2.999491e-01 3.243539e-01 1.856126e-01 3.544875e-02
<GCONST> 7.820071e+01
<STATE> 4
<MEAN> 39
 -9.149524e+00 -4.537980e+00 -3.919521e-01 -1.323551e+00 3.131746e+00 8.744353e-01 4.672262e+00 -1.933250e+00 5.102099e+00 -1.664198e-01 2.972322e-01 -2.115439e+00 4.841125e+01 2.065994e-01 -3.131350e-01 -7.983629e-02 -5.231208e-02 -3.051797e-01 -3.517893e-01 -4.388373e-01 -1.316670e-01 2.156529e-01 5.452149e-02 -6.667714e-02 1.927096e-01 5.644801e-01 1.591161e-01 1.387788e-01 1.809249e-01 1.344544e-01 -1.475736e-01 -2.696407e-01 -9.221060e-02 7.268768e-03 -4.701472e-02 -4.868950e-02 -9.909657e-02 -1.057383e-01 1.196627e-01
<VARIANCE> 39
 1.532519e+01 2.626073e+01 3.580779e+01 3.925129e+01 3.670082e+01 2.800515e+01 2.530186e+01 1.813822e+01 2.615709e+01 1.674307e+01 2.083205e+01 2.082033e+01 2.346310e+01 2.248293e+00 1.656935e+00 3.316121e+00 2.604641e+00 2.242521e+00 2.945230e+00 3.321840e+00 1.910650e+00 2.838435e+00 1.474841e+00 2.262292e+00 2.336670e+00 2.258005e+00 3.233652e-01 3.179753e-01 5.807215e-01 3.799522e-01 3.819541e-01 4.533792e-01 6.304394e-01 2.827976e-01 5.529904e-01 2.842039e-01 3.185608e-01 4.665641e-01 3.822857e-01
<GCONST> 1.124332e+02
<TRANSP> 5
 0.000000e+00 1.000000e+00 0.000000e+00 0.000000e+00 0.000000e+00
 0.000000e+00 8.199885e-01 1.800114e-01 0.000000e+00 0.000000e+00
 0.000000e+00 0.000000e+00 8.822680e-01 1.177320e-01 0.000000e+00
 0.000000e+00 0.000000e+00 0.000000e+00 7.808103e-01 2.191897e-01
 0.000000e+00 0.000000e+00 0.000000e+00 0.000000e+00 0.000000e+00
<ENDHMM>
~h "o"
<BEGINHMM>
<NUMSTATES> 5
<STATE> 2
<MEAN> 39
 8.093549e+00 -1.049547e+01 -6.385102e+00 4.070706e-01 -5.246433e+00 -9.937037e+00 -2.115253e+01 -1.803183e+00 1.177520e+01 1.494504e+00 7.429189e+00 3.600830e+00 6.507179e+01 -2.737285e-01 -5.099806e-01 -1.709587e-02 -4.311893e-01 -8.635293e-01 -3.362994e-01 -1.952168e-01 1.846371e+00 1.160643e+00 6.417885e-01 3.470245e-01 -5.828503e-01 4.563045e-01 -9.280247e-02 -2.517272e-02 2.848336e-01 -1.622311e-01 -6.242692e-02 6.183719e-02 1.969595e-01 1.523162e-01 -3.987053e-01 -6.111774e-02 2.883836e-01 -1.924109e-01 -6.619620e-03
<VARIANCE> 39
 3.913454e+00 1.246169e+01 9.107201e+00 6.033990e+00 1.734347e+01 2.338553e+01 2.301841e+01 5.721080e+01 2.682516e+01 1.354503e+01 1.411400e+01 1.488377e+01 1.187844e+01 2.140441e-01 4.738479e-01 1.384836e+00 7.880741e-01 1.013557e+00 9.638202e-01 1.072522e+00 1.449121e+00 3.692485e+00 6.792041e-01 2.121882e+00 1.165767e+00 1.206739e-01 2.603174e-02 1.156926e-01 1.484888e-01 1.195940e-01 2.565524e-01 1.664001e-01 1.545617e-01 3.652516e-01 3.992220e-01 1.278705e-01 2.047165e-01 1.044892e-01 1.832586e-02
<GCONST> 7.772021e+01
<STATE> 3
<MEAN> 39
 6.280972e+00 -8.638616e+00 -3.062243e+00 -1.057009e+01 -6.311927e+00 -6.792742e+00 -1.612850e+01 4.207678e+00 -2.067356e-01 2.831862e+00 1.811864e+01 -1.315679e+00 6.507734e+01 4.003263e-02 8.540618e-01 5.478420e-02 -7.657424e-01 3.624727e-01 4.227102e-01 7.465473e-01 -6.969295e-01 -1.502943e+00 -3.794540e-01 4.477481e-01 1.411762e-01 -5.713325e-01 1.053737e-02 9.259615e-02 -4.767684e-02 1.322077e-01 5.435760e-02 -4.538210e-04 5.178854e-02 -1.632001e-01 7.572407e-02 -4.413686e-02 -1.889058e-01 1.171999e-01 -8.303212e-02
<VARIANCE> 39
 4.705112e+00 2.676584e+01 7.462128e+00 2.812167e+01 1.240790e+01 2.238372e+01 2.874365e+01 4.441961e+01 1.038004e+02 3.493697e+01 2.700832e+01 2.428029e+01 2.200518e+01 1.865118e-01 5.938907e-01 4.149972e-01 6.297008e-01 8.282562e-01 9.713861e-01 1.264686e+00 1.490383e+00 1.248356e+00 1.990059e+00 1.573322e+00 1.119400e+00 1.995382e-01 3.459464e-02 7.657572e-02 6.843658e-02 8.581757e-02 1.776206e-01 1.760788e-01 2.319119e-01 2.595840e-01 2.180503e-01 2.803215e-01 2.337380e-01 1.712892e-01 1.868496e-02
<GCONST> 8.181078e+01
<STATE> 4
<MEAN> 39
 5.223961e-01 2.360126e+00 -7.912009e-01 -5.781655e+00 -1.633104e+00 -3.840274e+00 -2.915441e+00 -7.206799e+00 -4.674189e+00 -2.016173e+00 9.335794e+00 1.297771e+00 5.186090e+01 -9.844277e-01 8.737552e-02 4.771347e-01 1.075667e+00 3.840355e-01 6.666663e-02 7.141111e-01 -1.922913e-01 7.060009e-01 1.006962e-01 -1.077950e+00 -1.200978e-01 -8.802042e-01 -4.874319e-02 -1.353411e-01 2.628898e-02 -4.277507e-03 6.539323e-03 -1.856104e-02 -9.533275e-02 1.671212e-01 7.300454e-02 2.117662e-02 4.536393e-02 -6.702490e-02 6.409108e-02
<VARIANCE> 39
 2.442060e+01 9.475839e+00 1.515962e+01 3.776687e+01 1.253904e+01 1.336432e+01 3.111205e+01 2.511704e+01 4.620412e+01 2.261058e+01 3.610761e+01 1.751414e+01 2.255490e+01 3.675763e-01 8.555005e-01 8.439431e-01 1.228859e+00 1.165595e+00 1.529492e+00 2.119398e+00 2.500153e+00 1.514884e+00 1.661769e+00 1.994997e+00 1.659998e+00 2.259281e-01 6.788871e-02 1.260976e-01 1.580974e-01 3.057289e-01 2.441727e-01 3.023647e-01 3.761424e-01 4.501539e-01 2.936802e-01 3.395781e-01 3.615733e-01 3.541971e-01 4.330609e-02
<GCONST> 9.385715e+01
<TRANSP> 5
 0.000000e+00 1.000000e+00 0.000000e+00 0.000000e+00 0.000000e+00
 0.000000e+00 8.766373e-01 1.233627e-01 0.000000e+00 0.000000e+00
 0.000000e+00 0.000000e+00 9.303962e-01 6.960385e-02 0.000000e+00
 0.000000e+00 0.000000e+00 0.000000e+00 9.211984e-01 7.880160e-02
 0.000000e+00 0.000000e+00 0.000000e+00 0.000000e+00 0.000000e+00
<ENDHMM>
~h "r"
<BEGINHMM>
<NUMSTATES> 5
<STATE> 2
<MEAN> 39
 4.732761e+00 -1.031188e+01 3.977242e+00 2.167234e+00 -4.395300e+00 -1.241883e+01 -1.525525e+01 -8.991033e-01 7.212035e+00 -4.212976e+00 7.121686e+00 1.338770e+00 6.244682e+01 1.551020e+00 4.941780e-02 -1.027114e+00 3.554422e-01 6.823975e-01 7.662053e-01 -9.947729e-01 -1.692721e+00 5.086254e-01 2.656612e-01 -2.831507e-01 3.614713e-01 -1.493969e-01 -5.819075e-01 3.912344e-03 4.774691e-01 -3.890995e-01 -4.373008e-01 2.841618e-01 5.832653e-01 1.047819e-01 -6.700612e-01 1.483991e-01 4.505394e-01 -9.459135e-02 -1.976613e-02
<VARIANCE> 39
 2.148840e+01 2.732516e+01 3.716524e+01 9.836592e+00 3.536238e+01 3.189631e+01 5.955260e+01 3.096438e+01 2.112250e+01 1.527722e+01 1.544889e+01 1.291442e+01 2.993819e+01 3.708682e+00 1.915310e+00 8.195936e+00 7.070947e-01 5.838806e+00 4.254491e+00 3.047627e+00 8.161211e+00 2.605508e+00 5.290491e+00 2.226497e+00 1.628182e+00 1.339817e+00 3.673469e-01 4.668346e-01 2.787385e-01 2.146656e-01 2.946341e-01 4.620921e-01 4.086410e-01 1.083726e+00 8.725770e-01 4.209429e-01 3.359396e-01 2.775818e-01 5.885803e-02
<GCONST> 1.137268e+02
<STATE> 3
<MEAN> 39
 4.552645e+00 -1.179952e+01 8.168219e+00 1.741093e+00 -9.147402e+00 -1.130235e+01 -1.180352e+01 7.993876e-01 4.011950e+00 -5.580617e+00 1.046458e+01 2.262497e+00 6.223240e+01 -4.713964e-01 2.488686e-01 1.202616e+00 -6.444020e-01 -1.036552e+00 1.055707e+00 1.537065e+00 -9.695917e-01 -2.417125e+00 6.941036e-01 1.158442e+00 -6.194783e-02 -2.107660e-01 -1.577532e-01 2.926163e-01 5.606048e-02 -2.839664e-01 8.768669e-02 9.536359e-02 1.069188e-01 -2.112655e-01 -2.384008e-01 2.232547e-01 -1.587772e-01 -8.442140e-02 -7.744367e-03
<VARIANCE> 39
 1.815173e+01 4.075491e+01 7.121284e+01 1.248078e+01 5.477876e+01 5.423606e+01 9.584762e+01 4.487712e+01 3.638196e+01 3.194587e+01 2.570046e+01 1.589226e+01 3.948525e+01 1.061828e+00 1.367361e+00 1.020482e+01 1.322445e+00 6.481904e+00 2.523140e+00 2.061712e+00 4.449724e+00 1.947649e+00 2.617668e+00 2.139856e+00 1.359130e+00 5.861146e-01 8.841091e-02 1.677960e-01 3.036746e-01 1.457976e-01 4.584096e-01 5.893983e-01 5.367893e-01 1.255264e+00 5.631396e-01 9.138093e-01 4.178479e-01 3.501603e-01 5.514737e-02
<GCONST> 1.138158e+02
<STATE> 4
<MEAN> 39
 5.874580e+00 -8.404360e+00 1.902967e+00 4.188006e-01 -4.782439e+00 -6.717915e+00 -1.299576e+01 -6.095434e+00 -5.873817e-01 -3.200860e+00 1.030970e+01 2.959919e+00 6.164611e+01 1.861986e-01 7.263128e-01 -1.219407e+00 -3.136958e-01 5.727034e-01 4.988995e-01 -2.152645e-01 -7.543855e-01 -1.549884e-02 2.221367e-01 -4.547781e-01 5.547022e-01 -2.307189e-01 -6.483629e-02 -2.062122e-01 1.133755e-01 -1.256014e-02 -1.445960e-01 -4.509969e-01 -4.421555e-01 5.511445e-01 8.498712e-01 -2.676060e-02 -3.416632e-01 -8.995893e-02 1.999047e-01
<VARIANCE> 39
 1.837564e+01 2.147645e+01 7.575243e+01 7.132867e+00 4.723225e+01 3.302663e+01 8.286973e+01 2.196548e+01 2.998633e+01 1.689768e+01 1.690514e+01 9.836470e+00 2.893197e+01 4.119659e-01 4.713506e-01 2.882757e+00 7.442021e-01 8.025725e-01 1.171363e+00 1.419863e+00 1.312695e+00 2.434282e+00 1.848609e+00 9.530488e-01 1.447655e+00 1.956019e-01 3.663879e-02 1.158713e-01 2.168399e-01 7.934263e-02 3.372944e-01 2.648551e-01 2.663668e-01 3.319564e-01 2.617777e-01 4.362140e-01 1.963773e-01 2.213723e-01 3.667230e-02
<GCONST> 9.041580e+01
<TRANSP> 5
 0.000000e+00 1.000000e+00 0.000000e+00 0.000000e+00 0.000000e+00
 0.000000e+00 6.317806e-01 3.682194e-01 0.000000e+00 0.000000e+00
 0.000000e+00 0.000000e+00 3.677814e-01 6.322185e-01 0.000000e+00
 0.000000e+00 0.000000e+00 0.000000e+00 6.036491e-01 3.963510e-01
 0.000000e+00 0.000000e+00 0.000000e+00 0.000000e+00 0.000000e+00
<ENDHMM>
~h "s"
<BEGINHMM>
<NUMSTATES> 5
<STATE> 2
<MEAN> 39
 -1.093448e+01 -4.524425e+00 -6.383668e-01 -2.375257e+00 4.015467e+00 -2.205431e+00 4.750261e+00 -1.839655e+00 2.581184e+00 -1.904643e+00 4.161330e-01 -8.482364e-01 4.842906e+01 -2.475452e-01 -7.773680e-02 -5.692419e-02 -3.611791e-01 3.842238e-01 -2.212867e-01 9.258566e-02 1.190799e-01 -3.745020e-01 -1.220877e-01 -3.303887e-01 -7.971205e-02 2.806515e-01 -3.410005e-01 2.817579e-01 -1.162959e-01 -1.011052e-01 1.661931e-01 -2.641887e-01 1.821604e-01 2.696748e-02 1.111522e-01 1.061333e-01 1.225407e-01 1.474024e-02 1.615336e-01
<VARIANCE> 39
 1.234119e+01 2.083324e+01 2.841261e+01 1.640042e+01 1.626793e+01 3.759753e+01 3.000787e+01 1.316566e+01 1.910966e+01 1.679616e+01 1.708421e+01 1.096407e+01 1.001092e+01 1.960946e+00 1.612038e+00 1.585070e+00 1.839999e+00 2.488760e+00 4.331470e+00 2.303769e+00 2.611035e+00 2.157383e+00 2.249666e+00 1.287907e+00 1.568706e+00 1.217803e+00 2.002013e-01 2.807756e-01 2.492440e-01 1.940476e-01 3.395349e-01 4.604633e-01 2.862726e-01 3.361675e-01 4.904442e-01 3.297221e-01 2.588558e-01 2.721328e-01 1.320087e-01
<GCONST> 1.013431e+02
<STATE> 3
<MEAN> 39
 -1.661175e+01 4.257133e+00 -1.569398e+00 -4.228479e+00 1.019147e+01 -1.112118e+01 3.721892e+00 -8.856017e-01 2.455352e+00 6.389300e-01 5.291054e-01 -2.843411e+00 5.269559e+01 -3.373193e+00 2.152400e+00 -1.316382e+00 -4.240029e-02 8.121230e-01 -9.402362e-01 1.238925e+00 -3.477692e-01 9.283698e-01 -7.895697e-01 1.708872e-01 3.711148e-01 1.468840e+00 -1.718737e-01 1.978760e-02 -5.682626e-02 3.826952e-01 -5.033546e-01 7.091343e-01 1.869611e-01 3.583019e-02 1.216491e-01 -3.076715e-01 1.286132e-01 1.732741e-01 -9.356726e-02
<VARIANCE> 39
 5.155500e+01 3.278002e+01 4.141573e+01 2.334783e+01 3.397119e+01 2.977319e+01 7.082925e+01 3.558165e+01 4.219791e+01 4.634253e+01 1.776942e+01 2.109178e+01 1.530169e+01 3.389905e+00 2.162917e+00 1.486117e+00 2.774848e+00 2.539603e+00 5.407140e+00 3.077818e+00 2.590616e+00 2.247353e+00 4.608483e+00 2.148642e+00 1.438529e+00 1.151761e+00 9.539085e-01 6.792223e-01 2.454654e-01 3.860639e-01 4.038167e-01 6.032609e-01 8.843837e-01 7.149039e-01 4.889542e-01 1.062279e+00 3.033026e-01 4.053078e-01 1.382247e-01
<GCONST> 1.192890e+02
<STATE> 4
<MEAN> 39
 -2.909267e+01 8.796906e+00 -6.877809e+00 -1.317110e+00 6.624868e+00 -7.836176e+00 8.612040e+00 1.190159e-01 5.257094e+00 -2.828482e+00 2.786402e+00 -1.503386e+00 5.758945e+01 -2.384979e-01 -2.441154e-01 -2.216575e-01 -8.773254e-02 -6.954195e-01 1.006839e-01 3.513276e-02 7.185674e-02 1.197602e-01 1.379433e-01 2.948480e-01 7.150013e-02 3.971567e-01 4.234545e-01 -2.138378e-01 2.122826e-01 -1.156585e-01 -8.271513e-02 -1.773228e-01 -1.725400e-01 -1.313352e-02 -4.077358e-02 1.087866e-01 -1.324871e-02 2.868229e-02 -7.337015e-03
<VARIANCE> 39
 1.115025e+01 1.287936e+01 1.605252e+01 2.150890e+01 1.741282e+01 1.641522e+01 1.457518e+01 1.206801e+01 1.876153e+01 1.252969e+01 1.267848e+01 1.105400e+01 7.683937e+00 1.044051e+00 8.404512e-01 8.459404e-01 1.388436e+00 1.296317e+00 1.260253e+00 1.688544e+00 1.157442e+00 1.388243e+00 1.235558e+00 1.105544e+00 1.533197e+00 3.451612e-01 2.520001e-01 1.645361e-01 2.291616e-01 2.537162e-01 2.618918e-01 2.453048e-01 3.306394e-01 1.892193e-01 2.926013e-01 2.288841e-01 2.401901e-01 2.858839e-01 8.021995e-02
<GCONST> 8.750084e+01
<TRANSP> 5
 0.000000e+00 1.000000e+00 0.000000e+00 0.000000e+00 0.000000e+00
 0.000000e+00 7.829451e-01 2.170549e-01 0.000000e+00 0.000000e+00
 0.000000e+00 0.000000e+00 6.706909e-01 3.293091e-01 0.000000e+00
 0.000000e+00 0.000000e+00 0.000000e+00 8.925841e-01 1.074159e-01
 0.000000e+00 0.000000e+00 0.000000e+00 0.000000e+00 0.000000e+00
<ENDHMM>
~h "t"
<BEGINHMM>
<NUMSTATES> 5
<STATE> 2
<MEAN> 39
 -6.965302e+00 3.401725e+00 2.306223e+01 -7.817513e+00 -7.044595e+00 -1.767780e+00 -7.809180e+00 -5.202746e+00 -2.506084e+00 -4.960591e+00 3.089788e+00 -1.082268e+01 5.402137e+01 1.288591e-02 9.618396e-02 -1.653621e+00 1.594376e+00 8.866033e-01 6.910208e-01 6.698400e-01 -1.038503e+00 7.031916e-01 -4.783816e-01 -6.678427e-01 1.998972e-01 -1.475262e+00 -1.961464e-01 -2.359083e-01 -1.910203e-01 -2.230357e-01 1.113845e-01 -1.255922e-01 4.401415e-03 2.003852e-01 1.719053e-02 5.957798e-02 1.226991e-01 1.458881e-01 3.700830e-01
<VARIANCE> 39
 6.115282e+00 1.250474e+01 4.002821e+01 3.322114e+01 1.715804e+01 3.112659e+01 2.333058e+01 3.234582e+01 2.188503e+01 1.996345e+01 2.404371e+01 1.495713e+01 3.086412e+01 7.553278e-01 1.606098e+00 1.890314e+00 2.159892e+00 1.744326e+00 2.958265e+00 4.264936e+00 2.374336e+00 2.263472e+00 1.533207e+00 1.730723e+00 1.941867e+00 1.127706e+00 1.931251e-01 2.379750e-01 6.012251e-01 4.020567e-01 3.293096e-01 8.191534e-01 1.057483e+00 5.034667e-01 5.260075e-01 3.442214e-01 3.431192e-01 4.366200e-01 3.892845e-01
<GCONST> 1.086495e+02
<STATE> 3
<MEAN> 39
 -1.190382e+01 1.458866e-02 7.333652e+00 -2.968054e+00 2.390713e+00 -2.808970e+00 -2.770005e-01 -4.491325e+00 2.320352e+00 -5.331246e+00 2.911554e+00 -5.842303e+00 5.450778e+01 -3.066077e+00 -5.587824e-01 -5.265837e+00 -1.150542e+00 6.836807e-01 -2.803312e+00 2.715928e+00 1.493746e+00 1.419756e+00 1.213737e+00 1.057106e+00 2.095531e+00 3.868589e+00 -4.884104e-01 4.635733e-01 -1.109026e-01 -1.845392e-01 -6.092550e-01 -2.178010e-01 1.208028e-01 9.044027e-02 -8.427788e-02 2.814498e-01 6.346649e-03 1.699820e-02 2.972432e-01
<VARIANCE> 39
 2.382005e+01 1.502224e+01 7.301573e+01 2.065251e+01 2.063547e+01 4.728633e+01 2.353654e+01 2.969275e+01 1.792319e+01 1.655698e+01 1.537997e+01 2.326967e+01 5.046717e+01 9.836048e-01 1.411119e+00 6.858279e+00 2.784530e+00 3.290345e+00 2.111097e+00 3.493085e+00 1.891555e+00 1.413869e+00 2.070412e+00 1.373402e+00 1.615236e+00 2.024550e+00 3.286368e-01 4.225475e-01 1.663085e+00 5.021062e-01 2.328943e-01 9.439296e-01 4.015940e-01 3.807779e-01 4.218105e-01 3.615955e-01 3.055702e-01 4.834050e-01 1.268232e+00
<GCONST> 1.143803e+02
<STATE> 4
<MEAN> 39
 -2.185364e+01 1.617520e+00 -4.282554e+00 -6.590780e+00 3.594450e+00 -1.150489e+01 9.398483e+00 3.252456e+00 4.407244e+00 -3.882117e-01 2.484629e+00 -3.229639e-01 6.027875e+01 3.927903e-01 -2.202185e-02 1.815204e-01 1.500261e-01 8.694785e-02 -2.821580e-01 3.193586e-01 4.524974e-01 -2.059727e-02 6.990132e-02 -3.583075e-01 1.434479e-01 -8.663784e-01 3.923643e-01 -7.070102e-02 3.751754e-01 2.084953e-01 -1.176746e-02 2.331973e-01 -2.810292e-01 -2.482458e-01 -4.260506e-02 -1.639400e-01 -8.263852e-02 -1.343967e-01 -3.667208e-01
<VARIANCE> 39
 1.924593e+01 1.486686e+01 1.609914e+01 1.541858e+01 2.035447e+01 1.783237e+01 2.268887e+01 2.955313e+01 1.438256e+01 1.551080e+01 1.701413e+01 1.087304e+01 2.076104e+01 3.687526e+00 1.795352e+00 1.741856e+00 1.983947e+00 1.735999e+00 2.333304e+00 2.421839e+00 3.154468e+00 1.303257e+00 1.921049e+00 1.319009e+00 1.249223e+00 1.655728e+00 3.462679e-01 3.309166e-01 5.634032e-01 3.351429e-01 3.393770e-01 3.909084e-01 3.864846e-01 5.366659e-01 2.981438e-01 4.072052e-01 3.142237e-01 2.980319e-01 2.761273e-01
<GCONST> 1.042050e+02
<TRANSP> 5
 0.000000e+00 1.000000e+00 0.000000e+00 0.000000e+00 0.000000e+00
 0.000000e+00 8.819796e-01 1.180203e-01 0.000000e+00 0.000000e+00
 0.000000e+00 0.000000e+00 6.977623e-01 3.022378e-01 0.000000e+00
 0.000000e+00 0.000000e+00 0.000000e+00 9.141270e-01 8.587305e-02
 0.000000e+00 0.000000e+00 0.000000e+00 0.000000e+00 0.000000e+00
<ENDHMM>
~h "u"
<BEGINHMM>
<NUMSTATES> 5
<STATE> 2
<MEAN> 39
 1.523556e+00 -6.079435e+00 1.550196e+01 1.954859e+00 -5.177795e+00 -2.172297e+01 -2.044523e+01 1.105294e+01 -2.514754e-01 -1.331092e+01 1.674232e+01 -5.158157e+00 6.391382e+01 9.513620e-01 -6.482504e-02 -7.988234e-02 3.281519e-02 5.077154e-01 -1.395378e-01 -1.526104e+00 4.165667e-01 3.581550e-01 -1.264883e-02 5.903798e-01 -7.428386e-01 6.885595e-02 -3.742534e-01 1.101481e-01 -2.953153e-01 -4.175061e-01 1.483149e-01 4.849956e-01 3.060416e-01 -7.490779e-02 3.787353e-03 3.424483e-01 -1.014275e-01 -1.644058e-01 -1.077946e-01
<VARIANCE> 39
 3.066122e+00 2.471489e+00 8.082891e+00 4.997491e+00 8.115578e+00 6.741168e+00 1.986588e+01 1.208620e+01 7.032676e+00 6.009938e+00 8.069769e+00 1.487438e+01 1.117118e+00 1.613128e+00 8.499755e-01 1.916842e+00 2.085155e+00 4.548087e-01 3.876076e+00 2.041045e+00 2.046071e+00 4.519674e-01 2.237450e+00 1.663696e+00 7.487190e-01 5.279353e-01 3.612581e-01 7.176749e-02 2.145834e-01 2.500180e-01 8.124495e-02 2.457489e-01 1.585177e-01 3.321829e-01 1.727496e-01 9.902453e-02 3.473047e-01 1.323232e-01 5.228977e-02
<GCONST> 7.528149e+01
<STATE> 3
<MEAN> 39
 5.531256e+00 9.635363e-01 7.752058e+00 -3.165199e+00 1.098203e+00 -9.760583e+00 -2.113309e+01 1.342327e+00 -3.036560e+00 -5.759372e+00 1.895922e+01 -7.445454e+00 5.812228e+01 -3.580597e-02 7.970506e-01 -7.178229e-01 4.778562e-01 5.406912e-01 1.182219e+00 1.415040e+00 -1.593256e+00 -1.217270e-01 2.343072e-01 -3.234722e-01 7.821834e-01 -7.839729e-01 -1.379678e-01 -5.105184e-02 1.792054e-02 2.508624e-01 2.251581e-02 -1.908697e-02 2.247106e-01 -3.710671e-02 -3.775486e-03 -5.302411e-02 -2.562121e-01 1.225597e-01 -2.498550e-02
<VARIANCE> 39
 1.492576e+00 1.537668e+01 8.859297e+00 6.292911e+00 2.299592e+00 1.169116e+01 2.760298e+01 4.297446e+01 1.043596e+01 3.665200e+00 3.860782e+00 1.983276e+01 8.835567e+00 4.684705e-01 2.818406e-01 2.863180e-01 1.534103e+00 5.242097e-01 4.102886e-01 1.661258e+00 6.469847e-01 1.611533e+00 7.818360e-01 1.032077e+00 1.136150e+00 8.260909e-02 5.073778e-02 7.128783e-02 6.754582e-02 1.090423e-01 9.444682e-02 8.409293e-02 1.024387e-01 1.164585e-01 3.032450e-01 1.435127e-01 1.422625e-01 2.395440e-01 1.255121e-02
<GCONST> 6.225840e+01
<STATE> 4
<MEAN> 39
 -5.815111e+00 1.129613e-01 5.242435e+00 6.428607e+00 6.609535e+00 -1.400333e-01 2.490262e+00 -2.716113e+00 3.727864e+00 -9.241256e-01 2.168251e+00 -3.132137e+00 4.730260e+01 -6.418807e-01 -7.525576e-01 -3.313483e-01 -2.223647e-01 -7.634587e-02 1.717106e-01 7.998099e-01 8.171303e-01 7.042038e-02 2.269884e-01 -4.485150e-01 -1.813486e-01 7.236994e-02 8.218179e-02 2.170697e-03 2.009231e-02 -9.234452e-02 -7.233805e-02 -4.599091e-02 -1.328569e-01 4.307985e-02 -2.248959e-02 1.544221e-03 1.664700e-01 -2.842164e-02 3.117484e-02
<VARIANCE> 39
 2.208950e+01 2.471711e+01 2.353897e+01 1.567876e+01 6.215039e+00 7.572781e+00 3.815569e+01 3.932671e+01 2.437635e+01 1.146664e+01 1.377227e+01 1.122303e+01 1.442093e+01 3.067203e-01 1.338738e+00 2.169206e+00 1.906631e+00 8.528208e-01 8.695816e-01 1.582593e+00 1.644151e+00 3.505909e+00 7.335089e-01 2.105207e+00 6.335661e-01 1.791587e+00 5.236209e-02 3.130037e-01 4.190963e-01 3.437472e-01 1.898879e-01 2.127140e-01 4.168199e-01 4.562995e-01 7.670261e-01 9.257081e-02 1.941235e-01 9.370726e-02 3.041807e-01
<GCONST> 9.264143e+01
<TRANSP> 5
 0.000000e+00 1.000000e+00 0.000000e+00 0.000000e+00 0.000000e+00
 0.000000e+00 9.164373e-01 8.356271e-02 0.000000e+00 0.000000e+00
 0.000000e+00 0.000000e+00 9.168939e-01 8.310612e-02 0.000000e+00
 0.000000e+00 0.000000e+00 0.000000e+00 9.568405e-01 4.315958e-02
 0.000000e+00 0.000000e+00 0.000000e+00 0.000000e+00 0.000000e+00
<ENDHMM>
~h "v"
<BEGINHMM>
<NUMSTATES> 5
<STATE> 2
<MEAN> 39
 2.120179e+00 -1.929874e+01 4.782851e+00 -1.253956e+01 -6.504675e+00 -9.993842e+00 -6.471465e+00 1.801178e+01 8.665586e+00 -1.400506e+00 3.322768e+00 -7.701475e+00 6.975098e+01 -3.398024e-01 1.132264e+00 1.669053e+00 8.483176e-01 -1.156428e+00 -1.809186e+00 3.210585e-01 1.148193e-02 -9.852589e-01 -4.464093e-01 9.666358e-01 1.157361e+00 -6.371698e-01 5.572639e-02 2.635430e-01 2.679286e-01 1.385520e-01 -1.572359e-01 3.340956e-01 -9.761522e-02 -9.191368e-01 -4.689540e-01 2.277854e-01 3.851960e-01 -1.723360e-02 -2.494946e-01
<VARIANCE> 39
 4.724554e+00 4.905306e+01 1.192657e+01 3.108991e+00 3.329304e+01 2.022127e+01 2.826192e+01 3.299636e+01 1.906953e+01 1.485901e+01 2.114658e+01 7.438576e+00 1.243414e+01 4.055729e-01 3.488793e-01 1.525093e+00 1.673634e+00 2.373852e+00 3.332888e+00 6.541318e-01 5.728214e+00 1.429849e+00 1.574418e+00 2.675303e+00 7.710943e-01 6.230031e-01 6.460658e-02 9.111802e-02 1.399754e-01 3.514506e-01 2.772094e-01 3.762181e-01 2.098257e-01 2.315641e-01 1.772651e-01 1.731272e-01 3.726559e-01 9.094831e-02 5.169499e-02
<GCONST> 8.748176e+01
<STATE> 3
<MEAN> 39
 1.252712e+00 -1.322510e+01 1.201861e+01 -7.700712e+00 -9.612407e+00 -1.553902e+01 -7.168315e+00 1.407417e+01 1.184720e+00 -1.527673e+00 1.039123e+01 -3.667161e+00 6.551879e+01 6.135327e-02 1.616912e+00 -4.016739e-01 2.041008e+00 8.086789e-01 -2.235760e-01 8.669996e-02 -1.450980e+00 -2.061472e-01 -3.099715e-01 -3.115115e-01 1.155814e-01 -1.394806e+00 -4.435056e-02 3.724011e-02 -3.338571e-01 1.570387e-01 1.799895e-01 1.946255e-01 1.345545e-01 -5.165262e-02 2.948285e-01 -2.418698e-02 -4.226606e-01 -1.640340e-01 -7.665043e-02
<VARIANCE> 39
 3.113609e+00 1.966851e+01 2.490264e+01 3.285465e+01 3.714843e+01 2.407783e+01 1.717902e+01 2.274802e+01 3.887417e+01 1.044988e+01 3.627742e+01 1.065505e+01 1.733422e+01 4.589257e-01 5.048965e-01 3.413667e+00 1.473724e+00 1.560790e+00 1.094031e+00 1.240215e+00 2.588199e+00 2.586529e+00 8.625482e-01 1.645420e+00 1.185229e+00 3.284348e-01 1.215808e-01 5.636746e-02 4.021988e-01 2.783929e-01 3.643827e-01 3.727450e-01 1.967552e-01 4.624568e-01 3.852720e-01 2.539332e-01 1.846619e-01 2.567409e-01 3.120049e-02
<GCONST> 9.188516e+01
<STATE> 4
<MEAN> 39
 -3.509776e+00 -3.492634e+00 4.025489e+00 1.205371e+00 -3.411859e-02 -9.733994e+00 -7.343557e-01 4.786102e+00 5.070935e+00 -1.888417e+00 1.156610e+00 -5.376116e+00 5.610452e+01 -4.367408e-01 5.399776e-01 -1.097066e-01 5.713795e-01 2.524575e-01 6.925488e-01 5.324813e-01 -9.396829e-01 2.530015e-01 3.640097e-02 -7.129810e-01 7.463463e-03 -9.516665e-01 1.490359e-02 -1.662060e-01 8.180358e-02 -1.984647e-01 -1.219762e-01 -1.625368e-02 -1.155286e-01 1.199292e-01 -3.192858e-02 7.439560e-02 1.558597e-01 4.805962e-02 1.182294e-01
<VARIANCE> 39
 2.711557e+01 1.001163e+01 9.029714e+00 1.256985e+01 1.838288e+01 2.166297e+01 3.003694e+01 2.801347e+01 1.382821e+01 1.866650e+01 1.603707e+01 9.549086e+00 1.596950e+01 1.462836e+00 6.283460e-01 9.007192e-01 2.267049e+00 1.676916e+00 1.691157e+00 1.822987e+00 2.686395e+00 1.455674e+00 1.547276e+00 1.674761e+00 8.311240e-01 4.357376e-01 2.204220e-01 1.136484e-01 1.913320e-01 2.275466e-01 2.620332e-01 2.128286e-01 3.291373e-01 6.454713e-01 3.123237e-01 2.823381e-01 2.792013e-01 1.412920e-01 7.945459e-02
<GCONST> 9.221283e+01
<TRANSP> 5
 0.000000e+00 1.000000e+00 0.000000e+00 0.000000e+00 0.000000e+00
 0.000000e+00 5.986797e-01 4.013203e-01 0.000000e+00 0.000000e+00
 0.000000e+00 0.000000e+00 7.285677e-01 2.714323e-01 0.000000e+00
 0.000000e+00 0.000000e+00 0.000000e+00 8.176412e-01 1.823588e-01
 0.000000e+00 0.000000e+00 0.000000e+00 0.000000e+00 0.000000e+00
<ENDHMM>
~h "w"
<BEGINHMM>
<NUMSTATES> 5
<STATE> 2
<MEAN> 39
 -1.038452e+01 -2.330550e+00 2.371825e+00 2.227966e+00 4.014368e+00 -1.200128e+00 3.618614e+00 -1.936836e+00 4.407951e+00 -2.308056e-01 1.581229e+00 -2.177210e+00 4.673553e+01 -1.035308e-01 -1.634074e-01 1.419058e-02 2.387889e-02 -5.215559e-02 1.700397e-01 3.410843e-02 1.072568e-01 1.801908e-01 1.011740e-01 1.861054e-02 -3.939114e-02 -1.276855e-01 8.354507e-02 5.037924e-02 5.110565e-03 -9.034793e-02 -1.159858e-01 -1.104111e-01 -4.042575e-02 2.893681e-02 1.185652e-03 -6.571356e-03 4.175246e-02 -8.745714e-03 2.982613e-02
<VARIANCE> 39
 7.760405e+00 2.232709e+01 1.406199e+01 1.399152e+01 1.967628e+01 1.814625e+01 1.175805e+01 1.863741e+01 1.643888e+01 1.958716e+01 1.558308e+01 1.274639e+01 2.146832e+01 1.004975e+00 6.529601e-01 9.563472e-01 7.789249e-01 1.481867e+00 2.002659e+00 8.400123e-01 1.609700e+00 2.310596e+00 1.906010e+00 2.214463e+00 1.860489e+00 6.049335e-01 2.273044e-01 1.221586e-01 1.701248e-01 1.927113e-01 2.970333e-01 4.245552e-01 1.808612e-01 3.451440e-01 4.938063e-01 4.460919e-01 4.757344e-01 3.050651e-01 1.149063e-01
<GCONST> 9.313084e+01
<STATE> 3
<MEAN> 39
 -8.557714e+00 -8.880450e-01 3.522726e+00 2.841890e-01 1.065633e-01 -1.456372e+00 3.804360e+00 -1.286378e+00 4.409527e+00 -7.725477e-01 1.447322e+00 -1.910040e+00 4.589729e+01 2.822358e+00 1.857373e+00 -3.504402e-02 -2.744409e+00 -2.962440e+00 -2.706913e+00 -1.915951e+00 4.696396e-01 -3.858652e-01 -9.723809e-01 7.772031e-01 -7.828233e-01 1.836302e+00 1.135565e+00 3.956454e-01 -1.607832e-01 -1.054732e+00 -8.446227e-01 -5.271450e-01 -5.111694e-01 3.430464e-01 -1.948509e-01 -2.626038e-01 5.047135e-01 -2.990596e-01 7.947254e-01
<VARIANCE> 39
 1.392105e+01 1.087430e+01 4.594482e+00 1.101260e+01 1.727108e+01 2.070930e+01 1.349654e+01 1.234091e+01 1.139992e+01 1.083733e+01 7.437608e+00 1.416678e+01 9.990804e+00 4.129948e+00 1.114398e+00 7.509441e-01 4.357612e+00 3.114506e+00 2.691281e+00 1.700617e+00 1.453129e+00 9.218774e-01 1.939567e+00 1.895526e+00 1.800214e+00 1.787448e+00 2.437569e-01 1.769552e-01 8.201882e-02 3.728441e-01 2.938747e-01 4.577236e-01 3.011376e-01 2.969853e-01 1.575087e-01 2.392974e-01 3.760909e-01 4.299438e-01 9.513330e-02
<GCONST> 9.301977e+01
<STATE> 4
<MEAN> 39
 6.969273e+00 -5.105330e+00 -1.619463e+00 -2.202195e+01 -1.032119e+01 4.932329e+00 -3.702263e+00 9.626058e+00 -2.209694e-01 -6.878582e+00 1.183345e+01 -9.263181e+00 6.541048e+01 2.358822e-01 -7.993791e-01 -3.070237e-01 -5.366427e-01 2.659360e-01 9.108800e-01 -2.409648e-01 1.863749e-01 5.578635e-02 1.458213e-02 1.187546e-01 -2.771569e-01 7.411968e-01 -1.793650e-01 -6.714448e-02 1.350630e-03 2.144490e-01 2.033398e-01 1.964518e-02 6.667598e-02 -7.530659e-02 6.172835e-02 1.183969e-01 -1.069273e-01 3.741618e-02 -1.285509e-01
<VARIANCE> 39
 5.273036e+00 1.039866e+02 2.295913e+01 2.996508e+01 2.903605e+01 1.375921e+02 2.088740e+01 3.203647e+01 1.619341e+01 1.176764e+01 2.403032e+01 2.358742e+01 3.603900e+01 1.708957e+00 1.701511e+00 1.031678e+00 2.591086e+00 2.264335e+00 2.572471e+00 2.304195e+00 2.236763e+00 1.382022e+00 1.358726e+00 1.915337e+00 1.177071e+00 9.333635e-01 1.906924e-01 1.941447e-01 1.367228e-01 2.637791e-01 2.919959e-01 4.612894e-01 4.027106e-01 2.574121e-01 1.822937e-01 2.020079e-01 2.183219e-01 2.033407e-01 7.920258e-02
<GCONST> 1.014759e+02
<TRANSP> 5
 0.000000e+00 1.000000e+00 0.000000e+00 0.000000e+00 0.000000e+00
 0.000000e+00 9.131912e-01 8.680874e-02 0.000000e+00 0.000000e+00
 0.000000e+00 0.000000e+00 6.892440e-01 3.107560e-01 0.000000e+00
 0.000000e+00 0.000000e+00 0.000000e+00 9.601530e-01 3.984691e-02
 0.000000e+00 0.000000e+00 0.000000e+00 0.000000e+00 0.000000e+00
<ENDHMM>
~h "z"
<BEGINHMM>
<NUMSTATES> 5
<STATE> 2
<MEAN> 39
 -1.133440e+01 -4.343702e-01 3.040089e+00 4.974586e-01 1.029395e+00 -5.198793e+00 4.034869e+00 -1.224749e+00 3.190601e+00 2.141927e-01 9.587492e-01 -2.679056e+00 4.621962e+01 4.089349e-01 -2.173283e-01 6.389381e-02 -3.691710e-01 -6.270035e-02 -1.067578e+00 -3.880368e-01 7.582872e-01 1.135231e-01 4.434370e-01 8.204590e-04 -1.705792e-01 3.940492e-01 1.542698e-01 3.209024e-01 5.589512e-02 -6.351452e-03 2.858524e-04 -7.247617e-01 -1.461794e-02 -1.962228e-02 -2.781862e-01 -2.287559e-01 2.332245e-02 2.801996e-02 6.309978e-01
<VARIANCE> 39
 6.838240e+00 1.011740e+01 1.535637e+01 1.904910e+01 2.195927e+01 5.326675e+01 2.130773e+01 2.305291e+01 2.739793e+01 1.483054e+01 1.571538e+01 6.813092e+00 1.530656e+01 1.243518e+00 1.182913e+00 1.630010e+00 2.926445e+00 2.495794e+00 4.482801e+00 3.069803e+00 2.577840e+00 2.659551e+00 2.384182e+00 1.860456e+00 7.270671e-01 1.913253e+00 2.277391e-01 3.597738e-01 1.945670e-01 3.893112e-01 4.942562e-01 9.162984e-01 4.836608e-01 3.784229e-01 3.513754e-01 2.942247e-01 3.417662e-01 1.465993e-01 2.175592e-01
<GCONST> 1.031318e+02
<STATE> 3
<MEAN> 39
 -6.870386e+00 -6.021720e+00 -2.883184e+00 -6.913192e+00 9.451439e-01 -9.206516e+00 2.009216e-01 4.594469e+00 7.741488e+00 2.425054e+00 -4.231899e-01 -5.182958e+00 5.118153e+01 6.412978e-01 1.121055e+00 4.688769e-01 2.451117e-01 -4.969253e-03 -1.910975e+00 -1.488848e-01 -1.555485e-01 -5.225899e-01 -6.373114e-01 3.460028e-02 -2.778971e-01 1.360778e+00 -1.401821e-01 8.074544e-01 1.568251e-01 5.940630e-01 -1.533836e-01 -3.133923e-01 1.641807e-01 -3.920862e-01 -1.502754e-01 -4.382530e-01 2.157456e-01 1.189838e-02 3.458036e-01
<VARIANCE> 39
 2.230013e+01 4.197295e+01 9.245374e+01 7.412051e+01 1.754479e+01 4.717532e+01 2.902212e+01 3.067261e+01 7.175622e+01 2.282700e+01 8.484381e+00 1.393424e+01 2.469953e+01 1.547363e+00 3.145999e+00 3.303999e+00 3.430302e+00 1.914587e+00 8.996438e+00 3.269728e+00 2.044442e+00 3.285268e+00 2.107837e+00 1.219335e+00 1.406791e+00 3.355256e+00 2.064537e-01 3.581659e-01 3.984190e-01 3.240243e-01 3.341247e-01 9.798874e-01 4.496149e-01 4.079963e-01 3.543842e-01 4.274480e-01 1.893297e-01 2.300759e-01 4.731540e-01
<GCONST> 1.154505e+02
<STATE> 4
<MEAN> 39
 -6.683504e+00 4.806143e+00 4.876707e+00 1.985883e+00 -7.047330e-01 -1.761921e+01 1.243106e+00 5.719792e-01 -2.660101e-01 -4.018847e+00 1.441375e+00 -5.256944e+00 5.647102e+01 -5.169879e-01 3.292007e+00 -2.127318e-01 1.734403e+00 -4.986985e-01 -2.296644e+00 2.599719e-01 -3.213666e-01 -3.241415e-02 -8.265619e-01 6.389054e-01 -6.800310e-02 2.636190e+00 -6.230111e-01 2.833010e-01 -3.686033e-01 2.427429e-01 2.359230e-01 9.164353e-01 2.357919e-01 2.920956e-02 5.114853e-01 2.929188e-01 8.828033e-02 1.204208e-01 -3.387533e-01
<VARIANCE> 39
 1.556218e+01 3.084074e+01 1.081863e+01 1.842338e+01 2.422263e+01 3.135554e+01 2.401044e+01 2.615431e+01 1.673788e+01 1.389715e+01 1.047727e+01 1.864625e+01 2.107297e+01 2.737348e+00 2.407055e+00 1.282566e+00 1.477508e+00 1.985489e+00 6.936371e+00 1.938688e+00 2.089497e+00 2.215762e+00 2.066255e+00 9.617856e-01 8.663388e-01 1.363976e+00 3.636341e-01 6.858431e-01 2.542821e-01 2.862350e-01 2.785120e-01 9.921892e-01 3.668964e-01 3.187107e-01 3.703904e-01 2.591841e-01 2.291994e-01 2.055943e-01 2.846982e-01
<GCONST> 1.040926e+02
<TRANSP> 5
 0.000000e+00 1.000000e+00 0.000000e+00 0.000000e+00 0.000000e+00
 0.000000e+00 6.038828e-01 3.961172e-01 0.000000e+00 0.000000e+00
 0.000000e+00 0.000000e+00 5.589769e-01 4.410231e-01 0.000000e+00
 0.000000e+00 0.000000e+00 0.000000e+00 6.629866e-01 3.370134e-01
 0.000000e+00 0.000000e+00 0.000000e+00 0.000000e+00 0.000000e+00
<ENDHMM>
~h "AI"
<BEGINHMM>
<NUMSTATES> 5
<STATE> 2
<MEAN> 39
 2.508837e+00 -3.615150e+00 1.102595e+01 8.991045e+00 -4.822795e+00 -1.137343e+01 -6.294772e+00 -5.192846e+00 1.009460e+01 1.591852e+00 -4.623911e+00 -6.023505e+00 5.875137e+01 4.381812e-01 -3.874094e-01 -2.162205e-01 -9.288321e-01 2.766187e-01 1.871919e-01 -4.685332e-01 9.695618e-02 1.784753e-02 6.911560e-01 1.650793e-01 -8.613997e-01 1.269481e+00 -3.488248e-01 -2.854533e-01 -5.581461e-01 -6.828969e-01 3.347985e-01 5.700558e-01 2.987777e-01 3.719131e-01 -1.631602e-01 3.524286e-02 9.771935e-02 7.735390e-02 8.494735e-03
<VARIANCE> 39
 3.801664e+00 8.650366e+00 6.261230e+00 9.782717e+00 2.154699e+01 6.780434e+00 9.569782e+00 1.439970e+01 1.013776e+01 1.300215e+01 1.115680e+01 2.286320e+01 5.685182e+00 1.546650e+00 1.441021e+00 3.582647e+00 6.559084e+00 2.345979e+00 2.485854e+00 1.383579e+00 2.046598e+00 1.369420e+00 6.960125e-01 7.950794e-01 1.240202e+00 1.727197e+00 2.072409e-01 1.956009e-01 3.370740e-01 6.002939e-01 2.497493e-01 3.706947e-01 3.416224e-01 3.789659e-01 2.255513e-01 1.802892e-01 3.209665e-01 2.609363e-01 3.080365e-01
<GCONST> 9.251596e+01
<STATE> 3
<MEAN> 39
 1.260241e+00 -1.941531e+01 -2.468462e+00 -1.363507e+01 3.240427e+00 7.151157e+00 -6.574066e+00 9.389551e-01 6.132520e+00 3.958800e+00 -6.871456e+00 -6.570399e+00 7.238592e+01 -7.690711e-04 -1.192232e+00 -4.013599e-01 -7.977074e-01 2.467093e-02 1.079841e+00 9.870357e-02 1.731661e-01 -1.068956e-01 -2.599867e-01 -4.281688e-01 5.155877e-01 6.010734e-01 3.821109e-02 1.654023e-01 3.396795e-01 4.449718e-01 -1.737989e-01 -3.690707e-01 1.826361e-03 -1.040232e-01 1.059157e-01 -6.696612e-02 -2.147673e-02 6.779729e-02 -2.355688e-01
<VARIANCE> 39
 1.838751e+00 2.017477e+01 6.632647e+00 7.810619e+00 4.266783e+00 2.774673e+01 9.947059e+00 1.069243e+01 8.124010e+00 3.962227e+00 1.080901e+01 1.642277e+01 3.031873e+00 1.624169e-01 1.436524e+00 2.404040e+00 4.024785e+00 8.052314e-01 3.630656e+00 6.064799e-01 2.619314e+00 6.738740e-01 4.174052e-01 8.991674e-01 6.766897e-01 1.263989e+00 3.054313e-02 1.225036e-01 1.821306e-01 4.323400e-01 1.315075e-01 1.936384e-01 1.388755e-01 4.588873e-01 9.913830e-02 9.400757e-02 1.451911e-01 1.475467e-01 1.138937e-01
<GCONST> 7.401296e+01
<STATE> 4
<MEAN> 39
 9.041343e-01 -1.915391e+01 1.060530e+01 -1.038837e+01 -7.720220e+00 -1.360274e+00 -3.852822e+00 7.927050e+00 5.620168e+00 -3.128541e+00 -2.869591e+00 -3.804764e+00 6.912062e+01 1.641473e-02 9.263636e-01 8.963947e-01 4.219045e-01 -7.581819e-01 -8.248439e-01 5.493785e-02 2.476474e-01 -1.800786e-01 -5.725380e-01 7.449431e-01 -1.918364e-01 -7.633795e-01 1.333660e-02 1.966931e-01 -1.789401e-01 1.176641e-01 1.377982e-01 9.207437e-03 1.546048e-02 -2.367931e-01 -5.378576e-02 6.741697e-02 -3.375925e-02 -3.031453e-02 -1.039302e-01
<VARIANCE> 39
 2.470207e+00 3.927915e+01 5.016189e+01 2.201675e+01 4.911176e+01 2.578918e+01 2.317776e+01 2.565889e+01 1.471976e+01 1.792831e+01 6.088803e+01 1.735082e+01 1.784575e+01 2.153016e-01 1.684346e+00 2.803728e+00 2.592902e+00 3.191204e+00 2.567840e+00 2.366052e+00 4.514853e+00 1.218782e+00 1.125874e+00 4.085298e+00 1.422570e+00 6.280273e-01 2.902940e-02 1.624256e-01 3.387408e-01 4.526280e-01 4.322396e-01 4.544936e-01 4.840208e-01 4.966738e-01 2.481491e-01 2.151213e-01 6.346999e-01 2.880168e-01 8.814028e-02
<GCONST> 1.019205e+02
<TRANSP> 5
 0.000000e+00 1.000000e+00 0.000000e+00 0.000000e+00 0.000000e+00
 0.000000e+00 9.032207e-01 9.677931e-02 0.000000e+00 0.000000e+00
 0.000000e+00 0.000000e+00 9.264434e-01 7.355658e-02 0.000000e+00
 0.000000e+00 0.000000e+00 0.000000e+00 9.316986e-01 6.830150e-02
 0.000000e+00 0.000000e+00 0.000000e+00 0.000000e+00 0.000000e+00
<ENDHMM>
~h "O:"
<BEGINHMM>
<NUMSTATES> 5
<STATE> 2
<MEAN> 39
 -4.839339e+00 -4.019139e+00 -5.831944e+00 -1.065537e+01 -9.253663e+00 -3.116635e+00 5.123715e-01 -6.720206e-03 1.965633e+00 -3.122901e+00 6.479066e+00 -1.338227e+00 6.126822e+01 3.941744e+00 6.498262e-01 1.831800e-01 -1.662245e+00 -2.046119e+00 -4.913612e-01 8.366422e-01 2.446160e-01 -8.038173e-01 -8.743400e-01 3.311050e-01 1.527849e-02 8.024201e-01 -1.249023e-02 -9.624153e-02 -7.906795e-02 1.838572e-01 9.685219e-02 -1.172132e-02 4.487265e-02 3.038572e-01 1.437380e-01 -1.373225e-02 1.689381e-01 9.497585e-02 -3.328737e-02
<VARIANCE> 39
 1.301750e+02 1.552297e+01 1.356081e+01 3.430230e+01 5.515345e+01 1.477153e+01 1.800604e+01 1.389880e+01 1.954051e+01 1.358271e+01 9.401261e+00 1.458122e+01 1.080864e+01 5.402959e+00 2.009251e+00 1.626214e+00 2.194156e+00 3.352914e+00 1.475471e+00 2.087225e+00 2.491654e+00 2.080861e+00 1.026474e+00 1.943239e+00 1.472578e+00 3.661909e-01 1.845982e+00 4.842355e-01 3.705727e-01 5.510947e-01 1.042099e+00 2.641898e-01 6.172395e-01 4.276496e-01 5.563257e-01 3.169388e-01 3.219378e-01 2.965031e-01 8.177385e-02
<GCONST> 1.073375e+02
<STATE> 3
<MEAN> 39
 1.183286e+01 -4.310444e+00 -1.360882e+01 -1.621224e+01 -8.024190e+00 -4.769951e+00 -4.433471e+00 7.938498e+00 7.505167e+00 -4.005502e+00 7.376440e+00 -5.209858e-01 6.416913e+01 2.575120e-01 -5.628575e-02 -8.379639e-01 -1.095699e-01 9.461899e-01 2.436462e-01 -8.341618e-01 2.781878e-02 5.715601e-01 4.920415e-01 -3.453961e-01 -2.006364e-01 -1.070234e-01 -9.828262e-02 5.133089e-02 4.945338e-02 3.567362e-02 4.425379e-02 6.217084e-02 -1.747904e-03 -1.469989e-01 -7.506189e-02 4.212882e-02 -9.950230e-02 -2.768528e-02 -5.940316e-02
<VARIANCE> 39
 4.206954e+00 8.098210e+00 3.377705e+01 8.249640e+00 4.110062e+01 1.726517e+01 4.365394e+01 3.615193e+01 3.413219e+01 3.870134e+01 2.690544e+01 2.446196e+01 4.434618e+00 2.342952e-01 4.131389e-01 6.945508e-01 5.961206e-01 9.757631e-01 1.066930e+00 1.496639e+00 2.049431e+00 1.596581e+00 1.532953e+00 1.628709e+00 1.428524e+00 1.623231e-01 7.115494e-02 5.830338e-02 1.026323e-01 1.086273e-01 2.438716e-01 1.572483e-01 2.722849e-01 2.158573e-01 1.942946e-01 2.061517e-01 2.727767e-01 1.943662e-01 2.260117e-02
<GCONST> 8.177380e+01
<STATE> 4
<MEAN> 39
 6.274699e+00 -1.596502e+00 -1.231979e+01 -1.053180e+01 1.045045e+00 -6.124726e-01 -1.071032e+00 -1.839685e-01 6.409226e+00 1.369950e+00 1.849124e+00 -1.391231e+00 5.605901e+01 -1.036908e+00 2.840915e-01 1.091224e+00 9.077973e-01 2.215349e-01 9.793915e-02 9.875193e-01 -1.837765e-01 -2.646205e-01 -2.887760e-01 -1.234070e-01 1.908965e-01 -8.364880e-01 -5.103025e-02 -1.243924e-02 5.383576e-02 2.937224e-02 -1.215077e-02 1.540908e-02 2.969342e-02 3.803137e-02 5.292749e-03 -3.642535e-02 5.932869e-02 -1.547741e-02 -1.825219e-03
<VARIANCE> 39
 4.624244e+01 7.381159e+00 4.754133e+01 2.957182e+01 1.373582e+01 1.029863e+01 4.525523e+01 1.440196e+01 1.899855e+01 3.097048e+01 1.711012e+01 1.109296e+01 2.663614e+01 6.281059e-01 3.911311e-01 9.130740e-01 1.163967e+00 1.697041e+00 1.288968e+00 2.471857e+00 1.285828e+00 1.850895e+00 1.609983e+00 1.780390e+00 1.443268e+00 3.797005e-01 9.935509e-02 9.464105e-02 1.524647e-01 2.203988e-01 3.441743e-01 2.870184e-01 5.705947e-01 2.537775e-01 3.451999e-01 2.528073e-01 3.170820e-01 3.064562e-01 4.364969e-02
<GCONST> 9.255070e+01
<TRANSP> 5
 0.000000e+00 1.000000e+00 0.000000e+00 0.000000e+00 0.000000e+00
 0.000000e+00 8.618371e-01 1.381629e-01 0.000000e+00 0.000000e+00
 0.000000e+00 0.000000e+00 9.390254e-01 6.097456e-02 0.000000e+00
 0.000000e+00 0.000000e+00 0.000000e+00 9.348981e-01 6.510194e-02
 0.000000e+00 0.000000e+00 0.000000e+00 0.000000e+00 0.000000e+00
<ENDHMM>
~h "aI"
<BEGINHMM>
<NUMSTATES> 5
<STATE> 2
<MEAN> 39
 -2.174546e+01 -8.323550e+00 -1.953636e+00 -9.316790e-01 1.693226e+00 5.737547e-01 3.781550e+00 6.600960e+00 7.553081e+00 2.602504e+00 5.068951e+00 -1.826495e+00 5.654099e+01 2.558038e-01 -1.812077e-01 -6.546815e-01 -7.608920e-01 -5.536714e-01 -5.257322e-01 -1.654184e-02 -1.163356e-01 -2.016087e-01 -1.172030e-01 6.667189e-02 2.027797e-01 6.132798e-01 7.931626e-01 2.012257e-02 -8.474277e-02 -2.568264e-01 -1.203601e-01 -8.256508e-02 -2.107451e-01 -2.937662e-01 -2.573463e-01 -2.211078e-01 1.420819e-01 1.184833e-02 1.724000e-02
<VARIANCE> 39
 5.104895e+00 2.947942e+00 4.782149e+00 4.017641e+00 9.764975e+00 1.483461e+01 1.399847e+01 8.057116e+00 1.725137e+01 1.121228e+01 7.008427e+00 1.086634e+01 4.070422e+00 1.325445e+00 5.995200e-01 4.668582e-01 8.852144e-01 1.094097e+00 2.122231e+00 1.417248e+00 1.012296e+00 1.844578e+00 1.455630e+00 9.771426e-01 1.076238e+00 3.651565e-01 5.051107e-01 1.641774e-01 6.503757e-02 4.489442e-01 2.395208e-01 4.250839e-01 2.057025e-01 1.733108e-01 3.787571e-01 2.217186e-01 2.481092e-01 2.981071e-01 7.308798e-02
<GCONST> 7.882771e+01
<STATE> 3
<MEAN> 39
 -1.471161e+00 -1.079491e+01 -6.029460e+00 -1.575980e+01 -4.001872e+00 1.954134e+00 -5.893840e-01 6.670073e+00 -1.557640e+00 1.215286e+00 1.006386e+01 -5.784832e+00 6.424323e+01 4.313153e+00 -9.505337e-01 -1.638182e-01 -3.409093e+00 -5.845947e-01 1.968465e+00 -7.152367e-01 1.444856e+00 -1.865836e+00 1.989337e-01 1.020795e+00 -2.062930e+00 1.971051e+00 -6.374203e-01 -1.811857e-01 1.970568e-01 3.713505e-01 2.502126e-01 3.040704e-01 1.016792e-01 2.879902e-01 2.897257e-01 5.671259e-02 -2.499177e-01 -9.737792e-02 -7.028781e-02
<VARIANCE> 39
 1.205376e+02 1.450993e+01 4.586965e+00 6.701031e+01 1.889316e+01 3.434571e+01 1.249666e+01 3.070295e+01 3.611419e+01 1.236386e+01 1.338790e+01 3.242829e+01 3.113298e+01 9.291334e+00 1.448663e+00 6.296820e-01 3.403865e+00 2.581856e+00 1.917449e+00 2.141809e+00 3.645301e+00 2.922896e+00 9.133149e-01 1.627382e+00 1.406056e+00 1.333717e+00 2.155381e+00 2.134108e-01 9.371645e-02 1.230726e+00 5.139817e-01 6.517681e-01 3.952036e-01 9.236197e-01 8.336474e-01 2.474738e-01 3.868552e-01 6.444275e-01 5.261579e-01
<GCONST> 1.133771e+02
<STATE> 4
<MEAN> 39
 5.803603e+00 -2.109604e+01 -4.125852e+00 -2.077604e+01 -3.015666e+00 1.001499e+01 -3.265713e+00 1.051318e+01 -3.366736e-01 1.251189e-01 8.535304e+00 -1.310727e+01 7.055071e+01 -2.041385e-01 -7.087373e-01 3.978956e-01 6.435549e-01 -4.650030e-02 -7.648371e-01 -1.720060e-01 1.477486e-01 9.803520e-01 -1.619038e-01 -5.809988e-01 3.981468e-02 8.028866e-02 -4.260741e-02 9.724776e-02 7.320295e-02 9.623192e-02 -1.247258e-01 -3.688961e-01 -1.172995e-02 1.303533e-01 1.708223e-02 -2.898241e-02 5.858135e-03 1.509015e-01 -3.041128e-02
<VARIANCE> 39
 2.383701e+00 1.613351e+01 7.742837e+00 1.789392e+01 8.108133e+00 1.569553e+01 8.537365e+00 1.045738e+01 3.268378e+01 6.040059e+00 9.491161e+00 9.885337e+00 7.593652e+00 1.487398e-01 3.179040e-01 5.686163e-01 7.734451e-01 9.389581e-01 2.832179e+00 6.114593e-01 1.805090e+00 7.481639e-01 3.987858e-01 8.583159e-01 5.999129e-01 1.044112e-01 2.929841e-02 6.462510e-02 8.284835e-02 1.379046e-01 1.755071e-01 1.004767e-01 1.201941e-01 2.951584e-01 1.294567e-01 7.338721e-02 1.508493e-01 1.171486e-01 2.216169e-02
<GCONST> 6.390143e+01
<TRANSP> 5
 0.000000e+00 1.000000e+00 0.000000e+00 0.000000e+00 0.000000e+00
 0.000000e+00 8.241746e-01 1.758255e-01 0.000000e+00 0.000000e+00
 0.000000e+00 0.000000e+00 8.332527e-01 1.667473e-01 0.000000e+00
 0.000000e+00 0.000000e+00 0.000000e+00 9.310216e-01 6.897844e-02
 0.000000e+00 0.000000e+00 0.000000e+00 0.000000e+00 0.000000e+00
<ENDHMM>
~h "eI"
<BEGINHMM>
<NUMSTATES> 5
<STATE> 2
<MEAN> 39
 -1.047799e+01 -1.832755e+00 2.418454e+00 2.386706e+00 3.479611e+00 4.648674e-01 6.998329e+00 -8.081602e-01 4.806548e+00 4.377871e-01 1.723246e+00 -1.858772e+00 4.385851e+01 -1.844055e-01 -1.125077e-01 6.382669e-02 5.361237e-02 -1.669695e-02 2.338591e-02 1.037613e-01 8.854894e-02 1.191118e-01 1.472191e-01 6.794595e-02 -1.498701e-02 -1.383021e-01 6.707733e-03 -1.328098e-02 4.026784e-02 -5.616896e-02 -3.354359e-02 -5.391015e-03 -4.861338e-02 1.191163e-02 -5.114282e-02 -3.916807e-02 2.904004e-02 3.084469e-03 6.380444e-02
<VARIANCE> 39
 8.666686e+00 5.314999e+00 5.786686e+00 6.758644e+00 1.007186e+01 1.660354e+01 1.946401e+01 1.413374e+01 1.370953e+01 1.233598e+01 1.181559e+01 1.202878e+01 4.330707e+00 1.713625e-01 3.616398e-01 4.521454e-01 5.008791e-01 7.809858e-01 1.113518e+00 1.607383e+00 1.284382e+00 1.040624e+00 1.245826e+00 1.349392e+00 1.182250e+00 1.360992e-01 3.196337e-02 7.338430e-02 1.385869e-01 1.182141e-01 1.726615e-01 2.085357e-01 3.738647e-01 2.546398e-01 2.452943e-01 2.338152e-01 2.980142e-01 2.487760e-01 2.499041e-02
<GCONST> 7.152229e+01
<STATE> 3
<MEAN> 39
 -1.176445e+01 -4.181659e+00 2.823467e+00 1.419947e+00 2.218404e+00 3.534409e-01 6.692025e+00 3.691851e-01 4.609913e+00 7.232866e-01 1.919501e+00 -1.629721e+00 4.566038e+01 5.342040e-01 -1.410816e+00 3.358348e+00 -3.626702e+00 -2.686806e+00 -1.127843e+00 -1.557939e+00 1.162259e+00 -2.007203e+00 7.348782e-01 2.635136e-01 -6.820958e-01 3.329931e+00 3.588606e-01 -5.826716e-01 1.579334e+00 -1.734362e+00 -1.389539e+00 -6.032194e-01 -8.803315e-01 3.396404e-01 -5.713321e-01 4.619814e-01 4.207515e-01 -2.561571e-01 1.662436e+00
<VARIANCE> 39
 1.260769e+01 1.590088e+01 1.132025e+01 2.239464e+01 1.616113e+01 1.516303e+01 1.223849e+01 1.684651e+01 1.147184e+01 1.455189e+01 1.431566e+01 1.181174e+01 1.876282e+01 9.368742e-01 2.131938e+00 7.530817e+00 1.078411e+01 6.356969e+00 2.848465e+00 2.100321e+00 2.034882e+00 2.532077e+00 1.515195e+00 1.794226e+00 1.190323e+00 7.826283e+00 1.439852e-01 2.483951e-01 2.586662e-01 5.438473e-01 3.149240e-01 3.899210e-01 2.984751e-01 4.518867e-01 3.628866e-01 2.933084e-01 3.911143e-01 2.082967e-01 2.756128e-01
<GCONST> 1.046928e+02
<STATE> 4
<MEAN> 39
 -7.164348e+00 -7.574819e+00 3.131824e+01 -2.085842e+01 -1.632830e+01 -4.400843e+00 -1.171523e+01 9.370058e-02 -3.535671e+00 2.573173e+00 7.889892e+00 -6.768550e+00 6.904105e+01 7.403277e-02 4.495843e-01 8.453339e-01 -2.949608e-01 -1.632150e-01 -1.014357e-01 -6.453447e-01 -8.754674e-02 -2.990113e-01 -3.063643e-01 1.934210e-01 -3.391642e-01 3.143348e-01 -4.124882e-02 1.674417e-01 -3.652381e-01 3.851786e-01 2.791203e-01 8.579116e-02 2.538213e-01 -1.016550e-01 1.527920e-01 -8.052944e-02 -9.462053e-02 4.744640e-02 -3.595235e-01
<VARIANCE> 39
 2.761440e+00 1.900653e+01 1.994584e+01 6.402457e+00 1.465808e+01 1.673615e+01 1.991949e+01 2.659175e+01 1.824865e+01 2.304703e+01 9.520013e+00 1.619908e+01 1.218074e+01 4.535936e-01 1.074787e+00 4.011878e+00 4.283365e+00 3.676848e+00 1.261913e+00 2.317035e+00 1.840837e+00 1.176834e+00 1.117818e+00 1.319084e+00 6.575804e-01 4.658044e+00 6.061755e-02 1.331665e-01 3.499257e-01 5.885210e-01 3.096545e-01 2.262928e-01 2.335500e-01 3.351396e-01 2.796242e-01 1.367865e-01 2.126675e-01 1.296313e-01 3.588901e-01
<GCONST> 9.313871e+01
<TRANSP> 5
 0.000000e+00 1.000000e+00 0.000000e+00 0.000000e+00 0.000000e+00
 0.000000e+00 9.369401e-01 6.305990e-02 0.000000e+00 0.000000e+00
 0.000000e+00 0.000000e+00 6.985231e-01 3.014769e-01 0.000000e+00
 0.000000e+00 0.000000e+00 0.000000e+00 9.539970e-01 4.600305e-02
 0.000000e+00 0.000000e+00 0.000000e+00 0.000000e+00 0.000000e+00
<ENDHMM>
~h "eh"
<BEGINHMM>
<NUMSTATES> 5
<STATE> 2
<MEAN> 39
 4.456260e+00 -1.116641e+01 -1.898769e+00 -1.153145e+01 2.217262e+00 2.224984e+00 -8.439686e+00 1.516766e+00 4.064923e+00 -2.708841e-01 1.447538e+00 -1.080272e+01 6.543615e+01 -6.540988e-02 1.098326e+00 6.572518e-01 1.833963e+00 -6.714100e-03 -1.589044e+00 -1.820394e-01 -1.167135e+00 6.737018e-02 -6.333847e-02 -8.070320e-01 2.377266e-01 -9.433132e-01 -5.022952e-02 1.919248e-02 7.374261e-02 -4.213796e-02 -1.422965e-01 1.585867e-01 -1.260482e-02 5.578496e-02 -1.410721e-02 -2.168186e-01 1.057337e-01 1.181003e-01 2.657369e-02
<VARIANCE> 39
 5.080895e+00 2.567181e+01 2.674470e+01 5.592281e+01 1.993194e+01 6.286166e+01 1.958772e+01 3.228668e+01 2.357118e+01 1.705402e+01 1.713169e+01 1.081945e+01 2.887139e+01 4.003341e-01 5.137983e-01 1.205639e+00 1.302244e+00 2.317955e+00 3.804432e+00 1.603923e+00 3.634135e+00 2.104057e+00 2.202514e+00 1.386292e+00 1.185201e+00 4.388148e-01 8.360264e-02 1.396970e-01 2.117431e-01 2.826498e-01 3.484975e-01 6.065589e-01 2.967741e-01 8.032964e-01 4.980130e-01 2.628091e-01 2.543762e-01 2.232270e-01 1.244141e-01
<GCONST> 9.879860e+01
<STATE> 3
<MEAN> 39
 2.548632e+00 -3.575275e+00 7.368714e+00 2.008824e+00 -1.293345e+00 -6.791852e+00 -1.118602e+01 -4.335620e+00 9.389843e+00 -4.389489e+00 -3.178887e+00 -5.487408e+00 5.930914e+01 -3.426551e-01 4.995395e-01 -4.725263e-02 1.183321e-01 8.197642e-01 -6.593825e-02 -6.647293e-03 6.947080e-02 -4.685874e-01 -1.303460e-01 8.368732e-02 3.065917e-01 -3.533110e-01 -6.440792e-02 -2.208903e-02 -1.494604e-01 -3.928774e-01 3.357779e-01 4.621619e-02 1.241225e-01 3.506570e-01 -3.038580e-01 1.228765e-01 5.908936e-02 -1.223806e-01 3.092837e-02
<VARIANCE> 39
 3.048629e+00 8.583571e+00 1.867768e+01 1.266660e+01 1.479010e+01 1.490062e+01 2.930018e+01 1.455687e+01 2.473565e+01 2.011145e+01 1.993676e+01 1.461112e+01 1.355053e+01 3.346618e-01 6.675810e-01 6.799516e-01 1.427079e+00 1.272224e+00 1.310100e+00 1.363298e+00 1.894187e+00 2.214645e+00 1.170858e+00 1.362130e+00 8.522808e-01 1.900350e-01 5.302965e-02 1.261030e-01 1.377059e-01 1.971947e-01 1.565555e-01 2.413732e-01 2.400296e-01 2.936558e-01 2.605873e-01 1.982993e-01 2.403216e-01 1.493605e-01 4.838980e-02
<GCONST> 8.186131e+01
<STATE> 4
<MEAN> 39
 4.889984e-01 -1.342675e-01 3.790175e+00 -4.194719e+00 9.284791e+00 -7.068118e+00 -8.961445e+00 1.295499e+00 -5.392762e-01 -3.443889e+00 -3.952331e+00 -8.048928e+00 5.624283e+01 -3.535565e-01 5.732872e-01 -2.177526e-01 -8.703294e-02 5.643266e-01 6.069521e-01 1.403478e+00 1.527283e-01 -6.476008e-01 -1.853964e-01 -6.493912e-01 -2.979477e-01 -1.111801e+00 -2.993978e-02 -6.132839e-02 1.185170e-01 5.748353e-01 -5.958719e-01 1.788924e-01 2.042303e-01 -6.465398e-01 3.952460e-01 -1.591625e-01 -8.665874e-03 1.037820e-01 -1.273371e-01
<VARIANCE> 39
 3.991910e+00 7.504710e+00 1.747242e+01 2.281696e+01 1.976451e+01 2.866599e+01 2.951068e+01 4.192785e+01 3.961274e+01 3.234414e+01 2.567044e+01 1.254734e+01 1.537432e+01 5.088950e-01 8.721448e-01 1.589306e+00 4.106045e+00 3.985490e+00 1.545070e+00 2.283717e+00 7.439030e+00 2.793124e+00 1.831079e+00 2.562615e+00 1.559934e+00 6.624349e-01 1.173671e-01 2.019584e-01 3.133086e-01 4.894319e-01 4.331346e-01 2.396218e-01 5.400123e-01 1.238058e+00 4.111138e-01 3.473973e-01 6.043954e-01 3.395835e-01 9.932473e-02
<GCONST> 1.043838e+02
<TRANSP> 5
 0.000000e+00 1.000000e+00 0.000000e+00 0.000000e+00 0.000000e+00
 0.000000e+00 8.017828e-01 1.982172e-01 0.000000e+00 0.000000e+00
 0.000000e+00 0.000000e+00 8.673458e-01 1.326542e-01 0.000000e+00
 0.000000e+00 0.000000e+00 0.000000e+00 7.765594e-01 2.234407e-01
 0.000000e+00 0.000000e+00 0.000000e+00 0.000000e+00 0.000000e+00
<ENDHMM>
~h "sp"
<BEGINHMM>
<NUMSTATES> 3
<STATE> 2
~s "silst"
<TRANSP> 3
 0.000000e+00 4.499525e-01 5.500475e-01
 0.000000e+00 8.917405e-01 1.082595e-01
 0.000000e+00 0.000000e+00 0.000000e+00
<ENDHMM>
~h "sil"
<BEGINHMM>
<NUMSTATES> 5
<STATE> 2
<MEAN> 39
 -1.104863e+01 -2.589621e+00 2.340211e+00 2.356764e+00 3.098446e+00 3.150413e-01 6.346168e+00 1.730007e-01 5.703050e+00 5.872139e-01 2.111921e+00 -1.787494e+00 4.280419e+01 -4.160949e-02 -4.512120e-03 3.644852e-02 5.034554e-02 6.933021e-03 1.447835e-02 -1.669743e-03 -9.841398e-03 8.852541e-03 2.866362e-02 1.702367e-02 2.609707e-02 -6.407696e-02 -2.156456e-04 -4.479721e-03 -6.628002e-03 -2.663843e-02 -1.415496e-02 -2.232892e-02 -1.160657e-02 1.277126e-03 -5.969034e-03 -1.151739e-02 1.307637e-03 6.649962e-04 2.041288e-02
<VARIANCE> 39
 2.785774e+00 3.339934e+00 6.003464e+00 7.821460e+00 9.516002e+00 1.063953e+01 1.156854e+01 1.362213e+01 1.281138e+01 1.282229e+01 1.270491e+01 1.092945e+01 3.068897e+00 1.427273e-01 2.797608e-01 4.551915e-01 6.423303e-01 8.881527e-01 1.073738e+00 1.279483e+00 1.278182e+00 1.298352e+00 1.246019e+00 1.316989e+00 1.188780e+00 7.201235e-02 2.567986e-02 5.297147e-02 8.033229e-02 1.247681e-01 1.741144e-01 2.142711e-01 2.406630e-01 2.396911e-01 2.516381e-01 2.373801e-01 2.645586e-01 2.342651e-01 1.370173e-02
<GCONST> 6.564987e+01
<STATE> 3
~s "silst"
<STATE> 4
<MEAN> 39
 -1.083061e+01 -4.927606e+00 3.765119e-01 -1.082249e+00 2.614254e+00 -5.307245e-01 5.336351e+00 -4.753508e-01 4.199713e+00 -1.303898e+00 1.848906e+00 -2.442692e+00 4.836285e+01 4.507998e-03 -3.668111e-02 5.141167e-02 -8.607070e-02 9.470508e-02 7.365888e-02 -2.537161e-02 -4.272364e-02 -1.472747e-01 -1.082609e-01 -4.706905e-02 -5.956730e-02 1.628172e-01 3.765805e-03 5.892714e-02 4.135978e-02 9.280901e-02 8.091433e-04 4.597742e-03 1.977998e-03 4.668745e-02 3.170357e-02 5.114167e-02 7.283505e-03 2.448121e-02 -9.363793e-02
<VARIANCE> 39
 1.177253e+01 2.148617e+01 2.089717e+01 3.048176e+01 1.740190e+01 1.827796e+01 2.583809e+01 2.092482e+01 2.326281e+01 2.107563e+01 1.594252e+01 1.122970e+01 2.271894e+01 7.950755e-01 2.169409e+00 1.143594e+00 2.885666e+00 1.361665e+00 1.696848e+00 2.374881e+00 1.909786e+00 2.394683e+00 1.822111e+00 1.659031e+00 1.305109e+00 2.927341e+00 1.366882e-01 4.245092e-01 2.198894e-01 5.401699e-01 2.600492e-01 3.531952e-01 4.861957e-01 3.731127e-01 4.664199e-01 3.376690e-01 3.315285e-01 2.701173e-01 5.240999e-01
<GCONST> 1.036569e+02
<TRANSP> 5
 0.000000e+00 1.000000e+00 0.000000e+00 0.000000e+00 0.000000e+00
 0.000000e+00 9.442402e-01 3.673815e-02 1.902162e-02 0.000000e+00
 0.000000e+00 0.000000e+00 8.591804e-01 1.408197e-01 0.000000e+00
 0.000000e+00 8.729319e-02 0.000000e+00 8.290051e-01 8.370168e-02
 0.000000e+00 0.000000e+00 0.000000e+00 0.000000e+00 0.000000e+00
<ENDHMM>
