~o
<STREAMINFO> 1 39
<VECSIZE> 39<NULLD><MFCC_D_A_0><DIAGC>
~s "silst"
<MEAN> 39
 -1.189032e+01 -4.362933e+00 1.069658e+00 1.459412e-01 2.486644e+00 -1.860520e+00 5.736329e+00 1.910442e+00 5.654478e+00 -3.073844e-01 2.374008e+00 -1.082967e+00 4.617664e+01 2.759467e-02 -6.317054e-02 -1.495405e-01 -9.810750e-03 -6.537477e-02 2.429351e-02 9.249599e-03 4.291294e-02 4.917242e-02 8.243347e-02 8.946344e-02 6.073478e-03 -7.569623e-04 2.184706e-02 -3.160635e-02 -3.972244e-02 -7.016588e-02 2.245154e-02 5.512207e-03 -1.359350e-02 -3.620020e-02 -3.364731e-02 -2.093988e-02 -1.023029e-02 -2.391023e-02 1.068783e-01
<VARIANCE> 39
 4.673676e+00 1.358829e+01 1.329367e+01 1.309325e+01 1.243703e+01 1.872162e+01 1.549368e+01 2.493481e+01 1.502828e+01 1.538040e+01 1.361080e+01 1.134219e+01 8.177551e+00 3.137866e-01 5.476086e-01 7.483484e-01 9.629477e-01 1.061057e+00 1.406098e+00 1.490001e+00 1.357556e+00 1.599023e+00 1.381483e+00 1.204830e+00 1.080218e+00 3.382444e-01 6.296667e-02 1.203759e-01 1.392369e-01 2.018207e-01 2.024905e-01 2.944056e-01 3.358249e-01 2.421039e-01 3.166354e-01 2.706757e-01 2.288180e-01 2.329805e-01 8.090892e-02
<GCONST> 8.227979e+01
~h "I"
<BEGINHMM>
<NUMSTATES> 5
<STATE> 2
<MEAN> 39
 -1.360312e+01 1.442218e+01 1.017358e+00 6.519078e+00 8.005254e-02 -1.697663e+01 4.432658e+00 -8.339500e-01 3.898808e+00 -3.908424e+00 4.045307e+00 -3.354419e+00 6.058268e+01 -1.150333e+00 1.735642e+00 -1.779054e-01 9.037725e-01 2.597716e-02 5.627353e-01 2.209176e-01 -7.132085e-02 4.828911e-01 -3.044636e-01 4.472094e-01 1.747687e-01 4.987023e-01 1.233767e-01 -7.021106e-01 2.954703e-01 -2.446826e-01 -1.830469e-02 4.422864e-01 -1.000960e-01 9.660117e-02 -2.633012e-01 8.803741e-04 -1.567849e-01 -4.962778e-02 -3.739071e-01
<VARIANCE> 39
 2.273388e+01 2.187940e+01 1.316601e+01 3.842785e+01 4.050802e+01 2.292109e+01 1.299599e+01 1.307890e+01 1.343299e+01 1.349879e+01 9.236102e+00 1.177381e+01 7.005995e+00 3.641584e+00 4.400774e+00 2.116326e+00 1.179449e+00 2.239175e+00 3.399511e+00 1.850957e+00 1.548576e+00 1.556226e+00 7.525570e-01 8.758019e-01 9.091513e-01 7.219869e-01 2.769615e-01 3.737303e-01 2.516177e-01 2.633863e-01 3.159577e-01 7.494911e-01 2.659430e-01 2.786260e-01 1.916986e-01 1.954630e-01 1.517499e-01 1.520058e-01 1.889125e-01
<GCONST> 9.654942e+01
<STATE> 3
<MEAN> 39
 -1.707866e+01 1.485421e+01 4.984658e+00 6.289021e+00 -9.471687e-01 -1.479355e+01 4.576722e+00 -3.269223e+00 1.995716e+00 -4.133401e+00 4.405587e+00 -2.296327e+00 6.249733e+01 5.800909e-01 -1.401892e+00 2.219018e+00 -1.042912e+00 -1.202701e+00 -2.660967e-01 -1.055519e+00 -5.391709e-01 -5.893455e-01 -1.178670e-02 5.172631e-01 4.768222e-01 8.859932e-01 4.095677e-01 -5.290924e-01 5.699148e-01 -3.756171e-01 -2.444561e-01 5.207316e-02 -4.914865e-01 1.458942e-01 -5.700134e-02 -8.747128e-02 2.095809e-01 1.797390e-02 1.011251e-01
<VARIANCE> 39
 8.244637e+00 1.901783e+01 2.676482e+01 1.947396e+01 3.210952e+01 2.789865e+01 1.182268e+01 1.294652e+01 1.503283e+01 9.113517e+00 1.189328e+01 1.282770e+01 1.019608e+01 3.269103e+00 2.021238e+00 3.694007e+00 1.290244e+00 2.228188e+00 2.303500e+00 3.062471e+00 1.100434e+00 9.976367e-01 9.259425e-01 1.419507e+00 9.151340e-01 4.312592e-01 1.447257e-01 1.274518e-01 2.029580e-01 1.043487e-01 2.313854e-01 5.671614e-01 3.539465e-01 3.509627e-01 2.049238e-01 2.016696e-01 2.504975e-01 2.066318e-01 6.463260e-02
<GCONST> 9.187746e+01
<STATE> 4
<MEAN> 39
 -4.947812e+00 -6.914489e+00 2.361389e+01 -5.980015e+00 -1.387295e+01 -1.319667e+01 -1.073187e+01 2.150406e+00 -2.504712e+00 -6.578416e+00 1.320597e+01 -1.287769e+00 6.839329e+01 1.422559e+00 -1.825437e+00 -1.553389e-01 9.975955e-02 -5.500706e-01 1.733897e-02 -1.134298e+00 8.795367e-01 8.901419e-02 -3.166457e-01 4.117033e-01 -1.117812e-01 -2.910592e-02 -1.328366e-01 3.416685e-01 -8.223291e-01 3.258094e-01 4.391944e-01 4.760806e-02 2.727799e-01 -2.933737e-01 2.410503e-01 1.951758e-01 -3.103412e-01 -1.682209e-02 -2.303383e-01
<VARIANCE> 39
 1.658585e+01 4.261857e+01 4.872594e+01 2.719958e+01 2.277204e+01 2.114466e+01 2.502616e+01 2.619874e+01 2.256329e+01 1.847568e+01 1.316700e+01 1.382080e+01 7.413097e+00 8.480365e-01 1.827098e+00 1.187537e+01 4.794243e+00 3.169721e+00 3.491723e+00 4.122990e+00 2.457922e+00 3.912850e+00 1.174686e+00 2.567837e+00 1.408743e+00 6.987871e-01 1.814874e-01 1.396126e-01 4.646409e-01 4.955789e-01 3.421876e-01 8.802886e-01 6.604608e-01 7.207137e-01 5.440087e-01 2.788577e-01 2.747867e-01 2.513784e-01 5.473784e-02
<GCONST> 1.084325e+02
<TRANSP> 5
 0.000000e+00 1.000000e+00 0.000000e+00 0.000000e+00 0.000000e+00
 0.000000e+00 6.789449e-01 3.210551e-01 0.000000e+00 0.000000e+00
 0.000000e+00 0.000000e+00 8.421117e-01 1.578883e-01 0.000000e+00
 0.000000e+00 0.000000e+00 0.000000e+00 9.008221e-01 9.917787e-02
 0.000000e+00 0.000000e+00 0.000000e+00 0.000000e+00 0.000000e+00
<ENDHMM>
~h "T"
<BEGINHMM>
<NUMSTATES> 5
<STATE> 2
<MEAN> 39
 -1.253925e+01 -2.281790e+00 2.032450e+00 2.591178e+00 3.905634e+00 1.670506e-01 6.526908e+00 1.032830e+00 5.957360e+00 3.161503e-01 2.058937e+00 -1.140715e+00 4.473660e+01 -6.257557e-01 -4.218708e-01 6.666590e-02 3.603213e-01 -4.553976e-02 2.373504e-01 -3.313360e-01 3.807850e-01 2.198349e-01 9.054652e-02 2.078507e-02 -2.326502e-01 3.313471e-01 -5.429269e-02 -8.974430e-02 -1.150012e-01 -1.459921e-01 -3.649695e-02 -3.478687e-02 1.297188e-02 1.707756e-01 3.279351e-02 4.732816e-02 6.238386e-02 -4.048435e-02 1.591493e-01
<VARIANCE> 39
 8.903619e+00 5.353986e+00 2.852940e+00 6.967073e+00 6.455747e+00 1.124908e+01 1.475746e+01 2.106517e+01 1.845607e+01 1.111455e+01 1.168611e+01 6.046259e+00 8.696152e+00 7.124310e-01 3.348671e-01 7.454172e-01 7.190758e-01 8.181108e-01 1.118498e+00 7.765304e-01 2.063691e+00 1.176580e+00 1.391653e+00 1.439940e+00 6.321084e-01 6.150278e-01 7.355057e-02 7.605416e-02 9.293549e-02 1.381086e-01 1.638838e-01 2.480789e-01 1.072991e-01 3.435250e-01 2.621771e-01 3.142107e-01 2.438784e-01 1.404747e-01 3.624609e-02
<GCONST> 7.330651e+01
<STATE> 3
<MEAN> 39
 -1.911841e+01 -7.815227e+00 -1.248505e+00 1.909656e+00 1.976352e-01 -1.811120e+00 -2.916747e-01 5.279720e+00 6.971591e+00 2.120443e+00 5.182481e+00 -2.067904e+00 5.407745e+01 -3.101697e-01 -9.432410e-01 -8.962715e-01 -8.624643e-01 -1.002087e+00 -1.247301e+00 -1.273416e+00 -8.151539e-02 5.278236e-01 6.801849e-01 6.978972e-01 -1.335746e-01 1.544817e+00 2.340273e-01 -1.123184e-01 -8.560854e-02 -1.491129e-01 -8.674118e-02 -2.243975e-01 -1.365525e-01 -1.469470e-01 9.991824e-02 7.151263e-02 3.523296e-02 4.930397e-02 -3.006476e-02
<VARIANCE> 39
 1.977339e+00 7.526189e+00 8.852021e+00 9.676919e+00 1.039972e+01 1.379746e+01 1.954090e+01 1.577944e+01 1.637906e+01 1.595997e+01 1.258476e+01 1.101287e+01 1.368784e+01 4.619513e-01 4.621179e-01 5.530000e-01 9.723527e-01 1.180220e+00 1.718989e+00 8.321460e-01 1.248305e+00 1.481641e+00 1.321727e+00 1.252971e+00 1.304580e+00 2.779721e-01 8.865944e-02 5.666388e-02 1.598701e-01 2.295045e-01 1.829833e-01 2.867959e-01 1.505857e-01 2.370629e-01 3.228537e-01 2.402172e-01 3.166960e-01 2.435527e-01 7.790570e-02
<GCONST> 7.855338e+01
<STATE> 4
<MEAN> 39
 -1.657203e+01 -1.413180e+01 -5.488088e+00 -1.400153e+00 -2.949684e+00 -9.467626e+00 -6.798353e+00 3.710018e+00 1.092852e+01 6.422431e+00 7.523301e+00 -2.734197e+00 6.013567e+01 1.769509e+00 1.632106e-01 1.436021e-01 3.622728e-01 4.208758e-01 -4.555612e-01 -5.916053e-01 -5.795602e-01 -9.308266e-03 -2.083757e-01 -3.451359e-01 1.045517e-01 -1.197590e-01 5.929709e-01 3.502475e-01 2.539346e-01 2.221778e-01 2.121151e-01 1.403354e-01 -1.491710e-01 -2.344726e-01 -2.347665e-01 -4.046233e-01 -1.464424e-01 1.355641e-01 -5.254571e-02
<VARIANCE> 39
 1.488014e+01 5.362726e+00 6.174000e+00 1.064080e+01 9.294720e+00 1.155302e+01 1.006388e+01 1.799236e+01 2.570672e+01 1.084625e+01 1.550459e+01 1.527580e+01 8.119741e+00 3.708579e+00 2.090353e+00 1.197471e+00 1.176604e+00 1.031431e+00 1.482506e+00 1.911859e+00 3.491131e+00 3.402548e+00 2.924097e+00 1.578205e+00 1.220413e+00 1.103534e+00 2.417406e-01 1.653354e-01 1.030111e-01 2.028264e-01 2.043340e-01 3.232606e-01 6.180795e-01 5.826198e-01 4.902756e-01 4.454920e-01 2.922747e-01 3.172298e-01 3.426538e-01
<GCONST> 9.527739e+01
<TRANSP> 5
 0.000000e+00 1.000000e+00 0.000000e+00 0.000000e+00 0.000000e+00
 0.000000e+00 8.601485e-01 1.398515e-01 0.000000e+00 0.000000e+00
 0.000000e+00 0.000000e+00 8.357214e-01 1.642786e-01 0.000000e+00
 0.000000e+00 0.000000e+00 0.000000e+00 8.800598e-01 1.199402e-01
 0.000000e+00 0.000000e+00 0.000000e+00 0.000000e+00 0.000000e+00
<ENDHMM>
~h "e"
<BEGINHMM>
<NUMSTATES> 5
<STATE> 2
<MEAN> 39
 -2.510864e+01 3.710596e+00 -5.920611e+00 -4.182712e+00 2.012855e+00 -1.123942e+01 7.345421e+00 1.395892e+00 8.138172e+00 -1.079491e+00 3.852454e+00 1.007300e+00 6.034638e+01 4.553260e+00 -2.116065e+00 1.825290e+00 -9.260986e-01 -1.467614e+00 -2.063946e+00 -2.507892e+00 1.842168e-01 9.252241e-02 7.555481e-01 -9.140691e-01 -5.361814e-01 1.098111e+00 1.197284e+00 -6.015422e-01 6.430245e-01 -2.764403e-01 -2.992268e-01 -4.435987e-02 -8.537362e-01 3.810031e-01 -5.666919e-02 3.486477e-01 -2.831122e-01 -7.755973e-01 5.842421e-01
<VARIANCE> 39
 1.698556e+01 7.025143e+00 1.304194e+01 1.207403e+01 9.676819e+00 2.067139e+01 1.909028e+01 1.573994e+01 1.062040e+01 1.172056e+01 2.367176e+01 1.096314e+01 5.446238e+00 4.241527e+00 9.042699e-01 1.650338e+00 1.133704e+00 7.269624e-01 1.611736e+00 3.919084e+00 1.107727e+00 9.617146e-01 9.485193e-01 2.309731e+00 2.422558e+00 1.275311e+00 3.706633e-01 9.650955e-02 2.362643e-01 2.138996e-01 1.562131e-01 3.308859e-01 4.698655e-01 4.624288e-01 2.353621e-01 1.480832e-01 3.649266e-01 1.670346e-01 1.901249e-01
<GCONST> 9.145162e+01
<STATE> 3
<MEAN> 39
 -4.309438e+00 -6.750681e+00 2.628675e+00 -9.585670e+00 -5.863698e+00 -1.769343e+01 -5.477170e+00 5.675958e+00 8.309942e+00 3.884632e+00 3.742452e-01 -5.559401e+00 6.931460e+01 3.880394e+00 -3.681697e+00 2.350425e+00 -2.424970e+00 -2.087329e+00 -1.468216e-01 -2.303948e+00 3.562873e+00 8.333471e-01 1.171337e+00 -2.228977e-01 -1.652725e+00 2.698364e+00 -1.425163e+00 2.326653e-01 -5.019102e-01 1.525179e-01 2.667625e-01 9.231296e-01 1.129534e+00 5.553101e-01 2.593220e-01 -5.926718e-01 2.875546e-01 3.480238e-01 -4.386610e-01
<VARIANCE> 39
 9.163529e+00 2.460327e+01 1.069627e+01 1.334069e+01 6.143689e+00 4.649866e+00 2.086921e+01 3.164555e+01 9.890592e+00 1.362462e+01 7.756415e+00 9.521822e+00 1.149499e+01 5.293718e+00 5.294126e-01 1.387384e+00 9.119073e-01 7.516758e-01 2.876323e+00 3.557416e+00 1.428097e+00 1.010373e+00 1.556251e+00 1.348721e+00 6.407303e-01 9.830136e-01 1.782598e-01 2.554333e-01 2.058154e-01 2.583242e-01 1.134624e-01 2.118140e-01 3.974098e-01 5.492542e-01 1.335472e-01 2.378978e-01 2.106259e-01 2.363218e-01 2.694896e-01
<GCONST> 8.846571e+01
<STATE> 4
<MEAN> 39
 1.091386e+00 -1.249724e+01 5.425025e+00 -1.058823e+01 -6.052877e+00 -1.123259e+01 -9.523171e+00 1.152485e+01 9.604328e+00 1.886191e+00 3.647345e+00 -8.254551e+00 6.801337e+01 1.683123e-01 7.325816e-02 5.540305e-02 4.324298e-02 2.988448e-01 2.956526e-01 -2.745050e-01 -5.599925e-02 5.655469e-02 -1.113871e-01 -3.276507e-02 -5.015570e-02 -2.250506e-01 -6.432511e-02 1.770931e-01 -5.384085e-02 1.418528e-01 1.002975e-01 -4.149166e-02 4.762556e-02 -2.137927e-01 -4.263094e-02 -4.747577e-02 -4.244366e-02 5.169350e-02 -1.137601e-01
<VARIANCE> 39
 5.605678e+00 1.668183e+01 1.087425e+01 2.232327e+01 1.435821e+01 1.222378e+01 3.777875e+01 5.098042e+01 7.161770e+00 1.489515e+01 2.317325e+01 7.925757e+00 2.247811e+01 4.489440e-01 1.629378e+00 7.549064e-01 2.245187e+00 1.098541e+00 1.130147e+00 2.035710e+00 4.657593e+00 8.321863e-01 1.657136e+00 2.320689e+00 6.044277e-01 1.312184e+00 1.058429e-01 3.040165e-01 1.864039e-01 4.749362e-01 2.015932e-01 2.060135e-01 3.632818e-01 7.988629e-01 1.667725e-01 3.548148e-01 3.949328e-01 1.353439e-01 2.731689e-01
<GCONST> 9.371253e+01
<TRANSP> 5
 0.000000e+00 1.000000e+00 0.000000e+00 0.000000e+00 0.000000e+00
 0.000000e+00 6.897346e-01 3.102654e-01 0.000000e+00 0.000000e+00
 0.000000e+00 0.000000e+00 6.726726e-01 3.273274e-01 0.000000e+00
 0.000000e+00 0.000000e+00 0.000000e+00 9.520445e-01 4.795547e-02
 0.000000e+00 0.000000e+00 0.000000e+00 0.000000e+00 0.000000e+00
<ENDHMM>
~h "f"
<BEGINHMM>
<NUMSTATES> 5
<STATE> 2
<MEAN> 39
 -7.890684e+00 -2.677603e+00 -7.185492e-01 -6.928145e-01 1.576745e+00 -1.365163e+00 3.916298e+00 -2.164953e+00 2.153779e+00 -9.899426e-03 4.307119e+00 -2.389118e-02 4.796310e+01 1.005417e-01 -6.009462e-01 -1.132524e+00 -1.116286e+00 -1.032466e-01 3.884389e-01 -3.642116e-01 3.064294e-02 -6.657940e-01 -1.789274e-01 5.737714e-01 -7.101146e-02 7.384989e-01 -3.754168e-01 5.609929e-02 6.722941e-02 1.384650e-01 -2.006137e-02 1.609171e-01 -1.914025e-02 1.619258e-01 1.402890e-01 -6.818259e-02 -1.137951e-01 -6.372657e-02 -3.852668e-03
<VARIANCE> 39
 2.203492e+01 1.419917e+01 2.368895e+01 2.619616e+01 1.057663e+01 2.109547e+01 1.770783e+01 1.969154e+01 2.802743e+01 1.294238e+01 1.866151e+01 1.530785e+01 1.911636e+01 2.275034e+00 1.354290e+00 2.067645e+00 2.227373e+00 6.578320e-01 1.560031e+00 1.353757e+00 1.872774e+00 2.940865e+00 1.337667e+00 1.311780e+00 1.688778e+00 1.628136e+00 5.329731e-01 2.424407e-01 5.676860e-01 7.707353e-01 1.765356e-01 3.422706e-01 2.887177e-01 3.244916e-01 7.449920e-01 2.906347e-01 4.289601e-01 4.057016e-01 2.519154e-01
<GCONST> 1.031714e+02
<STATE> 3
<MEAN> 39
 -1.071114e+01 -3.329993e+00 -2.553539e+00 -1.333780e+00 1.770400e+00 5.611296e-01 4.918188e+00 5.743054e-01 2.791525e+00 -1.153141e+00 2.325621e+00 -1.681799e+00 4.912679e+01 -1.140299e+00 -8.445523e-02 2.636204e-01 8.321185e-01 2.353301e-01 4.710261e-01 -3.959993e-01 4.006698e-01 6.907049e-01 -1.417668e-01 -3.138034e-01 -2.033725e-01 -8.959708e-02 -2.236164e-01 -1.174809e-01 1.631863e-01 2.021938e-01 1.516673e-02 -3.017113e-01 -9.893950e-02 1.886883e-01 1.831409e-01 1.119524e-01 1.033219e-01 3.426901e-02 1.366557e-01
<VARIANCE> 39
 1.115989e+01 7.615935e+00 7.152383e+00 1.570828e+01 8.154845e+00 1.892198e+01 1.944423e+01 1.320362e+01 1.752096e+01 1.213897e+01 1.384268e+01 1.429602e+01 9.428502e+00 1.946552e+00 8.708895e-01 9.443079e-01 2.212675e+00 1.057257e+00 1.815467e+00 9.413552e-01 1.535715e+00 1.093326e+00 1.330756e+00 1.418438e+00 1.674216e+00 1.147686e+00 1.858079e-01 1.329081e-01 1.585192e-01 4.082762e-01 1.439594e-01 2.551017e-01 1.933223e-01 2.073201e-01 3.371341e-01 3.407315e-01 3.331168e-01 3.768013e-01 1.012998e-01
<GCONST> 8.849365e+01
<STATE> 4
<MEAN> 39
 -1.821795e+01 -6.373249e+00 -2.652488e+00 1.028977e+00 1.423215e+00 1.119571e-02 6.049608e-01 3.471663e+00 5.547618e+00 8.112435e-02 5.185753e+00 -8.521848e-01 5.320066e+01 -5.207437e-01 -2.820656e-01 -2.375549e-01 -1.982853e-01 -2.319128e-01 -1.452790e-01 -2.693290e-01 1.258489e-01 1.658161e-01 1.852213e-01 2.929966e-01 1.082446e-01 5.757858e-01 1.696920e-01 3.841379e-02 -5.401009e-02 -1.572657e-01 -5.589220e-02 -2.199113e-02 5.378182e-02 -7.982878e-02 -4.767871e-02 -1.782979e-03 -7.215413e-03 6.132171e-03 2.141492e-02
<VARIANCE> 39
 1.004602e+01 6.349454e+00 1.182440e+01 1.085715e+01 1.139169e+01 1.113124e+01 1.509667e+01 1.474431e+01 1.487894e+01 1.227281e+01 1.467189e+01 1.062663e+01 1.130445e+01 5.587543e-01 4.719356e-01 6.763533e-01 1.273683e+00 1.029137e+00 1.124525e+00 1.321625e+00 1.774907e+00 1.782259e+00 1.276364e+00 1.336430e+00 1.027241e+00 3.226159e-01 1.281231e-01 7.653333e-02 1.230322e-01 2.173368e-01 2.097442e-01 2.361193e-01 2.946486e-01 3.557918e-01 3.677317e-01 2.255967e-01 2.606171e-01 1.866462e-01 4.576936e-02
<GCONST> 8.103776e+01
<TRANSP> 5
 0.000000e+00 1.000000e+00 0.000000e+00 0.000000e+00 0.000000e+00
 0.000000e+00 5.831682e-01 4.168318e-01 0.000000e+00 0.000000e+00
 0.000000e+00 0.000000e+00 6.799890e-01 3.200111e-01 0.000000e+00
 0.000000e+00 0.000000e+00 0.000000e+00 9.183196e-01 8.168039e-02
 0.000000e+00 0.000000e+00 0.000000e+00 0.000000e+00 0.000000e+00
<ENDHMM>
~h "i"
<BEGINHMM>
<NUMSTATES> 5
<STATE> 2
<MEAN> 39
 -2.341362e+00 -9.193563e+00 3.139880e+01 -1.069911e+01 -1.824506e+01 -6.745795e+00 -1.245945e+01 -1.633254e+00 -5.863736e+00 -5.116321e+00 1.247495e+01 -4.625463e+00 6.507616e+01 -4.533710e-01 9.454578e-01 5.819163e-01 -8.351213e-01 3.585425e-01 7.080864e-01 -4.028600e-01 -1.234100e-01 1.778172e-01 -9.849176e-02 -2.717816e-01 -5.078948e-01 -3.544972e-01 8.928265e-02 -3.171846e-03 -2.887310e-01 2.275766e-01 7.240747e-02 -1.724351e-01 6.500370e-02 1.133671e-01 5.515820e-02 -1.061162e-01 6.785671e-02 6.874749e-02 -6.400480e-02
<VARIANCE> 39
 6.482729e+00 1.526722e+01 1.644447e+01 2.128979e+01 6.746656e+00 8.533906e+00 1.250681e+01 8.969238e+00 2.357436e+01 1.383172e+01 1.251531e+01 3.492632e+01 6.096599e+00 2.291574e-01 2.002647e-01 1.408392e+00 7.550834e-01 4.539318e-01 9.245652e-01 1.287632e+00 7.544224e-01 7.963932e-01 1.119828e+00 9.807435e-01 5.402306e-01 3.232462e-01 2.701320e-02 2.974075e-02 1.252296e-01 8.290116e-02 1.279753e-01 8.783019e-02 2.792690e-01 1.887836e-01 2.181633e-01 3.770717e-01 1.880604e-01 8.815131e-02 1.833928e-02
<GCONST> 6.906067e+01
<STATE> 3
<MEAN> 39
 -2.680687e+00 -1.972711e+00 2.980212e+01 -1.009779e+01 -1.567525e+01 -4.005868e+00 -1.125055e+01 -1.381730e+00 -2.829451e+00 -5.372579e+00 1.270427e+01 -5.864981e+00 6.103603e+01 1.061834e-02 8.329402e-01 -1.121562e+00 3.899069e-01 6.668437e-01 7.053524e-02 5.412223e-01 -3.914223e-01 -2.599425e-01 2.919306e-02 -3.331066e-01 -1.639533e-01 -7.239969e-01 5.235925e-02 -1.901484e-02 -2.504283e-01 1.741552e-01 1.114108e-01 -4.106405e-02 1.385113e-01 -1.153099e-01 2.458620e-02 7.736338e-02 -1.525711e-01 7.430796e-02 -6.636444e-02
<VARIANCE> 39
 1.202806e+00 8.933074e+00 1.232864e+01 1.119810e+01 9.623333e+00 1.313027e+01 9.809892e+00 2.164041e+01 1.257198e+01 1.484712e+01 1.462829e+01 1.600030e+01 6.875047e+00 1.146267e-01 3.348438e-01 8.144152e-01 6.489850e-01 9.653324e-01 1.308200e+00 1.690716e+00 1.069631e+00 5.865729e-01 1.164078e+00 9.123549e-01 4.376235e-01 1.822670e-01 1.963211e-02 5.425714e-02 8.495446e-02 1.266626e-01 1.283073e-01 3.625094e-01 3.504304e-01 1.825044e-01 1.399684e-01 1.943312e-01 1.254018e-01 7.684968e-02 1.969504e-02
<GCONST> 6.634708e+01
<STATE> 4
<MEAN> 39
 -4.964440e+00 1.291419e+00 1.214044e+01 9.916669e-01 -3.036026e+00 -3.185838e+00 -2.035223e+00 -5.332686e+00 -1.298077e-01 -5.032885e+00 1.971595e+00 -4.139087e+00 4.994118e+01 -3.829527e-01 -3.393089e-02 -1.126771e+00 9.282492e-01 1.047989e+00 2.140000e-01 7.637169e-01 -3.696366e-02 5.229293e-01 1.940375e-01 -7.974600e-01 1.382687e-01 -7.754441e-01 -6.233890e-02 -5.741414e-02 9.182418e-02 -8.150132e-02 -2.476525e-02 3.632839e-02 -3.060956e-02 1.008350e-01 2.300341e-03 2.369010e-02 8.486333e-02 -4.909707e-03 6.612819e-02
<VARIANCE> 39
 8.069073e+00 1.443202e+01 3.512642e+01 2.886265e+01 4.449105e+01 1.669753e+01 2.669625e+01 1.976083e+01 2.653043e+01 1.809859e+01 2.184911e+01 1.657899e+01 1.772004e+01 2.592599e-01 8.053338e-01 1.445410e+00 1.440395e+00 1.696765e+00 1.649486e+00 1.482324e+00 1.485640e+00 1.741301e+00 1.462803e+00 1.123909e+00 1.242776e+00 3.675629e-01 5.039413e-02 1.215135e-01 2.248067e-01 2.590137e-01 3.760798e-01 3.975908e-01 3.192583e-01 2.686337e-01 3.409238e-01 2.727728e-01 2.137525e-01 2.544414e-01 5.054720e-02
<GCONST> 9.186278e+01
<TRANSP> 5
 0.000000e+00 1.000000e+00 0.000000e+00 0.000000e+00 0.000000e+00
 0.000000e+00 8.913279e-01 1.086721e-01 0.000000e+00 0.000000e+00
 0.000000e+00 0.000000e+00 8.504831e-01 1.495169e-01 0.000000e+00
 0.000000e+00 0.000000e+00 0.000000e+00 9.331470e-01 6.685297e-02
 0.000000e+00 0.000000e+00 0.000000e+00 0.000000e+00 0.000000e+00
<ENDHMM>
~h "k"
<BEGINHMM>
<NUMSTATES> 5
<STATE> 2
<MEAN> 39
 -6.304810e+00 -6.633873e+00 7.532517e+00 -1.846131e+00 -8.695925e+00 -1.257346e+01 1.888214e+00 2.119350e-01 -2.908622e+00 -2.583582e+00 6.856306e+00 -4.827728e+00 5.718873e+01 -8.914942e-01 3.777478e-01 -2.220972e+00 7.324874e-01 1.614925e+00 -2.635884e-01 5.992981e-01 -1.686133e-01 1.006023e+00 2.431291e-02 -1.084012e+00 1.075744e+00 -2.913819e-01 -4.311869e-01 1.304011e-01 -1.334670e-01 -1.663110e-01 -8.668111e-02 -2.051348e-01 -9.824124e-03 1.089297e-01 1.343558e-01 -1.195370e-01 9.701309e-02 1.875172e-01 4.042542e-01
<VARIANCE> 39
 1.096909e+01 2.939811e+01 8.761063e+01 3.173329e+01 4.717255e+01 2.234531e+01 1.825429e+01 2.195961e+01 2.564800e+01 2.168041e+01 2.632350e+01 3.141092e+01 2.714656e+01 2.150781e+00 1.525560e+00 3.469387e+00 2.398210e+00 9.061676e-01 3.184479e+00 2.450733e+00 2.473166e+00 1.542937e+00 1.229731e+00 1.657412e+00 2.120483e+00 4.326370e+00 2.515450e-01 4.729146e-01 9.141050e-01 3.581924e-01 2.758290e-01 5.130773e-01 5.729294e-01 3.205194e-01 4.814962e-01 3.162353e-01 3.944630e-01 5.815470e-01 3.960183e-01
<GCONST> 1.130316e+02
<STATE> 3
<MEAN> 39
 -2.185711e+01 6.193265e-01 -8.649887e+00 -1.979831e-02 -6.721268e-01 -1.675816e+01 9.099675e+00 1.724277e+00 2.884179e+00 -6.367640e+00 1.472041e+00 4.406021e-01 6.237800e+01 -2.869823e+00 2.441615e+00 -7.929337e-01 2.652763e-01 6.598163e-01 4.500504e-01 1.619361e+00 1.804059e-01 4.658392e-01 -9.410082e-01 -3.122875e-01 -1.082720e-01 -8.891426e-02 6.744193e-01 -2.001216e-01 5.311760e-01 -1.631977e-01 -1.698870e-02 6.026111e-01 -3.242288e-01 -1.199234e-01 -2.384763e-01 2.488807e-01 1.059332e-01 -1.823891e-01 -4.070176e-01
<VARIANCE> 39
 3.249091e+01 2.720780e+01 4.979834e+01 1.054346e+01 2.232863e+01 3.783876e+01 1.884122e+01 2.140506e+01 1.780212e+01 2.409974e+01 1.213577e+01 8.689996e+00 9.307918e+00 2.860048e+00 2.381595e+00 2.572338e+00 7.582281e-01 1.845022e+00 1.845458e+00 1.731507e+00 2.083174e+00 2.245080e+00 1.454225e+00 9.366557e-01 7.606296e-01 7.581666e-01 3.872322e-01 7.009940e-01 5.202286e-01 1.920319e-01 3.279798e-01 3.664707e-01 4.218026e-01 6.909153e-01 3.337731e-01 3.826963e-01 2.495678e-01 1.714128e-01 1.954368e-01
<GCONST> 1.022756e+02
<STATE> 4
<MEAN> 39
 -2.465327e+01 4.388363e+00 -8.327360e+00 -4.708730e+00 6.621284e+00 -1.110660e+01 1.034316e+01 2.827255e+00 5.073247e+00 -2.408793e+00 1.570014e+00 -6.547455e-01 5.706194e+01 5.542620e-01 -2.393860e-01 2.973878e-01 -2.382576e-01 3.535495e-01 2.446204e-01 -2.692065e-01 -9.948450e-02 2.544039e-04 3.210028e-01 -1.100810e-01 -7.025660e-02 -5.911059e-01 9.807517e-02 -9.040990e-02 5.622873e-02 4.271881e-02 -1.011065e-01 8.411317e-03 -2.902584e-02 -4.283191e-02 -2.062392e-02 -3.680128e-02 -2.836620e-03 -1.906418e-02 -1.556284e-02
<VARIANCE> 39
 2.301583e+01 1.099869e+01 4.720799e+01 2.530741e+01 2.652658e+01 2.234374e+01 1.897713e+01 1.396354e+01 1.552816e+01 2.540907e+01 1.862493e+01 1.506378e+01 2.386673e+01 1.035814e+00 6.472146e-01 7.660353e-01 1.117017e+00 1.312699e+00 1.618454e+00 1.612198e+00 1.639244e+00 1.617702e+00 1.546622e+00 1.297455e+00 1.715023e+00 4.030194e-01 1.118600e-01 1.012122e-01 1.487344e-01 2.130184e-01 2.368086e-01 3.087336e-01 3.464664e-01 2.963910e-01 3.273498e-01 3.203371e-01 2.293094e-01 3.999150e-01 5.948550e-02
<GCONST> 9.273486e+01
<TRANSP> 5
 0.000000e+00 1.000000e+00 0.000000e+00 0.000000e+00 0.000000e+00
 0.000000e+00 8.865288e-01 1.134711e-01 0.000000e+00 0.000000e+00
 0.000000e+00 0.000000e+00 7.778823e-01 2.221176e-01 0.000000e+00
 0.000000e+00 0.000000e+00 0.000000e+00 9.502924e-01 4.970759e-02
 0.000000e+00 0.000000e+00 0.000000e+00 0.000000e+00 0.000000e+00
<ENDHMM>
~h "n"
<BEGINHMM>
<NUMSTATES> 5
<STATE> 2
<MEAN> 39
 -2.171524e+00 -1.683598e+00 5.002685e+00 -4.042428e-01 2.368743e+00 -4.948638e+00 -1.822235e+00 -1.600078e+00 2.497868e+00 -4.269405e+00 -3.297796e+00 -6.147076e+00 5.333128e+01 -6.327557e-01 2.670258e-01 -3.174424e-01 7.419103e-01 4.750600e-01 3.852202e-01 7.332510e-01 -3.956487e-01 -2.117122e-02 3.238826e-02 -1.999280e-01 6.632510e-02 -8.786549e-01 -5.387231e-02 -1.457033e-01 5.836787e-02 -1.102233e-01 4.981594e-03 1.136012e-01 5.475714e-03 1.964851e-01 7.338533e-03 6.894828e-02 1.283154e-01 -2.912624e-02 6.187576e-02
<VARIANCE> 39
 1.375231e+01 1.785983e+01 1.856567e+01 3.058243e+01 4.027386e+01 2.023080e+01 2.597656e+01 3.338623e+01 2.598682e+01 2.079150e+01 2.618649e+01 1.627021e+01 3.281841e+01 5.232226e-01 1.341798e+00 1.018354e+00 3.447119e+00 2.357112e+00 1.529795e+00 2.787536e+00 3.355312e+00 2.002806e+00 1.867585e+00 1.309724e+00 1.124483e+00 7.598578e-01 8.624700e-02 2.168908e-01 1.753096e-01 6.811205e-01 4.528712e-01 2.570387e-01 5.206482e-01 6.443563e-01 4.348836e-01 4.477039e-01 2.629990e-01 2.606983e-01 1.210911e-01
<GCONST> 1.029062e+02
<STATE> 3
<MEAN> 39
 -7.494194e+00 3.521082e-01 5.058718e+00 4.400506e+00 5.474293e+00 6.224316e-01 4.457194e+00 -2.208321e+00 3.208325e+00 -3.337355e+00 -2.052404e+00 -5.135482e+00 4.560174e+01 -5.167897e-01 -2.398009e-01 -8.027712e-02 -1.603838e-02 -3.017453e-02 3.639903e-01 4.021578e-01 2.470960e-01 2.147877e-01 3.028438e-01 4.267812e-01 2.023547e-01 -3.502291e-01 4.801457e-02 -5.434705e-02 -6.780319e-02 -1.342172e-01 5.229349e-03 -7.406077e-02 -1.239244e-01 2.948497e-02 1.819953e-02 1.578441e-02 8.880264e-03 4.252310e-02 1.078103e-01
<VARIANCE> 39
 7.251351e+00 6.045806e+00 8.922444e+00 1.188645e+01 1.287209e+01 1.562962e+01 1.803048e+01 2.127489e+01 1.762016e+01 1.493291e+01 1.760272e+01 1.118582e+01 7.305972e+00 2.942519e-01 4.308062e-01 5.742004e-01 1.031082e+00 9.569685e-01 1.302374e+00 1.641149e+00 1.311713e+00 1.624082e+00 1.445493e+00 1.505386e+00 9.924287e-01 2.111245e-01 5.753260e-02 8.601499e-02 1.235785e-01 2.092903e-01 1.892461e-01 2.679811e-01 3.212846e-01 3.225486e-01 3.401090e-01 2.915255e-01 3.153104e-01 1.889167e-01 3.864733e-02
<GCONST> 7.971937e+01
<STATE> 4
<MEAN> 39
 -9.118109e+00 -4.720188e+00 -6.301347e-01 -1.649869e+00 2.762092e+00 7.991375e-01 4.670893e+00 -2.209827e+00 4.875613e+00 -2.394978e-01 2.604453e-01 -2.019017e+00 4.860865e+01 2.406576e-01 -3.012171e-01 -7.177788e-02 -1.743345e-02 -3.214256e-01 -3.822440e-01 -4.352432e-01 -9.387091e-02 2.244735e-01 4.328878e-02 -8.979683e-02 1.896096e-01 5.557135e-01 1.591162e-01 1.300183e-01 1.715918e-01 1.414665e-01 -1.316535e-01 -2.593126e-01 -9.196864e-02 3.868465e-02 -3.519596e-03 -1.285222e-02 -8.973069e-02 -1.161258e-01 1.190009e-01
<VARIANCE> 39
 1.530092e+01 2.714872e+01 3.573080e+01 3.799783e+01 3.418834e+01 2.815135e+01 2.630095e+01 1.766322e+01 2.579768e+01 1.735798e+01 2.117512e+01 2.013340e+01 2.376826e+01 2.228002e+00 1.639234e+00 3.337835e+00 2.565480e+00 2.239749e+00 2.946436e+00 3.336684e+00 1.955195e+00 2.752450e+00 1.529130e+00 2.300749e+00 2.371883e+00 2.294304e+00 3.256235e-01 3.074511e-01 5.779897e-01 3.740914e-01 3.860827e-01 4.713986e-01 6.176776e-01 2.763208e-01 5.350966e-01 3.107984e-01 3.246864e-01 4.674715e-01 3.800727e-01
<GCONST> 1.124770e+02
<TRANSP> 5
 0.000000e+00 1.000000e+00 0.000000e+00 0.000000e+00 0.000000e+00
 0.000000e+00 7.946867e-01 2.053133e-01 0.000000e+00 0.000000e+00
 0.000000e+00 0.000000e+00 8.863950e-01 1.136050e-01 0.000000e+00
 0.000000e+00 0.000000e+00 0.000000e+00 7.789841e-01 2.210159e-01
 0.000000e+00 0.000000e+00 0.000000e+00 0.000000e+00 0.000000e+00
<ENDHMM>
~h "o"
<BEGINHMM>
<NUMSTATES> 5
<STATE> 2
<MEAN> 39
 8.027993e+00 -1.038929e+01 -6.142699e+00 3.878409e-01 -5.202843e+00 -9.861294e+00 -2.098449e+01 -1.852419e+00 1.131040e+01 1.328976e+00 7.680553e+00 3.655870e+00 6.498207e+01 -2.385782e-01 -4.539992e-01 -9.598075e-02 -4.409203e-01 -7.559840e-01 -3.136310e-01 -2.174812e-01 1.708040e+00 1.120714e+00 6.348745e-01 3.079132e-01 -5.501905e-01 4.350306e-01 -8.599149e-02 -4.179464e-02 2.698101e-01 -1.479161e-01 -6.837845e-02 3.658332e-02 1.763824e-01 1.495000e-01 -3.283935e-01 -3.635333e-02 2.443654e-01 -1.957885e-01 1.615748e-04
<VARIANCE> 39
 3.994309e+00 1.264003e+01 9.891763e+00 6.088829e+00 1.721364e+01 2.301111e+01 2.290938e+01 5.827956e+01 3.027003e+01 1.481614e+01 1.418534e+01 1.493303e+01 1.183986e+01 2.217927e-01 4.980531e-01 1.487073e+00 7.804270e-01 1.085972e+00 9.361190e-01 1.107442e+00 1.630991e+00 3.693404e+00 6.741321e-01 2.063364e+00 1.195156e+00 1.237421e-01 2.658529e-02 1.221086e-01 1.463784e-01 1.186161e-01 2.537985e-01 1.766274e-01 1.565793e-01 3.734809e-01 4.428170e-01 1.354798e-01 2.188514e-01 1.195727e-01 2.022381e-02
<GCONST> 7.900223e+01
<STATE> 3
<MEAN> 39
 6.287188e+00 -8.606699e+00 -3.052004e+00 -1.068956e+01 -6.258029e+00 -6.714601e+00 -1.608785e+01 4.153447e+00 -3.837869e-01 2.809997e+00 1.822516e+01 -1.366517e+00 6.509153e+01 4.647420e-02 8.707637e-01 4.808268e-02 -7.620793e-01 3.646286e-01 4.275814e-01 7.469812e-01 -7.215182e-01 -1.513609e+00 -3.937124e-01 4.408422e-01 1.656218e-01 -5.792320e-01 8.845908e-03 9.018328e-02 -4.557219e-02 1.336149e-01 4.993450e-02 -9.733662e-04 4.854668e-02 -1.525487e-01 7.837640e-02 -4.689744e-02 -1.867202e-01 1.152948e-01 -8.119621e-02
<VARIANCE> 39
 4.703341e+00 2.681953e+01 7.345920e+00 2.720370e+01 1.235408e+01 2.204345e+01 2.879556e+01 4.440070e+01 1.017530e+02 3.531527e+01 2.664118e+01 2.428531e+01 2.211019e+01 1.859422e-01 5.831650e-01 4.092653e-01 6.202663e-01 8.378276e-01 9.787230e-01 1.268105e+00 1.457291e+00 1.233949e+00 2.006433e+00 1.580663e+00 1.094023e+00 1.937536e-01 3.463970e-02 7.654569e-02 6.863611e-02 8.439814e-02 1.768536e-01 1.747402e-01 2.335606e-01 2.554418e-01 2.180037e-01 2.821601e-01 2.364130e-01 1.717955e-01 1.844413e-02
<GCONST> 8.159909e+01
<STATE> 4
<MEAN> 39
 3.101545e-01 2.267451e+00 -7.761573e-01 -5.629403e+00 -1.581740e+00 -3.846357e+00 -2.834089e+00 -7.112871e+00 -4.570579e+00 -2.009469e+00 9.214670e+00 1.237210e+00 5.175454e+01 -9.796389e-01 7.271495e-02 4.579002e-01 1.048218e+00 3.943939e-01 6.851855e-02 7.097344e-01 -1.617747e-01 7.249271e-01 1.009678e-01 -1.077045e+00 -1.483312e-01 -8.543893e-01 -4.513117e-02 -1.297559e-01 2.616967e-02 -1.132538e-02 4.544011e-03 -1.262128e-02 -8.893505e-02 1.614355e-01 7.234927e-02 2.079425e-02 3.683877e-02 -6.293432e-02 6.755456e-02
<VARIANCE> 39
 2.563361e+01 9.642919e+00 1.517238e+01 3.858064e+01 1.270714e+01 1.316323e+01 3.109900e+01 2.494735e+01 4.665175e+01 2.251829e+01 3.650799e+01 1.762418e+01 2.291092e+01 3.655341e-01 8.476798e-01 8.512501e-01 1.256045e+00 1.164064e+00 1.519397e+00 2.105146e+00 2.510169e+00 1.512270e+00 1.649021e+00 2.035146e+00 1.654243e+00 2.588132e-01 6.797332e-02 1.247799e-01 1.564116e-01 3.077584e-01 2.474542e-01 2.986630e-01 3.767499e-01 4.447418e-01 2.960515e-01 3.385604e-01 3.680124e-01 3.528853e-01 4.415473e-02
<GCONST> 9.413831e+01
<TRANSP> 5
 0.000000e+00 1.000000e+00 0.000000e+00 0.000000e+00 0.000000e+00
 0.000000e+00 8.868701e-01 1.131298e-01 0.000000e+00 0.000000e+00
 0.000000e+00 0.000000e+00 9.290520e-01 7.094801e-02 0.000000e+00
 0.000000e+00 0.000000e+00 0.000000e+00 9.237149e-01 7.628510e-02
 0.000000e+00 0.000000e+00 0.000000e+00 0.000000e+00 0.000000e+00
<ENDHMM>
~h "r"
<BEGINHMM>
<NUMSTATES> 5
<STATE> 2
<MEAN> 39
 4.683409e+00 -1.003670e+01 3.691534e+00 2.225631e+00 -3.718181e+00 -1.162401e+01 -1.506917e+01 -1.788867e+00 7.243481e+00 -3.680018e+00 6.910817e+00 9.704406e-01 6.208193e+01 1.576317e+00 7.437421e-02 -8.756347e-01 2.903503e-01 4.975565e-01 8.037330e-01 -9.212815e-01 -1.654114e+00 2.188414e-01 2.594461e-01 -1.274961e-01 3.827890e-01 -1.212875e-01 -6.038511e-01 -4.465343e-02 4.967641e-01 -3.518777e-01 -5.159987e-01 1.658715e-01 5.967112e-01 2.835598e-01 -6.802932e-01 4.703381e-02 4.801481e-01 -5.337634e-02 -6.501058e-03
<VARIANCE> 39
 2.566558e+01 2.841541e+01 3.142015e+01 7.896749e+00 3.239471e+01 3.547923e+01 6.865363e+01 2.502789e+01 2.112955e+01 1.229098e+01 1.331995e+01 1.295682e+01 3.271418e+01 3.591724e+00 1.991759e+00 7.842564e+00 7.039922e-01 5.813122e+00 4.555739e+00 3.021632e+00 8.211738e+00 2.561602e+00 5.397194e+00 2.056034e+00 1.745326e+00 1.376010e+00 3.913783e-01 4.571576e-01 2.605960e-01 1.911900e-01 2.477784e-01 4.268344e-01 4.254192e-01 8.851860e-01 8.843372e-01 3.752508e-01 2.944341e-01 3.041137e-01 5.810544e-02
<GCONST> 1.125600e+02
<STATE> 3
<MEAN> 39
 4.443038e+00 -1.162156e+01 7.383605e+00 2.155877e+00 -8.188506e+00 -1.102857e+01 -1.225479e+01 3.208741e-01 4.150552e+00 -5.493151e+00 1.005496e+01 2.357893e+00 6.189045e+01 -3.844316e-01 1.730175e-01 1.074064e+00 -5.495081e-01 -1.101248e+00 7.760158e-01 1.409088e+00 -5.971792e-01 -2.359739e+00 4.073767e-01 1.200864e+00 9.908425e-02 -1.790501e-01 -1.934257e-01 2.763271e-01 1.005202e-01 -3.084131e-01 2.805914e-02 8.686730e-02 1.801058e-01 -1.504752e-01 -2.552878e-01 1.984095e-01 -8.620694e-02 -9.213063e-02 7.126147e-03
<VARIANCE> 39
 2.482310e+01 3.824884e+01 5.436616e+01 1.177396e+01 4.900218e+01 6.158149e+01 9.430381e+01 4.590221e+01 3.944278e+01 3.326761e+01 2.377364e+01 1.449660e+01 4.367373e+01 1.028907e+00 1.412215e+00 1.051348e+01 1.173596e+00 6.519773e+00 2.583318e+00 2.432827e+00 4.349700e+00 1.854284e+00 2.551826e+00 2.065963e+00 1.496653e+00 5.325865e-01 7.320378e-02 1.719030e-01 2.447568e-01 1.461460e-01 3.842587e-01 6.374344e-01 4.535966e-01 1.301602e+00 5.026900e-01 9.140085e-01 3.564892e-01 3.389708e-01 5.769596e-02
<GCONST> 1.129180e+02
<STATE> 4
<MEAN> 39
 5.440054e+00 -8.891384e+00 3.685579e+00 3.548859e-01 -6.024638e+00 -7.201108e+00 -1.206410e+01 -5.229427e+00 -1.015237e+00 -3.257938e+00 1.090077e+01 2.660133e+00 6.159821e+01 1.194609e-01 7.643790e-01 -1.021232e+00 -4.557492e-01 4.158119e-01 5.924706e-01 -6.509657e-02 -8.742706e-01 -2.893311e-01 2.643137e-01 -3.710497e-01 4.427117e-01 -2.540094e-01 -5.980528e-02 -1.465184e-01 5.820744e-02 -1.862912e-02 -3.637825e-02 -3.866795e-01 -5.075517e-01 4.461730e-01 8.841622e-01 -4.630796e-02 -4.049252e-01 -4.773780e-02 1.753091e-01
<VARIANCE> 39
 2.150336e+01 2.412978e+01 9.475981e+01 7.570257e+00 6.185103e+01 3.570476e+01 8.222824e+01 2.738165e+01 2.905575e+01 1.761389e+01 1.781756e+01 1.042550e+01 3.171979e+01 5.123078e-01 4.794733e-01 3.634976e+00 8.668456e-01 1.147423e+00 1.263963e+00 1.565511e+00 1.422166e+00 2.161156e+00 2.155120e+00 9.036730e-01 1.602090e+00 1.551485e-01 3.662623e-02 1.277447e-01 2.771353e-01 8.454020e-02 4.108774e-01 3.170666e-01 2.949168e-01 3.757342e-01 2.805214e-01 4.196900e-01 2.632546e-01 2.043878e-01 4.640990e-02
<GCONST> 9.431573e+01
<TRANSP> 5
 0.000000e+00 1.000000e+00 0.000000e+00 0.000000e+00 0.000000e+00
 0.000000e+00 6.076612e-01 3.923388e-01 0.000000e+00 0.000000e+00
 0.000000e+00 0.000000e+00 3.325465e-01 6.674535e-01 0.000000e+00
 0.000000e+00 0.000000e+00 0.000000e+00 5.568155e-01 4.431845e-01
 0.000000e+00 0.000000e+00 0.000000e+00 0.000000e+00 0.000000e+00
<ENDHMM>
~h "s"
<BEGINHMM>
<NUMSTATES> 5
<STATE> 2
<MEAN> 39
 -1.103829e+01 -4.522888e+00 -4.238840e-01 -2.188719e+00 3.901990e+00 -1.847450e+00 4.742361e+00 -1.815873e+00 2.714896e+00 -1.825575e+00 6.901315e-01 -7.925882e-01 4.836318e+01 -3.163802e-01 -6.839128e-02 -7.598735e-02 -4.384876e-01 4.338544e-01 -2.422577e-01 1.249487e-01 1.614575e-01 -3.735905e-01 -1.102800e-01 -3.045823e-01 -6.292240e-02 3.296597e-01 -3.278826e-01 2.827397e-01 -1.280906e-01 -9.049112e-02 1.806880e-01 -2.929299e-01 1.693317e-01 2.515892e-02 1.095257e-01 9.933269e-02 1.095687e-01 9.998837e-03 1.584577e-01
<VARIANCE> 39
 1.525718e+01 2.207128e+01 2.601159e+01 1.627451e+01 1.597445e+01 3.452910e+01 3.122856e+01 1.303565e+01 1.946606e+01 1.657270e+01 1.477551e+01 9.864141e+00 1.083033e+01 1.845772e+00 1.602288e+00 1.560504e+00 1.733481e+00 2.399114e+00 4.336747e+00 2.285599e+00 2.509038e+00 2.162727e+00 2.277740e+00 1.349201e+00 1.568465e+00 1.173010e+00 2.038296e-01 2.896698e-01 2.530691e-01 2.084286e-01 3.484997e-01 4.621615e-01 3.093363e-01 3.422440e-01 5.035599e-01 3.323845e-01 2.629217e-01 2.565847e-01 1.370928e-01
<GCONST> 1.013650e+02
<STATE> 3
<MEAN> 39
 -1.600716e+01 3.734389e+00 -1.063464e+00 -4.214185e+00 1.016394e+01 -1.077814e+01 3.402622e+00 -5.926245e-01 2.652087e+00 1.019305e+00 5.300965e-01 -3.191863e+00 5.240336e+01 -3.386785e+00 2.233202e+00 -1.272178e+00 -5.983826e-02 9.892578e-01 -1.075773e+00 1.252619e+00 -3.839882e-01 9.143847e-01 -7.120621e-01 2.498885e-01 3.023729e-01 1.530847e+00 -2.845279e-01 1.261747e-01 -1.185492e-01 4.353243e-01 -5.024862e-01 7.303941e-01 2.760143e-01 -1.169918e-02 1.508415e-01 -4.111216e-01 1.111334e-01 2.311776e-01 -6.779356e-02
<VARIANCE> 39
 5.082155e+01 3.059032e+01 3.849306e+01 2.338430e+01 3.550443e+01 3.637441e+01 7.572879e+01 3.715925e+01 4.631509e+01 4.910084e+01 1.824253e+01 1.962286e+01 1.634812e+01 3.510161e+00 2.163384e+00 1.555090e+00 2.913493e+00 2.533977e+00 5.777457e+00 3.386022e+00 2.660153e+00 2.278906e+00 5.081093e+00 2.357037e+00 1.619136e+00 1.080934e+00 8.677492e-01 6.367076e-01 2.341817e-01 3.596288e-01 4.268021e-01 6.183770e-01 8.542815e-01 7.619243e-01 4.992805e-01 9.617984e-01 2.933553e-01 3.682408e-01 1.387666e-01
<GCONST> 1.198619e+02
<STATE> 4
<MEAN> 39
 -2.900490e+01 8.870318e+00 -6.755833e+00 -1.375388e+00 6.782174e+00 -8.024479e+00 8.481096e+00 -6.091997e-03 5.081795e+00 -2.843755e+00 2.797197e+00 -1.399285e+00 5.756835e+01 -3.197300e-01 -2.027853e-01 -2.733163e-01 -9.973988e-02 -7.231961e-01 8.116517e-02 6.193828e-02 6.976786e-02 1.409854e-01 8.230629e-02 2.633585e-01 9.310660e-02 4.363142e-01 4.506168e-01 -2.423702e-01 2.231715e-01 -1.071693e-01 -1.080913e-01 -1.603666e-01 -1.914165e-01 6.986792e-03 -4.213481e-02 1.257844e-01 -6.255663e-03 1.977541e-02 -2.134662e-02
<VARIANCE> 39
 1.044005e+01 1.285090e+01 1.632405e+01 2.180639e+01 1.806757e+01 1.645991e+01 1.485834e+01 1.270465e+01 1.903266e+01 1.256861e+01 1.254124e+01 1.181068e+01 7.810368e+00 1.476170e+00 9.662741e-01 9.262912e-01 1.383332e+00 1.254694e+00 1.282258e+00 1.770728e+00 1.213414e+00 1.448196e+00 1.283833e+00 1.073777e+00 1.498047e+00 3.619918e-01 2.613354e-01 1.764831e-01 2.465949e-01 2.466276e-01 2.717921e-01 2.661934e-01 3.343828e-01 1.919910e-01 2.940486e-01 2.634113e-01 2.459188e-01 2.881468e-01 8.238610e-02
<GCONST> 8.889049e+01
<TRANSP> 5
 0.000000e+00 1.000000e+00 0.000000e+00 0.000000e+00 0.000000e+00
 0.000000e+00 7.763296e-01 2.236704e-01 0.000000e+00 0.000000e+00
 0.000000e+00 0.000000e+00 6.342052e-01 3.657947e-01 0.000000e+00
 0.000000e+00 0.000000e+00 0.000000e+00 8.949451e-01 1.050549e-01
 0.000000e+00 0.000000e+00 0.000000e+00 0.000000e+00 0.000000e+00
<ENDHMM>
~h "t"
<BEGINHMM>
<NUMSTATES> 5
<STATE> 2
<MEAN> 39
 -6.971443e+00 3.617938e+00 2.222781e+01 -6.985839e+00 -6.861814e+00 -1.528029e+00 -7.495317e+00 -5.684805e+00 -2.255849e+00 -5.182344e+00 2.806133e+00 -1.090777e+01 5.341840e+01 9.237393e-03 1.840856e-02 -1.640312e+00 1.590547e+00 8.713045e-01 7.884986e-01 5.235167e-01 -1.155223e+00 7.337068e-01 -5.557017e-01 -6.427839e-01 2.033789e-01 -1.490535e+00 -2.135102e-01 -2.492389e-01 -1.602587e-01 -2.865259e-01 1.637034e-01 -1.826763e-01 -4.906337e-03 2.791936e-01 -3.410325e-02 8.477356e-02 1.624089e-01 1.424219e-01 4.320775e-01
<VARIANCE> 39
 6.547505e+00 1.291061e+01 3.421884e+01 2.687577e+01 1.751314e+01 3.071606e+01 2.329553e+01 3.131586e+01 2.098932e+01 2.032798e+01 2.289149e+01 1.567201e+01 2.914470e+01 7.838387e-01 1.490226e+00 1.898028e+00 2.137369e+00 1.758592e+00 2.812181e+00 4.227118e+00 2.309698e+00 2.085303e+00 1.450129e+00 1.705408e+00 1.927372e+00 1.151417e+00 1.955935e-01 2.442452e-01 6.344779e-01 3.728550e-01 3.265171e-01 7.773685e-01 1.130072e+00 4.593436e-01 4.750206e-01 3.479729e-01 3.231651e-01 4.583902e-01 3.471649e-01
<GCONST> 1.077226e+02
<STATE> 3
<MEAN> 39
 -1.115708e+01 2.241794e-01 8.776825e+00 -2.670199e+00 2.592485e+00 -2.236626e+00 -8.817100e-01 -4.533180e+00 1.924548e+00 -5.509302e+00 2.441915e+00 -6.451537e+00 5.339031e+01 -2.929138e+00 -7.728376e-01 -5.197880e+00 -1.203236e+00 8.418872e-01 -2.696034e+00 2.655267e+00 1.453276e+00 1.503638e+00 1.055408e+00 1.067760e+00 2.108974e+00 3.853630e+00 -5.969905e-01 4.442658e-01 -3.393295e-01 -2.246928e-01 -6.514981e-01 -3.129803e-01 2.077906e-01 9.673136e-02 -1.183575e-03 3.142995e-01 5.359625e-02 7.666690e-02 5.000073e-01
<VARIANCE> 39
 2.136870e+01 1.467283e+01 6.167552e+01 2.027369e+01 2.144177e+01 4.872945e+01 2.244615e+01 3.098641e+01 1.741344e+01 1.734213e+01 1.632942e+01 2.160700e+01 4.116131e+01 1.234933e+00 1.233735e+00 7.488661e+00 2.895911e+00 3.460275e+00 2.651763e+00 3.722844e+00 1.992655e+00 1.390518e+00 2.422326e+00 1.361113e+00 1.626721e+00 2.444928e+00 2.551546e-01 4.435069e-01 1.330983e+00 5.102949e-01 2.188059e-01 9.747984e-01 3.791711e-01 3.710199e-01 3.867339e-01 3.571066e-01 2.977798e-01 4.786592e-01 1.018243e+00
<GCONST> 1.139861e+02
<STATE> 4
<MEAN> 39
 -2.193975e+01 1.652877e+00 -4.272090e+00 -6.566224e+00 3.519193e+00 -1.138151e+01 9.256987e+00 3.017475e+00 4.498127e+00 -5.285982e-01 2.626851e+00 -3.162488e-01 6.049686e+01 2.567289e-01 1.410888e-02 4.527849e-02 1.093959e-01 7.859389e-02 -3.862908e-01 3.905374e-01 5.236902e-01 -1.969822e-02 1.544199e-01 -3.252834e-01 1.706152e-01 -7.298750e-01 4.137844e-01 -5.682127e-02 4.203018e-01 2.050378e-01 -1.279707e-02 2.356270e-01 -3.024009e-01 -2.408347e-01 -6.998956e-02 -1.554076e-01 -9.412266e-02 -1.507779e-01 -4.070521e-01
<VARIANCE> 39
 1.808855e+01 1.472273e+01 1.616206e+01 1.535879e+01 2.069828e+01 1.858905e+01 2.313865e+01 3.122997e+01 1.425965e+01 1.515062e+01 1.712773e+01 1.099454e+01 2.093718e+01 4.043262e+00 1.832981e+00 2.516476e+00 1.930370e+00 1.739126e+00 2.443385e+00 2.612046e+00 3.132565e+00 1.297183e+00 1.917331e+00 1.385085e+00 1.325672e+00 1.985447e+00 3.284496e-01 3.469877e-01 6.290890e-01 3.282620e-01 3.390017e-01 3.951557e-01 3.764103e-01 5.468668e-01 3.127791e-01 3.977855e-01 3.193245e-01 2.912576e-01 3.043053e-01
<GCONST> 1.053148e+02
<TRANSP> 5
 0.000000e+00 1.000000e+00 0.000000e+00 0.000000e+00 0.000000e+00
 0.000000e+00 8.691846e-01 1.308155e-01 0.000000e+00 0.000000e+00
 0.000000e+00 0.000000e+00 6.752619e-01 3.247381e-01 0.000000e+00
 0.000000e+00 0.000000e+00 0.000000e+00 9.143994e-01 8.560061e-02
 0.000000e+00 0.000000e+00 0.000000e+00 0.000000e+00 0.000000e+00
<ENDHMM>
~h "u"
<BEGINHMM>
<NUMSTATES> 5
<STATE> 2
<MEAN> 39
 1.527457e+00 -6.074714e+00 1.549300e+01 1.951850e+00 -5.173331e+00 -2.171576e+01 -2.045222e+01 1.105295e+01 -2.503601e-01 -1.330449e+01 1.674770e+01 -5.170683e+00 6.391101e+01 9.501470e-01 -6.375428e-02 -8.157135e-02 3.114352e-02 5.076131e-01 -1.367860e-01 -1.524233e+00 4.144824e-01 3.572956e-01 -1.063683e-02 5.892168e-01 -7.435921e-01 6.798601e-02 -3.733445e-01 1.098007e-01 -2.943456e-01 -4.173416e-01 1.483286e-01 4.847593e-01 3.052171e-01 -7.434152e-02 2.974853e-03 3.415768e-01 -1.016241e-01 -1.635097e-01 -1.076888e-01
<VARIANCE> 39
 3.068385e+00 2.478655e+00 8.110284e+00 4.992908e+00 8.110852e+00 6.755897e+00 1.985424e+01 1.206339e+01 7.020196e+00 6.020555e+00 8.069847e+00 1.492938e+01 1.119175e+00 1.610865e+00 8.489782e-01 1.914734e+00 2.082699e+00 4.539565e-01 3.872774e+00 2.039051e+00 2.044512e+00 4.515055e-01 2.235370e+00 1.661284e+00 7.476066e-01 5.273394e-01 3.610136e-01 7.169587e-02 2.146775e-01 2.495640e-01 8.109258e-02 2.453175e-01 1.585797e-01 3.317266e-01 1.727755e-01 9.923950e-02 3.466699e-01 1.325001e-01 5.219705e-02
<GCONST> 7.526928e+01
<STATE> 3
<MEAN> 39
 5.534898e+00 9.721314e-01 7.746367e+00 -3.171813e+00 1.105598e+00 -9.745196e+00 -2.112732e+01 1.323952e+00 -3.042878e+00 -5.751552e+00 1.895803e+01 -7.437246e+00 5.811414e+01 -3.646070e-02 7.975997e-01 -7.173420e-01 4.803757e-01 5.408629e-01 1.181968e+00 1.418728e+00 -1.594961e+00 -1.217780e-01 2.327600e-01 -3.240493e-01 7.858101e-01 -7.847107e-01 -1.384298e-01 -5.101139e-02 1.754530e-02 2.519551e-01 2.226195e-02 -1.980336e-02 2.253750e-01 -3.759772e-02 -2.985442e-03 -5.289895e-02 -2.563114e-01 1.222087e-01 -2.493464e-02
<VARIANCE> 39
 1.488303e+00 1.536679e+01 8.858955e+00 6.281343e+00 2.275115e+00 1.158806e+01 2.763871e+01 4.287765e+01 1.043423e+01 3.639656e+00 3.867260e+00 1.983422e+01 8.817294e+00 4.691372e-01 2.822115e-01 2.867328e-01 1.533660e+00 5.251880e-01 4.110219e-01 1.657231e+00 6.466490e-01 1.614562e+00 7.820362e-01 1.033877e+00 1.131292e+00 8.247438e-02 5.071926e-02 7.142179e-02 6.759591e-02 1.086071e-01 9.459159e-02 8.397825e-02 1.023958e-01 1.165479e-01 3.034816e-01 1.437738e-01 1.425271e-01 2.399266e-01 1.257343e-02
<GCONST> 6.223417e+01
<STATE> 4
<MEAN> 39
 -5.915425e+00 -9.161411e-02 5.076810e+00 6.276007e+00 6.565007e+00 -1.302278e-01 2.591954e+00 -2.514349e+00 3.681598e+00 -8.961769e-01 2.175636e+00 -3.224429e+00 4.742471e+01 -6.128970e-01 -7.322583e-01 -3.105086e-01 -2.245766e-01 -8.400959e-02 1.727415e-01 7.787465e-01 7.996532e-01 4.531099e-02 2.251168e-01 -4.275317e-01 -1.886501e-01 6.289310e-02 8.336605e-02 2.149039e-02 3.148911e-02 -8.657172e-02 -6.950510e-02 -4.272003e-02 -1.337415e-01 2.172159e-02 -8.283905e-03 2.176863e-03 1.676175e-01 -2.116216e-02 9.460566e-03
<VARIANCE> 39
 2.227417e+01 2.665587e+01 2.473332e+01 1.672815e+01 6.226701e+00 7.460307e+00 3.810861e+01 4.098609e+01 2.408432e+01 1.132690e+01 1.356609e+01 1.156852e+01 1.502382e+01 3.517550e-01 1.376570e+00 2.185487e+00 1.875710e+00 8.424518e-01 8.556727e-01 1.580322e+00 1.651716e+00 3.485710e+00 7.240304e-01 2.094735e+00 6.277089e-01 1.796615e+00 5.208622e-02 3.289140e-01 4.214835e-01 3.408865e-01 1.871617e-01 2.097520e-01 4.104730e-01 4.744059e-01 7.670677e-01 9.112440e-02 1.914139e-01 9.624258e-02 3.257025e-01
<GCONST> 9.310098e+01
<TRANSP> 5
 0.000000e+00 1.000000e+00 0.000000e+00 0.000000e+00 0.000000e+00
 0.000000e+00 9.165950e-01 8.340503e-02 0.000000e+00 0.000000e+00
 0.000000e+00 0.000000e+00 9.167379e-01 8.326213e-02 0.000000e+00
 0.000000e+00 0.000000e+00 0.000000e+00 9.575957e-01 4.240430e-02
 0.000000e+00 0.000000e+00 0.000000e+00 0.000000e+00 0.000000e+00
<ENDHMM>
~h "v"
<BEGINHMM>
<NUMSTATES> 5
<STATE> 2
<MEAN> 39
 2.145949e+00 -1.922191e+01 4.701579e+00 -1.252163e+01 -6.403351e+00 -9.993254e+00 -6.666247e+00 1.810194e+01 8.645181e+00 -1.418756e+00 3.061280e+00 -7.727406e+00 6.983994e+01 -3.269910e-01 1.172825e+00 1.616313e+00 8.689739e-01 -1.156882e+00 -1.799516e+00 3.320255e-01 3.906675e-02 -9.594054e-01 -4.490148e-01 9.182288e-01 1.160484e+00 -6.423922e-01 4.978873e-02 2.673280e-01 2.766549e-01 1.512971e-01 -1.632936e-01 3.338241e-01 -7.835648e-02 -9.377510e-01 -4.680853e-01 2.254549e-01 4.238858e-01 -2.276104e-02 -2.551511e-01
<VARIANCE> 39
 4.564070e+00 4.911325e+01 1.070212e+01 3.572325e+00 3.116541e+01 1.818370e+01 2.771597e+01 3.136493e+01 1.793816e+01 1.409162e+01 2.066204e+01 7.937377e+00 1.213296e+01 4.205289e-01 3.140576e-01 1.603757e+00 1.723061e+00 2.362079e+00 3.405685e+00 6.549755e-01 5.467001e+00 1.513040e+00 1.580791e+00 2.707288e+00 7.716493e-01 6.300666e-01 6.194095e-02 8.957737e-02 1.363750e-01 3.699625e-01 2.449308e-01 3.537113e-01 2.005409e-01 2.472920e-01 1.810972e-01 1.774324e-01 3.621479e-01 9.584666e-02 5.323213e-02
<GCONST> 8.710593e+01
<STATE> 3
<MEAN> 39
 1.244964e+00 -1.320996e+01 1.189664e+01 -7.778277e+00 -9.621577e+00 -1.547659e+01 -7.179460e+00 1.410976e+01 1.285868e+00 -1.478543e+00 1.036492e+01 -3.761408e+00 6.556052e+01 4.590398e-02 1.619277e+00 -3.716214e-01 2.004481e+00 7.811160e-01 -2.244918e-01 7.700245e-02 -1.481953e+00 -1.933270e-01 -3.042966e-01 -2.584455e-01 1.163143e-01 -1.383745e+00 -4.064908e-02 2.495829e-02 -3.189642e-01 1.586450e-01 1.955646e-01 1.972077e-01 1.291028e-01 -6.598584e-02 2.901430e-01 -2.034093e-02 -4.141958e-01 -1.654129e-01 -8.067372e-02
<VARIANCE> 39
 3.186276e+00 2.089894e+01 2.520740e+01 3.315462e+01 3.681685e+01 2.413086e+01 1.830944e+01 2.244191e+01 3.916175e+01 1.074478e+01 3.601688e+01 1.113516e+01 1.726874e+01 4.708402e-01 4.615239e-01 3.455287e+00 1.509026e+00 1.692236e+00 1.104219e+00 1.181417e+00 2.701272e+00 2.560684e+00 8.741768e-01 1.728841e+00 1.186319e+00 3.283788e-01 1.240891e-01 6.359908e-02 4.095344e-01 2.829214e-01 3.430051e-01 3.703698e-01 2.053584e-01 4.445269e-01 3.885603e-01 2.534472e-01 1.867131e-01 2.492857e-01 3.491784e-02
<GCONST> 9.242382e+01
<STATE> 4
<MEAN> 39
 -3.470875e+00 -3.429070e+00 4.039543e+00 1.208946e+00 -1.362182e-01 -9.732425e+00 -8.119526e-01 4.684845e+00 5.220744e+00 -1.847889e+00 1.062995e+00 -5.362715e+00 5.604509e+01 -4.277510e-01 5.125595e-01 -1.016068e-01 5.373375e-01 2.498211e-01 6.888573e-01 5.328285e-01 -9.443116e-01 2.692567e-01 6.023777e-02 -6.889372e-01 2.719658e-04 -9.374742e-01 1.055353e-02 -1.789754e-01 8.244294e-02 -1.990612e-01 -1.032213e-01 -2.195398e-02 -1.129419e-01 1.164059e-01 -5.378919e-02 7.277072e-02 1.666731e-01 5.565115e-02 1.263607e-01
<VARIANCE> 39
 2.779050e+01 9.957339e+00 9.104536e+00 1.305630e+01 1.756649e+01 2.234235e+01 3.010327e+01 2.659999e+01 1.454158e+01 1.888338e+01 1.635172e+01 9.006884e+00 1.625586e+01 1.447421e+00 6.364943e-01 8.929405e-01 2.166450e+00 1.676356e+00 1.627737e+00 1.819260e+00 2.718162e+00 1.490877e+00 1.503888e+00 1.701357e+00 8.422775e-01 4.366230e-01 2.178939e-01 1.095853e-01 1.907711e-01 2.385720e-01 2.610927e-01 2.162856e-01 3.220985e-01 6.374484e-01 3.071602e-01 2.810276e-01 2.761662e-01 1.398720e-01 8.261043e-02
<GCONST> 9.217203e+01
<TRANSP> 5
 0.000000e+00 1.000000e+00 0.000000e+00 0.000000e+00 0.000000e+00
 0.000000e+00 5.901009e-01 4.098991e-01 0.000000e+00 0.000000e+00
 0.000000e+00 0.000000e+00 7.344016e-01 2.655984e-01 0.000000e+00
 0.000000e+00 0.000000e+00 0.000000e+00 8.206248e-01 1.793753e-01
 0.000000e+00 0.000000e+00 0.000000e+00 0.000000e+00 0.000000e+00
<ENDHMM>
~h "w"
<BEGINHMM>
<NUMSTATES> 5
<STATE> 2
<MEAN> 39
 -1.045252e+01 -2.369767e+00 2.382663e+00 2.288590e+00 4.079273e+00 -1.179323e+00 3.601638e+00 -1.929075e+00 4.481806e+00 -2.120925e-01 1.534541e+00 -2.230909e+00 4.666924e+01 -9.190652e-02 -1.469810e-01 2.434020e-02 2.655922e-02 -5.723666e-02 1.597103e-01 2.953425e-02 8.489045e-02 1.391064e-01 1.106313e-01 6.361962e-02 -2.479030e-02 -1.460165e-01 8.111075e-02 4.853904e-02 1.419072e-02 -7.245928e-02 -1.042976e-01 -1.065899e-01 -3.200278e-02 3.318335e-02 3.016038e-03 2.531050e-03 5.028007e-02 -4.153416e-03 1.912358e-02
<VARIANCE> 39
 7.552041e+00 2.267989e+01 1.409162e+01 1.376776e+01 1.974724e+01 1.819935e+01 1.182430e+01 1.842994e+01 1.595944e+01 1.997682e+01 1.508391e+01 1.283189e+01 2.136033e+01 9.948462e-01 6.308652e-01 9.714114e-01 7.660648e-01 1.504035e+00 2.000364e+00 8.517383e-01 1.589150e+00 2.196779e+00 1.928595e+00 2.024664e+00 1.857020e+00 5.806812e-01 2.208912e-01 1.225677e-01 1.702285e-01 1.791879e-01 2.910545e-01 4.244348e-01 1.810525e-01 3.459039e-01 5.009490e-01 4.494121e-01 4.672451e-01 3.037449e-01 1.105745e-01
<GCONST> 9.270964e+01
<STATE> 3
<MEAN> 39
 -8.580975e+00 -8.787744e-01 3.568471e+00 3.710451e-01 1.914464e-01 -1.386424e+00 3.865351e+00 -1.225933e+00 4.431579e+00 -7.746405e-01 1.365152e+00 -1.845541e+00 4.588119e+01 2.732453e+00 1.805955e+00 -3.161240e-02 -2.674474e+00 -2.872973e+00 -2.649756e+00 -1.857557e+00 4.676711e-01 -3.576744e-01 -9.550382e-01 7.770380e-01 -7.372189e-01 1.773189e+00 1.131439e+00 3.990743e-01 -1.692164e-01 -1.059632e+00 -8.359768e-01 -5.380102e-01 -5.144827e-01 3.288701e-01 -1.950437e-01 -2.648764e-01 4.923199e-01 -3.104473e-01 7.892115e-01
<VARIANCE> 39
 1.385489e+01 1.057639e+01 4.642176e+00 1.124264e+01 1.736978e+01 2.038725e+01 1.340019e+01 1.317766e+01 1.123221e+01 1.051925e+01 7.788104e+00 1.390220e+01 1.009719e+01 4.272285e+00 1.190594e+00 7.506573e-01 4.421001e+00 3.289392e+00 2.731852e+00 1.773460e+00 1.417608e+00 1.034782e+00 1.903832e+00 1.841764e+00 1.821605e+00 1.865448e+00 2.398165e-01 1.736495e-01 8.343451e-02 3.678941e-01 2.949522e-01 4.488386e-01 2.938393e-01 3.058178e-01 1.567249e-01 2.339753e-01 3.787083e-01 4.300254e-01 9.401681e-02
<GCONST> 9.330869e+01
<STATE> 4
<MEAN> 39
 6.862535e+00 -5.791852e+00 -1.755682e+00 -2.185866e+01 -9.768963e+00 5.396364e+00 -3.864993e+00 9.262294e+00 9.151322e-02 -6.575641e+00 1.148870e+01 -9.351321e+00 6.564984e+01 2.234700e-01 -7.251191e-01 -2.904786e-01 -4.246118e-01 3.126859e-01 7.244723e-01 -2.610323e-01 1.719536e-01 6.451244e-02 9.552125e-02 6.306884e-02 -2.861578e-01 6.786548e-01 -1.684830e-01 -4.463190e-02 6.402519e-03 2.062952e-01 1.933078e-01 -9.110430e-03 5.913578e-02 -4.223033e-02 2.180274e-02 1.008907e-01 -1.054136e-01 3.947972e-02 -1.296460e-01
<VARIANCE> 39
 5.385908e+00 1.070089e+02 2.229185e+01 2.915732e+01 3.317598e+01 1.346797e+02 2.048731e+01 3.371243e+01 1.812775e+01 1.314786e+01 2.517700e+01 2.270780e+01 3.549199e+01 1.643972e+00 1.723382e+00 1.002421e+00 2.712471e+00 2.218759e+00 3.102566e+00 2.212867e+00 2.223464e+00 1.364758e+00 1.458546e+00 1.937775e+00 1.166168e+00 9.590881e-01 1.851975e-01 1.948244e-01 1.355991e-01 2.549015e-01 2.832908e-01 4.617363e-01 3.863587e-01 2.780626e-01 2.158576e-01 2.065404e-01 2.167822e-01 2.016291e-01 7.666381e-02
<GCONST> 1.021102e+02
<TRANSP> 5
 0.000000e+00 1.000000e+00 0.000000e+00 0.000000e+00 0.000000e+00
 0.000000e+00 9.115944e-01 8.840561e-02 0.000000e+00 0.000000e+00
 0.000000e+00 0.000000e+00 6.984902e-01 3.015099e-01 0.000000e+00
 0.000000e+00 0.000000e+00 0.000000e+00 9.623122e-01 3.768783e-02
 0.000000e+00 0.000000e+00 0.000000e+00 0.000000e+00 0.000000e+00
<ENDHMM>
~h "z"
<BEGINHMM>
<NUMSTATES> 5
<STATE> 2
<MEAN> 39
 -1.132732e+01 -5.605287e-01 2.736282e+00 -2.645461e-01 6.472098e-01 -5.905985e+00 3.664658e+00 -1.004008e+00 3.538621e+00 2.933622e-01 1.005232e+00 -2.553912e+00 4.665494e+01 4.709613e-01 -2.645614e-01 -1.362893e-01 -4.357118e-01 -2.152477e-01 -1.117912e+00 -4.346205e-01 6.306507e-01 2.556081e-01 5.610251e-01 9.617062e-03 -1.945686e-01 3.745299e-01 1.254188e-01 2.575636e-01 3.295298e-02 3.117697e-02 4.708792e-02 -6.395037e-01 3.840365e-02 -2.716050e-02 -3.025248e-01 -2.326334e-01 -2.308936e-02 -2.021436e-02 6.103598e-01
<VARIANCE> 39
 7.957247e+00 1.276484e+01 1.984759e+01 1.984253e+01 2.244399e+01 5.619836e+01 2.189491e+01 2.320840e+01 2.898089e+01 1.497753e+01 1.725427e+01 6.482979e+00 1.602641e+01 1.277710e+00 1.132745e+00 2.212344e+00 3.576456e+00 2.286468e+00 4.363429e+00 2.920135e+00 2.515825e+00 2.974354e+00 2.432130e+00 1.840856e+00 7.338252e-01 2.267304e+00 2.493815e-01 3.656687e-01 2.152428e-01 4.309897e-01 5.103122e-01 9.286731e-01 4.855357e-01 3.884763e-01 3.506126e-01 3.211122e-01 3.591095e-01 1.380952e-01 2.196873e-01
<GCONST> 1.051493e+02
<STATE> 3
<MEAN> 39
 -7.453781e+00 -5.535839e+00 -2.285693e+00 -6.004946e+00 1.131540e+00 -8.628962e+00 7.113759e-01 4.240018e+00 7.304760e+00 2.265247e+00 -3.109117e-01 -4.908093e+00 5.056784e+01 6.692311e-01 1.066361e+00 5.400597e-01 3.064798e-01 6.932702e-02 -1.892459e+00 -1.086306e-01 -6.089213e-02 -5.843940e-01 -6.433724e-01 -1.881202e-02 -2.170627e-01 1.309610e+00 -8.830918e-02 8.450140e-01 1.788337e-01 5.513123e-01 -1.638496e-01 -4.096011e-01 1.557848e-01 -3.918110e-01 -1.497009e-01 -4.213437e-01 2.215718e-01 3.104825e-02 3.930849e-01
<VARIANCE> 39
 2.152510e+01 4.205184e+01 8.971060e+01 7.822019e+01 1.708159e+01 4.935832e+01 3.070403e+01 3.166591e+01 6.898067e+01 2.218219e+01 8.405844e+00 1.334796e+01 2.695797e+01 1.484154e+00 3.018859e+00 2.348047e+00 2.709369e+00 2.116548e+00 8.896672e+00 3.420258e+00 2.129511e+00 2.555946e+00 1.919723e+00 1.195049e+00 1.357978e+00 3.132168e+00 1.978377e-01 3.207643e-01 3.666165e-01 3.396019e-01 3.204051e-01 1.041470e+00 4.422482e-01 3.964833e-01 3.509383e-01 4.138805e-01 1.871940e-01 2.251173e-01 4.845374e-01
<GCONST> 1.142935e+02
<STATE> 4
<MEAN> 39
 -6.363792e+00 4.609885e+00 4.869182e+00 1.959361e+00 -7.501111e-01 -1.730692e+01 1.079468e+00 7.204888e-01 -2.894875e-01 -3.853501e+00 1.320483e+00 -5.493250e+00 5.649249e+01 -4.784539e-01 3.232563e+00 -1.443996e-01 1.748416e+00 -5.366835e-01 -2.301975e+00 2.660854e-01 -3.292203e-01 -9.140017e-02 -8.064292e-01 6.330466e-01 -5.347054e-02 2.607652e+00 -6.258578e-01 2.845713e-01 -3.925572e-01 2.226027e-01 2.186074e-01 8.275723e-01 2.311428e-01 2.313898e-02 5.229767e-01 2.826800e-01 9.411658e-02 1.454616e-01 -3.077755e-01
<VARIANCE> 39
 1.529793e+01 3.094191e+01 1.079501e+01 1.945611e+01 2.369172e+01 3.138138e+01 2.410283e+01 2.650208e+01 1.644698e+01 1.347414e+01 1.040160e+01 1.894464e+01 2.176840e+01 2.582306e+00 2.251666e+00 1.607302e+00 1.487626e+00 1.536577e+00 6.969694e+00 1.832534e+00 1.948031e+00 2.546861e+00 2.227188e+00 9.930801e-01 9.496537e-01 1.437919e+00 3.653722e-01 6.627715e-01 2.467885e-01 3.109375e-01 2.918696e-01 9.498717e-01 3.742995e-01 3.171685e-01 3.698021e-01 2.599090e-01 2.261828e-01 1.912611e-01 2.758147e-01
<GCONST> 1.041657e+02
<TRANSP> 5
 0.000000e+00 1.000000e+00 0.000000e+00 0.000000e+00 0.000000e+00
 0.000000e+00 5.458981e-01 4.541019e-01 0.000000e+00 0.000000e+00
 0.000000e+00 0.000000e+00 5.827606e-01 4.172393e-01 0.000000e+00
 0.000000e+00 0.000000e+00 0.000000e+00 6.561889e-01 3.438111e-01
 0.000000e+00 0.000000e+00 0.000000e+00 0.000000e+00 0.000000e+00
<ENDHMM>
~h "AI"
<BEGINHMM>
<NUMSTATES> 5
<STATE> 2
<MEAN> 39
 2.516469e+00 -3.616928e+00 1.102901e+01 8.987981e+00 -4.830415e+00 -1.137222e+01 -6.298442e+00 -5.198100e+00 1.009477e+01 1.603027e+00 -4.610986e+00 -6.036979e+00 5.876446e+01 4.339502e-01 -3.916589e-01 -2.185683e-01 -9.332725e-01 2.787925e-01 1.903150e-01 -4.673002e-01 9.898431e-02 1.753335e-02 6.936955e-01 1.680143e-01 -8.625489e-01 1.267574e+00 -3.476826e-01 -2.869099e-01 -5.584360e-01 -6.825981e-01 3.332374e-01 5.696604e-01 2.981705e-01 3.717486e-01 -1.618911e-01 3.405041e-02 9.553313e-02 7.990152e-02 8.504375e-03
<VARIANCE> 39
 3.772611e+00 8.662930e+00 6.266521e+00 9.794964e+00 2.154893e+01 6.791090e+00 9.577238e+00 1.440604e+01 1.015682e+01 1.294893e+01 1.107474e+01 2.279373e+01 5.590553e+00 1.538438e+00 1.433105e+00 3.585450e+00 6.557989e+00 2.347365e+00 2.484278e+00 1.386550e+00 2.047494e+00 1.371662e+00 6.932862e-01 7.911860e-01 1.242176e+00 1.728068e+00 2.068287e-01 1.946655e-01 3.376237e-01 6.012574e-01 2.487598e-01 3.712072e-01 3.419699e-01 3.795860e-01 2.251366e-01 1.797962e-01 3.185944e-01 2.574778e-01 3.085466e-01
<GCONST> 9.244534e+01
<STATE> 3
<MEAN> 39
 1.257968e+00 -1.781988e+01 -2.903300e+00 -1.354878e+01 3.785611e+00 5.974177e+00 -6.757686e+00 2.091719e+00 6.255013e+00 3.960608e+00 -6.196206e+00 -7.991168e+00 7.195717e+01 -2.221825e-02 -1.542727e+00 -8.919916e-01 -1.329328e+00 1.820833e-01 1.896858e+00 1.791710e-01 1.632425e-01 -3.663285e-01 -2.480727e-01 -3.303075e-01 5.588377e-01 8.909404e-01 4.285521e-02 2.346856e-01 4.461167e-01 6.301073e-01 -2.413978e-01 -3.794484e-01 -4.189292e-02 -3.402742e-01 1.295563e-01 -6.090085e-03 -1.188836e-02 1.161934e-01 -3.210274e-01
<VARIANCE> 39
 2.297040e+00 2.028577e+01 7.163538e+00 1.046100e+01 4.121097e+00 3.369230e+01 1.119982e+01 1.009367e+01 8.660076e+00 3.330494e+00 1.147702e+01 1.391939e+01 3.480858e+00 1.965555e-01 1.639269e+00 2.617637e+00 4.816649e+00 9.990194e-01 2.919104e+00 6.778918e-01 3.543517e+00 6.500273e-01 4.109294e-01 9.841965e-01 8.785611e-01 1.552078e+00 3.955297e-02 1.493990e-01 2.133638e-01 4.964268e-01 1.498205e-01 2.641313e-01 1.570899e-01 4.540555e-01 1.076959e-01 9.300248e-02 1.688877e-01 1.802943e-01 1.404567e-01
<GCONST> 7.819736e+01
<STATE> 4
<MEAN> 39
 1.136506e+00 -1.920534e+01 8.146156e+00 -1.052520e+01 -5.454915e+00 5.617801e-01 -4.514939e+00 5.744371e+00 5.755753e+00 -1.899272e+00 -3.975601e+00 -3.964728e+00 6.960443e+01 -1.223422e-02 6.252705e-01 6.862108e-01 3.417627e-01 -4.683559e-01 -7.658488e-01 -3.616695e-03 2.546513e-01 7.388752e-03 -4.875497e-01 3.062177e-01 -7.699054e-02 -5.454190e-01 7.418269e-03 1.406755e-01 -1.030246e-01 9.058943e-02 8.180342e-02 -4.882783e-02 5.382432e-02 -8.496924e-02 -3.520608e-02 1.169448e-02 -3.488230e-02 -2.743714e-02 -8.830173e-02
<VARIANCE> 39
 2.524547e+00 4.032499e+01 6.291162e+01 2.559498e+01 5.469291e+01 4.519897e+01 2.139050e+01 3.551742e+01 1.265754e+01 2.431084e+01 5.098040e+01 1.574229e+01 1.921496e+01 2.000979e-01 1.651987e+00 2.505804e+00 2.240758e+00 2.975090e+00 2.175271e+00 2.281452e+00 3.585973e+00 1.054603e+00 9.540378e-01 3.749806e+00 1.252356e+00 6.388642e-01 2.707507e-02 1.655019e-01 2.828436e-01 4.140585e-01 3.516167e-01 4.043289e-01 4.845456e-01 5.152742e-01 2.029751e-01 1.905235e-01 5.050018e-01 2.422911e-01 9.078875e-02
<GCONST> 1.005518e+02
<TRANSP> 5
 0.000000e+00 1.000000e+00 0.000000e+00 0.000000e+00 0.000000e+00
 0.000000e+00 9.030603e-01 9.693965e-02 0.000000e+00 0.000000e+00
 0.000000e+00 0.000000e+00 8.928927e-01 1.071073e-01 0.000000e+00
 0.000000e+00 0.000000e+00 0.000000e+00 9.506263e-01 4.937370e-02
 0.000000e+00 0.000000e+00 0.000000e+00 0.000000e+00 0.000000e+00
<ENDHMM>
~h "O:"
<BEGINHMM>
<NUMSTATES> 5
<STATE> 2
<MEAN> 39
 -6.526787e+00 -4.231122e+00 -5.800392e+00 -9.966408e+00 -8.318151e+00 -2.934397e+00 -9.829439e-02 -1.016471e-01 2.314338e+00 -2.791086e+00 6.451818e+00 -1.344979e+00 6.093894e+01 4.013177e+00 7.398789e-01 2.217514e-01 -1.844171e+00 -2.163985e+00 -4.572992e-01 7.984655e-01 5.480290e-02 -8.906108e-01 -8.887493e-01 2.030445e-01 -2.528995e-02 8.368534e-01 8.907721e-02 -8.495469e-02 -5.870118e-02 1.472301e-01 1.770010e-02 2.666780e-03 1.316339e-01 3.050747e-01 9.851297e-02 -8.353152e-03 1.728731e-01 7.223032e-02 -1.461362e-02
<VARIANCE> 39
 1.284771e+02 1.568074e+01 1.320752e+01 3.415649e+01 5.307631e+01 1.394554e+01 1.621241e+01 1.414676e+01 2.042153e+01 1.634955e+01 1.012825e+01 1.346030e+01 1.044592e+01 5.357841e+00 1.876327e+00 1.562210e+00 1.877391e+00 3.059195e+00 1.482009e+00 2.186368e+00 2.305631e+00 1.963467e+00 1.041894e+00 1.829422e+00 1.508302e+00 3.632207e-01 1.834229e+00 4.886420e-01 3.781323e-01 5.489448e-01 9.772807e-01 2.547227e-01 5.325974e-01 4.439985e-01 5.670661e-01 2.995913e-01 3.253888e-01 3.033462e-01 7.812292e-02
<GCONST> 1.065904e+02
<STATE> 3
<MEAN> 39
 1.144178e+01 -4.262062e+00 -1.254683e+01 -1.584964e+01 -9.480620e+00 -5.214502e+00 -3.284622e+00 8.156868e+00 7.142727e+00 -5.370506e+00 7.866935e+00 -1.054582e-01 6.434944e+01 3.106817e-01 -1.144275e-01 -8.884541e-01 -1.115818e-01 9.706275e-01 1.230287e-01 -8.927380e-01 1.616776e-01 6.764753e-01 4.678271e-01 -3.437924e-01 -1.860325e-01 -8.474652e-02 -1.245428e-01 4.892576e-02 1.144772e-02 2.031939e-02 1.036412e-01 8.797775e-02 -5.943215e-02 -1.722383e-01 -6.725952e-02 7.792614e-02 -9.354550e-02 -4.794465e-02 -7.490512e-02
<VARIANCE> 39
 4.229162e+00 8.474943e+00 3.392637e+01 8.310783e+00 3.684380e+01 1.763116e+01 4.534418e+01 3.682067e+01 3.962886e+01 2.689431e+01 2.787863e+01 2.656227e+01 4.781543e+00 2.559757e-01 4.695936e-01 7.343110e-01 6.171178e-01 1.075146e+00 1.165429e+00 1.558951e+00 2.343342e+00 1.734742e+00 1.692261e+00 1.921793e+00 1.605840e+00 1.738856e-01 1.130323e-01 7.000019e-02 1.040440e-01 1.219873e-01 2.881410e-01 1.700343e-01 3.256528e-01 2.147742e-01 2.315654e-01 2.089536e-01 2.966306e-01 2.104249e-01 2.460141e-02
<GCONST> 8.461423e+01
<STATE> 4
<MEAN> 39
 5.836627e+00 -1.817858e+00 -1.187408e+01 -1.061803e+01 1.021113e+00 -7.067568e-01 -1.059473e+00 2.692865e-01 6.486414e+00 1.485819e+00 2.060007e+00 -1.700462e+00 5.581234e+01 -9.063777e-01 2.185978e-01 8.624144e-01 7.771837e-01 3.103476e-01 2.408781e-01 7.980380e-01 -2.114429e-01 -2.129247e-01 -1.468050e-01 -4.183639e-02 1.160084e-01 -7.087166e-01 -3.312772e-02 -9.003226e-03 5.753784e-02 4.507869e-02 -3.130292e-02 -1.670246e-02 2.771369e-02 4.306841e-02 2.924470e-03 -4.007327e-02 2.442661e-02 1.088655e-02 2.757525e-03
<VARIANCE> 39
 5.602250e+01 8.034083e+00 5.345496e+01 3.562157e+01 1.410303e+01 1.081857e+01 5.184077e+01 1.983336e+01 1.712535e+01 2.929461e+01 1.662381e+01 1.049676e+01 3.338121e+01 6.486498e-01 4.166819e-01 1.066970e+00 1.068585e+00 1.515070e+00 1.276058e+00 2.287584e+00 1.472011e+00 1.601154e+00 1.502249e+00 1.560767e+00 1.255549e+00 4.057124e-01 9.314921e-02 8.808801e-02 1.430998e-01 1.923715e-01 3.256719e-01 2.697333e-01 4.884430e-01 2.869355e-01 3.173024e-01 2.892560e-01 3.098923e-01 2.624225e-01 4.007186e-02
<GCONST> 9.262658e+01
<TRANSP> 5
 0.000000e+00 1.000000e+00 0.000000e+00 0.000000e+00 0.000000e+00
 0.000000e+00 8.580662e-01 1.419338e-01 0.000000e+00 0.000000e+00
 0.000000e+00 0.000000e+00 9.320651e-01 6.793498e-02 0.000000e+00
 0.000000e+00 0.000000e+00 0.000000e+00 9.503667e-01 4.963332e-02
 0.000000e+00 0.000000e+00 0.000000e+00 0.000000e+00 0.000000e+00
<ENDHMM>
~h "aI"
<BEGINHMM>
<NUMSTATES> 5
<STATE> 2
<MEAN> 39
 -2.170976e+01 -8.322489e+00 -1.785211e+00 -7.557541e-01 1.812404e+00 3.502136e-01 3.681442e+00 6.251269e+00 7.524195e+00 2.539386e+00 4.990623e+00 -1.745981e+00 5.640285e+01 2.208297e-01 -2.183318e-01 -6.385057e-01 -7.608859e-01 -5.366624e-01 -5.192375e-01 6.803492e-02 -6.704737e-02 -1.988404e-01 -9.519669e-02 8.189288e-02 1.589857e-01 6.214677e-01 7.690290e-01 2.345507e-02 -8.635559e-02 -2.756898e-01 -1.197855e-01 -8.577397e-03 -1.530534e-01 -2.372489e-01 -2.482706e-01 -2.198134e-01 1.523622e-01 -1.026305e-02 8.072427e-03
<VARIANCE> 39
 5.808974e+00 3.134033e+00 5.160913e+00 4.354579e+00 1.020438e+01 1.426891e+01 1.463248e+01 8.668536e+00 1.727253e+01 1.123890e+01 7.058069e+00 1.115422e+01 5.240573e+00 1.377180e+00 6.699444e-01 4.804684e-01 8.612137e-01 1.207917e+00 2.136224e+00 1.607865e+00 1.132824e+00 1.802014e+00 1.430341e+00 9.580355e-01 1.199471e+00 4.094103e-01 5.111161e-01 1.673405e-01 6.229834e-02 4.259094e-01 2.345652e-01 4.156792e-01 2.512419e-01 2.025517e-01 3.830095e-01 2.342166e-01 2.365400e-01 2.977842e-01 7.107077e-02
<GCONST> 8.048094e+01
<STATE> 3
<MEAN> 39
 -1.470840e+00 -1.079521e+01 -6.029395e+00 -1.576017e+01 -4.001525e+00 1.954483e+00 -5.894349e-01 6.670517e+00 -1.557957e+00 1.215379e+00 1.006380e+01 -5.785182e+00 6.424364e+01 4.312886e+00 -9.505695e-01 -1.637906e-01 -3.408912e+00 -5.845045e-01 1.968394e+00 -7.151765e-01 1.444798e+00 -1.865649e+00 1.988611e-01 1.020718e+00 -2.062891e+00 1.970942e+00 -6.373984e-01 -1.811443e-01 1.970358e-01 3.713807e-01 2.501611e-01 3.039988e-01 1.016834e-01 2.878880e-01 2.897648e-01 5.668196e-02 -2.499060e-01 -9.733523e-02 -7.031408e-02
<VARIANCE> 39
 1.205342e+02 1.451070e+01 4.586926e+00 6.700956e+01 1.889314e+01 3.434718e+01 1.249591e+01 3.070384e+01 3.611344e+01 1.236375e+01 1.338728e+01 3.242841e+01 3.113545e+01 9.291782e+00 1.448619e+00 6.296734e-01 3.404155e+00 2.581802e+00 1.917453e+00 2.141796e+00 3.645109e+00 2.923125e+00 9.133384e-01 1.627369e+00 1.406022e+00 1.333768e+00 2.155280e+00 2.134204e-01 9.372088e-02 1.230688e+00 5.139859e-01 6.518203e-01 3.951789e-01 9.237190e-01 8.336082e-01 2.474848e-01 3.868398e-01 6.444104e-01 5.261415e-01
<GCONST> 1.133773e+02
<STATE> 4
<MEAN> 39
 5.798720e+00 -2.111594e+01 -4.125408e+00 -2.074880e+01 -3.020632e+00 9.984097e+00 -3.241910e+00 1.052996e+01 -3.109861e-01 1.252747e-01 8.506986e+00 -1.308585e+01 7.053709e+01 -2.040731e-01 -7.076455e-01 4.028963e-01 6.464372e-01 -4.948624e-02 -7.759278e-01 -1.756495e-01 1.581652e-01 9.783040e-01 -1.678312e-01 -5.798260e-01 4.373168e-02 8.141293e-02 -4.312618e-02 9.903102e-02 7.544544e-02 9.526410e-02 -1.247959e-01 -3.698984e-01 -1.402903e-02 1.287051e-01 1.519604e-02 -2.966733e-02 8.394028e-03 1.504649e-01 -3.071394e-02
<VARIANCE> 39
 2.382347e+00 1.618825e+01 7.696890e+00 1.804340e+01 8.086019e+00 1.591438e+01 8.628263e+00 1.050328e+01 3.273634e+01 6.016965e+00 9.671607e+00 9.951771e+00 7.615765e+00 1.479664e-01 3.170763e-01 5.735831e-01 7.731021e-01 9.382061e-01 2.857540e+00 6.131318e-01 1.830398e+00 7.465593e-01 4.063019e-01 8.550302e-01 6.011134e-01 1.044104e-01 2.926506e-02 6.531794e-02 8.377726e-02 1.376212e-01 1.747515e-01 1.002764e-01 1.208569e-01 2.947781e-01 1.297922e-01 7.325976e-02 1.520834e-01 1.165754e-01 2.210338e-02
<GCONST> 6.401677e+01
<TRANSP> 5
 0.000000e+00 1.000000e+00 0.000000e+00 0.000000e+00 0.000000e+00
 0.000000e+00 8.281547e-01 1.718453e-01 0.000000e+00 0.000000e+00
 0.000000e+00 0.000000e+00 8.332654e-01 1.667346e-01 0.000000e+00
 0.000000e+00 0.000000e+00 0.000000e+00 9.312569e-01 6.874314e-02
 0.000000e+00 0.000000e+00 0.000000e+00 0.000000e+00 0.000000e+00
<ENDHMM>
~h "eI"
<BEGINHMM>
<NUMSTATES> 5
<STATE> 2
<MEAN> 39
 -1.078998e+01 -1.813084e+00 2.597100e+00 2.460318e+00 3.497700e+00 3.166495e-01 6.964674e+00 -7.275129e-01 4.945338e+00 6.225486e-01 1.866571e+00 -1.908371e+00 4.368633e+01 -1.702755e-01 -1.222925e-01 6.107020e-02 5.621409e-02 2.584773e-02 5.219608e-02 6.751522e-02 3.534891e-02 1.161322e-01 1.416690e-01 5.920918e-02 2.333504e-02 -1.340555e-01 1.274002e-02 -2.006714e-02 4.974075e-02 -6.131685e-02 -3.483750e-02 -9.396564e-04 -3.523920e-02 1.195012e-02 -5.468439e-02 -4.384523e-02 4.935405e-03 -3.285526e-03 6.832401e-02
<VARIANCE> 39
 5.860427e+00 4.768391e+00 5.044007e+00 6.794074e+00 9.525703e+00 1.583473e+01 1.944863e+01 1.430781e+01 1.376035e+01 1.161105e+01 1.119131e+01 1.245728e+01 4.046967e+00 1.650174e-01 3.687909e-01 4.382105e-01 5.216605e-01 7.572147e-01 1.126170e+00 1.646997e+00 1.245978e+00 1.038516e+00 1.223936e+00 1.379490e+00 1.182922e+00 1.393794e-01 3.181160e-02 7.834155e-02 1.445489e-01 1.268414e-01 1.682258e-01 2.066420e-01 3.816661e-01 2.535920e-01 2.429866e-01 2.179233e-01 2.913880e-01 2.509022e-01 3.159592e-02
<GCONST> 7.094231e+01
<STATE> 3
<MEAN> 39
 -1.185465e+01 -4.198888e+00 2.555156e+00 1.776409e+00 2.438338e+00 5.958368e-01 6.983907e+00 4.551298e-01 4.757738e+00 5.968810e-01 2.114822e+00 -1.546978e+00 4.561070e+01 5.287082e-01 -1.424659e+00 3.329409e+00 -3.630566e+00 -2.756318e+00 -1.211427e+00 -1.549809e+00 1.224638e+00 -2.060573e+00 7.609488e-01 2.721831e-01 -6.806558e-01 3.309515e+00 3.715565e-01 -5.824694e-01 1.627087e+00 -1.797398e+00 -1.432489e+00 -6.482787e-01 -9.334851e-01 3.382771e-01 -6.090952e-01 4.749908e-01 4.044394e-01 -2.765554e-01 1.690325e+00
<VARIANCE> 39
 1.265043e+01 1.620759e+01 8.426267e+00 1.496079e+01 1.485477e+01 1.383467e+01 1.076289e+01 1.638447e+01 1.086951e+01 1.478148e+01 1.384511e+01 1.189295e+01 1.818957e+01 9.509590e-01 2.080024e+00 7.378868e+00 1.028162e+01 6.035499e+00 2.659853e+00 2.125586e+00 1.970375e+00 2.564152e+00 1.544492e+00 1.831428e+00 1.231686e+00 7.459905e+00 1.440157e-01 2.476402e-01 2.116635e-01 4.454937e-01 2.848324e-01 3.337619e-01 2.445698e-01 4.557545e-01 3.273920e-01 2.996992e-01 3.851414e-01 2.035404e-01 2.672337e-01
<GCONST> 1.024083e+02
<STATE> 4
<MEAN> 39
 -7.152911e+00 -7.242706e+00 3.130510e+01 -2.070440e+01 -1.605686e+01 -4.408351e+00 -1.166635e+01 9.674116e-02 -3.602614e+00 2.398688e+00 7.811381e+00 -6.883974e+00 6.867464e+01 7.679489e-02 4.638990e-01 7.734105e-01 -2.435496e-01 -1.390411e-01 -1.149957e-01 -5.559467e-01 -8.370609e-02 -2.762547e-01 -2.746181e-01 1.509934e-01 -3.288765e-01 2.731779e-01 -3.776962e-02 1.531793e-01 -3.656034e-01 3.872681e-01 2.524679e-01 1.021018e-01 2.453149e-01 -1.209468e-01 1.680598e-01 -8.654071e-02 -9.801673e-02 5.201676e-02 -3.555233e-01
<VARIANCE> 39
 2.701710e+00 2.130941e+01 2.005110e+01 7.064546e+00 1.604755e+01 1.695016e+01 1.993692e+01 2.618695e+01 1.843974e+01 2.338190e+01 1.027549e+01 1.622452e+01 1.546723e+01 4.599407e-01 1.124316e+00 4.272532e+00 4.552984e+00 3.683472e+00 1.324844e+00 2.586171e+00 1.834658e+00 1.298332e+00 1.140224e+00 1.385540e+00 7.060592e-01 4.789618e+00 5.998595e-02 1.356119e-01 3.403739e-01 5.752317e-01 3.186510e-01 2.490190e-01 2.392087e-01 3.404681e-01 3.040452e-01 1.397981e-01 2.260437e-01 1.335185e-01 3.556475e-01
<GCONST> 9.467970e+01
<TRANSP> 5
 0.000000e+00 1.000000e+00 0.000000e+00 0.000000e+00 0.000000e+00
 0.000000e+00 9.332823e-01 6.671776e-02 0.000000e+00 0.000000e+00
 0.000000e+00 0.000000e+00 6.850802e-01 3.149198e-01 0.000000e+00
 0.000000e+00 0.000000e+00 0.000000e+00 9.557971e-01 4.420292e-02
 0.000000e+00 0.000000e+00 0.000000e+00 0.000000e+00 0.000000e+00
<ENDHMM>
~h "eh"
<BEGINHMM>
<NUMSTATES> 5
<STATE> 2
<MEAN> 39
 4.350832e+00 -9.972833e+00 -1.024110e+00 -9.896351e+00 2.489253e+00 1.630766e-01 -8.755750e+00 1.203458e+00 4.096979e+00 -7.911473e-02 6.838341e-01 -1.068061e+01 6.454012e+01 -1.025633e-01 1.164546e+00 7.626338e-01 1.884124e+00 -2.005208e-01 -1.344387e+00 -1.199928e-01 -1.354078e+00 7.397922e-02 -3.457135e-01 -7.764906e-01 3.825495e-01 -9.999797e-01 -6.506076e-02 -1.757840e-02 2.979542e-02 -8.087106e-02 -1.550419e-01 2.523240e-01 -8.088550e-03 -4.393786e-05 7.918763e-02 -2.099527e-01 1.311263e-01 1.261546e-01 6.422786e-02
<VARIANCE> 39
 5.376025e+00 2.027433e+01 3.378098e+01 5.607936e+01 2.115864e+01 4.842354e+01 2.048354e+01 3.508815e+01 2.433131e+01 1.762789e+01 1.610750e+01 1.194424e+01 2.847287e+01 4.126236e-01 5.530930e-01 1.208115e+00 1.345475e+00 2.321958e+00 4.119779e+00 1.738746e+00 3.584951e+00 2.208227e+00 1.959119e+00 1.402229e+00 1.107687e+00 4.467791e-01 8.705962e-02 1.343529e-01 2.484043e-01 3.134416e-01 4.079236e-01 5.744871e-01 3.213111e-01 8.370440e-01 4.505213e-01 2.702627e-01 2.561947e-01 2.255208e-01 1.291853e-01
<GCONST> 9.952139e+01
<STATE> 3
<MEAN> 39
 2.507841e+00 -3.526685e+00 7.346106e+00 2.022391e+00 -1.195828e+00 -6.860537e+00 -1.136891e+01 -4.317822e+00 9.422297e+00 -4.415627e+00 -3.045514e+00 -5.560476e+00 5.936184e+01 -3.315288e-01 4.981937e-01 -1.064413e-01 4.036141e-02 9.251730e-01 -8.868886e-02 3.654123e-03 2.031290e-01 -5.523535e-01 -1.066544e-01 6.371766e-02 2.447140e-01 -3.627066e-01 -5.692076e-02 -2.098133e-02 -1.298207e-01 -3.760239e-01 3.240757e-01 5.780852e-02 1.417106e-01 3.424657e-01 -3.050475e-01 1.070891e-01 2.574833e-02 -1.303882e-01 1.242365e-02
<VARIANCE> 39
 2.571205e+00 8.569150e+00 1.905901e+01 1.285215e+01 1.655845e+01 1.426781e+01 2.858780e+01 1.552527e+01 2.491331e+01 2.064349e+01 2.221985e+01 1.471074e+01 1.317338e+01 3.057014e-01 6.390173e-01 7.001730e-01 1.482764e+00 1.303152e+00 1.292261e+00 1.365898e+00 2.160525e+00 2.305950e+00 1.140020e+00 1.396126e+00 8.946682e-01 1.879784e-01 5.228831e-02 1.298885e-01 1.335105e-01 2.039624e-01 1.635618e-01 2.522728e-01 2.566439e-01 3.058971e-01 2.547517e-01 2.018834e-01 2.936457e-01 1.529541e-01 4.809787e-02
<GCONST> 8.253420e+01
<STATE> 4
<MEAN> 39
 4.000702e-01 9.768336e-02 3.602873e+00 -4.040857e+00 8.981518e+00 -6.869833e+00 -8.382792e+00 5.702959e-01 -9.558700e-01 -3.775898e+00 -4.475802e+00 -8.181624e+00 5.566219e+01 -4.440983e-01 5.515790e-01 -1.014444e-01 1.736804e-01 3.229395e-01 6.175840e-01 1.465526e+00 -2.102476e-01 -5.132804e-01 -2.617328e-01 -5.937623e-01 -1.818746e-01 -1.122514e+00 -5.343007e-02 -7.624532e-02 1.366896e-01 5.025876e-01 -5.345885e-01 1.451706e-01 1.309607e-01 -5.454808e-01 3.738505e-01 -1.273984e-01 6.464811e-02 1.218642e-01 -8.679078e-02
<VARIANCE> 39
 3.990254e+00 7.998728e+00 1.674119e+01 2.238407e+01 2.157178e+01 2.919199e+01 3.274497e+01 4.561305e+01 3.541914e+01 3.172066e+01 2.091452e+01 1.139946e+01 1.658783e+01 5.870353e-01 9.180871e-01 1.610026e+00 4.155523e+00 3.860137e+00 1.585332e+00 2.176449e+00 7.075370e+00 2.482777e+00 1.861777e+00 2.408928e+00 1.580676e+00 6.406345e-01 1.160594e-01 1.943476e-01 2.961489e-01 5.084865e-01 5.004882e-01 2.393466e-01 5.224775e-01 1.285215e+00 4.319702e-01 3.432798e-01 5.025665e-01 3.204780e-01 1.037982e-01
<GCONST> 1.041736e+02
<TRANSP> 5
 0.000000e+00 1.000000e+00 0.000000e+00 0.000000e+00 0.000000e+00
 0.000000e+00 7.827224e-01 2.172776e-01 0.000000e+00 0.000000e+00
 0.000000e+00 0.000000e+00 8.634583e-01 1.365417e-01 0.000000e+00
 0.000000e+00 0.000000e+00 0.000000e+00 7.898769e-01 2.101231e-01
 0.000000e+00 0.000000e+00 0.000000e+00 0.000000e+00 0.000000e+00
<ENDHMM>
~h "sp"
<BEGINHMM>
<NUMSTATES> 3
<STATE> 2
~s "silst"
<TRANSP> 3
 0.000000e+00 4.382180e-01 5.617821e-01
 0.000000e+00 8.130790e-01 1.869210e-01
 0.000000e+00 0.000000e+00 0.000000e+00
<ENDHMM>
~h "sil"
<BEGINHMM>
<NUMSTATES> 5
<STATE> 2
<MEAN> 39
 -1.100864e+01 -2.680250e+00 2.148738e+00 2.194640e+00 3.116364e+00 2.026730e-01 6.207716e+00 2.495462e-01 5.719153e+00 5.008690e-01 2.127988e+00 -1.799150e+00 4.313155e+01 -4.453417e-02 -3.576342e-03 3.573709e-02 4.961920e-02 -2.286380e-03 1.224265e-02 -6.120193e-04 -3.865832e-04 7.900515e-03 2.923512e-02 4.557241e-03 1.686382e-02 -7.514432e-02 -5.875896e-04 -5.134027e-03 -6.159622e-03 -2.557770e-02 -1.531175e-02 -1.876012e-02 -8.238455e-03 3.079546e-03 -9.759224e-03 -1.098199e-02 -3.960388e-03 -1.089697e-04 2.105678e-02
<VARIANCE> 39
 3.183943e+00 3.837584e+00 7.032535e+00 8.926662e+00 9.706591e+00 1.112755e+01 1.210837e+01 1.400081e+01 1.302332e+01 1.306159e+01 1.306800e+01 1.110565e+01 4.324931e+00 1.504217e-01 2.834482e-01 4.683373e-01 6.541718e-01 8.882562e-01 1.070185e+00 1.262819e+00 1.265470e+00 1.308526e+00 1.250083e+00 1.338602e+00 1.165032e+00 8.255991e-02 2.601199e-02 5.337436e-02 8.200882e-02 1.260167e-01 1.736149e-01 2.130226e-01 2.379402e-01 2.360241e-01 2.561329e-01 2.362428e-01 2.704397e-01 2.310824e-01 1.392844e-02
<GCONST> 6.705563e+01
<STATE> 3
~s "silst"
<STATE> 4
<MEAN> 39
 -1.082339e+01 -5.127934e+00 1.836670e-01 -1.402863e+00 2.512129e+00 -6.396201e-01 5.243893e+00 -5.155385e-01 4.119424e+00 -1.238569e+00 1.876727e+00 -2.301291e+00 4.854307e+01 4.091519e-03 -3.263619e-02 5.662948e-02 -8.691101e-02 8.336554e-02 6.166600e-02 -1.454564e-02 -2.633051e-02 -1.439454e-01 -1.024945e-01 -3.897182e-02 -6.954420e-02 1.755953e-01 2.047917e-04 7.438841e-02 5.431452e-02 1.207198e-01 9.517620e-03 -7.256126e-04 -6.214460e-03 5.318378e-02 3.395855e-02 4.215029e-02 5.124603e-03 1.094092e-02 -1.181727e-01
<VARIANCE> 39
 1.152299e+01 2.152318e+01 2.123124e+01 2.914591e+01 1.747351e+01 1.876136e+01 2.707733e+01 2.085283e+01 2.360081e+01 2.067751e+01 1.561519e+01 1.106930e+01 2.284568e+01 7.985139e-01 2.230121e+00 1.117586e+00 2.967086e+00 1.359937e+00 1.703151e+00 2.439482e+00 1.932113e+00 2.407032e+00 1.824498e+00 1.662287e+00 1.300547e+00 3.046827e+00 1.392012e-01 4.302292e-01 2.125270e-01 5.359754e-01 2.585571e-01 3.486326e-01 4.948791e-01 3.762243e-01 4.700670e-01 3.407403e-01 3.311574e-01 2.649023e-01 5.270819e-01
<GCONST> 1.037691e+02
<TRANSP> 5
 0.000000e+00 1.000000e+00 0.000000e+00 0.000000e+00 0.000000e+00
 0.000000e+00 9.444492e-01 3.132386e-02 2.422686e-02 0.000000e+00
 0.000000e+00 0.000000e+00 8.675931e-01 1.324069e-01 0.000000e+00
 0.000000e+00 1.074750e-01 0.000000e+00 8.045262e-01 8.799883e-02
 0.000000e+00 0.000000e+00 0.000000e+00 0.000000e+00 0.000000e+00
<ENDHMM>
