~o
<STREAMINFO> 1 39
<VECSIZE> 39<NULLD><MFCC_D_A_0><DIAGC>
~h "I"
<BEGINHMM>
<NUMSTATES> 5
<STATE> 2
<MEAN> 39
 -1.315119e+01 1.302885e+01 1.459511e+00 5.329010e+00 8.148859e-03 -1.758817e+01 4.281826e+00 -1.042334e+00 3.396073e+00 -3.628670e+00 3.738110e+00 -3.078809e+00 6.049343e+01 -9.100538e-01 1.791366e+00 4.769907e-02 8.453853e-01 -7.139564e-02 1.263520e-01 8.307355e-02 -8.341654e-02 4.781233e-01 -3.556715e-01 5.114612e-01 1.398446e-01 8.225301e-01 -1.182789e-02 -6.075248e-01 2.667503e-01 -2.191720e-01 1.912635e-02 6.618580e-01 -9.879663e-02 1.309535e-01 -1.611369e-01 -8.556808e-04 -6.004070e-02 -8.349845e-02 -3.953556e-01
<VARIANCE> 39
 2.216946e+01 3.473573e+01 1.556897e+01 4.151144e+01 3.958257e+01 2.155968e+01 1.548364e+01 1.250386e+01 1.382717e+01 1.266461e+01 9.076808e+00 1.158497e+01 1.114105e+01 6.270723e+00 6.962337e+00 3.512679e+00 1.124413e+00 3.393366e+00 4.262933e+00 2.595888e+00 1.536848e+00 1.360071e+00 8.603235e-01 9.991986e-01 8.460814e-01 1.194717e+00 3.684494e-01 5.068692e-01 3.061682e-01 2.608582e-01 3.495542e-01 7.834904e-01 2.695822e-01 2.972420e-01 2.307321e-01 2.060468e-01 1.679153e-01 1.562416e-01 2.073230e-01
<GCONST> 1.021292e+02
<STATE> 3
<MEAN> 39
 -1.683182e+01 1.496536e+01 4.474108e+00 6.532245e+00 -8.608199e-01 -1.489446e+01 4.627180e+00 -2.893862e+00 2.300563e+00 -4.207538e+00 4.461417e+00 -2.489361e+00 6.228692e+01 3.467915e-01 -1.146145e+00 1.943726e+00 -8.757100e-01 -1.086110e+00 -1.318140e-01 -8.534830e-01 -4.625912e-01 -5.162897e-01 -9.730542e-03 4.811440e-01 4.197708e-01 8.137751e-01 3.850328e-01 -5.397706e-01 5.373681e-01 -3.760254e-01 -2.266053e-01 3.581257e-02 -4.356057e-01 1.063058e-01 -9.225605e-02 -5.913064e-02 1.546854e-01 2.907638e-02 7.061107e-02
<VARIANCE> 39
 1.013165e+01 2.380285e+01 2.363912e+01 2.118041e+01 3.779628e+01 2.884133e+01 1.299119e+01 1.348567e+01 1.501511e+01 9.209468e+00 1.154152e+01 1.161042e+01 1.091958e+01 2.923984e+00 2.562919e+00 3.745057e+00 1.530230e+00 2.283807e+00 2.410383e+00 2.890178e+00 1.358189e+00 1.058140e+00 8.553407e-01 1.307866e+00 9.678841e-01 4.770769e-01 2.031191e-01 1.753667e-01 2.261910e-01 1.063935e-01 2.526015e-01 5.546037e-01 3.749927e-01 3.268507e-01 2.063422e-01 1.965194e-01 2.548851e-01 1.930062e-01 7.495977e-02
<GCONST> 9.405090e+01
<STATE> 4
<MEAN> 39
 -4.844340e+00 -6.922106e+00 2.292619e+01 -5.593991e+00 -1.355859e+01 -1.321875e+01 -1.036689e+01 2.136397e+00 -2.495085e+00 -6.620498e+00 1.297435e+01 -1.421956e+00 6.813533e+01 1.365082e+00 -1.700638e+00 -2.646502e-01 1.285763e-01 -3.613593e-01 8.587768e-02 -1.116213e+00 7.092325e-01 1.616683e-01 -2.707761e-01 3.260425e-01 -7.832449e-02 -1.252033e-01 -1.118171e-01 3.363185e-01 -7.412977e-01 2.838084e-01 4.063167e-01 6.824622e-02 2.313784e-01 -2.994316e-01 2.010502e-01 1.856528e-01 -2.839128e-01 -9.203369e-03 -2.178554e-01
<VARIANCE> 39
 1.873667e+01 4.757772e+01 6.061156e+01 3.042255e+01 2.447597e+01 2.200624e+01 3.273595e+01 2.807430e+01 2.480684e+01 1.838503e+01 1.554877e+01 1.605653e+01 8.707209e+00 7.405201e-01 1.924861e+00 1.186221e+01 4.697763e+00 3.345005e+00 3.493102e+00 4.189232e+00 2.825807e+00 4.027696e+00 1.271028e+00 2.743111e+00 1.421887e+00 6.945091e-01 1.432297e-01 1.406067e-01 5.922529e-01 5.317643e-01 3.544050e-01 8.859822e-01 6.846113e-01 7.325863e-01 6.252165e-01 2.882087e-01 3.039780e-01 2.693040e-01 5.405444e-02
<GCONST> 1.107999e+02
<TRANSP> 5
 0.000000e+00 1.000000e+00 0.000000e+00 0.000000e+00 0.000000e+00
 0.000000e+00 6.032999e-01 3.967001e-01 0.000000e+00 0.000000e+00
 0.000000e+00 0.000000e+00 8.522354e-01 1.477645e-01 0.000000e+00
 0.000000e+00 0.000000e+00 0.000000e+00 9.057649e-01 9.423511e-02
 0.000000e+00 0.000000e+00 0.000000e+00 0.000000e+00 0.000000e+00
<ENDHMM>
~h "T"
<BEGINHMM>
<NUMSTATES> 5
<STATE> 2
<MEAN> 39
 -1.229703e+01 -2.386222e+00 1.879932e+00 1.817828e+00 3.915515e+00 -2.975800e-01 7.174374e+00 1.556800e+00 6.283518e+00 4.425872e-01 2.137721e+00 -1.098996e+00 4.490438e+01 -4.103002e-01 -4.083278e-01 -9.164579e-02 2.166896e-01 -1.920081e-01 1.712517e-01 -2.500942e-01 3.798472e-01 3.479943e-01 1.487002e-01 1.347686e-01 -1.529950e-01 1.740797e-01 -4.827230e-02 -5.894130e-02 -8.710356e-02 -6.372487e-02 3.218044e-03 -2.968955e-02 -5.713274e-02 2.604774e-02 3.491341e-02 3.207643e-02 2.634127e-02 -4.920433e-02 1.728825e-01
<VARIANCE> 39
 8.144017e+00 5.201842e+00 3.729199e+00 1.100250e+01 9.198987e+00 1.585138e+01 1.733724e+01 2.662042e+01 1.572824e+01 1.209181e+01 1.370334e+01 7.374326e+00 8.878707e+00 5.639005e-01 4.395060e-01 5.268083e-01 9.305373e-01 1.018167e+00 1.116436e+00 7.787289e-01 2.277721e+00 1.523180e+00 1.657999e+00 1.471284e+00 8.499317e-01 8.436130e-01 8.442043e-02 9.271512e-02 8.096716e-02 2.098608e-01 1.894177e-01 2.096034e-01 1.245380e-01 3.921790e-01 2.611240e-01 3.542953e-01 2.769017e-01 1.669662e-01 2.845128e-02
<GCONST> 7.769050e+01
<STATE> 3
<MEAN> 39
 -1.847971e+01 -7.553528e+00 -1.367203e+00 1.547828e+00 1.208694e-01 -1.574054e+00 2.237693e-01 5.324645e+00 7.707447e+00 2.467247e+00 5.138642e+00 -2.105321e+00 5.331875e+01 -1.310232e-01 -9.011980e-01 -8.546444e-01 -7.895511e-01 -8.219047e-01 -1.158180e+00 -1.303953e+00 -1.487873e-01 4.611956e-01 6.291825e-01 6.096411e-01 1.214571e-02 1.564255e+00 1.864981e-01 -1.047776e-01 -2.556666e-02 -9.916908e-02 -4.324077e-02 -2.307784e-01 -1.757109e-01 -2.027725e-01 -2.826415e-02 1.616556e-02 3.237979e-02 5.282312e-02 2.961163e-02
<VARIANCE> 39
 7.686363e+00 9.025879e+00 8.144471e+00 8.661223e+00 9.695052e+00 1.334070e+01 2.190782e+01 1.383983e+01 1.601345e+01 1.582730e+01 1.023221e+01 1.086907e+01 1.829522e+01 5.932599e-01 4.697543e-01 5.456204e-01 1.049508e+00 1.192619e+00 1.529755e+00 1.119376e+00 1.317048e+00 2.007236e+00 1.530512e+00 1.326445e+00 1.234137e+00 3.632390e-01 1.051857e-01 5.948836e-02 1.001632e-01 2.048428e-01 1.882310e-01 2.834581e-01 2.057917e-01 2.397358e-01 4.765534e-01 2.700239e-01 2.817256e-01 2.369543e-01 1.129247e-01
<GCONST> 8.182132e+01
<STATE> 4
<MEAN> 39
 -1.574474e+01 -1.322971e+01 -5.023655e+00 -1.104907e+00 -2.234484e+00 -8.989873e+00 -6.501224e+00 2.953605e+00 9.995726e+00 5.901475e+00 7.399327e+00 -2.499064e+00 5.974821e+01 1.569155e+00 1.186473e-01 1.591298e-01 3.659958e-01 3.687744e-01 -5.156303e-01 -7.033600e-01 -5.947808e-01 -9.599262e-02 -2.192218e-01 -2.415926e-01 6.075073e-02 1.097786e-01 4.978179e-01 2.689795e-01 2.045829e-01 1.755331e-01 1.292469e-01 1.056762e-01 -1.242310e-01 -1.528079e-01 -1.371777e-01 -3.380153e-01 -1.255941e-01 9.687985e-02 -5.595908e-02
<VARIANCE> 39
 2.545155e+01 1.163299e+01 9.551946e+00 1.122181e+01 1.352544e+01 1.505417e+01 1.178507e+01 2.117675e+01 3.054056e+01 1.245405e+01 1.587561e+01 1.477308e+01 9.954074e+00 5.500967e+00 2.015286e+00 1.408403e+00 1.238905e+00 1.351004e+00 1.645147e+00 2.113062e+00 3.421911e+00 3.189708e+00 2.674161e+00 1.548978e+00 1.305633e+00 1.489412e+00 4.126006e-01 2.238004e-01 2.132660e-01 2.300222e-01 2.690721e-01 3.374967e-01 5.885200e-01 5.837349e-01 5.235803e-01 4.391603e-01 2.908823e-01 3.178320e-01 3.274179e-01
<GCONST> 1.017287e+02
<TRANSP> 5
 0.000000e+00 1.000000e+00 0.000000e+00 0.000000e+00 0.000000e+00
 0.000000e+00 8.608021e-01 1.391979e-01 0.000000e+00 0.000000e+00
 0.000000e+00 0.000000e+00 8.364488e-01 1.635512e-01 0.000000e+00
 0.000000e+00 0.000000e+00 0.000000e+00 8.928077e-01 1.071924e-01
 0.000000e+00 0.000000e+00 0.000000e+00 0.000000e+00 0.000000e+00
<ENDHMM>
~h "e"
<BEGINHMM>
<NUMSTATES> 5
<STATE> 2
<MEAN> 39
 -2.530395e+01 3.731456e+00 -6.051434e+00 -4.010600e+00 1.973852e+00 -1.111968e+01 7.502031e+00 1.615780e+00 8.168790e+00 -1.089152e+00 3.955058e+00 1.060029e+00 6.030251e+01 4.476905e+00 -2.079950e+00 1.771442e+00 -9.352251e-01 -1.444019e+00 -2.052763e+00 -2.405746e+00 1.243100e-01 5.570228e-02 7.336366e-01 -8.799896e-01 -4.643956e-01 1.077727e+00 1.224436e+00 -5.957440e-01 6.537051e-01 -2.809503e-01 -2.963761e-01 -7.630394e-02 -8.778852e-01 3.468960e-01 -5.745425e-02 3.444937e-01 -2.958848e-01 -7.753577e-01 5.805247e-01
<VARIANCE> 39
 1.689892e+01 7.502905e+00 1.326126e+01 1.302584e+01 1.006653e+01 2.130715e+01 1.699500e+01 1.419943e+01 1.081237e+01 1.160237e+01 2.275188e+01 1.091146e+01 5.472511e+00 4.208842e+00 8.880852e-01 1.652635e+00 1.138129e+00 6.983477e-01 1.643264e+00 3.770276e+00 1.124391e+00 1.026101e+00 9.048068e-01 2.356420e+00 2.356092e+00 1.197728e+00 3.489394e-01 9.169871e-02 2.307242e-01 2.151696e-01 1.652198e-01 3.308369e-01 4.198955e-01 4.206721e-01 2.331956e-01 1.541708e-01 3.566170e-01 1.779645e-01 1.938833e-01
<GCONST> 9.111605e+01
<STATE> 3
<MEAN> 39
 -4.704744e+00 -5.984461e+00 2.244953e+00 -9.051129e+00 -5.495303e+00 -1.777205e+01 -5.050604e+00 4.658119e+00 7.978217e+00 3.624787e+00 1.575098e-01 -5.294962e+00 6.881330e+01 4.314050e+00 -3.790978e+00 2.478356e+00 -2.455407e+00 -2.226015e+00 -4.027892e-01 -2.652533e+00 3.449885e+00 7.820407e-01 1.411236e+00 -2.564139e-01 -1.780415e+00 2.865203e+00 -1.397763e+00 1.417373e-01 -4.834222e-01 8.778014e-02 2.250522e-01 9.555054e-01 1.112415e+00 7.149311e-01 3.102303e-01 -5.383132e-01 3.251893e-01 3.165667e-01 -3.672381e-01
<VARIANCE> 39
 1.377493e+01 2.723445e+01 1.025778e+01 1.226612e+01 8.039891e+00 4.936659e+00 2.075865e+01 3.168798e+01 8.163733e+00 1.629459e+01 8.330292e+00 8.895745e+00 1.190032e+01 4.530870e+00 4.245347e-01 1.420009e+00 9.140489e-01 6.554519e-01 2.595761e+00 3.395823e+00 1.574633e+00 1.047560e+00 1.136014e+00 1.480147e+00 6.241690e-01 7.737195e-01 2.341809e-01 2.700842e-01 2.106536e-01 2.545657e-01 1.244258e-01 2.125017e-01 4.338779e-01 4.301425e-01 1.062752e-01 2.695452e-01 2.138191e-01 2.434940e-01 3.008590e-01
<GCONST> 8.853617e+01
<STATE> 4
<MEAN> 39
 9.930997e-01 -1.238977e+01 5.431332e+00 -1.062762e+01 -5.985131e+00 -1.131598e+01 -9.482666e+00 1.146740e+01 9.690160e+00 1.841945e+00 3.526791e+00 -8.179662e+00 6.805900e+01 1.748481e-01 6.555494e-02 8.420961e-02 7.909562e-02 2.855314e-01 3.069375e-01 -2.519983e-01 -4.200770e-02 4.566633e-02 -1.299587e-01 -4.365627e-02 -4.895788e-02 -2.411672e-01 -7.001404e-02 1.794663e-01 -4.973853e-02 1.544811e-01 9.448536e-02 -2.832999e-02 4.876868e-02 -2.197256e-01 -5.066270e-02 -5.124491e-02 -4.241686e-02 5.268107e-02 -1.298501e-01
<VARIANCE> 39
 5.939281e+00 1.676908e+01 1.073241e+01 2.197841e+01 1.451952e+01 1.189403e+01 3.721757e+01 5.013509e+01 7.625907e+00 1.467507e+01 2.311994e+01 7.684212e+00 2.246866e+01 4.680998e-01 1.720572e+00 7.707106e-01 2.464922e+00 1.068042e+00 1.159186e+00 2.017938e+00 4.877566e+00 8.338784e-01 1.624912e+00 2.272518e+00 6.188783e-01 1.373970e+00 1.356044e-01 3.033472e-01 1.952478e-01 4.731565e-01 2.060386e-01 2.086180e-01 3.814250e-01 7.766532e-01 1.709413e-01 3.602308e-01 3.832783e-01 1.378136e-01 2.766297e-01
<GCONST> 9.437286e+01
<TRANSP> 5
 0.000000e+00 1.000000e+00 0.000000e+00 0.000000e+00 0.000000e+00
 0.000000e+00 6.851582e-01 3.148418e-01 0.000000e+00 0.000000e+00
 0.000000e+00 0.000000e+00 6.473562e-01 3.526439e-01 0.000000e+00
 0.000000e+00 0.000000e+00 0.000000e+00 9.533697e-01 4.663035e-02
 0.000000e+00 0.000000e+00 0.000000e+00 0.000000e+00 0.000000e+00
<ENDHMM>
~h "f"
<BEGINHMM>
<NUMSTATES> 5
<STATE> 2
<MEAN> 39
 -9.882346e+00 -2.223613e+00 5.006074e-01 4.388125e-01 2.295702e+00 -2.132004e+00 5.920950e+00 -5.067896e-01 3.600862e+00 5.006043e-01 2.978147e+00 -7.337853e-01 4.787113e+01 1.044507e-01 -5.380945e-01 -7.924266e-01 -6.898523e-01 -1.129420e-01 3.890347e-01 -1.363289e-01 1.034557e-03 -4.153323e-01 1.136853e-01 5.987257e-01 3.942188e-02 1.448669e-01 -1.836041e-01 7.226124e-02 1.105410e-03 3.284879e-02 -3.630098e-02 1.066583e-01 -9.244510e-02 7.046576e-02 4.621738e-02 -6.959119e-02 -9.857803e-02 -2.111349e-02 3.766247e-03
<VARIANCE> 39
 3.004438e+01 1.216292e+01 2.603319e+01 2.479889e+01 9.587743e+00 2.835164e+01 2.584831e+01 2.297118e+01 2.473861e+01 1.479959e+01 2.052396e+01 1.737785e+01 3.257198e+01 1.970282e+00 9.511395e-01 1.731318e+00 2.087864e+00 7.056271e-01 1.497438e+00 1.694450e+00 1.510505e+00 2.625176e+00 1.445219e+00 1.537440e+00 1.976509e+00 1.575929e+00 3.909300e-01 1.984551e-01 3.681426e-01 4.259817e-01 1.360762e-01 2.912645e-01 2.822372e-01 2.673330e-01 4.609957e-01 2.883483e-01 3.465673e-01 4.943576e-01 1.774745e-01
<GCONST> 1.013786e+02
<STATE> 3
<MEAN> 39
 -1.162209e+01 -2.793460e+00 -2.132804e+00 -1.597432e+00 2.370111e+00 -2.072789e+00 6.564160e+00 1.160164e+00 3.806438e+00 -4.891248e-01 2.071340e+00 -9.394702e-01 4.921457e+01 -4.450178e-01 -5.640992e-02 2.764919e-01 6.999351e-01 1.885923e-01 7.418658e-01 -4.147096e-01 3.928668e-02 3.930582e-01 -1.074363e-01 -3.498849e-01 -2.204056e-01 -4.975052e-01 -2.183524e-01 -6.470726e-03 1.456562e-01 2.032134e-01 4.334616e-02 -1.251004e-01 -3.805190e-02 6.967983e-02 1.620481e-01 3.137665e-02 -2.076636e-02 6.111830e-03 1.106056e-01
<VARIANCE> 39
 1.646760e+01 7.826871e+00 1.154013e+01 2.625650e+01 1.204532e+01 3.601659e+01 2.825433e+01 1.771408e+01 2.050034e+01 1.538854e+01 1.603346e+01 1.353708e+01 1.694830e+01 2.060073e+00 6.676316e-01 8.378958e-01 1.854145e+00 9.849882e-01 1.482278e+00 1.123426e+00 1.647697e+00 1.481788e+00 1.552303e+00 1.339412e+00 1.886995e+00 1.289603e+00 1.881199e-01 1.170442e-01 1.823784e-01 4.833765e-01 2.138631e-01 2.552210e-01 2.485557e-01 2.352088e-01 3.769652e-01 3.482417e-01 3.495668e-01 3.715630e-01 1.020795e-01
<GCONST> 9.392506e+01
<STATE> 4
<MEAN> 39
 -1.732457e+01 -5.694158e+00 -2.020016e+00 1.202644e+00 2.019257e+00 -5.298892e-02 1.581928e+00 3.142139e+00 5.807025e+00 7.195406e-02 4.353891e+00 -1.041490e+00 5.206828e+01 -5.110340e-01 -2.416471e-01 -1.862523e-01 -1.226763e-01 -1.958548e-01 -1.020916e-01 -2.787305e-01 1.599772e-01 1.694774e-01 1.279530e-01 2.471948e-01 8.426041e-02 4.879274e-01 1.322701e-01 1.352175e-02 -5.879232e-02 -1.330280e-01 -6.096140e-02 -6.074663e-02 1.801217e-02 -6.496155e-02 -5.076216e-02 -1.598441e-02 1.833982e-02 2.611815e-02 3.877163e-02
<VARIANCE> 39
 1.293081e+01 8.268925e+00 1.368374e+01 1.095342e+01 1.227728e+01 1.114869e+01 1.851922e+01 1.654667e+01 1.499554e+01 1.303878e+01 1.597859e+01 1.018075e+01 1.816590e+01 6.248145e-01 4.840276e-01 7.807935e-01 1.411319e+00 1.178060e+00 1.271011e+00 1.353252e+00 1.725314e+00 1.644609e+00 1.326555e+00 1.303896e+00 9.547851e-01 3.671757e-01 1.229542e-01 9.074128e-02 1.203076e-01 2.238335e-01 2.376508e-01 2.685801e-01 2.894749e-01 3.463685e-01 3.361751e-01 2.591436e-01 2.630796e-01 1.904704e-01 4.995261e-02
<GCONST> 8.382780e+01
<TRANSP> 5
 0.000000e+00 1.000000e+00 0.000000e+00 0.000000e+00 0.000000e+00
 0.000000e+00 6.965452e-01 3.034548e-01 0.000000e+00 0.000000e+00
 0.000000e+00 0.000000e+00 7.579107e-01 2.420893e-01 0.000000e+00
 0.000000e+00 0.000000e+00 0.000000e+00 9.305058e-01 6.949423e-02
 0.000000e+00 0.000000e+00 0.000000e+00 0.000000e+00 0.000000e+00
<ENDHMM>
~h "i"
<BEGINHMM>
<NUMSTATES> 5
<STATE> 2
<MEAN> 39
 -2.372798e+00 -8.352153e+00 3.106974e+01 -1.057744e+01 -1.825198e+01 -6.737030e+00 -1.229445e+01 -1.798965e+00 -5.854700e+00 -5.168377e+00 1.241288e+01 -4.928305e+00 6.456149e+01 -3.973637e-01 9.352515e-01 4.355458e-01 -6.533980e-01 3.669168e-01 6.380540e-01 -3.362660e-01 -2.213494e-01 1.455548e-01 -1.677907e-01 -3.392361e-01 -4.366020e-01 -3.921354e-01 8.413682e-02 -2.623930e-02 -2.926546e-01 2.203280e-01 9.076439e-02 -1.465216e-01 6.828442e-02 1.094137e-01 6.260245e-02 -8.202837e-02 5.836623e-02 7.218181e-02 -4.966544e-02
<VARIANCE> 39
 5.996936e+00 2.084107e+01 1.790275e+01 2.127939e+01 6.569549e+00 8.973181e+00 1.303595e+01 1.022869e+01 2.639424e+01 1.431775e+01 1.415111e+01 3.473951e+01 9.281788e+00 2.411221e-01 2.108945e-01 1.441918e+00 1.117336e+00 4.596764e-01 1.005641e+00 1.214917e+00 9.752724e-01 7.651109e-01 1.424292e+00 1.050590e+00 5.733573e-01 3.263649e-01 2.711843e-02 3.689367e-02 1.229610e-01 8.277672e-02 1.245585e-01 1.172977e-01 2.872965e-01 1.925295e-01 2.213397e-01 3.795874e-01 1.914763e-01 8.444081e-02 2.165166e-02
<GCONST> 7.208385e+01
<STATE> 3
<MEAN> 39
 -2.805451e+00 -2.360769e+00 3.024362e+01 -1.019483e+01 -1.548918e+01 -3.924456e+00 -1.157537e+01 -1.037315e+00 -2.708591e+00 -5.687783e+00 1.257721e+01 -5.279993e+00 6.126234e+01 -2.281289e-02 7.948225e-01 -1.142051e+00 3.648832e-01 6.352647e-01 5.148243e-02 4.298180e-01 -2.480664e-01 -1.568078e-01 -5.013519e-03 -1.030174e-01 -1.945837e-01 -6.536844e-01 5.367659e-02 -1.983825e-02 -2.611076e-01 1.292545e-01 8.526421e-02 -2.991291e-02 1.776238e-01 -1.084088e-01 -1.120299e-02 8.882573e-02 -9.100709e-02 3.339432e-02 -6.826735e-02
<VARIANCE> 39
 1.257834e+00 8.977844e+00 1.328878e+01 1.128101e+01 7.672764e+00 1.221222e+01 8.716164e+00 2.139364e+01 1.081595e+01 1.746133e+01 1.513947e+01 1.260204e+01 7.917744e+00 1.038001e-01 3.670970e-01 8.030782e-01 7.756960e-01 8.644864e-01 1.440898e+00 1.674423e+00 9.426922e-01 7.673354e-01 1.023206e+00 6.300165e-01 3.511651e-01 1.333650e-01 2.159434e-02 5.473716e-02 7.445509e-02 1.297023e-01 1.347765e-01 3.852204e-01 3.623604e-01 2.424717e-01 1.436270e-01 2.310929e-01 1.102210e-01 8.624247e-02 1.791348e-02
<GCONST> 6.575719e+01
<STATE> 4
<MEAN> 39
 -5.327471e+00 9.778652e-01 1.198170e+01 1.055677e+00 -2.786922e+00 -2.725126e+00 -1.545805e+00 -5.006931e+00 1.827268e-01 -4.788829e+00 2.046427e+00 -4.218400e+00 4.971566e+01 -3.573588e-01 2.736900e-03 -1.075707e+00 7.669882e-01 9.420105e-01 1.774989e-01 7.402366e-01 -3.673862e-02 3.618220e-01 2.043401e-01 -7.039112e-01 8.463515e-02 -7.255616e-01 -4.308465e-02 -3.262160e-02 9.808395e-02 -5.141984e-02 -2.429305e-02 1.131386e-02 -3.302497e-02 6.750344e-02 6.302848e-03 2.139693e-02 6.202546e-02 1.449359e-02 4.768936e-02
<VARIANCE> 39
 9.767142e+00 1.344249e+01 4.440146e+01 3.087997e+01 4.724292e+01 1.819288e+01 3.130981e+01 1.915741e+01 2.295582e+01 1.669788e+01 2.633938e+01 1.600112e+01 2.338170e+01 2.432836e-01 7.597252e-01 1.393199e+00 1.302374e+00 1.763118e+00 1.541922e+00 1.570027e+00 1.301579e+00 1.719144e+00 1.225136e+00 1.229016e+00 1.141647e+00 3.714042e-01 4.557627e-02 1.090992e-01 2.057599e-01 2.397318e-01 3.575661e-01 3.789045e-01 3.320530e-01 2.378614e-01 3.110647e-01 2.390130e-01 2.107320e-01 2.252502e-01 4.527814e-02
<GCONST> 9.119865e+01
<TRANSP> 5
 0.000000e+00 1.000000e+00 0.000000e+00 0.000000e+00 0.000000e+00
 0.000000e+00 9.026021e-01 9.739793e-02 0.000000e+00 0.000000e+00
 0.000000e+00 0.000000e+00 8.002453e-01 1.997546e-01 0.000000e+00
 0.000000e+00 0.000000e+00 0.000000e+00 9.426847e-01 5.731528e-02
 0.000000e+00 0.000000e+00 0.000000e+00 0.000000e+00 0.000000e+00
<ENDHMM>
~h "k"
<BEGINHMM>
<NUMSTATES> 5
<STATE> 2
<MEAN> 39
 -7.090940e+00 -5.716493e+00 7.786306e+00 -1.409662e+00 -8.458275e+00 -1.285399e+01 1.405402e+00 -6.813555e-01 -1.865073e+00 -2.116984e+00 6.530095e+00 -3.914350e+00 5.643165e+01 -1.140364e+00 5.048515e-01 -2.289238e+00 6.243137e-01 1.513773e+00 -3.942943e-01 5.907980e-01 -8.413105e-02 9.964941e-01 -7.941974e-02 -9.522671e-01 1.212973e+00 -1.644087e-03 -4.606677e-01 1.478944e-01 -1.980485e-01 -1.192667e-01 -4.302121e-02 -2.069285e-01 1.503248e-01 1.855625e-01 1.039738e-01 -1.192004e-01 1.258282e-01 8.506491e-02 4.235784e-01
<VARIANCE> 39
 1.244671e+01 1.997350e+01 7.751309e+01 2.402274e+01 4.981169e+01 1.539465e+01 1.542173e+01 1.433087e+01 1.963206e+01 1.811297e+01 2.094838e+01 3.072419e+01 2.300698e+01 2.650003e+00 2.122268e+00 3.574091e+00 2.494807e+00 9.995719e-01 3.355004e+00 2.292707e+00 2.828831e+00 1.248591e+00 1.463709e+00 1.584807e+00 1.971617e+00 4.355648e+00 2.725840e-01 5.229715e-01 7.495307e-01 3.720869e-01 2.645699e-01 4.836642e-01 4.975370e-01 3.006181e-01 2.786525e-01 3.405169e-01 3.440256e-01 5.643198e-01 4.843200e-01
<GCONST> 1.105478e+02
<STATE> 3
<MEAN> 39
 -2.234347e+01 9.001433e-01 -8.807858e+00 2.337628e-01 -4.282553e-01 -1.660071e+01 9.513831e+00 1.910169e+00 3.148774e+00 -6.240378e+00 1.540073e+00 3.721111e-01 6.231192e+01 -2.686192e+00 2.291590e+00 -7.509287e-01 2.120987e-01 6.771671e-01 6.336305e-01 1.514378e+00 9.073474e-02 3.813498e-01 -8.061865e-01 -3.033899e-01 -1.130742e-01 -1.282061e-01 6.963706e-01 -2.605537e-01 4.991132e-01 -2.033370e-01 -1.516604e-02 5.520898e-01 -4.065067e-01 -1.185134e-01 -2.353080e-01 2.716622e-01 6.988069e-02 -1.592845e-01 -3.644648e-01
<VARIANCE> 39
 3.227589e+01 2.818447e+01 4.684705e+01 8.932424e+00 2.247138e+01 3.552344e+01 1.494935e+01 2.143679e+01 1.723851e+01 2.364256e+01 1.220630e+01 9.046365e+00 9.319249e+00 3.007721e+00 2.271245e+00 2.577527e+00 7.075501e-01 1.817499e+00 1.639970e+00 1.929141e+00 1.952182e+00 2.236814e+00 1.454451e+00 9.802324e-01 8.179725e-01 7.958664e-01 3.875361e-01 6.655213e-01 5.482889e-01 1.116107e-01 3.190874e-01 3.591023e-01 3.166374e-01 7.081458e-01 3.489016e-01 3.741284e-01 2.397473e-01 1.937490e-01 1.783984e-01
<GCONST> 1.009571e+02
<STATE> 4
<MEAN> 39
 -2.235995e+01 2.851833e+00 -6.822748e+00 -4.189793e+00 6.288212e+00 -9.447390e+00 9.803007e+00 1.847868e+00 4.819850e+00 -2.317688e+00 1.037531e+00 -7.367129e-01 5.509032e+01 4.996900e-01 -2.878215e-01 3.165635e-01 -1.675656e-01 2.421948e-01 3.649751e-01 -1.886817e-01 -1.218646e-01 -7.215064e-02 2.335628e-01 -9.187557e-02 -9.520071e-02 -5.459239e-01 3.592248e-02 -4.606375e-02 5.352255e-02 2.390086e-02 -4.920285e-02 -1.558370e-02 -1.089338e-02 6.078865e-03 -6.190199e-03 -1.980099e-02 5.654940e-03 2.106462e-05 3.957566e-03
<VARIANCE> 39
 4.062311e+01 2.299239e+01 5.009902e+01 2.509117e+01 2.412387e+01 3.270301e+01 2.202754e+01 1.762504e+01 1.510081e+01 2.495217e+01 2.070547e+01 1.468705e+01 3.617067e+01 9.598447e-01 7.562332e-01 7.879664e-01 1.125191e+00 1.462443e+00 1.698771e+00 1.641693e+00 1.672268e+00 1.587873e+00 1.559598e+00 1.282543e+00 1.678159e+00 3.951180e-01 1.211022e-01 1.187421e-01 1.453616e-01 2.142708e-01 2.556350e-01 3.085200e-01 3.305324e-01 3.107445e-01 3.227042e-01 3.046422e-01 2.322194e-01 3.793206e-01 6.039091e-02
<GCONST> 9.566405e+01
<TRANSP> 5
 0.000000e+00 1.000000e+00 0.000000e+00 0.000000e+00 0.000000e+00
 0.000000e+00 8.706477e-01 1.293524e-01 0.000000e+00 0.000000e+00
 0.000000e+00 0.000000e+00 7.743610e-01 2.256390e-01 0.000000e+00
 0.000000e+00 0.000000e+00 0.000000e+00 9.598348e-01 4.016522e-02
 0.000000e+00 0.000000e+00 0.000000e+00 0.000000e+00 0.000000e+00
<ENDHMM>
~h "n"
<BEGINHMM>
<NUMSTATES> 5
<STATE> 2
<MEAN> 39
 -2.503547e+00 -1.892223e+00 5.344356e+00 -2.024403e-01 2.002498e+00 -5.097719e+00 -1.934251e+00 -1.870341e+00 2.230556e+00 -4.555480e+00 -3.724861e+00 -6.411228e+00 5.329613e+01 -5.696667e-01 2.155897e-01 -3.058178e-01 7.316330e-01 4.553253e-01 4.151959e-01 7.782919e-01 -2.434016e-01 4.264906e-02 6.293004e-02 -1.235390e-01 3.999724e-02 -8.456684e-01 -3.039717e-02 -1.343168e-01 4.317646e-02 -9.948410e-02 3.498020e-02 1.086320e-01 -3.040190e-02 1.830112e-01 3.903223e-02 1.048817e-01 1.566320e-01 -2.335588e-02 5.136158e-02
<VARIANCE> 39
 1.459720e+01 1.893141e+01 1.740738e+01 3.621255e+01 3.728770e+01 2.132323e+01 2.592783e+01 3.571982e+01 2.558931e+01 1.989359e+01 2.566039e+01 1.488137e+01 3.687991e+01 4.852025e-01 1.376647e+00 9.007863e-01 3.220892e+00 2.259394e+00 1.421167e+00 2.482674e+00 3.246670e+00 2.192640e+00 1.905197e+00 1.434976e+00 1.189655e+00 7.665735e-01 8.357292e-02 2.441035e-01 1.716814e-01 6.096683e-01 4.337257e-01 2.369676e-01 4.907880e-01 6.712814e-01 4.664128e-01 4.386013e-01 2.691738e-01 2.391275e-01 1.172910e-01
<GCONST> 1.026460e+02
<STATE> 3
<MEAN> 39
 -7.387329e+00 -1.482337e-01 4.988955e+00 3.839875e+00 5.501750e+00 1.386957e-01 4.154309e+00 -1.675374e+00 3.673765e+00 -2.965837e+00 -2.021672e+00 -5.013284e+00 4.652699e+01 -5.075916e-01 -1.452020e-01 -9.108984e-02 6.027025e-02 1.103238e-01 3.649977e-01 4.288094e-01 2.464472e-01 9.626314e-02 2.388882e-01 3.367397e-01 1.947652e-01 -3.784125e-01 4.146277e-02 -3.820685e-02 -6.761118e-02 -1.224745e-01 -2.775672e-02 -8.820575e-02 -1.221084e-01 4.003960e-03 -2.548590e-02 -1.036057e-02 2.357435e-03 3.341307e-02 9.048395e-02
<VARIANCE> 39
 1.229326e+01 7.496353e+00 1.101950e+01 1.489971e+01 1.301861e+01 1.766181e+01 2.038295e+01 2.114919e+01 1.695717e+01 1.384982e+01 1.701621e+01 1.211485e+01 1.159730e+01 3.583249e-01 5.057048e-01 7.076737e-01 1.317423e+00 1.104317e+00 1.420870e+00 1.756216e+00 1.527346e+00 1.674482e+00 1.342696e+00 1.451590e+00 9.346872e-01 2.932238e-01 7.099507e-02 1.028607e-01 1.363889e-01 2.908332e-01 2.231468e-01 2.899100e-01 3.460447e-01 3.374767e-01 3.481188e-01 2.728781e-01 2.988133e-01 1.930627e-01 5.483150e-02
<GCONST> 8.444914e+01
<STATE> 4
<MEAN> 39
 -9.154791e+00 -4.521494e+00 -6.202952e-01 -1.264403e+00 2.955024e+00 3.604018e-01 4.660314e+00 -1.589499e+00 4.826431e+00 -5.417060e-01 3.441898e-01 -2.197698e+00 4.846752e+01 2.305994e-01 -1.774779e-01 -7.084522e-02 -1.421888e-01 -3.622107e-01 -4.332268e-01 -4.008206e-01 -7.685816e-02 2.529956e-01 1.301624e-01 -8.286660e-02 1.556833e-01 4.094967e-01 1.268947e-01 9.539879e-02 1.414685e-01 5.122061e-02 -6.412683e-02 -1.845676e-01 -8.787032e-02 2.741941e-02 1.629522e-02 2.280428e-02 -4.971188e-02 -1.089706e-01 1.297539e-01
<VARIANCE> 39
 1.473145e+01 2.579138e+01 3.214529e+01 4.073566e+01 3.287427e+01 2.637341e+01 2.493032e+01 2.055762e+01 2.425548e+01 1.683422e+01 2.369216e+01 1.931895e+01 2.344892e+01 1.869648e+00 1.547318e+00 3.025691e+00 2.816343e+00 2.056797e+00 2.607073e+00 3.077082e+00 1.841682e+00 2.571422e+00 1.538228e+00 2.360259e+00 2.228150e+00 2.019922e+00 2.514309e-01 2.874732e-01 5.221351e-01 4.808935e-01 3.828703e-01 4.579538e-01 5.679932e-01 2.722508e-01 4.787246e-01 3.366390e-01 3.680895e-01 4.616086e-01 3.494161e-01
<GCONST> 1.111829e+02
<TRANSP> 5
 0.000000e+00 1.000000e+00 0.000000e+00 0.000000e+00 0.000000e+00
 0.000000e+00 7.052347e-01 2.947653e-01 0.000000e+00 0.000000e+00
 0.000000e+00 0.000000e+00 8.898466e-01 1.101534e-01 0.000000e+00
 0.000000e+00 0.000000e+00 0.000000e+00 8.067402e-01 1.932598e-01
 0.000000e+00 0.000000e+00 0.000000e+00 0.000000e+00 0.000000e+00
<ENDHMM>
~h "o"
<BEGINHMM>
<NUMSTATES> 5
<STATE> 2
<MEAN> 39
 7.982173e+00 -1.034322e+01 -5.837738e+00 2.606165e-01 -5.244060e+00 -9.822177e+00 -2.058471e+01 -1.618941e+00 1.063476e+01 1.315026e+00 8.054082e+00 3.502525e+00 6.487793e+01 -1.915582e-01 -3.577304e-01 -1.794752e-01 -4.641958e-01 -6.149397e-01 -2.492374e-01 -2.015314e-01 1.489666e+00 9.876115e-01 6.272348e-01 2.713965e-01 -4.949748e-01 3.797854e-01 -7.620651e-02 -5.202173e-02 2.524501e-01 -1.272801e-01 -6.775410e-02 1.663009e-02 1.257024e-01 1.421442e-01 -2.430611e-01 -2.155210e-02 2.016192e-01 -1.775477e-01 8.641947e-03
<VARIANCE> 39
 4.053071e+00 1.317762e+01 1.072444e+01 6.490644e+00 1.683329e+01 2.311879e+01 2.353006e+01 6.339364e+01 3.506106e+01 1.659498e+01 1.486691e+01 1.583973e+01 1.175562e+01 2.319587e-01 5.577993e-01 1.557119e+00 7.285563e-01 1.175176e+00 9.285956e-01 1.175961e+00 1.979527e+00 3.710987e+00 7.023116e-01 1.999620e+00 1.219658e+00 1.408423e-01 2.626241e-02 1.243198e-01 1.442112e-01 1.149601e-01 2.494510e-01 1.767358e-01 1.811833e-01 3.861142e-01 4.840813e-01 1.442640e-01 2.338820e-01 1.422952e-01 2.283526e-02
<GCONST> 8.091524e+01
<STATE> 3
<MEAN> 39
 6.179564e+00 -8.635382e+00 -3.005546e+00 -1.079481e+01 -6.298253e+00 -6.655764e+00 -1.624923e+01 4.059844e+00 -4.621885e-01 2.913956e+00 1.830920e+01 -1.464186e+00 6.521116e+01 6.206329e-02 8.895156e-01 3.283304e-02 -7.763445e-01 3.609031e-01 4.481559e-01 7.227279e-01 -7.753495e-01 -1.537900e+00 -4.266175e-01 4.597387e-01 1.922354e-01 -5.905159e-01 1.348003e-02 8.948188e-02 -4.436548e-02 1.305733e-01 4.458491e-02 -3.729005e-03 6.202702e-02 -1.399062e-01 7.138679e-02 -6.104331e-02 -1.869528e-01 1.148782e-01 -8.177403e-02
<VARIANCE> 39
 4.507848e+00 2.589078e+01 7.256662e+00 2.572910e+01 1.179091e+01 2.145521e+01 2.816198e+01 4.361961e+01 9.832072e+01 3.505505e+01 2.632366e+01 2.453228e+01 2.232534e+01 1.896126e-01 5.729348e-01 4.030121e-01 6.254639e-01 8.620479e-01 1.008952e+00 1.251776e+00 1.427277e+00 1.226026e+00 2.051407e+00 1.583951e+00 1.085698e+00 1.920965e-01 3.376622e-02 7.590391e-02 6.865954e-02 8.364149e-02 1.727613e-01 1.737860e-01 2.283463e-01 2.499588e-01 2.169058e-01 2.835892e-01 2.345078e-01 1.726113e-01 1.833230e-02
<GCONST> 8.120213e+01
<STATE> 4
<MEAN> 39
 -3.379761e-01 1.871734e+00 -4.422533e-01 -5.061875e+00 -1.068690e+00 -3.769316e+00 -2.612336e+00 -6.608122e+00 -3.938611e+00 -1.916098e+00 9.050035e+00 1.084893e+00 5.149576e+01 -9.403992e-01 5.299999e-02 4.145182e-01 9.544153e-01 4.092022e-01 5.319417e-02 6.520734e-01 -7.915867e-02 6.451051e-01 9.785470e-02 -9.771578e-01 -1.471885e-01 -7.938613e-01 -3.372537e-02 -1.084715e-01 1.298203e-02 -1.827097e-02 -5.507643e-04 -1.012438e-02 -8.163115e-02 1.502058e-01 7.903539e-02 2.944977e-02 3.799795e-02 -4.131505e-02 6.397555e-02
<VARIANCE> 39
 3.299242e+01 1.112015e+01 1.540998e+01 4.381984e+01 1.571629e+01 1.430345e+01 3.199498e+01 2.609227e+01 5.131947e+01 2.335341e+01 3.957049e+01 1.678816e+01 2.518619e+01 4.170667e-01 8.518538e-01 7.963659e-01 1.254506e+00 1.204936e+00 1.504241e+00 2.123531e+00 2.439989e+00 1.590415e+00 1.684963e+00 2.011221e+00 1.614715e+00 3.224401e-01 7.212782e-02 1.226386e-01 1.458045e-01 2.930125e-01 2.616008e-01 2.965630e-01 3.729363e-01 4.269707e-01 3.092568e-01 3.588193e-01 3.752935e-01 3.432863e-01 5.488873e-02
<GCONST> 9.586452e+01
<TRANSP> 5
 0.000000e+00 1.000000e+00 0.000000e+00 0.000000e+00 0.000000e+00
 0.000000e+00 8.994741e-01 1.005258e-01 0.000000e+00 0.000000e+00
 0.000000e+00 0.000000e+00 9.245401e-01 7.545990e-02 0.000000e+00
 0.000000e+00 0.000000e+00 0.000000e+00 9.336256e-01 6.637450e-02
 0.000000e+00 0.000000e+00 0.000000e+00 0.000000e+00 0.000000e+00
<ENDHMM>
~h "r"
<BEGINHMM>
<NUMSTATES> 5
<STATE> 2
<MEAN> 39
 4.695480e+00 -1.001167e+01 3.377513e+00 2.046842e+00 -3.298322e+00 -1.086014e+01 -1.488779e+01 -2.503327e+00 6.823899e+00 -3.098491e+00 7.087536e+00 8.669964e-01 6.173686e+01 1.476461e+00 3.712854e-03 -6.552286e-01 1.918513e-01 2.995314e-01 7.607736e-01 -8.567960e-01 -1.521618e+00 -5.153164e-02 1.594658e-01 7.859604e-02 5.784301e-01 -9.599094e-02 -6.278583e-01 -5.713158e-02 4.954843e-01 -2.726207e-01 -5.334831e-01 6.356179e-02 5.816798e-01 4.409016e-01 -5.982826e-01 -5.485374e-02 4.366122e-01 -3.007784e-02 5.613811e-03
<VARIANCE> 39
 3.036572e+01 2.768805e+01 2.884003e+01 7.402480e+00 2.757740e+01 3.454603e+01 8.334704e+01 2.510053e+01 2.528462e+01 1.295379e+01 1.295341e+01 1.345086e+01 3.860585e+01 3.374463e+00 2.072280e+00 7.294587e+00 6.465966e-01 5.492474e+00 4.800718e+00 2.893254e+00 7.981322e+00 2.478939e+00 5.403764e+00 1.804604e+00 1.583957e+00 1.362138e+00 4.239436e-01 4.512887e-01 2.373924e-01 1.570816e-01 2.498194e-01 3.604702e-01 4.484892e-01 7.840199e-01 9.009136e-01 3.953528e-01 3.464839e-01 3.350843e-01 5.866783e-02
<GCONST> 1.123307e+02
<STATE> 3
<MEAN> 39
 4.491080e+00 -1.143789e+01 6.868885e+00 2.459833e+00 -7.554776e+00 -1.094081e+01 -1.277481e+01 -2.807118e-01 4.223612e+00 -5.233159e+00 1.007153e+01 2.705235e+00 6.162632e+01 -2.790693e-01 1.642511e-01 7.530165e-01 -4.428041e-01 -8.902860e-01 6.664353e-01 1.016324e+00 -5.098746e-01 -1.983356e+00 2.366222e-01 9.911499e-01 2.535563e-01 -1.740818e-01 -1.941299e-01 2.384058e-01 1.228981e-01 -2.993226e-01 -1.890568e-02 6.703345e-02 2.070470e-01 -5.027827e-02 -2.130344e-01 1.736669e-01 -8.358364e-02 -1.312712e-01 4.428677e-02
<VARIANCE> 39
 3.057359e+01 3.529771e+01 4.320849e+01 1.051111e+01 4.184879e+01 5.694667e+01 8.424543e+01 4.682372e+01 4.195991e+01 3.344323e+01 1.934204e+01 1.264848e+01 4.835574e+01 9.634640e-01 1.548610e+00 1.069349e+01 9.548562e-01 6.712717e+00 2.477812e+00 2.859041e+00 4.792409e+00 2.509739e+00 2.925298e+00 2.293761e+00 1.508320e+00 4.716018e-01 6.761244e-02 1.606968e-01 2.117684e-01 1.731358e-01 3.431582e-01 6.601052e-01 4.035089e-01 1.246667e+00 6.247091e-01 8.403674e-01 3.887054e-01 2.825448e-01 5.759545e-02
<GCONST> 1.123888e+02
<STATE> 4
<MEAN> 39
 4.501418e+00 -9.356994e+00 5.620063e+00 2.835737e-01 -7.058146e+00 -7.766594e+00 -1.105806e+01 -4.333627e+00 -1.155697e+00 -3.332472e+00 1.111733e+01 2.375725e+00 6.119183e+01 2.289009e-04 7.311334e-01 -7.070986e-01 -6.057081e-01 3.078259e-01 6.437411e-01 -8.544302e-02 -9.631050e-01 -4.177279e-01 4.068000e-01 -3.771974e-01 2.389141e-01 -2.306950e-01 -4.833152e-02 -6.061932e-02 -2.128434e-02 -3.392676e-02 5.984056e-02 -3.175631e-01 -4.780204e-01 3.758773e-01 8.796535e-01 -6.422284e-02 -4.121730e-01 -4.885617e-02 1.514723e-01
<VARIANCE> 39
 2.831344e+01 2.580033e+01 1.118559e+02 8.799340e+00 7.724897e+01 3.689104e+01 7.523388e+01 3.071085e+01 3.089017e+01 1.994073e+01 2.225416e+01 8.996934e+00 4.218864e+01 6.108093e-01 5.430813e-01 4.837979e+00 1.122210e+00 1.491022e+00 1.379944e+00 1.827028e+00 1.686029e+00 2.383252e+00 2.436447e+00 9.483797e-01 1.763061e+00 1.719110e-01 4.055452e-02 1.609203e-01 3.332988e-01 1.017426e-01 5.013574e-01 3.934456e-01 4.111666e-01 4.433459e-01 3.576110e-01 4.852365e-01 3.316789e-01 1.628527e-01 5.663190e-02
<GCONST> 9.999249e+01
<TRANSP> 5
 0.000000e+00 1.000000e+00 0.000000e+00 0.000000e+00 0.000000e+00
 0.000000e+00 5.686460e-01 4.313540e-01 0.000000e+00 0.000000e+00
 0.000000e+00 0.000000e+00 3.688931e-01 6.311069e-01 0.000000e+00
 0.000000e+00 0.000000e+00 0.000000e+00 4.528567e-01 5.471433e-01
 0.000000e+00 0.000000e+00 0.000000e+00 0.000000e+00 0.000000e+00
<ENDHMM>
~h "s"
<BEGINHMM>
<NUMSTATES> 5
<STATE> 2
<MEAN> 39
 -1.070648e+01 -3.919666e+00 -8.413015e-02 -1.608852e+00 3.899038e+00 -1.759696e+00 4.372780e+00 -1.503163e+00 2.438015e+00 -1.941420e+00 8.083098e-01 -8.804895e-01 4.828654e+01 -4.054388e-01 1.899171e-02 -2.200617e-01 -6.169174e-01 5.700521e-01 -5.121478e-01 1.701146e-01 3.332091e-01 -1.916103e-01 4.782466e-03 -2.102037e-01 3.953145e-03 4.523556e-01 -3.296671e-01 2.765089e-01 -1.875720e-01 -9.782611e-02 1.708909e-01 -3.003080e-01 1.758187e-01 -4.062341e-02 1.189297e-01 7.035894e-02 7.312357e-02 -3.585176e-02 1.967982e-01
<VARIANCE> 39
 1.715452e+01 2.275249e+01 2.865641e+01 1.735922e+01 1.727280e+01 3.595324e+01 3.375019e+01 1.344608e+01 2.106971e+01 1.888521e+01 1.557930e+01 9.189229e+00 1.311537e+01 1.927879e+00 1.597050e+00 1.620843e+00 1.664731e+00 2.130770e+00 4.686233e+00 2.410288e+00 2.005127e+00 2.243335e+00 2.624921e+00 1.567818e+00 1.344003e+00 1.195667e+00 2.408837e-01 3.135924e-01 2.568124e-01 2.182944e-01 3.456354e-01 4.888629e-01 3.401494e-01 3.411892e-01 5.358890e-01 3.433792e-01 2.403533e-01 2.103046e-01 1.525871e-01
<GCONST> 1.026637e+02
<STATE> 3
<MEAN> 39
 -1.474748e+01 2.467434e+00 -9.237453e-02 -4.382699e+00 1.021483e+01 -1.007160e+01 3.422392e+00 -1.378141e-01 1.893117e+00 1.813085e+00 3.476981e-01 -3.198883e+00 5.180297e+01 -3.281348e+00 2.171811e+00 -1.234368e+00 -8.837608e-02 1.175505e+00 -1.339598e+00 1.218416e+00 -4.582376e-01 8.511940e-01 -6.654383e-01 1.117835e-01 2.473867e-01 1.552468e+00 -4.162256e-01 2.806049e-01 -1.915836e-01 4.794054e-01 -4.837582e-01 6.900702e-01 3.038355e-01 -9.971216e-02 2.315811e-01 -5.292575e-01 1.483287e-01 2.562652e-01 -2.088594e-02
<VARIANCE> 39
 4.565474e+01 2.742148e+01 3.818382e+01 2.228915e+01 3.780871e+01 4.898392e+01 7.486794e+01 3.520279e+01 4.149665e+01 4.772123e+01 1.778287e+01 1.885889e+01 1.516372e+01 3.711462e+00 2.357314e+00 1.615337e+00 3.100092e+00 2.615795e+00 5.042133e+00 3.676265e+00 3.318701e+00 2.489700e+00 4.820169e+00 2.252278e+00 1.760971e+00 1.073774e+00 7.824857e-01 5.403543e-01 2.196323e-01 3.512001e-01 4.493224e-01 7.540151e-01 8.175784e-01 7.087412e-01 3.933179e-01 9.450434e-01 3.107207e-01 3.785549e-01 1.304501e-01
<GCONST> 1.196592e+02
<STATE> 4
<MEAN> 39
 -2.875517e+01 8.843504e+00 -6.687052e+00 -1.528644e+00 6.888393e+00 -8.135113e+00 8.328811e+00 -1.071626e-01 5.178071e+00 -2.801039e+00 2.873133e+00 -1.315352e+00 5.752794e+01 -4.217448e-01 -1.195293e-01 -2.976377e-01 -8.664107e-02 -7.133549e-01 6.702974e-02 5.276949e-02 7.546664e-02 1.518508e-01 -5.306384e-04 2.770509e-01 9.424391e-02 4.996566e-01 4.689834e-01 -2.637390e-01 2.306564e-01 -9.160650e-02 -1.400700e-01 -1.384578e-01 -2.065427e-01 2.548519e-02 -7.027259e-02 1.290565e-01 -1.275400e-02 5.476008e-03 -3.071187e-02
<VARIANCE> 39
 1.221661e+01 1.384148e+01 1.655354e+01 2.251799e+01 1.899438e+01 1.747571e+01 1.788362e+01 1.374187e+01 2.014455e+01 1.298026e+01 1.252476e+01 1.231122e+01 8.623512e+00 2.254137e+00 1.223908e+00 1.054596e+00 1.392785e+00 1.288788e+00 1.409393e+00 1.838083e+00 1.226721e+00 1.476871e+00 1.465568e+00 1.070546e+00 1.485697e+00 4.159726e-01 2.616145e-01 1.938802e-01 2.415653e-01 2.509957e-01 2.846045e-01 2.982722e-01 3.502282e-01 2.114286e-01 3.095296e-01 2.724607e-01 2.486535e-01 2.951078e-01 8.841528e-02
<GCONST> 9.160070e+01
<TRANSP> 5
 0.000000e+00 1.000000e+00 0.000000e+00 0.000000e+00 0.000000e+00
 0.000000e+00 7.280570e-01 2.719431e-01 0.000000e+00 0.000000e+00
 0.000000e+00 0.000000e+00 5.763180e-01 4.236821e-01 0.000000e+00
 0.000000e+00 0.000000e+00 0.000000e+00 8.996068e-01 1.003932e-01
 0.000000e+00 0.000000e+00 0.000000e+00 0.000000e+00 0.000000e+00
<ENDHMM>
~h "t"
<BEGINHMM>
<NUMSTATES> 5
<STATE> 2
<MEAN> 39
 -6.954382e+00 3.754197e+00 2.185673e+01 -6.370335e+00 -6.636154e+00 -1.335129e+00 -7.516749e+00 -6.119490e+00 -1.968001e+00 -5.454862e+00 2.627136e+00 -1.095299e+01 5.292638e+01 -6.807091e-02 -8.188754e-02 -1.632113e+00 1.437711e+00 8.774887e-01 7.541078e-01 4.309060e-01 -1.047773e+00 6.608712e-01 -5.616572e-01 -5.650820e-01 2.214615e-01 -1.325685e+00 -2.378343e-01 -2.591860e-01 -1.886103e-01 -3.278356e-01 1.627023e-01 -2.346682e-01 4.945696e-02 3.419677e-01 -6.048492e-02 1.171034e-01 1.845557e-01 1.567534e-01 4.901305e-01
<VARIANCE> 39
 6.526394e+00 1.246963e+01 3.019771e+01 2.384134e+01 1.911046e+01 3.046381e+01 2.321621e+01 2.890415e+01 1.992627e+01 1.988639e+01 2.277192e+01 1.499325e+01 2.671654e+01 8.472043e-01 1.421941e+00 2.067920e+00 2.398741e+00 1.864452e+00 2.828262e+00 4.264306e+00 2.432135e+00 2.068975e+00 1.523955e+00 1.674228e+00 1.970708e+00 1.587707e+00 2.105448e-01 2.479171e-01 7.000151e-01 3.363477e-01 3.470307e-01 7.622500e-01 1.086729e+00 3.905678e-01 4.594154e-01 3.512750e-01 3.206270e-01 4.665525e-01 3.434961e-01
<GCONST> 1.078472e+02
<STATE> 3
<MEAN> 39
 -1.042122e+01 4.874333e-01 1.000156e+01 -2.662962e+00 2.244327e+00 -9.688771e-01 -1.659704e+00 -5.145976e+00 1.477798e+00 -6.166946e+00 1.948288e+00 -6.855747e+00 5.266084e+01 -2.788036e+00 -8.745428e-01 -5.150480e+00 -9.984112e-01 1.102292e+00 -2.711888e+00 2.754501e+00 1.375326e+00 1.518400e+00 9.566885e-01 1.042179e+00 2.078587e+00 3.698242e+00 -6.534204e-01 4.354508e-01 -4.738744e-01 -2.424255e-01 -6.123539e-01 -5.119553e-01 2.994386e-01 1.604034e-01 5.770950e-02 4.118349e-01 1.364502e-01 1.649293e-01 6.071564e-01
<VARIANCE> 39
 1.983050e+01 1.438391e+01 5.533676e+01 2.104798e+01 2.346363e+01 3.852306e+01 2.352474e+01 3.019476e+01 1.529692e+01 1.532680e+01 1.756913e+01 2.233084e+01 3.295335e+01 1.396137e+00 1.364700e+00 7.697808e+00 2.610433e+00 3.418478e+00 2.999512e+00 3.093735e+00 2.196324e+00 1.317581e+00 2.494945e+00 1.167338e+00 1.636502e+00 3.321519e+00 2.435679e-01 3.945345e-01 1.094308e+00 5.542372e-01 2.536286e-01 7.017114e-01 3.953155e-01 3.061309e-01 3.455600e-01 2.984324e-01 2.598056e-01 4.170420e-01 8.642957e-01
<GCONST> 1.122939e+02
<STATE> 4
<MEAN> 39
 -2.185346e+01 1.885687e+00 -3.991973e+00 -6.345483e+00 3.539387e+00 -1.121244e+01 8.658602e+00 2.400254e+00 4.435359e+00 -7.793238e-01 2.661245e+00 -6.872026e-01 6.053182e+01 5.193610e-03 3.095135e-02 -1.663302e-01 2.899705e-02 6.203119e-02 -5.168613e-01 5.325894e-01 5.733250e-01 3.670868e-02 2.440419e-01 -2.917563e-01 2.821768e-01 -4.668710e-01 4.212479e-01 -6.490686e-02 4.570649e-01 1.796731e-01 -3.617531e-02 2.506327e-01 -3.077681e-01 -1.981863e-01 -9.028704e-02 -1.465511e-01 -9.307754e-02 -1.465379e-01 -4.196421e-01
<VARIANCE> 39
 1.907425e+01 1.400284e+01 1.800248e+01 1.566544e+01 2.039960e+01 1.997970e+01 2.202783e+01 3.097940e+01 1.375603e+01 1.390104e+01 1.793490e+01 1.103252e+01 2.330888e+01 4.458274e+00 1.807552e+00 3.895408e+00 1.948832e+00 1.752526e+00 2.663272e+00 2.774433e+00 3.179520e+00 1.431009e+00 1.874867e+00 1.413369e+00 1.481717e+00 2.701412e+00 3.244291e-01 3.774680e-01 6.713858e-01 3.224487e-01 3.535936e-01 4.552827e-01 3.726857e-01 5.517896e-01 3.195640e-01 3.676457e-01 3.110561e-01 3.033288e-01 3.194800e-01
<GCONST> 1.070025e+02
<TRANSP> 5
 0.000000e+00 1.000000e+00 0.000000e+00 0.000000e+00 0.000000e+00
 0.000000e+00 8.618525e-01 1.381475e-01 0.000000e+00 0.000000e+00
 0.000000e+00 0.000000e+00 6.109489e-01 3.890512e-01 0.000000e+00
 0.000000e+00 0.000000e+00 0.000000e+00 9.127088e-01 8.729117e-02
 0.000000e+00 0.000000e+00 0.000000e+00 0.000000e+00 0.000000e+00
<ENDHMM>
~h "u"
<BEGINHMM>
<NUMSTATES> 5
<STATE> 2
<MEAN> 39
 1.553679e+00 -6.032959e+00 1.543005e+01 1.874804e+00 -5.091722e+00 -2.163774e+01 -2.048680e+01 1.096624e+01 -2.327867e-01 -1.318385e+01 1.673291e+01 -5.273376e+00 6.388020e+01 9.521838e-01 -6.275404e-02 -8.375309e-02 9.981475e-03 5.097961e-01 -1.130395e-01 -1.509299e+00 4.001490e-01 3.250158e-01 1.910339e-04 5.863753e-01 -7.437516e-01 6.103900e-02 -3.675717e-01 1.074817e-01 -2.876178e-01 -4.117658e-01 1.453298e-01 4.804749e-01 2.998168e-01 -6.888545e-02 -3.412188e-03 3.321688e-01 -9.821514e-02 -1.519832e-01 -1.059149e-01
<VARIANCE> 39
 3.256135e+00 2.600195e+00 8.264102e+00 5.297969e+00 8.452978e+00 7.126139e+00 2.000290e+01 1.235795e+01 6.978649e+00 6.876131e+00 8.049181e+00 1.546815e+01 1.173959e+00 1.621791e+00 8.369162e-01 1.899863e+00 2.116971e+00 4.537891e-01 3.898890e+00 2.044853e+00 2.029137e+00 5.087153e-01 2.233193e+00 1.637453e+00 7.445719e-01 5.246925e-01 3.580647e-01 7.273876e-02 2.146542e-01 2.481170e-01 8.045407e-02 2.435518e-01 1.605259e-01 3.291803e-01 1.742448e-01 1.037755e-01 3.431742e-01 1.394262e-01 5.222353e-02
<GCONST> 7.597007e+01
<STATE> 3
<MEAN> 39
 5.549747e+00 1.040695e+00 7.692402e+00 -3.156700e+00 1.117285e+00 -9.635710e+00 -2.106420e+01 1.251920e+00 -3.100287e+00 -5.763222e+00 1.898391e+01 -7.356937e+00 5.805230e+01 -4.792521e-02 8.059664e-01 -7.200626e-01 5.146216e-01 5.371049e-01 1.170290e+00 1.441482e+00 -1.608798e+00 -9.988819e-02 2.213065e-01 -3.386123e-01 8.095744e-01 -7.883456e-01 -1.404371e-01 -5.264844e-02 1.653840e-02 2.541053e-01 2.231184e-02 -2.443325e-02 2.261053e-01 -4.100415e-02 4.180191e-03 -4.905977e-02 -2.608754e-01 1.155643e-01 -2.474679e-02
<VARIANCE> 39
 1.490178e+00 1.527736e+01 8.868008e+00 6.515565e+00 2.389838e+00 1.111844e+01 2.817062e+01 4.341718e+01 1.029967e+01 3.738584e+00 3.907581e+00 1.973223e+01 8.771327e+00 4.699824e-01 2.810575e-01 2.901632e-01 1.480965e+00 5.309327e-01 4.086660e-01 1.643009e+00 6.395630e-01 1.603201e+00 7.818665e-01 1.057019e+00 1.102931e+00 8.247662e-02 5.104711e-02 7.229451e-02 6.917330e-02 1.105260e-01 9.646298e-02 8.484064e-02 1.057101e-01 1.171815e-01 3.035886e-01 1.448173e-01 1.430176e-01 2.397164e-01 1.272804e-02
<GCONST> 6.241867e+01
<STATE> 4
<MEAN> 39
 -6.012778e+00 -2.979243e-01 4.928202e+00 6.116220e+00 6.506684e+00 -1.072821e-01 2.720101e+00 -2.308413e+00 3.609023e+00 -8.624880e-01 2.200216e+00 -3.311723e+00 4.754080e+01 -5.813646e-01 -6.948718e-01 -2.787980e-01 -2.332355e-01 -9.375987e-02 1.772267e-01 7.519683e-01 7.612967e-01 3.136284e-02 2.204225e-01 -3.931328e-01 -1.928329e-01 3.604643e-02 8.103714e-02 3.720813e-02 3.438025e-02 -8.159693e-02 -6.399402e-02 -4.005414e-02 -1.326414e-01 9.786326e-04 1.073002e-02 2.331951e-03 1.673892e-01 -1.122023e-02 -8.800683e-03
<VARIANCE> 39
 2.222898e+01 2.826248e+01 2.544116e+01 1.773212e+01 6.290865e+00 7.386621e+00 3.820717e+01 4.225858e+01 2.395170e+01 1.117002e+01 1.340133e+01 1.183589e+01 1.545993e+01 3.959090e-01 1.423423e+00 2.196987e+00 1.842794e+00 8.315091e-01 8.409798e-01 1.587087e+00 1.713569e+00 3.435357e+00 7.117943e-01 2.105306e+00 6.208223e-01 1.803864e+00 5.185886e-02 3.374604e-01 4.169011e-01 3.354204e-01 1.849215e-01 2.062067e-01 4.022917e-01 4.875726e-01 7.714763e-01 8.944292e-02 1.887039e-01 9.967511e-02 3.390685e-01
<GCONST> 9.343401e+01
<TRANSP> 5
 0.000000e+00 1.000000e+00 0.000000e+00 0.000000e+00 0.000000e+00
 0.000000e+00 9.178026e-01 8.219744e-02 0.000000e+00 0.000000e+00
 0.000000e+00 0.000000e+00 9.156993e-01 8.430068e-02 0.000000e+00
 0.000000e+00 0.000000e+00 0.000000e+00 9.583811e-01 4.161889e-02
 0.000000e+00 0.000000e+00 0.000000e+00 0.000000e+00 0.000000e+00
<ENDHMM>
~h "v"
<BEGINHMM>
<NUMSTATES> 5
<STATE> 2
<MEAN> 39
 2.355426e+00 -1.924302e+01 4.956301e+00 -1.213015e+01 -6.160599e+00 -9.946347e+00 -6.817629e+00 1.787449e+01 8.482631e+00 -1.488073e+00 2.957934e+00 -7.796730e+00 6.952528e+01 -2.252140e-01 1.105009e+00 1.662059e+00 8.913591e-01 -1.222832e+00 -1.857663e+00 2.583043e-01 1.905294e-01 -9.845210e-01 -4.648796e-01 8.520339e-01 1.123603e+00 -6.666062e-01 1.496843e-02 2.672922e-01 2.436518e-01 7.998434e-02 -1.787757e-01 3.230763e-01 -4.357386e-02 -8.884006e-01 -4.378373e-01 2.481260e-01 4.227694e-01 -1.586157e-02 -2.021271e-01
<VARIANCE> 39
 3.871505e+00 5.117677e+01 1.173528e+01 8.149396e+00 3.183311e+01 1.611081e+01 2.276102e+01 4.048178e+01 1.749108e+01 1.670456e+01 2.088457e+01 9.720340e+00 1.501067e+01 5.723885e-01 3.183776e-01 1.561244e+00 1.886932e+00 2.280980e+00 3.338875e+00 6.229973e-01 4.750174e+00 1.664928e+00 1.571789e+00 2.854480e+00 8.365697e-01 7.803892e-01 4.509832e-02 9.169045e-02 1.235343e-01 3.607649e-01 2.425993e-01 3.537083e-01 1.736012e-01 3.815736e-01 1.999345e-01 1.898402e-01 3.957793e-01 1.273293e-01 5.326152e-02
<GCONST> 8.940878e+01
<STATE> 3
<MEAN> 39
 1.442844e+00 -1.294740e+01 1.184380e+01 -7.468606e+00 -9.613360e+00 -1.544844e+01 -7.129809e+00 1.368747e+01 1.337913e+00 -1.363603e+00 9.777167e+00 -3.907568e+00 6.540702e+01 4.261354e-02 1.596844e+00 -2.401010e-01 1.942232e+00 6.470938e-01 -2.611613e-01 7.190706e-02 -1.484790e+00 -2.037573e-01 -2.474527e-01 -2.270804e-01 1.345728e-01 -1.327895e+00 -6.198016e-02 1.176644e-03 -3.424675e-01 1.257814e-01 2.189964e-01 2.000180e-01 1.251804e-01 -7.621741e-02 3.269220e-01 -3.271695e-02 -3.912100e-01 -1.250705e-01 -4.095502e-02
<VARIANCE> 39
 3.749763e+00 2.590097e+01 2.449441e+01 3.514236e+01 3.559851e+01 2.190799e+01 1.974078e+01 3.115967e+01 3.409270e+01 1.012708e+01 4.434158e+01 1.081533e+01 1.904393e+01 3.899118e-01 4.583829e-01 3.494728e+00 1.549377e+00 1.895713e+00 1.189397e+00 1.076777e+00 2.738825e+00 2.508879e+00 1.031893e+00 1.810149e+00 1.133646e+00 2.534465e-01 1.059666e-01 8.542644e-02 3.678952e-01 3.061115e-01 3.238096e-01 3.299874e-01 2.017166e-01 4.585432e-01 3.556039e-01 2.408070e-01 2.019241e-01 2.445042e-01 7.034171e-02
<GCONST> 9.358933e+01
<STATE> 4
<MEAN> 39
 -3.396794e+00 -3.870168e+00 3.889318e+00 8.258699e-01 -3.661071e-01 -8.791262e+00 -1.220899e+00 3.595061e+00 5.985613e+00 -2.026492e+00 4.951094e-01 -4.819092e+00 5.571375e+01 -3.891944e-01 3.425192e-01 -1.684983e-01 3.313209e-01 2.092039e-01 6.917977e-01 4.648165e-01 -7.794720e-01 3.766254e-01 7.719118e-02 -4.792466e-01 9.599369e-02 -6.787335e-01 -1.101272e-02 -1.316527e-01 5.665991e-02 -1.728554e-01 -4.210634e-02 -1.720616e-02 -7.760542e-02 1.658981e-01 -3.287087e-02 4.461154e-02 1.455670e-01 3.119153e-02 9.631794e-02
<VARIANCE> 39
 3.233576e+01 9.773619e+00 2.699821e+01 2.009560e+01 1.596572e+01 2.702234e+01 4.069051e+01 2.911718e+01 1.981654e+01 1.880599e+01 2.801353e+01 9.528835e+00 2.113719e+01 1.093101e+00 6.420499e-01 9.663126e-01 1.663043e+00 1.396008e+00 1.340843e+00 1.634794e+00 2.948154e+00 1.403518e+00 1.683112e+00 1.966492e+00 9.212762e-01 5.488474e-01 1.850793e-01 1.091544e-01 1.976428e-01 2.455713e-01 2.008575e-01 2.363574e-01 2.872748e-01 5.938110e-01 2.887609e-01 3.281722e-01 3.040937e-01 1.655191e-01 9.792709e-02
<GCONST> 9.519387e+01
<TRANSP> 5
 0.000000e+00 1.000000e+00 0.000000e+00 0.000000e+00 0.000000e+00
 0.000000e+00 5.670264e-01 4.329736e-01 0.000000e+00 0.000000e+00
 0.000000e+00 0.000000e+00 7.438747e-01 2.561253e-01 0.000000e+00
 0.000000e+00 0.000000e+00 0.000000e+00 8.622285e-01 1.377715e-01
 0.000000e+00 0.000000e+00 0.000000e+00 0.000000e+00 0.000000e+00
<ENDHMM>
~h "w"
<BEGINHMM>
<NUMSTATES> 5
<STATE> 2
<MEAN> 39
 -1.076284e+01 -2.886339e+00 2.387274e+00 2.623563e+00 4.411825e+00 -4.005899e-01 3.681489e+00 -1.970004e+00 5.076004e+00 6.134319e-01 1.692308e+00 -2.463448e+00 4.576166e+01 -6.233050e-02 -4.055360e-02 7.254169e-02 -3.724634e-02 -1.493393e-01 1.499373e-01 1.295857e-01 5.519567e-02 5.356545e-03 -8.186405e-03 8.392843e-02 8.898543e-03 -1.321073e-01 4.246928e-02 2.485409e-02 1.470548e-02 -5.131495e-02 -7.396075e-02 -9.318963e-02 -3.871848e-02 3.662866e-02 5.156116e-03 -1.507074e-03 3.208178e-02 -1.550805e-03 2.989364e-02
<VARIANCE> 39
 6.619272e+00 1.935861e+01 1.220714e+01 1.359733e+01 1.860484e+01 1.865452e+01 1.366985e+01 1.648461e+01 1.639805e+01 2.129518e+01 1.421921e+01 1.363961e+01 1.867540e+01 8.382474e-01 7.423657e-01 8.979379e-01 7.349074e-01 1.330097e+00 1.854367e+00 9.636845e-01 1.430596e+00 1.856137e+00 1.768821e+00 2.010432e+00 1.602656e+00 6.233198e-01 1.852233e-01 1.395439e-01 1.600903e-01 1.566490e-01 2.379763e-01 3.763442e-01 1.692408e-01 2.865103e-01 3.791738e-01 3.865988e-01 4.273206e-01 2.616019e-01 1.225912e-01
<GCONST> 9.018900e+01
<STATE> 3
<MEAN> 39
 -8.597038e+00 -9.867363e-01 3.564596e+00 4.355733e-01 2.491225e-01 -1.296140e+00 3.962903e+00 -1.198246e+00 4.356874e+00 -7.863938e-01 1.451468e+00 -1.880055e+00 4.586216e+01 2.679859e+00 1.766780e+00 -2.835752e-02 -2.619266e+00 -2.824692e+00 -2.589904e+00 -1.815588e+00 4.532651e-01 -3.790575e-01 -9.736079e-01 7.326677e-01 -7.553744e-01 1.741400e+00 1.112929e+00 3.970750e-01 -1.740626e-01 -1.053520e+00 -8.306345e-01 -5.358227e-01 -5.185663e-01 3.259011e-01 -1.844328e-01 -2.645712e-01 4.860559e-01 -2.928937e-01 7.757130e-01
<VARIANCE> 39
 1.365211e+01 1.082282e+01 4.723981e+00 1.116957e+01 1.733848e+01 2.105165e+01 1.401725e+01 1.295938e+01 1.160113e+01 1.167819e+01 7.924473e+00 1.361705e+01 1.008875e+01 4.340890e+00 1.236401e+00 7.477535e-01 4.490732e+00 3.360570e+00 2.877599e+00 1.838665e+00 1.416405e+00 1.006723e+00 1.884031e+00 1.894130e+00 1.805313e+00 1.884532e+00 2.514869e-01 1.719157e-01 8.448543e-02 3.629987e-01 2.911111e-01 4.562925e-01 2.923464e-01 3.195677e-01 1.671393e-01 2.590231e-01 3.777854e-01 4.228997e-01 1.018775e-01
<GCONST> 9.399059e+01
<STATE> 4
<MEAN> 39
 6.725933e+00 -6.334667e+00 -1.907234e+00 -2.163876e+01 -9.099457e+00 5.548248e+00 -4.049817e+00 9.062533e+00 2.375286e-01 -6.123652e+00 1.105088e+01 -9.507223e+00 6.587354e+01 2.011263e-01 -6.323512e-01 -2.791918e-01 -3.480090e-01 3.733757e-01 5.053443e-01 -2.821185e-01 1.867904e-01 2.562125e-02 1.203727e-01 1.444602e-02 -2.957888e-01 6.223444e-01 -1.605285e-01 -2.953943e-02 1.251454e-02 1.947738e-01 1.824746e-01 -2.037703e-02 5.786435e-02 -3.954780e-02 8.554129e-03 7.189702e-02 -9.411783e-02 4.707474e-02 -1.317018e-01
<VARIANCE> 39
 5.585758e+00 1.072791e+02 2.177842e+01 2.890345e+01 4.013466e+01 1.293704e+02 2.040336e+01 3.294348e+01 1.843840e+01 1.685358e+01 2.829336e+01 2.243591e+01 3.516965e+01 1.589038e+00 1.805640e+00 9.823926e-01 2.721000e+00 2.211386e+00 3.914758e+00 2.143242e+00 2.183795e+00 1.408687e+00 1.501241e+00 1.975041e+00 1.163898e+00 9.778246e-01 1.795770e-01 1.913245e-01 1.359725e-01 2.510264e-01 2.825637e-01 4.575151e-01 3.749752e-01 2.798886e-01 2.330798e-01 2.186137e-01 2.239056e-01 2.076058e-01 7.389178e-02
<GCONST> 1.029345e+02
<TRANSP> 5
 0.000000e+00 1.000000e+00 0.000000e+00 0.000000e+00 0.000000e+00
 0.000000e+00 9.385634e-01 6.143656e-02 0.000000e+00 0.000000e+00
 0.000000e+00 0.000000e+00 7.041104e-01 2.958896e-01 0.000000e+00
 0.000000e+00 0.000000e+00 0.000000e+00 9.642685e-01 3.573152e-02
 0.000000e+00 0.000000e+00 0.000000e+00 0.000000e+00 0.000000e+00
<ENDHMM>
~h "z"
<BEGINHMM>
<NUMSTATES> 5
<STATE> 2
<MEAN> 39
 -1.107785e+01 -1.350781e+00 2.295420e+00 -1.244016e+00 1.011622e+00 -5.406347e+00 2.987115e+00 -1.849311e-01 3.641595e+00 -6.437603e-01 9.809890e-01 -2.397519e+00 4.720934e+01 4.618727e-01 -2.047605e-02 -3.617494e-01 -3.927109e-01 -3.907381e-01 -1.119944e+00 -6.989037e-01 2.042559e-01 3.668247e-01 3.569859e-01 -2.956110e-02 -2.027149e-01 4.276156e-01 1.405559e-01 2.895002e-01 1.057793e-02 2.216599e-01 -4.333041e-04 -5.672455e-01 8.613049e-02 -1.309323e-01 -2.341417e-01 -1.562727e-01 -3.435505e-02 -1.191115e-01 5.298420e-01
<VARIANCE> 39
 1.085076e+01 1.712645e+01 2.841138e+01 2.208960e+01 1.846724e+01 4.390371e+01 2.636318e+01 2.482145e+01 3.243393e+01 1.840201e+01 1.961098e+01 7.563274e+00 1.601609e+01 1.437301e+00 1.321888e+00 2.694066e+00 4.067128e+00 1.788652e+00 4.460405e+00 2.371872e+00 2.318970e+00 3.170086e+00 2.430914e+00 1.719110e+00 8.527043e-01 3.026890e+00 3.043963e-01 4.454236e-01 2.714623e-01 5.358864e-01 4.496208e-01 7.738694e-01 5.262258e-01 4.575205e-01 3.975297e-01 4.270018e-01 4.514979e-01 1.359766e-01 2.353152e-01
<GCONST> 1.086233e+02
<STATE> 3
<MEAN> 39
 -8.401109e+00 -3.788872e+00 -1.196101e+00 -3.954148e+00 1.194583e+00 -7.466750e+00 1.686916e+00 2.294859e+00 6.380769e+00 1.560726e+00 1.600209e-01 -4.239974e+00 4.930147e+01 5.926756e-01 6.315066e-01 4.257180e-01 2.619462e-01 -3.661901e-03 -1.687665e+00 1.229387e-02 8.047572e-02 -4.727365e-01 -2.673969e-01 -6.701264e-02 -1.872502e-01 1.051449e+00 -5.042066e-02 6.435153e-01 1.716296e-01 3.265058e-01 -8.379412e-02 -4.752286e-01 1.659607e-01 -1.847849e-01 -1.602815e-01 -2.736973e-01 1.465355e-01 5.452529e-02 4.428883e-01
<VARIANCE> 39
 2.372103e+01 4.690659e+01 7.905697e+01 7.660239e+01 1.462192e+01 3.359678e+01 3.199312e+01 3.966692e+01 6.743969e+01 2.034490e+01 1.013892e+01 1.253795e+01 2.690602e+01 1.411696e+00 2.991881e+00 2.045329e+00 2.458653e+00 2.194185e+00 7.340602e+00 3.222768e+00 2.216903e+00 2.512623e+00 2.020700e+00 1.253237e+00 1.123950e+00 3.146713e+00 1.996723e-01 4.349235e-01 3.235873e-01 3.996026e-01 3.539540e-01 8.375837e-01 4.318519e-01 4.436661e-01 4.175725e-01 3.420435e-01 1.925632e-01 2.094391e-01 3.831307e-01
<GCONST> 1.135467e+02
<STATE> 4
<MEAN> 39
 -6.920906e+00 4.793680e+00 4.193347e+00 1.861309e+00 -1.345586e+00 -1.733741e+01 1.296156e+00 1.016963e+00 5.775754e-01 -3.038814e+00 1.250805e+00 -5.443101e+00 5.656750e+01 -3.752335e-01 2.781879e+00 -8.992258e-02 1.632471e+00 -4.614449e-01 -1.771595e+00 1.817463e-01 -2.156595e-01 -1.927983e-03 -7.163845e-01 5.353199e-01 -1.059590e-01 2.150829e+00 -5.225312e-01 1.881412e-01 -3.174016e-01 1.635459e-01 1.954738e-01 6.694888e-01 1.888471e-01 1.389312e-02 3.777916e-01 1.401680e-01 5.693335e-02 1.330741e-01 -2.572122e-01
<VARIANCE> 39
 1.543224e+01 3.545133e+01 1.186948e+01 2.933554e+01 2.466843e+01 4.132518e+01 2.304172e+01 2.419848e+01 1.737185e+01 1.998317e+01 9.602267e+00 1.805727e+01 2.513774e+01 2.444837e+00 2.792372e+00 1.681334e+00 1.929076e+00 1.781168e+00 8.386156e+00 1.912035e+00 1.935157e+00 2.609190e+00 2.394750e+00 9.318643e-01 9.726791e-01 2.179520e+00 3.603866e-01 6.197347e-01 2.648573e-01 3.759488e-01 3.227650e-01 1.248996e+00 3.721302e-01 3.186895e-01 4.023529e-01 3.869076e-01 2.118383e-01 1.833753e-01 3.647241e-01
<GCONST> 1.079745e+02
<TRANSP> 5
 0.000000e+00 1.000000e+00 0.000000e+00 0.000000e+00 0.000000e+00
 0.000000e+00 3.236857e-01 6.763143e-01 0.000000e+00 0.000000e+00
 0.000000e+00 0.000000e+00 6.535100e-01 3.464899e-01 0.000000e+00
 0.000000e+00 0.000000e+00 0.000000e+00 6.952953e-01 3.047048e-01
 0.000000e+00 0.000000e+00 0.000000e+00 0.000000e+00 0.000000e+00
<ENDHMM>
~h "AI"
<BEGINHMM>
<NUMSTATES> 5
<STATE> 2
<MEAN> 39
 2.504224e+00 -3.693316e+00 1.080593e+01 8.537134e+00 -4.690452e+00 -1.120986e+01 -6.265087e+00 -5.114258e+00 1.005221e+01 1.803602e+00 -4.509527e+00 -6.263714e+00 5.910802e+01 3.778874e-01 -5.131257e-01 -3.190971e-01 -1.068269e+00 3.081668e-01 3.024988e-01 -4.391565e-01 1.869235e-01 2.456108e-02 6.937979e-01 1.964486e-01 -8.786279e-01 1.297032e+00 -3.176900e-01 -3.037367e-01 -5.329208e-01 -6.332590e-01 2.911809e-01 5.623084e-01 2.703898e-01 3.530741e-01 -1.333431e-01 8.422497e-03 8.087210e-02 9.323590e-02 -5.036180e-03
<VARIANCE> 39
 3.806639e+00 8.820648e+00 9.316788e+00 1.778387e+01 2.329087e+01 8.085436e+00 9.983869e+00 1.457417e+01 1.023486e+01 1.259951e+01 1.022380e+01 2.201174e+01 6.875136e+00 1.412425e+00 1.577093e+00 3.819935e+00 6.918341e+00 2.269178e+00 2.803283e+00 1.376055e+00 2.274299e+00 1.355049e+00 6.845004e-01 8.038770e-01 1.258774e+00 1.835131e+00 2.157072e-01 1.827107e-01 3.731929e-01 6.869344e-01 2.723030e-01 3.726171e-01 3.561585e-01 3.963063e-01 2.330470e-01 1.819237e-01 2.934484e-01 2.317473e-01 3.148919e-01
<GCONST> 9.448808e+01
<STATE> 3
<MEAN> 39
 1.256451e+00 -1.646688e+01 -2.643143e+00 -1.303691e+01 3.775853e+00 4.510523e+00 -7.407524e+00 3.048959e+00 6.937678e+00 4.035573e+00 -5.690024e+00 -9.374495e+00 7.153968e+01 3.509554e-02 -1.987028e+00 -1.257015e+00 -1.801188e+00 3.844682e-01 2.401884e+00 1.862415e-01 5.385923e-01 -6.059915e-01 -4.065823e-01 -4.525508e-01 6.133527e-01 1.157108e+00 5.261907e-02 3.041831e-01 5.577248e-01 8.128995e-01 -2.975213e-01 -4.184874e-01 8.112814e-04 -5.542871e-01 6.565091e-02 4.711044e-03 -3.111084e-03 2.135251e-01 -4.361857e-01
<VARIANCE> 39
 2.429608e+00 1.723307e+01 9.940686e+00 1.440192e+01 5.266445e+00 3.699551e+01 1.037285e+01 1.041456e+01 8.210377e+00 3.484975e+00 1.302319e+01 1.175914e+01 4.906250e+00 2.462154e-01 1.294640e+00 2.819618e+00 5.209201e+00 1.311021e+00 2.824609e+00 7.855633e-01 3.967119e+00 6.468598e-01 3.907777e-01 1.002038e+00 9.892322e-01 1.653529e+00 4.022866e-02 1.721640e-01 2.634358e-01 5.625187e-01 1.703833e-01 3.455430e-01 1.795531e-01 4.781094e-01 1.160741e-01 9.770745e-02 2.015200e-01 2.023392e-01 1.550820e-01
<GCONST> 8.170242e+01
<STATE> 4
<MEAN> 39
 1.216497e+00 -1.862800e+01 6.847047e+00 -1.056144e+01 -4.430677e+00 1.089661e+00 -4.723714e+00 4.913720e+00 5.548936e+00 -1.555781e+00 -4.292824e+00 -4.185191e+00 6.939954e+01 -4.235127e-02 5.619835e-01 5.308896e-01 3.702609e-01 -3.437740e-01 -6.043994e-01 4.346374e-02 3.158202e-02 -1.320396e-02 -3.622338e-01 2.019334e-01 -2.509181e-02 -5.218199e-01 -2.508890e-03 1.110216e-01 -3.845023e-02 8.239204e-02 5.715907e-02 -5.542789e-02 3.436011e-02 -3.585030e-02 -9.758624e-03 3.703264e-03 -2.714822e-02 -3.328767e-02 -6.783516e-02
<VARIANCE> 39
 3.009928e+00 4.533881e+01 6.671742e+01 2.861235e+01 5.550097e+01 5.236292e+01 1.992044e+01 3.445401e+01 1.303189e+01 2.591913e+01 4.643388e+01 1.413428e+01 2.400317e+01 1.940456e-01 1.609680e+00 2.310069e+00 2.159294e+00 2.763306e+00 2.107417e+00 2.186342e+00 3.454132e+00 1.002365e+00 9.571307e-01 3.291448e+00 1.156024e+00 6.988907e-01 2.860887e-02 1.636097e-01 2.712782e-01 3.893628e-01 3.163991e-01 3.726576e-01 4.432250e-01 4.923145e-01 1.973176e-01 1.793138e-01 4.446430e-01 2.181928e-01 9.161888e-02
<GCONST> 9.996761e+01
<TRANSP> 5
 0.000000e+00 1.000000e+00 0.000000e+00 0.000000e+00 0.000000e+00
 0.000000e+00 9.030633e-01 9.693674e-02 0.000000e+00 0.000000e+00
 0.000000e+00 0.000000e+00 8.416584e-01 1.583416e-01 0.000000e+00
 0.000000e+00 0.000000e+00 0.000000e+00 9.594275e-01 4.057247e-02
 0.000000e+00 0.000000e+00 0.000000e+00 0.000000e+00 0.000000e+00
<ENDHMM>
~h "O:"
<BEGINHMM>
<NUMSTATES> 5
<STATE> 2
<MEAN> 39
 -8.098262e+00 -4.521949e+00 -5.671422e+00 -9.241721e+00 -7.666243e+00 -2.596409e+00 -4.875417e-01 -1.088027e-01 2.869375e+00 -2.316111e+00 6.495853e+00 -1.452320e+00 6.062797e+01 3.773556e+00 7.161972e-01 2.130282e-01 -1.798144e+00 -2.073901e+00 -4.283607e-01 7.153907e-01 -4.258685e-02 -8.985958e-01 -8.654471e-01 1.877518e-01 -6.540917e-02 8.288751e-01 2.312729e-01 -3.706450e-02 -1.988487e-02 8.867019e-02 -5.325930e-02 -2.430740e-03 1.870332e-01 3.080299e-01 -6.113772e-03 -7.517758e-02 1.571936e-01 5.461361e-02 -4.175161e-03
<VARIANCE> 39
 1.256577e+02 1.522920e+01 1.308363e+01 3.486137e+01 5.195087e+01 1.313267e+01 1.522501e+01 1.480077e+01 1.749129e+01 1.566134e+01 1.111167e+01 1.124934e+01 9.840255e+00 6.081546e+00 1.836217e+00 1.499308e+00 2.007952e+00 3.080152e+00 1.370678e+00 2.131515e+00 2.252248e+00 1.974108e+00 1.091703e+00 1.773075e+00 1.358570e+00 3.493616e-01 1.642766e+00 4.669263e-01 3.716671e-01 4.936323e-01 8.600744e-01 2.364983e-01 4.267209e-01 4.532397e-01 4.999128e-01 2.831558e-01 3.380625e-01 2.929241e-01 7.216059e-02
<GCONST> 1.050542e+02
<STATE> 3
<MEAN> 39
 1.109523e+01 -4.068857e+00 -1.171307e+01 -1.554797e+01 -1.060417e+01 -5.665624e+00 -2.231023e+00 7.848366e+00 6.303600e+00 -6.374202e+00 8.838623e+00 2.321520e-01 6.444944e+01 4.249079e-01 -1.782639e-01 -9.251540e-01 -1.262646e-01 9.023392e-01 -1.771069e-02 -9.544713e-01 4.519193e-01 7.355741e-01 3.463771e-01 -3.978848e-01 -9.561562e-02 -3.280383e-02 -1.890067e-01 4.320741e-02 -4.239385e-03 2.632791e-02 1.544637e-01 1.060717e-01 -1.124462e-01 -2.006968e-01 -1.338228e-02 1.507791e-01 -1.376537e-01 -8.320615e-02 -8.848676e-02
<VARIANCE> 39
 4.781837e+00 8.418983e+00 3.414511e+01 9.008843e+00 3.406426e+01 1.758955e+01 4.405274e+01 4.028107e+01 4.677959e+01 2.256627e+01 2.380792e+01 3.054078e+01 5.404942e+00 5.982081e-01 5.227501e-01 7.621812e-01 6.712924e-01 1.426440e+00 1.234861e+00 1.660601e+00 2.242317e+00 1.974428e+00 1.790405e+00 2.201349e+00 1.876533e+00 2.162309e-01 1.950340e-01 9.160423e-02 1.127816e-01 1.641059e-01 3.446496e-01 1.875687e-01 3.893694e-01 2.165846e-01 3.074150e-01 2.164198e-01 3.013739e-01 2.286554e-01 2.815114e-02
<GCONST> 8.923306e+01
<STATE> 4
<MEAN> 39
 5.179026e+00 -1.695038e+00 -1.089199e+01 -1.003736e+01 1.059674e+00 -4.316506e-01 -6.155580e-01 9.191393e-01 6.450825e+00 1.100861e+00 2.037549e+00 -1.610903e+00 5.539989e+01 -7.776535e-01 1.814412e-01 6.733062e-01 6.618851e-01 2.920610e-01 2.452522e-01 6.759022e-01 -2.935419e-01 -1.960876e-01 3.802281e-02 1.122825e-02 1.785357e-02 -6.506147e-01 -3.076896e-02 -2.252056e-02 4.431951e-02 3.096672e-02 -3.233321e-02 -3.658398e-02 -2.834015e-03 1.775913e-02 4.169690e-04 -3.029721e-02 4.635425e-02 3.686805e-02 3.185449e-03
<VARIANCE> 39
 6.390613e+01 9.593905e+00 6.284647e+01 4.504624e+01 1.562726e+01 1.386295e+01 6.101762e+01 2.413867e+01 1.765585e+01 2.788549e+01 1.569441e+01 9.426831e+00 4.242417e+01 6.551509e-01 3.814803e-01 1.159022e+00 1.039757e+00 1.382856e+00 1.228853e+00 2.270468e+00 1.425345e+00 1.413999e+00 1.522840e+00 1.656818e+00 1.176793e+00 3.668103e-01 8.105987e-02 7.908004e-02 1.278199e-01 1.679131e-01 2.898747e-01 2.493789e-01 4.720712e-01 2.669400e-01 2.870037e-01 2.733782e-01 3.239852e-01 2.413935e-01 3.466157e-02
<GCONST> 9.255209e+01
<TRANSP> 5
 0.000000e+00 1.000000e+00 0.000000e+00 0.000000e+00 0.000000e+00
 0.000000e+00 8.610138e-01 1.389862e-01 0.000000e+00 0.000000e+00
 0.000000e+00 0.000000e+00 9.226936e-01 7.730645e-02 0.000000e+00
 0.000000e+00 0.000000e+00 0.000000e+00 9.601888e-01 3.981121e-02
 0.000000e+00 0.000000e+00 0.000000e+00 0.000000e+00 0.000000e+00
<ENDHMM>
~h "aI"
<BEGINHMM>
<NUMSTATES> 5
<STATE> 2
<MEAN> 39
 -1.983859e+01 -7.399549e+00 -5.687612e-01 7.615179e-01 2.782084e+00 -1.244719e-02 4.136864e+00 4.859749e+00 7.933537e+00 1.402805e+00 4.835978e+00 -1.221587e+00 5.357447e+01 6.589297e-02 -4.061395e-01 -6.324349e-01 -5.862221e-01 -2.561289e-01 -2.332214e-01 -6.474969e-02 -7.901488e-02 -1.736701e-01 -7.342397e-03 1.177664e-01 7.691146e-02 6.313816e-01 5.146942e-01 -1.471112e-02 -7.186185e-02 -2.910934e-01 -9.712380e-02 2.865853e-02 -6.352703e-02 -8.679237e-02 -1.565631e-01 -5.600756e-02 1.454279e-01 -6.325162e-02 5.145401e-02
<VARIANCE> 39
 1.912691e+01 8.179300e+00 9.942071e+00 1.033445e+01 1.374388e+01 1.156761e+01 1.719362e+01 1.087797e+01 1.528632e+01 1.207615e+01 8.152889e+00 1.368856e+01 3.317514e+01 1.374796e+00 8.882634e-01 4.923300e-01 9.136394e-01 1.251355e+00 1.697514e+00 1.770490e+00 1.266882e+00 1.560426e+00 1.304631e+00 9.040200e-01 1.418224e+00 5.731792e-01 5.789573e-01 1.835382e-01 6.859982e-02 3.229366e-01 2.633290e-01 3.259007e-01 3.422617e-01 2.511002e-01 3.110039e-01 2.038360e-01 2.078570e-01 2.868566e-01 8.059333e-02
<GCONST> 8.740447e+01
<STATE> 3
<MEAN> 39
 -1.827021e+00 -1.079471e+01 -5.996883e+00 -1.550433e+01 -3.859272e+00 1.900071e+00 -5.276158e-01 6.702082e+00 -1.450453e+00 1.232918e+00 9.941902e+00 -5.689273e+00 6.410990e+01 4.239777e+00 -9.465064e-01 -1.708480e-01 -3.351119e+00 -5.714098e-01 1.898788e+00 -7.142221e-01 1.397245e+00 -1.845288e+00 1.753105e-01 9.935447e-01 -1.994967e+00 1.924425e+00 -5.822656e-01 -1.702364e-01 1.935417e-01 3.411488e-01 2.330921e-01 3.051853e-01 9.889533e-02 2.697827e-01 2.670480e-01 5.311931e-02 -2.284891e-01 -1.094092e-01 -6.169504e-02
<VARIANCE> 39
 1.260237e+02 1.424790e+01 4.616478e+00 7.014505e+01 1.933311e+01 3.441413e+01 1.283993e+01 3.021088e+01 3.683960e+01 1.251254e+01 1.407778e+01 3.258578e+01 3.159887e+01 9.295762e+00 1.433226e+00 6.372754e-01 3.482967e+00 2.572083e+00 2.125890e+00 2.103433e+00 3.663716e+00 2.895933e+00 9.293770e-01 1.621258e+00 1.558176e+00 1.393797e+00 2.248607e+00 2.142884e-01 9.497152e-02 1.256770e+00 5.176881e-01 6.492440e-01 3.929864e-01 9.120865e-01 8.447759e-01 2.445531e-01 4.040773e-01 6.405003e-01 5.186433e-01
<GCONST> 1.139457e+02
<STATE> 4
<MEAN> 39
 5.789605e+00 -2.115164e+01 -4.111368e+00 -2.070817e+01 -3.039913e+00 9.940198e+00 -3.224615e+00 1.054834e+01 -2.566290e-01 1.112375e-01 8.471508e+00 -1.308018e+01 7.053775e+01 -2.036027e-01 -7.034432e-01 4.063874e-01 6.535353e-01 -5.220716e-02 -7.972984e-01 -1.746240e-01 1.730974e-01 9.763142e-01 -1.690254e-01 -5.789862e-01 5.103267e-02 8.175398e-02 -4.349818e-02 1.014048e-01 7.771851e-02 9.219000e-02 -1.237086e-01 -3.683802e-01 -1.718129e-02 1.294768e-01 1.143134e-02 -2.973992e-02 1.182133e-02 1.516324e-01 -3.069855e-02
<VARIANCE> 39
 2.387945e+00 1.615847e+01 7.700488e+00 1.822644e+01 8.001422e+00 1.633679e+01 8.691314e+00 1.057140e+01 3.307515e+01 5.983099e+00 9.798846e+00 9.987584e+00 7.625065e+00 1.475506e-01 3.183364e-01 5.766641e-01 7.647169e-01 9.384534e-01 2.885170e+00 6.118789e-01 1.863887e+00 7.473245e-01 4.071663e-01 8.544407e-01 6.091883e-01 1.043604e-01 2.921437e-02 6.604879e-02 8.453205e-02 1.369400e-01 1.724973e-01 9.979181e-02 1.198317e-01 2.927625e-01 1.327570e-01 7.299491e-02 1.533548e-01 1.164573e-01 2.201359e-02
<GCONST> 6.411911e+01
<TRANSP> 5
 0.000000e+00 1.000000e+00 0.000000e+00 0.000000e+00 0.000000e+00
 0.000000e+00 8.496862e-01 1.503138e-01 0.000000e+00 0.000000e+00
 0.000000e+00 0.000000e+00 8.371927e-01 1.628073e-01 0.000000e+00
 0.000000e+00 0.000000e+00 0.000000e+00 9.314390e-01 6.856104e-02
 0.000000e+00 0.000000e+00 0.000000e+00 0.000000e+00 0.000000e+00
<ENDHMM>
~h "eI"
<BEGINHMM>
<NUMSTATES> 5
<STATE> 2
<MEAN> 39
 -1.125609e+01 -2.020906e+00 2.557106e+00 2.425600e+00 3.538221e+00 1.143650e-01 6.822850e+00 -6.646685e-01 5.253550e+00 7.506064e-01 1.908653e+00 -1.993831e+00 4.363070e+01 -1.209939e-01 -1.179611e-01 6.279123e-02 7.983065e-02 7.892708e-02 1.104040e-01 1.248652e-01 4.922395e-02 1.002478e-01 6.176270e-02 1.870029e-02 3.303516e-02 -1.218980e-01 1.428199e-02 -2.540170e-02 6.831515e-02 -6.644588e-02 -5.329288e-02 -6.786017e-03 -1.382291e-02 1.583657e-02 -7.605350e-02 -2.883847e-02 -8.771038e-03 -1.222561e-02 7.557265e-02
<VARIANCE> 39
 3.949333e+00 3.789624e+00 5.052952e+00 6.629584e+00 9.368047e+00 1.456198e+01 1.797798e+01 1.456985e+01 1.316026e+01 1.106779e+01 1.095447e+01 1.209756e+01 4.449191e+00 1.498234e-01 3.652952e-01 4.448533e-01 5.884069e-01 7.454587e-01 1.089352e+00 1.604361e+00 1.231764e+00 1.056371e+00 1.199507e+00 1.389073e+00 1.155118e+00 1.574119e-01 3.481784e-02 8.027893e-02 1.629684e-01 1.472726e-01 1.691190e-01 2.131193e-01 3.817219e-01 2.514751e-01 2.500264e-01 2.190055e-01 2.763729e-01 2.440336e-01 4.250043e-02
<GCONST> 7.079145e+01
<STATE> 3
<MEAN> 39
 -1.217288e+01 -4.187320e+00 2.299784e+00 2.429834e+00 2.939160e+00 6.412800e-01 7.015844e+00 3.829251e-01 5.017988e+00 8.577587e-01 1.985666e+00 -1.180525e+00 4.502649e+01 6.128698e-01 -1.264241e+00 3.142738e+00 -3.506734e+00 -2.545163e+00 -1.128585e+00 -1.420582e+00 1.202063e+00 -2.011891e+00 7.283056e-01 9.176183e-02 -6.739910e-01 3.149848e+00 4.024465e-01 -5.999021e-01 1.686276e+00 -1.922495e+00 -1.502751e+00 -6.605206e-01 -9.343981e-01 3.797396e-01 -6.621101e-01 4.802696e-01 4.061671e-01 -2.990185e-01 1.768470e+00
<VARIANCE> 39
 9.118011e+00 1.335057e+01 6.961498e+00 1.044942e+01 1.030429e+01 1.203284e+01 1.024159e+01 1.393164e+01 1.074409e+01 1.410889e+01 1.375054e+01 1.161670e+01 1.522658e+01 7.282262e-01 1.760193e+00 6.708149e+00 1.026620e+01 5.257619e+00 2.775588e+00 2.036252e+00 1.943630e+00 2.548027e+00 1.367871e+00 1.471419e+00 1.335252e+00 7.058604e+00 1.388780e-01 2.254106e-01 2.042786e-01 3.194788e-01 2.222042e-01 3.065403e-01 2.432018e-01 4.568757e-01 3.153183e-01 2.925615e-01 3.864884e-01 2.039755e-01 2.306819e-01
<GCONST> 9.831187e+01
<STATE> 4
<MEAN> 39
 -7.159681e+00 -6.998469e+00 3.098401e+01 -2.043278e+01 -1.577064e+01 -4.365586e+00 -1.136489e+01 1.380009e-01 -3.608557e+00 2.274045e+00 7.727702e+00 -6.945217e+00 6.831787e+01 8.568641e-02 4.326556e-01 7.690490e-01 -2.361044e-01 -1.927775e-01 -1.153133e-01 -5.198893e-01 -1.065519e-01 -2.602653e-01 -2.608402e-01 1.415483e-01 -3.223923e-01 2.757403e-01 -3.711955e-02 1.381174e-01 -3.459730e-01 3.776950e-01 2.335453e-01 1.039701e-01 2.105863e-01 -1.346270e-01 1.739246e-01 -8.516981e-02 -9.244250e-02 5.141688e-02 -3.375932e-01
<VARIANCE> 39
 3.030097e+00 2.332450e+01 2.647311e+01 9.966114e+00 1.877636e+01 1.730137e+01 2.381407e+01 2.622835e+01 1.885519e+01 2.359112e+01 1.054905e+01 1.627241e+01 1.973085e+01 4.957441e-01 1.306032e+00 4.782648e+00 5.109293e+00 4.006661e+00 1.426893e+00 2.814051e+00 1.967282e+00 1.481550e+00 1.173303e+00 1.516075e+00 7.345384e-01 5.239696e+00 6.081397e-02 1.459217e-01 3.544989e-01 5.733306e-01 3.329442e-01 2.637265e-01 2.890959e-01 3.485559e-01 3.084171e-01 1.471890e-01 2.321325e-01 1.375247e-01 3.691570e-01
<GCONST> 9.791055e+01
<TRANSP> 5
 0.000000e+00 1.000000e+00 0.000000e+00 0.000000e+00 0.000000e+00
 0.000000e+00 9.269253e-01 7.307473e-02 0.000000e+00 0.000000e+00
 0.000000e+00 0.000000e+00 6.458067e-01 3.541932e-01 0.000000e+00
 0.000000e+00 0.000000e+00 0.000000e+00 9.572065e-01 4.279348e-02
 0.000000e+00 0.000000e+00 0.000000e+00 0.000000e+00 0.000000e+00
<ENDHMM>
~h "eh"
<BEGINHMM>
<NUMSTATES> 5
<STATE> 2
<MEAN> 39
 4.207150e+00 -8.738877e+00 7.029480e-01 -7.611132e+00 1.848123e+00 -1.846583e+00 -9.384499e+00 1.917338e-01 5.233341e+00 -5.450068e-01 -7.700277e-02 -1.010014e+01 6.355944e+01 -1.333141e-01 1.110904e+00 7.479483e-01 1.830129e+00 -3.630806e-01 -8.411837e-01 -3.157703e-02 -1.516788e+00 2.005512e-01 -5.125588e-01 -6.162596e-01 5.461916e-01 -1.008746e+00 -6.093103e-02 -1.482464e-02 -2.288415e-02 -8.833645e-02 -1.529439e-01 3.349139e-01 1.259836e-02 -1.964167e-02 4.598118e-02 -1.701128e-01 1.596269e-01 9.235074e-02 6.832157e-02
<VARIANCE> 39
 5.889406e+00 1.387168e+01 4.711316e+01 6.109393e+01 2.539828e+01 3.823566e+01 2.131177e+01 3.690805e+01 3.265127e+01 1.748804e+01 1.776901e+01 1.345723e+01 2.343253e+01 3.982381e-01 6.669740e-01 1.211352e+00 1.490813e+00 1.925114e+00 3.513505e+00 1.845721e+00 3.295424e+00 2.066990e+00 1.678401e+00 1.461728e+00 9.401929e-01 5.005882e-01 8.471275e-02 1.190935e-01 2.702878e-01 3.209423e-01 4.394600e-01 5.472117e-01 3.485336e-01 8.782356e-01 4.237767e-01 2.671114e-01 2.433512e-01 2.058039e-01 1.134799e-01
<GCONST> 9.942314e+01
<STATE> 3
<MEAN> 39
 2.427016e+00 -3.232434e+00 6.385802e+00 1.315466e+00 -5.523094e-01 -6.203970e+00 -1.182183e+01 -4.259831e+00 8.828091e+00 -4.801626e+00 -1.833496e+00 -6.178951e+00 5.945279e+01 -3.174838e-01 6.215816e-01 -1.961474e-01 -6.606928e-02 1.071020e+00 -1.222591e-01 6.249580e-02 3.811265e-01 -7.788216e-01 -1.383558e-01 -4.226320e-02 1.693069e-01 -4.223273e-01 -4.287267e-02 -4.654691e-02 -7.571070e-02 -3.042317e-01 3.102360e-01 4.808138e-02 2.155611e-01 2.825254e-01 -3.028116e-01 1.174697e-01 -7.561283e-02 -1.136717e-01 -2.506067e-02
<VARIANCE> 39
 2.253010e+00 1.017782e+01 1.674172e+01 1.480843e+01 2.142539e+01 1.364224e+01 2.732447e+01 2.121500e+01 2.463842e+01 2.163829e+01 2.033621e+01 1.624925e+01 1.222315e+01 3.161000e-01 5.769364e-01 7.745675e-01 1.821272e+00 1.520672e+00 1.409754e+00 1.475021e+00 2.585087e+00 2.219764e+00 1.326799e+00 2.176180e+00 9.701285e-01 2.154684e-01 5.554820e-02 1.377769e-01 1.562705e-01 2.839254e-01 2.154647e-01 2.663108e-01 3.016126e-01 4.648185e-01 2.966903e-01 2.112102e-01 3.522792e-01 1.758476e-01 5.451220e-02
<GCONST> 8.671008e+01
<STATE> 4
<MEAN> 39
 1.132668e-01 1.863502e-01 3.647160e+00 -3.261427e+00 8.164712e+00 -6.537315e+00 -7.809649e+00 -1.019315e+00 -1.346035e+00 -4.559139e+00 -5.003549e+00 -8.044744e+00 5.490254e+01 -5.567420e-01 4.822618e-01 -6.166553e-02 3.966414e-01 1.349824e-01 5.112619e-01 1.463894e+00 -4.621097e-01 -4.389828e-01 -1.821865e-01 -4.102812e-01 -2.651186e-02 -1.098353e+00 -5.895054e-02 -8.485464e-02 9.657262e-02 3.011880e-01 -3.934324e-01 8.599423e-02 4.269410e-02 -2.703870e-01 3.344226e-01 -3.566457e-02 1.317358e-01 9.365618e-02 -1.761291e-02
<VARIANCE> 39
 4.775744e+00 9.081556e+00 1.516346e+01 2.503866e+01 2.546639e+01 2.972076e+01 3.684556e+01 4.682165e+01 3.104737e+01 3.005688e+01 1.730149e+01 9.802323e+00 1.863981e+01 6.120251e-01 1.016621e+00 1.502893e+00 3.831189e+00 3.846967e+00 1.786770e+00 2.032116e+00 6.405160e+00 2.522356e+00 1.802224e+00 1.547482e+00 1.507185e+00 5.976294e-01 1.136084e-01 1.901320e-01 2.660428e-01 5.972279e-01 5.922177e-01 2.422813e-01 4.209182e-01 1.375169e+00 4.323240e-01 3.647119e-01 3.907586e-01 2.927115e-01 1.029341e-01
<GCONST> 1.035302e+02
<TRANSP> 5
 0.000000e+00 1.000000e+00 0.000000e+00 0.000000e+00 0.000000e+00
 0.000000e+00 7.605603e-01 2.394397e-01 0.000000e+00 0.000000e+00
 0.000000e+00 0.000000e+00 8.294510e-01 1.705490e-01 0.000000e+00
 0.000000e+00 0.000000e+00 0.000000e+00 8.143282e-01 1.856718e-01
 0.000000e+00 0.000000e+00 0.000000e+00 0.000000e+00 0.000000e+00
<ENDHMM>
~h "sil"
<BEGINHMM>
<NUMSTATES> 5
<STATE> 2
<MEAN> 39
 -1.094083e+01 -2.728171e+00 2.002996e+00 1.938713e+00 3.046123e+00 2.339664e-03 6.070934e+00 3.214756e-01 5.696781e+00 2.878170e-01 2.050417e+00 -1.862273e+00 4.352649e+01 -4.043110e-02 -5.562637e-03 1.796786e-02 3.020473e-02 2.646406e-03 2.104777e-02 1.063429e-02 1.896234e-02 2.398380e-02 3.707185e-02 1.089630e-02 8.556336e-03 -5.492199e-02 2.049041e-03 -1.725750e-03 5.003638e-04 -1.232392e-02 -5.184854e-03 -5.560432e-03 -2.485422e-04 9.585274e-04 -4.391211e-04 -7.189501e-03 -8.676742e-03 -1.628071e-03 1.053409e-02
<VARIANCE> 39
 3.906140e+00 5.293754e+00 8.649570e+00 1.088107e+01 1.044347e+01 1.229150e+01 1.312813e+01 1.542977e+01 1.361891e+01 1.376686e+01 1.346613e+01 1.136929e+01 6.052413e+00 1.748727e-01 3.120144e-01 5.067080e-01 7.369571e-01 9.214712e-01 1.074633e+00 1.292071e+00 1.295655e+00 1.369069e+00 1.280323e+00 1.366726e+00 1.126822e+00 1.064139e-01 3.009817e-02 5.866227e-02 9.291916e-02 1.441405e-01 1.802907e-01 2.169053e-01 2.571408e-01 2.425250e-01 2.667549e-01 2.408898e-01 2.727081e-01 2.268839e-01 1.707235e-02
<GCONST> 7.058037e+01
<STATE> 3
<MEAN> 39
 -1.210671e+01 -4.658297e+00 1.124038e+00 5.944639e-01 2.288474e+00 -1.444235e+00 5.848434e+00 2.058886e+00 5.446673e+00 -1.952703e-01 2.547178e+00 -1.261364e+00 4.535442e+01 1.302801e-02 -4.770811e-02 -6.830482e-02 -4.091238e-02 -7.938153e-02 -2.613143e-03 4.370139e-03 1.013869e-02 4.841732e-02 4.956840e-02 5.821858e-02 2.918400e-02 3.833913e-02 9.396795e-03 -4.244351e-02 -8.109407e-03 -5.443731e-02 -9.893102e-04 1.772041e-02 1.000762e-02 -2.767495e-02 -3.612988e-02 1.596691e-03 1.966065e-02 -2.599472e-02 9.033690e-02
<VARIANCE> 39
 4.864202e+00 1.081531e+01 1.097112e+01 1.244098e+01 1.129902e+01 1.925644e+01 1.324541e+01 2.425850e+01 1.528374e+01 1.460820e+01 1.186335e+01 1.235512e+01 9.228390e+00 3.553391e-01 6.583574e-01 7.207985e-01 1.045425e+00 1.067262e+00 1.462122e+00 1.490411e+00 1.292943e+00 1.651974e+00 1.367022e+00 1.117342e+00 1.272838e+00 4.157639e-01 7.302926e-02 1.565779e-01 1.501153e-01 2.227306e-01 1.985205e-01 3.126636e-01 3.361491e-01 2.763117e-01 3.489058e-01 2.631043e-01 2.147993e-01 2.737664e-01 1.299223e-01
<GCONST> 8.369630e+01
<STATE> 4
<MEAN> 39
 -1.072661e+01 -5.648810e+00 2.615198e-01 -1.925992e+00 2.135836e+00 -3.872279e-01 5.645370e+00 -3.762425e-01 3.937113e+00 -1.022706e+00 1.908961e+00 -1.783435e+00 4.870455e+01 4.064835e-02 -5.876872e-02 4.033935e-03 -3.413643e-02 6.779643e-02 -3.373924e-03 -7.362062e-02 -7.217314e-02 -1.715767e-01 -1.193038e-01 -3.048110e-02 -7.498307e-02 2.077243e-01 6.523290e-03 8.575360e-02 -1.101700e-02 8.399258e-02 3.903713e-03 -2.310710e-02 -2.442041e-02 2.698916e-02 -6.116465e-03 -9.366165e-03 -7.629593e-03 5.317842e-03 -8.174608e-02
<VARIANCE> 39
 9.547275e+00 2.072137e+01 1.983459e+01 2.348982e+01 1.485639e+01 1.650335e+01 2.461140e+01 1.960374e+01 2.360367e+01 1.849655e+01 1.352605e+01 1.027798e+01 2.367167e+01 7.316967e-01 2.367160e+00 1.048063e+00 2.884242e+00 1.146954e+00 1.731406e+00 2.563710e+00 1.919257e+00 2.354254e+00 1.784315e+00 1.525858e+00 1.269445e+00 3.361411e+00 1.251383e-01 4.408724e-01 1.798898e-01 5.238004e-01 2.185009e-01 3.424107e-01 4.872735e-01 3.399875e-01 4.718096e-01 3.341417e-01 3.062040e-01 2.439677e-01 5.646220e-01
<GCONST> 1.015481e+02
<TRANSP> 5
 0.000000e+00 1.000000e+00 0.000000e+00 0.000000e+00 0.000000e+00
 0.000000e+00 9.756324e-01 2.436757e-02 0.000000e+00 0.000000e+00
 0.000000e+00 0.000000e+00 9.085007e-01 9.149921e-02 0.000000e+00
 0.000000e+00 0.000000e+00 0.000000e+00 8.930008e-01 1.069992e-01
 0.000000e+00 0.000000e+00 0.000000e+00 0.000000e+00 0.000000e+00
<ENDHMM>
~h "sp"
<BEGINHMM>
<NUMSTATES> 3
<STATE> 2
<MEAN> 39
 -1.210671e+01 -4.658297e+00 1.124038e+00 5.944639e-01 2.288474e+00 -1.444235e+00 5.848434e+00 2.058886e+00 5.446673e+00 -1.952703e-01 2.547178e+00 -1.261364e+00 4.535442e+01 1.302801e-02 -4.770811e-02 -6.830482e-02 -4.091238e-02 -7.938153e-02 -2.613143e-03 4.370139e-03 1.013869e-02 4.841732e-02 4.956840e-02 5.821858e-02 2.918400e-02 3.833913e-02 9.396795e-03 -4.244351e-02 -8.109407e-03 -5.443731e-02 -9.893102e-04 1.772041e-02 1.000762e-02 -2.767495e-02 -3.612988e-02 1.596691e-03 1.966065e-02 -2.599472e-02 9.033690e-02
<VARIANCE> 39
 4.864202e+00 1.081531e+01 1.097112e+01 1.244098e+01 1.129902e+01 1.925644e+01 1.324541e+01 2.425850e+01 1.528374e+01 1.460820e+01 1.186335e+01 1.235512e+01 9.228390e+00 3.553391e-01 6.583574e-01 7.207985e-01 1.045425e+00 1.067262e+00 1.462122e+00 1.490411e+00 1.292943e+00 1.651974e+00 1.367022e+00 1.117342e+00 1.272838e+00 4.157639e-01 7.302926e-02 1.565779e-01 1.501153e-01 2.227306e-01 1.985205e-01 3.126636e-01 3.361491e-01 2.763117e-01 3.489058e-01 2.631043e-01 2.147993e-01 2.737664e-01 1.299223e-01
<GCONST> 8.369630e+01
<TRANSP> 3
 0.000000e+00 5.000000e-01 5.000000e-01
 0.000000e+00 5.000000e-01 5.000000e-01
 0.000000e+00 0.000000e+00 0.000000e+00
<ENDHMM>
